FANN_FLO_2.1
num_layers=4
learning_rate=0.700000
connection_rate=1.000000
network_type=0
learning_momentum=0.000000
training_algorithm=2
train_error_function=1
train_stop_function=0
cascade_output_change_fraction=0.010000
quickprop_decay=-0.000100
quickprop_mu=1.750000
rprop_increase_factor=1.200000
rprop_decrease_factor=0.500000
rprop_delta_min=0.000000
rprop_delta_max=50.000000
rprop_delta_zero=0.100000
cascade_output_stagnation_epochs=12
cascade_candidate_change_fraction=0.010000
cascade_candidate_stagnation_epochs=12
cascade_max_out_epochs=150
cascade_min_out_epochs=50
cascade_max_cand_epochs=150
cascade_min_cand_epochs=50
cascade_num_candidate_groups=2
bit_fail_limit=3.49999994039535522461e-01
cascade_candidate_limit=1.00000000000000000000e+03
cascade_weight_multiplier=4.00000005960464477539e-01
cascade_activation_functions_count=10
cascade_activation_functions=3 5 7 8 10 11 14 15 16 17 
cascade_activation_steepnesses_count=4
cascade_activation_steepnesses=2.50000000000000000000e-01 5.00000000000000000000e-01 7.50000000000000000000e-01 1.00000000000000000000e+00 
layer_sizes=13 9 9 9 
scale_included=0
neurons (num_inputs, activation_function, activation_steepness)=(0, 0, 0.00000000000000000000e+00) (0, 0, 0.00000000000000000000e+00) (0, 0, 0.00000000000000000000e+00) (0, 0, 0.00000000000000000000e+00) (0, 0, 0.00000000000000000000e+00) (0, 0, 0.00000000000000000000e+00) (0, 0, 0.00000000000000000000e+00) (0, 0, 0.00000000000000000000e+00) (0, 0, 0.00000000000000000000e+00) (0, 0, 0.00000000000000000000e+00) (0, 0, 0.00000000000000000000e+00) (0, 0, 0.00000000000000000000e+00) (0, 0, 0.00000000000000000000e+00) (13, 5, 5.00000000000000000000e-01) (13, 5, 5.00000000000000000000e-01) (13, 5, 5.00000000000000000000e-01) (13, 5, 5.00000000000000000000e-01) (13, 5, 5.00000000000000000000e-01) (13, 5, 5.00000000000000000000e-01) (13, 5, 5.00000000000000000000e-01) (13, 5, 5.00000000000000000000e-01) (0, 5, 0.00000000000000000000e+00) (9, 5, 5.00000000000000000000e-01) (9, 5, 5.00000000000000000000e-01) (9, 5, 5.00000000000000000000e-01) (9, 5, 5.00000000000000000000e-01) (9, 5, 5.00000000000000000000e-01) (9, 5, 5.00000000000000000000e-01) (9, 5, 5.00000000000000000000e-01) (9, 5, 5.00000000000000000000e-01) (0, 5, 0.00000000000000000000e+00) (9, 5, 5.00000000000000000000e-01) (9, 5, 5.00000000000000000000e-01) (9, 5, 5.00000000000000000000e-01) (9, 5, 5.00000000000000000000e-01) (9, 5, 5.00000000000000000000e-01) (9, 5, 5.00000000000000000000e-01) (9, 5, 5.00000000000000000000e-01) (9, 5, 5.00000000000000000000e-01) (0, 5, 0.00000000000000000000e+00) 
connections (connected_to_neuron, weight)=(0, 1.79840818047523498535e-01) (1, 2.25143522024154663086e-01) (2, 1.21600583195686340332e-01) (3, 4.11324203014373779297e-01) (4, 2.44829878211021423340e-01) (5, 7.70734697580337524414e-02) (6, 2.09159523248672485352e-01) (7, 2.80300438404083251953e-01) (8, 2.39482954144477844238e-01) (9, 2.75803834199905395508e-01) (10, -1.25734758377075195312e+00) (11, 6.99550330638885498047e-01) (12, 2.88735330104827880859e-03) (0, 2.70207487046718597412e-02) (1, -3.93321588635444641113e-02) (2, -4.81891408562660217285e-02) (3, 3.14857512712478637695e-01) (4, -1.54338926076889038086e-01) (5, -5.70449568331241607666e-02) (6, -1.55604630708694458008e-01) (7, -1.86154037714004516602e-01) (8, -1.62108838558197021484e-01) (9, 3.98552983999252319336e-01) (10, 7.77437806129455566406e-01) (11, -3.92466157674789428711e-01) (12, -4.28586661815643310547e-01) (0, 1.75001978874206542969e-01) (1, 1.93622261285781860352e-01) (2, 1.25796109437942504883e-01) (3, 1.65798127651214599609e-01) (4, -1.49494260549545288086e-02) (5, 1.12666398286819458008e-01) (6, 2.82084852457046508789e-01) (7, 2.75130182504653930664e-01) (8, -1.00691422820091247559e-01) (9, -9.51923191547393798828e-01) (10, 7.42949008941650390625e-01) (11, -5.96246838569641113281e-01) (12, -1.03393539786338806152e-01) (0, 3.52928757667541503906e-01) (1, 3.14172357320785522461e-01) (2, 3.51026386022567749023e-01) (3, 4.94047701358795166016e-01) (4, 4.34165835380554199219e-01) (5, -1.41318947076797485352e-01) (6, 8.34503054618835449219e-01) (7, 6.37898296117782592773e-02) (8, 2.69625127315521240234e-01) (9, -5.00688612461090087891e-01) (10, -7.80765831470489501953e-01) (11, 6.08601748943328857422e-01) (12, 3.01331669092178344727e-01) (0, -1.95490837097167968750e-01) (1, 1.76459088921546936035e-01) (2, -1.00883975625038146973e-01) (3, 3.73460084199905395508e-01) (4, 2.67016559839248657227e-01) (5, 1.51679635047912597656e-01) (6, 4.35563921928405761719e-01) (7, 3.34765285253524780273e-01) (8, 5.64577937126159667969e-01) (9, -2.21845149993896484375e+00) (10, 1.27567425370216369629e-01) (11, 3.28460812568664550781e-01) (12, 5.86196780204772949219e-01) (0, 2.45236039161682128906e-01) (1, 2.15660512447357177734e-01) (2, 6.83413147926330566406e-02) (3, -1.37336850166320800781e-02) (4, 2.61173993349075317383e-01) (5, 6.58085346221923828125e-02) (6, 9.21297669410705566406e-02) (7, 8.62952172756195068359e-02) (8, 5.97051858901977539062e-01) (9, -2.28496146202087402344e+00) (10, 4.91536617279052734375e-01) (11, 1.07228308916091918945e-01) (12, 4.59229826927185058594e-01) (0, 3.53982895612716674805e-01) (1, 1.25314906239509582520e-01) (2, -8.24786722660064697266e-03) (3, 1.89171269536018371582e-01) (4, -1.87444776296615600586e-01) (5, 2.90775179862976074219e-01) (6, 2.73207575082778930664e-02) (7, 2.46047839522361755371e-01) (8, 2.61548906564712524414e-02) (9, -7.25902438163757324219e-01) (10, 1.17994621396064758301e-01) (11, -2.59942591190338134766e-01) (12, 1.41698256134986877441e-01) (0, 2.49264359474182128906e-01) (1, 3.22851911187171936035e-02) (2, 4.14318144321441650391e-02) (3, 1.66650772094726562500e-01) (4, 4.06422853469848632812e-01) (5, 1.16491079330444335938e-01) (6, -2.16221153736114501953e-01) (7, 4.81109954416751861572e-02) (8, -1.97755247354507446289e-01) (9, -8.91926735639572143555e-02) (10, 1.89313840866088867188e+00) (11, -1.04037833213806152344e+00) (12, 1.88695266842842102051e-01) (13, 8.84651988744735717773e-02) (14, 2.09733337163925170898e-01) (15, 5.47802746295928955078e-01) (16, -5.16391634941101074219e-01) (17, 6.14420056343078613281e-01) (18, 7.23862648010253906250e-01) (19, 3.95444571971893310547e-01) (20, 1.01229763031005859375e+00) (21, 5.02561211585998535156e-01) (13, -6.50772154331207275391e-02) (14, 4.49347019195556640625e-01) (15, 7.07846045494079589844e-01) (16, -9.51021537184715270996e-03) (17, 4.97574359178543090820e-01) (18, 8.20450305938720703125e-01) (19, -1.84627175331115722656e-01) (20, 4.72469538450241088867e-01) (21, 1.34325772523880004883e-02) (13, 7.31323361396789550781e-01) (14, 4.64804172515869140625e-01) (15, -3.21660578250885009766e-01) (16, 2.67651438713073730469e-01) (17, -1.77494376897811889648e-01) (18, -4.47368085384368896484e-01) (19, -6.82646632194519042969e-02) (20, -6.33851706981658935547e-01) (21, 2.90222316980361938477e-01) (13, -1.36157512664794921875e-01) (14, -6.94786310195922851562e-02) (15, 9.23278689384460449219e-01) (16, -2.08454251289367675781e-01) (17, 3.22805285453796386719e-01) (18, 1.49947130680084228516e+00) (19, 1.25903403759002685547e+00) (20, 1.35853841900825500488e-01) (21, -3.07614773511886596680e-01) (13, -2.43965387344360351562e-01) (14, -1.52384296059608459473e-01) (15, 5.10548412799835205078e-01) (16, -2.79321074485778808594e-02) (17, 5.59887528419494628906e-01) (18, 1.12617170810699462891e+00) (19, 5.39570152759552001953e-01) (20, 8.33354711532592773438e-01) (21, 1.17892727255821228027e-01) (13, 1.10848963260650634766e+00) (14, -9.81143355369567871094e-01) (15, -1.33892208337783813477e-01) (16, 8.32134902477264404297e-01) (17, 7.83815860748291015625e-01) (18, 4.89699721336364746094e-01) (19, 3.11264097690582275391e-01) (20, -2.18490624427795410156e+00) (21, 7.77211189270019531250e-02) (13, 1.17974853515625000000e+00) (14, -3.74555110931396484375e-01) (15, -2.03715711832046508789e-01) (16, 4.56274360418319702148e-01) (17, 9.43437099456787109375e-01) (18, 7.07249164581298828125e-01) (19, 4.09253656864166259766e-01) (20, -8.55286121368408203125e-01) (21, 3.40678185224533081055e-01) (13, -3.44960302114486694336e-01) (14, -5.17536699771881103516e-02) (15, 6.32843434810638427734e-01) (16, 3.58639001846313476562e-01) (17, 5.82268834114074707031e-01) (18, 1.23731029033660888672e+00) (19, 7.77423322200775146484e-01) (20, 2.35362902283668518066e-01) (21, 9.76648479700088500977e-02) (22, -6.42504215240478515625e-01) (23, -6.87148392200469970703e-01) (24, 7.49623596668243408203e-01) (25, -1.71586906909942626953e+00) (26, -3.75569760799407958984e-01) (27, 1.28208324313163757324e-01) (28, -4.01534557342529296875e-01) (29, -5.29113948345184326172e-01) (30, 2.98438549041748046875e-01) (22, 1.81244239211082458496e-02) (23, 4.22288239002227783203e-01) (24, -4.09172952175140380859e-01) (25, 4.03208851814270019531e-01) (26, 1.47451758384704589844e-01) (27, 2.64352083206176757812e+00) (28, 4.58393692970275878906e-01) (29, 9.42653298377990722656e-01) (30, 8.33123624324798583984e-02) (22, -9.89132225513458251953e-02) (23, 4.38893765211105346680e-01) (24, -7.62764215469360351562e-02) (25, -8.68107080459594726562e-01) (26, -1.87152206897735595703e-01) (27, -2.10156798362731933594e+00) (28, -5.60831904411315917969e-01) (29, -3.60746800899505615234e-01) (30, 1.84255495667457580566e-01) (22, 7.38324344158172607422e-01) (23, 6.16821050643920898438e-01) (24, -1.21156895160675048828e+00) (25, 1.33670687675476074219e+00) (26, 5.96180319786071777344e-01) (27, -3.20279628038406372070e-01) (28, -3.46343696117401123047e-01) (29, 1.01544809341430664062e+00) (30, 6.15510225296020507812e-01) (22, -4.13667500019073486328e-01) (23, 2.67451226711273193359e-01) (24, 2.41245962679386138916e-02) (25, -1.19396835565567016602e-01) (26, -1.43505573272705078125e-01) (27, 6.15038163959980010986e-02) (28, 1.68218612670898437500e-02) (29, -2.20699355006217956543e-01) (30, 2.58301913738250732422e-01) (22, -3.77913951873779296875e-01) (23, 1.92635446786880493164e-01) (24, -5.06474152207374572754e-02) (25, 2.89921224117279052734e-01) (26, 1.67445950210094451904e-02) (27, -6.64057016372680664062e-01) (28, 2.37235397100448608398e-01) (29, 4.32510375976562500000e-02) (30, 3.60226124525070190430e-01) (22, -1.22534252703189849854e-01) (23, 1.87745273113250732422e-01) (24, -2.85795927047729492188e-02) (25, 1.17094844579696655273e-01) (26, -5.43364286422729492188e-02) (27, 1.35567650198936462402e-01) (28, -5.92780947685241699219e-01) (29, -9.15871784090995788574e-02) (30, 4.17963176965713500977e-01) (22, 1.22357591986656188965e-01) (23, 2.67270743846893310547e-01) (24, 1.57532438635826110840e-01) (25, -1.89826786518096923828e-01) (26, -8.03243219852447509766e-02) (27, 7.75284469127655029297e-02) (28, -2.90983319282531738281e-01) (29, 2.02846258878707885742e-01) (30, 2.29993894696235656738e-01) 
