FANN_FLO_2.1
num_layers=4
learning_rate=0.700000
connection_rate=1.000000
network_type=0
learning_momentum=0.000000
training_algorithm=2
train_error_function=1
train_stop_function=0
cascade_output_change_fraction=0.010000
quickprop_decay=-0.000100
quickprop_mu=1.750000
rprop_increase_factor=1.200000
rprop_decrease_factor=0.500000
rprop_delta_min=0.000000
rprop_delta_max=50.000000
rprop_delta_zero=0.100000
cascade_output_stagnation_epochs=12
cascade_candidate_change_fraction=0.010000
cascade_candidate_stagnation_epochs=12
cascade_max_out_epochs=150
cascade_min_out_epochs=50
cascade_max_cand_epochs=150
cascade_min_cand_epochs=50
cascade_num_candidate_groups=2
bit_fail_limit=3.49999994039535522461e-01
cascade_candidate_limit=1.00000000000000000000e+03
cascade_weight_multiplier=4.00000005960464477539e-01
cascade_activation_functions_count=10
cascade_activation_functions=3 5 7 8 10 11 14 15 16 17 
cascade_activation_steepnesses_count=4
cascade_activation_steepnesses=2.50000000000000000000e-01 5.00000000000000000000e-01 7.50000000000000000000e-01 1.00000000000000000000e+00 
layer_sizes=13 9 9 9 
scale_included=0
neurons (num_inputs, activation_function, activation_steepness)=(0, 0, 0.00000000000000000000e+00) (0, 0, 0.00000000000000000000e+00) (0, 0, 0.00000000000000000000e+00) (0, 0, 0.00000000000000000000e+00) (0, 0, 0.00000000000000000000e+00) (0, 0, 0.00000000000000000000e+00) (0, 0, 0.00000000000000000000e+00) (0, 0, 0.00000000000000000000e+00) (0, 0, 0.00000000000000000000e+00) (0, 0, 0.00000000000000000000e+00) (0, 0, 0.00000000000000000000e+00) (0, 0, 0.00000000000000000000e+00) (0, 0, 0.00000000000000000000e+00) (13, 5, 5.00000000000000000000e-01) (13, 5, 5.00000000000000000000e-01) (13, 5, 5.00000000000000000000e-01) (13, 5, 5.00000000000000000000e-01) (13, 5, 5.00000000000000000000e-01) (13, 5, 5.00000000000000000000e-01) (13, 5, 5.00000000000000000000e-01) (13, 5, 5.00000000000000000000e-01) (0, 5, 0.00000000000000000000e+00) (9, 5, 5.00000000000000000000e-01) (9, 5, 5.00000000000000000000e-01) (9, 5, 5.00000000000000000000e-01) (9, 5, 5.00000000000000000000e-01) (9, 5, 5.00000000000000000000e-01) (9, 5, 5.00000000000000000000e-01) (9, 5, 5.00000000000000000000e-01) (9, 5, 5.00000000000000000000e-01) (0, 5, 0.00000000000000000000e+00) (9, 5, 5.00000000000000000000e-01) (9, 5, 5.00000000000000000000e-01) (9, 5, 5.00000000000000000000e-01) (9, 5, 5.00000000000000000000e-01) (9, 5, 5.00000000000000000000e-01) (9, 5, 5.00000000000000000000e-01) (9, 5, 5.00000000000000000000e-01) (9, 5, 5.00000000000000000000e-01) (0, 5, 0.00000000000000000000e+00) 
connections (connected_to_neuron, weight)=(0, -1.38618856668472290039e-01) (1, 2.61670875549316406250e+00) (2, -7.64729261398315429688e-01) (3, 2.01644325256347656250e+00) (4, -1.37030988931655883789e-01) (5, -1.76018524169921875000e+00) (6, 3.20675849914550781250e-01) (7, 1.35458266735076904297e+00) (8, 1.60913419723510742188e+00) (9, 1.22199952602386474609e+00) (10, 8.55250358581542968750e-01) (11, -5.97453236579895019531e-01) (12, 6.92282319068908691406e-01) (0, -1.32025301456451416016e-01) (1, -2.37736225128173828125e-01) (2, 1.36744379997253417969e-01) (3, 6.12946033477783203125e-01) (4, 1.68621015548706054688e+00) (5, -1.71912074089050292969e-01) (6, -6.36668145656585693359e-01) (7, -1.28734385967254638672e+00) (8, 1.15177035331726074219e-01) (9, 3.24517393112182617188e+00) (10, -2.24577355384826660156e+00) (11, 6.87057137489318847656e-01) (12, -3.75741362571716308594e-01) (0, 8.33408236503601074219e-01) (1, -3.89264523983001708984e-01) (2, 1.07790970802307128906e+00) (3, -1.11073899269104003906e+00) (4, -1.39057189226150512695e-01) (5, -1.01824009418487548828e+00) (6, 1.63059532642364501953e-01) (7, 2.63244003057479858398e-01) (8, -5.16883194446563720703e-01) (9, 1.13253962993621826172e+00) (10, 2.65441507101058959961e-01) (11, -1.43624305725097656250e-01) (12, 4.31950420141220092773e-01) (0, 1.98728942871093750000e+00) (1, 1.81643891334533691406e+00) (2, 1.45213425159454345703e-01) (3, -2.87947237491607666016e-01) (4, 3.28595012426376342773e-01) (5, 1.17262870073318481445e-01) (6, 1.19476389884948730469e+00) (7, -5.68497419357299804688e-01) (8, 3.53461861610412597656e-01) (9, 8.08896124362945556641e-01) (10, 2.92681670188903808594e+00) (11, -1.02632927894592285156e+00) (12, 1.94435977935791015625e+00) (0, -4.65035438537597656250e-01) (1, 1.13604962825775146484e+00) (2, -1.48004198074340820312e+00) (3, -1.45790636539459228516e-01) (4, -7.54190206527709960938e-01) (5, -9.67128276824951171875e-01) (6, 5.93390643596649169922e-01) (7, 7.98255264759063720703e-01) (8, -1.29941612482070922852e-01) (9, -1.56509113311767578125e+00) (10, 1.16136109828948974609e+00) (11, 2.02768731117248535156e+00) (12, 7.57271587848663330078e-01) (0, 1.45574498176574707031e+00) (1, 4.54870849847793579102e-01) (2, 1.66323006153106689453e-01) (3, 6.60945415496826171875e-01) (4, 7.74121165275573730469e-01) (5, 2.37362337112426757812e+00) (6, 9.17902231216430664062e-01) (7, 7.99052119255065917969e-02) (8, 2.95726478099822998047e-01) (9, -2.92435228824615478516e-01) (10, 1.81472808122634887695e-01) (11, 9.96001362800598144531e-01) (12, 3.71678173542022705078e-02) (0, -5.12691140174865722656e-01) (1, -5.00727593898773193359e-01) (2, -9.79361295700073242188e-01) (3, 8.91642868518829345703e-02) (4, -9.95850563049316406250e-02) (5, 9.29346919059753417969e-01) (6, -4.10207450389862060547e-01) (7, -2.03435122966766357422e-01) (8, 6.51440322399139404297e-01) (9, 1.49211764335632324219e+00) (10, 1.47615647315979003906e+00) (11, -2.43457674980163574219e+00) (12, 2.03596204519271850586e-01) (0, -1.17619752883911132812e-01) (1, -8.32065582275390625000e-01) (2, -9.01430249214172363281e-02) (3, -4.74913954734802246094e-01) (4, -7.63962328433990478516e-01) (5, -8.44174027442932128906e-01) (6, 5.97231626510620117188e-01) (7, 3.23488593101501464844e-01) (8, -1.10261487960815429688e+00) (9, 7.45585501194000244141e-01) (10, 2.51803487539291381836e-01) (11, 1.47229743003845214844e+00) (12, -1.46448647975921630859e+00) (13, 4.26543980836868286133e-01) (14, 1.03316140174865722656e+00) (15, -8.75855982303619384766e-02) (16, 9.50008034706115722656e-01) (17, 2.61334240436553955078e-01) (18, 2.68625646829605102539e-01) (19, -1.86391949653625488281e-01) (20, -9.83743667602539062500e-01) (21, 4.34120416641235351562e-01) (13, -2.13304185867309570312e+00) (14, 5.59771299362182617188e-01) (15, -5.51223754882812500000e-03) (16, 1.73590898513793945312e+00) (17, -1.48353743553161621094e+00) (18, -6.64672493934631347656e-01) (19, 7.83360004425048828125e-03) (20, -8.23529362678527832031e-02) (21, -7.08465456962585449219e-01) (13, -4.52342242002487182617e-01) (14, -1.02687621116638183594e+00) (15, 9.88609015941619873047e-01) (16, -2.46210992336273193359e-01) (17, -9.31100070476531982422e-01) (18, -2.61404395103454589844e+00) (19, 4.54749912023544311523e-01) (20, 7.15555369853973388672e-01) (21, -3.12190920114517211914e-01) (13, -3.78426432609558105469e-01) (14, -6.53298914432525634766e-01) (15, 1.97202157974243164062e+00) (16, 5.37824630737304687500e-03) (17, 7.71294355392456054688e-01) (18, 8.40954065322875976562e-01) (19, 1.80926132202148437500e+00) (20, 7.69566059112548828125e-01) (21, 5.14810979366302490234e-01) (13, 7.59079933166503906250e-01) (14, 1.05928146839141845703e+00) (15, -1.12557411193847656250e-02) (16, 6.52996718883514404297e-01) (17, 1.05838382244110107422e+00) (18, 1.70665830373764038086e-01) (19, 7.40728974342346191406e-02) (20, -7.45357573032379150391e-02) (21, 1.56688499450683593750e+00) (13, 4.38490450382232666016e-01) (14, 8.24412107467651367188e-01) (15, -7.48803377151489257812e-01) (16, -1.31462955474853515625e+00) (17, 2.47196763753890991211e-01) (18, -5.42783915996551513672e-01) (19, -7.20730721950531005859e-01) (20, 1.37457609176635742188e-01) (21, 2.55409181118011474609e-02) (13, 1.21831822395324707031e+00) (14, 4.37180787324905395508e-01) (15, -2.47048258781433105469e-01) (16, -1.06926870346069335938e+00) (17, -1.71891617774963378906e+00) (18, -3.97914946079254150391e-01) (19, 1.84836417436599731445e-01) (20, 2.35825896263122558594e-01) (21, 4.21753764152526855469e-01) (13, 6.45733952522277832031e-01) (14, -3.82679820060729980469e+00) (15, -3.79361778497695922852e-01) (16, 5.45163750648498535156e-01) (17, 1.02688181400299072266e+00) (18, 2.02656698226928710938e+00) (19, -1.20880454778671264648e-01) (20, -2.10898518562316894531e+00) (21, -1.34662091732025146484e-01) (22, -3.90493452548980712891e-01) (23, -1.56877589225769042969e+00) (24, 4.86581683158874511719e-01) (25, -1.64458048343658447266e+00) (26, 1.31749141216278076172e+00) (27, 1.18166625499725341797e+00) (28, 1.42158198356628417969e+00) (29, 1.62380039691925048828e-01) (30, 8.51006090641021728516e-01) (22, 5.33244132995605468750e-01) (23, -1.08723378181457519531e+00) (24, 1.88496637344360351562e+00) (25, -1.77335929870605468750e+00) (26, 3.09942603111267089844e+00) (27, 5.81303715705871582031e-01) (28, -1.55744969844818115234e-01) (29, 6.79863214492797851562e-01) (30, -4.46395516395568847656e-01) (22, -4.15458291769027709961e-01) (23, 5.58998942375183105469e-01) (24, -1.59207034111022949219e+00) (25, 1.41133105754852294922e+00) (26, 1.05308234691619873047e-01) (27, -2.84739041328430175781e+00) (28, 1.33880019187927246094e+00) (29, -3.69666314125061035156e+00) (30, -4.33763653039932250977e-01) (22, 1.25607997179031372070e-01) (23, 3.67568075656890869141e-01) (24, -4.81701493263244628906e-02) (25, 9.26293969154357910156e-01) (26, -1.10949075222015380859e+00) (27, -2.98320150375366210938e+00) (28, -2.04453969001770019531e+00) (29, 7.54155635833740234375e-01) (30, 1.17221820354461669922e+00) (22, -5.49622297286987304688e-01) (23, 7.59796798229217529297e-02) (24, -6.29085421562194824219e-01) (25, 6.43781483173370361328e-01) (26, -6.44257128238677978516e-01) (27, 2.56513476371765136719e-01) (28, 6.66723489761352539062e-01) (29, -7.63315975666046142578e-01) (30, 1.84909701347351074219e-02) (22, -1.11901581287384033203e+00) (23, -7.57446944713592529297e-01) (24, -1.89655566215515136719e+00) (25, -3.67190837860107421875e-02) (26, 1.10520362854003906250e-01) (27, -7.52161145210266113281e-01) (28, 7.72966146469116210938e-02) (29, 4.59876954555511474609e-02) (30, 5.79434394836425781250e-01) (22, 6.40154957771301269531e-01) (23, -7.87676036357879638672e-01) (24, -7.85881161689758300781e-01) (25, 1.65245270729064941406e+00) (26, -1.81931495666503906250e-01) (27, -7.70433962345123291016e-01) (28, -1.43724226951599121094e+00) (29, -4.04706716537475585938e-01) (30, 9.35961067676544189453e-01) (22, 7.50951170921325683594e-01) (23, -1.66726088523864746094e+00) (24, -2.79286861419677734375e-01) (25, -1.86177325248718261719e+00) (26, -4.41465944051742553711e-01) (27, 2.91617602109909057617e-01) (28, 1.08542191982269287109e+00) (29, -1.81337684392929077148e-01) (30, 2.52492308616638183594e-01) 
