FANN_FLO_2.1
num_layers=4
learning_rate=0.700000
connection_rate=1.000000
network_type=0
learning_momentum=0.000000
training_algorithm=2
train_error_function=1
train_stop_function=0
cascade_output_change_fraction=0.010000
quickprop_decay=-0.000100
quickprop_mu=1.750000
rprop_increase_factor=1.200000
rprop_decrease_factor=0.500000
rprop_delta_min=0.000000
rprop_delta_max=50.000000
rprop_delta_zero=0.100000
cascade_output_stagnation_epochs=12
cascade_candidate_change_fraction=0.010000
cascade_candidate_stagnation_epochs=12
cascade_max_out_epochs=150
cascade_min_out_epochs=50
cascade_max_cand_epochs=150
cascade_min_cand_epochs=50
cascade_num_candidate_groups=2
bit_fail_limit=3.49999994039535522461e-01
cascade_candidate_limit=1.00000000000000000000e+03
cascade_weight_multiplier=4.00000005960464477539e-01
cascade_activation_functions_count=10
cascade_activation_functions=3 5 7 8 10 11 14 15 16 17 
cascade_activation_steepnesses_count=4
cascade_activation_steepnesses=2.50000000000000000000e-01 5.00000000000000000000e-01 7.50000000000000000000e-01 1.00000000000000000000e+00 
layer_sizes=13 9 9 9 
scale_included=0
neurons (num_inputs, activation_function, activation_steepness)=(0, 0, 0.00000000000000000000e+00) (0, 0, 0.00000000000000000000e+00) (0, 0, 0.00000000000000000000e+00) (0, 0, 0.00000000000000000000e+00) (0, 0, 0.00000000000000000000e+00) (0, 0, 0.00000000000000000000e+00) (0, 0, 0.00000000000000000000e+00) (0, 0, 0.00000000000000000000e+00) (0, 0, 0.00000000000000000000e+00) (0, 0, 0.00000000000000000000e+00) (0, 0, 0.00000000000000000000e+00) (0, 0, 0.00000000000000000000e+00) (0, 0, 0.00000000000000000000e+00) (13, 5, 5.00000000000000000000e-01) (13, 5, 5.00000000000000000000e-01) (13, 5, 5.00000000000000000000e-01) (13, 5, 5.00000000000000000000e-01) (13, 5, 5.00000000000000000000e-01) (13, 5, 5.00000000000000000000e-01) (13, 5, 5.00000000000000000000e-01) (13, 5, 5.00000000000000000000e-01) (0, 5, 0.00000000000000000000e+00) (9, 5, 5.00000000000000000000e-01) (9, 5, 5.00000000000000000000e-01) (9, 5, 5.00000000000000000000e-01) (9, 5, 5.00000000000000000000e-01) (9, 5, 5.00000000000000000000e-01) (9, 5, 5.00000000000000000000e-01) (9, 5, 5.00000000000000000000e-01) (9, 5, 5.00000000000000000000e-01) (0, 5, 0.00000000000000000000e+00) (9, 5, 5.00000000000000000000e-01) (9, 5, 5.00000000000000000000e-01) (9, 5, 5.00000000000000000000e-01) (9, 5, 5.00000000000000000000e-01) (9, 5, 5.00000000000000000000e-01) (9, 5, 5.00000000000000000000e-01) (9, 5, 5.00000000000000000000e-01) (9, 5, 5.00000000000000000000e-01) (0, 5, 0.00000000000000000000e+00) 
connections (connected_to_neuron, weight)=(0, -1.63778021931648254395e-01) (1, -2.30520159006118774414e-01) (2, 6.60812973976135253906e-01) (3, 3.99628698825836181641e-01) (4, 1.26488983631134033203e+00) (5, 7.24018812179565429688e-02) (6, -1.22819140553474426270e-01) (7, 8.59796345233917236328e-01) (8, 3.54944050312042236328e-01) (9, 6.35824918746948242188e-01) (10, -1.05004465579986572266e+00) (11, 8.28371226787567138672e-01) (12, 1.20686993002891540527e-01) (0, -2.18654125928878784180e-01) (1, -4.48224961757659912109e-01) (2, 3.97115945816040039062e-03) (3, 4.06844317913055419922e-01) (4, -2.80305862426757812500e-01) (5, -3.79566073417663574219e-01) (6, -9.93404865264892578125e-01) (7, 1.90378725528717041016e-01) (8, -3.82893294095993041992e-01) (9, 3.96799355745315551758e-01) (10, 8.45268249511718750000e-01) (11, -2.77446419000625610352e-01) (12, -7.58690595626831054688e-01) (0, -1.14294365048408508301e-01) (1, -3.20962846279144287109e-01) (2, 4.67143833637237548828e-01) (3, 6.16899788379669189453e-01) (4, 1.39483287930488586426e-01) (5, 6.60676956176757812500e-01) (6, -4.94916439056396484375e-02) (7, 3.22371631860733032227e-01) (8, -5.72213828563690185547e-02) (9, -1.28615379333496093750e+00) (10, 1.11029610037803649902e-01) (11, -1.06772220134735107422e+00) (12, -2.14129149913787841797e-01) (0, 8.98657917976379394531e-01) (1, 7.97217488288879394531e-02) (2, 4.46295142173767089844e-01) (3, 2.15153619647026062012e-01) (4, 2.92781203985214233398e-01) (5, 1.85867094993591308594e+00) (6, 1.33269333839416503906e+00) (7, -3.08409750461578369141e-01) (8, 1.63598269224166870117e-01) (9, -4.15068507194519042969e-01) (10, -1.05424821376800537109e+00) (11, 8.14792990684509277344e-01) (12, 8.88728201389312744141e-01) (0, -1.48903325200080871582e-01) (1, 5.00895500183105468750e-01) (2, -3.91352474689483642578e-02) (3, 3.29104185104370117188e-01) (4, 5.84512472152709960938e-01) (5, 5.22991418838500976562e-02) (6, 4.60275411605834960938e-01) (7, 6.57608807086944580078e-01) (8, 5.33275842666625976562e-01) (9, -2.11437869071960449219e+00) (10, 5.29679059982299804688e-01) (11, -1.42413377761840820312e-03) (12, 1.93622994422912597656e+00) (0, 1.77642151713371276855e-01) (1, 3.96063923835754394531e-01) (2, -9.81592535972595214844e-01) (3, -1.32857263088226318359e-03) (4, 7.17286944389343261719e-01) (5, 2.93376952409744262695e-01) (6, 9.58266735076904296875e-01) (7, 5.10995864868164062500e-01) (8, 7.68438577651977539062e-01) (9, -2.02041435241699218750e+00) (10, 8.28200995922088623047e-01) (11, 1.98753654956817626953e-01) (12, 1.55454695224761962891e-01) (0, 6.25461578369140625000e-01) (1, 3.67456555366516113281e-01) (2, -1.71726837754249572754e-01) (3, -1.03014945983886718750e-01) (4, -6.07300639152526855469e-01) (5, 4.25391405820846557617e-01) (6, 4.26803082227706909180e-01) (7, 4.95895564556121826172e-01) (8, 4.07358050346374511719e-01) (9, -1.15643513202667236328e+00) (10, 2.03035265207290649414e-01) (11, -8.03507864475250244141e-01) (12, -4.26270723342895507812e-01) (0, -3.34634184837341308594e-01) (1, 7.61387422680854797363e-02) (2, -7.63242244720458984375e-02) (3, 4.73841756582260131836e-01) (4, -8.31509828567504882812e-02) (5, -7.35141336917877197266e-03) (6, 5.03942608833312988281e-01) (7, 7.42878764867782592773e-02) (8, -3.10114324092864990234e-01) (9, -7.49661266803741455078e-01) (10, 1.86630856990814208984e+00) (11, -3.56889069080352783203e-02) (12, -1.55859857797622680664e-01) (13, 3.22661757469177246094e-01) (14, 1.12764149904251098633e-01) (15, 3.51737678050994873047e-01) (16, -1.79382193088531494141e+00) (17, 6.63283467292785644531e-01) (18, 7.06360816955566406250e-01) (19, 8.68553072214126586914e-02) (20, 2.41040617227554321289e-01) (21, 5.40421724319458007812e-01) (13, -3.02412509918212890625e-02) (14, 2.79011189937591552734e-01) (15, 5.57428359985351562500e-01) (16, -1.19251459836959838867e-02) (17, 5.57965397834777832031e-01) (18, 2.10152840614318847656e+00) (19, -1.04243361949920654297e+00) (20, 6.34733915328979492188e-01) (21, 4.17117118835449218750e-01) (13, 5.84788024425506591797e-01) (14, 1.22991478443145751953e+00) (15, -1.54982239007949829102e-01) (16, 5.73783516883850097656e-02) (17, 1.12748622894287109375e-01) (18, -2.04054880142211914062e+00) (19, -6.46430552005767822266e-02) (20, -7.30213820934295654297e-01) (21, 4.39696192741394042969e-01) (13, -8.46447765827178955078e-01) (14, -3.42567324638366699219e-01) (15, 2.80607390403747558594e+00) (16, 4.22971248626708984375e-02) (17, 3.27858477830886840820e-01) (18, 1.55754840373992919922e+00) (19, 1.30405759811401367188e+00) (20, 5.54745137691497802734e-01) (21, -1.49731725454330444336e-01) (13, -5.89478313922882080078e-02) (14, -6.04296028614044189453e-02) (15, 5.17087399959564208984e-01) (16, 3.52523744106292724609e-01) (17, 5.59887528419494628906e-01) (18, 1.52284884452819824219e+00) (19, 4.68938350677490234375e-02) (20, 1.46077227592468261719e+00) (21, 1.23954141139984130859e+00) (13, 1.64128637313842773438e+00) (14, -1.30133748054504394531e+00) (15, -2.73912966251373291016e-01) (16, -5.71981787681579589844e-01) (17, 1.83669596910476684570e-01) (18, 2.34957098960876464844e-01) (19, -1.09542757272720336914e-01) (20, -2.10304355621337890625e+00) (21, -1.78346887230873107910e-01) (13, 9.08751010894775390625e-01) (14, -1.20252043008804321289e-01) (15, 1.68816000223159790039e-02) (16, 1.08177614212036132812e+00) (17, 2.38993978500366210938e+00) (18, 4.64088469743728637695e-01) (19, -1.96638002991676330566e-01) (20, 2.72152572870254516602e-02) (21, 1.58677890896797180176e-01) (13, -6.86905503273010253906e-01) (14, -4.81318771839141845703e-01) (15, 1.27468839287757873535e-01) (16, 8.80552053451538085938e-01) (17, 5.24587452411651611328e-01) (18, 1.05500113964080810547e+00) (19, 7.09523856639862060547e-01) (20, -3.07827204465866088867e-01) (21, 2.21529200673103332520e-01) (22, -1.05626714229583740234e+00) (23, -7.93555855751037597656e-01) (24, 1.07635533809661865234e+00) (25, -2.24140429496765136719e+00) (26, 6.32187128067016601562e-02) (27, 3.61874639987945556641e-01) (28, -5.05660057067871093750e-01) (29, -7.94303894042968750000e-01) (30, 4.11898344755172729492e-02) (22, -2.62938857078552246094e-01) (23, 7.03032076358795166016e-01) (24, -1.84109771251678466797e+00) (25, 5.37108182907104492188e-01) (26, -1.53291165828704833984e-01) (27, 2.82837414741516113281e+00) (28, 2.97993063926696777344e-01) (29, 1.48485565185546875000e+00) (30, -1.33635416626930236816e-01) (22, 2.30498552322387695312e-01) (23, 5.82131922245025634766e-01) (24, -1.35153400897979736328e+00) (25, -4.95214611291885375977e-01) (26, 3.29987347126007080078e-01) (27, -1.86687040328979492188e+00) (28, -7.42272555828094482422e-01) (29, -3.67767512798309326172e-02) (30, -5.58441728353500366211e-02) (22, 3.52913200855255126953e-01) (23, -6.44113540649414062500e-01) (24, -1.54244136810302734375e+00) (25, 9.27379786968231201172e-01) (26, 6.57924771308898925781e-01) (27, -3.43266278505325317383e-01) (28, -6.89575493335723876953e-01) (29, 8.46719205379486083984e-01) (30, 1.08777558803558349609e+00) (22, -6.41404271125793457031e-01) (23, -4.65734302997589111328e-02) (24, -5.23232221603393554688e-02) (25, 4.69800025224685668945e-01) (26, -8.92198026180267333984e-01) (27, -1.16309475898742675781e+00) (28, 7.10256993770599365234e-02) (29, -3.98169308900833129883e-01) (30, -1.58221334218978881836e-01) (22, -3.91979724168777465820e-01) (23, -7.31053829193115234375e-01) (24, -1.68341130018234252930e-01) (25, 1.56078934669494628906e+00) (26, 1.28966307640075683594e+00) (27, -8.71647238731384277344e-01) (28, 7.55554556846618652344e-01) (29, 4.51719015836715698242e-01) (30, 1.26908823847770690918e-01) (22, -2.42669418454170227051e-01) (23, 2.95991301536560058594e-01) (24, -1.89204514026641845703e-01) (25, 3.66067647933959960938e-01) (26, -2.65257120132446289062e-01) (27, 5.08731961250305175781e-01) (28, -6.42047643661499023438e-01) (29, -1.40514910221099853516e-01) (30, 9.61446523666381835938e-01) (22, -1.45774841308593750000e+00) (23, 3.85192811489105224609e-01) (24, -3.12964737415313720703e-01) (25, -3.13119292259216308594e-01) (26, -1.81837633252143859863e-01) (27, -3.10889989137649536133e-01) (28, 4.67714965343475341797e-02) (29, -9.15569067001342773438e-02) (30, 7.14685261249542236328e-01) 
