FANN_FLO_2.1
num_layers=4
learning_rate=0.700000
connection_rate=1.000000
network_type=0
learning_momentum=0.000000
training_algorithm=2
train_error_function=1
train_stop_function=0
cascade_output_change_fraction=0.010000
quickprop_decay=-0.000100
quickprop_mu=1.750000
rprop_increase_factor=1.200000
rprop_decrease_factor=0.500000
rprop_delta_min=0.000000
rprop_delta_max=50.000000
rprop_delta_zero=0.100000
cascade_output_stagnation_epochs=12
cascade_candidate_change_fraction=0.010000
cascade_candidate_stagnation_epochs=12
cascade_max_out_epochs=150
cascade_min_out_epochs=50
cascade_max_cand_epochs=150
cascade_min_cand_epochs=50
cascade_num_candidate_groups=2
bit_fail_limit=3.49999994039535522461e-01
cascade_candidate_limit=1.00000000000000000000e+03
cascade_weight_multiplier=4.00000005960464477539e-01
cascade_activation_functions_count=10
cascade_activation_functions=3 5 7 8 10 11 14 15 16 17 
cascade_activation_steepnesses_count=4
cascade_activation_steepnesses=2.50000000000000000000e-01 5.00000000000000000000e-01 7.50000000000000000000e-01 1.00000000000000000000e+00 
layer_sizes=5 5 6 6 
scale_included=0
neurons (num_inputs, activation_function, activation_steepness)=(0, 0, 0.00000000000000000000e+00) (0, 0, 0.00000000000000000000e+00) (0, 0, 0.00000000000000000000e+00) (0, 0, 0.00000000000000000000e+00) (0, 0, 0.00000000000000000000e+00) (5, 5, 5.00000000000000000000e-01) (5, 5, 5.00000000000000000000e-01) (5, 5, 5.00000000000000000000e-01) (5, 5, 5.00000000000000000000e-01) (0, 5, 0.00000000000000000000e+00) (5, 5, 5.00000000000000000000e-01) (5, 5, 5.00000000000000000000e-01) (5, 5, 5.00000000000000000000e-01) (5, 5, 5.00000000000000000000e-01) (5, 5, 5.00000000000000000000e-01) (0, 5, 0.00000000000000000000e+00) (6, 5, 5.00000000000000000000e-01) (6, 5, 5.00000000000000000000e-01) (6, 5, 5.00000000000000000000e-01) (6, 5, 5.00000000000000000000e-01) (6, 5, 5.00000000000000000000e-01) (0, 5, 0.00000000000000000000e+00) 
connections (connected_to_neuron, weight)=(0, -1.72391533851623535156e-04) (1, 1.94943696260452270508e-02) (2, -9.23262462019920349121e-02) (3, -6.96246251463890075684e-02) (4, -1.10222473740577697754e-02) (0, -3.76984886825084686279e-02) (1, 1.29745155572891235352e-02) (2, 2.58916243910789489746e-02) (3, 3.21651473641395568848e-02) (4, -6.82743117213249206543e-02) (0, -6.63642585277557373047e-03) (1, 5.52468821406364440918e-02) (2, 4.32058796286582946777e-02) (3, 3.19288894534111022949e-02) (4, -8.65780487656593322754e-02) (0, -3.94597649574279785156e-04) (1, 7.00178816914558410645e-02) (2, -4.68728654086589813232e-02) (3, 5.65551593899726867676e-02) (4, 8.94188657402992248535e-02) (5, 4.43186685442924499512e-02) (6, -4.62078712880611419678e-02) (7, 3.91809418797492980957e-02) (8, 2.96349823474884033203e-03) (9, -4.72886860370635986328e-03) (5, 6.20738193392753601074e-02) (6, -3.49083542823791503906e-02) (7, 3.73883023858070373535e-02) (8, 1.45476013422012329102e-02) (9, -1.20669752359390258789e-02) (5, 3.58982160687446594238e-02) (6, -8.56247916817665100098e-02) (7, -9.25726145505905151367e-02) (8, 4.35719713568687438965e-02) (9, -5.52494190633296966553e-02) (5, -3.59486043453216552734e-03) (6, -9.41265225410461425781e-02) (7, 5.77250942587852478027e-02) (8, -7.77032375335693359375e-02) (9, 3.80386188626289367676e-02) (5, 8.94507840275764465332e-02) (6, 1.56603306531906127930e-02) (7, -6.71450048685073852539e-03) (8, 3.26566621661186218262e-02) (9, -5.24107776582241058350e-02) (10, 6.70745223760604858398e-03) (11, -6.77379369735717773438e-02) (12, -8.23928862810134887695e-02) (13, 5.98345920443534851074e-02) (14, 8.88172462582588195801e-02) (15, -9.29740220308303833008e-02) (10, 4.15325164794921875000e-03) (11, -5.73906339704990386963e-02) (12, 4.62068989872932434082e-02) (13, -9.28832441568374633789e-02) (14, 3.78805026412010192871e-02) (15, 8.28073173761367797852e-03) (10, -2.77915969491004943848e-02) (11, -2.47312039136886596680e-02) (12, -7.71716833114624023438e-02) (13, 6.01414218544960021973e-02) (14, -8.88329893350601196289e-02) (15, -6.27964735031127929688e-02) (10, 6.75688013434410095215e-02) (11, 5.47389760613441467285e-02) (12, -1.80458948016166687012e-02) (13, -3.60260531306266784668e-02) (14, 6.06124624609947204590e-02) (15, -6.03208020329475402832e-02) (10, -1.37292891740798950195e-02) (11, -1.34892016649246215820e-03) (12, -7.08700194954872131348e-02) (13, -9.80689525604248046875e-02) (14, 9.19365957379341125488e-02) (15, 6.17866441607475280762e-02) 
