FANN_FLO_2.1
num_layers=4
learning_rate=0.700000
connection_rate=1.000000
network_type=0
learning_momentum=0.000000
training_algorithm=2
train_error_function=1
train_stop_function=0
cascade_output_change_fraction=0.010000
quickprop_decay=-0.000100
quickprop_mu=1.750000
rprop_increase_factor=1.200000
rprop_decrease_factor=0.500000
rprop_delta_min=0.000000
rprop_delta_max=50.000000
rprop_delta_zero=0.100000
cascade_output_stagnation_epochs=12
cascade_candidate_change_fraction=0.010000
cascade_candidate_stagnation_epochs=12
cascade_max_out_epochs=150
cascade_min_out_epochs=50
cascade_max_cand_epochs=150
cascade_min_cand_epochs=50
cascade_num_candidate_groups=2
bit_fail_limit=3.49999994039535522461e-01
cascade_candidate_limit=1.00000000000000000000e+03
cascade_weight_multiplier=4.00000005960464477539e-01
cascade_activation_functions_count=10
cascade_activation_functions=3 5 7 8 10 11 14 15 16 17 
cascade_activation_steepnesses_count=4
cascade_activation_steepnesses=2.50000000000000000000e-01 5.00000000000000000000e-01 7.50000000000000000000e-01 1.00000000000000000000e+00 
layer_sizes=13 9 9 9 
scale_included=0
neurons (num_inputs, activation_function, activation_steepness)=(0, 0, 0.00000000000000000000e+00) (0, 0, 0.00000000000000000000e+00) (0, 0, 0.00000000000000000000e+00) (0, 0, 0.00000000000000000000e+00) (0, 0, 0.00000000000000000000e+00) (0, 0, 0.00000000000000000000e+00) (0, 0, 0.00000000000000000000e+00) (0, 0, 0.00000000000000000000e+00) (0, 0, 0.00000000000000000000e+00) (0, 0, 0.00000000000000000000e+00) (0, 0, 0.00000000000000000000e+00) (0, 0, 0.00000000000000000000e+00) (0, 0, 0.00000000000000000000e+00) (13, 5, 5.00000000000000000000e-01) (13, 5, 5.00000000000000000000e-01) (13, 5, 5.00000000000000000000e-01) (13, 5, 5.00000000000000000000e-01) (13, 5, 5.00000000000000000000e-01) (13, 5, 5.00000000000000000000e-01) (13, 5, 5.00000000000000000000e-01) (13, 5, 5.00000000000000000000e-01) (0, 5, 0.00000000000000000000e+00) (9, 5, 5.00000000000000000000e-01) (9, 5, 5.00000000000000000000e-01) (9, 5, 5.00000000000000000000e-01) (9, 5, 5.00000000000000000000e-01) (9, 5, 5.00000000000000000000e-01) (9, 5, 5.00000000000000000000e-01) (9, 5, 5.00000000000000000000e-01) (9, 5, 5.00000000000000000000e-01) (0, 5, 0.00000000000000000000e+00) (9, 5, 5.00000000000000000000e-01) (9, 5, 5.00000000000000000000e-01) (9, 5, 5.00000000000000000000e-01) (9, 5, 5.00000000000000000000e-01) (9, 5, 5.00000000000000000000e-01) (9, 5, 5.00000000000000000000e-01) (9, 5, 5.00000000000000000000e-01) (9, 5, 5.00000000000000000000e-01) (0, 5, 0.00000000000000000000e+00) 
connections (connected_to_neuron, weight)=(0, 8.01445841789245605469e-02) (1, 2.50609159469604492188e+00) (2, -1.04414552450180053711e-01) (3, 1.31486403942108154297e+00) (4, 3.54055702686309814453e-01) (5, -2.92064070701599121094e-01) (6, 3.98014396429061889648e-01) (7, 1.19123268127441406250e+00) (8, 1.54784226417541503906e+00) (9, 1.22199952602386474609e+00) (10, 7.36829519271850585938e-01) (11, -3.70821535587310791016e-01) (12, 3.18100720643997192383e-01) (0, -6.81052923202514648438e-01) (1, -1.33471816778182983398e-01) (2, 7.55673199892044067383e-02) (3, -8.19501578807830810547e-02) (4, 1.23804485797882080078e+00) (5, 2.77693063020706176758e-01) (6, -2.47273549437522888184e-01) (7, -1.61094224452972412109e+00) (8, 6.05481505393981933594e-01) (9, 2.22256302833557128906e+00) (10, -1.99684584140777587891e+00) (11, 1.01592028141021728516e+00) (12, -3.70363354682922363281e-01) (0, 3.14687550067901611328e-01) (1, -8.42543125152587890625e-01) (2, 9.63698744773864746094e-01) (3, -1.46480560302734375000e+00) (4, -1.81246429681777954102e-01) (5, -7.28954553604125976562e-01) (6, 1.64672076702117919922e-01) (7, -6.80365338921546936035e-02) (8, -1.33548259735107421875e-01) (9, 1.13198888301849365234e+00) (10, 7.29378104209899902344e-01) (11, -3.45254182815551757812e-01) (12, 1.00561678409576416016e-01) (0, 1.13054609298706054688e+00) (1, 2.02746868133544921875e+00) (2, -5.95721840858459472656e-01) (3, 4.56210494041442871094e-01) (4, 2.29760378599166870117e-01) (5, 8.07921886444091796875e-01) (6, -2.32111513614654541016e-01) (7, -4.30552065372467041016e-02) (8, 3.53461861610412597656e-01) (9, 6.74750655889511108398e-02) (10, 3.21827220916748046875e+00) (11, -4.34834480285644531250e-01) (12, 1.75232887268066406250e+00) (0, -3.48338186740875244141e-01) (1, 2.87804305553436279297e-01) (2, -1.20049130916595458984e+00) (3, -7.83492326736450195312e-02) (4, -3.16119521856307983398e-01) (5, 3.86145532131195068359e-01) (6, 6.31368160247802734375e-01) (7, 6.64992928504943847656e-02) (8, -1.25950574874877929688e+00) (9, -1.04092812538146972656e+00) (10, 8.94263029098510742188e-01) (11, 2.20871353149414062500e+00) (12, -7.35665142536163330078e-01) (0, 9.75698113441467285156e-01) (1, -4.70343828201293945312e-01) (2, 2.45674848556518554688e-01) (3, 1.56227040290832519531e+00) (4, -4.20178808271884918213e-02) (5, 1.83446002006530761719e+00) (6, 1.01218211650848388672e+00) (7, 7.99052119255065917969e-02) (8, 1.34182035923004150391e-01) (9, -9.93430376052856445312e-01) (10, 4.93642389774322509766e-02) (11, 2.73517936468124389648e-01) (12, -8.71313929557800292969e-01) (0, -1.94182038307189941406e-01) (1, -3.08252692222595214844e-01) (2, -2.92265623807907104492e-01) (3, -1.16951465606689453125e-01) (4, -1.04903769493103027344e+00) (5, 7.66951918601989746094e-01) (6, -4.14309561252593994141e-01) (7, -5.16490459442138671875e-01) (8, 7.88396000862121582031e-01) (9, -2.07822918891906738281e-01) (10, 2.17935681343078613281e-01) (11, -1.54877519607543945312e+00) (12, -4.85989004373550415039e-01) (0, -9.98191237449645996094e-02) (1, -7.58870363235473632812e-01) (2, 6.36638760566711425781e-01) (3, -1.40552830696105957031e+00) (4, -6.72628521919250488281e-01) (5, -1.61849915981292724609e-01) (6, 6.70764505863189697266e-01) (7, 4.64200556278228759766e-01) (8, -3.17302405834197998047e-01) (9, 2.00330567359924316406e+00) (10, 1.05821752548217773438e+00) (11, 5.71311652660369873047e-01) (12, -8.34582567214965820312e-01) (13, 5.55746793746948242188e-01) (14, 1.22753429412841796875e+00) (15, -2.17157453298568725586e-01) (16, 1.13282859325408935547e-01) (17, -7.58818089962005615234e-02) (18, 2.81643241643905639648e-01) (19, 1.32081657648086547852e-01) (20, -1.05271840095520019531e+00) (21, -4.01835203170776367188e-01) (13, -1.26017081737518310547e+00) (14, 7.63821423053741455078e-01) (15, 1.60171210765838623047e-01) (16, 1.10268712043762207031e+00) (17, -2.90543138980865478516e-01) (18, -7.05327093601226806641e-01) (19, 2.28564143180847167969e-02) (20, -1.75694525241851806641e-02) (21, -4.67511951923370361328e-01) (13, 1.43174350261688232422e-01) (14, -1.12656652927398681641e+00) (15, 4.41775381565093994141e-01) (16, -5.84940075874328613281e-01) (17, -9.31100070476531982422e-01) (18, -1.19846057891845703125e+00) (19, 3.20176243782043457031e-01) (20, 9.65537548065185546875e-01) (21, -7.23128914833068847656e-02) (13, -4.01786923408508300781e-01) (14, -4.83645439147949218750e-01) (15, 7.69607961177825927734e-01) (16, 1.12421572208404541016e+00) (17, 4.38359647989273071289e-01) (18, 6.61614537239074707031e-01) (19, 1.56218552589416503906e+00) (20, 6.50027990341186523438e-02) (21, 7.83419609069824218750e-02) (13, 2.37704858183860778809e-01) (14, 3.79128187894821166992e-01) (15, -4.16694432497024536133e-02) (16, -5.78101873397827148438e-01) (17, 1.33545196056365966797e+00) (18, 3.38404446840286254883e-01) (19, -1.93737536668777465820e-01) (20, -1.58142238855361938477e-01) (21, 3.61590892076492309570e-01) (13, 1.31572708487510681152e-01) (14, 2.52667486667633056641e-01) (15, -5.79387903213500976562e-01) (16, -1.52157950401306152344e+00) (17, 3.68262141942977905273e-01) (18, -5.42783915996551513672e-01) (19, -6.12368583679199218750e-02) (20, -5.44167995452880859375e-01) (21, 1.48528814315795898438e+00) (13, 6.73547029495239257812e-01) (14, 1.28663635253906250000e+00) (15, 7.92109370231628417969e-02) (16, -5.18036842346191406250e-01) (17, -1.32768988609313964844e+00) (18, 3.07106018066406250000e-01) (19, 1.81325465440750122070e-01) (20, 6.03449225425720214844e-01) (21, 5.43745517730712890625e-01) (13, -1.10035240650177001953e-02) (14, -4.09215021133422851562e+00) (15, -7.21582055091857910156e-01) (16, 6.37616276741027832031e-01) (17, 8.13293874263763427734e-01) (18, 1.48324155807495117188e+00) (19, -6.43724799156188964844e-01) (20, -9.05957639217376708984e-01) (21, 5.65301477909088134766e-02) (22, -1.66121602058410644531e-01) (23, -1.12957954406738281250e+00) (24, 4.66143310070037841797e-01) (25, -8.56673836708068847656e-01) (26, 4.86775219440460205078e-01) (27, 1.52071666717529296875e+00) (28, 2.13529443740844726562e+00) (29, -7.29057192802429199219e-01) (30, 6.41031503677368164062e-01) (22, 7.32436060905456542969e-01) (23, -1.53285992145538330078e+00) (24, 1.69951009750366210938e+00) (25, -2.02490806579589843750e+00) (26, 2.26351928710937500000e+00) (27, 8.52594792842864990234e-01) (28, -8.01204323768615722656e-01) (29, 6.27957344055175781250e-01) (30, -5.55326282978057861328e-01) (22, -1.97474956512451171875e-01) (23, 5.23800671100616455078e-01) (24, -5.20634651184082031250e-01) (25, 1.42763996124267578125e+00) (26, -3.29437851905822753906e-02) (27, -2.84288573265075683594e+00) (28, 1.19451403617858886719e+00) (29, -1.94896101951599121094e+00) (30, 1.57590508460998535156e-01) (22, 7.99644768238067626953e-01) (23, 4.78054165840148925781e-01) (24, -1.17623448371887207031e-01) (25, 8.24013233184814453125e-01) (26, -3.76153975725173950195e-01) (27, -2.60548830032348632812e+00) (28, -1.58732271194458007812e+00) (29, 1.63045859336853027344e+00) (30, 1.00223922729492187500e+00) (22, 4.28599119186401367188e-03) (23, 4.00809586048126220703e-01) (24, -8.06393086910247802734e-01) (25, -3.80854070186614990234e-01) (26, -6.67962253093719482422e-01) (27, 4.35667335987091064453e-01) (28, 1.48272678256034851074e-01) (29, -3.29288721084594726562e-01) (30, 2.97515779733657836914e-01) (22, -1.23152267932891845703e+00) (23, -5.94299584627151489258e-02) (24, -9.45805668830871582031e-01) (25, -7.71555781364440917969e-01) (26, 7.39801824092864990234e-02) (27, -2.27645784616470336914e-02) (28, -4.73235249519348144531e-01) (29, 1.55872035026550292969e+00) (30, 6.61652863025665283203e-01) (22, 5.58681964874267578125e-01) (23, -1.40193760395050048828e-01) (24, -7.89923489093780517578e-01) (25, 8.07124733924865722656e-01) (26, -3.07148098945617675781e-02) (27, -4.44393098354339599609e-01) (28, -4.16616171598434448242e-01) (29, -2.21790403127670288086e-01) (30, 1.55655229091644287109e+00) (22, 7.73727223277091979980e-02) (23, 2.35065653920173645020e-01) (24, -6.94719314575195312500e-01) (25, -5.38489997386932373047e-01) (26, -3.53118389844894409180e-01) (27, 7.07564234733581542969e-01) (28, 4.90549683570861816406e-01) (29, 4.43016082048416137695e-01) (30, 2.52492308616638183594e-01) 
