FANN_FLO_2.1
num_layers=4
learning_rate=0.700000
connection_rate=1.000000
network_type=0
learning_momentum=0.000000
training_algorithm=2
train_error_function=1
train_stop_function=0
cascade_output_change_fraction=0.010000
quickprop_decay=-0.000100
quickprop_mu=1.750000
rprop_increase_factor=1.200000
rprop_decrease_factor=0.500000
rprop_delta_min=0.000000
rprop_delta_max=50.000000
rprop_delta_zero=0.100000
cascade_output_stagnation_epochs=12
cascade_candidate_change_fraction=0.010000
cascade_candidate_stagnation_epochs=12
cascade_max_out_epochs=150
cascade_min_out_epochs=50
cascade_max_cand_epochs=150
cascade_min_cand_epochs=50
cascade_num_candidate_groups=2
bit_fail_limit=3.49999994039535522461e-01
cascade_candidate_limit=1.00000000000000000000e+03
cascade_weight_multiplier=4.00000005960464477539e-01
cascade_activation_functions_count=10
cascade_activation_functions=3 5 7 8 10 11 14 15 16 17 
cascade_activation_steepnesses_count=4
cascade_activation_steepnesses=2.50000000000000000000e-01 5.00000000000000000000e-01 7.50000000000000000000e-01 1.00000000000000000000e+00 
layer_sizes=13 9 9 9 
scale_included=0
neurons (num_inputs, activation_function, activation_steepness)=(0, 0, 0.00000000000000000000e+00) (0, 0, 0.00000000000000000000e+00) (0, 0, 0.00000000000000000000e+00) (0, 0, 0.00000000000000000000e+00) (0, 0, 0.00000000000000000000e+00) (0, 0, 0.00000000000000000000e+00) (0, 0, 0.00000000000000000000e+00) (0, 0, 0.00000000000000000000e+00) (0, 0, 0.00000000000000000000e+00) (0, 0, 0.00000000000000000000e+00) (0, 0, 0.00000000000000000000e+00) (0, 0, 0.00000000000000000000e+00) (0, 0, 0.00000000000000000000e+00) (13, 5, 5.00000000000000000000e-01) (13, 5, 5.00000000000000000000e-01) (13, 5, 5.00000000000000000000e-01) (13, 5, 5.00000000000000000000e-01) (13, 5, 5.00000000000000000000e-01) (13, 5, 5.00000000000000000000e-01) (13, 5, 5.00000000000000000000e-01) (13, 5, 5.00000000000000000000e-01) (0, 5, 0.00000000000000000000e+00) (9, 5, 5.00000000000000000000e-01) (9, 5, 5.00000000000000000000e-01) (9, 5, 5.00000000000000000000e-01) (9, 5, 5.00000000000000000000e-01) (9, 5, 5.00000000000000000000e-01) (9, 5, 5.00000000000000000000e-01) (9, 5, 5.00000000000000000000e-01) (9, 5, 5.00000000000000000000e-01) (0, 5, 0.00000000000000000000e+00) (9, 5, 5.00000000000000000000e-01) (9, 5, 5.00000000000000000000e-01) (9, 5, 5.00000000000000000000e-01) (9, 5, 5.00000000000000000000e-01) (9, 5, 5.00000000000000000000e-01) (9, 5, 5.00000000000000000000e-01) (9, 5, 5.00000000000000000000e-01) (9, 5, 5.00000000000000000000e-01) (0, 5, 0.00000000000000000000e+00) 
connections (connected_to_neuron, weight)=(0, 9.22700166702270507812e-02) (1, 2.50609159469604492188e+00) (2, -2.31112480163574218750e-01) (3, 1.87297976016998291016e+00) (4, 3.97928655147552490234e-02) (5, -1.01747250556945800781e+00) (6, 3.20675849914550781250e-01) (7, 7.38382935523986816406e-01) (8, 9.06966984272003173828e-01) (9, 1.22199952602386474609e+00) (10, 8.59766125679016113281e-01) (11, -3.84885758161544799805e-01) (12, 4.84882801771163940430e-01) (0, -5.82548618316650390625e-01) (1, -2.37736225128173828125e-01) (2, 4.70954298973083496094e-01) (3, -4.82038646936416625977e-01) (4, 1.71730208396911621094e+00) (5, -1.97261095046997070312e-01) (6, -2.89763450622558593750e-01) (7, -1.62937819957733154297e+00) (8, 5.59157431125640869141e-01) (9, 3.30591726303100585938e+00) (10, -2.32999181747436523438e+00) (11, 9.64350759983062744141e-01) (12, -2.80726134777069091797e-01) (0, 3.57647657394409179688e-01) (1, -3.89264523983001708984e-01) (2, 1.07790970802307128906e+00) (3, -1.24108862876892089844e+00) (4, 3.89278531074523925781e-02) (5, -1.01824009418487548828e+00) (6, -3.88987749814987182617e-01) (7, -2.06868976354598999023e-01) (8, -1.79217517375946044922e-01) (9, 1.14806163311004638672e+00) (10, 4.19335901737213134766e-01) (11, -7.87075161933898925781e-02) (12, 1.00561678409576416016e-01) (0, 1.28639006614685058594e+00) (1, 1.96851980686187744141e+00) (2, -8.94277691841125488281e-01) (3, 1.87388092279434204102e-01) (4, 7.03345119953155517578e-01) (5, 8.48359465599060058594e-01) (6, 2.48255789279937744141e-01) (7, -2.33034908771514892578e-01) (8, 3.53461861610412597656e-01) (9, 1.47873386740684509277e-01) (10, 3.29637956619262695312e+00) (11, -1.00586020946502685547e+00) (12, 1.75232887268066406250e+00) (0, 1.68175131082534790039e-01) (1, -2.30570822954177856445e-01) (2, -9.81601655483245849609e-01) (3, -1.45790636539459228516e-01) (4, -3.30790370702743530273e-01) (5, -6.71338140964508056641e-01) (6, 1.79632842540740966797e-01) (7, 3.87937128543853759766e-01) (8, -6.83304965496063232422e-01) (9, -1.22593986988067626953e+00) (10, 1.07999849319458007812e+00) (11, 2.02768731117248535156e+00) (12, -2.53394365310668945312e-01) (0, 1.04817855358123779297e+00) (1, -6.79340481758117675781e-01) (2, 5.81871390342712402344e-01) (3, 1.24201917648315429688e+00) (4, -2.03683674335479736328e-02) (5, 2.37362337112426757812e+00) (6, 1.40216517448425292969e+00) (7, 7.99052119255065917969e-02) (8, 1.95061028003692626953e-01) (9, -5.11440098285675048828e-01) (10, 3.83190125226974487305e-01) (11, 9.40773844718933105469e-01) (12, -2.34088003635406494141e-01) (0, -2.45074987411499023438e-01) (1, -5.00727593898773193359e-01) (2, -6.03545308113098144531e-01) (3, -2.36718147993087768555e-01) (4, -3.30263316631317138672e-01) (5, 4.43166315555572509766e-01) (6, -4.10207450389862060547e-01) (7, -7.68394231796264648438e-01) (8, 4.45400774478912353516e-01) (9, 6.97566151618957519531e-01) (10, 5.60353517532348632812e-01) (11, -1.75778245925903320312e+00) (12, -1.23725235462188720703e-02) (0, -9.98191237449645996094e-02) (1, -7.36862719058990478516e-01) (2, 5.71637928485870361328e-01) (3, -9.16165828704833984375e-01) (4, -7.92201995849609375000e-01) (5, -5.67656755447387695312e-01) (6, 6.45412087440490722656e-01) (7, 3.26411485671997070312e-01) (8, -4.74696069955825805664e-01) (9, 2.05386829376220703125e+00) (10, 4.74864542484283447266e-01) (11, 9.00861442089080810547e-01) (12, -8.95021557807922363281e-01) (13, 3.11800688505172729492e-01) (14, 1.16455888748168945312e+00) (15, -8.75855982303619384766e-02) (16, 1.65544003248214721680e-01) (17, -1.66824191808700561523e-01) (18, 6.58283114433288574219e-01) (19, -1.57533019781112670898e-01) (20, -7.39484071731567382812e-01) (21, -4.62788045406341552734e-01) (13, -1.06959581375122070312e+00) (14, 5.59771299362182617188e-01) (15, -1.49965584278106689453e-02) (16, 1.37159097194671630859e+00) (17, -1.62509942054748535156e+00) (18, -6.64672493934631347656e-01) (19, -3.08205962181091308594e-01) (20, -5.52356719970703125000e-01) (21, -9.08021867275238037109e-01) (13, -2.30504482984542846680e-01) (14, -7.56244003772735595703e-01) (15, 6.38302922248840332031e-01) (16, -2.48567461967468261719e-01) (17, -9.31100070476531982422e-01) (18, -2.20007419586181640625e+00) (19, 4.54749912023544311523e-01) (20, 9.65537548065185546875e-01) (21, -2.93719977140426635742e-01) (13, -4.51391041278839111328e-01) (14, 8.01143050193786621094e-02) (15, 1.37219238281250000000e+00) (16, 5.09533703327178955078e-01) (17, 7.71294355392456054688e-01) (18, 8.40954065322875976562e-01) (19, 1.63267970085144042969e+00) (20, -1.18819236755371093750e-01) (21, 9.59005117416381835938e-01) (13, 4.54790294170379638672e-01) (14, 6.16358280181884765625e-01) (15, 5.52780479192733764648e-02) (16, -2.95937359333038330078e-01) (17, 1.05838382244110107422e+00) (18, -1.82439059019088745117e-01) (19, 1.24950408935546875000e-02) (20, -6.01244866847991943359e-02) (21, 1.05196738243103027344e+00) (13, 7.51379728317260742188e-02) (14, 4.81662154197692871094e-01) (15, -9.52163815498352050781e-01) (16, -1.31462955474853515625e+00) (17, 4.02456790208816528320e-01) (18, -5.42783915996551513672e-01) (19, 2.70916342735290527344e-01) (20, 2.03881859779357910156e-02) (21, 1.04473614692687988281e+00) (13, 1.18738758563995361328e+00) (14, 8.83714675903320312500e-01) (15, -2.47048258781433105469e-01) (16, -1.20687639713287353516e+00) (17, -1.71891617774963378906e+00) (18, -3.47107946872711181641e-01) (19, 4.28574502468109130859e-01) (20, 6.03449225425720214844e-01) (21, 8.93689215183258056641e-01) (13, -7.86128640174865722656e-03) (14, -4.07731151580810546875e+00) (15, -5.27172744274139404297e-01) (16, 6.42886340618133544922e-01) (17, 8.13293874263763427734e-01) (18, 1.48324155807495117188e+00) (19, 7.25130736827850341797e-02) (20, -7.27918684482574462891e-01) (21, -5.78428030014038085938e-01) (22, -3.90493452548980712891e-01) (23, -1.60022401809692382812e+00) (24, 2.25574791431427001953e-01) (25, -1.03982794284820556641e+00) (26, 5.62057673931121826172e-01) (27, 8.48664879798889160156e-01) (28, 2.13529443740844726562e+00) (29, -3.64651679992675781250e-01) (30, 1.14211416244506835938e+00) (22, 4.91727858781814575195e-01) (23, -1.53472876548767089844e+00) (24, 1.53331828117370605469e+00) (25, -2.02490806579589843750e+00) (26, 2.88344144821166992188e+00) (27, 9.70684230327606201172e-01) (28, -3.47219467163085937500e-01) (29, -2.09206342697143554688e-02) (30, -2.51944929361343383789e-01) (22, 4.98720705509185791016e-02) (23, 1.12557977437973022461e-01) (24, -1.25253415107727050781e+00) (25, 1.58653259277343750000e+00) (26, 2.20111489295959472656e-01) (27, -2.84739041328430175781e+00) (28, 1.19451403617858886719e+00) (29, -2.41445183753967285156e+00) (30, -1.20742172002792358398e-01) (22, 6.23053431510925292969e-01) (23, 6.83979690074920654297e-02) (24, -1.17623448371887207031e-01) (25, 1.08996260166168212891e+00) (26, -9.62242007255554199219e-01) (27, -3.25318026542663574219e+00) (28, -1.57907998561859130859e+00) (29, 1.53389120101928710938e+00) (30, 1.23756527900695800781e+00) (22, 3.57336759567260742188e-01) (23, 3.91514986753463745117e-01) (24, -3.49831521511077880859e-01) (25, 4.67671871185302734375e-01) (26, -6.67962253093719482422e-01) (27, 2.56513476371765136719e-01) (28, 3.68717163801193237305e-02) (29, -4.96305167675018310547e-01) (30, -4.60456609725952148438e-02) (22, -1.65649163722991943359e+00) (23, -3.60096871852874755859e-01) (24, -1.40173959732055664062e+00) (25, -7.34984755516052246094e-01) (26, -1.04751408100128173828e-01) (27, -4.03910219669342041016e-01) (28, -5.01712858676910400391e-01) (29, 1.29729080200195312500e+00) (30, 6.61652863025665283203e-01) (22, 5.58681964874267578125e-01) (23, -6.16277515888214111328e-01) (24, -7.89923489093780517578e-01) (25, 1.47149467468261718750e+00) (26, -8.36165547370910644531e-02) (27, -6.03823304176330566406e-01) (28, -5.97255408763885498047e-01) (29, 1.34844630956649780273e-01) (30, 1.51210010051727294922e+00) (22, -2.87067502737045288086e-01) (23, -8.20121169090270996094e-01) (24, -3.47526490688323974609e-01) (25, -5.38489997386932373047e-01) (26, -3.53118389844894409180e-01) (27, 1.04042029380798339844e+00) (28, 1.21177935600280761719e+00) (29, 1.42144292593002319336e-01) (30, 2.52492308616638183594e-01) 
