FANN_FLO_2.1
num_layers=4
learning_rate=0.700000
connection_rate=1.000000
network_type=0
learning_momentum=0.000000
training_algorithm=2
train_error_function=1
train_stop_function=0
cascade_output_change_fraction=0.010000
quickprop_decay=-0.000100
quickprop_mu=1.750000
rprop_increase_factor=1.200000
rprop_decrease_factor=0.500000
rprop_delta_min=0.000000
rprop_delta_max=50.000000
rprop_delta_zero=0.100000
cascade_output_stagnation_epochs=12
cascade_candidate_change_fraction=0.010000
cascade_candidate_stagnation_epochs=12
cascade_max_out_epochs=150
cascade_min_out_epochs=50
cascade_max_cand_epochs=150
cascade_min_cand_epochs=50
cascade_num_candidate_groups=2
bit_fail_limit=3.49999994039535522461e-01
cascade_candidate_limit=1.00000000000000000000e+03
cascade_weight_multiplier=4.00000005960464477539e-01
cascade_activation_functions_count=10
cascade_activation_functions=3 5 7 8 10 11 14 15 16 17 
cascade_activation_steepnesses_count=4
cascade_activation_steepnesses=2.50000000000000000000e-01 5.00000000000000000000e-01 7.50000000000000000000e-01 1.00000000000000000000e+00 
layer_sizes=13 9 9 9 
scale_included=0
neurons (num_inputs, activation_function, activation_steepness)=(0, 0, 0.00000000000000000000e+00) (0, 0, 0.00000000000000000000e+00) (0, 0, 0.00000000000000000000e+00) (0, 0, 0.00000000000000000000e+00) (0, 0, 0.00000000000000000000e+00) (0, 0, 0.00000000000000000000e+00) (0, 0, 0.00000000000000000000e+00) (0, 0, 0.00000000000000000000e+00) (0, 0, 0.00000000000000000000e+00) (0, 0, 0.00000000000000000000e+00) (0, 0, 0.00000000000000000000e+00) (0, 0, 0.00000000000000000000e+00) (0, 0, 0.00000000000000000000e+00) (13, 5, 5.00000000000000000000e-01) (13, 5, 5.00000000000000000000e-01) (13, 5, 5.00000000000000000000e-01) (13, 5, 5.00000000000000000000e-01) (13, 5, 5.00000000000000000000e-01) (13, 5, 5.00000000000000000000e-01) (13, 5, 5.00000000000000000000e-01) (13, 5, 5.00000000000000000000e-01) (0, 5, 0.00000000000000000000e+00) (9, 5, 5.00000000000000000000e-01) (9, 5, 5.00000000000000000000e-01) (9, 5, 5.00000000000000000000e-01) (9, 5, 5.00000000000000000000e-01) (9, 5, 5.00000000000000000000e-01) (9, 5, 5.00000000000000000000e-01) (9, 5, 5.00000000000000000000e-01) (9, 5, 5.00000000000000000000e-01) (0, 5, 0.00000000000000000000e+00) (9, 5, 5.00000000000000000000e-01) (9, 5, 5.00000000000000000000e-01) (9, 5, 5.00000000000000000000e-01) (9, 5, 5.00000000000000000000e-01) (9, 5, 5.00000000000000000000e-01) (9, 5, 5.00000000000000000000e-01) (9, 5, 5.00000000000000000000e-01) (9, 5, 5.00000000000000000000e-01) (0, 5, 0.00000000000000000000e+00) 
connections (connected_to_neuron, weight)=(0, -1.47571027278900146484e-01) (1, 4.60087954998016357422e-02) (2, 1.35600060224533081055e-01) (3, 1.86373382806777954102e-01) (4, 1.20398044586181640625e-01) (5, 2.19385623931884765625e-02) (6, 3.69210243225097656250e-02) (7, 1.18505090475082397461e-01) (8, 8.74158203601837158203e-01) (9, 1.22199952602386474609e+00) (10, -6.49045854806900024414e-02) (11, -3.70821535587310791016e-01) (12, 3.18100720643997192383e-01) (0, -3.01696397364139556885e-02) (1, -1.33471816778182983398e-01) (2, 7.55673199892044067383e-02) (3, -8.19501578807830810547e-02) (4, -1.26433102414011955261e-02) (5, 5.24498485028743743896e-02) (6, -3.02129872143268585205e-02) (7, -1.50581383705139160156e+00) (8, -3.06618995964527130127e-02) (9, 2.53802490234375000000e+00) (10, -1.26488840579986572266e+00) (11, 3.32338929176330566406e-01) (12, -2.39711888134479522705e-02) (0, -1.03633284568786621094e-01) (1, -8.71677920222282409668e-02) (2, 5.98414987325668334961e-03) (3, -8.68082702159881591797e-01) (4, -3.75394850969314575195e-01) (5, -1.07243724167346954346e-01) (6, -6.51448592543601989746e-02) (7, 3.82723659276962280273e-03) (8, -1.96590691804885864258e-01) (9, 1.13198888301849365234e+00) (10, 7.29378104209899902344e-01) (11, -3.45254182815551757812e-01) (12, -8.12869444489479064941e-02) (0, -4.26151603460311889648e-02) (1, 2.47002050280570983887e-01) (2, 3.71999323368072509766e-01) (3, -9.58796292543411254883e-02) (4, 2.56043255329132080078e-01) (5, 5.35877704620361328125e-01) (6, 4.58644777536392211914e-02) (7, 4.24130588769912719727e-01) (8, 3.53461861610412597656e-01) (9, 6.74750655889511108398e-02) (10, 2.37367534637451171875e+00) (11, -9.26832854747772216797e-01) (12, 2.75698989629745483398e-01) (0, -3.48338186740875244141e-01) (1, -3.42730462551116943359e-01) (2, -1.20049130916595458984e+00) (3, 1.34246140718460083008e-01) (4, 2.23099887371063232422e-02) (5, 2.88406878709793090820e-01) (6, 8.98587405681610107422e-02) (7, -1.53020620346069335938e-02) (8, 7.23130285739898681641e-01) (9, -2.53019034862518310547e-01) (10, -1.44557636231184005737e-02) (11, 1.79406166076660156250e+00) (12, 1.35163858532905578613e-01) (0, 2.41951532661914825439e-02) (1, -2.76424676179885864258e-01) (2, 3.54555130004882812500e-01) (3, 1.29295945167541503906e+00) (4, 6.01661168038845062256e-02) (5, -9.28072333335876464844e-02) (6, -1.74504116177558898926e-01) (7, 6.09641335904598236084e-03) (8, -8.81435275077819824219e-02) (9, -8.74342978000640869141e-01) (10, 2.68897861242294311523e-01) (11, -8.21807086467742919922e-02) (12, -1.67605608701705932617e-01) (0, -1.94182038307189941406e-01) (1, -3.08252692222595214844e-01) (2, -2.92265623807907104492e-01) (3, -1.16951465606689453125e-01) (4, -2.58622676134109497070e-01) (5, -1.78833723068237304688e-01) (6, -1.83299362659454345703e-01) (7, -1.83723479509353637695e-01) (8, -1.81268036365509033203e-01) (9, 1.04638934135437011719e+00) (10, 8.59698891639709472656e-01) (11, -5.25773465633392333984e-01) (12, -2.53754585981369018555e-01) (0, -1.41715146601200103760e-02) (1, -5.57687520980834960938e-01) (2, -1.15425691008567810059e-01) (3, -3.17308679223060607910e-03) (4, -1.55587971210479736328e-01) (5, -1.61849915981292724609e-01) (6, 4.64938938617706298828e-01) (7, -1.21754691004753112793e-01) (8, -3.17302405834197998047e-01) (9, 4.10296887159347534180e-01) (10, 3.58091950416564941406e-01) (11, -6.39676034450531005859e-01) (12, -4.32955414056777954102e-01) (13, 1.85337476432323455811e-02) (14, 8.91265749931335449219e-01) (15, -2.95020669698715209961e-01) (16, -3.70937108993530273438e-01) (17, -7.58818089962005615234e-02) (18, -8.17461609840393066406e-02) (19, -2.46785968542098999023e-01) (20, -4.42487508058547973633e-01) (21, 4.02718871831893920898e-01) (13, -8.53972196578979492188e-01) (14, 5.02850830554962158203e-01) (15, 6.29347622394561767578e-01) (16, 3.60394686460494995117e-01) (17, -2.90543138980865478516e-01) (18, -7.05327093601226806641e-01) (19, 1.44155979156494140625e+00) (20, 9.65625107288360595703e-01) (21, -4.67511951923370361328e-01) (13, 4.85060840845108032227e-01) (14, -1.55998095870018005371e-01) (15, 4.41775381565093994141e-01) (16, 1.86473459005355834961e-01) (17, -5.00221967697143554688e-01) (18, -2.50448882579803466797e-01) (19, 3.99720281362533569336e-01) (20, 1.38878750801086425781e+00) (21, 4.08963918685913085938e-01) (13, -4.01786923408508300781e-01) (14, -4.05393183231353759766e-01) (15, 5.85077643394470214844e-01) (16, 9.44098353385925292969e-01) (17, 2.95168429613113403320e-01) (18, 4.19884026050567626953e-01) (19, 1.05986893177032470703e+00) (20, 2.63241291046142578125e-01) (21, -1.91121593117713928223e-01) (13, -5.44163696467876434326e-02) (14, 3.79128187894821166992e-01) (15, -2.03153744339942932129e-01) (16, -3.19639325141906738281e-01) (17, 6.24102711677551269531e-01) (18, 6.55387759208679199219e-01) (19, -1.93737536668777465820e-01) (20, -7.49483928084373474121e-02) (21, 4.92580950260162353516e-01) (13, 1.31572708487510681152e-01) (14, 2.26648592948913574219e+00) (15, -5.79387903213500976562e-01) (16, -1.52157950401306152344e+00) (17, 7.15464770793914794922e-01) (18, 1.78977191448211669922e-01) (19, -5.61689972877502441406e-01) (20, 3.45925033092498779297e-01) (21, 1.48528814315795898438e+00) (13, 4.34341311454772949219e-01) (14, 9.88337159156799316406e-01) (15, 3.62474799156188964844e-01) (16, -6.24782085418701171875e-01) (17, -1.00161290168762207031e+00) (18, -2.43012979626655578613e-01) (19, 4.54553544521331787109e-01) (20, 2.30045855045318603516e-01) (21, 3.88544946908950805664e-01) (13, -2.97426134347915649414e-01) (14, -2.00820016860961914062e+00) (15, -7.21582055091857910156e-01) (16, 2.93869495391845703125e-01) (17, 1.17379510402679443359e+00) (18, 9.41399335861206054688e-01) (19, -6.93690776824951171875e-01) (20, -4.97593075037002563477e-01) (21, 3.12967091798782348633e-01) (22, 7.15036273002624511719e-01) (23, 2.38829225301742553711e-01) (24, -3.05331237614154815674e-02) (25, -7.27153062820434570312e-01) (26, 3.02309155464172363281e-01) (27, 1.08178305625915527344e+00) (28, 3.03393101692199707031e+00) (29, -7.29057192802429199219e-01) (30, 3.41130405664443969727e-01) (22, 3.11572015285491943359e-01) (23, -1.03632915019989013672e+00) (24, 1.37365698814392089844e+00) (25, -5.79568922519683837891e-01) (26, 1.61605024337768554688e+00) (27, 7.44430780410766601562e-01) (28, -6.12384080886840820312e-02) (29, 1.27082371711730957031e+00) (30, 3.26201319694519042969e-01) (22, -5.32732754945755004883e-02) (23, 8.37174892425537109375e-01) (24, -3.40228796005249023438e-01) (25, 1.19277954101562500000e+00) (26, -8.71165990829467773438e-02) (27, -1.44104695320129394531e+00) (28, -7.42090344429016113281e-01) (29, -1.77574169635772705078e+00) (30, 1.57590508460998535156e-01) (22, -4.03346538543701171875e-01) (23, 5.49026802182197570801e-02) (24, -1.17623448371887207031e-01) (25, 8.34782481193542480469e-01) (26, -9.72497016191482543945e-02) (27, -1.49149894714355468750e+00) (28, -6.98519229888916015625e-01) (29, 2.36770415306091308594e+00) (30, 5.03774702548980712891e-01) (22, 2.27396219968795776367e-01) (23, -2.94334404170513153076e-02) (24, -1.91716954112052917480e-01) (25, 4.11404788494110107422e-01) (26, -3.33136394619941711426e-02) (27, -3.62414717674255371094e-02) (28, 1.48272678256034851074e-01) (29, -1.48471564054489135742e-01) (30, 2.79989570379257202148e-01) (22, -9.33256447315216064453e-01) (23, -7.99325257539749145508e-02) (24, -4.00882840156555175781e-01) (25, -1.46365940570831298828e-01) (26, 7.39801824092864990234e-02) (27, -2.27645784616470336914e-02) (28, 9.95885878801345825195e-02) (29, 1.35732769966125488281e+00) (30, 3.05273652076721191406e-01) (22, 9.21349227428436279297e-02) (23, 8.15024822950363159180e-02) (24, -1.06630809605121612549e-01) (25, 2.85139709711074829102e-01) (26, 2.42129266262054443359e-01) (27, -3.07628512382507324219e-03) (28, -4.16616171598434448242e-01) (29, 1.75430804491043090820e-01) (30, 1.84187978506088256836e-01) (22, 7.73727223277091979980e-02) (23, -8.10740329325199127197e-03) (24, -1.76988244056701660156e-01) (25, 1.45969063043594360352e-01) (26, -4.70043793320655822754e-02) (27, 3.84586118161678314209e-02) (28, 2.43930041790008544922e-01) (29, 1.33046835660934448242e-01) (30, 3.20367932319641113281e-01) 
