FANN_FLO_2.1
num_layers=4
learning_rate=0.700000
connection_rate=1.000000
network_type=0
learning_momentum=0.000000
training_algorithm=2
train_error_function=1
train_stop_function=0
cascade_output_change_fraction=0.010000
quickprop_decay=-0.000100
quickprop_mu=1.750000
rprop_increase_factor=1.200000
rprop_decrease_factor=0.500000
rprop_delta_min=0.000000
rprop_delta_max=50.000000
rprop_delta_zero=0.100000
cascade_output_stagnation_epochs=12
cascade_candidate_change_fraction=0.010000
cascade_candidate_stagnation_epochs=12
cascade_max_out_epochs=150
cascade_min_out_epochs=50
cascade_max_cand_epochs=150
cascade_min_cand_epochs=50
cascade_num_candidate_groups=2
bit_fail_limit=3.49999994039535522461e-01
cascade_candidate_limit=1.00000000000000000000e+03
cascade_weight_multiplier=4.00000005960464477539e-01
cascade_activation_functions_count=10
cascade_activation_functions=3 5 7 8 10 11 14 15 16 17 
cascade_activation_steepnesses_count=4
cascade_activation_steepnesses=2.50000000000000000000e-01 5.00000000000000000000e-01 7.50000000000000000000e-01 1.00000000000000000000e+00 
layer_sizes=13 9 9 9 
scale_included=0
neurons (num_inputs, activation_function, activation_steepness)=(0, 0, 0.00000000000000000000e+00) (0, 0, 0.00000000000000000000e+00) (0, 0, 0.00000000000000000000e+00) (0, 0, 0.00000000000000000000e+00) (0, 0, 0.00000000000000000000e+00) (0, 0, 0.00000000000000000000e+00) (0, 0, 0.00000000000000000000e+00) (0, 0, 0.00000000000000000000e+00) (0, 0, 0.00000000000000000000e+00) (0, 0, 0.00000000000000000000e+00) (0, 0, 0.00000000000000000000e+00) (0, 0, 0.00000000000000000000e+00) (0, 0, 0.00000000000000000000e+00) (13, 5, 5.00000000000000000000e-01) (13, 5, 5.00000000000000000000e-01) (13, 5, 5.00000000000000000000e-01) (13, 5, 5.00000000000000000000e-01) (13, 5, 5.00000000000000000000e-01) (13, 5, 5.00000000000000000000e-01) (13, 5, 5.00000000000000000000e-01) (13, 5, 5.00000000000000000000e-01) (0, 5, 0.00000000000000000000e+00) (9, 5, 5.00000000000000000000e-01) (9, 5, 5.00000000000000000000e-01) (9, 5, 5.00000000000000000000e-01) (9, 5, 5.00000000000000000000e-01) (9, 5, 5.00000000000000000000e-01) (9, 5, 5.00000000000000000000e-01) (9, 5, 5.00000000000000000000e-01) (9, 5, 5.00000000000000000000e-01) (0, 5, 0.00000000000000000000e+00) (9, 5, 5.00000000000000000000e-01) (9, 5, 5.00000000000000000000e-01) (9, 5, 5.00000000000000000000e-01) (9, 5, 5.00000000000000000000e-01) (9, 5, 5.00000000000000000000e-01) (9, 5, 5.00000000000000000000e-01) (9, 5, 5.00000000000000000000e-01) (9, 5, 5.00000000000000000000e-01) (0, 5, 0.00000000000000000000e+00) 
connections (connected_to_neuron, weight)=(0, 9.22700166702270507812e-02) (1, 2.50609159469604492188e+00) (2, -2.31112480163574218750e-01) (3, 1.87297976016998291016e+00) (4, 5.25168180465698242188e-02) (5, -7.25221872329711914062e-01) (6, 3.20675849914550781250e-01) (7, 1.10066735744476318359e+00) (8, 9.06966984272003173828e-01) (9, 1.22199952602386474609e+00) (10, 8.59766125679016113281e-01) (11, -3.84885758161544799805e-01) (12, 5.08574724197387695312e-01) (0, -5.82548618316650390625e-01) (1, -2.37736225128173828125e-01) (2, 4.70954298973083496094e-01) (3, -4.82038646936416625977e-01) (4, 1.71730208396911621094e+00) (5, 1.59441143274307250977e-01) (6, -2.89763450622558593750e-01) (7, -1.73548769950866699219e+00) (8, 1.00313782691955566406e+00) (9, 3.11678314208984375000e+00) (10, -2.32999181747436523438e+00) (11, 1.01592028141021728516e+00) (12, -2.80726134777069091797e-01) (0, 3.57647657394409179688e-01) (1, -3.89264523983001708984e-01) (2, 1.07790970802307128906e+00) (3, -1.03853011131286621094e+00) (4, -2.31059312820434570312e-01) (5, -1.01824009418487548828e+00) (6, -2.75900721549987792969e-01) (7, -4.72400754690170288086e-01) (8, -1.79217517375946044922e-01) (9, 1.03531002998352050781e+00) (10, 4.19335901737213134766e-01) (11, -1.21532022953033447266e-01) (12, 1.00561678409576416016e-01) (0, 1.28639006614685058594e+00) (1, 2.36763763427734375000e+00) (2, -8.94277691841125488281e-01) (3, 6.11988902091979980469e-01) (4, 8.45780611038208007812e-01) (5, 8.48359465599060058594e-01) (6, -2.32111513614654541016e-01) (7, -2.33034908771514892578e-01) (8, 3.53461861610412597656e-01) (9, 1.47873386740684509277e-01) (10, 3.29637956619262695312e+00) (11, -1.00586020946502685547e+00) (12, 1.75232887268066406250e+00) (0, 3.24685871601104736328e-01) (1, -1.54416143894195556641e-01) (2, -9.81601655483245849609e-01) (3, -1.45790636539459228516e-01) (4, -2.48956054449081420898e-01) (5, -6.71338140964508056641e-01) (6, 1.79632842540740966797e-01) (7, 6.64992928504943847656e-02) (8, -2.93437182903289794922e-01) (9, -1.22593986988067626953e+00) (10, 1.62139916419982910156e+00) (11, 2.02768731117248535156e+00) (12, -2.53394365310668945312e-01) (0, 1.04817855358123779297e+00) (1, -6.79340481758117675781e-01) (2, 5.81871390342712402344e-01) (3, 1.24201917648315429688e+00) (4, 1.96298927068710327148e-01) (5, 2.37362337112426757812e+00) (6, 9.52771067619323730469e-01) (7, 7.99052119255065917969e-02) (8, 1.79946422576904296875e-01) (9, -7.70636498928070068359e-01) (10, 3.83190125226974487305e-01) (11, 6.28361165523529052734e-01) (12, -6.55023694038391113281e-01) (0, 7.67731666564941406250e-02) (1, -5.00727593898773193359e-01) (2, -6.03545308113098144531e-01) (3, -2.36718147993087768555e-01) (4, -5.06062507629394531250e-01) (5, 4.43166315555572509766e-01) (6, -4.10207450389862060547e-01) (7, -7.68394231796264648438e-01) (8, 8.36317598819732666016e-01) (9, 6.97566151618957519531e-01) (10, 5.60353517532348632812e-01) (11, -2.01132631301879882812e+00) (12, -1.23725235462188720703e-02) (0, -9.98191237449645996094e-02) (1, -7.36862719058990478516e-01) (2, 5.71637928485870361328e-01) (3, -9.16165828704833984375e-01) (4, -6.72628521919250488281e-01) (5, -5.67656755447387695312e-01) (6, 5.72117447853088378906e-01) (7, 3.26411485671997070312e-01) (8, -3.86867761611938476562e-01) (9, 2.11965608596801757812e+00) (10, 4.74864542484283447266e-01) (11, 8.75830352306365966797e-01) (12, -8.71665298938751220703e-01) (13, 1.08395487070083618164e-01) (14, 8.90987873077392578125e-01) (15, -8.75855982303619384766e-02) (16, 2.10344791412353515625e-01) (17, -7.58818089962005615234e-02) (18, 5.62509536743164062500e-01) (19, -1.57533019781112670898e-01) (20, -7.39484071731567382812e-01) (21, -4.62788045406341552734e-01) (13, -1.06959581375122070312e+00) (14, 9.81557190418243408203e-01) (15, -6.24742805957794189453e-02) (16, 1.37159097194671630859e+00) (17, -1.62509942054748535156e+00) (18, -2.65542268753051757812e-01) (19, -3.08205962181091308594e-01) (20, -1.68798774480819702148e-01) (21, -9.08021867275238037109e-01) (13, -2.30504482984542846680e-01) (14, -7.56244003772735595703e-01) (15, 6.38302922248840332031e-01) (16, -2.48567461967468261719e-01) (17, -9.31100070476531982422e-01) (18, -1.78610444068908691406e+00) (19, 4.54749912023544311523e-01) (20, 9.65537548065185546875e-01) (21, -2.54735678434371948242e-01) (13, -4.51391041278839111328e-01) (14, 8.01143050193786621094e-02) (15, 1.37219238281250000000e+00) (16, 7.16653227806091308594e-01) (17, 4.07933622598648071289e-01) (18, 8.40954065322875976562e-01) (19, 1.63267970085144042969e+00) (20, -1.18819236755371093750e-01) (21, 6.85557901859283447266e-01) (13, 1.89581140875816345215e-01) (14, 6.11055493354797363281e-01) (15, -4.16694432497024536133e-02) (16, -2.95937359333038330078e-01) (17, 1.05838382244110107422e+00) (18, -1.82439059019088745117e-01) (19, 1.24950408935546875000e-02) (20, -6.01244866847991943359e-02) (21, 1.05196738243103027344e+00) (13, 1.26488566398620605469e-01) (14, 4.81662154197692871094e-01) (15, -7.34991312026977539062e-01) (16, -1.31462955474853515625e+00) (17, 4.02456790208816528320e-01) (18, -5.42783915996551513672e-01) (19, 2.70916342735290527344e-01) (20, 2.03881859779357910156e-02) (21, 1.04473614692687988281e+00) (13, 1.18738758563995361328e+00) (14, 8.83714675903320312500e-01) (15, -2.47048258781433105469e-01) (16, -1.20687639713287353516e+00) (17, -1.71891617774963378906e+00) (18, -3.47107946872711181641e-01) (19, 4.28574502468109130859e-01) (20, 6.03449225425720214844e-01) (21, 8.93689215183258056641e-01) (13, -7.86128640174865722656e-03) (14, -4.07731151580810546875e+00) (15, -5.27172744274139404297e-01) (16, 6.42886340618133544922e-01) (17, 8.13293874263763427734e-01) (18, 1.48324155807495117188e+00) (19, 7.25130736827850341797e-02) (20, -7.27918684482574462891e-01) (21, -5.78428030014038085938e-01) (22, 3.64681482315063476562e-02) (23, -1.60022401809692382812e+00) (24, 2.25574791431427001953e-01) (25, -1.03982794284820556641e+00) (26, 1.81779265403747558594e-01) (27, 9.61281895637512207031e-01) (28, 2.13529443740844726562e+00) (29, -3.64651679992675781250e-01) (30, 1.12491238117218017578e+00) (22, 3.43573540449142456055e-01) (23, -1.86117887496948242188e+00) (24, 1.53331828117370605469e+00) (25, -2.02490806579589843750e+00) (26, 2.65653371810913085938e+00) (27, 9.70684230327606201172e-01) (28, -8.01204323768615722656e-01) (29, -2.09206342697143554688e-02) (30, -2.51944929361343383789e-01) (22, 5.00369071960449218750e-02) (23, 4.39630895853042602539e-01) (24, -1.25253415107727050781e+00) (25, 1.84110546112060546875e+00) (26, 2.20111489295959472656e-01) (27, -2.84739041328430175781e+00) (28, 1.19451403617858886719e+00) (29, -2.14003062248229980469e+00) (30, -1.20742172002792358398e-01) (22, 6.23053431510925292969e-01) (23, 8.24621915817260742188e-02) (24, -1.17623448371887207031e-01) (25, 1.08996260166168212891e+00) (26, -9.62242007255554199219e-01) (27, -2.88327932357788085938e+00) (28, -1.57907998561859130859e+00) (29, 1.53389120101928710938e+00) (30, 9.32752132415771484375e-01) (22, 3.57336759567260742188e-01) (23, 3.91514986753463745117e-01) (24, -3.49831521511077880859e-01) (25, -1.56082808971405029297e-01) (26, -6.67962253093719482422e-01) (27, 5.59048533439636230469e-01) (28, -2.27424815297126770020e-01) (29, -2.43330895900726318359e-01) (30, -1.10582292079925537109e-01) (22, -1.65649163722991943359e+00) (23, -3.60096871852874755859e-01) (24, -1.40173959732055664062e+00) (25, -7.34984755516052246094e-01) (26, -1.04751408100128173828e-01) (27, -4.03910219669342041016e-01) (28, -5.01712858676910400391e-01) (29, 1.55872035026550292969e+00) (30, 6.61652863025665283203e-01) (22, 5.58681964874267578125e-01) (23, -6.16277515888214111328e-01) (24, -7.89923489093780517578e-01) (25, 1.47149467468261718750e+00) (26, -8.36165547370910644531e-02) (27, -6.03823304176330566406e-01) (28, -5.97255408763885498047e-01) (29, 3.41663897037506103516e-01) (30, 1.51210010051727294922e+00) (22, -2.87067502737045288086e-01) (23, -3.79318356513977050781e-01) (24, -3.47526490688323974609e-01) (25, -5.38489997386932373047e-01) (26, -3.53118389844894409180e-01) (27, 1.04042029380798339844e+00) (28, 1.09898996353149414062e+00) (29, 1.42144292593002319336e-01) (30, 2.52492308616638183594e-01) 
