FANN_FLO_2.1
num_layers=4
learning_rate=0.700000
connection_rate=1.000000
network_type=0
learning_momentum=0.000000
training_algorithm=2
train_error_function=1
train_stop_function=0
cascade_output_change_fraction=0.010000
quickprop_decay=-0.000100
quickprop_mu=1.750000
rprop_increase_factor=1.200000
rprop_decrease_factor=0.500000
rprop_delta_min=0.000000
rprop_delta_max=50.000000
rprop_delta_zero=0.100000
cascade_output_stagnation_epochs=12
cascade_candidate_change_fraction=0.010000
cascade_candidate_stagnation_epochs=12
cascade_max_out_epochs=150
cascade_min_out_epochs=50
cascade_max_cand_epochs=150
cascade_min_cand_epochs=50
cascade_num_candidate_groups=2
bit_fail_limit=3.49999994039535522461e-01
cascade_candidate_limit=1.00000000000000000000e+03
cascade_weight_multiplier=4.00000005960464477539e-01
cascade_activation_functions_count=10
cascade_activation_functions=3 5 7 8 10 11 14 15 16 17 
cascade_activation_steepnesses_count=4
cascade_activation_steepnesses=2.50000000000000000000e-01 5.00000000000000000000e-01 7.50000000000000000000e-01 1.00000000000000000000e+00 
layer_sizes=15 13 12 11 
scale_included=0
neurons (num_inputs, activation_function, activation_steepness)=(0, 0, 0.00000000000000000000e+00) (0, 0, 0.00000000000000000000e+00) (0, 0, 0.00000000000000000000e+00) (0, 0, 0.00000000000000000000e+00) (0, 0, 0.00000000000000000000e+00) (0, 0, 0.00000000000000000000e+00) (0, 0, 0.00000000000000000000e+00) (0, 0, 0.00000000000000000000e+00) (0, 0, 0.00000000000000000000e+00) (0, 0, 0.00000000000000000000e+00) (0, 0, 0.00000000000000000000e+00) (0, 0, 0.00000000000000000000e+00) (0, 0, 0.00000000000000000000e+00) (0, 0, 0.00000000000000000000e+00) (0, 0, 0.00000000000000000000e+00) (15, 5, 5.00000000000000000000e-01) (15, 5, 5.00000000000000000000e-01) (15, 5, 5.00000000000000000000e-01) (15, 5, 5.00000000000000000000e-01) (15, 5, 5.00000000000000000000e-01) (15, 5, 5.00000000000000000000e-01) (15, 5, 5.00000000000000000000e-01) (15, 5, 5.00000000000000000000e-01) (15, 5, 5.00000000000000000000e-01) (15, 5, 5.00000000000000000000e-01) (15, 5, 5.00000000000000000000e-01) (15, 5, 5.00000000000000000000e-01) (0, 5, 0.00000000000000000000e+00) (13, 5, 5.00000000000000000000e-01) (13, 5, 5.00000000000000000000e-01) (13, 5, 5.00000000000000000000e-01) (13, 5, 5.00000000000000000000e-01) (13, 5, 5.00000000000000000000e-01) (13, 5, 5.00000000000000000000e-01) (13, 5, 5.00000000000000000000e-01) (13, 5, 5.00000000000000000000e-01) (13, 5, 5.00000000000000000000e-01) (13, 5, 5.00000000000000000000e-01) (13, 5, 5.00000000000000000000e-01) (0, 5, 0.00000000000000000000e+00) (12, 5, 5.00000000000000000000e-01) (12, 5, 5.00000000000000000000e-01) (12, 5, 5.00000000000000000000e-01) (12, 5, 5.00000000000000000000e-01) (12, 5, 5.00000000000000000000e-01) (12, 5, 5.00000000000000000000e-01) (12, 5, 5.00000000000000000000e-01) (12, 5, 5.00000000000000000000e-01) (12, 5, 5.00000000000000000000e-01) (12, 5, 5.00000000000000000000e-01) (0, 5, 0.00000000000000000000e+00) 
connections (connected_to_neuron, weight)=(0, -6.57692402601242065430e-02) (1, 3.45407649874687194824e-02) (2, -2.83256098628044128418e-02) (3, -5.56175820529460906982e-02) (4, 1.30923390388488769531e-02) (5, -5.52884489297866821289e-03) (6, -6.92999139428138732910e-02) (7, 2.83509492874145507812e-03) (8, 9.95592847466468811035e-02) (9, 1.30791962146759033203e-03) (10, 2.53065004944801330566e-02) (11, -8.01720023155212402344e-02) (12, -9.23898890614509582520e-02) (13, -1.02179795503616333008e-02) (14, 3.83268073201179504395e-02) (0, -3.76884602010250091553e-02) (1, 9.41144004464149475098e-02) (2, 3.20850089192390441895e-02) (3, -2.77397185564041137695e-02) (4, 2.06535607576370239258e-02) (5, -8.96938666701316833496e-02) (6, 9.15709212422370910645e-02) (7, 7.63931795954704284668e-02) (8, -9.89430472254753112793e-02) (9, 9.02916416525840759277e-02) (10, -1.42709165811538696289e-02) (11, 2.90283635258674621582e-02) (12, -5.68592101335525512695e-02) (13, 3.86947393417358398438e-03) (14, 4.75779399275779724121e-02) (0, 5.12819066643714904785e-02) (1, 3.81002351641654968262e-02) (2, -1.78812965750694274902e-02) (3, -7.70437121391296386719e-02) (4, 8.24826583266258239746e-02) (5, 9.52110365033149719238e-02) (6, 1.74274444580078125000e-02) (7, -8.68172645568847656250e-02) (8, -1.95387750864028930664e-03) (9, 1.69867426156997680664e-02) (10, 1.44906491041183471680e-02) (11, -7.66473710536956787109e-02) (12, 3.68147417902946472168e-02) (13, 2.21007689833641052246e-02) (14, 1.31346434354782104492e-02) (0, -2.48584598302841186523e-02) (1, 8.44123139977455139160e-02) (2, 7.24904239177703857422e-03) (3, -9.27734524011611938477e-02) (4, -4.33274023234844207764e-02) (5, -7.20973908901214599609e-02) (6, -8.24673175811767578125e-02) (7, -5.17564788460731506348e-02) (8, -9.57042276859283447266e-02) (9, -8.14103633165359497070e-02) (10, -6.14648312330245971680e-02) (11, -9.97514277696609497070e-03) (12, 4.76179942488670349121e-02) (13, -1.83240398764610290527e-02) (14, 9.38943251967430114746e-02) (0, -4.80405986309051513672e-03) (1, -6.70421421527862548828e-02) (2, 3.19945737719535827637e-02) (3, 7.73146376013755798340e-02) (4, -4.40858565270900726318e-02) (5, 1.44772157073020935059e-02) (6, 7.25256875157356262207e-02) (7, 7.33416005969047546387e-02) (8, 2.76599600911140441895e-02) (9, -2.94281989336013793945e-02) (10, -9.67167317867279052734e-03) (11, -5.78493811190128326416e-02) (12, -6.07556849718093872070e-03) (13, -7.28569328784942626953e-02) (14, 6.42513856291770935059e-02) (0, -9.29409265518188476562e-02) (1, 2.28460878133773803711e-03) (2, 4.86636981368064880371e-02) (3, 1.43081322312355041504e-02) (4, 9.51115787029266357422e-03) (5, -9.46637094020843505859e-02) (6, 4.22107353806495666504e-02) (7, 2.70438417792320251465e-02) (8, -4.64201830327510833740e-02) (9, 4.65065017342567443848e-02) (10, 4.56334874033927917480e-02) (11, -7.88501650094985961914e-03) (12, -6.34686350822448730469e-02) (13, -6.74851983785629272461e-03) (14, 7.37909451127052307129e-02) (0, -6.95743039250373840332e-02) (1, 8.84474143385887145996e-02) (2, -9.32511985301971435547e-02) (3, 6.24202564358711242676e-02) (4, 6.57620504498481750488e-02) (5, -3.73370498418807983398e-02) (6, -2.31025144457817077637e-02) (7, 3.82877364754676818848e-02) (8, -6.39954507350921630859e-02) (9, -9.54425558447837829590e-02) (10, -9.11404639482498168945e-02) (11, 2.63328775763511657715e-02) (12, -5.32919354736804962158e-02) (13, 2.78396904468536376953e-03) (14, 5.34759536385536193848e-02) (0, -8.90405476093292236328e-02) (1, 9.84303653240203857422e-03) (2, -4.42394427955150604248e-02) (3, 5.96231445670127868652e-02) (4, -7.58488327264785766602e-02) (5, 6.52717128396034240723e-02) (6, 6.49594441056251525879e-02) (7, 6.63619115948677062988e-02) (8, -7.68445432186126708984e-03) (9, -8.14607366919517517090e-02) (10, 1.28684043884277343750e-02) (11, -6.20509684085845947266e-02) (12, 1.06542482972145080566e-02) (13, 4.93997707962989807129e-02) (14, 3.12005206942558288574e-02) (0, -1.55548006296157836914e-02) (1, 7.98254683613777160645e-02) (2, 1.96479335427284240723e-02) (3, -8.80600512027740478516e-03) (4, 4.22457382082939147949e-02) (5, -1.45900100469589233398e-02) (6, 5.38569465279579162598e-02) (7, -8.08567851781845092773e-02) (8, -7.63022750616073608398e-02) (9, 8.98615047335624694824e-02) (10, -7.62993395328521728516e-02) (11, -6.74427449703216552734e-02) (12, 1.61943808197975158691e-02) (13, -2.95912772417068481445e-02) (14, 3.53412255644798278809e-02) (0, -3.03296744823455810547e-02) (1, -1.86318233609199523926e-02) (2, -5.48157319426536560059e-02) (3, 2.54308804869651794434e-02) (4, -5.90086765587329864502e-02) (5, -3.06645631790161132812e-02) (6, -9.29740816354751586914e-03) (7, -9.40492302179336547852e-02) (8, -6.43026679754257202148e-02) (9, 8.30181464552879333496e-02) (10, -7.55099728703498840332e-02) (11, 4.85657528042793273926e-02) (12, -7.90328234434127807617e-02) (13, 3.51442769169807434082e-02) (14, -2.03448534011840820312e-03) (0, 5.21676912903785705566e-02) (1, -8.04105252027511596680e-02) (2, -2.22090184688568115234e-02) (3, -2.81843766570091247559e-02) (4, 1.07834711670875549316e-02) (5, -7.99632892012596130371e-02) (6, 5.72256073355674743652e-02) (7, -3.53595763444900512695e-02) (8, -6.08200803399085998535e-02) (9, 8.09233263134956359863e-02) (10, -4.54980805516242980957e-02) (11, -3.71194183826446533203e-02) (12, -8.65194126963615417480e-02) (13, 7.06963017582893371582e-02) (14, 3.32893058657646179199e-02) (0, 4.88218143582344055176e-02) (1, -5.96333742141723632812e-02) (2, -8.53425189852714538574e-02) (3, 9.40060839056968688965e-02) (4, 6.57975152134895324707e-02) (5, -4.43511977791786193848e-02) (6, -3.66584807634353637695e-02) (7, -4.34998944401741027832e-02) (8, -3.84004227817058563232e-02) (9, -9.61139798164367675781e-04) (10, -6.04817457497119903564e-02) (11, -1.39103978872299194336e-02) (12, -5.23953922092914581299e-02) (13, -3.95145677030086517334e-02) (14, -7.87661224603652954102e-02) (15, 4.55701276659965515137e-02) (16, -8.73468741774559020996e-02) (17, -5.91766461730003356934e-02) (18, -7.66388922929763793945e-02) (19, -1.55312567949295043945e-02) (20, 5.16068264842033386230e-02) (21, -5.66021874547004699707e-02) (22, -5.83056434988975524902e-02) (23, -8.37527588009834289551e-02) (24, -1.74222663044929504395e-02) (25, -7.73823112249374389648e-02) (26, -2.92508378624916076660e-02) (27, 4.54583242535591125488e-02) (15, -6.39017224311828613281e-02) (16, -5.85545413196086883545e-02) (17, -2.12523788213729858398e-02) (18, 8.49201008677482604980e-02) (19, -1.81879103183746337891e-02) (20, -6.59489631652832031250e-03) (21, 7.89261832833290100098e-02) (22, -5.23904040455818176270e-02) (23, 4.90539148449897766113e-02) (24, -5.77322952449321746826e-02) (25, 4.10970300436019897461e-03) (26, -8.93465131521224975586e-02) (27, 4.13065627217292785645e-02) (15, 4.36279699206352233887e-02) (16, -3.25690954923629760742e-03) (17, 8.89111831784248352051e-02) (18, -9.58866104483604431152e-02) (19, 1.79769769310951232910e-02) (20, 3.44812944531440734863e-02) (21, -8.32334831357002258301e-02) (22, 5.88003322482109069824e-02) (23, 5.78424111008644104004e-02) (24, 1.23526901006698608398e-03) (25, 1.04071497917175292969e-02) (26, -9.87597778439521789551e-02) (27, 4.29296270012855529785e-02) (15, 2.66543850302696228027e-02) (16, -1.61820426583290100098e-02) (17, 6.55473098158836364746e-02) (18, 9.74035486578941345215e-02) (19, -7.07237198948860168457e-02) (20, -9.83544066548347473145e-02) (21, -6.11509867012500762939e-02) (22, 8.02390277385711669922e-03) (23, 8.65656957030296325684e-02) (24, 2.06611007452011108398e-02) (25, -9.85709950327873229980e-02) (26, 6.54918774962425231934e-02) (27, 6.82706907391548156738e-02) (15, 5.04829213023185729980e-02) (16, -9.22404155135154724121e-02) (17, -2.76195928454399108887e-02) (18, 6.11364021897315979004e-02) (19, 4.90661486983299255371e-02) (20, -8.39916393160820007324e-02) (21, -4.21205125749111175537e-02) (22, 3.79773303866386413574e-02) (23, -7.98782408237457275391e-02) (24, 7.58564546704292297363e-02) (25, -2.75413766503334045410e-02) (26, -6.31117224693298339844e-02) (27, 3.46567854285240173340e-02) (15, -6.96989670395851135254e-02) (16, 3.81235554814338684082e-02) (17, -5.49360625445842742920e-02) (18, -6.84587508440017700195e-02) (19, -1.89468339085578918457e-02) (20, 7.17183277010917663574e-02) (21, 1.53592079877853393555e-02) (22, -5.33995144069194793701e-02) (23, 6.91218897700309753418e-02) (24, 4.46354821324348449707e-02) (25, -5.17539195716381072998e-02) (26, -9.20291095972061157227e-02) (27, -4.73406091332435607910e-02) (15, -6.51882216334342956543e-02) (16, 2.86319926381111145020e-02) (17, -4.59115989506244659424e-02) (18, -9.96963381767272949219e-02) (19, -3.09731066226959228516e-03) (20, -9.54286828637123107910e-02) (21, -9.19367596507072448730e-02) (22, 6.92830905318260192871e-02) (23, 6.57077208161354064941e-02) (24, 5.71293905377388000488e-02) (25, 8.52914527058601379395e-02) (26, -7.64127895236015319824e-02) (27, -4.89327311515808105469e-03) (15, -9.45867896080017089844e-02) (16, 9.94436815381050109863e-02) (17, 6.75653591752052307129e-02) (18, -5.76985068619251251221e-02) (19, 3.41004654765129089355e-02) (20, 9.78663787245750427246e-02) (21, 8.04250314831733703613e-02) (22, 7.91643932461738586426e-02) (23, -7.05923587083816528320e-02) (24, -3.85217927396297454834e-02) (25, 5.08827343583106994629e-02) (26, 4.47668507695198059082e-02) (27, 8.07869434356689453125e-03) (15, 2.00046077370643615723e-02) (16, -1.05976611375808715820e-02) (17, 5.63247874379158020020e-02) (18, 2.79755070805549621582e-02) (19, 4.20617386698722839355e-02) (20, 9.11365523934364318848e-02) (21, -4.33925054967403411865e-02) (22, 9.61501225829124450684e-02) (23, 9.14402082562446594238e-02) (24, 5.35101965069770812988e-02) (25, -9.92785543203353881836e-02) (26, 9.95034649968147277832e-02) (27, 2.27932780981063842773e-02) (15, 6.64291605353355407715e-02) (16, 5.66328689455986022949e-02) (17, 8.08473676443099975586e-03) (18, 9.00163725018501281738e-02) (19, -4.82604168355464935303e-02) (20, 1.34979486465454101562e-02) (21, 8.94600674510002136230e-02) (22, -8.06950628757476806641e-02) (23, 5.57994470000267028809e-02) (24, 2.35605239868164062500e-02) (25, -8.28286781907081604004e-02) (26, 3.62244918942451477051e-02) (27, 2.72492319345474243164e-03) (15, -5.34210391342639923096e-02) (16, 9.77026894688606262207e-02) (17, -4.63923402130603790283e-02) (18, 9.13458094000816345215e-02) (19, 5.78138977289199829102e-03) (20, 7.36122801899909973145e-02) (21, -1.92518457770347595215e-02) (22, -3.78938391804695129395e-02) (23, 1.58777087926864624023e-03) (24, -7.71901234984397888184e-02) (25, -4.67572808265686035156e-02) (26, 5.81952705979347229004e-02) (27, -8.10399949550628662109e-02) (28, -5.53170666098594665527e-02) (29, 1.17054581642150878906e-02) (30, -8.03185477852821350098e-02) (31, -5.58136068284511566162e-02) (32, -6.55012577772140502930e-02) (33, 8.61106142401695251465e-02) (34, -9.91807430982589721680e-02) (35, 4.25834730267524719238e-02) (36, 7.61270001530647277832e-02) (37, -4.74411621689796447754e-02) (38, -4.39185686409473419189e-02) (39, 6.55870512127876281738e-02) (28, -2.81362161040306091309e-02) (29, -8.81191194057464599609e-02) (30, -1.08524188399314880371e-02) (31, -1.09648928046226501465e-02) (32, 4.81053665280342102051e-02) (33, 9.18725207448005676270e-02) (34, 3.56140807271003723145e-02) (35, 4.58080545067787170410e-02) (36, -5.45198321342468261719e-02) (37, 2.69598886370658874512e-02) (38, -4.84105609357357025146e-02) (39, -8.09075683355331420898e-02) (28, -9.22919735312461853027e-02) (29, 1.36955976486206054688e-02) (30, 2.06802114844322204590e-02) (31, -6.94820880889892578125e-02) (32, 6.69383183121681213379e-02) (33, -2.11245194077491760254e-02) (34, -5.05220852792263031006e-02) (35, -8.83787497878074645996e-02) (36, 9.05809476971626281738e-02) (37, -3.08406352996826171875e-02) (38, -4.41923514008522033691e-02) (39, -7.49203190207481384277e-02) (28, -4.47300150990486145020e-02) (29, -4.33730892837047576904e-02) (30, 6.76631554961204528809e-02) (31, -6.86030238866806030273e-02) (32, 9.18574631214141845703e-03) (33, -7.62554109096527099609e-02) (34, 9.69840362668037414551e-02) (35, 8.10495242476463317871e-02) (36, -6.43745362758636474609e-02) (37, -1.38683766126632690430e-02) (38, -2.99153625965118408203e-02) (39, 8.37308391928672790527e-02) (28, -2.19958648085594177246e-02) (29, -9.43012982606887817383e-02) (30, 2.95388922095298767090e-02) (31, 2.34843045473098754883e-02) (32, 3.26585844159126281738e-02) (33, 8.11283364892005920410e-02) (34, 4.25767377018928527832e-02) (35, 4.03666123747825622559e-02) (36, -5.17606735229492187500e-03) (37, -3.67430597543716430664e-02) (38, 7.08845332264900207520e-02) (39, -3.82377468049526214600e-02) (28, 4.21324297785758972168e-02) (29, -7.96375647187232971191e-02) (30, -2.66164913773536682129e-02) (31, 3.27133610844612121582e-02) (32, -1.04781985282897949219e-02) (33, 2.91911587119102478027e-02) (34, 5.77930435538291931152e-02) (35, 4.47917804121971130371e-02) (36, 8.58180597424507141113e-02) (37, 2.54561975598335266113e-02) (38, 7.61887654662132263184e-02) (39, -4.99618798494338989258e-03) (28, 4.92007806897163391113e-02) (29, 7.31728151440620422363e-02) (30, -2.39466577768325805664e-02) (31, 8.48262533545494079590e-02) (32, -4.06955666840076446533e-02) (33, 4.61379811167716979980e-02) (34, 6.85570910573005676270e-02) (35, 3.73085662722587585449e-02) (36, 5.18366768956184387207e-02) (37, -1.90401822328567504883e-03) (38, -3.92071381211280822754e-02) (39, -1.55047327280044555664e-02) (28, -2.07756832242012023926e-02) (29, -9.66304019093513488770e-02) (30, -7.51381218433380126953e-02) (31, 7.40482583642005920410e-02) (32, -3.33734601736068725586e-02) (33, 9.57464054226875305176e-02) (34, -6.41894936561584472656e-02) (35, -9.12410393357276916504e-02) (36, -8.38911682367324829102e-02) (37, 9.19401645660400390625e-03) (38, 4.14723232388496398926e-02) (39, 5.63063472509384155273e-03) (28, -6.16148263216018676758e-02) (29, -7.34634697437286376953e-04) (30, -4.95775751769542694092e-02) (31, -7.57967606186866760254e-02) (32, -7.52784386277198791504e-02) (33, -7.33888074755668640137e-02) (34, 1.92070603370666503906e-02) (35, 7.39223435521125793457e-02) (36, 9.97840091586112976074e-02) (37, 9.52604040503501892090e-02) (38, 5.87486103177070617676e-02) (39, -4.09115664660930633545e-02) (28, 4.13983836770057678223e-02) (29, 2.73056998848915100098e-02) (30, 9.63969901204109191895e-02) (31, -6.76493346691131591797e-03) (32, -7.45983198285102844238e-02) (33, -4.28101420402526855469e-02) (34, 7.77303352952003479004e-02) (35, 4.62599843740463256836e-03) (36, -3.94405424594879150391e-02) (37, -9.74077880382537841797e-02) (38, -2.13257521390914916992e-02) (39, 2.71859988570213317871e-02) 
