FANN_FLO_2.1
num_layers=4
learning_rate=0.700000
connection_rate=1.000000
network_type=0
learning_momentum=0.000000
training_algorithm=2
train_error_function=1
train_stop_function=0
cascade_output_change_fraction=0.010000
quickprop_decay=-0.000100
quickprop_mu=1.750000
rprop_increase_factor=1.200000
rprop_decrease_factor=0.500000
rprop_delta_min=0.000000
rprop_delta_max=50.000000
rprop_delta_zero=0.100000
cascade_output_stagnation_epochs=12
cascade_candidate_change_fraction=0.010000
cascade_candidate_stagnation_epochs=12
cascade_max_out_epochs=150
cascade_min_out_epochs=50
cascade_max_cand_epochs=150
cascade_min_cand_epochs=50
cascade_num_candidate_groups=2
bit_fail_limit=3.49999994039535522461e-01
cascade_candidate_limit=1.00000000000000000000e+03
cascade_weight_multiplier=4.00000005960464477539e-01
cascade_activation_functions_count=10
cascade_activation_functions=3 5 7 8 10 11 14 15 16 17 
cascade_activation_steepnesses_count=4
cascade_activation_steepnesses=2.50000000000000000000e-01 5.00000000000000000000e-01 7.50000000000000000000e-01 1.00000000000000000000e+00 
layer_sizes=19 16 13 11 
scale_included=0
neurons (num_inputs, activation_function, activation_steepness)=(0, 0, 0.00000000000000000000e+00) (0, 0, 0.00000000000000000000e+00) (0, 0, 0.00000000000000000000e+00) (0, 0, 0.00000000000000000000e+00) (0, 0, 0.00000000000000000000e+00) (0, 0, 0.00000000000000000000e+00) (0, 0, 0.00000000000000000000e+00) (0, 0, 0.00000000000000000000e+00) (0, 0, 0.00000000000000000000e+00) (0, 0, 0.00000000000000000000e+00) (0, 0, 0.00000000000000000000e+00) (0, 0, 0.00000000000000000000e+00) (0, 0, 0.00000000000000000000e+00) (0, 0, 0.00000000000000000000e+00) (0, 0, 0.00000000000000000000e+00) (0, 0, 0.00000000000000000000e+00) (0, 0, 0.00000000000000000000e+00) (0, 0, 0.00000000000000000000e+00) (0, 0, 0.00000000000000000000e+00) (19, 5, 5.00000000000000000000e-01) (19, 5, 5.00000000000000000000e-01) (19, 5, 5.00000000000000000000e-01) (19, 5, 5.00000000000000000000e-01) (19, 5, 5.00000000000000000000e-01) (19, 5, 5.00000000000000000000e-01) (19, 5, 5.00000000000000000000e-01) (19, 5, 5.00000000000000000000e-01) (19, 5, 5.00000000000000000000e-01) (19, 5, 5.00000000000000000000e-01) (19, 5, 5.00000000000000000000e-01) (19, 5, 5.00000000000000000000e-01) (19, 5, 5.00000000000000000000e-01) (19, 5, 5.00000000000000000000e-01) (19, 5, 5.00000000000000000000e-01) (0, 5, 0.00000000000000000000e+00) (16, 5, 5.00000000000000000000e-01) (16, 5, 5.00000000000000000000e-01) (16, 5, 5.00000000000000000000e-01) (16, 5, 5.00000000000000000000e-01) (16, 5, 5.00000000000000000000e-01) (16, 5, 5.00000000000000000000e-01) (16, 5, 5.00000000000000000000e-01) (16, 5, 5.00000000000000000000e-01) (16, 5, 5.00000000000000000000e-01) (16, 5, 5.00000000000000000000e-01) (16, 5, 5.00000000000000000000e-01) (16, 5, 5.00000000000000000000e-01) (0, 5, 0.00000000000000000000e+00) (13, 5, 5.00000000000000000000e-01) (13, 5, 5.00000000000000000000e-01) (13, 5, 5.00000000000000000000e-01) (13, 5, 5.00000000000000000000e-01) (13, 5, 5.00000000000000000000e-01) (13, 5, 5.00000000000000000000e-01) (13, 5, 5.00000000000000000000e-01) (13, 5, 5.00000000000000000000e-01) (13, 5, 5.00000000000000000000e-01) (13, 5, 5.00000000000000000000e-01) (0, 5, 0.00000000000000000000e+00) 
connections (connected_to_neuron, weight)=(0, 1.94690376520156860352e-02) (1, 2.20299735665321350098e-02) (2, -5.20769655704498291016e-02) (3, 8.37413594126701354980e-02) (4, 6.79840818047523498535e-02) (5, 2.15173363685607910156e-02) (6, 5.35928383469581604004e-02) (7, 5.01268878579139709473e-02) (8, -4.54775094985961914062e-02) (9, 8.25824216008186340332e-02) (10, 8.78744199872016906738e-02) (11, -6.68958574533462524414e-03) (12, 5.82464113831520080566e-02) (13, -6.22023455798625946045e-02) (14, 5.18521741032600402832e-02) (15, -4.11213338375091552734e-02) (16, 4.95959296822547912598e-02) (17, -1.24142393469810485840e-02) (18, -1.41642764210700988770e-02) (0, -1.23024731874465942383e-02) (1, -7.06441700458526611328e-03) (2, -4.38611470162868499756e-02) (3, 2.69372835755348205566e-02) (4, -7.69617557525634765625e-02) (5, -2.27918103337287902832e-02) (6, 1.81892886757850646973e-02) (7, -3.87996397912502288818e-02) (8, -6.09980486333370208740e-02) (9, -9.51106250286102294922e-02) (10, -9.65742766857147216797e-03) (11, -6.50750845670700073242e-03) (12, 2.43584141135215759277e-02) (13, -8.76274481415748596191e-02) (14, 4.14155200123786926270e-02) (15, 8.09977203607559204102e-03) (16, 8.03566351532936096191e-02) (17, -3.70671376585960388184e-02) (18, -3.83073873817920684814e-02) (0, 3.04835215210914611816e-02) (1, 1.74553543329238891602e-02) (2, -5.57249635457992553711e-02) (3, 1.83579325675964355469e-02) (4, -8.92342329025268554688e-02) (5, -9.74785536527633666992e-02) (6, 5.61555847525596618652e-02) (7, 6.26179352402687072754e-02) (8, -3.85998860001564025879e-02) (9, 5.75151294469833374023e-03) (10, -4.97963093221187591553e-02) (11, 4.72358539700508117676e-02) (12, 9.34490486979484558105e-02) (13, 4.31392714381217956543e-02) (14, -9.66253057122230529785e-02) (15, 2.03863233327865600586e-02) (16, 6.61775246262550354004e-02) (17, -1.94171145558357238770e-02) (18, -6.14243857562541961670e-02) (0, -7.26221203804016113281e-02) (1, 1.95848494768142700195e-02) (2, -5.65350167453289031982e-02) (3, 1.77204608917236328125e-02) (4, -8.69226679205894470215e-02) (5, 6.78234025835990905762e-02) (6, 3.00930067896842956543e-02) (7, 5.44928535819053649902e-02) (8, -2.40768343210220336914e-02) (9, 1.04496479034423828125e-02) (10, -8.25742781162261962891e-02) (11, 3.76157835125923156738e-02) (12, -5.90668357908725738525e-02) (13, 3.48810628056526184082e-02) (14, 8.18908289074897766113e-02) (15, 5.92910870909690856934e-02) (16, 4.56468388438224792480e-02) (17, 8.44122692942619323730e-02) (18, 1.54466778039932250977e-02) (0, 8.26478004455566406250e-03) (1, -5.41876181960105895996e-02) (2, -7.88018107414245605469e-02) (3, 5.84684684872627258301e-02) (4, 9.30482223629951477051e-02) (5, -8.53527635335922241211e-02) (6, 1.60773843526840209961e-03) (7, 9.64229181408882141113e-02) (8, 3.50335612893104553223e-02) (9, -3.22147458791732788086e-02) (10, -2.29941830039024353027e-02) (11, 7.36091807484626770020e-02) (12, -4.83686476945877075195e-03) (13, 9.65906456112861633301e-02) (14, -8.29258337616920471191e-02) (15, -8.71164053678512573242e-02) (16, -9.03320088982582092285e-02) (17, 8.48975703120231628418e-02) (18, 4.29766103625297546387e-02) (0, 6.41608461737632751465e-02) (1, -3.91792654991149902344e-02) (2, -4.65737544000148773193e-02) (3, 8.15865620970726013184e-02) (4, 9.84365120530128479004e-02) (5, -5.64058870077133178711e-03) (6, 1.64676457643508911133e-02) (7, 8.03273394703865051270e-02) (8, -4.63494956493377685547e-02) (9, -3.78855243325233459473e-02) (10, 6.47395923733711242676e-02) (11, 6.90971687436103820801e-02) (12, 7.03792646527290344238e-02) (13, -8.94480198621749877930e-02) (14, 9.02953818440437316895e-02) (15, 2.88477167487144470215e-02) (16, -9.63997915387153625488e-02) (17, -9.50573980808258056641e-02) (18, -6.95445463061332702637e-02) (0, -9.99768674373626708984e-02) (1, 3.99761721491813659668e-02) (2, -1.75928324460983276367e-03) (3, -2.29710489511489868164e-02) (4, 1.35853439569473266602e-02) (5, 9.34038534760475158691e-02) (6, -2.63803973793983459473e-02) (7, 3.06595042347908020020e-02) (8, -9.37125533819198608398e-02) (9, -1.67124122381210327148e-02) (10, 1.55570730566978454590e-02) (11, 4.92640510201454162598e-02) (12, -5.25515638291835784912e-02) (13, 7.63778164982795715332e-02) (14, -9.73097085952758789062e-02) (15, -7.09649920463562011719e-02) (16, 7.48143270611763000488e-02) (17, -2.95029580593109130859e-03) (18, 4.55026552081108093262e-02) (0, 5.51416501402854919434e-02) (1, 5.07001951336860656738e-02) (2, -9.23828780651092529297e-02) (3, 1.98812484741210937500e-02) (4, 1.97973847389221191406e-02) (5, 7.79963806271553039551e-02) (6, 3.04332450032234191895e-02) (7, 1.00927501916885375977e-02) (8, 6.84408843517303466797e-03) (9, 3.40334400534629821777e-02) (10, 1.50353536009788513184e-02) (11, 3.72995510697364807129e-02) (12, 3.40565815567970275879e-02) (13, -4.49884794652462005615e-02) (14, -6.44597411155700683594e-02) (15, -8.89144763350486755371e-02) (16, 6.85968622565269470215e-02) (17, -7.10558891296386718750e-02) (18, -1.52948722243309020996e-02) (0, -7.43620097637176513672e-04) (1, -6.47684484720230102539e-02) (2, 6.79927244782447814941e-02) (3, -8.51865410804748535156e-02) (4, 8.44956114888191223145e-02) (5, -8.45588445663452148438e-02) (6, 9.11912694573402404785e-02) (7, 8.71858969330787658691e-02) (8, -5.55238388478755950928e-02) (9, 6.60055950284004211426e-02) (10, -1.57644003629684448242e-02) (11, 8.99788215756416320801e-02) (12, 2.11472511291503906250e-02) (13, -6.50642067193984985352e-02) (14, 9.75959375500679016113e-02) (15, -5.89714944362640380859e-02) (16, 5.47331795096397399902e-02) (17, 7.55923166871070861816e-02) (18, 7.14617446064949035645e-02) (0, -3.51740717887878417969e-02) (1, -1.75635963678359985352e-02) (2, 5.49519062042236328125e-03) (3, 7.98612907528877258301e-02) (4, -8.02640467882156372070e-02) (5, -6.04482367634773254395e-02) (6, -6.51272013783454895020e-02) (7, -4.47237864136695861816e-02) (8, -4.93627153337001800537e-02) (9, -9.65303331613540649414e-02) (10, -1.57796666026115417480e-02) (11, 3.53424176573753356934e-02) (12, 2.72605568170547485352e-03) (13, 1.94518938660621643066e-02) (14, 3.33513319492340087891e-03) (15, 1.75395160913467407227e-02) (16, 3.94749641418457031250e-03) (17, 1.87762826681137084961e-02) (18, 8.73078405857086181641e-03) (0, -8.86661559343338012695e-03) (1, 6.32524564862251281738e-02) (2, -2.52636298537254333496e-02) (3, 7.53689929842948913574e-02) (4, 5.32312616705894470215e-02) (5, 9.58836153149604797363e-02) (6, -8.96952226758003234863e-02) (7, 5.08271977305412292480e-02) (8, -6.30878731608390808105e-02) (9, 6.50379583239555358887e-02) (10, 2.64195129275321960449e-02) (11, -9.16261300444602966309e-02) (12, -7.01361149549484252930e-02) (13, -9.11440923810005187988e-02) (14, 1.38690620660781860352e-02) (15, -9.02748405933380126953e-02) (16, -7.14081376791000366211e-02) (17, 5.34208193421363830566e-02) (18, -5.54020367562770843506e-02) (0, -1.61319226026535034180e-02) (1, -9.59418937563896179199e-02) (2, -5.19323647022247314453e-02) (3, 6.80884197354316711426e-02) (4, 3.94005253911018371582e-02) (5, 5.07936850190162658691e-02) (6, -1.24597027897834777832e-02) (7, -5.72643503546714782715e-02) (8, -3.16668003797531127930e-02) (9, 9.14877876639366149902e-02) (10, 6.15119412541389465332e-02) (11, 7.70639851689338684082e-02) (12, -1.73788219690322875977e-02) (13, 2.47643962502479553223e-02) (14, -4.81996536254882812500e-02) (15, -4.20098416507244110107e-02) (16, -2.20043510198593139648e-02) (17, -5.23160360753536224365e-02) (18, -3.17050591111183166504e-02) (0, -7.11771547794342041016e-02) (1, -1.54039114713668823242e-02) (2, -6.66671022772789001465e-02) (3, 5.52423521876335144043e-02) (4, -7.03003257513046264648e-03) (5, -3.68032157421112060547e-02) (6, 6.40982612967491149902e-02) (7, -9.31609794497489929199e-02) (8, -2.70780473947525024414e-02) (9, 9.26901325583457946777e-02) (10, 6.02598413825035095215e-02) (11, 1.75199136137962341309e-02) (12, -2.34417840838432312012e-02) (13, 6.43179491162300109863e-02) (14, 6.55875578522682189941e-02) (15, -5.53533770143985748291e-02) (16, 3.71847301721572875977e-03) (17, 1.63812413811683654785e-02) (18, 3.21869328618049621582e-02) (0, 4.64541241526603698730e-02) (1, 8.47144350409507751465e-02) (2, 2.36747115850448608398e-02) (3, 7.96606391668319702148e-03) (4, 6.17784038186073303223e-02) (5, -9.37041118741035461426e-02) (6, -6.72695487737655639648e-02) (7, -8.64212512969970703125e-02) (8, -3.57139483094215393066e-02) (9, 1.07261091470718383789e-02) (10, -3.87372784316539764404e-02) (11, 3.25809940695762634277e-02) (12, 3.95489409565925598145e-02) (13, 4.58588078618049621582e-02) (14, 6.59138932824134826660e-02) (15, -5.20869344472885131836e-03) (16, -6.11712224781513214111e-02) (17, -7.08893239498138427734e-02) (18, -4.11104336380958557129e-02) (0, -5.43322041630744934082e-02) (1, 2.03262269496917724609e-03) (2, -4.84203062951564788818e-02) (3, -9.40723642706871032715e-02) (4, -8.04474651813507080078e-02) (5, 2.81379148364067077637e-02) (6, 7.02455863356590270996e-02) (7, 8.51400867104530334473e-02) (8, 7.27845355868339538574e-02) (9, -2.60359495878219604492e-02) (10, 1.52132660150527954102e-03) (11, 4.97145950794219970703e-03) (12, -7.95818269252777099609e-02) (13, -1.37642398476600646973e-02) (14, -7.13538303971290588379e-02) (15, 2.83842310309410095215e-02) (16, -5.19858263432979583740e-02) (17, -6.50579407811164855957e-02) (18, 6.11146762967109680176e-02) (19, -3.84070761501789093018e-02) (20, -7.71887600421905517578e-04) (21, -2.81592160463333129883e-02) (22, 2.28556394577026367188e-02) (23, -6.81909024715423583984e-02) (24, -8.86102616786956787109e-02) (25, -3.12855392694473266602e-02) (26, 9.77229997515678405762e-02) (27, 6.18104636669158935547e-03) (28, 7.54322856664657592773e-03) (29, -7.31663256883621215820e-02) (30, 6.50706216692924499512e-02) (31, 5.32110407948493957520e-02) (32, 2.88662984967231750488e-02) (33, -8.33496898412704467773e-02) (34, 5.91386631131172180176e-02) (19, 4.84188273549079895020e-02) (20, 4.47882190346717834473e-02) (21, 2.93842628598213195801e-02) (22, 3.35589274764060974121e-02) (23, 1.75727456808090209961e-02) (24, -9.66516956686973571777e-02) (25, -6.49197399616241455078e-02) (26, -7.74557888507843017578e-02) (27, -7.62335136532783508301e-02) (28, 2.13160142302513122559e-02) (29, -4.88096177577972412109e-02) (30, 5.21507188677787780762e-02) (31, 6.93301931023597717285e-02) (32, -1.38675570487976074219e-02) (33, 1.32654085755348205566e-02) (34, -6.90768808126449584961e-02) (19, 8.53605493903160095215e-02) (20, 8.51062014698982238770e-02) (21, 5.37787750363349914551e-02) (22, -8.28303396701812744141e-02) (23, 9.64959338307380676270e-02) (24, -7.75067806243896484375e-02) (25, -8.51073488593101501465e-02) (26, 2.67697870731353759766e-03) (27, 3.00364568829536437988e-02) (28, -5.82736730575561523438e-02) (29, -3.22524085640907287598e-02) (30, -1.67525187134742736816e-02) (31, 7.05926343798637390137e-02) (32, -1.56020969152450561523e-02) (33, -5.76138496398925781250e-02) (34, 1.90114602446556091309e-02) (19, -7.08138793706893920898e-02) (20, 7.17704072594642639160e-02) (21, -4.74296174943447113037e-02) (22, 4.67588827013969421387e-02) (23, 7.51187130808830261230e-02) (24, -1.23493522405624389648e-02) (25, 6.93030878901481628418e-02) (26, 9.88851860165596008301e-02) (27, -9.10333395004272460938e-02) (28, -7.95065313577651977539e-02) (29, 5.10359182953834533691e-02) (30, 7.82968625426292419434e-02) (31, 6.62591308355331420898e-03) (32, -3.56986820697784423828e-02) (33, -9.07800272107124328613e-02) (34, -8.01353156566619873047e-03) (19, -5.05924858152866363525e-02) (20, 6.29987344145774841309e-02) (21, 9.15613025426864624023e-03) (22, -5.40965497493743896484e-02) (23, 8.54919627308845520020e-02) (24, 2.40487828850746154785e-02) (25, 4.85804304480552673340e-02) (26, 1.55284032225608825684e-02) (27, 6.57751038670539855957e-02) (28, -8.36719870567321777344e-02) (29, 9.87758859992027282715e-02) (30, 3.63677367568016052246e-02) (31, 7.25910067558288574219e-04) (32, -5.88379614055156707764e-02) (33, -4.46208082139492034912e-02) (34, 2.99120470881462097168e-02) (19, -8.70675593614578247070e-02) (20, 7.94957578182220458984e-03) (21, -2.33290866017341613770e-02) (22, 8.80511477589607238770e-02) (23, 9.56002250313758850098e-02) (24, -5.40259964764118194580e-02) (25, 8.69363471865653991699e-02) (26, -9.54331085085868835449e-02) (27, -3.35325300693511962891e-02) (28, 3.79722639918327331543e-02) (29, 8.28637555241584777832e-02) (30, 7.30933919548988342285e-02) (31, -9.77264195680618286133e-02) (32, 9.20837298035621643066e-02) (33, -3.49201411008834838867e-02) (34, -4.83189038932323455811e-02) (19, 5.50824627280235290527e-02) (20, 7.42359831929206848145e-02) (21, -2.41545587778091430664e-03) (22, 4.05744239687919616699e-02) (23, -1.71522796154022216797e-03) (24, -5.38350306451320648193e-02) (25, -4.38971705734729766846e-02) (26, -3.59401255846023559570e-02) (27, -3.75070087611675262451e-02) (28, -4.51212823390960693359e-02) (29, -9.95723903179168701172e-02) (30, 6.32188990712165832520e-02) (31, -3.95924597978591918945e-03) (32, -4.41931895911693572998e-02) (33, -6.86905533075332641602e-03) (34, 8.97319614887237548828e-03) (19, 6.37563988566398620605e-02) (20, 6.98018744587898254395e-02) (21, -2.97565758228302001953e-03) (22, 5.93566223978996276855e-02) (23, -8.42241346836090087891e-02) (24, -1.60393044352531433105e-02) (25, 6.39235153794288635254e-02) (26, -1.77566558122634887695e-02) (27, -7.80670493841171264648e-02) (28, 4.67872694134712219238e-02) (29, -4.46632765233516693115e-02) (30, -7.57934674620628356934e-02) (31, 3.88709977269172668457e-02) (32, 2.04165801405906677246e-02) (33, -2.41123661398887634277e-02) (34, -6.04654103517532348633e-03) (19, -5.34744560718536376953e-03) (20, 7.34721794724464416504e-02) (21, -6.54721260070800781250e-02) (22, 9.29373279213905334473e-02) (23, -8.03628489375114440918e-02) (24, -9.36929136514663696289e-03) (25, -4.30027954280376434326e-02) (26, -1.78698599338531494141e-02) (27, 4.55094352364540100098e-02) (28, -4.25751805305480957031e-02) (29, -5.46509549021720886230e-02) (30, -5.84498159587383270264e-02) (31, 1.32316350936889648438e-02) (32, 3.84799912571907043457e-02) (33, 5.05233779549598693848e-02) (34, -2.30119749903678894043e-02) (19, 8.28186422586441040039e-03) (20, -5.24522736668586730957e-02) (21, -6.36553540825843811035e-02) (22, 2.40577235817909240723e-02) (23, 3.15084233880043029785e-02) (24, -9.97318401932716369629e-02) (25, -9.36989411711692810059e-02) (26, 5.34413829445838928223e-02) (27, 4.70554307103157043457e-02) (28, -3.83622162044048309326e-02) (29, 7.76479169726371765137e-02) (30, -1.40735805034637451172e-02) (31, 8.20543691515922546387e-02) (32, -4.64644543826580047607e-02) (33, 7.98798874020576477051e-02) (34, -2.32930779457092285156e-02) (19, -7.29922801256179809570e-02) (20, -8.55922400951385498047e-02) (21, -3.03557515144348144531e-02) (22, -5.33551238477230072021e-02) (23, 5.03846257925033569336e-03) (24, 2.66414508223533630371e-02) (25, 2.87750139832496643066e-02) (26, -4.94521036744117736816e-02) (27, 8.40662792325019836426e-02) (28, 7.41240605711936950684e-02) (29, -7.90192186832427978516e-03) (30, -2.70210206508636474609e-03) (31, 1.26040577888488769531e-02) (32, -5.73785379528999328613e-02) (33, 7.42859318852424621582e-02) (34, -7.91140869259834289551e-02) (19, -9.83081012964248657227e-03) (20, -8.93694236874580383301e-02) (21, 4.49436381459236145020e-02) (22, -7.83223882317543029785e-02) (23, -8.91012623906135559082e-02) (24, 5.12446984648704528809e-02) (25, 7.51189813017845153809e-02) (26, 5.79541698098182678223e-02) (27, -8.71175155043601989746e-02) (28, 5.27668967843055725098e-02) (29, -5.61194121837615966797e-02) (30, 9.49368551373481750488e-02) (31, -9.36975553631782531738e-02) (32, -7.62395337224006652832e-02) (33, -2.83562242984771728516e-02) (34, -6.66898339986801147461e-02) (35, -6.18317760527133941650e-02) (36, 4.12880256772041320801e-02) (37, -2.00449600815773010254e-02) (38, 4.32066991925239562988e-02) (39, -3.20705249905586242676e-02) (40, -9.12699475884437561035e-02) (41, 9.37545970082283020020e-02) (42, -4.80042509734630584717e-02) (43, 8.28541144728660583496e-02) (44, -1.41473263502120971680e-02) (45, 4.92936447262763977051e-02) (46, -4.54182922840118408203e-03) (47, 2.84741446375846862793e-02) (35, 2.35795825719833374023e-02) (36, 1.63440927863121032715e-02) (37, -8.13566744327545166016e-02) (38, 3.42101529240608215332e-02) (39, -3.87122742831707000732e-02) (40, -5.96790611743927001953e-02) (41, 4.51089069247245788574e-02) (42, -8.74675735831260681152e-02) (43, -8.45600739121437072754e-02) (44, 3.06306779384613037109e-03) (45, -7.45850875973701477051e-02) (46, 6.82068243622779846191e-02) (47, 4.69436571002006530762e-02) (35, -7.96482414007186889648e-02) (36, 7.45092704892158508301e-02) (37, 7.07041248679161071777e-02) (38, -8.00446420907974243164e-03) (39, -9.21805649995803833008e-02) (40, -9.11276489496231079102e-02) (41, -6.67164474725723266602e-02) (42, -1.22255235910415649414e-02) (43, 5.20790442824363708496e-02) (44, 1.21303647756576538086e-03) (45, -3.49546968936920166016e-03) (46, 4.58336398005485534668e-02) (47, 5.32087907195091247559e-02) (35, -2.06413418054580688477e-02) (36, -6.83136880397796630859e-02) (37, 2.50244140625000000000e-03) (38, 7.48168304562568664551e-02) (39, 6.01604506373405456543e-02) (40, -7.39179775118827819824e-02) (41, -8.83908569812774658203e-03) (42, 7.88037851452827453613e-02) (43, 6.02921918034553527832e-02) (44, 5.24486377835273742676e-02) (45, -8.08752924203872680664e-02) (46, 5.40108978748321533203e-03) (47, 6.49810656905174255371e-02) (35, -6.54353648424148559570e-02) (36, -9.15358513593673706055e-02) (37, 9.03959944844245910645e-02) (38, -9.72285345196723937988e-02) (39, 5.54078146815299987793e-02) (40, -8.92522558569908142090e-02) (41, 7.72807374596595764160e-02) (42, 2.61119380593299865723e-02) (43, 2.74328142404556274414e-03) (44, 8.51001814007759094238e-02) (45, 3.49842831492424011230e-02) (46, 3.60268428921699523926e-02) (47, -2.71253436803817749023e-02) (35, -1.29366740584373474121e-02) (36, -6.27601295709609985352e-02) (37, 6.93791881203651428223e-02) (38, -6.71030431985855102539e-02) (39, 9.04486700892448425293e-02) (40, -5.12621551752090454102e-02) (41, -3.54167371988296508789e-02) (42, -7.04888999462127685547e-03) (43, -7.64453262090682983398e-02) (44, -7.52562880516052246094e-02) (45, 1.90331339836120605469e-02) (46, 1.47155895829200744629e-02) (47, -9.64525192975997924805e-02) (35, -2.06746831536293029785e-02) (36, -3.28357666730880737305e-02) (37, -7.73278027772903442383e-02) (38, 8.47264006733894348145e-02) (39, -6.78546950221061706543e-02) (40, -4.27631624042987823486e-02) (41, 9.31905582547187805176e-02) (42, -7.74587094783782958984e-02) (43, -3.99916954338550567627e-02) (44, 4.85983565449714660645e-02) (45, -6.67109638452529907227e-02) (46, -6.27109557390213012695e-02) (47, -2.52896994352340698242e-02) (35, 3.60323265194892883301e-02) (36, -7.76107832789421081543e-02) (37, -9.03054177761077880859e-02) (38, -2.79408395290374755859e-02) (39, -4.73612546920776367188e-03) (40, -3.24209034442901611328e-03) (41, 9.29903984069824218750e-03) (42, -3.53569313883781433105e-02) (43, 2.96548679471015930176e-02) (44, -2.52299010753631591797e-04) (45, 1.33809074759483337402e-02) (46, 9.42381396889686584473e-02) (47, 9.26988199353218078613e-02) (35, 3.69355753064155578613e-02) (36, -8.10181498527526855469e-02) (37, 1.17319449782371520996e-02) (38, -4.83488328754901885986e-02) (39, -7.74706602096557617188e-02) (40, 9.10572633147239685059e-02) (41, 1.88154131174087524414e-02) (42, -5.47984652221202850342e-02) (43, 7.57836624979972839355e-02) (44, 5.09607270359992980957e-02) (45, 2.43838131427764892578e-03) (46, 6.89742192625999450684e-02) (47, 7.35020115971565246582e-02) (35, 6.24466761946678161621e-02) (36, 1.75725817680358886719e-02) (37, -9.32089611887931823730e-02) (38, 9.97357293963432312012e-02) (39, 9.22828838229179382324e-02) (40, 4.28233668208122253418e-02) (41, -7.78750628232955932617e-02) (42, -9.80225354433059692383e-02) (43, -8.51174816489219665527e-02) (44, 1.73888206481933593750e-02) (45, -1.26462429761886596680e-03) (46, 2.41815596818923950195e-02) (47, 8.20318832993507385254e-02) 
