FANN_FLO_2.1
num_layers=4
learning_rate=0.700000
connection_rate=1.000000
network_type=0
learning_momentum=0.000000
training_algorithm=2
train_error_function=1
train_stop_function=0
cascade_output_change_fraction=0.010000
quickprop_decay=-0.000100
quickprop_mu=1.750000
rprop_increase_factor=1.200000
rprop_decrease_factor=0.500000
rprop_delta_min=0.000000
rprop_delta_max=50.000000
rprop_delta_zero=0.100000
cascade_output_stagnation_epochs=12
cascade_candidate_change_fraction=0.010000
cascade_candidate_stagnation_epochs=12
cascade_max_out_epochs=150
cascade_min_out_epochs=50
cascade_max_cand_epochs=150
cascade_min_cand_epochs=50
cascade_num_candidate_groups=2
bit_fail_limit=3.49999994039535522461e-01
cascade_candidate_limit=1.00000000000000000000e+03
cascade_weight_multiplier=4.00000005960464477539e-01
cascade_activation_functions_count=10
cascade_activation_functions=3 5 7 8 10 11 14 15 16 17 
cascade_activation_steepnesses_count=4
cascade_activation_steepnesses=2.50000000000000000000e-01 5.00000000000000000000e-01 7.50000000000000000000e-01 1.00000000000000000000e+00 
layer_sizes=15 13 12 11 
scale_included=0
neurons (num_inputs, activation_function, activation_steepness)=(0, 0, 0.00000000000000000000e+00) (0, 0, 0.00000000000000000000e+00) (0, 0, 0.00000000000000000000e+00) (0, 0, 0.00000000000000000000e+00) (0, 0, 0.00000000000000000000e+00) (0, 0, 0.00000000000000000000e+00) (0, 0, 0.00000000000000000000e+00) (0, 0, 0.00000000000000000000e+00) (0, 0, 0.00000000000000000000e+00) (0, 0, 0.00000000000000000000e+00) (0, 0, 0.00000000000000000000e+00) (0, 0, 0.00000000000000000000e+00) (0, 0, 0.00000000000000000000e+00) (0, 0, 0.00000000000000000000e+00) (0, 0, 0.00000000000000000000e+00) (15, 5, 5.00000000000000000000e-01) (15, 5, 5.00000000000000000000e-01) (15, 5, 5.00000000000000000000e-01) (15, 5, 5.00000000000000000000e-01) (15, 5, 5.00000000000000000000e-01) (15, 5, 5.00000000000000000000e-01) (15, 5, 5.00000000000000000000e-01) (15, 5, 5.00000000000000000000e-01) (15, 5, 5.00000000000000000000e-01) (15, 5, 5.00000000000000000000e-01) (15, 5, 5.00000000000000000000e-01) (15, 5, 5.00000000000000000000e-01) (0, 5, 0.00000000000000000000e+00) (13, 5, 5.00000000000000000000e-01) (13, 5, 5.00000000000000000000e-01) (13, 5, 5.00000000000000000000e-01) (13, 5, 5.00000000000000000000e-01) (13, 5, 5.00000000000000000000e-01) (13, 5, 5.00000000000000000000e-01) (13, 5, 5.00000000000000000000e-01) (13, 5, 5.00000000000000000000e-01) (13, 5, 5.00000000000000000000e-01) (13, 5, 5.00000000000000000000e-01) (13, 5, 5.00000000000000000000e-01) (0, 5, 0.00000000000000000000e+00) (12, 5, 5.00000000000000000000e-01) (12, 5, 5.00000000000000000000e-01) (12, 5, 5.00000000000000000000e-01) (12, 5, 5.00000000000000000000e-01) (12, 5, 5.00000000000000000000e-01) (12, 5, 5.00000000000000000000e-01) (12, 5, 5.00000000000000000000e-01) (12, 5, 5.00000000000000000000e-01) (12, 5, 5.00000000000000000000e-01) (12, 5, 5.00000000000000000000e-01) (0, 5, 0.00000000000000000000e+00) 
connections (connected_to_neuron, weight)=(0, -9.12832990288734436035e-02) (1, -6.60584867000579833984e-03) (2, -3.63181531429290771484e-03) (3, -4.58949767053127288818e-02) (4, -7.94396474957466125488e-02) (5, 8.54718759655952453613e-02) (6, -5.88433258235454559326e-02) (7, 6.99565559625625610352e-03) (8, 5.98573759198188781738e-02) (9, 4.06417772173881530762e-02) (10, 8.12384560704231262207e-02) (11, -7.27889686822891235352e-02) (12, -1.48152858018875122070e-02) (13, -4.46286275982856750488e-02) (14, -2.07014456391334533691e-02) (0, -8.10143947601318359375e-02) (1, 4.02625873684883117676e-02) (2, -7.67030939459800720215e-02) (3, -4.03716079890727996826e-02) (4, 3.97419407963752746582e-02) (5, -4.82448749244213104248e-02) (6, 5.09738698601722717285e-02) (7, 9.89536717534065246582e-02) (8, -4.33677546679973602295e-02) (9, 8.05777534842491149902e-02) (10, -2.86196768283843994141e-02) (11, 4.80914041399955749512e-02) (12, -2.18646228313446044922e-03) (13, 4.50439825654029846191e-02) (14, 9.05730798840522766113e-02) (0, -3.75828444957733154297e-02) (1, 5.37606850266456604004e-02) (2, -1.60327702760696411133e-02) (3, 5.87853267788887023926e-02) (4, -9.21342894434928894043e-02) (5, 4.52759116888046264648e-03) (6, 4.42572012543678283691e-02) (7, -5.09776137769222259521e-02) (8, -8.84767621755599975586e-02) (9, 4.11456823348999023438e-03) (10, 8.96641686558723449707e-02) (11, 9.27617028355598449707e-02) (12, 3.13256010413169860840e-02) (13, -2.51511186361312866211e-02) (14, -5.18669262528419494629e-02) (0, -8.93758386373519897461e-02) (1, -6.16551935672760009766e-03) (2, 8.83956626057624816895e-02) (3, -6.60789310932159423828e-02) (4, 5.34628704190254211426e-02) (5, 2.81376019120216369629e-02) (6, -1.43238082528114318848e-02) (7, 4.43674623966217041016e-03) (8, 2.70912721753120422363e-02) (9, 4.23084422945976257324e-02) (10, -1.49854943156242370605e-02) (11, 9.84715893864631652832e-02) (12, -9.60015505552291870117e-03) (13, 8.28280523419380187988e-02) (14, 4.35155704617500305176e-02) (0, -1.90270766615867614746e-02) (1, -5.47548048198223114014e-02) (2, -2.72374600172042846680e-03) (3, 6.49401620030403137207e-02) (4, -9.59694683551788330078e-02) (5, 5.14195859432220458984e-03) (6, -3.05322557687759399414e-02) (7, 4.82877269387245178223e-02) (8, 5.41643574833869934082e-02) (9, -1.90090239048004150391e-02) (10, -4.75976951420307159424e-02) (11, 4.38285097479820251465e-02) (12, -2.62473225593566894531e-02) (13, 8.37279036641120910645e-02) (14, -8.13226103782653808594e-02) (0, 2.18857526779174804688e-02) (1, 9.43520739674568176270e-02) (2, 1.25118717551231384277e-02) (3, 1.02814212441444396973e-02) (4, -7.17268511652946472168e-02) (5, -3.40252518653869628906e-02) (6, -6.15809820592403411865e-02) (7, 1.39493346214294433594e-02) (8, 7.04115107655525207520e-02) (9, 6.55102804303169250488e-02) (10, -4.37422208487987518311e-02) (11, -4.45739999413490295410e-02) (12, 6.39818683266639709473e-02) (13, 4.66576293110847473145e-02) (14, -6.17459602653980255127e-02) (0, 7.49744474887847900391e-03) (1, -7.23694562911987304688e-02) (2, -1.65007561445236206055e-02) (3, -9.52263101935386657715e-02) (4, 9.25706997513771057129e-02) (5, -1.24702304601669311523e-02) (6, 9.91564989089965820312e-03) (7, -3.79615686833858489990e-02) (8, -6.41825050115585327148e-02) (9, -3.59199941158294677734e-02) (10, 4.30294200778007507324e-02) (11, -1.17801949381828308105e-02) (12, -9.20914784073829650879e-02) (13, -8.32179114222526550293e-02) (14, -2.80522853136062622070e-02) (0, -7.34140872955322265625e-02) (1, 3.86678501963615417480e-02) (2, -3.37002128362655639648e-02) (3, 3.90977934002876281738e-02) (4, -5.10507375001907348633e-02) (5, -5.42706251144409179688e-03) (6, -9.49274599552154541016e-02) (7, -1.26317143440246582031e-02) (8, -9.14777219295501708984e-02) (9, 7.54840448498725891113e-02) (10, -4.71214316785335540771e-02) (11, -3.52199450135231018066e-02) (12, -6.90899640321731567383e-02) (13, -8.31395611166954040527e-02) (14, -8.85623246431350708008e-02) (0, -3.08359190821647644043e-02) (1, 2.43578776717185974121e-02) (2, -6.09317831695079803467e-02) (3, 5.26633188128471374512e-02) (4, 2.91315689682960510254e-02) (5, -6.83610886335372924805e-02) (6, -5.98069131374359130859e-02) (7, -6.09527751803398132324e-02) (8, -6.32265210151672363281e-03) (9, -2.39894092082977294922e-02) (10, 3.12723219394683837891e-03) (11, -6.32932335138320922852e-02) (12, 6.42303898930549621582e-02) (13, 1.10357552766799926758e-02) (14, -4.65111434459686279297e-02) (0, -6.38218969106674194336e-02) (1, 3.76216694712638854980e-02) (2, 9.21567007899284362793e-02) (3, 2.47789919376373291016e-03) (4, -2.32805460691452026367e-02) (5, -5.88940382003784179688e-02) (6, 9.70508381724357604980e-02) (7, -1.82080045342445373535e-02) (8, 2.84742489457130432129e-02) (9, -9.44268852472305297852e-02) (10, -4.27239648997783660889e-02) (11, 8.13528224825859069824e-02) (12, -2.96468287706375122070e-02) (13, -1.18139237165451049805e-02) (14, 9.82132628560066223145e-02) (0, -1.82091444730758666992e-02) (1, 5.73501661419868469238e-02) (2, 2.25711315870285034180e-02) (3, 2.08590775728225708008e-02) (4, 1.00134760141372680664e-02) (5, -4.82972972095012664795e-02) (6, 5.24979904294013977051e-02) (7, 5.02065494656562805176e-02) (8, -9.25007462501525878906e-03) (9, -5.38246668875217437744e-02) (10, -7.37828537821769714355e-02) (11, 9.38771590590476989746e-02) (12, -1.71179026365280151367e-02) (13, 9.04475525021553039551e-02) (14, 4.91291284561157226562e-03) (0, 3.63709554076194763184e-02) (1, -7.33743458986282348633e-02) (2, -5.74654154479503631592e-02) (3, 2.85276547074317932129e-02) (4, 2.91035547852516174316e-02) (5, 1.92540436983108520508e-02) (6, 6.96336105465888977051e-02) (7, 2.61543914675712585449e-02) (8, -9.89539623260498046875e-02) (9, -1.89213454723358154297e-03) (10, 3.17275002598762512207e-02) (11, -4.16779294610023498535e-02) (12, -2.05393284559249877930e-02) (13, -9.79193150997161865234e-02) (14, 4.65081408619880676270e-02) (15, -2.23260745406150817871e-02) (16, -1.61284655332565307617e-02) (17, 3.85830551385879516602e-03) (18, -9.97549444437026977539e-02) (19, -9.52693894505500793457e-02) (20, -8.61282274127006530762e-02) (21, -4.80522401630878448486e-02) (22, 5.72286024689674377441e-02) (23, 6.40783384442329406738e-02) (24, 4.26976755261421203613e-02) (25, -9.65960696339607238770e-02) (26, 9.02954861521720886230e-02) (27, 3.65748479962348937988e-02) (15, -1.37139707803726196289e-02) (16, 8.07430222630500793457e-02) (17, -5.85122369229793548584e-02) (18, -7.73430168628692626953e-02) (19, -9.26313251256942749023e-02) (20, -1.59776583313941955566e-02) (21, 5.11846318840980529785e-02) (22, 3.64722236990928649902e-02) (23, -9.67236161231994628906e-02) (24, 2.08182483911514282227e-02) (25, -3.73733788728713989258e-02) (26, -9.56775769591331481934e-02) (27, -8.10738950967788696289e-02) (15, 9.43541303277015686035e-02) (16, -3.73554974794387817383e-02) (17, -1.61321461200714111328e-03) (18, 9.64348092675209045410e-02) (19, -9.08473506569862365723e-02) (20, 7.60607197880744934082e-02) (21, -1.96936503052711486816e-02) (22, 1.30109563469886779785e-02) (23, 7.63057544827461242676e-02) (24, -1.49630382657051086426e-02) (25, 2.68827155232429504395e-02) (26, -7.17464759945869445801e-02) (27, -5.77344410121440887451e-02) (15, -9.03894007205963134766e-03) (16, 7.09512159228324890137e-02) (17, -5.43305091559886932373e-02) (18, -1.87434554100036621094e-02) (19, 7.52605497837066650391e-03) (20, 3.19555178284645080566e-02) (21, -3.80004346370697021484e-02) (22, 4.90138158202171325684e-02) (23, 5.46125099062919616699e-02) (24, -3.06317657232284545898e-02) (25, -6.69638440012931823730e-02) (26, 5.79713284969329833984e-03) (27, -9.41595360636711120605e-02) (15, -6.36874586343765258789e-02) (16, -7.33846127986907958984e-02) (17, -3.15329208970069885254e-02) (18, -5.93650303781032562256e-02) (19, -5.44585064053535461426e-02) (20, -3.71787920594215393066e-02) (21, 3.27946990728378295898e-03) (22, 4.39282730221748352051e-02) (23, -4.07439842820167541504e-02) (24, 1.24321132898330688477e-02) (25, 1.99889764189720153809e-02) (26, 3.95623669028282165527e-02) (27, -7.45569318532943725586e-02) (15, -3.70524823665618896484e-03) (16, -7.54006728529930114746e-02) (17, 5.23257926106452941895e-02) (18, 2.45482698082923889160e-02) (19, -3.31351086497306823730e-02) (20, -5.67131452262401580811e-02) (21, -4.50052320957183837891e-03) (22, 1.25343799591064453125e-02) (23, 2.45433896780014038086e-02) (24, -9.69744771718978881836e-02) (25, -5.55100999772548675537e-02) (26, 8.65429714322090148926e-02) (27, 5.20393326878547668457e-02) (15, 9.91024002432823181152e-02) (16, -4.40887995064258575439e-02) (17, 8.50755050778388977051e-02) (18, 4.89953905344009399414e-03) (19, -3.82483303546905517578e-02) (20, -7.86119550466537475586e-02) (21, 3.15149351954460144043e-02) (22, 3.02187576889991760254e-02) (23, -3.79769913852214813232e-02) (24, 7.70564153790473937988e-02) (25, 9.30399522185325622559e-02) (26, 6.53024837374687194824e-02) (27, 2.09846943616867065430e-02) (15, -4.77040223777294158936e-02) (16, -2.22654044628143310547e-02) (17, -5.90263232588768005371e-02) (18, 9.18583497405052185059e-02) (19, 3.17766517400741577148e-03) (20, 3.72684225440025329590e-02) (21, -8.35423246026039123535e-02) (22, -4.44965474307537078857e-02) (23, -3.81833091378211975098e-02) (24, -1.66774392127990722656e-02) (25, -1.20969116687774658203e-03) (26, 5.73161616921424865723e-02) (27, 9.58569422364234924316e-02) (15, -7.66662955284118652344e-02) (16, 6.03416934609413146973e-02) (17, -5.96531592309474945068e-02) (18, -9.01233330368995666504e-02) (19, 1.23810321092605590820e-02) (20, -6.05507567524909973145e-02) (21, -3.42121273279190063477e-02) (22, -2.54346430301666259766e-03) (23, 4.43487837910652160645e-02) (24, 2.75395438075065612793e-02) (25, 1.88445672392845153809e-02) (26, -2.41362899541854858398e-02) (27, -4.22417186200618743896e-02) (15, 8.08675810694694519043e-02) (16, -4.70798686146736145020e-02) (17, -4.92017567157745361328e-02) (18, 4.61700633168220520020e-02) (19, 7.39048197865486145020e-02) (20, 3.09421867132186889648e-03) (21, -7.60953426361083984375e-02) (22, -8.51214975118637084961e-02) (23, -5.04743307828903198242e-03) (24, 2.70823165774345397949e-02) (25, 5.21469339728355407715e-02) (26, 1.14102512598037719727e-02) (27, 8.25857743620872497559e-02) (15, -8.60363766551017761230e-02) (16, 9.47328135371208190918e-02) (17, -1.86239182949066162109e-02) (18, 7.12797865271568298340e-02) (19, 9.05897542834281921387e-02) (20, 4.70978021621704101562e-03) (21, 3.16214784979820251465e-02) (22, -6.90634101629257202148e-02) (23, 1.45864486694335937500e-02) (24, -5.59974908828735351562e-02) (25, -2.96141654253005981445e-02) (26, 8.03743079304695129395e-02) (27, 4.14590314030647277832e-02) (28, -8.52653756737709045410e-02) (29, 7.91385024785995483398e-03) (30, -3.96963916718959808350e-02) (31, -9.40166413784027099609e-03) (32, 6.56721368432044982910e-02) (33, -5.88288083672523498535e-02) (34, 4.35184761881828308105e-02) (35, -8.35296213626861572266e-02) (36, 8.73412564396858215332e-02) (37, 1.74232944846153259277e-02) (38, 1.95646062493324279785e-02) (39, -8.87540876865386962891e-02) (28, 3.23018059134483337402e-02) (29, -8.54828283190727233887e-02) (30, 3.83282378315925598145e-02) (31, -1.55512616038322448730e-02) (32, 2.59274169802665710449e-02) (33, 2.09139958024024963379e-02) (34, -1.58764421939849853516e-03) (35, 2.06602215766906738281e-02) (36, -9.77099239826202392578e-02) (37, -3.03078591823577880859e-02) (38, 1.12499743700027465820e-02) (39, 6.99986517429351806641e-03) (28, -9.86863821744918823242e-02) (29, 4.21865656971931457520e-02) (30, -7.84136950969696044922e-02) (31, -5.46838678419589996338e-02) (32, -8.74276086688041687012e-02) (33, -9.80393812060356140137e-02) (34, 8.67751762270927429199e-02) (35, -7.26929828524589538574e-02) (36, 9.87447798252105712891e-03) (37, -5.29212169349193572998e-02) (38, 1.79053544998168945312e-02) (39, -2.44533866643905639648e-02) (28, -1.17500275373458862305e-02) (29, -3.85761819779872894287e-02) (30, -7.98300653696060180664e-03) (31, -2.44087725877761840820e-02) (32, 7.88471177220344543457e-02) (33, -8.84184092283248901367e-02) (34, -1.31628587841987609863e-02) (35, 1.11489295959472656250e-02) (36, -7.39012360572814941406e-02) (37, -7.48346298933029174805e-02) (38, 9.55976620316505432129e-02) (39, 5.20261749625205993652e-02) (28, 4.60793599486351013184e-02) (29, -5.98998367786407470703e-03) (30, -2.73136049509048461914e-02) (31, 4.83694449067115783691e-02) (32, 6.37021586298942565918e-02) (33, 8.39363709092140197754e-02) (34, -4.46307025849819183350e-02) (35, 6.50157853960990905762e-02) (36, 2.61229351162910461426e-02) (37, -2.30443924665451049805e-02) (38, -8.96680876612663269043e-02) (39, 3.86953279376029968262e-02) (28, -2.10837647318840026855e-02) (29, 9.71070900559425354004e-02) (30, 6.60023316740989685059e-02) (31, 8.87907072901725769043e-02) (32, -5.58141320943832397461e-02) (33, -1.60923078656196594238e-02) (34, -3.56626808643341064453e-02) (35, 3.24358418583869934082e-02) (36, 4.53315153717994689941e-02) (37, 5.63543066382408142090e-02) (38, -9.19729173183441162109e-02) (39, 2.41786390542984008789e-02) (28, 6.79359063506126403809e-02) (29, -5.13577461242675781250e-03) (30, -6.46724402904510498047e-02) (31, 9.40346792340278625488e-02) (32, 2.00295895338058471680e-02) (33, -6.90747797489166259766e-02) (34, 4.60608527064323425293e-02) (35, -3.38910371065139770508e-02) (36, 2.49352306127548217773e-02) (37, -8.12527537345886230469e-02) (38, -8.55216011404991149902e-02) (39, -1.13625973463058471680e-02) (28, -9.73163843154907226562e-02) (29, -3.01522985100746154785e-02) (30, -4.63468208909034729004e-02) (31, 2.88065448403358459473e-02) (32, 4.68033030629158020020e-02) (33, -3.60149070620536804199e-02) (34, -3.24981361627578735352e-02) (35, -7.42804557085037231445e-02) (36, -3.89078222215175628662e-02) (37, -6.64957985281944274902e-02) (38, -8.54897499084472656250e-02) (39, 5.27805089950561523438e-03) (28, 1.74119025468826293945e-02) (29, -2.11524367332458496094e-02) (30, -6.22861050069332122803e-02) (31, -3.72565835714340209961e-02) (32, -6.47981315851211547852e-02) (33, -5.42590282857418060303e-02) (34, 8.69220569729804992676e-02) (35, -9.68622267246246337891e-02) (36, 4.06051948666572570801e-02) (37, -7.77503922581672668457e-02) (38, 9.71724465489387512207e-02) (39, -3.93652096390724182129e-02) (28, -4.68251705169677734375e-02) (29, 4.32332977652549743652e-02) (30, 2.67437472939491271973e-02) (31, 7.81100764870643615723e-02) (32, 6.19805529713630676270e-02) (33, 4.12221625447273254395e-02) (34, -3.32525297999382019043e-02) (35, 6.46641626954078674316e-02) (36, -8.89301449060440063477e-02) (37, 2.04006433486938476562e-02) (38, -6.52930140495300292969e-03) (39, 5.78731670975685119629e-02) 
