FANN_FLO_2.1
num_layers=4
learning_rate=0.700000
connection_rate=1.000000
network_type=0
learning_momentum=0.000000
training_algorithm=2
train_error_function=1
train_stop_function=0
cascade_output_change_fraction=0.010000
quickprop_decay=-0.000100
quickprop_mu=1.750000
rprop_increase_factor=1.200000
rprop_decrease_factor=0.500000
rprop_delta_min=0.000000
rprop_delta_max=50.000000
rprop_delta_zero=0.100000
cascade_output_stagnation_epochs=12
cascade_candidate_change_fraction=0.010000
cascade_candidate_stagnation_epochs=12
cascade_max_out_epochs=150
cascade_min_out_epochs=50
cascade_max_cand_epochs=150
cascade_min_cand_epochs=50
cascade_num_candidate_groups=2
bit_fail_limit=3.49999994039535522461e-01
cascade_candidate_limit=1.00000000000000000000e+03
cascade_weight_multiplier=4.00000005960464477539e-01
cascade_activation_functions_count=10
cascade_activation_functions=3 5 7 8 10 11 14 15 16 17 
cascade_activation_steepnesses_count=4
cascade_activation_steepnesses=2.50000000000000000000e-01 5.00000000000000000000e-01 7.50000000000000000000e-01 1.00000000000000000000e+00 
layer_sizes=19 16 13 11 
scale_included=0
neurons (num_inputs, activation_function, activation_steepness)=(0, 0, 0.00000000000000000000e+00) (0, 0, 0.00000000000000000000e+00) (0, 0, 0.00000000000000000000e+00) (0, 0, 0.00000000000000000000e+00) (0, 0, 0.00000000000000000000e+00) (0, 0, 0.00000000000000000000e+00) (0, 0, 0.00000000000000000000e+00) (0, 0, 0.00000000000000000000e+00) (0, 0, 0.00000000000000000000e+00) (0, 0, 0.00000000000000000000e+00) (0, 0, 0.00000000000000000000e+00) (0, 0, 0.00000000000000000000e+00) (0, 0, 0.00000000000000000000e+00) (0, 0, 0.00000000000000000000e+00) (0, 0, 0.00000000000000000000e+00) (0, 0, 0.00000000000000000000e+00) (0, 0, 0.00000000000000000000e+00) (0, 0, 0.00000000000000000000e+00) (0, 0, 0.00000000000000000000e+00) (19, 5, 5.00000000000000000000e-01) (19, 5, 5.00000000000000000000e-01) (19, 5, 5.00000000000000000000e-01) (19, 5, 5.00000000000000000000e-01) (19, 5, 5.00000000000000000000e-01) (19, 5, 5.00000000000000000000e-01) (19, 5, 5.00000000000000000000e-01) (19, 5, 5.00000000000000000000e-01) (19, 5, 5.00000000000000000000e-01) (19, 5, 5.00000000000000000000e-01) (19, 5, 5.00000000000000000000e-01) (19, 5, 5.00000000000000000000e-01) (19, 5, 5.00000000000000000000e-01) (19, 5, 5.00000000000000000000e-01) (19, 5, 5.00000000000000000000e-01) (0, 5, 0.00000000000000000000e+00) (16, 5, 5.00000000000000000000e-01) (16, 5, 5.00000000000000000000e-01) (16, 5, 5.00000000000000000000e-01) (16, 5, 5.00000000000000000000e-01) (16, 5, 5.00000000000000000000e-01) (16, 5, 5.00000000000000000000e-01) (16, 5, 5.00000000000000000000e-01) (16, 5, 5.00000000000000000000e-01) (16, 5, 5.00000000000000000000e-01) (16, 5, 5.00000000000000000000e-01) (16, 5, 5.00000000000000000000e-01) (16, 5, 5.00000000000000000000e-01) (0, 5, 0.00000000000000000000e+00) (13, 5, 5.00000000000000000000e-01) (13, 5, 5.00000000000000000000e-01) (13, 5, 5.00000000000000000000e-01) (13, 5, 5.00000000000000000000e-01) (13, 5, 5.00000000000000000000e-01) (13, 5, 5.00000000000000000000e-01) (13, 5, 5.00000000000000000000e-01) (13, 5, 5.00000000000000000000e-01) (13, 5, 5.00000000000000000000e-01) (13, 5, 5.00000000000000000000e-01) (0, 5, 0.00000000000000000000e+00) 
connections (connected_to_neuron, weight)=(0, 8.36876705288887023926e-02) (1, 1.23463273048400878906e-02) (2, 5.41576966643333435059e-02) (3, -9.15509462356567382812e-03) (4, -4.33331802487373352051e-02) (5, -4.93890903890132904053e-02) (6, 8.49860385060310363770e-02) (7, 6.93418830633163452148e-03) (8, -2.48841494321823120117e-02) (9, -7.55240097641944885254e-02) (10, 3.95852327346801757812e-03) (11, 7.75193646550178527832e-02) (12, 3.60795110464096069336e-03) (13, -6.20604716241359710693e-02) (14, 2.97297611832618713379e-02) (15, -1.69109255075454711914e-02) (16, -8.19114148616790771484e-02) (17, 1.66599750518798828125e-02) (18, -8.46532359719276428223e-02) (0, 4.99293878674507141113e-02) (1, -8.94635915756225585938e-02) (2, -9.77694615721702575684e-02) (3, -7.23020061850547790527e-02) (4, 9.64753702282905578613e-02) (5, 5.84606900811195373535e-02) (6, 9.04564186930656433105e-02) (7, 5.60823827981948852539e-03) (8, -2.23620086908340454102e-02) (9, 7.32094272971153259277e-02) (10, 4.57295700907707214355e-02) (11, 3.32572236657142639160e-02) (12, 5.68971112370491027832e-02) (13, -4.19240966439247131348e-02) (14, -1.25850811600685119629e-02) (15, -5.22579960525035858154e-02) (16, 1.47427171468734741211e-02) (17, 3.80258336663246154785e-02) (18, -6.72719478607177734375e-02) (0, -7.83230885863304138184e-02) (1, -8.68583172559738159180e-02) (2, -4.27959635853767395020e-02) (3, 2.56354287266731262207e-02) (4, 9.06610563397407531738e-02) (5, 6.08120039105415344238e-02) (6, 6.35749623179435729980e-02) (7, 2.03908234834671020508e-02) (8, -5.60989305377006530762e-02) (9, 8.16635563969612121582e-02) (10, -6.29492104053497314453e-02) (11, -4.07521612942218780518e-02) (12, 3.15929278731346130371e-02) (13, -5.24127930402755737305e-02) (14, -3.85216251015663146973e-02) (15, 5.92909231781959533691e-02) (16, -5.59374168515205383301e-02) (17, -8.00609365105628967285e-02) (18, 4.97473403811454772949e-02) (0, 4.96708229184150695801e-02) (1, -2.42294371128082275391e-03) (2, 2.29567661881446838379e-02) (3, -4.59960848093032836914e-03) (4, -6.91657140851020812988e-02) (5, -2.01461315155029296875e-02) (6, 5.34762963652610778809e-02) (7, 1.82491987943649291992e-02) (8, 2.75958850979804992676e-02) (9, -3.17809805274009704590e-02) (10, -4.37249615788459777832e-02) (11, 6.03239312767982482910e-02) (12, -1.01040750741958618164e-02) (13, -3.05832773447036743164e-02) (14, -8.24720412492752075195e-02) (15, -8.44686403870582580566e-02) (16, -3.99222187697887420654e-02) (17, 7.83399567008018493652e-02) (18, 7.91063234210014343262e-02) (0, 8.04686024785041809082e-02) (1, -7.77589678764343261719e-02) (2, 6.07698634266853332520e-02) (3, -8.24806094169616699219e-02) (4, -1.85111314058303833008e-02) (5, -7.63720273971557617188e-03) (6, -3.48934009671211242676e-02) (7, 4.29672375321388244629e-02) (8, -4.83462773263454437256e-02) (9, 9.16918367147445678711e-03) (10, 6.29063025116920471191e-02) (11, -9.85989421606063842773e-02) (12, -4.11599874496459960938e-02) (13, -3.95166389644145965576e-02) (14, 2.43578329682350158691e-02) (15, 5.42404130101203918457e-02) (16, -8.68235528469085693359e-03) (17, -9.57883000373840332031e-02) (18, 7.71670043468475341797e-03) (0, -9.04331505298614501953e-02) (1, 3.18075791001319885254e-02) (2, 7.59357288479804992676e-02) (3, -3.41581106185913085938e-02) (4, -7.86849856376647949219e-03) (5, -3.41683477163314819336e-02) (6, 3.52586135268211364746e-02) (7, 9.65946912765502929688e-03) (8, -1.86369866132736206055e-02) (9, 9.53363850712776184082e-02) (10, -1.20005756616592407227e-02) (11, -3.95306609570980072021e-02) (12, 7.58050009608268737793e-02) (13, 1.02404505014419555664e-02) (14, -7.87607952952384948730e-02) (15, 9.33243855834007263184e-02) (16, 9.17293205857276916504e-02) (17, 1.36020034551620483398e-02) (18, -4.15690131485462188721e-02) (0, 3.46965566277503967285e-02) (1, 6.52557387948036193848e-02) (2, 6.76001831889152526855e-02) (3, -2.39713490009307861328e-03) (4, 6.66567906737327575684e-02) (5, -7.35598057508468627930e-02) (6, 5.80862239003181457520e-02) (7, -8.98537039756774902344e-03) (8, 8.06806012988090515137e-02) (9, -5.05961291491985321045e-02) (10, -4.77366894483566284180e-03) (11, -1.16026923060417175293e-02) (12, -4.10292819142341613770e-02) (13, -7.29660913348197937012e-02) (14, -3.56669649481773376465e-02) (15, 2.48126164078712463379e-02) (16, 1.91654115915298461914e-02) (17, 3.01646962761878967285e-02) (18, -3.99287827312946319580e-02) (0, -7.11751282215118408203e-02) (1, -8.84722918272018432617e-02) (2, -4.45923916995525360107e-02) (3, 1.68242901563644409180e-02) (4, -2.80029550194740295410e-02) (5, -6.87873959541320800781e-02) (6, -7.29352533817291259766e-02) (7, -6.76374137401580810547e-03) (8, -7.54630118608474731445e-02) (9, -8.12059342861175537109e-02) (10, -9.31617394089698791504e-02) (11, -1.70320197939872741699e-02) (12, 5.34906312823295593262e-02) (13, 7.20940008759498596191e-02) (14, -4.94318418204784393311e-02) (15, -4.89065125584602355957e-02) (16, 3.87507900595664978027e-02) (17, -2.29916498064994812012e-02) (18, -9.08202901482582092285e-02) (0, -7.02345818281173706055e-02) (1, -4.23110499978065490723e-02) (2, -4.14164178073406219482e-02) (3, 2.49917507171630859375e-02) (4, 4.60862591862678527832e-02) (5, 1.75543054938316345215e-02) (6, 5.20256534218788146973e-02) (7, -8.95807147026062011719e-02) (8, -5.76330833137035369873e-02) (9, -2.88089364767074584961e-02) (10, 4.05839756131172180176e-02) (11, 2.43814289569854736328e-03) (12, 1.59367918968200683594e-05) (13, 5.21116927266120910645e-02) (14, 5.78457489609718322754e-02) (15, -8.31597670912742614746e-02) (16, -7.58912637829780578613e-02) (17, 8.90583470463752746582e-02) (18, -5.60950152575969696045e-02) (0, 1.73449888825416564941e-02) (1, -8.64046663045883178711e-02) (2, -3.73009517788887023926e-02) (3, 2.41832509636878967285e-02) (4, -3.43668460845947265625e-03) (5, -8.38103294372558593750e-02) (6, -3.72274965047836303711e-03) (7, 4.71314713358879089355e-02) (8, -3.27168405055999755859e-02) (9, -6.49719536304473876953e-02) (10, -7.58601799607276916504e-02) (11, -2.35371291637420654297e-02) (12, -3.52065414190292358398e-02) (13, -1.81712284684181213379e-02) (14, 3.50464656949043273926e-02) (15, 8.97852107882499694824e-02) (16, -7.20849707722663879395e-02) (17, -4.73992340266704559326e-02) (18, 4.18108776211738586426e-02) (0, -6.16656802594661712646e-02) (1, -5.03232330083847045898e-03) (2, -8.69980677962303161621e-02) (3, 7.89183005690574645996e-02) (4, 9.74058136343955993652e-02) (5, 1.30178704857826232910e-02) (6, 3.10299918055534362793e-02) (7, 5.52515611052513122559e-02) (8, 2.98581197857856750488e-02) (9, 5.51387295126914978027e-02) (10, 4.43099066615104675293e-02) (11, 7.37630799412727355957e-02) (12, -2.75162830948829650879e-02) (13, 5.79052492976188659668e-02) (14, -6.35378658771514892578e-02) (15, 9.66669693589210510254e-02) (16, -4.55314405262470245361e-02) (17, -4.73481900990009307861e-02) (18, -7.05577433109283447266e-03) (0, -9.83999669551849365234e-02) (1, 1.99349746108055114746e-02) (2, 2.79722735285758972168e-02) (3, -7.42601454257965087891e-02) (4, 9.63978543877601623535e-02) (5, 9.27657261490821838379e-02) (6, 7.56862014532089233398e-03) (7, 3.14443036913871765137e-02) (8, 8.25509503483772277832e-02) (9, 3.54836657643318176270e-02) (10, 8.40450599789619445801e-02) (11, 2.43618041276931762695e-02) (12, 7.38179758191108703613e-02) (13, -2.09872573614120483398e-02) (14, 3.73637303709983825684e-02) (15, 5.27362748980522155762e-02) (16, -2.35814377665519714355e-02) (17, -4.96183931827545166016e-02) (18, -1.62337347865104675293e-02) (0, -6.83298856019973754883e-02) (1, 8.02397206425666809082e-02) (2, -6.10950104892253875732e-02) (3, 7.59800300002098083496e-02) (4, 5.40028139948844909668e-02) (5, 1.13887041807174682617e-02) (6, 3.38852778077125549316e-02) (7, 9.04649570584297180176e-02) (8, 8.05568695068359375000e-03) (9, 8.83538350462913513184e-02) (10, -5.68832419812679290771e-02) (11, -9.90000963211059570312e-02) (12, 8.99538621306419372559e-02) (13, 6.30517378449440002441e-02) (14, 2.89721712470054626465e-02) (15, -8.43062847852706909180e-02) (16, 5.94495758414268493652e-02) (17, 2.17378959059715270996e-02) (18, 2.32623443007469177246e-02) (0, -9.10611450672149658203e-03) (1, 4.28883731365203857422e-03) (2, -4.12540026009082794189e-02) (3, -2.50610485672950744629e-02) (4, -7.13493525981903076172e-02) (5, -6.74360245466232299805e-02) (6, 5.39516881108283996582e-02) (7, 6.60143867135047912598e-02) (8, 8.53002443909645080566e-02) (9, -6.96297436952590942383e-02) (10, -8.36040154099464416504e-02) (11, -3.09334844350814819336e-02) (12, -3.79596315324306488037e-02) (13, 9.66357067227363586426e-02) (14, 7.97150284051895141602e-03) (15, -6.19796030223369598389e-02) (16, 5.06385043263435363770e-02) (17, -8.06397870182991027832e-02) (18, 7.19056800007820129395e-02) (0, 4.11034449934959411621e-02) (1, 2.74158939719200134277e-02) (2, 6.02594986557960510254e-02) (3, 8.42202082276344299316e-02) (4, 2.84158065915107727051e-02) (5, 5.02133592963218688965e-02) (6, 4.72719445824623107910e-02) (7, -4.26120273768901824951e-02) (8, 6.59070834517478942871e-02) (9, 6.72151893377304077148e-03) (10, 7.91258737444877624512e-02) (11, -1.08305662870407104492e-02) (12, 9.76153984665870666504e-02) (13, -1.65852904319763183594e-02) (14, 4.79154363274574279785e-02) (15, -2.74456515908241271973e-02) (16, 1.20653510093688964844e-02) (17, 8.04794058203697204590e-02) (18, -7.34939500689506530762e-02) (19, -2.19202637672424316406e-02) (20, 6.57796487212181091309e-02) (21, -4.31236997246742248535e-02) (22, -5.52427768707275390625e-03) (23, -6.51538372039794921875e-02) (24, 1.89166814088821411133e-02) (25, -8.88857990503311157227e-03) (26, 4.28176596760749816895e-02) (27, 5.69370761513710021973e-02) (28, -5.82500733435153961182e-02) (29, 6.21778741478919982910e-02) (30, 2.88427546620368957520e-02) (31, 8.28533843159675598145e-02) (32, -1.04062333703041076660e-02) (33, -1.08977556228637695312e-02) (34, 6.70735910534858703613e-02) (19, -8.19904282689094543457e-02) (20, -6.06843903660774230957e-02) (21, 1.43455266952514648438e-02) (22, -2.46024578809738159180e-02) (23, -9.47773084044456481934e-02) (24, -7.89329558610916137695e-02) (25, -4.54765856266021728516e-02) (26, -5.60787320137023925781e-03) (27, -8.13175588846206665039e-02) (28, 3.79381254315376281738e-02) (29, -5.76924420893192291260e-02) (30, -8.76320898532867431641e-03) (31, -4.99965213239192962646e-02) (32, -7.72130340337753295898e-02) (33, 1.77428498864173889160e-02) (34, 2.80832126736640930176e-02) (19, 8.85666087269783020020e-02) (20, 7.46191516518592834473e-02) (21, -7.74410665035247802734e-02) (22, -7.65872225165367126465e-02) (23, -6.46417587995529174805e-03) (24, 1.36703625321388244629e-02) (25, 6.62304386496543884277e-02) (26, -4.95271049439907073975e-02) (27, 5.54202869534492492676e-02) (28, 2.84083262085914611816e-02) (29, 7.93156400322914123535e-02) (30, 3.82736697793006896973e-02) (31, -8.19979086518287658691e-02) (32, -3.15821096301078796387e-02) (33, 5.34725189208984375000e-03) (34, -6.39883428812026977539e-02) (19, 7.73350149393081665039e-03) (20, -8.03072303533554077148e-02) (21, 1.14092007279396057129e-02) (22, 1.29561871290206909180e-02) (23, -5.92401847243309020996e-02) (24, 6.59326240420341491699e-02) (25, -9.26516801118850708008e-02) (26, -4.05577421188354492188e-02) (27, 3.87074798345565795898e-03) (28, -5.03441207110881805420e-02) (29, 5.06790503859519958496e-02) (30, 5.38742169737815856934e-02) (31, -2.75571495294570922852e-02) (32, -3.15781012177467346191e-02) (33, -1.80425643920898437500e-02) (34, -3.89905348420143127441e-02) (19, -5.69589510560035705566e-02) (20, 4.51637804508209228516e-03) (21, -1.55777484178543090820e-02) (22, 3.65768745541572570801e-02) (23, -8.18132758140563964844e-02) (24, -4.93473112583160400391e-02) (25, 8.70497748255729675293e-02) (26, 7.36070200800895690918e-02) (27, 7.90610089898109436035e-02) (28, 6.63654133677482604980e-02) (29, 1.18806734681129455566e-02) (30, 9.70631018280982971191e-02) (31, -6.52167052030563354492e-02) (32, -8.27720761299133300781e-02) (33, -6.69252425432205200195e-02) (34, 4.25168052315711975098e-02) (19, -6.30793124437332153320e-02) (20, 4.44839671254158020020e-02) (21, -4.45270054042339324951e-02) (22, -2.23194882273674011230e-02) (23, 1.04165822267532348633e-02) (24, -3.71786803007125854492e-02) (25, 3.71227785944938659668e-02) (26, -8.57126787304878234863e-02) (27, 1.24771967530250549316e-02) (28, -1.21981725096702575684e-02) (29, 6.81615546345710754395e-02) (30, 8.49200561642646789551e-02) (31, 5.62237277626991271973e-02) (32, -4.98810186982154846191e-02) (33, -5.40704913437366485596e-02) (34, 9.92647781968116760254e-02) (19, 5.46353533864021301270e-02) (20, 3.03517654538154602051e-02) (21, 3.58416512608528137207e-02) (22, 7.28220865130424499512e-02) (23, 8.10044482350349426270e-02) (24, 2.28914245963096618652e-02) (25, 4.64291051030158996582e-02) (26, 6.00654557347297668457e-02) (27, -1.07431560754776000977e-02) (28, -4.16902378201484680176e-02) (29, 5.71285560727119445801e-02) (30, 2.40401402115821838379e-02) (31, -2.44623124599456787109e-02) (32, 9.02033224701881408691e-02) (33, -3.34430560469627380371e-02) (34, 1.24583840370178222656e-02) (19, 3.46872881054878234863e-02) (20, 2.20299363136291503906e-02) (21, 9.01388898491859436035e-02) (22, -5.48961348831653594971e-02) (23, 8.48512575030326843262e-02) (24, 2.72616669535636901855e-02) (25, -4.06088121235370635986e-02) (26, -2.67155468463897705078e-03) (27, -8.49365070462226867676e-02) (28, -7.24472627043724060059e-02) (29, -1.77515074610710144043e-02) (30, 7.12872222065925598145e-02) (31, -2.23282724618911743164e-02) (32, 2.81779989600181579590e-02) (33, 7.05519989132881164551e-02) (34, -6.76929205656051635742e-02) (19, -4.14702370762825012207e-02) (20, 6.39365613460540771484e-03) (21, -9.48708429932594299316e-02) (22, -6.04657903313636779785e-02) (23, -7.07149207592010498047e-02) (24, 5.15582635998725891113e-02) (25, 9.95996668934822082520e-02) (26, 1.85419172048568725586e-02) (27, -9.01319831609725952148e-02) (28, 5.67282363772392272949e-02) (29, -5.74179403483867645264e-02) (30, -1.45942941308021545410e-02) (31, 4.69315573573112487793e-02) (32, 9.13900136947631835938e-03) (33, 9.78640988469123840332e-02) (34, -1.83811634778976440430e-02) (19, -6.88310638070106506348e-02) (20, 8.80029872059822082520e-02) (21, 2.67227068543434143066e-02) (22, -8.39798152446746826172e-02) (23, 1.52646452188491821289e-02) (24, 8.61138924956321716309e-02) (25, 1.33486390113830566406e-02) (26, 3.03281322121620178223e-02) (27, -8.63333642482757568359e-02) (28, 9.55971255898475646973e-02) (29, 1.61536037921905517578e-03) (30, -8.66164267063140869141e-03) (31, 2.37751379609107971191e-02) (32, -2.78326421976089477539e-02) (33, 2.36454382538795471191e-02) (34, 8.23049023747444152832e-02) (19, 7.85610154271125793457e-02) (20, 2.87745967507362365723e-02) (21, -7.81608968973159790039e-02) (22, -9.21539068222045898438e-02) (23, -1.96671485900878906250e-02) (24, -7.85612240433692932129e-02) (25, 2.63880118727684020996e-02) (26, -9.79913771152496337891e-03) (27, 7.81670138239860534668e-02) (28, 6.89700767397880554199e-02) (29, 7.56065770983695983887e-02) (30, 2.50985696911811828613e-02) (31, -2.18909233808517456055e-02) (32, 7.34706595540046691895e-02) (33, -9.32826027274131774902e-02) (34, 9.27801430225372314453e-03) (19, 6.14736452698707580566e-02) (20, 3.34401056170463562012e-02) (21, 2.52982005476951599121e-02) (22, -2.32617184519767761230e-02) (23, 1.95539966225624084473e-02) (24, -6.13531693816184997559e-02) (25, -9.29335877299308776855e-02) (26, 3.32206413149833679199e-02) (27, -6.57560378313064575195e-02) (28, 8.68177413940429687500e-03) (29, -7.54410102963447570801e-02) (30, 5.80190941691398620605e-02) (31, 8.08491185307502746582e-02) (32, 4.82044294476509094238e-02) (33, 4.03239801526069641113e-02) (34, 5.94101473689079284668e-02) (35, -2.30209752917289733887e-02) (36, 6.21630921959877014160e-02) (37, 6.72562345862388610840e-02) (38, 5.73118850588798522949e-02) (39, 8.36018696427345275879e-02) (40, -6.35574758052825927734e-03) (41, -5.24872578680515289307e-02) (42, 6.17688819766044616699e-02) (43, -3.73856648802757263184e-02) (44, -7.68806859850883483887e-02) (45, -1.31325647234916687012e-02) (46, 4.07234057784080505371e-02) (47, 9.65899899601936340332e-02) (35, -6.41516596078872680664e-03) (36, -4.99985776841640472412e-02) (37, 5.80636188387870788574e-02) (38, -7.29750543832778930664e-02) (39, 7.52996280789375305176e-02) (40, -6.51981085538864135742e-02) (41, 4.65789511799812316895e-02) (42, -8.60535502433776855469e-02) (43, -5.81316910684108734131e-02) (44, -2.02004238963127136230e-02) (45, -5.18095903098583221436e-02) (46, 5.05500808358192443848e-02) (47, 4.35856729745864868164e-03) (35, -9.37904939055442810059e-02) (36, 3.13991978764533996582e-02) (37, -4.74370010197162628174e-02) (38, 4.65334877371788024902e-02) (39, -9.19065624475479125977e-03) (40, 2.95420363545417785645e-02) (41, 8.69657844305038452148e-03) (42, -4.19344194233417510986e-02) (43, -1.31461024284362792969e-02) (44, -7.70156085491180419922e-03) (45, 5.17098382115364074707e-02) (46, 3.43666449189186096191e-02) (47, -4.59326878190040588379e-02) (35, -8.56758356094360351562e-02) (36, 5.74859604239463806152e-02) (37, 4.09347489476203918457e-02) (38, 5.50475791096687316895e-02) (39, 5.40759339928627014160e-02) (40, -6.54804110527038574219e-02) (41, -9.49510037899017333984e-02) (42, 1.21395587921142578125e-02) (43, -3.84554751217365264893e-02) (44, 8.03486183285713195801e-02) (45, 4.69414517283439636230e-02) (46, -9.18765291571617126465e-02) (47, 9.42950770258903503418e-02) (35, 8.88097658753395080566e-02) (36, -1.20769590139389038086e-02) (37, -5.75145110487937927246e-02) (38, 3.93598452210426330566e-02) (39, 9.22816172242164611816e-02) (40, -5.13050071895122528076e-02) (41, -2.92409509420394897461e-02) (42, -5.51553890109062194824e-02) (43, 9.52284857630729675293e-02) (44, 6.15683868527412414551e-02) (45, 7.43866339325904846191e-02) (46, 3.92506271600723266602e-03) (47, -8.03660154342651367188e-02) (35, -3.87594662606716156006e-02) (36, 9.62235108017921447754e-02) (37, 7.13438168168067932129e-02) (38, 9.56071838736534118652e-02) (39, -4.97091822326183319092e-02) (40, 8.56679752469062805176e-02) (41, 5.30931428074836730957e-02) (42, 9.12255719304084777832e-02) (43, 4.07155677676200866699e-02) (44, 7.16908276081085205078e-03) (45, -7.42548480629920959473e-02) (46, 4.57645729184150695801e-02) (47, -8.06913673877716064453e-02) (35, -1.27103179693222045898e-02) (36, 2.61131897568702697754e-02) (37, 6.62500932812690734863e-02) (38, -4.58685308694839477539e-03) (39, 2.04082578420639038086e-02) (40, 5.50598576664924621582e-02) (41, 8.33361968398094177246e-02) (42, 6.28937557339668273926e-02) (43, -5.58031350374221801758e-03) (44, 7.56178125739097595215e-02) (45, -8.84112566709518432617e-02) (46, 6.51787444949150085449e-02) (47, -7.95375704765319824219e-02) (35, -9.31827723979949951172e-02) (36, 2.67471298575401306152e-02) (37, 9.48490574955940246582e-02) (38, 1.07422918081283569336e-02) (39, 4.63811233639717102051e-02) (40, -4.39103953540325164795e-02) (41, 6.96579366922378540039e-03) (42, 1.77249312400817871094e-02) (43, -4.83032166957855224609e-02) (44, 5.72566166520118713379e-02) (45, 3.39291989803314208984e-03) (46, -9.52100753784179687500e-02) (47, 4.84821870923042297363e-02) (35, -5.58915175497531890869e-02) (36, 1.19590014219284057617e-02) (37, 7.42273405194282531738e-02) (38, 8.98730531334877014160e-02) (39, 3.12676504254341125488e-02) (40, -3.84829826653003692627e-02) (41, 1.59862264990806579590e-02) (42, -2.48227268457412719727e-03) (43, 5.69301769137382507324e-02) (44, -6.36055022478103637695e-02) (45, -4.74224202334880828857e-02) (46, 4.02663573622703552246e-02) (47, 9.92882475256919860840e-02) (35, 4.69972565770149230957e-02) (36, 1.58841758966445922852e-02) (37, -8.91230106353759765625e-02) (38, 1.21759995818138122559e-02) (39, 3.63466069102287292480e-02) (40, -8.23057815432548522949e-02) (41, -6.10768608748912811279e-02) (42, 3.11956629157066345215e-02) (43, 2.84365043044090270996e-02) (44, 8.53042677044868469238e-02) (45, 8.72852727770805358887e-02) (46, -6.45976960659027099609e-02) (47, 3.02919000387191772461e-03) 
