FANN_FLO_2.1
num_layers=4
learning_rate=0.700000
connection_rate=1.000000
network_type=0
learning_momentum=0.000000
training_algorithm=2
train_error_function=1
train_stop_function=0
cascade_output_change_fraction=0.010000
quickprop_decay=-0.000100
quickprop_mu=1.750000
rprop_increase_factor=1.200000
rprop_decrease_factor=0.500000
rprop_delta_min=0.000000
rprop_delta_max=50.000000
rprop_delta_zero=0.100000
cascade_output_stagnation_epochs=12
cascade_candidate_change_fraction=0.010000
cascade_candidate_stagnation_epochs=12
cascade_max_out_epochs=150
cascade_min_out_epochs=50
cascade_max_cand_epochs=150
cascade_min_cand_epochs=50
cascade_num_candidate_groups=2
bit_fail_limit=3.49999994039535522461e-01
cascade_candidate_limit=1.00000000000000000000e+03
cascade_weight_multiplier=4.00000005960464477539e-01
cascade_activation_functions_count=10
cascade_activation_functions=3 5 7 8 10 11 14 15 16 17 
cascade_activation_steepnesses_count=4
cascade_activation_steepnesses=2.50000000000000000000e-01 5.00000000000000000000e-01 7.50000000000000000000e-01 1.00000000000000000000e+00 
layer_sizes=15 13 12 11 
scale_included=0
neurons (num_inputs, activation_function, activation_steepness)=(0, 0, 0.00000000000000000000e+00) (0, 0, 0.00000000000000000000e+00) (0, 0, 0.00000000000000000000e+00) (0, 0, 0.00000000000000000000e+00) (0, 0, 0.00000000000000000000e+00) (0, 0, 0.00000000000000000000e+00) (0, 0, 0.00000000000000000000e+00) (0, 0, 0.00000000000000000000e+00) (0, 0, 0.00000000000000000000e+00) (0, 0, 0.00000000000000000000e+00) (0, 0, 0.00000000000000000000e+00) (0, 0, 0.00000000000000000000e+00) (0, 0, 0.00000000000000000000e+00) (0, 0, 0.00000000000000000000e+00) (0, 0, 0.00000000000000000000e+00) (15, 5, 5.00000000000000000000e-01) (15, 5, 5.00000000000000000000e-01) (15, 5, 5.00000000000000000000e-01) (15, 5, 5.00000000000000000000e-01) (15, 5, 5.00000000000000000000e-01) (15, 5, 5.00000000000000000000e-01) (15, 5, 5.00000000000000000000e-01) (15, 5, 5.00000000000000000000e-01) (15, 5, 5.00000000000000000000e-01) (15, 5, 5.00000000000000000000e-01) (15, 5, 5.00000000000000000000e-01) (15, 5, 5.00000000000000000000e-01) (0, 5, 0.00000000000000000000e+00) (13, 5, 5.00000000000000000000e-01) (13, 5, 5.00000000000000000000e-01) (13, 5, 5.00000000000000000000e-01) (13, 5, 5.00000000000000000000e-01) (13, 5, 5.00000000000000000000e-01) (13, 5, 5.00000000000000000000e-01) (13, 5, 5.00000000000000000000e-01) (13, 5, 5.00000000000000000000e-01) (13, 5, 5.00000000000000000000e-01) (13, 5, 5.00000000000000000000e-01) (13, 5, 5.00000000000000000000e-01) (0, 5, 0.00000000000000000000e+00) (12, 5, 5.00000000000000000000e-01) (12, 5, 5.00000000000000000000e-01) (12, 5, 5.00000000000000000000e-01) (12, 5, 5.00000000000000000000e-01) (12, 5, 5.00000000000000000000e-01) (12, 5, 5.00000000000000000000e-01) (12, 5, 5.00000000000000000000e-01) (12, 5, 5.00000000000000000000e-01) (12, 5, 5.00000000000000000000e-01) (12, 5, 5.00000000000000000000e-01) (0, 5, 0.00000000000000000000e+00) 
connections (connected_to_neuron, weight)=(0, -5.55753521621227264404e-02) (1, -4.37047183513641357422e-02) (2, 7.31216147541999816895e-02) (3, 9.18809697031974792480e-02) (4, -4.49906289577484130859e-02) (5, -3.05688232183456420898e-02) (6, -5.46023435890674591064e-02) (7, -9.64811295270919799805e-02) (8, 4.68020513653755187988e-02) (9, 4.66796681284904479980e-02) (10, 9.40310284495353698730e-02) (11, -5.46422749757766723633e-02) (12, -7.15818107128143310547e-02) (13, -1.84036791324615478516e-03) (14, -3.76390032470226287842e-02) (0, -2.41837576031684875488e-02) (1, 2.81023755669593811035e-02) (2, 3.49426493048667907715e-02) (3, 6.07889518141746520996e-02) (4, -6.77965730428695678711e-02) (5, 8.87685939669609069824e-02) (6, -8.55044275522232055664e-02) (7, -5.85983544588088989258e-02) (8, -1.57724469900131225586e-02) (9, 8.85194614529609680176e-02) (10, -9.51114967465400695801e-02) (11, -2.26292163133621215820e-02) (12, -6.72196447849273681641e-02) (13, 9.85097512602806091309e-02) (14, -1.97827816009521484375e-04) (0, 9.63146612048149108887e-02) (1, -5.70656023919582366943e-02) (2, 5.60974553227424621582e-02) (3, 6.94362595677375793457e-02) (4, -6.51846304535865783691e-02) (5, -8.88931825757026672363e-02) (6, -6.11325614154338836670e-02) (7, -1.97869688272476196289e-02) (8, -8.53743031620979309082e-02) (9, 8.56694951653480529785e-02) (10, -7.31073096394538879395e-02) (11, -9.13432762026786804199e-02) (12, -6.89727813005447387695e-02) (13, -4.46891188621520996094e-02) (14, 6.81634992361068725586e-03) (0, -6.61177933216094970703e-03) (1, 3.11271324753761291504e-02) (2, -6.50812834501266479492e-02) (3, -7.16691389679908752441e-02) (4, -8.08392465114593505859e-03) (5, -3.28778475522994995117e-02) (6, -8.29005464911460876465e-02) (7, 6.41164928674697875977e-03) (8, 8.52379947900772094727e-03) (9, 1.32700055837631225586e-03) (10, -5.06889075040817260742e-03) (11, 1.34123116731643676758e-02) (12, 7.86978080868721008301e-02) (13, 2.77114585041999816895e-02) (14, 1.19220614433288574219e-02) (0, -2.15000361204147338867e-02) (1, 2.40261182188987731934e-02) (2, 5.48564568161964416504e-02) (3, -6.54025822877883911133e-02) (4, -6.53761625289916992188e-03) (5, 8.96718278527259826660e-02) (6, -5.42957670986652374268e-02) (7, 3.23298200964927673340e-02) (8, -3.01151424646377563477e-02) (9, -3.96700687706470489502e-02) (10, 1.79993137717247009277e-02) (11, -3.22245061397552490234e-03) (12, -3.10133472084999084473e-02) (13, 4.90265414118766784668e-02) (14, 5.20884320139884948730e-02) (0, 7.58030042052268981934e-02) (1, -5.75852468609809875488e-02) (2, -1.67844444513320922852e-02) (3, -8.92782732844352722168e-02) (4, -2.92543843388557434082e-02) (5, 7.51316472887992858887e-02) (6, -2.21561193466186523438e-02) (7, -1.21549293398857116699e-02) (8, -1.84567123651504516602e-02) (9, 8.63676741719245910645e-02) (10, 8.91720727086067199707e-02) (11, 7.64743909239768981934e-02) (12, -2.20015645027160644531e-04) (13, 6.78698793053627014160e-02) (14, 4.18585538864135742188e-03) (0, -8.82979556918144226074e-02) (1, -5.36301620304584503174e-02) (2, -7.17880204319953918457e-02) (3, 6.65585026144981384277e-02) (4, -1.90327465534210205078e-02) (5, 2.16743722558021545410e-02) (6, 5.62303289771080017090e-02) (7, 2.66714915633201599121e-02) (8, -4.59958091378211975098e-02) (9, -7.38848075270652770996e-02) (10, 8.70014205574989318848e-02) (11, 7.20035061240196228027e-02) (12, 2.28927358984947204590e-02) (13, -4.40119318664073944092e-02) (14, 2.10300460457801818848e-02) (0, -2.50188261270523071289e-02) (1, -6.82089328765869140625e-02) (2, 6.34448006749153137207e-02) (3, 5.81967309117317199707e-02) (4, -5.74872009456157684326e-02) (5, -6.58095851540565490723e-02) (6, 3.33283767104148864746e-02) (7, 2.03566774725914001465e-02) (8, 2.20354944467544555664e-02) (9, -8.51283445954322814941e-02) (10, 6.72435760498046875000e-03) (11, 1.12075656652450561523e-02) (12, 9.13460478186607360840e-02) (13, -9.34956520795822143555e-02) (14, -2.09225565195083618164e-02) (0, -4.46809083223342895508e-03) (1, -8.17936062812805175781e-02) (2, 2.54472717642784118652e-02) (3, 2.37438902258872985840e-02) (4, 8.47649052739143371582e-02) (5, -9.35854688286781311035e-02) (6, -5.45817427337169647217e-02) (7, 4.09952327609062194824e-02) (8, 3.30860093235969543457e-02) (9, -5.77554106712341308594e-04) (10, 6.71104267239570617676e-02) (11, 2.00874358415603637695e-02) (12, -2.85740345716476440430e-02) (13, -9.99684631824493408203e-03) (14, 7.60755017399787902832e-02) (0, 9.24560055136680603027e-02) (1, 6.49843290448188781738e-02) (2, -9.21334251761436462402e-02) (3, 5.59008195996284484863e-02) (4, 2.31810659170150756836e-02) (5, -4.96206246316432952881e-02) (6, 9.00912359356880187988e-02) (7, -4.34905588626861572266e-02) (8, 7.07360580563545227051e-02) (9, 1.21267065405845642090e-02) (10, -2.86189019680023193359e-02) (11, -2.25395858287811279297e-02) (12, -7.66657218337059020996e-02) (13, -3.72728481888771057129e-02) (14, -1.60352364182472229004e-02) (0, 2.41170823574066162109e-03) (1, 5.82590773701667785645e-02) (2, 2.17115879058837890625e-03) (3, -7.21410065889358520508e-02) (4, -1.79970413446426391602e-02) (5, -1.30639523267745971680e-02) (6, -6.57264813780784606934e-02) (7, 2.74212136864662170410e-02) (8, -7.20687210559844970703e-02) (9, 6.73595443367958068848e-02) (10, -7.31563344597816467285e-02) (11, 9.50416997075080871582e-02) (12, -1.25530287623405456543e-02) (13, -1.73036754131317138672e-03) (14, -1.49551481008529663086e-02) (0, -3.64775210618972778320e-02) (1, -9.27436351776123046875e-03) (2, -4.99708130955696105957e-02) (3, -2.86109521985054016113e-02) (4, -5.33735565841197967529e-02) (5, 7.32102468609809875488e-02) (6, 2.17684283852577209473e-02) (7, -6.32823333144187927246e-02) (8, -7.02803060412406921387e-02) (9, -7.49551504850387573242e-03) (10, 4.88443896174430847168e-02) (11, 1.10079348087310791016e-03) (12, 6.99648931622505187988e-02) (13, 7.21786692738533020020e-02) (14, 6.38279393315315246582e-02) (15, -4.60703372955322265625e-02) (16, -2.54096239805221557617e-02) (17, 2.20870152115821838379e-02) (18, 5.61008229851722717285e-02) (19, 2.44935601949691772461e-03) (20, -9.59100276231765747070e-02) (21, -5.69631271064281463623e-02) (22, 3.67228910326957702637e-02) (23, 3.15111950039863586426e-02) (24, -2.90318429470062255859e-02) (25, 4.08241897821426391602e-03) (26, 5.83548620343208312988e-02) (27, -3.39901447296142578125e-02) (15, 9.15293917059898376465e-02) (16, -4.33755181729793548584e-02) (17, 5.10547086596488952637e-02) (18, -4.49481308460235595703e-02) (19, 4.73501160740852355957e-02) (20, -9.89161059260368347168e-02) (21, 2.64409258961677551270e-02) (22, 9.39765647053718566895e-02) (23, 7.42941573262214660645e-02) (24, -5.17906509339809417725e-02) (25, -6.93057626485824584961e-02) (26, -9.59861576557159423828e-02) (27, 4.07138392329216003418e-02) (15, 7.95386210083961486816e-02) (16, 5.11463731527328491211e-03) (17, 1.06787309050559997559e-02) (18, 5.17172738909721374512e-02) (19, -3.10574099421501159668e-02) (20, 6.46084025502204895020e-02) (21, -7.36923590302467346191e-02) (22, 9.10296067595481872559e-02) (23, 2.07092165946960449219e-02) (24, 2.87569984793663024902e-02) (25, 9.51195731759071350098e-02) (26, 6.37460872530937194824e-02) (27, -3.45201045274734497070e-02) (15, 2.66307666897773742676e-02) (16, -6.52857571840286254883e-02) (17, 6.95623233914375305176e-02) (18, -1.50143802165985107422e-02) (19, 7.24099576473236083984e-04) (20, 6.10917136073112487793e-02) (21, 4.16101142764091491699e-02) (22, -4.82211969792842864990e-02) (23, -8.38564261794090270996e-02) (24, -1.10397785902023315430e-02) (25, -4.71373014152050018311e-02) (26, 4.25845012068748474121e-02) (27, -1.70632079243659973145e-02) (15, -7.28431493043899536133e-02) (16, 9.07938554883003234863e-02) (17, 1.36310309171676635742e-02) (18, -6.88292980194091796875e-02) (19, 3.15076783299446105957e-02) (20, -6.83034956455230712891e-03) (21, 3.62853482365608215332e-02) (22, -5.78135959804058074951e-02) (23, -5.51130846142768859863e-02) (24, -9.47720706462860107422e-02) (25, -9.32052060961723327637e-02) (26, -2.88054421544075012207e-02) (27, 9.62575301527976989746e-02) (15, 2.75040045380592346191e-02) (16, 9.99515727162361145020e-02) (17, 9.13771018385887145996e-02) (18, -8.74990224838256835938e-03) (19, -3.45685407519340515137e-02) (20, 1.80078595876693725586e-02) (21, 2.59643420577049255371e-02) (22, -6.50062337517738342285e-02) (23, -9.70065146684646606445e-02) (24, -7.33115673065185546875e-02) (25, 9.60854813456535339355e-02) (26, 4.46035936474800109863e-02) (27, -2.15327590703964233398e-02) (15, -8.77709463238716125488e-02) (16, -6.64361864328384399414e-02) (17, 3.13299372792243957520e-02) (18, 5.48135563731193542480e-02) (19, 1.65006145834922790527e-02) (20, 5.84867969155311584473e-02) (21, 4.56073954701423645020e-02) (22, -6.98683559894561767578e-02) (23, 8.96574929356575012207e-02) (24, -2.28849202394485473633e-02) (25, 2.33012884855270385742e-02) (26, 2.59428247809410095215e-02) (27, 1.93014740943908691406e-02) (15, 6.81881979107856750488e-02) (16, 3.11707630753517150879e-02) (17, 2.60962769389152526855e-02) (18, -6.06172345578670501709e-02) (19, 2.74282768368721008301e-02) (20, -4.63997200131416320801e-02) (21, -6.06656707823276519775e-02) (22, 1.88053995370864868164e-02) (23, 4.48503717780113220215e-02) (24, 4.76578623056411743164e-03) (25, -6.31867423653602600098e-02) (26, -2.91852876543998718262e-02) (27, 3.97595539689064025879e-02) (15, -6.01932555437088012695e-02) (16, -2.49685347080230712891e-03) (17, 3.58450338244438171387e-02) (18, 8.44103321433067321777e-02) (19, 7.59703889489173889160e-02) (20, 4.80740740895271301270e-02) (21, -8.20258483290672302246e-02) (22, 7.30033218860626220703e-03) (23, 2.88762897253036499023e-03) (24, 3.44747677445411682129e-02) (25, -3.42128798365592956543e-02) (26, -5.15049658715724945068e-02) (27, 6.46064057946205139160e-02) (15, -4.45553921163082122803e-02) (16, 2.56101116538047790527e-02) (17, -1.20923072099685668945e-02) (18, 8.13874378800392150879e-02) (19, -5.50884120166301727295e-02) (20, -4.39041033387184143066e-02) (21, 1.25581994652748107910e-02) (22, 7.10078552365303039551e-02) (23, -4.52134013175964355469e-03) (24, -6.00135214626789093018e-02) (25, -7.53918588161468505859e-02) (26, 3.48129943013191223145e-02) (27, 5.87918832898139953613e-02) (15, 6.94585219025611877441e-02) (16, -6.04212246835231781006e-02) (17, 9.56051424145698547363e-02) (18, -5.97267709672451019287e-02) (19, 7.93383195996284484863e-02) (20, -6.45881295204162597656e-02) (21, 3.77763733267784118652e-02) (22, 1.51833519339561462402e-02) (23, -8.01777914166450500488e-02) (24, 1.37467607855796813965e-02) (25, -3.67425605654716491699e-02) (26, -6.22036419808864593506e-02) (27, -7.89529085159301757812e-02) (28, 6.61450698971748352051e-02) (29, 7.22711160778999328613e-02) (30, -1.31657868623733520508e-02) (31, -8.53599011898040771484e-02) (32, 3.68775203824043273926e-02) (33, 4.22788187861442565918e-02) (34, 4.02502194046974182129e-02) (35, -7.52147734165191650391e-02) (36, 2.36662477254867553711e-02) (37, 8.51618126034736633301e-02) (38, -1.91188752651214599609e-02) (39, -6.37755542993545532227e-02) (28, 5.61696663498878479004e-02) (29, 7.63597860932350158691e-02) (30, -2.37890705466270446777e-02) (31, 8.07778164744377136230e-02) (32, 1.11727714538574218750e-02) (33, -6.49971961975097656250e-02) (34, 5.02363219857215881348e-02) (35, 5.07515445351600646973e-02) (36, -6.93920701742172241211e-02) (37, 9.05095562338829040527e-02) (38, 3.00898775458335876465e-02) (39, -3.39801982045173645020e-02) (28, 2.82859280705451965332e-02) (29, -5.47267720103263854980e-02) (30, -1.41579881310462951660e-02) (31, -5.79673014581203460693e-02) (32, 8.53066146373748779297e-03) (33, 2.36383825540542602539e-02) (34, -3.69202122092247009277e-02) (35, -2.53242701292037963867e-02) (36, -4.09050285816192626953e-03) (37, 4.99140098690986633301e-02) (38, -1.06841623783111572266e-02) (39, -6.72129690647125244141e-02) (28, -7.80718028545379638672e-03) (29, -7.04339519143104553223e-02) (30, -4.24277484416961669922e-02) (31, -8.41409265995025634766e-02) (32, -8.52721482515335083008e-02) (33, 3.84533777832984924316e-02) (34, -4.79164794087409973145e-02) (35, 7.08975270390510559082e-02) (36, 1.48131623864173889160e-02) (37, 2.82944515347480773926e-02) (38, 5.16753271222114562988e-02) (39, -7.40140676498413085938e-02) (28, 6.32972493767738342285e-02) (29, 1.91165506839752197266e-03) (30, 7.67374858260154724121e-02) (31, 9.39051881432533264160e-02) (32, -7.57879763841629028320e-03) (33, 6.82735443115234375000e-03) (34, -4.00750115513801574707e-02) (35, -7.92928636074066162109e-02) (36, 5.21005913615226745605e-02) (37, 4.57670167088508605957e-02) (38, -3.72601673007011413574e-02) (39, -3.93687486648559570312e-02) (28, -3.05946245789527893066e-02) (29, 2.58196219801902770996e-02) (30, 3.53069975972175598145e-02) (31, 6.53148815035820007324e-02) (32, -2.42663770914077758789e-02) (33, -7.53771737217903137207e-02) (34, 9.81019064784049987793e-02) (35, 6.79264292120933532715e-02) (36, -4.58111241459846496582e-02) (37, -4.43258397281169891357e-02) (38, 8.37855115532875061035e-02) (39, -3.10832709074020385742e-02) (28, 9.41275432705879211426e-02) (29, -6.41309767961502075195e-02) (30, -6.01857565343379974365e-02) (31, 8.94069671630859375000e-03) (32, 6.41634836792945861816e-02) (33, 9.14895609021186828613e-02) (34, 3.49266305565834045410e-02) (35, 2.74607315659523010254e-02) (36, -6.59878551959991455078e-03) (37, 1.16641148924827575684e-02) (38, 2.13659182190895080566e-02) (39, 8.58224108815193176270e-02) (28, -8.15085321664810180664e-02) (29, 8.12909081578254699707e-02) (30, -9.34704467654228210449e-02) (31, 7.05920532345771789551e-02) (32, 2.70579084753990173340e-02) (33, -3.07306200265884399414e-02) (34, -6.87766969203948974609e-02) (35, 9.64632853865623474121e-02) (36, 9.50890108942985534668e-02) (37, 6.65302947163581848145e-02) (38, 6.17781654000282287598e-02) (39, -2.91773751378059387207e-02) (28, 9.11531224846839904785e-02) (29, 5.98800703883171081543e-02) (30, -6.12509399652481079102e-02) (31, -5.46580106019973754883e-02) (32, -8.44457745552062988281e-02) (33, -7.74654299020767211914e-02) (34, 1.42587199807167053223e-02) (35, -9.03182402253150939941e-02) (36, -4.15964014828205108643e-02) (37, 5.40729686617851257324e-02) (38, 1.86224579811096191406e-02) (39, -7.74329230189323425293e-02) (28, 4.55625280737876892090e-02) (29, -4.64509129524230957031e-02) (30, 5.00278100371360778809e-02) (31, -6.10362514853477478027e-02) (32, 6.52132108807563781738e-02) (33, -2.86062806844711303711e-02) (34, -7.52138346433639526367e-02) (35, 8.37046578526496887207e-02) (36, -4.73153702914714813232e-02) (37, -6.86842799186706542969e-02) (38, 5.42967244982719421387e-02) (39, 7.97425433993339538574e-02) 
