FANN_FLO_2.1
num_layers=4
learning_rate=0.700000
connection_rate=1.000000
network_type=0
learning_momentum=0.000000
training_algorithm=2
train_error_function=1
train_stop_function=0
cascade_output_change_fraction=0.010000
quickprop_decay=-0.000100
quickprop_mu=1.750000
rprop_increase_factor=1.200000
rprop_decrease_factor=0.500000
rprop_delta_min=0.000000
rprop_delta_max=50.000000
rprop_delta_zero=0.100000
cascade_output_stagnation_epochs=12
cascade_candidate_change_fraction=0.010000
cascade_candidate_stagnation_epochs=12
cascade_max_out_epochs=150
cascade_min_out_epochs=50
cascade_max_cand_epochs=150
cascade_min_cand_epochs=50
cascade_num_candidate_groups=2
bit_fail_limit=3.49999994039535522461e-01
cascade_candidate_limit=1.00000000000000000000e+03
cascade_weight_multiplier=4.00000005960464477539e-01
cascade_activation_functions_count=10
cascade_activation_functions=3 5 7 8 10 11 14 15 16 17 
cascade_activation_steepnesses_count=4
cascade_activation_steepnesses=2.50000000000000000000e-01 5.00000000000000000000e-01 7.50000000000000000000e-01 1.00000000000000000000e+00 
layer_sizes=15 13 12 11 
scale_included=0
neurons (num_inputs, activation_function, activation_steepness)=(0, 0, 0.00000000000000000000e+00) (0, 0, 0.00000000000000000000e+00) (0, 0, 0.00000000000000000000e+00) (0, 0, 0.00000000000000000000e+00) (0, 0, 0.00000000000000000000e+00) (0, 0, 0.00000000000000000000e+00) (0, 0, 0.00000000000000000000e+00) (0, 0, 0.00000000000000000000e+00) (0, 0, 0.00000000000000000000e+00) (0, 0, 0.00000000000000000000e+00) (0, 0, 0.00000000000000000000e+00) (0, 0, 0.00000000000000000000e+00) (0, 0, 0.00000000000000000000e+00) (0, 0, 0.00000000000000000000e+00) (0, 0, 0.00000000000000000000e+00) (15, 5, 5.00000000000000000000e-01) (15, 5, 5.00000000000000000000e-01) (15, 5, 5.00000000000000000000e-01) (15, 5, 5.00000000000000000000e-01) (15, 5, 5.00000000000000000000e-01) (15, 5, 5.00000000000000000000e-01) (15, 5, 5.00000000000000000000e-01) (15, 5, 5.00000000000000000000e-01) (15, 5, 5.00000000000000000000e-01) (15, 5, 5.00000000000000000000e-01) (15, 5, 5.00000000000000000000e-01) (15, 5, 5.00000000000000000000e-01) (0, 5, 0.00000000000000000000e+00) (13, 5, 5.00000000000000000000e-01) (13, 5, 5.00000000000000000000e-01) (13, 5, 5.00000000000000000000e-01) (13, 5, 5.00000000000000000000e-01) (13, 5, 5.00000000000000000000e-01) (13, 5, 5.00000000000000000000e-01) (13, 5, 5.00000000000000000000e-01) (13, 5, 5.00000000000000000000e-01) (13, 5, 5.00000000000000000000e-01) (13, 5, 5.00000000000000000000e-01) (13, 5, 5.00000000000000000000e-01) (0, 5, 0.00000000000000000000e+00) (12, 5, 5.00000000000000000000e-01) (12, 5, 5.00000000000000000000e-01) (12, 5, 5.00000000000000000000e-01) (12, 5, 5.00000000000000000000e-01) (12, 5, 5.00000000000000000000e-01) (12, 5, 5.00000000000000000000e-01) (12, 5, 5.00000000000000000000e-01) (12, 5, 5.00000000000000000000e-01) (12, 5, 5.00000000000000000000e-01) (12, 5, 5.00000000000000000000e-01) (0, 5, 0.00000000000000000000e+00) 
connections (connected_to_neuron, weight)=(0, 2.25417017936706542969e-02) (1, 2.83681675791740417480e-02) (2, 3.93088534474372863770e-02) (3, -8.92801359295845031738e-02) (4, -1.64145380258560180664e-02) (5, 5.93208894133567810059e-02) (6, -5.59906139969825744629e-02) (7, -3.92041206359863281250e-02) (8, 8.48019644618034362793e-02) (9, 1.09559670090675354004e-02) (10, 4.65870574116706848145e-02) (11, 8.09304192662239074707e-02) (12, 8.57212916016578674316e-02) (13, 4.12552878260612487793e-02) (14, -1.76259875297546386719e-03) (0, -8.13339501619338989258e-02) (1, -2.02305391430854797363e-02) (2, 7.01825097203254699707e-02) (3, -3.78744713962078094482e-02) (4, -4.85096350312232971191e-02) (5, -8.30878615379333496094e-02) (6, -7.39424228668212890625e-02) (7, -6.91354423761367797852e-02) (8, 5.57641312479972839355e-02) (9, -8.47920179367065429688e-02) (10, 9.65160503983497619629e-02) (11, -3.57216298580169677734e-02) (12, 3.20632532238960266113e-02) (13, -3.65324467420578002930e-02) (14, -8.49063694477081298828e-03) (0, 1.52854174375534057617e-02) (1, 8.60092565417289733887e-02) (2, -8.01224708557128906250e-02) (3, -4.54057268798351287842e-02) (4, 9.67291072010993957520e-02) (5, 3.46298515796661376953e-03) (6, -8.60848426818847656250e-02) (7, -5.92614971101284027100e-02) (8, 6.42588809132575988770e-02) (9, 9.87171158194541931152e-02) (10, 5.16944602131843566895e-02) (11, 1.08459368348121643066e-02) (12, 7.96475484967231750488e-02) (13, 3.74157503247261047363e-02) (14, -4.78987805545330047607e-02) (0, -2.21150591969490051270e-02) (1, 5.60818091034889221191e-02) (2, 3.18706706166267395020e-02) (3, -5.19325546920299530029e-02) (4, -8.17926675081253051758e-02) (5, 8.33610370755195617676e-02) (6, -3.50204110145568847656e-02) (7, -5.57350888848304748535e-02) (8, -8.57743918895721435547e-02) (9, -7.92562812566757202148e-02) (10, -4.05271053314208984375e-02) (11, -8.92583504319190979004e-02) (12, -1.49779170751571655273e-02) (13, 9.15361419320106506348e-02) (14, -2.57907956838607788086e-02) (0, 7.65314474701881408691e-02) (1, 6.82155787944793701172e-03) (2, -3.97815518081188201904e-02) (3, 9.64089706540107727051e-02) (4, 6.14158436655998229980e-02) (5, -4.30524349212646484375e-02) (6, -1.28038227558135986328e-04) (7, 7.53309950232505798340e-02) (8, -2.31393426656723022461e-03) (9, -3.58691662549972534180e-02) (10, 7.40481242537498474121e-02) (11, -5.06194680929183959961e-02) (12, 7.49767646193504333496e-02) (13, 5.36956563591957092285e-02) (14, 8.67962911725044250488e-02) (0, -7.29220137000083923340e-02) (1, -6.84193968772888183594e-02) (2, 4.28780987858772277832e-02) (3, 5.89486584067344665527e-02) (4, -2.03519612550735473633e-02) (5, 6.10854253172874450684e-02) (6, 4.23097088932991027832e-02) (7, 4.46276292204856872559e-02) (8, -9.46496576070785522461e-02) (9, 5.65353110432624816895e-02) (10, 6.53713420033454895020e-02) (11, -3.51767688989639282227e-02) (12, 6.72769621014595031738e-02) (13, -4.96065691113471984863e-02) (14, -4.36406210064888000488e-02) (0, -5.85138313472270965576e-02) (1, -7.30751156806945800781e-02) (2, 6.31809458136558532715e-02) (3, 1.70461833477020263672e-03) (4, -7.66661465167999267578e-02) (5, 2.45967879891395568848e-02) (6, 5.86521849036216735840e-02) (7, 2.32058167457580566406e-02) (8, -7.22184777259826660156e-05) (9, -4.36617508530616760254e-02) (10, 8.73366519808769226074e-02) (11, -2.60240882635116577148e-02) (12, 5.71878254413604736328e-03) (13, 6.23134151101112365723e-02) (14, -7.23284333944320678711e-02) (0, -7.48492777347564697266e-03) (1, 8.93914029002189636230e-02) (2, -4.07478325068950653076e-02) (3, -6.46068379282951354980e-02) (4, 4.83400747179985046387e-02) (5, 3.89002040028572082520e-02) (6, 9.64785888791084289551e-02) (7, -9.35022532939910888672e-03) (8, -1.64721608161926269531e-02) (9, -9.81710627675056457520e-02) (10, -5.28149120509624481201e-02) (11, -5.11008128523826599121e-02) (12, -3.33478301763534545898e-02) (13, -8.55379402637481689453e-02) (14, -7.07373023033142089844e-04) (0, 2.30115503072738647461e-02) (1, -4.40517738461494445801e-02) (2, 2.62175127863883972168e-02) (3, -1.38074979186058044434e-02) (4, 5.76528385281562805176e-02) (5, 4.95513603091239929199e-02) (6, -8.92107188701629638672e-02) (7, 1.63050293922424316406e-02) (8, -2.72428244352340698242e-02) (9, 1.07170715928077697754e-02) (10, 7.26432874798774719238e-02) (11, -3.99061702191829681396e-02) (12, 8.46929624676704406738e-02) (13, -2.16379389166831970215e-02) (14, -7.75927528738975524902e-02) (0, -8.76354649662971496582e-02) (1, 7.08771422505378723145e-02) (2, -8.82013514637947082520e-02) (3, -2.83832997083663940430e-02) (4, -9.37297046184539794922e-02) (5, 6.01387098431587219238e-02) (6, -8.94830822944641113281e-02) (7, -9.72511172294616699219e-02) (8, -4.92115132510662078857e-02) (9, -5.95524162054061889648e-03) (10, -9.54221785068511962891e-02) (11, -2.02642381191253662109e-03) (12, 4.29439470171928405762e-02) (13, -2.87700071930885314941e-02) (14, 1.24356374144554138184e-02) (0, -5.77634349465370178223e-02) (1, 9.42415520548820495605e-02) (2, 6.83838650584220886230e-02) (3, 6.84540793299674987793e-02) (4, -1.95659548044204711914e-02) (5, 2.60367169976234436035e-02) (6, 1.80054306983947753906e-02) (7, -8.77667218446731567383e-03) (8, -5.76582551002502441406e-02) (9, 9.07626226544380187988e-02) (10, -9.80596095323562622070e-02) (11, -8.50149765610694885254e-02) (12, -4.91435602307319641113e-02) (13, 8.66333767771720886230e-02) (14, -6.65291398763656616211e-03) (0, -2.67363116145133972168e-02) (1, 9.89978983998298645020e-02) (2, -3.57757881283760070801e-02) (3, -1.49376615881919860840e-02) (4, -2.93853878974914550781e-02) (5, -2.95054912567138671875e-02) (6, -5.47989495098590850830e-02) (7, -1.88684761524200439453e-02) (8, -2.67565995454788208008e-02) (9, -4.01046127080917358398e-03) (10, 7.51762911677360534668e-02) (11, -2.21787840127944946289e-02) (12, 9.39631238579750061035e-02) (13, 1.81202292442321777344e-02) (14, 4.90512177348136901855e-02) (15, 6.39875233173370361328e-03) (16, 6.03568032383918762207e-02) (17, 4.32927682995796203613e-02) (18, -2.52173840999603271484e-02) (19, 2.88108661770820617676e-02) (20, -7.62731879949569702148e-02) (21, -9.91806685924530029297e-02) (22, -5.31837008893489837646e-02) (23, 1.49501413106918334961e-02) (24, -5.68389259278774261475e-02) (25, -6.24210871756076812744e-02) (26, 1.68905407190322875977e-02) (27, -4.18539009988307952881e-02) (15, -1.15646421909332275391e-02) (16, 3.52390855550765991211e-03) (17, 5.14931902289390563965e-02) (18, 6.16990402340888977051e-02) (19, 2.52181291580200195312e-03) (20, -8.42825919389724731445e-02) (21, -5.32386228442192077637e-02) (22, 7.31364265084266662598e-02) (23, -1.37880891561508178711e-02) (24, -8.03756713867187500000e-03) (25, -4.57320511341094970703e-02) (26, 5.94553127884864807129e-02) (27, 8.79519656300544738770e-02) (15, -7.05557689070701599121e-02) (16, -6.27234652638435363770e-02) (17, 8.19150879979133605957e-02) (18, 4.75644543766975402832e-02) (19, 8.63277539610862731934e-02) (20, -1.16861611604690551758e-02) (21, 7.92125612497329711914e-03) (22, 2.96205207705497741699e-02) (23, 6.30964711308479309082e-02) (24, -6.32678717374801635742e-02) (25, 5.33473417162895202637e-02) (26, 6.39157965779304504395e-02) (27, -1.64515748620033264160e-02) (15, -3.17025259137153625488e-02) (16, -9.29231345653533935547e-02) (17, 2.11273431777954101562e-02) (18, 8.51880237460136413574e-02) (19, -3.47770303487777709961e-02) (20, -9.04373079538345336914e-02) (21, -1.12880840897560119629e-02) (22, -8.32838416099548339844e-02) (23, 7.12617412209510803223e-02) (24, 9.12337377667427062988e-02) (25, -6.75664395093917846680e-02) (26, -8.19768831133842468262e-02) (27, 6.43701478838920593262e-02) (15, 1.86454802751541137695e-02) (16, 9.98555123805999755859e-03) (17, -8.13619047403335571289e-02) (18, -2.18992009758949279785e-02) (19, -2.06248462200164794922e-03) (20, -5.19176721572875976562e-02) (21, 1.53773277997970581055e-02) (22, -2.01473981142044067383e-02) (23, 9.56467911601066589355e-02) (24, 1.70508772134780883789e-03) (25, 6.81664422154426574707e-02) (26, 3.56803834438323974609e-03) (27, -6.86743855476379394531e-02) (15, 3.12628969550132751465e-02) (16, 4.03001680970191955566e-02) (17, 8.46729502081871032715e-02) (18, -4.82130795717239379883e-03) (19, -7.61514008045196533203e-02) (20, -4.70295809209346771240e-02) (21, 2.25555896759033203125e-03) (22, 4.49759438633918762207e-02) (23, -6.18415623903274536133e-02) (24, 6.74785450100898742676e-02) (25, 5.45386299490928649902e-02) (26, 2.68703624606132507324e-02) (27, 8.41946974396705627441e-02) (15, 2.58003696799278259277e-02) (16, 1.81040912866592407227e-02) (17, -8.33717435598373413086e-02) (18, 4.38234880566596984863e-02) (19, -1.75257697701454162598e-02) (20, 3.52737382054328918457e-02) (21, -4.61909584701061248779e-02) (22, 1.11232697963714599609e-03) (23, -8.66254642605781555176e-02) (24, 5.17465546727180480957e-02) (25, 4.91946563124656677246e-02) (26, 2.87518724799156188965e-02) (27, -6.84008374810218811035e-02) (15, 4.48414459824562072754e-02) (16, -6.95430338382720947266e-02) (17, 9.97656062245368957520e-02) (18, -5.15905134379863739014e-02) (19, -3.82174253463745117188e-02) (20, 3.10285165905952453613e-02) (21, 8.87096598744392395020e-02) (22, -5.35444766283035278320e-02) (23, -7.37927928566932678223e-02) (24, -8.74417498707771301270e-02) (25, -5.74052333831787109375e-04) (26, 2.84627750515937805176e-02) (27, 5.75341954827308654785e-02) (15, 3.75843718647956848145e-02) (16, -4.05870378017425537109e-03) (17, 1.20728239417076110840e-02) (18, -3.55452671647071838379e-02) (19, -1.98640078306198120117e-02) (20, -6.21268041431903839111e-02) (21, 8.25588181614875793457e-02) (22, -3.23574990034103393555e-03) (23, 8.16966965794563293457e-02) (24, -3.49669530987739562988e-02) (25, -6.79620131850242614746e-02) (26, -6.44942671060562133789e-02) (27, 6.61453679203987121582e-02) (15, -5.45874759554862976074e-02) (16, 8.72522816061973571777e-02) (17, 1.53400301933288574219e-02) (18, 7.41643980145454406738e-02) (19, -8.11485499143600463867e-02) (20, -3.98185253143310546875e-02) (21, -9.53786373138427734375e-02) (22, -8.13829451799392700195e-02) (23, 8.59095901250839233398e-03) (24, -3.35960611701011657715e-02) (25, 4.96455654501914978027e-02) (26, -2.69938260316848754883e-03) (27, 1.28594636917114257812e-02) (15, 7.58527740836143493652e-02) (16, 9.85886901617050170898e-03) (17, -8.77145975828170776367e-02) (18, 4.31554019451141357422e-03) (19, -3.26069295406341552734e-02) (20, 4.98697832226753234863e-02) (21, -9.97431650757789611816e-02) (22, 7.94658884406089782715e-02) (23, -8.56754779815673828125e-02) (24, -1.96071714162826538086e-02) (25, -8.26609134674072265625e-02) (26, 9.68833491206169128418e-02) (27, 7.71570727229118347168e-02) (28, 9.90357771515846252441e-02) (29, -3.80836091935634613037e-02) (30, -9.08049419522285461426e-02) (31, -6.54584914445877075195e-02) (32, -7.19382315874099731445e-02) (33, -4.53924201428890228271e-02) (34, -7.82062038779258728027e-02) (35, 4.34018000960350036621e-02) (36, -7.12280124425888061523e-02) (37, -5.93547560274600982666e-02) (38, -9.64167192578315734863e-02) (39, -6.66066557168960571289e-02) (28, -4.07376997172832489014e-02) (29, 1.21742337942123413086e-02) (30, -2.02715396881103515625e-04) (31, -9.10921320319175720215e-02) (32, -9.05251428484916687012e-02) (33, -8.73432531952857971191e-02) (34, 8.47606435418128967285e-02) (35, 1.93337351083755493164e-02) (36, -7.50578492879867553711e-02) (37, -1.09238177537918090820e-02) (38, 8.67268070578575134277e-02) (39, 7.48119428753852844238e-02) (28, -1.06669813394546508789e-02) (29, 6.61926940083503723145e-02) (30, 8.91364738345146179199e-02) (31, 6.97258487343788146973e-02) (32, 8.35317894816398620605e-02) (33, 8.60198214650154113770e-02) (34, 4.68829199671745300293e-02) (35, 8.25675800442695617676e-02) (36, -5.20637929439544677734e-02) (37, 5.60779646039009094238e-02) (38, -8.28909277915954589844e-02) (39, -2.40020230412483215332e-02) (28, -8.93144458532333374023e-02) (29, -6.10971301794052124023e-02) (30, -8.06002169847488403320e-02) (31, -6.05424605309963226318e-02) (32, -2.04518884420394897461e-02) (33, -7.70169347524642944336e-02) (34, -2.71491110324859619141e-02) (35, 3.88104245066642761230e-02) (36, 3.51573154330253601074e-02) (37, 7.26481750607490539551e-02) (38, 4.77182939648628234863e-02) (39, 4.46321740746498107910e-02) (28, 8.53049233555793762207e-02) (29, 3.24789360165596008301e-02) (30, -3.60340923070907592773e-02) (31, -8.97529199719429016113e-02) (32, -7.84448906779289245605e-02) (33, -4.93072941899299621582e-02) (34, 8.50590243935585021973e-02) (35, 1.08881220221519470215e-02) (36, -8.31145942211151123047e-02) (37, 7.41954967379570007324e-02) (38, -1.93860307335853576660e-02) (39, -9.95828062295913696289e-02) (28, 6.02153018116950988770e-02) (29, -7.25031122565269470215e-02) (30, 8.29847678542137145996e-02) (31, -9.18484926223754882812e-02) (32, 8.35748538374900817871e-02) (33, -9.99061614274978637695e-02) (34, -1.58505067229270935059e-02) (35, 9.42604169249534606934e-02) (36, -6.10032938420772552490e-02) (37, 3.54927778244018554688e-03) (38, -6.62820488214492797852e-02) (39, 1.85448154807090759277e-02) (28, 2.65323445200920104980e-02) (29, 6.56884908676147460938e-03) (30, -4.26447652280330657959e-02) (31, -3.83103564381599426270e-02) (32, -2.07829773426055908203e-02) (33, -9.49264764785766601562e-02) (34, -9.36781838536262512207e-02) (35, -3.54780480265617370605e-02) (36, 3.75524535775184631348e-02) (37, -2.97122746706008911133e-02) (38, -2.52309665083885192871e-02) (39, 5.91075643897056579590e-02) (28, 2.09804326295852661133e-02) (29, -4.01719510555267333984e-02) (30, -3.00043076276779174805e-02) (31, 3.78658398985862731934e-02) (32, -6.59764558076858520508e-02) (33, 5.06096556782722473145e-02) (34, 3.82830426096916198730e-02) (35, 9.42388400435447692871e-02) (36, 7.81065449118614196777e-02) (37, 2.12677940726280212402e-02) (38, -9.76096466183662414551e-02) (39, 6.16814121603965759277e-02) (28, 2.13616341352462768555e-02) (29, -1.34601518511772155762e-02) (30, 5.59418275952339172363e-02) (31, 6.03583529591560363770e-02) (32, 9.00891199707984924316e-02) (33, 8.96597877144813537598e-02) (34, -2.10968330502510070801e-02) (35, 1.66214555501937866211e-02) (36, -3.77137213945388793945e-03) (37, 3.62584069371223449707e-02) (38, 7.83111080527305603027e-02) (39, 7.54456594586372375488e-02) (28, 4.13319244980812072754e-02) (29, 8.46329256892204284668e-02) (30, -6.00323975086212158203e-02) (31, -2.11156159639358520508e-02) (32, -4.50793616473674774170e-02) (33, 1.47366300225257873535e-02) (34, -6.20080605149269104004e-02) (35, 7.59010687470436096191e-02) (36, 7.45646879076957702637e-02) (37, 7.98763334751129150391e-03) (38, 1.37669071555137634277e-02) (39, -9.14117768406867980957e-02) 
