FANN_FLO_2.1
num_layers=4
learning_rate=0.700000
connection_rate=1.000000
network_type=0
learning_momentum=0.000000
training_algorithm=2
train_error_function=1
train_stop_function=0
cascade_output_change_fraction=0.010000
quickprop_decay=-0.000100
quickprop_mu=1.750000
rprop_increase_factor=1.200000
rprop_decrease_factor=0.500000
rprop_delta_min=0.000000
rprop_delta_max=50.000000
rprop_delta_zero=0.100000
cascade_output_stagnation_epochs=12
cascade_candidate_change_fraction=0.010000
cascade_candidate_stagnation_epochs=12
cascade_max_out_epochs=150
cascade_min_out_epochs=50
cascade_max_cand_epochs=150
cascade_min_cand_epochs=50
cascade_num_candidate_groups=2
bit_fail_limit=3.49999994039535522461e-01
cascade_candidate_limit=1.00000000000000000000e+03
cascade_weight_multiplier=4.00000005960464477539e-01
cascade_activation_functions_count=10
cascade_activation_functions=3 5 7 8 10 11 14 15 16 17 
cascade_activation_steepnesses_count=4
cascade_activation_steepnesses=2.50000000000000000000e-01 5.00000000000000000000e-01 7.50000000000000000000e-01 1.00000000000000000000e+00 
layer_sizes=11 11 11 11 
scale_included=0
neurons (num_inputs, activation_function, activation_steepness)=(0, 0, 0.00000000000000000000e+00) (0, 0, 0.00000000000000000000e+00) (0, 0, 0.00000000000000000000e+00) (0, 0, 0.00000000000000000000e+00) (0, 0, 0.00000000000000000000e+00) (0, 0, 0.00000000000000000000e+00) (0, 0, 0.00000000000000000000e+00) (0, 0, 0.00000000000000000000e+00) (0, 0, 0.00000000000000000000e+00) (0, 0, 0.00000000000000000000e+00) (0, 0, 0.00000000000000000000e+00) (11, 5, 5.00000000000000000000e-01) (11, 5, 5.00000000000000000000e-01) (11, 5, 5.00000000000000000000e-01) (11, 5, 5.00000000000000000000e-01) (11, 5, 5.00000000000000000000e-01) (11, 5, 5.00000000000000000000e-01) (11, 5, 5.00000000000000000000e-01) (11, 5, 5.00000000000000000000e-01) (11, 5, 5.00000000000000000000e-01) (11, 5, 5.00000000000000000000e-01) (0, 5, 0.00000000000000000000e+00) (11, 5, 5.00000000000000000000e-01) (11, 5, 5.00000000000000000000e-01) (11, 5, 5.00000000000000000000e-01) (11, 5, 5.00000000000000000000e-01) (11, 5, 5.00000000000000000000e-01) (11, 5, 5.00000000000000000000e-01) (11, 5, 5.00000000000000000000e-01) (11, 5, 5.00000000000000000000e-01) (11, 5, 5.00000000000000000000e-01) (11, 5, 5.00000000000000000000e-01) (0, 5, 0.00000000000000000000e+00) (11, 5, 5.00000000000000000000e-01) (11, 5, 5.00000000000000000000e-01) (11, 5, 5.00000000000000000000e-01) (11, 5, 5.00000000000000000000e-01) (11, 5, 5.00000000000000000000e-01) (11, 5, 5.00000000000000000000e-01) (11, 5, 5.00000000000000000000e-01) (11, 5, 5.00000000000000000000e-01) (11, 5, 5.00000000000000000000e-01) (11, 5, 5.00000000000000000000e-01) (0, 5, 0.00000000000000000000e+00) 
connections (connected_to_neuron, weight)=(0, -1.86880230903625488281e-02) (1, 1.24245658516883850098e-02) (2, -6.31516128778457641602e-02) (3, 5.20020797848701477051e-02) (4, 5.74798509478569030762e-02) (5, -9.25716459751129150391e-02) (6, -1.27239972352981567383e-02) (7, 2.78410986065864562988e-02) (8, -3.60758602619171142578e-03) (9, 1.18902474641799926758e-02) (10, 5.01337572932243347168e-02) (0, -3.18583026528358459473e-02) (1, 8.28208401799201965332e-02) (2, -5.13004176318645477295e-02) (3, -3.17145138978958129883e-03) (4, -1.73548236489295959473e-02) (5, 9.72696915268898010254e-02) (6, -1.17750167846679687500e-02) (7, -7.93729126453399658203e-02) (8, -2.07490399479866027832e-02) (9, 7.49166309833526611328e-03) (10, -3.09180468320846557617e-02) (0, 3.41282859444618225098e-02) (1, 8.38740244507789611816e-02) (2, -7.76095911860466003418e-02) (3, 6.00455477833747863770e-02) (4, -9.59848016500473022461e-02) (5, -5.65772168338298797607e-02) (6, -4.96159605681896209717e-02) (7, -2.88715213537216186523e-03) (8, -5.72370216250419616699e-02) (9, 3.16960290074348449707e-02) (10, -9.04625952243804931641e-02) (0, -2.03886255621910095215e-02) (1, -1.63019150495529174805e-02) (2, 6.70172497630119323730e-02) (3, -1.29602700471878051758e-02) (4, 7.09740892052650451660e-02) (5, -5.14164566993713378906e-03) (6, 8.34321454167366027832e-02) (7, -1.71356573700904846191e-02) (8, -5.50078898668289184570e-02) (9, -4.84261624515056610107e-02) (10, -3.43148186802864074707e-02) (0, -6.30830228328704833984e-03) (1, 4.84023913741111755371e-02) (2, 4.83303740620613098145e-02) (3, -9.03861224651336669922e-03) (4, -6.33726269006729125977e-02) (5, 6.89574554562568664551e-02) (6, 7.02123418450355529785e-02) (7, 4.41190376877784729004e-02) (8, -6.19605891406536102295e-02) (9, 4.34063374996185302734e-03) (10, 2.79930606484413146973e-02) (0, -3.95701825618743896484e-02) (1, -3.56138199567794799805e-02) (2, 3.20082530379295349121e-02) (3, 3.85259091854095458984e-03) (4, 1.47702246904373168945e-02) (5, -7.08788931369781494141e-02) (6, 4.66155782341957092285e-02) (7, -5.35337626934051513672e-02) (8, -6.13414868712425231934e-02) (9, -7.37730488181114196777e-02) (10, 3.01643237471580505371e-02) (0, -9.43242385983467102051e-02) (1, 1.32666826248168945312e-02) (2, 1.13841146230697631836e-03) (3, 5.34117221832275390625e-04) (4, -3.30118089914321899414e-03) (5, 8.40027555823326110840e-02) (6, 4.55262288451194763184e-02) (7, 4.82726618647575378418e-02) (8, -5.03120608627796173096e-02) (9, -6.07820823788642883301e-02) (10, -3.32495570182800292969e-03) (0, 9.80182960629463195801e-02) (1, 3.01792994141578674316e-02) (2, 3.33024188876152038574e-02) (3, 6.69757649302482604980e-02) (4, 3.91647219657897949219e-04) (5, -2.25785449147224426270e-02) (6, -9.49848368763923645020e-02) (7, -9.52677205204963684082e-02) (8, -9.45854783058166503906e-02) (9, -3.45550179481506347656e-02) (10, -3.08815389871597290039e-02) (0, 3.74227836728096008301e-02) (1, 6.92975744605064392090e-02) (2, 8.38886871933937072754e-02) (3, 6.65438845753669738770e-02) (4, 1.59131661057472229004e-02) (5, -6.96450769901275634766e-02) (6, -9.47976037859916687012e-02) (7, 4.21401187777519226074e-02) (8, 6.05192407965660095215e-02) (9, -8.91218334436416625977e-02) (10, -4.45932112634181976318e-02) (0, -3.83423455059528350830e-02) (1, 1.14122852683067321777e-02) (2, 5.21056130528450012207e-02) (3, -5.43395839631557464600e-02) (4, -4.30614911019802093506e-02) (5, 3.78265976905822753906e-04) (6, -4.65165078639984130859e-03) (7, -3.84356826543807983398e-03) (8, 9.70533117651939392090e-02) (9, -6.63334131240844726562e-03) (10, -7.36642703413963317871e-02) (11, 3.03557291626930236816e-02) (12, -3.96575890481472015381e-02) (13, 2.67273858189582824707e-02) (14, -9.22228097915649414062e-02) (15, -3.46424207091331481934e-02) (16, 3.14596518874168395996e-02) (17, -8.68082940578460693359e-02) (18, 3.08025553822517395020e-02) (19, -9.94218811392784118652e-02) (20, 5.06144836544990539551e-02) (21, 1.00150704383850097656e-04) (11, 8.44668075442314147949e-02) (12, 1.71583741903305053711e-02) (13, -8.39866995811462402344e-02) (14, -8.51782783865928649902e-02) (15, 2.23607793450355529785e-02) (16, 5.81534132361412048340e-02) (17, 7.53409639000892639160e-02) (18, 3.32389548420906066895e-02) (19, -8.64397957921028137207e-02) (20, -6.30013793706893920898e-02) (21, -5.53487762808799743652e-02) (11, 6.56658187508583068848e-02) (12, -1.73409655690193176270e-02) (13, 1.58973783254623413086e-03) (14, -3.39559167623519897461e-02) (15, 7.80073925852775573730e-02) (16, 9.77461710572242736816e-02) (17, -3.69026139378547668457e-02) (18, -2.86259502172470092773e-02) (19, -7.59181082248687744141e-02) (20, 9.34531167149543762207e-02) (21, 3.17164734005928039551e-02) (11, 5.08092716336250305176e-02) (12, -9.87696945667266845703e-02) (13, 9.70740392804145812988e-02) (14, -1.77310630679130554199e-02) (15, -8.55779871344566345215e-02) (16, 2.78766080737113952637e-02) (17, -1.71529501676559448242e-02) (18, 6.50365129113197326660e-02) (19, -7.20232576131820678711e-02) (20, -3.26861515641212463379e-02) (21, -1.78051143884658813477e-02) (11, -5.60099519789218902588e-02) (12, -1.78644210100173950195e-02) (13, -9.54443439841270446777e-02) (14, -9.78565365076065063477e-02) (15, -4.25234623253345489502e-02) (16, 3.77945974469184875488e-02) (17, -8.42963308095932006836e-02) (18, -5.52483648061752319336e-03) (19, 8.24458226561546325684e-02) (20, 8.13694819808006286621e-02) (21, 7.71341994404792785645e-02) (11, -1.59644410014152526855e-02) (12, -5.25864474475383758545e-02) (13, 5.51415905356407165527e-02) (14, -1.82182788848876953125e-02) (15, 1.05109438300132751465e-02) (16, -7.34843537211418151855e-02) (17, 5.86362183094024658203e-03) (18, 3.96406650543212890625e-03) (19, 5.82321062684059143066e-02) (20, -4.33271043002605438232e-02) (21, 5.19436597824096679688e-03) (11, 5.53061440587043762207e-02) (12, 3.89418229460716247559e-02) (13, 1.96163877844810485840e-02) (14, -1.68172493577003479004e-02) (15, -7.82111212611198425293e-02) (16, -1.53471082448959350586e-02) (17, 1.11594945192337036133e-02) (18, -1.08972638845443725586e-02) (19, 6.68477788567543029785e-02) (20, 5.51495477557182312012e-02) (21, 7.12383016943931579590e-02) (11, 7.14034363627433776855e-02) (12, 5.72930052876472473145e-02) (13, -7.12851583957672119141e-02) (14, 9.19803231954574584961e-03) (15, 7.29966834187507629395e-02) (16, 2.31900066137313842773e-02) (17, -8.35613906383514404297e-03) (18, 5.43661490082740783691e-02) (19, 3.24212014675140380859e-04) (20, 7.56794288754463195801e-02) (21, -9.82202962040901184082e-02) (11, -4.45341952145099639893e-02) (12, -4.25388589501380920410e-02) (13, 1.22906416654586791992e-02) (14, -1.80185511708259582520e-02) (15, 6.33247569203376770020e-02) (16, -8.37452858686447143555e-02) (17, -5.97864426672458648682e-02) (18, -8.00023376941680908203e-02) (19, 2.14490741491317749023e-02) (20, 9.55197140574455261230e-02) (21, 5.89394941926002502441e-02) (11, -5.89345358312129974365e-02) (12, -2.12975442409515380859e-02) (13, 8.07283595204353332520e-02) (14, 2.57183536887168884277e-02) (15, 8.98619517683982849121e-02) (16, -3.01689058542251586914e-02) (17, -7.43386894464492797852e-03) (18, 4.50114980340003967285e-02) (19, -5.89305944740772247314e-02) (20, -3.60304340720176696777e-02) (21, 2.30449438095092773438e-03) (22, -3.02157476544380187988e-02) (23, 7.31675997376441955566e-02) (24, -2.46988385915756225586e-02) (25, 9.29742529988288879395e-02) (26, -3.51885408163070678711e-02) (27, -7.03326836228370666504e-02) (28, -6.70152157545089721680e-03) (29, -5.95091208815574645996e-02) (30, -6.85529857873916625977e-02) (31, 4.87642809748649597168e-02) (32, -2.04797834157943725586e-03) (22, 4.37376722693443298340e-02) (23, -6.92542642354965209961e-02) (24, -3.87232117354869842529e-02) (25, 5.99923804402351379395e-02) (26, -2.90407091379165649414e-02) (27, -1.87255591154098510742e-02) (28, -1.85585394501686096191e-02) (29, -3.35210040211677551270e-02) (30, -5.97860664129257202148e-02) (31, 2.25069299340248107910e-02) (32, 4.51814606785774230957e-02) (22, -7.90577009320259094238e-02) (23, -5.17747141420841217041e-02) (24, 3.50433960556983947754e-02) (25, -9.22660529613494873047e-03) (26, 4.07914146780967712402e-02) (27, -1.99451074004173278809e-02) (28, 3.18428054451942443848e-02) (29, -9.52390208840370178223e-02) (30, 8.23593810200691223145e-02) (31, -9.83729436993598937988e-02) (32, 7.79285803437232971191e-02) (22, -4.23394516110420227051e-02) (23, 9.46013256907463073730e-02) (24, -5.72599582374095916748e-02) (25, -1.26721337437629699707e-02) (26, -1.21002048254013061523e-02) (27, -1.67690739035606384277e-02) (28, 1.87748894095420837402e-02) (29, -6.33359253406524658203e-02) (30, 8.11829492449760437012e-02) (31, -3.74874398112297058105e-02) (32, -3.25901955366134643555e-02) (22, -5.75402677059173583984e-02) (23, -7.74950608611106872559e-02) (24, 3.83690968155860900879e-02) (25, 2.37341746687889099121e-02) (26, 3.94640117883682250977e-03) (27, -9.51519086956977844238e-02) (28, 6.39481022953987121582e-02) (29, -7.35466703772544860840e-02) (30, 5.00295385718345642090e-02) (31, 8.48904177546501159668e-02) (32, -2.53213793039321899414e-02) (22, -1.49270594120025634766e-02) (23, -2.43361890316009521484e-02) (24, -8.45299661159515380859e-02) (25, 6.51278272271156311035e-02) (26, -9.24933850765228271484e-02) (27, -7.97689855098724365234e-02) (28, 4.74872067570686340332e-02) (29, -9.08663272857666015625e-02) (30, 9.81596037745475769043e-02) (31, -9.48522388935089111328e-02) (32, -9.62650105357170104980e-02) (22, -5.91003596782684326172e-02) (23, -7.52437114715576171875e-03) (24, -8.36521387100219726562e-03) (25, 2.41305604577064514160e-02) (26, -8.87494832277297973633e-02) (27, 2.82988622784614562988e-02) (28, 5.31351566314697265625e-03) (29, -2.62369215488433837891e-02) (30, 9.57086756825447082520e-02) (31, 4.77732494473457336426e-02) (32, -3.73198091983795166016e-03) (22, 3.40777710080146789551e-02) (23, -2.84925848245620727539e-02) (24, -9.97855812311172485352e-02) (25, 3.89258489012718200684e-02) (26, -6.45444691181182861328e-02) (27, -7.33322501182556152344e-02) (28, -1.10446065664291381836e-02) (29, -7.96540528535842895508e-02) (30, 1.34636461734771728516e-03) (31, 7.40283206105232238770e-02) (32, -3.99024784564971923828e-03) (22, 1.68163999915122985840e-02) (23, 3.91561612486839294434e-02) (24, 3.51637601852416992188e-03) (25, 3.70474234223365783691e-02) (26, -1.33566334843635559082e-02) (27, 1.26500502228736877441e-02) (28, 3.52070108056068420410e-02) (29, -8.20887088775634765625e-03) (30, 1.63850411772727966309e-02) (31, 7.61066600680351257324e-02) (32, 8.42667594552040100098e-02) (22, -9.19801741838455200195e-02) (23, 2.37211585044860839844e-04) (24, 9.55172851681709289551e-02) (25, 3.63186821341514587402e-02) (26, -9.44492742419242858887e-02) (27, -3.07196453213691711426e-02) (28, 3.20273414254188537598e-02) (29, 5.33239766955375671387e-02) (30, 6.55483677983283996582e-02) (31, -3.38948890566825866699e-02) (32, -7.51686096191406250000e-02) 
