FANN_FLO_2.1
num_layers=4
learning_rate=0.700000
connection_rate=1.000000
network_type=0
learning_momentum=0.000000
training_algorithm=2
train_error_function=1
train_stop_function=0
cascade_output_change_fraction=0.010000
quickprop_decay=-0.000100
quickprop_mu=1.750000
rprop_increase_factor=1.200000
rprop_decrease_factor=0.500000
rprop_delta_min=0.000000
rprop_delta_max=50.000000
rprop_delta_zero=0.100000
cascade_output_stagnation_epochs=12
cascade_candidate_change_fraction=0.010000
cascade_candidate_stagnation_epochs=12
cascade_max_out_epochs=150
cascade_min_out_epochs=50
cascade_max_cand_epochs=150
cascade_min_cand_epochs=50
cascade_num_candidate_groups=2
bit_fail_limit=3.49999994039535522461e-01
cascade_candidate_limit=1.00000000000000000000e+03
cascade_weight_multiplier=4.00000005960464477539e-01
cascade_activation_functions_count=10
cascade_activation_functions=3 5 7 8 10 11 14 15 16 17 
cascade_activation_steepnesses_count=4
cascade_activation_steepnesses=2.50000000000000000000e-01 5.00000000000000000000e-01 7.50000000000000000000e-01 1.00000000000000000000e+00 
layer_sizes=15 13 12 11 
scale_included=0
neurons (num_inputs, activation_function, activation_steepness)=(0, 0, 0.00000000000000000000e+00) (0, 0, 0.00000000000000000000e+00) (0, 0, 0.00000000000000000000e+00) (0, 0, 0.00000000000000000000e+00) (0, 0, 0.00000000000000000000e+00) (0, 0, 0.00000000000000000000e+00) (0, 0, 0.00000000000000000000e+00) (0, 0, 0.00000000000000000000e+00) (0, 0, 0.00000000000000000000e+00) (0, 0, 0.00000000000000000000e+00) (0, 0, 0.00000000000000000000e+00) (0, 0, 0.00000000000000000000e+00) (0, 0, 0.00000000000000000000e+00) (0, 0, 0.00000000000000000000e+00) (0, 0, 0.00000000000000000000e+00) (15, 5, 5.00000000000000000000e-01) (15, 5, 5.00000000000000000000e-01) (15, 5, 5.00000000000000000000e-01) (15, 5, 5.00000000000000000000e-01) (15, 5, 5.00000000000000000000e-01) (15, 5, 5.00000000000000000000e-01) (15, 5, 5.00000000000000000000e-01) (15, 5, 5.00000000000000000000e-01) (15, 5, 5.00000000000000000000e-01) (15, 5, 5.00000000000000000000e-01) (15, 5, 5.00000000000000000000e-01) (15, 5, 5.00000000000000000000e-01) (0, 5, 0.00000000000000000000e+00) (13, 5, 5.00000000000000000000e-01) (13, 5, 5.00000000000000000000e-01) (13, 5, 5.00000000000000000000e-01) (13, 5, 5.00000000000000000000e-01) (13, 5, 5.00000000000000000000e-01) (13, 5, 5.00000000000000000000e-01) (13, 5, 5.00000000000000000000e-01) (13, 5, 5.00000000000000000000e-01) (13, 5, 5.00000000000000000000e-01) (13, 5, 5.00000000000000000000e-01) (13, 5, 5.00000000000000000000e-01) (0, 5, 0.00000000000000000000e+00) (12, 5, 5.00000000000000000000e-01) (12, 5, 5.00000000000000000000e-01) (12, 5, 5.00000000000000000000e-01) (12, 5, 5.00000000000000000000e-01) (12, 5, 5.00000000000000000000e-01) (12, 5, 5.00000000000000000000e-01) (12, 5, 5.00000000000000000000e-01) (12, 5, 5.00000000000000000000e-01) (12, 5, 5.00000000000000000000e-01) (12, 5, 5.00000000000000000000e-01) (0, 5, 0.00000000000000000000e+00) 
connections (connected_to_neuron, weight)=(0, -2.12107673287391662598e-02) (1, 4.99451532959938049316e-02) (2, -1.18637010455131530762e-02) (3, 9.96149852871894836426e-02) (4, 5.10595515370368957520e-02) (5, -2.05997079610824584961e-02) (6, -4.92558889091014862061e-02) (7, 1.78410634398460388184e-02) (8, 2.80379131436347961426e-02) (9, -2.52168998122215270996e-02) (10, 1.99102163314819335938e-02) (11, 8.54348912835121154785e-02) (12, -5.86933195590972900391e-02) (13, 6.49109855294227600098e-02) (14, -2.22383812069892883301e-02) (0, 4.09892126917839050293e-02) (1, 3.49958240985870361328e-03) (2, -1.65274068713188171387e-02) (3, 2.51321271061897277832e-02) (4, 1.02770328521728515625e-03) (5, -3.46731990575790405273e-02) (6, 6.59284666180610656738e-02) (7, -6.09784387052059173584e-02) (8, -5.26533126831054687500e-02) (9, -8.01532864570617675781e-02) (10, 3.89055833220481872559e-02) (11, 2.19190120697021484375e-03) (12, -7.42519870400428771973e-02) (13, -8.93734991550445556641e-02) (14, -3.16632091999053955078e-02) (0, -3.73299792408943176270e-02) (1, -1.05842575430870056152e-02) (2, -8.17180648446083068848e-02) (3, 5.08063212037086486816e-02) (4, -1.09692662954330444336e-02) (5, 6.93414881825447082520e-02) (6, -6.97933882474899291992e-02) (7, 3.97748425602912902832e-02) (8, -1.28174424171447753906e-02) (9, 5.82445189356803894043e-02) (10, -8.54420661926269531250e-02) (11, -9.29072275757789611816e-02) (12, 4.36794087290763854980e-02) (13, -4.41353805363178253174e-02) (14, 7.20037743449211120605e-02) (0, -7.85589739680290222168e-02) (1, 9.68538299202919006348e-02) (2, -2.44966596364974975586e-02) (3, 4.91361320018768310547e-03) (4, 2.19859480857849121094e-02) (5, 7.65310600399971008301e-02) (6, 7.02404156327247619629e-02) (7, -1.20855867862701416016e-02) (8, -8.44473913311958312988e-02) (9, -8.24128985404968261719e-02) (10, 7.76113569736480712891e-03) (11, 5.44582083821296691895e-02) (12, 1.97790116071701049805e-02) (13, 3.35091426968574523926e-02) (14, 6.50847032666206359863e-02) (0, 8.81158038973808288574e-02) (1, 9.61791649460792541504e-02) (2, -4.54995632171630859375e-02) (3, -9.36022624373435974121e-02) (4, 4.69854846596717834473e-02) (5, 4.35311719775199890137e-02) (6, 7.57392272353172302246e-02) (7, 7.71920904517173767090e-02) (8, -1.66939944028854370117e-02) (9, -3.70782092213630676270e-02) (10, 3.54366078972816467285e-02) (11, -2.13605910539627075195e-03) (12, -2.99854353070259094238e-02) (13, -2.08839848637580871582e-02) (14, 5.37285581231117248535e-02) (0, -5.79816699028015136719e-02) (1, 5.57042658329010009766e-04) (2, 5.05823865532875061035e-02) (3, 1.75216794013977050781e-02) (4, -9.45293381810188293457e-02) (5, -2.74316594004631042480e-02) (6, -5.94727694988250732422e-03) (7, 7.57110789418220520020e-02) (8, 6.04827478528022766113e-02) (9, 9.60533320903778076172e-03) (10, 9.32981893420219421387e-02) (11, -3.17561179399490356445e-02) (12, -3.59364673495292663574e-02) (13, 1.30771994590759277344e-02) (14, -9.82469767332077026367e-02) (0, -7.08517655730247497559e-02) (1, 1.19300186634063720703e-03) (2, 9.79321822524070739746e-02) (3, -1.63513273000717163086e-02) (4, 7.59073346853256225586e-03) (5, 4.49176654219627380371e-02) (6, -7.28201642632484436035e-02) (7, -1.66700333356857299805e-02) (8, 2.21097618341445922852e-02) (9, 1.04858428239822387695e-02) (10, 4.62517663836479187012e-02) (11, -4.24536354839801788330e-02) (12, -9.16502177715301513672e-02) (13, -8.37336704134941101074e-02) (14, 3.66623774170875549316e-02) (0, 6.20783492922782897949e-02) (1, -4.17153425514698028564e-02) (2, -6.27805739641189575195e-02) (3, 1.26607269048690795898e-02) (4, 7.58063420653343200684e-02) (5, -5.73099143803119659424e-02) (6, 8.52290764451026916504e-02) (7, -3.01409363746643066406e-02) (8, -8.15988332033157348633e-02) (9, 4.57118228077888488770e-02) (10, 7.94643983244895935059e-02) (11, -8.83006453514099121094e-02) (12, -8.60442891716957092285e-02) (13, -5.64720667898654937744e-02) (14, 2.47765555977821350098e-02) (0, -8.42912644147872924805e-02) (1, -2.73238345980644226074e-02) (2, -7.40304440259933471680e-02) (3, -8.63590836524963378906e-02) (4, 5.63248470425605773926e-02) (5, 3.35602983832359313965e-02) (6, 5.85585907101631164551e-02) (7, 8.35046842694282531738e-02) (8, -8.31097364425659179688e-02) (9, -1.93316563963890075684e-02) (10, -6.00948184728622436523e-03) (11, 6.31420239806175231934e-02) (12, 3.82147058844566345215e-02) (13, 2.34029442071914672852e-03) (14, 7.94083550572395324707e-02) (0, -2.51229107379913330078e-02) (1, -3.55813652276992797852e-02) (2, -6.23069815337657928467e-02) (3, 1.20965093374252319336e-02) (4, 7.70793631672859191895e-02) (5, -8.65006446838378906250e-02) (6, 5.47866001725196838379e-02) (7, 6.23084381222724914551e-02) (8, -1.66415795683860778809e-02) (9, 7.31877759099006652832e-02) (10, 8.02026689052581787109e-03) (11, -3.71771827340126037598e-02) (12, 8.48871245980262756348e-02) (13, 2.19759717583656311035e-02) (14, 6.35075569152832031250e-03) (0, 9.66367870569229125977e-03) (1, 3.76847013831138610840e-02) (2, 7.90269300341606140137e-02) (3, 3.56332287192344665527e-02) (4, 5.13256266713142395020e-02) (5, 3.53517606854438781738e-02) (6, -3.08064669370651245117e-02) (7, 9.88421589136123657227e-03) (8, 1.88564285635948181152e-02) (9, -1.39162018895149230957e-02) (10, 9.05525609850883483887e-02) (11, -8.71530547738075256348e-02) (12, -5.07741756737232208252e-02) (13, 2.87672653794288635254e-02) (14, 1.51872411370277404785e-02) (0, -7.13658183813095092773e-02) (1, -9.63556468486785888672e-02) (2, 7.96058848500251770020e-02) (3, -3.36727946996688842773e-02) (4, 1.57408714294433593750e-02) (5, 5.66852465271949768066e-02) (6, -2.01734453439712524414e-02) (7, -2.94725373387336730957e-02) (8, 1.89936906099319458008e-02) (9, 6.31849840283393859863e-02) (10, -5.62847703695297241211e-02) (11, -7.29860439896583557129e-02) (12, -7.39922076463699340820e-02) (13, -7.13976472616195678711e-02) (14, 4.89899292588233947754e-02) (15, 3.23585495352745056152e-02) (16, 3.82660254836082458496e-02) (17, -1.33253708481788635254e-02) (18, 1.13854780793190002441e-02) (19, -2.61007323861122131348e-02) (20, -6.19997419416904449463e-02) (21, -5.32627664506435394287e-02) (22, 4.30927947163581848145e-02) (23, 4.78844717144966125488e-02) (24, 6.55936673283576965332e-02) (25, -7.08234012126922607422e-02) (26, 3.84370312094688415527e-02) (27, 7.84406140446662902832e-02) (15, -2.15975791215896606445e-02) (16, -3.27956974506378173828e-02) (17, -6.37213885784149169922e-03) (18, 7.03660398721694946289e-03) (19, -2.91513353586196899414e-02) (20, -2.67662554979324340820e-02) (21, 7.33638033270835876465e-02) (22, 8.65895226597785949707e-02) (23, -7.00810104608535766602e-02) (24, -4.68096397817134857178e-02) (25, -4.28830087184906005859e-02) (26, 4.89126816391944885254e-02) (27, -8.36246609687805175781e-02) (15, 8.32222402095794677734e-04) (16, 7.59266391396522521973e-02) (17, -5.76168708503246307373e-02) (18, 2.94345691800117492676e-02) (19, 2.49165669083595275879e-02) (20, 7.47416839003562927246e-02) (21, -3.22993844747543334961e-02) (22, -8.84088054299354553223e-02) (23, -1.38728469610214233398e-02) (24, 4.15998771786689758301e-02) (25, -5.04085421562194824219e-02) (26, 3.28643992543220520020e-02) (27, -1.53073221445083618164e-02) (15, 9.74759384989738464355e-02) (16, -1.54194235801696777344e-03) (17, 1.38692706823348999023e-02) (18, 3.59129682183265686035e-02) (19, -2.31013223528861999512e-02) (20, 9.22716930508613586426e-02) (21, -9.68827381730079650879e-02) (22, 7.05265477299690246582e-02) (23, -6.91697001457214355469e-04) (24, -2.60340720415115356445e-02) (25, -5.62397204339504241943e-02) (26, -2.73278877139091491699e-02) (27, -3.94445471465587615967e-02) (15, -2.63207256793975830078e-02) (16, 2.58624628186225891113e-02) (17, 1.76724418997764587402e-02) (18, -7.74080455303192138672e-02) (19, 4.22378107905387878418e-02) (20, -8.14953297376632690430e-02) (21, 9.85186025500297546387e-02) (22, 8.46209451556205749512e-02) (23, 4.79392483830451965332e-02) (24, 2.34351605176925659180e-02) (25, 5.93626275658607482910e-02) (26, -8.43601450324058532715e-02) (27, 3.50263640284538269043e-02) (15, -5.45102208852767944336e-02) (16, 5.72397336363792419434e-02) (17, 8.46178159117698669434e-02) (18, 7.83541724085807800293e-02) (19, -5.80675862729549407959e-02) (20, 8.20937380194664001465e-02) (21, -2.31877714395523071289e-02) (22, 5.58016970753669738770e-02) (23, 1.80067047476768493652e-02) (24, 5.37109002470970153809e-02) (25, 4.80733886361122131348e-02) (26, 2.11239680647850036621e-02) (27, 2.42374390363693237305e-02) (15, -5.26183135807514190674e-02) (16, 9.50899049639701843262e-02) (17, 6.79977312684059143066e-02) (18, 2.00537890195846557617e-02) (19, -4.43546548485755920410e-02) (20, -5.83229996263980865479e-02) (21, -5.40837347507476806641e-02) (22, 7.33177885413169860840e-02) (23, -3.57310399413108825684e-02) (24, 8.81540700793266296387e-02) (25, 9.18224677443504333496e-02) (26, -3.72124463319778442383e-02) (27, 7.27750137448310852051e-02) (15, 3.97617146372795104980e-02) (16, 8.62227156758308410645e-02) (17, 3.21376398205757141113e-02) (18, 5.54015710949897766113e-02) (19, 2.12490707635879516602e-02) (20, 7.76274129748344421387e-02) (21, 1.26413106918334960938e-02) (22, 5.86688518524169921875e-03) (23, 5.59815838932991027832e-02) (24, 5.45737221837043762207e-02) (25, -1.20393708348274230957e-02) (26, -6.72061890363693237305e-02) (27, 1.03754028677940368652e-02) (15, -9.40326601266860961914e-02) (16, 8.65047201514244079590e-02) (17, -4.15512025356292724609e-02) (18, 2.70913168787956237793e-02) (19, 1.07421651482582092285e-02) (20, 5.83048164844512939453e-03) (21, 2.21812129020690917969e-02) (22, -2.12601125240325927734e-02) (23, -7.41157233715057373047e-02) (24, 7.78265669941902160645e-02) (25, 2.04168930649757385254e-02) (26, -2.81994491815567016602e-02) (27, 5.11443540453910827637e-02) (15, 8.46858546137809753418e-02) (16, -4.00453880429267883301e-02) (17, 4.29668202996253967285e-02) (18, -5.25266043841838836670e-02) (19, -6.72703832387924194336e-02) (20, -1.72714665532112121582e-02) (21, -6.63038939237594604492e-02) (22, 6.48672506213188171387e-02) (23, -6.18698969483375549316e-02) (24, 5.49451783299446105957e-02) (25, 4.24946621060371398926e-02) (26, 5.07714226841926574707e-02) (27, -3.91879342496395111084e-02) (15, -1.52376294136047363281e-03) (16, 5.34512847661972045898e-03) (17, 4.87727001309394836426e-02) (18, 3.12700346112251281738e-02) (19, -8.42794626951217651367e-02) (20, 5.47400340437889099121e-02) (21, 1.77747607231140136719e-02) (22, -2.58306637406349182129e-02) (23, -1.81686505675315856934e-02) (24, -7.14830756187438964844e-02) (25, 7.99998119473457336426e-02) (26, -9.59874466061592102051e-02) (27, 7.25680589675903320312e-03) (28, -9.41159054636955261230e-02) (29, 8.18391218781471252441e-02) (30, -7.23263025283813476562e-02) (31, -2.23153531551361083984e-02) (32, 3.29834744334220886230e-02) (33, -8.76404568552970886230e-02) (34, 3.76392677426338195801e-02) (35, -2.40497142076492309570e-02) (36, -4.01670597493648529053e-02) (37, 7.03688934445381164551e-02) (38, 5.86788132786750793457e-02) (39, -6.47094100713729858398e-03) (28, 3.52361276745796203613e-02) (29, 9.68089178204536437988e-02) (30, -5.15257641673088073730e-02) (31, -2.22692117094993591309e-02) (32, 4.75803390145301818848e-02) (33, 9.28630679845809936523e-03) (34, 7.62070193886756896973e-02) (35, -4.70745377242565155029e-02) (36, -4.19409982860088348389e-02) (37, 7.47706741094589233398e-03) (38, -3.13539952039718627930e-02) (39, -8.72009694576263427734e-02) (28, -7.47481733560562133789e-02) (29, 4.28153350949287414551e-02) (30, -5.36961853504180908203e-03) (31, -4.62312474846839904785e-02) (32, 2.28151530027389526367e-02) (33, -1.35706365108489990234e-03) (34, 6.10255673527717590332e-02) (35, 2.86992564797401428223e-02) (36, -1.95179507136344909668e-02) (37, 8.86992737650871276855e-02) (38, -9.36160981655120849609e-02) (39, -8.65344852209091186523e-02) (28, -9.89411920309066772461e-02) (29, 4.40231636166572570801e-02) (30, -1.05841904878616333008e-02) (31, -3.91082465648651123047e-02) (32, 1.43920406699180603027e-02) (33, -5.19053749740123748779e-02) (34, 5.44208064675331115723e-02) (35, -5.03718219697475433350e-02) (36, -5.50964549183845520020e-02) (37, -9.71049517393112182617e-02) (38, 2.73589566349983215332e-02) (39, 9.24838855862617492676e-02) (28, 1.21813565492630004883e-02) (29, 3.56598943471908569336e-03) (30, -5.45906536281108856201e-02) (31, 7.02403560280799865723e-02) (32, -8.89569446444511413574e-02) (33, 1.40553489327430725098e-02) (34, 8.30393806099891662598e-02) (35, -6.37051165103912353516e-02) (36, -4.31293137371540069580e-02) (37, -2.23302394151687622070e-02) (38, -9.93636250495910644531e-03) (39, 7.96858444809913635254e-02) (28, 7.63126984238624572754e-02) (29, -4.89107966423034667969e-02) (30, 8.38510692119598388672e-03) (31, -4.32052612304687500000e-02) (32, -6.02115355432033538818e-02) (33, 1.47690027952194213867e-02) (34, -2.97397449612617492676e-02) (35, -5.91527223587036132812e-02) (36, -4.12078276276588439941e-02) (37, 5.96760585904121398926e-02) (38, 1.73902511596679687500e-03) (39, 7.31842145323753356934e-02) (28, -9.22293141484260559082e-02) (29, -4.38401661813259124756e-02) (30, -7.71876052021980285645e-02) (31, -4.73257675766944885254e-02) (32, -4.09451127052307128906e-02) (33, 5.01713678240776062012e-02) (34, -5.48418872058391571045e-02) (35, 7.12362453341484069824e-02) (36, -4.62626516819000244141e-02) (37, -9.43253934383392333984e-03) (38, 4.14765849709510803223e-02) (39, -3.52195948362350463867e-02) (28, -9.53771919012069702148e-02) (29, 2.45159640908241271973e-02) (30, 1.07529014348983764648e-03) (31, -3.85065041482448577881e-02) (32, -9.78142768144607543945e-02) (33, 9.11389365792274475098e-02) (34, -5.88206499814987182617e-02) (35, 7.84984156489372253418e-02) (36, -5.77718690037727355957e-02) (37, 4.95644584298133850098e-02) (38, -6.47068470716476440430e-02) (39, -1.79833993315696716309e-02) (28, -3.56665328145027160645e-02) (29, 5.55340945720672607422e-03) (30, 2.28638797998428344727e-02) (31, 2.31256335973739624023e-02) (32, -3.47705259919166564941e-02) (33, -7.53970891237258911133e-02) (34, -3.69013845920562744141e-03) (35, -2.69998461008071899414e-02) (36, -1.92372500896453857422e-02) (37, 1.91222578287124633789e-02) (38, 2.56743952631950378418e-02) (39, 3.98176386952400207520e-02) (28, -3.07063832879066467285e-02) (29, 7.08325132727622985840e-02) (30, 1.10538750886917114258e-02) (31, 2.30309739708900451660e-02) (32, -3.86000275611877441406e-02) (33, -4.74695526063442230225e-02) (34, 8.78113731741905212402e-02) (35, -3.39772179722785949707e-02) (36, 7.70464166998863220215e-02) (37, -1.11133307218551635742e-02) (38, 2.75162830948829650879e-02) (39, 7.92321488261222839355e-02) 
