FANN_FLO_2.1
num_layers=4
learning_rate=0.700000
connection_rate=1.000000
network_type=0
learning_momentum=0.000000
training_algorithm=2
train_error_function=1
train_stop_function=0
cascade_output_change_fraction=0.010000
quickprop_decay=-0.000100
quickprop_mu=1.750000
rprop_increase_factor=1.200000
rprop_decrease_factor=0.500000
rprop_delta_min=0.000000
rprop_delta_max=50.000000
rprop_delta_zero=0.100000
cascade_output_stagnation_epochs=12
cascade_candidate_change_fraction=0.010000
cascade_candidate_stagnation_epochs=12
cascade_max_out_epochs=150
cascade_min_out_epochs=50
cascade_max_cand_epochs=150
cascade_min_cand_epochs=50
cascade_num_candidate_groups=2
bit_fail_limit=3.49999994039535522461e-01
cascade_candidate_limit=1.00000000000000000000e+03
cascade_weight_multiplier=4.00000005960464477539e-01
cascade_activation_functions_count=10
cascade_activation_functions=3 5 7 8 10 11 14 15 16 17 
cascade_activation_steepnesses_count=4
cascade_activation_steepnesses=2.50000000000000000000e-01 5.00000000000000000000e-01 7.50000000000000000000e-01 1.00000000000000000000e+00 
layer_sizes=15 13 12 11 
scale_included=0
neurons (num_inputs, activation_function, activation_steepness)=(0, 0, 0.00000000000000000000e+00) (0, 0, 0.00000000000000000000e+00) (0, 0, 0.00000000000000000000e+00) (0, 0, 0.00000000000000000000e+00) (0, 0, 0.00000000000000000000e+00) (0, 0, 0.00000000000000000000e+00) (0, 0, 0.00000000000000000000e+00) (0, 0, 0.00000000000000000000e+00) (0, 0, 0.00000000000000000000e+00) (0, 0, 0.00000000000000000000e+00) (0, 0, 0.00000000000000000000e+00) (0, 0, 0.00000000000000000000e+00) (0, 0, 0.00000000000000000000e+00) (0, 0, 0.00000000000000000000e+00) (0, 0, 0.00000000000000000000e+00) (15, 5, 5.00000000000000000000e-01) (15, 5, 5.00000000000000000000e-01) (15, 5, 5.00000000000000000000e-01) (15, 5, 5.00000000000000000000e-01) (15, 5, 5.00000000000000000000e-01) (15, 5, 5.00000000000000000000e-01) (15, 5, 5.00000000000000000000e-01) (15, 5, 5.00000000000000000000e-01) (15, 5, 5.00000000000000000000e-01) (15, 5, 5.00000000000000000000e-01) (15, 5, 5.00000000000000000000e-01) (15, 5, 5.00000000000000000000e-01) (0, 5, 0.00000000000000000000e+00) (13, 5, 5.00000000000000000000e-01) (13, 5, 5.00000000000000000000e-01) (13, 5, 5.00000000000000000000e-01) (13, 5, 5.00000000000000000000e-01) (13, 5, 5.00000000000000000000e-01) (13, 5, 5.00000000000000000000e-01) (13, 5, 5.00000000000000000000e-01) (13, 5, 5.00000000000000000000e-01) (13, 5, 5.00000000000000000000e-01) (13, 5, 5.00000000000000000000e-01) (13, 5, 5.00000000000000000000e-01) (0, 5, 0.00000000000000000000e+00) (12, 5, 5.00000000000000000000e-01) (12, 5, 5.00000000000000000000e-01) (12, 5, 5.00000000000000000000e-01) (12, 5, 5.00000000000000000000e-01) (12, 5, 5.00000000000000000000e-01) (12, 5, 5.00000000000000000000e-01) (12, 5, 5.00000000000000000000e-01) (12, 5, 5.00000000000000000000e-01) (12, 5, 5.00000000000000000000e-01) (12, 5, 5.00000000000000000000e-01) (0, 5, 0.00000000000000000000e+00) 
connections (connected_to_neuron, weight)=(0, 7.43251666426658630371e-02) (1, -9.77451056241989135742e-02) (2, 6.24604001641273498535e-02) (3, 2.31472626328468322754e-02) (4, -9.81297791004180908203e-02) (5, -8.99115204811096191406e-03) (6, 8.12939926981925964355e-02) (7, 3.02721336483955383301e-02) (8, 7.64552876353263854980e-02) (9, -1.86599120497703552246e-02) (10, -8.22920128703117370605e-02) (11, 5.91548457741737365723e-02) (12, -9.38315689563751220703e-02) (13, 5.67905679345130920410e-02) (14, 7.68572911620140075684e-02) (0, 3.66826355457305908203e-03) (1, -2.37875059247016906738e-02) (2, 6.41980022192001342773e-03) (3, 7.11401328444480895996e-02) (4, 2.51920893788337707520e-02) (5, -6.40423595905303955078e-02) (6, 6.75046965479850769043e-02) (7, 5.74369207024574279785e-02) (8, -6.43324032425880432129e-02) (9, -3.67355346679687500000e-03) (10, 6.03660866618156433105e-02) (11, -3.29926535487174987793e-02) (12, -4.81231510639190673828e-03) (13, -6.54071271419525146484e-02) (14, -8.10537859797477722168e-02) (0, -6.62132799625396728516e-02) (1, -9.10819694399833679199e-02) (2, -7.87988901138305664062e-02) (3, 9.62471142411231994629e-02) (4, 3.20652946829795837402e-02) (5, -7.69286602735519409180e-02) (6, -1.27440392971038818359e-02) (7, 1.33592933416366577148e-02) (8, 5.33434823155403137207e-02) (9, -3.62887531518936157227e-02) (10, 9.46993902325630187988e-02) (11, 7.10514709353446960449e-02) (12, -7.71339088678359985352e-02) (13, -9.91321876645088195801e-02) (14, 2.78420373797416687012e-02) (0, 9.97233912348747253418e-02) (1, 4.53607738018035888672e-03) (2, -9.59454774856567382812e-02) (3, 6.14318996667861938477e-03) (4, -2.43237912654876708984e-02) (5, 2.92466059327125549316e-02) (6, 4.21008393168449401855e-02) (7, -5.68190924823284149170e-02) (8, -1.33164674043655395508e-02) (9, 7.77684375643730163574e-02) (10, 3.95073518157005310059e-02) (11, -5.29503896832466125488e-02) (12, -5.52242211997509002686e-02) (13, -6.53049647808074951172e-02) (14, -1.83575153350830078125e-02) (0, -3.62780019640922546387e-02) (1, -3.15182507038116455078e-02) (2, -9.43948328495025634766e-03) (3, -1.50768905878067016602e-02) (4, -3.52711379528045654297e-02) (5, -7.73741900920867919922e-02) (6, 7.99445062875747680664e-03) (7, 5.19848242402076721191e-02) (8, 3.59851196408271789551e-02) (9, -3.86620722711086273193e-02) (10, -8.43039229512214660645e-02) (11, 3.06844785809516906738e-02) (12, -6.76106065511703491211e-02) (13, -6.14378266036510467529e-02) (14, 3.15523073077201843262e-02) (0, 6.02314248681068420410e-02) (1, -6.17144405841827392578e-02) (2, -6.39116242527961730957e-02) (3, 6.42859414219856262207e-02) (4, 4.44287583231925964355e-02) (5, 1.17645859718322753906e-02) (6, -6.46744668483734130859e-03) (7, -1.34704187512397766113e-02) (8, 5.49454912543296813965e-02) (9, 8.02160874009132385254e-02) (10, -3.57019826769828796387e-02) (11, -5.54715096950531005859e-03) (12, -7.27343037724494934082e-02) (13, 9.07379388809204101562e-03) (14, 2.91478708386421203613e-02) (0, 8.90817493200302124023e-03) (1, 7.27958008646965026855e-02) (2, 9.76296290755271911621e-02) (3, 9.94687005877494812012e-02) (4, -4.22810912132263183594e-02) (5, -3.76415066421031951904e-02) (6, -7.79054909944534301758e-02) (7, 6.57133534550666809082e-02) (8, -8.56566801667213439941e-02) (9, 5.80796077847480773926e-02) (10, -7.29487091302871704102e-02) (11, -6.99606016278266906738e-02) (12, -1.12359002232551574707e-02) (13, -4.05593216419219970703e-02) (14, -3.13984304666519165039e-02) (0, -7.96836018562316894531e-02) (1, -8.03278982639312744141e-02) (2, 6.88712298870086669922e-03) (3, -4.35952246189117431641e-02) (4, 8.39580371975898742676e-02) (5, -4.86841276288032531738e-02) (6, 6.81693628430366516113e-02) (7, -2.25094035267829895020e-02) (8, 3.78454551100730895996e-02) (9, 2.31148600578308105469e-02) (10, -4.22933213412761688232e-02) (11, -9.78565216064453125000e-02) (12, -8.24322998523712158203e-02) (13, -1.50276273488998413086e-02) (14, 1.12172737717628479004e-02) (0, 4.67155799269676208496e-02) (1, 9.38805565237998962402e-02) (2, -1.59869343042373657227e-02) (3, 4.43452075123786926270e-02) (4, 9.33492407202720642090e-02) (5, 4.17319759726524353027e-02) (6, -9.32962968945503234863e-02) (7, -8.45562443137168884277e-02) (8, 7.44533538818359375000e-03) (9, -7.89529681205749511719e-02) (10, 7.35233649611473083496e-02) (11, 3.44966277480125427246e-02) (12, -4.89135757088661193848e-02) (13, -3.77125330269336700439e-02) (14, 9.39373150467872619629e-02) (0, 1.96879878640174865723e-02) (1, -1.73961296677589416504e-02) (2, -8.63905921578407287598e-02) (3, -7.34248831868171691895e-02) (4, 3.90086546540260314941e-02) (5, 9.75674614310264587402e-02) (6, -2.21090093255043029785e-02) (7, 7.17800855636596679688e-03) (8, -2.49419435858726501465e-02) (9, -8.42635482549667358398e-02) (10, -6.97071254253387451172e-02) (11, 3.27647402882575988770e-02) (12, -8.21200758218765258789e-02) (13, -5.21394237875938415527e-02) (14, -8.22628885507583618164e-02) (0, 2.90972068905830383301e-02) (1, 9.45761576294898986816e-02) (2, -8.83823335170745849609e-02) (3, -8.68897289037704467773e-02) (4, 3.89213636517524719238e-02) (5, -9.50330942869186401367e-02) (6, 5.48422560095787048340e-02) (7, 4.56250831484794616699e-02) (8, -7.95893371105194091797e-02) (9, -3.77124063670635223389e-02) (10, 6.66721090674400329590e-02) (11, 9.39340367913246154785e-02) (12, 9.67842265963554382324e-02) (13, -8.22414681315422058105e-02) (14, -4.37784977257251739502e-02) (0, 9.07215401530265808105e-02) (1, 3.74465212225914001465e-02) (2, 3.88253852725028991699e-02) (3, -9.56690534949302673340e-02) (4, 6.40216395258903503418e-02) (5, -2.21659764647483825684e-02) (6, -9.81015935540199279785e-02) (7, -5.80873675644397735596e-02) (8, 8.50120410323143005371e-02) (9, -2.30435356497764587402e-02) (10, -4.23509143292903900146e-02) (11, -8.46950858831405639648e-02) (12, -9.02788043022155761719e-02) (13, -2.44709849357604980469e-02) (14, -3.68345081806182861328e-02) (15, -7.25416913628578186035e-02) (16, -9.53737869858741760254e-02) (17, -4.22583520412445068359e-02) (18, -6.09240271151065826416e-02) (19, -8.22635069489479064941e-02) (20, 9.66630205512046813965e-02) (21, -5.59571161866188049316e-02) (22, 7.25787356495857238770e-02) (23, 4.22881022095680236816e-02) (24, -3.55464518070220947266e-02) (25, -6.51336610317230224609e-02) (26, 8.96020978689193725586e-03) (27, -4.16124165058135986328e-02) (15, -6.83494359254837036133e-02) (16, 2.67187431454658508301e-02) (17, 1.46090835332870483398e-02) (18, -7.76278972625732421875e-02) (19, -3.58347371220588684082e-02) (20, -4.65655326843261718750e-02) (21, -7.32969492673873901367e-02) (22, -7.18130916357040405273e-02) (23, 3.12684848904609680176e-02) (24, -7.13985413312911987305e-02) (25, -2.99004614353179931641e-02) (26, 1.62805318832397460938e-02) (27, 5.55791705846786499023e-03) (15, 2.77486369013786315918e-02) (16, 3.15854474902153015137e-02) (17, 1.52791142463684082031e-02) (18, -9.67223644256591796875e-02) (19, 9.47509333491325378418e-02) (20, 4.27374318242073059082e-02) (21, -9.20961424708366394043e-02) (22, -4.75074164569377899170e-02) (23, 8.18134024739265441895e-02) (24, -7.43596553802490234375e-02) (25, -5.08443973958492279053e-02) (26, -7.41437152028083801270e-02) (27, 9.82191041111946105957e-02) (15, 9.14437100291252136230e-02) (16, -9.69016551971435546875e-03) (17, -6.69145658612251281738e-02) (18, 4.03918325901031494141e-04) (19, 4.86974194645881652832e-02) (20, -3.52640002965927124023e-02) (21, -7.28773400187492370605e-02) (22, -3.66934910416603088379e-02) (23, -1.28918960690498352051e-02) (24, -8.71206820011138916016e-03) (25, 1.67409777641296386719e-02) (26, 1.38111561536788940430e-02) (27, 1.94748416543006896973e-02) (15, -5.19905276596546173096e-02) (16, 4.24126163125038146973e-02) (17, 8.95743742585182189941e-02) (18, 6.42899945378303527832e-02) (19, -5.20294643938541412354e-02) (20, 1.73230022192001342773e-02) (21, -4.12455201148986816406e-03) (22, 6.32496550679206848145e-02) (23, 2.06006392836570739746e-02) (24, -9.37362015247344970703e-03) (25, 5.98708540201187133789e-03) (26, 2.85044983029365539551e-02) (27, 4.31189611554145812988e-02) (15, -1.21995136141777038574e-02) (16, 5.41448518633842468262e-02) (17, 9.22745689749717712402e-02) (18, 1.36567726731300354004e-02) (19, 5.23639395833015441895e-02) (20, 8.37182775139808654785e-02) (21, -9.60333943367004394531e-02) (22, 8.54493901133537292480e-02) (23, -1.58778056502342224121e-02) (24, 5.26640340685844421387e-02) (25, -4.98146191239356994629e-02) (26, 1.12448558211326599121e-02) (27, -8.40294584631919860840e-02) (15, 3.72935011982917785645e-02) (16, -9.74672213196754455566e-02) (17, 3.27115282416343688965e-02) (18, -4.88953553140163421631e-02) (19, 2.20076218247413635254e-02) (20, 8.07209983468055725098e-02) (21, 9.35172662138938903809e-02) (22, 1.15819945931434631348e-02) (23, 4.50109913945198059082e-02) (24, -5.85122033953666687012e-02) (25, -7.10950046777725219727e-02) (26, -5.91135583817958831787e-02) (27, -9.52625498175621032715e-02) (15, 4.95056435465812683105e-02) (16, 3.15128192305564880371e-02) (17, 1.07245296239852905273e-02) (18, -2.19898521900177001953e-02) (19, -2.53682136535644531250e-02) (20, 9.85250249505043029785e-02) (21, -6.78450018167495727539e-02) (22, -3.30936461687088012695e-02) (23, 1.21817961335182189941e-02) (24, 8.45189467072486877441e-02) (25, -4.93753738701343536377e-02) (26, 1.61484032869338989258e-02) (27, 6.99683204293251037598e-02) (15, 3.47468331456184387207e-02) (16, -3.11875641345977783203e-02) (17, -7.98462927341461181641e-02) (18, -5.40083274245262145996e-02) (19, -1.52170211076736450195e-02) (20, 5.74472025036811828613e-02) (21, -5.14755472540855407715e-02) (22, -8.25054943561553955078e-02) (23, -9.14481580257415771484e-02) (24, 7.05320760607719421387e-02) (25, 9.82155129313468933105e-02) (26, -9.79308933019638061523e-02) (27, -1.78859382867813110352e-02) (15, 4.32265028357505798340e-02) (16, -5.64430914819240570068e-02) (17, 1.10190659761428833008e-02) (18, 8.41129496693611145020e-02) (19, -5.17056398093700408936e-02) (20, -3.94752994179725646973e-02) (21, 1.56257748603820800781e-02) (22, 5.90189024806022644043e-02) (23, 3.85348573327064514160e-02) (24, 9.02575626969337463379e-02) (25, 5.75439259409904479980e-02) (26, 7.06898495554924011230e-02) (27, -4.28360886871814727783e-02) (15, -3.02742868661880493164e-02) (16, 5.52087947726249694824e-02) (17, 7.78853893280029296875e-03) (18, 8.58741328120231628418e-02) (19, 2.51771286129951477051e-02) (20, -5.74646405875682830811e-02) (21, -4.53134365379810333252e-02) (22, 4.53308299183845520020e-02) (23, -1.14729627966880798340e-02) (24, 3.94695475697517395020e-02) (25, 2.77801603078842163086e-03) (26, 3.70514914393424987793e-02) (27, 5.69640472531318664551e-02) (28, 1.13298669457435607910e-02) (29, 7.58355855941772460938e-03) (30, 5.51795586943626403809e-02) (31, 1.33989676833152770996e-02) (32, 8.96976217627525329590e-02) (33, -1.59393250942230224609e-03) (34, 5.69558814167976379395e-02) (35, 7.16686248779296875000e-04) (36, -1.74809843301773071289e-02) (37, -9.47497561573982238770e-02) (38, 6.12413957715034484863e-02) (39, 9.81447920203208923340e-02) (28, 6.42691478133201599121e-02) (29, -2.23755836486816406250e-04) (30, 8.84023383259773254395e-02) (31, 2.18130722641944885254e-02) (32, -2.95339077711105346680e-02) (33, -5.44337406754493713379e-02) (34, 9.15387943387031555176e-02) (35, -7.43251144886016845703e-02) (36, 5.33548071980476379395e-02) (37, 7.74129107594490051270e-02) (38, 5.08520081639289855957e-02) (39, 9.58901718258857727051e-02) (28, -6.79005309939384460449e-02) (29, -3.81717830896377563477e-03) (30, -1.55828073620796203613e-02) (31, 7.15690180659294128418e-02) (32, 9.89608392119407653809e-02) (33, -7.85313174128532409668e-02) (34, 2.85330787301063537598e-02) (35, 1.02907046675682067871e-02) (36, 2.90522500872611999512e-02) (37, -1.62873640656471252441e-02) (38, -7.63103142380714416504e-02) (39, 1.87498703598976135254e-02) (28, 8.21186974644660949707e-02) (29, 8.06455686688423156738e-02) (30, -8.05334374308586120605e-02) (31, -3.53622809052467346191e-02) (32, 8.58958140015602111816e-02) (33, 8.07079598307609558105e-02) (34, -3.72174903750419616699e-02) (35, 5.01649603247642517090e-02) (36, -1.95157974958419799805e-02) (37, -4.88151423633098602295e-02) (38, -2.80219763517379760742e-02) (39, 5.09502962231636047363e-02) (28, -3.24888527393341064453e-03) (29, -3.64831909537315368652e-02) (30, 7.66251757740974426270e-02) (31, -4.98940832912921905518e-02) (32, -5.90702854096889495850e-02) (33, 2.74771675467491149902e-02) (34, -5.40039241313934326172e-02) (35, -2.69708186388015747070e-02) (36, -7.63400048017501831055e-02) (37, 3.04132774472236633301e-02) (38, -5.54017946124076843262e-02) (39, -7.73791596293449401855e-02) (28, 5.18819615244865417480e-02) (29, 7.31312707066535949707e-02) (30, 3.29115465283393859863e-02) (31, -1.90658047795295715332e-02) (32, -4.31560836732387542725e-02) (33, 5.66012337803840637207e-02) (34, 9.96840670704841613770e-02) (35, -6.10373802483081817627e-02) (36, 3.72468158602714538574e-02) (37, -8.08493643999099731445e-02) (38, 3.60033661127090454102e-03) (39, 2.31426209211349487305e-02) (28, 9.98585894703865051270e-02) (29, 6.63828477263450622559e-02) (30, -2.66924276947975158691e-02) (31, -1.96572095155715942383e-02) (32, -8.24322998523712158203e-02) (33, 4.52855899930000305176e-02) (34, -6.87069147825241088867e-02) (35, 1.43188089132308959961e-02) (36, -9.11975950002670288086e-02) (37, -9.20817404985427856445e-02) (38, 6.44247308373451232910e-02) (39, -5.02678826451301574707e-02) (28, 3.53954359889030456543e-02) (29, -8.95791947841644287109e-02) (30, 2.27613076567649841309e-02) (31, 5.90554401278495788574e-02) (32, 4.08340767025947570801e-02) (33, 6.73595145344734191895e-02) (34, 8.16762670874595642090e-02) (35, -7.28397071361541748047e-03) (36, 4.04907986521720886230e-02) (37, 1.45878195762634277344e-02) (38, 7.36502334475517272949e-02) (39, 9.73347052931785583496e-02) (28, -2.88109332323074340820e-02) (29, 7.33342990279197692871e-02) (30, -6.37026727199554443359e-02) (31, -9.15641337633132934570e-02) (32, 9.24849286675453186035e-02) (33, 3.98976728320121765137e-02) (34, 3.15784886479377746582e-02) (35, 9.23435166478157043457e-02) (36, 6.28051906824111938477e-03) (37, -9.51139405369758605957e-02) (38, -2.73136943578720092773e-02) (39, 2.38482132554054260254e-02) (28, 5.01716658473014831543e-02) (29, 3.97939980030059814453e-03) (30, -6.18329718708992004395e-02) (31, 5.89740648865699768066e-02) (32, 1.18976458907127380371e-02) (33, -9.74082425236701965332e-02) (34, -9.12938117980957031250e-02) (35, -5.27069158852100372314e-02) (36, -8.69874432682991027832e-02) (37, 3.14675047993659973145e-02) (38, -9.36514809727668762207e-02) (39, 5.38466349244117736816e-02) 
