FANN_FLO_2.1
num_layers=4
learning_rate=0.700000
connection_rate=1.000000
network_type=0
learning_momentum=0.000000
training_algorithm=2
train_error_function=1
train_stop_function=0
cascade_output_change_fraction=0.010000
quickprop_decay=-0.000100
quickprop_mu=1.750000
rprop_increase_factor=1.200000
rprop_decrease_factor=0.500000
rprop_delta_min=0.000000
rprop_delta_max=50.000000
rprop_delta_zero=0.100000
cascade_output_stagnation_epochs=12
cascade_candidate_change_fraction=0.010000
cascade_candidate_stagnation_epochs=12
cascade_max_out_epochs=150
cascade_min_out_epochs=50
cascade_max_cand_epochs=150
cascade_min_cand_epochs=50
cascade_num_candidate_groups=2
bit_fail_limit=3.49999994039535522461e-01
cascade_candidate_limit=1.00000000000000000000e+03
cascade_weight_multiplier=4.00000005960464477539e-01
cascade_activation_functions_count=10
cascade_activation_functions=3 5 7 8 10 11 14 15 16 17 
cascade_activation_steepnesses_count=4
cascade_activation_steepnesses=2.50000000000000000000e-01 5.00000000000000000000e-01 7.50000000000000000000e-01 1.00000000000000000000e+00 
layer_sizes=15 13 12 11 
scale_included=0
neurons (num_inputs, activation_function, activation_steepness)=(0, 0, 0.00000000000000000000e+00) (0, 0, 0.00000000000000000000e+00) (0, 0, 0.00000000000000000000e+00) (0, 0, 0.00000000000000000000e+00) (0, 0, 0.00000000000000000000e+00) (0, 0, 0.00000000000000000000e+00) (0, 0, 0.00000000000000000000e+00) (0, 0, 0.00000000000000000000e+00) (0, 0, 0.00000000000000000000e+00) (0, 0, 0.00000000000000000000e+00) (0, 0, 0.00000000000000000000e+00) (0, 0, 0.00000000000000000000e+00) (0, 0, 0.00000000000000000000e+00) (0, 0, 0.00000000000000000000e+00) (0, 0, 0.00000000000000000000e+00) (15, 5, 5.00000000000000000000e-01) (15, 5, 5.00000000000000000000e-01) (15, 5, 5.00000000000000000000e-01) (15, 5, 5.00000000000000000000e-01) (15, 5, 5.00000000000000000000e-01) (15, 5, 5.00000000000000000000e-01) (15, 5, 5.00000000000000000000e-01) (15, 5, 5.00000000000000000000e-01) (15, 5, 5.00000000000000000000e-01) (15, 5, 5.00000000000000000000e-01) (15, 5, 5.00000000000000000000e-01) (15, 5, 5.00000000000000000000e-01) (0, 5, 0.00000000000000000000e+00) (13, 5, 5.00000000000000000000e-01) (13, 5, 5.00000000000000000000e-01) (13, 5, 5.00000000000000000000e-01) (13, 5, 5.00000000000000000000e-01) (13, 5, 5.00000000000000000000e-01) (13, 5, 5.00000000000000000000e-01) (13, 5, 5.00000000000000000000e-01) (13, 5, 5.00000000000000000000e-01) (13, 5, 5.00000000000000000000e-01) (13, 5, 5.00000000000000000000e-01) (13, 5, 5.00000000000000000000e-01) (0, 5, 0.00000000000000000000e+00) (12, 5, 5.00000000000000000000e-01) (12, 5, 5.00000000000000000000e-01) (12, 5, 5.00000000000000000000e-01) (12, 5, 5.00000000000000000000e-01) (12, 5, 5.00000000000000000000e-01) (12, 5, 5.00000000000000000000e-01) (12, 5, 5.00000000000000000000e-01) (12, 5, 5.00000000000000000000e-01) (12, 5, 5.00000000000000000000e-01) (12, 5, 5.00000000000000000000e-01) (0, 5, 0.00000000000000000000e+00) 
connections (connected_to_neuron, weight)=(0, -1.95579230785369873047e-03) (1, -8.73466581106185913086e-02) (2, -6.70281350612640380859e-02) (3, 1.22704878449440002441e-02) (4, -3.78267727792263031006e-02) (5, 9.65118482708930969238e-02) (6, -5.76301477849483489990e-02) (7, -5.38981966674327850342e-02) (8, 3.30941379070281982422e-03) (9, 8.02057459950447082520e-02) (10, -1.72914043068885803223e-02) (11, 8.16998854279518127441e-02) (12, -4.55101728439331054688e-02) (13, 4.86174896359443664551e-02) (14, 8.99868533015251159668e-02) (0, 8.64203646779060363770e-02) (1, -2.83852964639663696289e-03) (2, -2.63298228383064270020e-02) (3, -9.42932069301605224609e-03) (4, -1.18438154458999633789e-02) (5, 9.26809385418891906738e-02) (6, 5.13967350125312805176e-02) (7, 2.85061672329902648926e-02) (8, -9.05206054449081420898e-02) (9, 4.35945615172386169434e-02) (10, 7.22604170441627502441e-02) (11, 1.91413387656211853027e-02) (12, 4.83835414052009582520e-02) (13, -7.07846730947494506836e-02) (14, -8.21092948317527770996e-02) (0, -7.56205171346664428711e-02) (1, 2.72595360875129699707e-02) (2, -6.94559440016746520996e-02) (3, -4.26486618816852569580e-02) (4, -6.04699850082397460938e-02) (5, -7.28271901607513427734e-03) (6, -4.61368151009082794189e-02) (7, -1.81001275777816772461e-02) (8, 3.88190820813179016113e-02) (9, 5.71726039052009582520e-02) (10, -3.78943942487239837646e-02) (11, -7.84723237156867980957e-02) (12, 3.88724878430366516113e-02) (13, 1.65954381227493286133e-02) (14, 7.01451823115348815918e-02) (0, 2.88593247532844543457e-02) (1, 3.01579385995864868164e-03) (2, -3.26933488249778747559e-02) (3, -9.74704995751380920410e-02) (4, 9.35864672064781188965e-02) (5, 5.54628446698188781738e-02) (6, 9.52104404568672180176e-02) (7, 4.49832156300544738770e-02) (8, -1.60309970378875732422e-02) (9, -9.53101664781570434570e-02) (10, -1.14222243428230285645e-02) (11, -4.37705889344215393066e-02) (12, 2.38311737775802612305e-02) (13, -6.30386918783187866211e-02) (14, -1.45552605390548706055e-02) (0, 4.17218878865242004395e-02) (1, -3.86592149734497070312e-02) (2, -8.72957333922386169434e-02) (3, 7.22659453749656677246e-02) (4, 1.86921209096908569336e-02) (5, -4.77657131850719451904e-02) (6, -3.50167751312255859375e-02) (7, 7.25553110241889953613e-02) (8, 3.41341570019721984863e-02) (9, -9.61976945400238037109e-02) (10, 2.97279134392738342285e-02) (11, 9.62397530674934387207e-02) (12, -7.46700167655944824219e-02) (13, -3.13996151089668273926e-02) (14, 1.28351897001266479492e-02) (0, 9.54751595854759216309e-02) (1, 9.74597111344337463379e-02) (2, -8.41490104794502258301e-02) (3, -3.72181981801986694336e-02) (4, 9.99892279505729675293e-02) (5, -9.05625373125076293945e-02) (6, -8.17553624510765075684e-02) (7, 9.51996520161628723145e-02) (8, 5.44206723570823669434e-02) (9, 2.21364200115203857422e-03) (10, 9.98894944787025451660e-02) (11, -5.70015572011470794678e-02) (12, 5.84430620074272155762e-02) (13, 2.37206667661666870117e-02) (14, -2.00402513146400451660e-02) (0, -5.61122074723243713379e-02) (1, -3.45574393868446350098e-02) (2, 4.13005426526069641113e-02) (3, -4.34079356491565704346e-02) (4, -6.22914955019950866699e-02) (5, -4.00073416531085968018e-02) (6, 8.82635265588760375977e-03) (7, 2.69172340631484985352e-03) (8, -6.74520283937454223633e-02) (9, -5.70394955575466156006e-02) (10, 6.49403035640716552734e-03) (11, 6.22758790850639343262e-02) (12, -6.07997365295886993408e-02) (13, 3.18240150809288024902e-02) (14, -6.91237300634384155273e-02) (0, 5.20354583859443664551e-02) (1, 2.72991731762886047363e-02) (2, -7.16640204191207885742e-02) (3, 6.78864493966102600098e-02) (4, 9.00809839367866516113e-02) (5, -7.16748014092445373535e-02) (6, 7.73239210247993469238e-02) (7, -9.16743874549865722656e-02) (8, -7.64751508831977844238e-02) (9, 3.17445769906044006348e-02) (10, 1.05392560362815856934e-02) (11, -7.65856578946113586426e-02) (12, 7.47430250048637390137e-02) (13, -3.10176908969879150391e-02) (14, 4.71350178122520446777e-02) (0, -4.52972240746021270752e-02) (1, 1.28701105713844299316e-02) (2, -8.74224230647087097168e-02) (3, 9.60033014416694641113e-02) (4, 6.94621726870536804199e-02) (5, -4.97139170765876770020e-02) (6, -4.40040305256843566895e-02) (7, -2.17114835977554321289e-02) (8, 5.29778078198432922363e-02) (9, -1.14560574293136596680e-02) (10, 2.12490186095237731934e-02) (11, -4.05281558632850646973e-02) (12, -4.91801761090755462646e-02) (13, 6.04492947459220886230e-02) (14, 9.12958607077598571777e-02) (0, -1.83039158582687377930e-02) (1, 1.24847441911697387695e-02) (2, 1.85950249433517456055e-02) (3, 1.00320726633071899414e-02) (4, -1.96288079023361206055e-02) (5, 8.67600739002227783203e-03) (6, 3.83572652935981750488e-02) (7, -4.23048995435237884521e-02) (8, 1.70016139745712280273e-02) (9, 6.18821159005165100098e-02) (10, 8.94396826624870300293e-02) (11, -7.24591314792633056641e-02) (12, 8.52964594960212707520e-02) (13, 6.41827061772346496582e-02) (14, -3.47682088613510131836e-03) (0, 3.24314907193183898926e-02) (1, -8.11145156621932983398e-02) (2, -9.06067192554473876953e-02) (3, 4.50090691447257995605e-02) (4, -8.51112082600593566895e-02) (5, 7.88554474711418151855e-02) (6, 9.52951386570930480957e-02) (7, -2.91152372956275939941e-02) (8, -4.28560338914394378662e-02) (9, 4.82729598879814147949e-02) (10, 5.94286993145942687988e-02) (11, 7.83929899334907531738e-02) (12, -9.22552049160003662109e-02) (13, -8.97514671087265014648e-02) (14, 3.88422682881355285645e-02) (0, 9.90406647324562072754e-02) (1, -8.05537402629852294922e-03) (2, -4.86729815602302551270e-02) (3, 1.76356881856918334961e-02) (4, -9.80233103036880493164e-02) (5, 3.16982194781303405762e-02) (6, -7.36883133649826049805e-02) (7, 4.03339490294456481934e-02) (8, 8.93933251500129699707e-02) (9, 4.33133020997047424316e-02) (10, 2.21606343984603881836e-03) (11, 7.88329914212226867676e-02) (12, 7.08541795611381530762e-02) (13, -1.24874711036682128906e-02) (14, 4.30156961083412170410e-02) (15, -3.26226502656936645508e-02) (16, -8.00559967756271362305e-02) (17, 6.19011744856834411621e-02) (18, -2.32293680310249328613e-02) (19, 6.49530664086341857910e-02) (20, 7.67899826169013977051e-02) (21, -4.43739183247089385986e-02) (22, 6.02482035756111145020e-02) (23, -5.23252598941326141357e-02) (24, 1.27700418233871459961e-02) (25, 8.52116197347640991211e-03) (26, -9.28965508937835693359e-02) (27, -8.83696973323822021484e-03) (15, 1.62659659981727600098e-02) (16, -8.26480239629745483398e-02) (17, -6.99946954846382141113e-02) (18, 1.53066143393516540527e-02) (19, 9.29659605026245117188e-03) (20, -1.86676755547523498535e-02) (21, -6.70576989650726318359e-02) (22, 1.12732872366905212402e-02) (23, -8.69694650173187255859e-02) (24, -4.07460033893585205078e-02) (25, -4.83927614986896514893e-02) (26, -9.75761562585830688477e-02) (27, -9.74327027797698974609e-02) (15, 5.38232997059822082520e-02) (16, 8.12568441033363342285e-02) (17, 7.34214857220649719238e-02) (18, -5.86641691625118255615e-02) (19, 2.42725387215614318848e-02) (20, -5.92011772096157073975e-02) (21, -3.87201607227325439453e-02) (22, -1.38262733817100524902e-02) (23, 1.75694599747657775879e-02) (24, -7.37670958042144775391e-02) (25, -3.70363071560859680176e-02) (26, 7.31955394148826599121e-02) (27, 8.64811018109321594238e-02) (15, 1.06384381651878356934e-02) (16, -1.40344202518463134766e-02) (17, -4.99773025512695312500e-03) (18, 1.77418813109397888184e-02) (19, 7.71286115050315856934e-02) (20, -8.87317657470703125000e-02) (21, 3.50938513875007629395e-02) (22, -9.28660780191421508789e-02) (23, 2.65748575329780578613e-02) (24, -5.56095391511917114258e-02) (25, -1.15337520837783813477e-02) (26, 5.95171526074409484863e-02) (27, 5.56637570261955261230e-02) (15, 1.49677693843841552734e-03) (16, -8.12288448214530944824e-02) (17, -9.27290171384811401367e-02) (18, 3.92062962055206298828e-03) (19, -7.86615461111068725586e-02) (20, 6.10942915081977844238e-02) (21, -1.48225277662277221680e-02) (22, 9.47599336504936218262e-02) (23, -9.75698754191398620605e-02) (24, -9.05499905347824096680e-02) (25, -6.44412487745285034180e-02) (26, -3.62900346517562866211e-02) (27, -4.37626242637634277344e-03) (15, 5.31282052397727966309e-02) (16, -1.00571364164352416992e-02) (17, 5.85874393582344055176e-02) (18, 2.63237431645393371582e-02) (19, -2.35760286450386047363e-02) (20, -3.07741314172744750977e-02) (21, -8.77106785774230957031e-02) (22, 7.14262500405311584473e-02) (23, 8.69677439332008361816e-02) (24, 8.94179418683052062988e-02) (25, 8.26944783329963684082e-02) (26, 2.20616087317466735840e-02) (27, 9.65518578886985778809e-02) (15, 9.26933437585830688477e-03) (16, 6.64520636200904846191e-02) (17, -1.49818956851959228516e-02) (18, -3.12135070562362670898e-02) (19, 2.21158117055892944336e-02) (20, 8.65148976445198059082e-02) (21, -1.24423503875732421875e-02) (22, 2.93868109583854675293e-02) (23, -9.56448167562484741211e-03) (24, 8.89609754085540771484e-03) (25, -9.51890647411346435547e-03) (26, 7.56129845976829528809e-02) (27, 3.65602970123291015625e-03) (15, -7.08877295255661010742e-03) (16, 8.50630030035972595215e-02) (17, 3.92147824168205261230e-02) (18, 5.66212013363838195801e-02) (19, -1.93132609128952026367e-02) (20, -7.65700638294219970703e-03) (21, -5.34359477460384368896e-02) (22, -6.07258342206478118896e-02) (23, -8.13332647085189819336e-02) (24, 2.29880213737487792969e-02) (25, 8.50003957748413085938e-03) (26, -6.90439417958259582520e-02) (27, -5.58573007583618164062e-03) (15, -4.53221797943115234375e-03) (16, -7.96260088682174682617e-02) (17, -2.28912532329559326172e-02) (18, -8.24706107378005981445e-02) (19, -8.30741450190544128418e-02) (20, 8.63780751824378967285e-02) (21, 8.39814618229866027832e-02) (22, 1.94396078586578369141e-03) (23, -4.48354296386241912842e-02) (24, 6.09727203845977783203e-03) (25, -1.15411505103111267090e-02) (26, 4.27222177386283874512e-02) (27, -6.45159333944320678711e-02) (15, 7.88943693041801452637e-02) (16, -4.83816824853420257568e-02) (17, 2.59651616215705871582e-02) (18, 5.45073524117469787598e-02) (19, 5.52743449807167053223e-02) (20, -8.11236128211021423340e-02) (21, 3.95703539252281188965e-02) (22, -5.51086664199829101562e-03) (23, 7.54975751042366027832e-02) (24, -7.97429084777832031250e-02) (25, 8.68321135640144348145e-02) (26, -7.79383704066276550293e-02) (27, -4.04687486588954925537e-02) (15, -9.45011451840400695801e-02) (16, 4.50496599078178405762e-02) (17, 6.80312886834144592285e-02) (18, -6.35450929403305053711e-02) (19, -6.05360753834247589111e-02) (20, -3.65009307861328125000e-02) (21, -4.31710965931415557861e-02) (22, 1.65726765990257263184e-02) (23, -1.89715474843978881836e-02) (24, -2.62452438473701477051e-02) (25, 2.95075029134750366211e-03) (26, -3.49900871515274047852e-02) (27, 7.56987258791923522949e-02) (28, 5.81153109669685363770e-02) (29, 7.11071714758872985840e-02) (30, -3.58424335718154907227e-02) (31, 8.37527215480804443359e-04) (32, -9.34087559580802917480e-02) (33, -5.69480657577514648438e-02) (34, 5.24558499455451965332e-02) (35, 3.25564220547676086426e-02) (36, 9.75592806935310363770e-02) (37, 7.73020088672637939453e-03) (38, 5.14327958226203918457e-02) (39, 3.71296480298042297363e-02) (28, -9.77806672453880310059e-02) (29, 2.69303843379020690918e-02) (30, 5.73867335915565490723e-02) (31, 8.90514478087425231934e-02) (32, 4.89920005202293395996e-02) (33, -8.30820202827453613281e-02) (34, 9.45503190159797668457e-02) (35, -5.95833361148834228516e-03) (36, 8.49492773413658142090e-02) (37, -6.89947754144668579102e-02) (38, 3.35055813193321228027e-02) (39, -5.15516549348831176758e-02) (28, -1.21658742427825927734e-02) (29, -4.99217398464679718018e-02) (30, 2.94768139719963073730e-02) (31, 6.15888908505439758301e-02) (32, 5.30290082097053527832e-02) (33, 9.44867208600044250488e-02) (34, 3.72876003384590148926e-02) (35, 1.11443251371383666992e-02) (36, 6.55939057469367980957e-02) (37, -9.85548198223114013672e-02) (38, -8.80181416869163513184e-02) (39, 7.21851512789726257324e-02) (28, -5.55028878152370452881e-02) (29, 6.44377097487449645996e-02) (30, 4.74154949188232421875e-03) (31, -5.79436011612415313721e-02) (32, -2.78320908546447753906e-02) (33, -4.38256449997425079346e-02) (34, 7.91860297322273254395e-02) (35, -2.56127566099166870117e-02) (36, 8.31047371029853820801e-02) (37, 3.65727618336677551270e-02) (38, -3.65613028407096862793e-02) (39, 3.20967361330986022949e-02) (28, 5.34907504916191101074e-02) (29, -4.20109927654266357422e-02) (30, -7.38615989685058593750e-02) (31, 3.84400263428688049316e-02) (32, -1.10057741403579711914e-02) (33, 5.96439912915229797363e-02) (34, 8.68883803486824035645e-02) (35, 7.68283680081367492676e-02) (36, -9.02777537703514099121e-02) (37, 1.63651704788208007812e-02) (38, 3.84172424674034118652e-02) (39, 6.27512559294700622559e-02) (28, 1.08518972992897033691e-02) (29, -2.42951437830924987793e-02) (30, -2.61044129729270935059e-02) (31, -2.35542133450508117676e-02) (32, -2.28499621152877807617e-02) (33, -1.41225531697273254395e-02) (34, -5.13690710067749023438e-02) (35, 2.16471403837203979492e-02) (36, -4.96848411858081817627e-02) (37, 5.33724799752235412598e-02) (38, 6.37035444378852844238e-02) (39, 2.24830731749534606934e-02) (28, -9.04531702399253845215e-02) (29, 4.28895875811576843262e-02) (30, 9.68703106045722961426e-02) (31, 9.26515534520149230957e-02) (32, -2.05376446247100830078e-02) (33, -3.96909900009632110596e-02) (34, 2.47483029961585998535e-02) (35, -6.70468956232070922852e-02) (36, 1.82980149984359741211e-02) (37, 5.08866980671882629395e-02) (38, 7.13931396603584289551e-02) (39, -9.27077531814575195312e-02) (28, 1.05306878685951232910e-02) (29, 5.82815036177635192871e-02) (30, 8.41206088662147521973e-02) (31, 2.02529281377792358398e-02) (32, -2.53533199429512023926e-02) (33, 2.25378498435020446777e-02) (34, -1.69958099722862243652e-02) (35, 8.54985788464546203613e-02) (36, 9.82427075505256652832e-02) (37, 5.68997785449028015137e-02) (38, -3.80556397140026092529e-02) (39, -2.46072635054588317871e-02) (28, -5.72227798402309417725e-02) (29, 1.05752795934677124023e-02) (30, 9.70398858189582824707e-02) (31, -6.90761953592300415039e-03) (32, -3.60522344708442687988e-02) (33, 6.07434287667274475098e-02) (34, -8.44245478510856628418e-02) (35, -2.65053957700729370117e-02) (36, 3.63300740718841552734e-03) (37, -8.75542387366294860840e-02) (38, -3.38538363575935363770e-02) (39, 8.30953791737556457520e-02) (28, -2.72452235221862792969e-02) (29, 9.08944681286811828613e-02) (30, -8.39515253901481628418e-02) (31, 9.10527929663658142090e-02) (32, 4.17811647057533264160e-02) (33, 8.74416157603263854980e-02) (34, 9.83450487256050109863e-02) (35, -4.76881563663482666016e-02) (36, 4.57231178879737854004e-02) (37, 8.24656561017036437988e-02) (38, 7.25647881627082824707e-02) (39, -7.96302109956741333008e-02) 
