FANN_FLO_2.1
num_layers=4
learning_rate=0.700000
connection_rate=1.000000
network_type=0
learning_momentum=0.000000
training_algorithm=2
train_error_function=1
train_stop_function=0
cascade_output_change_fraction=0.010000
quickprop_decay=-0.000100
quickprop_mu=1.750000
rprop_increase_factor=1.200000
rprop_decrease_factor=0.500000
rprop_delta_min=0.000000
rprop_delta_max=50.000000
rprop_delta_zero=0.100000
cascade_output_stagnation_epochs=12
cascade_candidate_change_fraction=0.010000
cascade_candidate_stagnation_epochs=12
cascade_max_out_epochs=150
cascade_min_out_epochs=50
cascade_max_cand_epochs=150
cascade_min_cand_epochs=50
cascade_num_candidate_groups=2
bit_fail_limit=3.49999994039535522461e-01
cascade_candidate_limit=1.00000000000000000000e+03
cascade_weight_multiplier=4.00000005960464477539e-01
cascade_activation_functions_count=10
cascade_activation_functions=3 5 7 8 10 11 14 15 16 17 
cascade_activation_steepnesses_count=4
cascade_activation_steepnesses=2.50000000000000000000e-01 5.00000000000000000000e-01 7.50000000000000000000e-01 1.00000000000000000000e+00 
layer_sizes=15 13 12 11 
scale_included=0
neurons (num_inputs, activation_function, activation_steepness)=(0, 0, 0.00000000000000000000e+00) (0, 0, 0.00000000000000000000e+00) (0, 0, 0.00000000000000000000e+00) (0, 0, 0.00000000000000000000e+00) (0, 0, 0.00000000000000000000e+00) (0, 0, 0.00000000000000000000e+00) (0, 0, 0.00000000000000000000e+00) (0, 0, 0.00000000000000000000e+00) (0, 0, 0.00000000000000000000e+00) (0, 0, 0.00000000000000000000e+00) (0, 0, 0.00000000000000000000e+00) (0, 0, 0.00000000000000000000e+00) (0, 0, 0.00000000000000000000e+00) (0, 0, 0.00000000000000000000e+00) (0, 0, 0.00000000000000000000e+00) (15, 5, 5.00000000000000000000e-01) (15, 5, 5.00000000000000000000e-01) (15, 5, 5.00000000000000000000e-01) (15, 5, 5.00000000000000000000e-01) (15, 5, 5.00000000000000000000e-01) (15, 5, 5.00000000000000000000e-01) (15, 5, 5.00000000000000000000e-01) (15, 5, 5.00000000000000000000e-01) (15, 5, 5.00000000000000000000e-01) (15, 5, 5.00000000000000000000e-01) (15, 5, 5.00000000000000000000e-01) (15, 5, 5.00000000000000000000e-01) (0, 5, 0.00000000000000000000e+00) (13, 5, 5.00000000000000000000e-01) (13, 5, 5.00000000000000000000e-01) (13, 5, 5.00000000000000000000e-01) (13, 5, 5.00000000000000000000e-01) (13, 5, 5.00000000000000000000e-01) (13, 5, 5.00000000000000000000e-01) (13, 5, 5.00000000000000000000e-01) (13, 5, 5.00000000000000000000e-01) (13, 5, 5.00000000000000000000e-01) (13, 5, 5.00000000000000000000e-01) (13, 5, 5.00000000000000000000e-01) (0, 5, 0.00000000000000000000e+00) (12, 5, 5.00000000000000000000e-01) (12, 5, 5.00000000000000000000e-01) (12, 5, 5.00000000000000000000e-01) (12, 5, 5.00000000000000000000e-01) (12, 5, 5.00000000000000000000e-01) (12, 5, 5.00000000000000000000e-01) (12, 5, 5.00000000000000000000e-01) (12, 5, 5.00000000000000000000e-01) (12, 5, 5.00000000000000000000e-01) (12, 5, 5.00000000000000000000e-01) (0, 5, 0.00000000000000000000e+00) 
connections (connected_to_neuron, weight)=(0, -6.14896006882190704346e-02) (1, 6.93888142704963684082e-02) (2, -6.43495246767997741699e-02) (3, -4.91728968918323516846e-02) (4, 7.68692567944526672363e-02) (5, 6.50898367166519165039e-03) (6, -1.62719041109085083008e-02) (7, -9.48747098445892333984e-02) (8, 1.92277207970619201660e-02) (9, -5.79788051545619964600e-02) (10, -7.81830400228500366211e-02) (11, 3.74414548277854919434e-02) (12, -2.11436972022056579590e-02) (13, 6.88569918274879455566e-02) (14, -8.44657197594642639160e-02) (0, -7.00423642992973327637e-02) (1, -8.91868025064468383789e-03) (2, 4.84377071261405944824e-02) (3, -8.55579599738121032715e-02) (4, 9.44535359740257263184e-02) (5, -7.68510624766349792480e-02) (6, 6.16182759404182434082e-02) (7, 8.63207057118415832520e-02) (8, -2.90947034955024719238e-02) (9, -6.38739466667175292969e-02) (10, -6.74516558647155761719e-02) (11, 4.84629943966865539551e-02) (12, 5.93561157584190368652e-02) (13, -7.33134895563125610352e-02) (14, -3.85585986077785491943e-02) (0, 8.47588852047920227051e-02) (1, -3.48030850291252136230e-02) (2, -6.91697895526885986328e-02) (3, -7.95906335115432739258e-02) (4, 1.60240158438682556152e-02) (5, -9.23005342483520507812e-02) (6, 2.69183591008186340332e-02) (7, 9.97521206736564636230e-02) (8, -8.71752500534057617188e-02) (9, -5.38539290428161621094e-02) (10, -5.82266896963119506836e-02) (11, -6.53582885861396789551e-02) (12, 8.35875347256660461426e-02) (13, 2.06296071410179138184e-02) (14, -9.65012907981872558594e-02) (0, 9.91218164563179016113e-02) (1, 5.05872443318367004395e-02) (2, -5.41996955871582031250e-03) (3, 4.75595071911811828613e-02) (4, 6.50292858481407165527e-02) (5, -1.09664276242256164551e-02) (6, 7.07084611058235168457e-02) (7, 2.66475751996040344238e-02) (8, -2.46457308530807495117e-02) (9, -5.83862513303756713867e-02) (10, 6.27736374735832214355e-02) (11, 7.90260732173919677734e-03) (12, 9.00767520070075988770e-02) (13, 2.21297517418861389160e-02) (14, 3.45891192555427551270e-02) (0, -4.84818480908870697021e-02) (1, 6.88864290714263916016e-03) (2, 9.97860506176948547363e-02) (3, -1.76516324281692504883e-02) (4, 2.72979959845542907715e-02) (5, 1.58100575208663940430e-02) (6, -9.95217263698577880859e-03) (7, -4.57836501300334930420e-02) (8, 1.55621767044067382812e-02) (9, 2.87258625030517578125e-03) (10, 3.62418591976165771484e-04) (11, 5.73354884982109069824e-02) (12, 3.75142917037010192871e-02) (13, -1.60500556230545043945e-02) (14, -2.20348984003067016602e-02) (0, 4.10130098462104797363e-02) (1, -1.69282406568527221680e-02) (2, -7.14476555585861206055e-02) (3, -6.44069612026214599609e-02) (4, -6.93687349557876586914e-02) (5, 9.35816392302513122559e-02) (6, 2.46266126632690429688e-02) (7, -9.86602902412414550781e-02) (8, 2.02292054891586303711e-02) (9, 9.99808833003044128418e-02) (10, -5.70465400815010070801e-02) (11, -1.69971510767936706543e-02) (12, 7.88348913192749023438e-03) (13, -6.69697970151901245117e-02) (14, -9.48674082756042480469e-02) (0, -5.75273782014846801758e-02) (1, -1.54516324400901794434e-02) (2, 1.20212286710739135742e-02) (3, -5.77413365244865417480e-02) (4, 6.68967291712760925293e-02) (5, -6.06807656586170196533e-02) (6, 5.80687299370765686035e-02) (7, -4.30554412305355072021e-02) (8, -6.46440684795379638672e-03) (9, -2.63691022992134094238e-02) (10, 5.98171427845954895020e-02) (11, 9.38980057835578918457e-02) (12, -6.90336152911186218262e-02) (13, -2.66855955123901367188e-03) (14, -2.21520438790321350098e-02) (0, 8.93148034811019897461e-03) (1, -6.16555586457252502441e-02) (2, 6.09197095036506652832e-02) (3, 3.74838188290596008301e-02) (4, -2.60625183582305908203e-02) (5, 9.15509834885597229004e-02) (6, 3.10654714703559875488e-02) (7, 9.85640957951545715332e-02) (8, 9.28906872868537902832e-02) (9, -4.87053208053112030029e-02) (10, 9.85449627041816711426e-02) (11, -6.41558468341827392578e-02) (12, 3.42975333333015441895e-02) (13, 6.42846524715423583984e-03) (14, -3.11256423592567443848e-02) (0, 3.94301190972328186035e-02) (1, 4.89010885357856750488e-02) (2, 5.34227266907691955566e-02) (3, -4.85486499965190887451e-02) (4, 9.11597535014152526855e-02) (5, 2.03194469213485717773e-02) (6, -9.22941416501998901367e-03) (7, 4.92284819483757019043e-02) (8, 7.72640183568000793457e-02) (9, 8.43061879277229309082e-02) (10, -7.71406218409538269043e-02) (11, 3.70811596512794494629e-02) (12, 7.82041773200035095215e-02) (13, -4.61742393672466278076e-02) (14, -6.55874088406562805176e-02) (0, -4.39478568732738494873e-02) (1, 6.27572461962699890137e-02) (2, -2.72429659962654113770e-02) (3, -8.30281525850296020508e-02) (4, 2.41063535213470458984e-04) (5, 4.66945245862007141113e-02) (6, -9.14771705865859985352e-02) (7, -6.86934664845466613770e-02) (8, 4.52586039900779724121e-02) (9, -9.85864847898483276367e-02) (10, -1.73987895250320434570e-02) (11, 4.38035801053047180176e-02) (12, -6.27423375844955444336e-02) (13, -8.31012651324272155762e-02) (14, -4.97679598629474639893e-02) (0, 6.13202899694442749023e-03) (1, 5.63288554549217224121e-02) (2, 9.91331264376640319824e-02) (3, -4.04452495276927947998e-02) (4, -9.22197923064231872559e-02) (5, 9.02928784489631652832e-02) (6, 7.98742100596427917480e-02) (7, -1.44920498132705688477e-03) (8, 3.95213589072227478027e-02) (9, 5.71382120251655578613e-02) (10, -1.71430259943008422852e-02) (11, 6.23807385563850402832e-02) (12, -5.78062236309051513672e-03) (13, -3.89388464391231536865e-02) (14, -8.37935060262680053711e-02) (0, 2.86319777369499206543e-02) (1, 1.71132907271385192871e-02) (2, 7.89637491106986999512e-02) (3, -9.86109972000122070312e-02) (4, 3.40851619839668273926e-02) (5, -2.07951888442039489746e-02) (6, 4.80835214257240295410e-02) (7, 4.26079705357551574707e-02) (8, 1.05113536119461059570e-02) (9, -6.65786862373352050781e-03) (10, 4.40214946866035461426e-02) (11, 9.31125655770301818848e-02) (12, -6.28542900085449218750e-02) (13, 8.12791660428047180176e-02) (14, -8.99887010455131530762e-02) (15, -1.26222521066665649414e-02) (16, -1.25888139009475708008e-02) (17, 6.63401558995246887207e-02) (18, -1.34891271591186523438e-02) (19, 4.69659492373466491699e-02) (20, 7.41203650832176208496e-02) (21, -2.31962427496910095215e-02) (22, 2.68401578068733215332e-02) (23, -2.73288339376449584961e-02) (24, -8.36748927831649780273e-02) (25, -1.60216316580772399902e-02) (26, 5.55281266570091247559e-02) (27, 7.87058547139167785645e-02) (15, 7.81977400183677673340e-02) (16, -8.34107100963592529297e-02) (17, 9.49123427271842956543e-02) (18, 6.82971626520156860352e-03) (19, 3.37025895714759826660e-02) (20, 7.38760754466056823730e-02) (21, 8.21872055530548095703e-03) (22, -3.22122648358345031738e-02) (23, -4.69191148877143859863e-02) (24, -4.36977632343769073486e-02) (25, -8.96042883396148681641e-02) (26, 6.35922327637672424316e-02) (27, 4.96443584561347961426e-02) (15, 5.44172003865242004395e-02) (16, 5.67047968506813049316e-02) (17, 8.67900773882865905762e-02) (18, 3.56963798403739929199e-02) (19, 6.67160823941230773926e-02) (20, -2.58321836590766906738e-02) (21, -7.68924355506896972656e-02) (22, 3.30562517046928405762e-02) (23, 6.06786981225013732910e-02) (24, 7.00735077261924743652e-02) (25, 7.17661529779434204102e-03) (26, -6.25175535678863525391e-02) (27, -3.08634340763092041016e-03) (15, 7.98477753996849060059e-02) (16, -4.61924448609352111816e-02) (17, 8.08920338749885559082e-02) (18, 3.53759005665779113770e-02) (19, -6.74865990877151489258e-02) (20, 5.90897724032402038574e-02) (21, 5.19651994109153747559e-02) (22, -7.25742653012275695801e-02) (23, -3.40805202722549438477e-02) (24, -1.43322199583053588867e-02) (25, -9.86981913447380065918e-02) (26, 7.41382017731666564941e-02) (27, 5.34555241465568542480e-02) (15, -4.56173010170459747314e-02) (16, -6.95595592260360717773e-02) (17, 6.38512447476387023926e-02) (18, -8.20250660181045532227e-02) (19, 8.00848081707954406738e-02) (20, 1.82684436440467834473e-02) (21, 7.46797248721122741699e-02) (22, 6.68748691678047180176e-02) (23, -4.60351817309856414795e-02) (24, 4.13958206772804260254e-02) (25, -5.89573048055171966553e-02) (26, -2.29276195168495178223e-02) (27, -2.55479365587234497070e-02) (15, -9.82786118984222412109e-02) (16, -5.28541170060634613037e-02) (17, 8.16286727786064147949e-02) (18, -6.07961602509021759033e-02) (19, 4.40595373511314392090e-02) (20, 6.14764466881752014160e-02) (21, -6.98859989643096923828e-03) (22, 2.49515622854232788086e-02) (23, -3.14764678478240966797e-03) (24, 2.55248025059700012207e-02) (25, -1.59586668014526367188e-02) (26, -5.11824451386928558350e-02) (27, 5.29505386948585510254e-02) (15, 4.99608144164085388184e-02) (16, 3.44853475689888000488e-02) (17, 5.42523488402366638184e-02) (18, 2.40990146994590759277e-02) (19, -1.20591372251510620117e-02) (20, -9.13649573922157287598e-02) (21, 5.45394495129585266113e-02) (22, -4.82079051434993743896e-02) (23, -7.33900219202041625977e-02) (24, 3.46242561936378479004e-02) (25, 7.00605437159538269043e-02) (26, -9.87103059887886047363e-02) (27, 1.49913877248764038086e-03) (15, -7.59746432304382324219e-02) (16, 4.26855161786079406738e-02) (17, 4.25418391823768615723e-02) (18, 1.09773874282836914062e-03) (19, -8.28624293208122253418e-02) (20, 4.42632213234901428223e-02) (21, 4.82436344027519226074e-02) (22, 9.87662449479103088379e-02) (23, 8.34670737385749816895e-02) (24, -7.69683718681335449219e-03) (25, 6.02427050471305847168e-02) (26, -2.35215350985527038574e-02) (27, -8.27452689409255981445e-02) (15, -4.29049506783485412598e-02) (16, -9.79967415332794189453e-02) (17, 1.29606574773788452148e-03) (18, 5.91261684894561767578e-03) (19, 5.49537912011146545410e-02) (20, -4.87431176006793975830e-02) (21, -5.96020482480525970459e-02) (22, 9.20613855123519897461e-03) (23, 7.53558948636054992676e-02) (24, 2.83388122916221618652e-02) (25, 1.78411826491355895996e-02) (26, 2.98953577876091003418e-02) (27, 8.01309123635292053223e-02) (15, 4.44511547684669494629e-02) (16, -3.54803949594497680664e-02) (17, 5.01914545893669128418e-02) (18, 4.57408502697944641113e-02) (19, 6.60187378525733947754e-02) (20, 7.42168053984642028809e-02) (21, -1.15736275911331176758e-02) (22, 8.56057554483413696289e-03) (23, -2.46854573488235473633e-02) (24, 5.56393712759017944336e-03) (25, -4.71762008965015411377e-02) (26, -7.64418318867683410645e-02) (27, 4.33019548654556274414e-03) (15, -6.37091398239135742188e-02) (16, 1.58613324165344238281e-02) (17, -3.54271158576011657715e-02) (18, 1.27693265676498413086e-02) (19, 3.31160649657249450684e-02) (20, 2.16679349541664123535e-02) (21, 1.47725939750671386719e-02) (22, -6.55878782272338867188e-02) (23, -7.24194496870040893555e-02) (24, -3.02736237645149230957e-02) (25, -1.43309906125068664551e-02) (26, -3.20215076208114624023e-02) (27, 7.89325162768363952637e-02) (28, -3.89750972390174865723e-02) (29, 9.63172987103462219238e-02) (30, -3.22630256414413452148e-03) (31, 9.09202620387077331543e-02) (32, 7.64482095837593078613e-02) (33, -5.87751455605030059814e-02) (34, -4.45601344108581542969e-02) (35, 2.66396626830101013184e-02) (36, 8.69657024741172790527e-02) (37, -7.85413980484008789062e-02) (38, 8.56474041938781738281e-04) (39, -2.46079191565513610840e-02) (28, 3.00191715359687805176e-02) (29, 7.61710181832313537598e-02) (30, 8.09560194611549377441e-02) (31, 8.28429833054542541504e-02) (32, 9.97291877865791320801e-02) (33, -1.47137939929962158203e-02) (34, -8.08661580085754394531e-02) (35, 1.55905261635780334473e-02) (36, 4.98590990900993347168e-02) (37, 3.19031700491905212402e-02) (38, -5.12934178113937377930e-02) (39, -2.84729674458503723145e-02) (28, -5.33242374658584594727e-02) (29, -1.68812870979309082031e-02) (30, -8.92415642738342285156e-04) (31, 1.64021477103233337402e-02) (32, 6.87877163290977478027e-02) (33, 6.70860782265663146973e-02) (34, -4.66533750295639038086e-03) (35, -7.01873749494552612305e-02) (36, 6.34033754467964172363e-02) (37, 9.21083614230155944824e-02) (38, -7.92671144008636474609e-02) (39, 3.98516133427619934082e-02) (28, -6.66667893528938293457e-02) (29, -2.38272547721862792969e-02) (30, -3.35087329149246215820e-02) (31, -7.97010809183120727539e-02) (32, -2.36864387989044189453e-03) (33, 6.73477426171302795410e-02) (34, -4.30899858474731445312e-03) (35, -7.23494663834571838379e-02) (36, 4.35187593102455139160e-02) (37, -2.33529806137084960938e-02) (38, -8.95064845681190490723e-02) (39, 4.32479456067085266113e-02) (28, 6.19332268834114074707e-02) (29, -7.03726410865783691406e-02) (30, -4.11615446209907531738e-02) (31, 1.17923244833946228027e-02) (32, 6.15305379033088684082e-02) (33, 7.54503905773162841797e-03) (34, 8.33193585276603698730e-02) (35, -9.17937010526657104492e-02) (36, 9.06637534499168395996e-02) (37, -1.75730660557746887207e-02) (38, 2.46084481477737426758e-02) (39, 5.94514682888984680176e-02) (28, -5.04869893193244934082e-02) (29, -8.00568982958793640137e-02) (30, 8.92641022801399230957e-02) (31, -8.70836079120635986328e-02) (32, -8.79485383629798889160e-02) (33, -9.00030210614204406738e-02) (34, 5.27679994702339172363e-02) (35, -5.46153262257575988770e-02) (36, -1.38302743434906005859e-02) (37, -8.07407349348068237305e-02) (38, -3.43164056539535522461e-02) (39, 8.38010832667350769043e-02) (28, 8.66070017218589782715e-02) (29, 6.13745972514152526855e-02) (30, -8.85483920574188232422e-02) (31, 3.01257595419883728027e-02) (32, -6.19783811271190643311e-02) (33, -7.80548751354217529297e-02) (34, -2.66263037919998168945e-02) (35, 9.99548509716987609863e-02) (36, -4.84275184571743011475e-02) (37, 3.22121456265449523926e-02) (38, 1.17471665143966674805e-02) (39, -8.68969783186912536621e-02) (28, -6.02428056299686431885e-02) (29, -4.93347644805908203125e-03) (30, -7.86906778812408447266e-02) (31, -6.95790499448776245117e-02) (32, 7.74934515357017517090e-02) (33, 4.59177568554878234863e-02) (34, 8.98724272847175598145e-02) (35, -7.29935318231582641602e-02) (36, 6.58608749508857727051e-02) (37, 7.91365131735801696777e-02) (38, -6.00771382451057434082e-02) (39, 7.79123380780220031738e-02) (28, 8.91335085034370422363e-02) (29, 9.26908627152442932129e-02) (30, -7.67029970884323120117e-02) (31, -2.46967747807502746582e-02) (32, -8.80498737096786499023e-02) (33, -1.10193938016891479492e-02) (34, -4.08956967294216156006e-02) (35, 9.85571220517158508301e-02) (36, -4.96447980403900146484e-02) (37, -2.94440835714340209961e-02) (38, 2.86828950047492980957e-02) (39, -1.16231814026832580566e-02) (28, -7.49896466732025146484e-03) (29, -9.79434177279472351074e-02) (30, -1.16683393716812133789e-02) (31, 4.40735295414924621582e-02) (32, 3.42687442898750305176e-02) (33, -9.99211668968200683594e-02) (34, 5.71765527129173278809e-02) (35, 7.40259364247322082520e-02) (36, -4.85464930534362792969e-03) (37, 7.84858688712120056152e-02) (38, -9.55531224608421325684e-02) (39, -2.73611918091773986816e-02) 
