FANN_FLO_2.1
num_layers=4
learning_rate=0.700000
connection_rate=1.000000
network_type=0
learning_momentum=0.000000
training_algorithm=2
train_error_function=1
train_stop_function=0
cascade_output_change_fraction=0.010000
quickprop_decay=-0.000100
quickprop_mu=1.750000
rprop_increase_factor=1.200000
rprop_decrease_factor=0.500000
rprop_delta_min=0.000000
rprop_delta_max=50.000000
rprop_delta_zero=0.100000
cascade_output_stagnation_epochs=12
cascade_candidate_change_fraction=0.010000
cascade_candidate_stagnation_epochs=12
cascade_max_out_epochs=150
cascade_min_out_epochs=50
cascade_max_cand_epochs=150
cascade_min_cand_epochs=50
cascade_num_candidate_groups=2
bit_fail_limit=3.49999994039535522461e-01
cascade_candidate_limit=1.00000000000000000000e+03
cascade_weight_multiplier=4.00000005960464477539e-01
cascade_activation_functions_count=10
cascade_activation_functions=3 5 7 8 10 11 14 15 16 17 
cascade_activation_steepnesses_count=4
cascade_activation_steepnesses=2.50000000000000000000e-01 5.00000000000000000000e-01 7.50000000000000000000e-01 1.00000000000000000000e+00 
layer_sizes=11 11 11 11 
scale_included=0
neurons (num_inputs, activation_function, activation_steepness)=(0, 0, 0.00000000000000000000e+00) (0, 0, 0.00000000000000000000e+00) (0, 0, 0.00000000000000000000e+00) (0, 0, 0.00000000000000000000e+00) (0, 0, 0.00000000000000000000e+00) (0, 0, 0.00000000000000000000e+00) (0, 0, 0.00000000000000000000e+00) (0, 0, 0.00000000000000000000e+00) (0, 0, 0.00000000000000000000e+00) (0, 0, 0.00000000000000000000e+00) (0, 0, 0.00000000000000000000e+00) (11, 5, 5.00000000000000000000e-01) (11, 5, 5.00000000000000000000e-01) (11, 5, 5.00000000000000000000e-01) (11, 5, 5.00000000000000000000e-01) (11, 5, 5.00000000000000000000e-01) (11, 5, 5.00000000000000000000e-01) (11, 5, 5.00000000000000000000e-01) (11, 5, 5.00000000000000000000e-01) (11, 5, 5.00000000000000000000e-01) (11, 5, 5.00000000000000000000e-01) (0, 5, 0.00000000000000000000e+00) (11, 5, 5.00000000000000000000e-01) (11, 5, 5.00000000000000000000e-01) (11, 5, 5.00000000000000000000e-01) (11, 5, 5.00000000000000000000e-01) (11, 5, 5.00000000000000000000e-01) (11, 5, 5.00000000000000000000e-01) (11, 5, 5.00000000000000000000e-01) (11, 5, 5.00000000000000000000e-01) (11, 5, 5.00000000000000000000e-01) (11, 5, 5.00000000000000000000e-01) (0, 5, 0.00000000000000000000e+00) (11, 5, 5.00000000000000000000e-01) (11, 5, 5.00000000000000000000e-01) (11, 5, 5.00000000000000000000e-01) (11, 5, 5.00000000000000000000e-01) (11, 5, 5.00000000000000000000e-01) (11, 5, 5.00000000000000000000e-01) (11, 5, 5.00000000000000000000e-01) (11, 5, 5.00000000000000000000e-01) (11, 5, 5.00000000000000000000e-01) (11, 5, 5.00000000000000000000e-01) (0, 5, 0.00000000000000000000e+00) 
connections (connected_to_neuron, weight)=(0, -8.35333988070487976074e-02) (1, -2.44709178805351257324e-02) (2, 5.63337281346321105957e-02) (3, 8.93477872014045715332e-02) (4, -5.83051741123199462891e-02) (5, -5.90509176254272460938e-03) (6, 2.10553780198097229004e-02) (7, 2.36551761627197265625e-02) (8, 2.37072557210922241211e-02) (9, -6.38505369424819946289e-02) (10, -1.54213681817054748535e-02) (0, 5.25265112519264221191e-02) (1, -3.86072658002376556396e-02) (2, -2.53577753901481628418e-02) (3, 9.81876924633979797363e-02) (4, -5.82129508256912231445e-03) (5, -6.69212788343429565430e-02) (6, -7.09786564111709594727e-02) (7, 5.57695329189300537109e-03) (8, -9.30456668138504028320e-02) (9, 4.27566096186637878418e-02) (10, -5.32035529613494873047e-03) (0, -7.10798799991607666016e-03) (1, 5.36645129323005676270e-02) (2, -5.57364337146282196045e-02) (3, -7.73119926452636718750e-03) (4, -2.49593332409858703613e-02) (5, -3.78091409802436828613e-02) (6, -3.92232835292816162109e-03) (7, -2.80259102582931518555e-02) (8, 8.71872380375862121582e-02) (9, 1.25442743301391601562e-02) (10, 4.75031808018684387207e-02) (0, 4.35209646821022033691e-02) (1, 1.89205259084701538086e-03) (2, 8.91980007290840148926e-02) (3, -6.23841285705566406250e-02) (4, -7.70525708794593811035e-02) (5, 1.28531828522682189941e-02) (6, 6.13231286406517028809e-02) (7, -4.09031026065349578857e-02) (8, 9.74318161606788635254e-02) (9, 1.38496533036231994629e-02) (10, 2.04896330833435058594e-02) (0, -2.79259607195854187012e-02) (1, 1.20373219251632690430e-02) (2, -8.53316560387611389160e-02) (3, 5.15276193618774414062e-03) (4, 4.10586670041084289551e-02) (5, 2.02452987432479858398e-02) (6, 1.21070966124534606934e-02) (7, -1.61847248673439025879e-02) (8, -8.50750580430030822754e-02) (9, -9.50008854269981384277e-02) (10, -6.25202059745788574219e-02) (0, -4.08114865422248840332e-02) (1, -2.73208320140838623047e-03) (2, 1.25204548239707946777e-02) (3, 2.13793739676475524902e-02) (4, 9.33455899357795715332e-02) (5, 8.44945535063743591309e-02) (6, 8.56660306453704833984e-03) (7, 5.88987022638320922852e-03) (8, 3.19977328181266784668e-02) (9, -4.79124300181865692139e-02) (10, -9.22180786728858947754e-02) (0, 2.11957320570945739746e-02) (1, -1.02965608239173889160e-02) (2, -6.92706480622291564941e-02) (3, -6.59510940313339233398e-02) (4, -4.89734299480915069580e-02) (5, -1.01737529039382934570e-02) (6, -6.85192793607711791992e-02) (7, 6.48762211203575134277e-02) (8, -8.96841138601303100586e-02) (9, 3.55476140975952148438e-03) (10, -2.30864584445953369141e-02) (0, -7.50157684087753295898e-02) (1, -9.12924855947494506836e-02) (2, -8.20277854800224304199e-02) (3, 4.52295318245887756348e-02) (4, 2.08146199584007263184e-02) (5, 1.78749859333038330078e-03) (6, 6.01544752717018127441e-02) (7, 2.58137360215187072754e-02) (8, 3.92672941088676452637e-02) (9, -8.06570053100585937500e-02) (10, -7.69183486700057983398e-02) (0, -4.82122600078582763672e-02) (1, 4.07223775982856750488e-02) (2, -8.35727602243423461914e-02) (3, -6.37177079916000366211e-02) (4, -5.07110245525836944580e-02) (5, 2.23170965909957885742e-02) (6, 6.82800188660621643066e-02) (7, 1.37654691934585571289e-03) (8, 3.00990417599678039551e-02) (9, -1.05242580175399780273e-02) (10, 9.10799875855445861816e-02) (0, 6.08283802866935729980e-02) (1, 2.35246568918228149414e-02) (2, -5.78934401273727416992e-02) (3, -4.93453741073608398438e-02) (4, 5.50053790211677551270e-02) (5, -9.30172204971313476562e-02) (6, -3.90294902026653289795e-02) (7, -4.14398685097694396973e-02) (8, -1.61036774516105651855e-02) (9, -1.40452608466148376465e-02) (10, -3.27323526144027709961e-02) (11, 1.86854600906372070312e-03) (12, -6.88157305121421813965e-02) (13, 8.80822613835334777832e-02) (14, -9.63439643383026123047e-02) (15, 9.13387462496757507324e-02) (16, 1.38960033655166625977e-02) (17, 4.29233238101005554199e-02) (18, -8.93182680010795593262e-02) (19, 3.69776561856269836426e-02) (20, 9.47110727429389953613e-02) (21, 5.14041110873222351074e-02) (11, 5.34048900008201599121e-02) (12, -6.90066516399383544922e-02) (13, -9.93069186806678771973e-02) (14, -2.42780074477195739746e-02) (15, 9.92733761668205261230e-02) (16, 2.06962972879409790039e-03) (17, -9.41789820790290832520e-02) (18, -1.12508758902549743652e-02) (19, -6.85038417577743530273e-03) (20, 6.66493996977806091309e-02) (21, -8.77262279391288757324e-02) (11, 3.52561846375465393066e-02) (12, -8.26959758996963500977e-02) (13, 6.72791525721549987793e-02) (14, 4.22389581799507141113e-02) (15, -2.17254608869552612305e-02) (16, -7.41607174277305603027e-02) (17, -7.38647207617759704590e-02) (18, 6.42292723059654235840e-02) (19, -6.89306855201721191406e-03) (20, 2.80038192868232727051e-02) (21, 9.54135432839393615723e-02) (11, -1.88108012080192565918e-02) (12, 3.16598489880561828613e-02) (13, 8.67522880434989929199e-02) (14, 9.50851961970329284668e-02) (15, -2.54168286919593811035e-02) (16, 9.74340215325355529785e-02) (17, 3.20628359913825988770e-02) (18, -3.07057648897171020508e-02) (19, 4.88381311297416687012e-02) (20, -1.45322680473327636719e-02) (21, 2.87577509880065917969e-04) (11, 4.95312139391899108887e-02) (12, 6.11897185444831848145e-02) (13, -4.39040362834930419922e-04) (14, -4.83991689980030059814e-02) (15, 6.70107528567314147949e-02) (16, 8.83100703358650207520e-02) (17, 4.47504594922065734863e-02) (18, 3.36601510643959045410e-02) (19, -9.94161441922187805176e-02) (20, -1.99933722615242004395e-02) (21, 5.09641841053962707520e-02) (11, 6.78629949688911437988e-02) (12, -7.77544155716896057129e-02) (13, -7.07612931728363037109e-02) (14, 9.37022939324378967285e-02) (15, -5.16191348433494567871e-02) (16, 9.34679880738258361816e-02) (17, -1.31907835602760314941e-02) (18, 7.63846859335899353027e-02) (19, 8.88815298676490783691e-02) (20, 6.79984167218208312988e-02) (21, 8.04454088211059570312e-03) (11, 7.56338313221931457520e-02) (12, 6.30836114287376403809e-02) (13, 8.26277211308479309082e-02) (14, 7.30678513646125793457e-02) (15, -4.85353916883468627930e-03) (16, -4.80780489742755889893e-02) (17, 2.19059735536575317383e-02) (18, 8.06142017245292663574e-02) (19, 5.22095337510108947754e-02) (20, -2.85628288984298706055e-02) (21, 4.18039187788963317871e-02) (11, -4.82295043766498565674e-02) (12, 2.30380073189735412598e-02) (13, 8.81465524435043334961e-03) (14, -5.99194280803203582764e-02) (15, -3.22115421295166015625e-02) (16, -5.75251989066600799561e-02) (17, -5.93355707824230194092e-02) (18, 4.77950796484947204590e-02) (19, 9.34389755129814147949e-02) (20, -9.14725661277770996094e-02) (21, 7.00406655669212341309e-02) (11, -7.73223191499710083008e-02) (12, -9.77702811360359191895e-02) (13, -8.15784633159637451172e-02) (14, -8.38543251156806945801e-02) (15, -1.09610632061958312988e-02) (16, 9.48062166571617126465e-02) (17, -9.49727967381477355957e-02) (18, -4.29626405239105224609e-02) (19, 2.85077095031738281250e-03) (20, 8.06610211730003356934e-02) (21, -7.98790305852890014648e-02) (11, -1.45215168595314025879e-02) (12, 5.37288710474967956543e-02) (13, 1.52674317359924316406e-02) (14, 3.74004319310188293457e-02) (15, -2.43651643395423889160e-02) (16, -4.11836802959442138672e-03) (17, -1.03900283575057983398e-02) (18, 4.70720157027244567871e-02) (19, -6.23144581913948059082e-02) (20, 4.13804724812507629395e-02) (21, -2.98899784684181213379e-02) (22, 4.65002134442329406738e-02) (23, 8.14610496163368225098e-02) (24, 3.78984883427619934082e-02) (25, 8.89750197529792785645e-02) (26, -7.78745263814926147461e-02) (27, -1.43064409494400024414e-02) (28, 8.24139788746833801270e-02) (29, -6.93470984697341918945e-02) (30, -4.42657731473445892334e-02) (31, -9.49083343148231506348e-02) (32, -6.71173781156539916992e-02) (22, -2.58442312479019165039e-02) (23, -7.87626579403877258301e-02) (24, 2.19215601682662963867e-02) (25, -3.10380086302757263184e-02) (26, -7.37354531884193420410e-02) (27, 7.89589360356330871582e-02) (28, 7.18127563595771789551e-02) (29, -9.30744260549545288086e-02) (30, 9.90798994898796081543e-02) (31, -4.27087619900703430176e-02) (32, 6.06544539332389831543e-02) (22, 1.43473297357559204102e-02) (23, 9.46916863322257995605e-02) (24, -6.37107193470001220703e-02) (25, -8.97710397839546203613e-02) (26, -1.56983509659767150879e-02) (27, 8.33613052964210510254e-02) (28, -5.20855002105236053467e-02) (29, -7.43178799748420715332e-02) (30, -4.65286783874034881592e-02) (31, 9.44147184491157531738e-02) (32, -9.28568392992019653320e-02) (22, 9.13698002696037292480e-02) (23, 8.33897069096565246582e-02) (24, -7.07313716411590576172e-02) (25, -2.29366421699523925781e-02) (26, 6.58037140965461730957e-02) (27, -4.00784611701965332031e-02) (28, 3.27975824475288391113e-02) (29, 7.08953812718391418457e-02) (30, -7.19583779573440551758e-03) (31, -9.30466502904891967773e-02) (32, 9.21327099204063415527e-02) (22, -8.52742791175842285156e-02) (23, -2.40846574306488037109e-02) (24, -8.16027373075485229492e-02) (25, 9.36846509575843811035e-02) (26, -5.22719025611877441406e-02) (27, -7.46771544218063354492e-02) (28, 9.27645489573478698730e-02) (29, 5.01934438943862915039e-03) (30, 8.59772935509681701660e-02) (31, 7.11186975240707397461e-03) (32, -2.88985669612884521484e-04) (22, -7.77334272861480712891e-02) (23, 1.73408389091491699219e-02) (24, 8.40126648545265197754e-02) (25, -9.43721234798431396484e-02) (26, 6.52553513646125793457e-02) (27, -9.03052166104316711426e-02) (28, -4.09008041024208068848e-02) (29, 5.96700385212898254395e-02) (30, -8.31620544195175170898e-02) (31, -4.95310090482234954834e-02) (32, 4.30597737431526184082e-02) (22, -5.38934245705604553223e-02) (23, 2.75323465466499328613e-02) (24, 8.86346399784088134766e-03) (25, 6.02811574935913085938e-03) (26, -3.96700613200664520264e-02) (27, -2.02411562204360961914e-02) (28, 9.88322719931602478027e-02) (29, -3.27167063951492309570e-02) (30, -2.81084477901458740234e-02) (31, -8.64420011639595031738e-02) (32, 4.31986376643180847168e-02) (22, -9.71118360757827758789e-03) (23, -9.27573516964912414551e-02) (24, 9.09267291426658630371e-02) (25, 1.56116634607315063477e-02) (26, -9.99928042292594909668e-02) (27, -4.05392795801162719727e-03) (28, 1.58895552158355712891e-03) (29, 7.11907446384429931641e-03) (30, 9.56570878624916076660e-02) (31, 2.38555297255516052246e-02) (32, -7.55400955677032470703e-02) (22, 7.96697512269020080566e-02) (23, 2.94834002852439880371e-02) (24, 8.97152498364448547363e-02) (25, 8.93645361065864562988e-02) (26, 8.85825976729393005371e-02) (27, 4.93852868676185607910e-02) (28, -9.37975198030471801758e-02) (29, -6.09484016895294189453e-02) (30, -7.55494832992553710938e-03) (31, -4.76909466087818145752e-02) (32, 6.65839537978172302246e-02) (22, -9.86914783716201782227e-02) (23, 5.83371594548225402832e-02) (24, -7.30861052870750427246e-02) (25, -1.89326405525207519531e-02) (26, 5.71694448590278625488e-02) (27, -5.80281764268875122070e-03) (28, 5.29589131474494934082e-02) (29, 7.07274451851844787598e-02) (30, -6.26041740179061889648e-02) (31, -5.67522682249546051025e-02) (32, 7.79700949788093566895e-02) 
