FANN_FLO_2.1
num_layers=4
learning_rate=0.700000
connection_rate=1.000000
network_type=0
learning_momentum=0.000000
training_algorithm=2
train_error_function=1
train_stop_function=0
cascade_output_change_fraction=0.010000
quickprop_decay=-0.000100
quickprop_mu=1.750000
rprop_increase_factor=1.200000
rprop_decrease_factor=0.500000
rprop_delta_min=0.000000
rprop_delta_max=50.000000
rprop_delta_zero=0.100000
cascade_output_stagnation_epochs=12
cascade_candidate_change_fraction=0.010000
cascade_candidate_stagnation_epochs=12
cascade_max_out_epochs=150
cascade_min_out_epochs=50
cascade_max_cand_epochs=150
cascade_min_cand_epochs=50
cascade_num_candidate_groups=2
bit_fail_limit=3.49999994039535522461e-01
cascade_candidate_limit=1.00000000000000000000e+03
cascade_weight_multiplier=4.00000005960464477539e-01
cascade_activation_functions_count=10
cascade_activation_functions=3 5 7 8 10 11 14 15 16 17 
cascade_activation_steepnesses_count=4
cascade_activation_steepnesses=2.50000000000000000000e-01 5.00000000000000000000e-01 7.50000000000000000000e-01 1.00000000000000000000e+00 
layer_sizes=15 13 12 11 
scale_included=0
neurons (num_inputs, activation_function, activation_steepness)=(0, 0, 0.00000000000000000000e+00) (0, 0, 0.00000000000000000000e+00) (0, 0, 0.00000000000000000000e+00) (0, 0, 0.00000000000000000000e+00) (0, 0, 0.00000000000000000000e+00) (0, 0, 0.00000000000000000000e+00) (0, 0, 0.00000000000000000000e+00) (0, 0, 0.00000000000000000000e+00) (0, 0, 0.00000000000000000000e+00) (0, 0, 0.00000000000000000000e+00) (0, 0, 0.00000000000000000000e+00) (0, 0, 0.00000000000000000000e+00) (0, 0, 0.00000000000000000000e+00) (0, 0, 0.00000000000000000000e+00) (0, 0, 0.00000000000000000000e+00) (15, 5, 5.00000000000000000000e-01) (15, 5, 5.00000000000000000000e-01) (15, 5, 5.00000000000000000000e-01) (15, 5, 5.00000000000000000000e-01) (15, 5, 5.00000000000000000000e-01) (15, 5, 5.00000000000000000000e-01) (15, 5, 5.00000000000000000000e-01) (15, 5, 5.00000000000000000000e-01) (15, 5, 5.00000000000000000000e-01) (15, 5, 5.00000000000000000000e-01) (15, 5, 5.00000000000000000000e-01) (15, 5, 5.00000000000000000000e-01) (0, 5, 0.00000000000000000000e+00) (13, 5, 5.00000000000000000000e-01) (13, 5, 5.00000000000000000000e-01) (13, 5, 5.00000000000000000000e-01) (13, 5, 5.00000000000000000000e-01) (13, 5, 5.00000000000000000000e-01) (13, 5, 5.00000000000000000000e-01) (13, 5, 5.00000000000000000000e-01) (13, 5, 5.00000000000000000000e-01) (13, 5, 5.00000000000000000000e-01) (13, 5, 5.00000000000000000000e-01) (13, 5, 5.00000000000000000000e-01) (0, 5, 0.00000000000000000000e+00) (12, 5, 5.00000000000000000000e-01) (12, 5, 5.00000000000000000000e-01) (12, 5, 5.00000000000000000000e-01) (12, 5, 5.00000000000000000000e-01) (12, 5, 5.00000000000000000000e-01) (12, 5, 5.00000000000000000000e-01) (12, 5, 5.00000000000000000000e-01) (12, 5, 5.00000000000000000000e-01) (12, 5, 5.00000000000000000000e-01) (12, 5, 5.00000000000000000000e-01) (0, 5, 0.00000000000000000000e+00) 
connections (connected_to_neuron, weight)=(0, -4.31041419506072998047e-02) (1, 1.38964876532554626465e-02) (2, 9.30685028433799743652e-02) (3, -9.03039276599884033203e-02) (4, -9.25433859229087829590e-02) (5, 8.42235162854194641113e-02) (6, -7.01071321964263916016e-02) (7, 3.46535071730613708496e-02) (8, -2.55474448204040527344e-02) (9, 5.84990009665489196777e-02) (10, -9.87454503774642944336e-02) (11, -1.88939124345779418945e-02) (12, 1.02484673261642456055e-02) (13, -5.74701800942420959473e-02) (14, 5.81788197159767150879e-02) (0, 2.84431949257850646973e-02) (1, -3.70114892721176147461e-02) (2, -3.28339859843254089355e-02) (3, -4.16556559503078460693e-02) (4, -1.92236155271530151367e-02) (5, 8.01774039864540100098e-02) (6, -5.21360598504543304443e-02) (7, 1.81973800063133239746e-02) (8, 1.09655857086181640625e-02) (9, 7.29209706187248229980e-02) (10, 3.83678153157234191895e-02) (11, -2.54122987389564514160e-02) (12, -7.25785046815872192383e-02) (13, 4.75926622748374938965e-02) (14, 2.31671184301376342773e-02) (0, 4.46428582072257995605e-02) (1, -9.55114811658859252930e-02) (2, -6.29363954067230224609e-02) (3, 3.77113595604896545410e-02) (4, -8.58154073357582092285e-02) (5, -5.54797835648059844971e-02) (6, 2.19348818063735961914e-02) (7, -5.59225417673587799072e-02) (8, 7.91737362742424011230e-02) (9, 9.63874384760856628418e-02) (10, -9.74235385656356811523e-02) (11, 8.04282948374748229980e-02) (12, -2.25064903497695922852e-02) (13, 1.28249377012252807617e-02) (14, -7.70418941974639892578e-02) (0, -6.43276646733283996582e-02) (1, -5.87318651378154754639e-02) (2, -1.40533894300460815430e-02) (3, 2.83835083246231079102e-03) (4, -3.87519598007202148438e-04) (5, 6.67229965329170227051e-02) (6, -1.69842392206192016602e-02) (7, 4.74764183163642883301e-02) (8, -1.50796175003051757812e-02) (9, 9.39813330769538879395e-02) (10, 2.03973799943923950195e-02) (11, -7.67118036746978759766e-02) (12, -3.14309522509574890137e-02) (13, 4.78188768029212951660e-02) (14, 7.08808526396751403809e-02) (0, 9.17361602187156677246e-02) (1, -7.53827393054962158203e-03) (2, 7.53693804144859313965e-02) (3, -7.12002366781234741211e-02) (4, -6.98269158601760864258e-02) (5, 8.95539745688438415527e-02) (6, -2.66800224781036376953e-02) (7, 5.21079525351524353027e-02) (8, -6.63685649633407592773e-02) (9, -4.75062914192676544189e-02) (10, 4.84953895211219787598e-02) (11, -6.37921020388603210449e-02) (12, -6.70780092477798461914e-02) (13, -7.40110948681831359863e-02) (14, 4.90328446030616760254e-02) (0, -4.41199019551277160645e-02) (1, -3.83387580513954162598e-02) (2, 9.03009846806526184082e-02) (3, 4.18267175555229187012e-02) (4, 6.44995942711830139160e-02) (5, -1.00865513086318969727e-02) (6, 8.54971259832382202148e-03) (7, -5.24846464395523071289e-02) (8, -6.26101344823837280273e-02) (9, 9.34701040387153625488e-02) (10, -5.85033074021339416504e-02) (11, 5.77872470021247863770e-02) (12, -8.32417085766792297363e-02) (13, 1.00657343864440917969e-02) (14, 5.60612976551055908203e-03) (0, 8.76391604542732238770e-02) (1, 1.80189311504364013672e-03) (2, 9.80678573250770568848e-02) (3, 6.30085244774818420410e-02) (4, 3.06016728281974792480e-02) (5, -7.17590600252151489258e-02) (6, 5.25624975562095642090e-02) (7, -9.60783585906028747559e-02) (8, 8.03489014506340026855e-02) (9, 8.61939266324043273926e-02) (10, -4.35846447944641113281e-02) (11, 2.88442894816398620605e-02) (12, -7.75981694459915161133e-02) (13, -1.06626525521278381348e-02) (14, 5.48331961035728454590e-02) (0, 7.14346840977668762207e-02) (1, 4.52174469828605651855e-02) (2, -8.35055634379386901855e-02) (3, 6.17356523871421813965e-02) (4, -1.29558369517326354980e-02) (5, 8.09940323233604431152e-02) (6, -4.83509004116058349609e-02) (7, 9.55938771367073059082e-02) (8, -7.14906156063079833984e-02) (9, -1.09610259532928466797e-02) (10, 8.90639796853065490723e-02) (11, -2.99939215183258056641e-02) (12, -5.31737729907035827637e-02) (13, -9.41777303814888000488e-02) (14, 8.00718143582344055176e-02) (0, 5.24323657155036926270e-02) (1, 9.34614166617393493652e-02) (2, -1.81262791156768798828e-02) (3, 5.05002215504646301270e-02) (4, 5.64699545502662658691e-02) (5, -8.75246152281761169434e-02) (6, 7.87411555647850036621e-02) (7, 9.03245061635971069336e-03) (8, -8.36029723286628723145e-02) (9, 5.90900704264640808105e-02) (10, -4.77361679077148437500e-03) (11, -2.71876230835914611816e-02) (12, -1.20656490325927734375e-02) (13, 1.76282152533531188965e-02) (14, 6.21497258543968200684e-02) (0, -5.72324506938457489014e-02) (1, -1.09371095895767211914e-02) (2, 7.36717134714126586914e-03) (3, -4.07380163669586181641e-02) (4, -4.92014586925506591797e-02) (5, 9.44113358855247497559e-02) (6, -5.97439818084239959717e-02) (7, 2.44764238595962524414e-03) (8, 9.00052264332771301270e-02) (9, -3.12345996499061584473e-02) (10, 9.14866253733634948730e-02) (11, 7.90692046284675598145e-02) (12, 3.87714877724647521973e-02) (13, -6.16871528327465057373e-02) (14, 8.48914608359336853027e-02) (0, 1.88433080911636352539e-02) (1, 9.07452031970024108887e-02) (2, 7.83528760075569152832e-02) (3, -9.92829799652099609375e-02) (4, 4.12454232573509216309e-02) (5, 3.48228290677070617676e-02) (6, -8.68075937032699584961e-02) (7, 1.99865847826004028320e-02) (8, -5.61447180807590484619e-02) (9, -7.04105719923973083496e-02) (10, -2.09233537316322326660e-02) (11, 3.90816703438758850098e-02) (12, 2.40180641412734985352e-03) (13, 6.70110061764717102051e-02) (14, -4.32901084423065185547e-02) (0, -3.54484617710113525391e-02) (1, -9.02214497327804565430e-02) (2, 4.57727834582328796387e-02) (3, 7.19187185168266296387e-02) (4, -3.09594646096229553223e-02) (5, 9.65713337063789367676e-02) (6, 6.63300529122352600098e-02) (7, 9.29655134677886962891e-03) (8, -9.81032848358154296875e-04) (9, 5.63352778553962707520e-02) (10, 7.80619457364082336426e-02) (11, -9.49440896511077880859e-03) (12, 3.54044660925865173340e-02) (13, 1.68334394693374633789e-02) (14, 2.88184359669685363770e-02) (15, 2.02959328889846801758e-02) (16, -6.43232613801956176758e-02) (17, 1.95636376738548278809e-02) (18, -1.35118514299392700195e-03) (19, -6.36062473058700561523e-02) (20, -3.91909442842006683350e-02) (21, -6.65283501148223876953e-02) (22, -5.04138395190238952637e-02) (23, 8.07956531643867492676e-02) (24, -2.26730629801750183105e-02) (25, -2.08244100213050842285e-02) (26, -4.01277057826519012451e-02) (27, -8.35914015769958496094e-02) (15, 8.15774127840995788574e-02) (16, -7.31167048215866088867e-02) (17, -2.68815085291862487793e-02) (18, -5.38710616528987884521e-02) (19, -6.33381605148315429688e-02) (20, -8.11087265610694885254e-02) (21, -8.19523483514785766602e-02) (22, 5.70237636566162109375e-03) (23, -8.45374017953872680664e-02) (24, 8.43777135014533996582e-02) (25, -8.50010737776756286621e-02) (26, 1.44815668463706970215e-02) (27, 4.07129749655723571777e-02) (15, 9.30608883500099182129e-02) (16, -9.50128436088562011719e-02) (17, -2.38825604319572448730e-02) (18, 9.89432632923126220703e-03) (19, 3.38056012988090515137e-02) (20, 9.64133664965629577637e-02) (21, 4.55710515379905700684e-02) (22, -4.66307699680328369141e-02) (23, -4.93781268596649169922e-03) (24, 8.19648131728172302246e-02) (25, 1.41782909631729125977e-02) (26, 2.85338237881660461426e-02) (27, -6.84490278363227844238e-02) (15, -5.02606481313705444336e-03) (16, -9.41392332315444946289e-02) (17, 1.07265710830688476562e-02) (18, 5.48462346196174621582e-02) (19, -7.77306333184242248535e-02) (20, -7.69603252410888671875e-03) (21, 8.17295238375663757324e-02) (22, -4.61214035749435424805e-03) (23, 3.84329035878181457520e-02) (24, -8.16086381673812866211e-02) (25, 1.42791420221328735352e-02) (26, 5.64805641770362854004e-02) (27, 2.40937322378158569336e-02) (15, 2.97417268157005310059e-02) (16, 4.08582612872123718262e-02) (17, 3.90926674008369445801e-02) (18, -5.57766966521739959717e-02) (19, -1.84287652373313903809e-02) (20, 3.21535542607307434082e-02) (21, -5.07895387709140777588e-02) (22, 5.76886609196662902832e-02) (23, -5.79521320760250091553e-02) (24, 8.30160453915596008301e-02) (25, 5.41020408272743225098e-02) (26, 8.76189246773719787598e-02) (27, -6.36147186160087585449e-02) (15, -5.08357845246791839600e-02) (16, 6.95837363600730895996e-02) (17, 5.05635812878608703613e-02) (18, 7.76980593800544738770e-02) (19, -9.88653004169464111328e-02) (20, -5.44624924659729003906e-02) (21, 8.35588201880455017090e-02) (22, 1.18612647056579589844e-02) (23, -9.96162667870521545410e-02) (24, -9.41718146204948425293e-02) (25, -9.58347618579864501953e-02) (26, 8.21132585406303405762e-02) (27, 1.21603906154632568359e-03) (15, 4.25981357693672180176e-02) (16, -9.94953885674476623535e-02) (17, -8.45048204064369201660e-02) (18, -9.21294093132019042969e-04) (19, 2.45983451604843139648e-02) (20, 4.52369078993797302246e-02) (21, -6.00630342960357666016e-02) (22, -3.63089814782142639160e-02) (23, 8.94602164626121520996e-02) (24, 2.15081945061683654785e-02) (25, 9.58445742726325988770e-02) (26, -6.13293237984180450439e-02) (27, -2.08031386137008666992e-02) (15, -6.21075592935085296631e-02) (16, -7.83132687211036682129e-02) (17, -6.67010992765426635742e-02) (18, -7.44886398315429687500e-02) (19, -4.19279895722866058350e-02) (20, -1.75368860363960266113e-02) (21, 9.50951054692268371582e-02) (22, -9.13644134998321533203e-02) (23, -3.98388318717479705811e-02) (24, 9.62297990918159484863e-02) (25, -4.58269082009792327881e-02) (26, -5.62800168991088867188e-02) (27, 8.09106975793838500977e-03) (15, -4.54431772232055664062e-02) (16, -5.04518300294876098633e-02) (17, 1.22563093900680541992e-02) (18, -6.33299201726913452148e-02) (19, 5.07642105221748352051e-02) (20, -4.51455488801002502441e-02) (21, -6.28253072500228881836e-02) (22, 6.62593916058540344238e-02) (23, 5.39331510663032531738e-02) (24, 6.17730394005775451660e-02) (25, 1.14963054656982421875e-02) (26, 9.38701108098030090332e-02) (27, -7.45359361171722412109e-02) (15, 9.56520438194274902344e-04) (16, 1.53783187270164489746e-02) (17, -7.86913633346557617188e-02) (18, 3.96272018551826477051e-02) (19, 9.45751741528511047363e-02) (20, -4.07989285886287689209e-02) (21, 6.13139346241950988770e-02) (22, -7.21259266138076782227e-02) (23, -1.52875632047653198242e-02) (24, -8.06140601634979248047e-02) (25, 1.03371888399124145508e-02) (26, -2.01924666762351989746e-02) (27, -7.19784721732139587402e-02) (15, 7.04983547329902648926e-02) (16, -2.39626690745353698730e-02) (17, -1.78053826093673706055e-02) (18, -8.57816562056541442871e-02) (19, 8.41284021735191345215e-02) (20, 3.67514565587043762207e-02) (21, -3.62334847450256347656e-02) (22, -3.61529737710952758789e-03) (23, 7.34215304255485534668e-02) (24, -8.54692757129669189453e-02) (25, 5.12391552329063415527e-02) (26, -8.94037932157516479492e-02) (27, 8.07901248335838317871e-02) (28, 5.17231225967407226562e-03) (29, 7.23692551255226135254e-02) (30, -7.71357119083404541016e-03) (31, -9.57563519477844238281e-04) (32, 9.78333130478858947754e-02) (33, 9.32429507374763488770e-02) (34, -8.55792537331581115723e-02) (35, -8.08580517768859863281e-02) (36, 3.28701511025428771973e-02) (37, -9.10040736198425292969e-02) (38, -2.16569751501083374023e-02) (39, -5.81590831279754638672e-03) (28, -6.31300061941146850586e-02) (29, 6.30554631352424621582e-02) (30, 1.35700330138206481934e-02) (31, 4.72071841359138488770e-02) (32, -5.71370087563991546631e-02) (33, 4.15915623307228088379e-02) (34, 1.77055448293685913086e-02) (35, 1.89003199338912963867e-02) (36, -7.62138217687606811523e-02) (37, 3.19238975644111633301e-02) (38, 3.02872806787490844727e-03) (39, 6.05376288294792175293e-02) (28, 9.56904068589210510254e-02) (29, 9.94134321808815002441e-02) (30, 3.39591428637504577637e-02) (31, -8.97788703441619873047e-02) (32, 5.06525859236717224121e-02) (33, 4.45553585886955261230e-02) (34, 9.10112485289573669434e-02) (35, -4.41750995814800262451e-02) (36, 1.69246047735214233398e-02) (37, -1.67023167014122009277e-02) (38, 5.48673346638679504395e-02) (39, 1.47579163312911987305e-02) (28, -2.34593600034713745117e-02) (29, 6.92880824208259582520e-02) (30, 3.38998660445213317871e-02) (31, -9.05892103910446166992e-02) (32, 7.82840028405189514160e-02) (33, -8.77571105957031250000e-02) (34, 3.59487533569335937500e-03) (35, -8.48459899425506591797e-02) (36, 7.52983614802360534668e-02) (37, -8.28350931406021118164e-02) (38, 6.23612031340599060059e-02) (39, -8.18386599421501159668e-02) (28, 5.87564632296562194824e-02) (29, -1.99332460761070251465e-02) (30, 3.70616689324378967285e-02) (31, 8.25426504015922546387e-02) (32, -8.80093574523925781250e-02) (33, -5.99096119403839111328e-02) (34, 4.30802628397941589355e-02) (35, -9.23189520835876464844e-02) (36, -6.04961812496185302734e-02) (37, -2.29605883359909057617e-02) (38, -8.20978134870529174805e-02) (39, 9.01564136147499084473e-02) (28, -7.84052386879920959473e-02) (29, -9.10865589976310729980e-02) (30, -5.40186874568462371826e-02) (31, 3.85193750262260437012e-02) (32, -7.78887420892715454102e-03) (33, -9.91513580083847045898e-02) (34, -4.67227175831794738770e-02) (35, 6.87517598271369934082e-02) (36, 7.01367333531379699707e-02) (37, 8.71771648526191711426e-02) (38, 7.81625583767890930176e-02) (39, 4.84207347035408020020e-02) (28, 9.94200482964515686035e-02) (29, -1.82425677776336669922e-02) (30, 6.35747388005256652832e-02) (31, 7.47184082865715026855e-02) (32, -1.07766687870025634766e-03) (33, 2.59359553456306457520e-02) (34, 9.28797349333763122559e-02) (35, -4.23212014138698577881e-02) (36, -9.39973071217536926270e-02) (37, 2.99414023756980895996e-02) (38, -5.97785599529743194580e-02) (39, -8.20066630840301513672e-02) (28, 7.00317993760108947754e-02) (29, 8.33017006516456604004e-02) (30, -7.43256136775016784668e-02) (31, -9.04643833637237548828e-02) (32, -3.96588854491710662842e-02) (33, -5.64234256744384765625e-02) (34, 9.96920242905616760254e-02) (35, -1.80641263723373413086e-02) (36, -4.75099869072437286377e-02) (37, -5.43266646564006805420e-02) (38, -7.95447677373886108398e-02) (39, 4.47011366486549377441e-02) (28, -5.34780211746692657471e-02) (29, -2.62674763798713684082e-02) (30, 1.34529024362564086914e-02) (31, -8.33412930369377136230e-02) (32, -3.90903241932392120361e-02) (33, -8.38454067707061767578e-03) (34, 6.50794431567192077637e-02) (35, -3.96702773869037628174e-02) (36, 7.33728930354118347168e-02) (37, 2.86541804671287536621e-02) (38, -6.49518817663192749023e-02) (39, -2.77047827839851379395e-02) (28, -4.54098768532276153564e-02) (29, -7.20721334218978881836e-02) (30, 2.99740210175514221191e-02) (31, -3.94071824848651885986e-02) (32, 5.78692629933357238770e-02) (33, 7.01954588294029235840e-02) (34, -2.14138478040695190430e-02) (35, 2.79010608792304992676e-02) (36, 5.34971579909324645996e-02) (37, 4.26054000854492187500e-03) (38, 3.74366864562034606934e-02) (39, -8.61617252230644226074e-02) 
