FANN_FLO_2.1
num_layers=4
learning_rate=0.700000
connection_rate=1.000000
network_type=0
learning_momentum=0.000000
training_algorithm=2
train_error_function=1
train_stop_function=0
cascade_output_change_fraction=0.010000
quickprop_decay=-0.000100
quickprop_mu=1.750000
rprop_increase_factor=1.200000
rprop_decrease_factor=0.500000
rprop_delta_min=0.000000
rprop_delta_max=50.000000
rprop_delta_zero=0.100000
cascade_output_stagnation_epochs=12
cascade_candidate_change_fraction=0.010000
cascade_candidate_stagnation_epochs=12
cascade_max_out_epochs=150
cascade_min_out_epochs=50
cascade_max_cand_epochs=150
cascade_min_cand_epochs=50
cascade_num_candidate_groups=2
bit_fail_limit=3.49999994039535522461e-01
cascade_candidate_limit=1.00000000000000000000e+03
cascade_weight_multiplier=4.00000005960464477539e-01
cascade_activation_functions_count=10
cascade_activation_functions=3 5 7 8 10 11 14 15 16 17 
cascade_activation_steepnesses_count=4
cascade_activation_steepnesses=2.50000000000000000000e-01 5.00000000000000000000e-01 7.50000000000000000000e-01 1.00000000000000000000e+00 
layer_sizes=15 13 12 11 
scale_included=0
neurons (num_inputs, activation_function, activation_steepness)=(0, 0, 0.00000000000000000000e+00) (0, 0, 0.00000000000000000000e+00) (0, 0, 0.00000000000000000000e+00) (0, 0, 0.00000000000000000000e+00) (0, 0, 0.00000000000000000000e+00) (0, 0, 0.00000000000000000000e+00) (0, 0, 0.00000000000000000000e+00) (0, 0, 0.00000000000000000000e+00) (0, 0, 0.00000000000000000000e+00) (0, 0, 0.00000000000000000000e+00) (0, 0, 0.00000000000000000000e+00) (0, 0, 0.00000000000000000000e+00) (0, 0, 0.00000000000000000000e+00) (0, 0, 0.00000000000000000000e+00) (0, 0, 0.00000000000000000000e+00) (15, 5, 5.00000000000000000000e-01) (15, 5, 5.00000000000000000000e-01) (15, 5, 5.00000000000000000000e-01) (15, 5, 5.00000000000000000000e-01) (15, 5, 5.00000000000000000000e-01) (15, 5, 5.00000000000000000000e-01) (15, 5, 5.00000000000000000000e-01) (15, 5, 5.00000000000000000000e-01) (15, 5, 5.00000000000000000000e-01) (15, 5, 5.00000000000000000000e-01) (15, 5, 5.00000000000000000000e-01) (15, 5, 5.00000000000000000000e-01) (0, 5, 0.00000000000000000000e+00) (13, 5, 5.00000000000000000000e-01) (13, 5, 5.00000000000000000000e-01) (13, 5, 5.00000000000000000000e-01) (13, 5, 5.00000000000000000000e-01) (13, 5, 5.00000000000000000000e-01) (13, 5, 5.00000000000000000000e-01) (13, 5, 5.00000000000000000000e-01) (13, 5, 5.00000000000000000000e-01) (13, 5, 5.00000000000000000000e-01) (13, 5, 5.00000000000000000000e-01) (13, 5, 5.00000000000000000000e-01) (0, 5, 0.00000000000000000000e+00) (12, 5, 5.00000000000000000000e-01) (12, 5, 5.00000000000000000000e-01) (12, 5, 5.00000000000000000000e-01) (12, 5, 5.00000000000000000000e-01) (12, 5, 5.00000000000000000000e-01) (12, 5, 5.00000000000000000000e-01) (12, 5, 5.00000000000000000000e-01) (12, 5, 5.00000000000000000000e-01) (12, 5, 5.00000000000000000000e-01) (12, 5, 5.00000000000000000000e-01) (0, 5, 0.00000000000000000000e+00) 
connections (connected_to_neuron, weight)=(0, 2.19971090555191040039e-02) (1, -2.20153406262397766113e-02) (2, 8.19772556424140930176e-02) (3, -1.66913196444511413574e-02) (4, 9.74624231457710266113e-02) (5, 3.03157046437263488770e-02) (6, -1.68206468224525451660e-02) (7, 7.81701505184173583984e-03) (8, -1.33703798055648803711e-02) (9, 1.41855925321578979492e-02) (10, -9.91297140717506408691e-02) (11, 4.51545417308807373047e-03) (12, 3.15789356827735900879e-02) (13, -5.70455044507980346680e-02) (14, 1.62843838334083557129e-02) (0, -6.06809034943580627441e-02) (1, -9.28336754441261291504e-02) (2, 4.80438992381095886230e-02) (3, -8.49372893571853637695e-02) (4, -7.54615440964698791504e-02) (5, 1.54622644186019897461e-03) (6, -4.70084361732006072998e-02) (7, -5.06127178668975830078e-02) (8, 5.78488782048225402832e-02) (9, -9.58123654127120971680e-02) (10, 2.14647278189659118652e-02) (11, -7.15108141303062438965e-02) (12, 5.89499250054359436035e-02) (13, 4.27428558468818664551e-02) (14, -9.77995172142982482910e-02) (0, 1.25471726059913635254e-02) (1, -3.52600440382957458496e-02) (2, -1.98148563504219055176e-02) (3, -5.47558814287185668945e-03) (4, 4.80486229062080383301e-02) (5, -2.23524346947669982910e-02) (6, -7.51598775386810302734e-02) (7, -6.87720179557800292969e-02) (8, 8.54645892977714538574e-02) (9, 1.14697441458702087402e-02) (10, 4.54135760664939880371e-02) (11, 8.63348767161369323730e-02) (12, -8.40147882699966430664e-02) (13, -2.30074897408485412598e-02) (14, -7.07106366753578186035e-02) (0, 3.22695896029472351074e-02) (1, 1.63116082549095153809e-02) (2, -6.35443106293678283691e-02) (3, -1.96865126490592956543e-02) (4, 3.13743278384208679199e-02) (5, -3.90058532357215881348e-02) (6, 8.18597152829170227051e-02) (7, 8.43658819794654846191e-02) (8, 1.03814229369163513184e-02) (9, 3.97085770964622497559e-02) (10, 8.85535255074501037598e-02) (11, -6.81538432836532592773e-02) (12, 6.81977644562721252441e-02) (13, 4.75034490227699279785e-02) (14, 7.45890215039253234863e-02) (0, 7.03982487320899963379e-02) (1, -3.99493873119354248047e-02) (2, -6.06710426509380340576e-02) (3, -4.94166016578674316406e-02) (4, 5.45750334858894348145e-02) (5, 8.73775854706764221191e-02) (6, 2.82309725880622863770e-02) (7, 7.94151499867439270020e-02) (8, -8.13944265246391296387e-02) (9, 1.36955529451370239258e-02) (10, -9.11509990692138671875e-03) (11, 6.40191510319709777832e-02) (12, 3.04132699966430664062e-05) (13, 6.87011331319808959961e-03) (14, -5.89883364737033843994e-02) (0, 2.93197706341743469238e-02) (1, -6.08603022992610931396e-02) (2, 5.73232844471931457520e-02) (3, 6.57754614949226379395e-02) (4, 1.94531902670860290527e-02) (5, -1.13023966550827026367e-02) (6, -7.32303857803344726562e-02) (7, 1.31289660930633544922e-03) (8, -2.69365161657333374023e-02) (9, 3.71510460972785949707e-02) (10, -5.89785166084766387939e-02) (11, -3.83829884231090545654e-02) (12, 6.89972117543220520020e-02) (13, -9.07807499170303344727e-02) (14, -9.08795371651649475098e-02) (0, 4.35862168669700622559e-02) (1, 7.96175077557563781738e-02) (2, -3.08289229869842529297e-02) (3, 8.29151794314384460449e-02) (4, -6.97991028428077697754e-02) (5, -7.62538984417915344238e-02) (6, 7.02927634119987487793e-02) (7, 5.84318712353706359863e-02) (8, -9.68387424945831298828e-02) (9, 8.88983383774757385254e-02) (10, -2.78725847601890563965e-02) (11, -5.95383346080780029297e-03) (12, 5.29174879193305969238e-02) (13, 7.21578225493431091309e-02) (14, -9.90837290883064270020e-02) (0, 9.39291492104530334473e-02) (1, 1.47761404514312744141e-03) (2, -5.99440261721611022949e-02) (3, 5.12524321675300598145e-02) (4, -3.27469259500503540039e-02) (5, 5.95091655850410461426e-02) (6, -6.00499697029590606689e-02) (7, -5.97731024026870727539e-03) (8, -3.91779355704784393311e-02) (9, 1.30135193467140197754e-02) (10, -6.88262581825256347656e-02) (11, 1.84354931116104125977e-03) (12, 7.46305361390113830566e-02) (13, -9.98290553689002990723e-02) (14, 1.10628008842468261719e-02) (0, 8.37509855628013610840e-02) (1, 4.37571629881858825684e-02) (2, -9.31970775127410888672e-03) (3, -4.70779314637184143066e-02) (4, 2.66723409295082092285e-02) (5, 2.08811908960342407227e-02) (6, -2.33318284153938293457e-02) (7, -3.03490459918975830078e-03) (8, -2.06869393587112426758e-02) (9, -2.01705694198608398438e-02) (10, -1.41365677118301391602e-02) (11, 5.14404699206352233887e-02) (12, 7.38755986094474792480e-02) (13, -6.12190775573253631592e-02) (14, 2.35982984304428100586e-02) (0, 7.47918710112571716309e-02) (1, -6.72899261116981506348e-02) (2, -7.49240964651107788086e-02) (3, -8.51521566510200500488e-02) (4, 8.39625075459480285645e-02) (5, -7.67102092504501342773e-03) (6, 7.43570104241371154785e-02) (7, -7.60874599218368530273e-02) (8, 8.63516703248023986816e-02) (9, -6.48209303617477416992e-02) (10, 3.69260534644126892090e-02) (11, -8.24745893478393554688e-02) (12, 3.70226129889488220215e-02) (13, 1.15565881133079528809e-02) (14, -8.23036432266235351562e-02) (0, -5.19145876169204711914e-02) (1, -4.69242036342620849609e-03) (2, 6.14535138010978698730e-02) (3, 3.87657061219215393066e-02) (4, 4.82296422123908996582e-02) (5, -1.18741542100906372070e-02) (6, -4.03531007468700408936e-02) (7, -7.51021802425384521484e-02) (8, 8.50909426808357238770e-02) (9, 3.89599576592445373535e-02) (10, 4.72725927829742431641e-03) (11, -2.90456190705299377441e-02) (12, -9.59957391023635864258e-03) (13, -2.13971585035324096680e-02) (14, 9.73530858755111694336e-03) (0, -8.60012769699096679688e-02) (1, -4.66052889823913574219e-02) (2, 4.24453839659690856934e-02) (3, -6.09253756701946258545e-02) (4, -3.17574515938758850098e-02) (5, 2.64079049229621887207e-02) (6, 3.14036086201667785645e-02) (7, -5.74004463851451873779e-02) (8, 5.03204390406608581543e-02) (9, 1.77552849054336547852e-02) (10, -2.22213715314865112305e-02) (11, -1.27535089850425720215e-02) (12, 3.52806970477104187012e-02) (13, -8.51987600326538085938e-02) (14, 9.88030806183815002441e-02) (15, 5.29770329594612121582e-02) (16, -3.71133461594581604004e-02) (17, -5.88934123516082763672e-03) (18, 1.44305601716041564941e-02) (19, -9.83476415276527404785e-02) (20, -5.76596967875957489014e-02) (21, -9.74435955286026000977e-02) (22, -3.87007370591163635254e-02) (23, -3.27618792653083801270e-02) (24, 8.76473560929298400879e-02) (25, -9.97407808899879455566e-02) (26, 7.19653740525245666504e-02) (27, -4.13982644677162170410e-02) (15, -9.34035331010818481445e-03) (16, -4.94317822158336639404e-02) (17, 6.83370456099510192871e-02) (18, 4.65836375951766967773e-03) (19, 3.96291911602020263672e-03) (20, 1.07824355363845825195e-02) (21, 4.37329933047294616699e-02) (22, 7.22054913640022277832e-02) (23, -6.28096759319305419922e-02) (24, -2.48633995652198791504e-02) (25, -8.51949676871299743652e-02) (26, 8.75107571482658386230e-02) (27, 9.28918793797492980957e-02) (15, -7.41633772850036621094e-03) (16, -2.52427533268928527832e-02) (17, 2.81725600361824035645e-02) (18, 7.38489627838134765625e-03) (19, -2.64396816492080688477e-02) (20, -1.88503935933113098145e-02) (21, 7.02715590596199035645e-02) (22, 6.76709786057472229004e-02) (23, 9.55801680684089660645e-02) (24, 7.19239190220832824707e-02) (25, -8.99887233972549438477e-02) (26, 9.81365665793418884277e-02) (27, -6.67768269777297973633e-02) (15, -2.27505937218666076660e-02) (16, 8.57839211821556091309e-02) (17, -6.65176063776016235352e-02) (18, -5.07852211594581604004e-02) (19, -5.56143447756767272949e-02) (20, 2.41420492529869079590e-02) (21, -2.17005610466003417969e-04) (22, -8.72773006558418273926e-02) (23, -7.11995810270309448242e-02) (24, -9.62540730834007263184e-02) (25, 2.35051363706588745117e-02) (26, 7.25334212183952331543e-02) (27, 7.59514048695564270020e-02) (15, 6.06954768300056457520e-02) (16, -5.23299910128116607666e-02) (17, 9.07564386725425720215e-02) (18, 4.82062175869941711426e-02) (19, -5.94381131231784820557e-02) (20, -1.66599005460739135742e-02) (21, -7.70365297794342041016e-02) (22, 6.87344595789909362793e-02) (23, 9.07250121235847473145e-02) (24, -3.47620993852615356445e-03) (25, -5.01159392297267913818e-02) (26, 6.09965547919273376465e-02) (27, -3.58052328228950500488e-02) (15, -5.45357801020145416260e-02) (16, 3.29204723238945007324e-02) (17, -2.57939547300338745117e-02) (18, -5.63992150127887725830e-02) (19, 6.61436393857002258301e-02) (20, 5.14554455876350402832e-02) (21, -7.06152915954589843750e-02) (22, 9.96260568499565124512e-02) (23, -9.93297621607780456543e-02) (24, -2.62296348810195922852e-02) (25, 2.37680897116661071777e-02) (26, 4.53233718872070312500e-04) (27, -1.35069340467453002930e-02) (15, 5.25685027241706848145e-02) (16, 4.19916212558746337891e-03) (17, -9.00017991662025451660e-02) (18, 2.51019224524497985840e-02) (19, -1.98494344949722290039e-02) (20, 7.06936642527580261230e-02) (21, 7.27719292044639587402e-02) (22, -2.90929973125457763672e-02) (23, 1.88998803496360778809e-02) (24, -8.66661816835403442383e-02) (25, 5.42471036314964294434e-02) (26, 4.18633595108985900879e-02) (27, 8.20682719349861145020e-02) (15, 4.49721142649650573730e-02) (16, -6.16128556430339813232e-02) (17, -6.80476725101470947266e-02) (18, 5.96865266561508178711e-03) (19, 2.58191674947738647461e-03) (20, -2.25834399461746215820e-02) (21, -6.11108727753162384033e-02) (22, 7.67879560589790344238e-02) (23, 2.10173353552818298340e-02) (24, -9.49672237038612365723e-02) (25, 2.82434299588203430176e-02) (26, 5.04020527005195617676e-02) (27, -9.53411757946014404297e-02) (15, 2.89136543869972229004e-02) (16, -7.58275985717773437500e-02) (17, 2.84269228577613830566e-02) (18, -7.06331133842468261719e-02) (19, 1.06654614210128784180e-02) (20, -1.90045684576034545898e-02) (21, 3.35660502314567565918e-02) (22, 2.06636637449264526367e-02) (23, -9.39026400446891784668e-02) (24, -8.62833857536315917969e-02) (25, -8.64266604185104370117e-03) (26, 7.88692906498908996582e-02) (27, -1.53763815760612487793e-02) (15, -8.97427871823310852051e-02) (16, 9.22031179070472717285e-02) (17, -6.11292757093906402588e-02) (18, 5.21205738186836242676e-02) (19, 7.42713883519172668457e-02) (20, 8.38428214192390441895e-02) (21, 9.05077084898948669434e-02) (22, -9.37762781977653503418e-02) (23, -1.01885125041007995605e-02) (24, -6.91036880016326904297e-03) (25, -1.63597166538238525391e-02) (26, 2.87006124854087829590e-02) (27, -3.01224142313003540039e-02) (15, -9.53423827886581420898e-02) (16, 3.37333902716636657715e-02) (17, 9.81210097670555114746e-02) (18, 5.50596788525581359863e-02) (19, 3.83922234177589416504e-02) (20, 2.70346626639366149902e-02) (21, 7.92320743203163146973e-02) (22, -3.31808626651763916016e-02) (23, 5.64015582203865051270e-02) (24, -1.01024657487869262695e-02) (25, 4.78145703673362731934e-02) (26, -1.00324004888534545898e-02) (27, -8.94387960433959960938e-02) (28, 5.39119318127632141113e-02) (29, 3.68420779705047607422e-03) (30, 1.91853940486907958984e-03) (31, 3.27812209725379943848e-02) (32, 8.83078351616859436035e-02) (33, 1.21757537126541137695e-02) (34, 2.49843373894691467285e-02) (35, -7.28214457631111145020e-02) (36, -3.57036739587783813477e-02) (37, -7.44268298149108886719e-04) (38, -8.89786183834075927734e-02) (39, -4.51959632337093353271e-02) (28, 5.47945499420166015625e-03) (29, 8.32870602607727050781e-04) (30, 4.78936657309532165527e-02) (31, 8.91197398304939270020e-02) (32, -7.04665109515190124512e-02) (33, -8.22287425398826599121e-02) (34, 9.37773659825325012207e-02) (35, 6.32668808102607727051e-02) (36, -8.41077342629432678223e-02) (37, 4.88370284438133239746e-02) (38, 1.65909528732299804688e-03) (39, 4.29269298911094665527e-02) (28, 2.80691012740135192871e-02) (29, 6.84782341122627258301e-02) (30, -6.71520829200744628906e-04) (31, -8.20333585143089294434e-02) (32, 1.62928104400634765625e-02) (33, 8.92960801720619201660e-02) (34, -7.14721530675888061523e-02) (35, -2.97952666878700256348e-02) (36, -7.01971352100372314453e-03) (37, 3.04463878273963928223e-02) (38, -9.70140397548675537109e-02) (39, -1.87118798494338989258e-02) (28, -5.73778599500656127930e-02) (29, 2.79703065752983093262e-02) (30, 8.46667587757110595703e-03) (31, 6.91846758127212524414e-03) (32, -7.27739632129669189453e-02) (33, 1.94880589842796325684e-02) (34, 6.17225095629692077637e-02) (35, 3.27054932713508605957e-02) (36, -7.96790644526481628418e-02) (37, 9.61617380380630493164e-03) (38, 2.18252316117286682129e-02) (39, -5.01455776393413543701e-02) (28, 2.73874327540397644043e-02) (29, 1.56025886535644531250e-02) (30, -8.68786945939064025879e-02) (31, 4.32796850800514221191e-02) (32, -3.55603843927383422852e-02) (33, 1.47804021835327148438e-02) (34, -1.37933865189552307129e-02) (35, 9.25087258219718933105e-02) (36, -1.67413651943206787109e-02) (37, 8.55351015925407409668e-02) (38, -8.95246416330337524414e-02) (39, 9.95514467358589172363e-02) (28, 7.48311802744865417480e-02) (29, -6.09967932105064392090e-02) (30, -3.02438288927078247070e-02) (31, -3.21885421872138977051e-02) (32, 6.94495961070060729980e-02) (33, -2.72578671574592590332e-02) (34, 4.90995869040489196777e-02) (35, -8.79282653331756591797e-02) (36, -9.92875620722770690918e-02) (37, -4.24337387084960937500e-02) (38, 1.89901962876319885254e-02) (39, -7.20615312457084655762e-02) (28, 7.70543292164802551270e-02) (29, -1.92873030900955200195e-02) (30, 6.06439635157585144043e-02) (31, 9.73752662539482116699e-02) (32, 9.03288796544075012207e-02) (33, -1.75308138132095336914e-02) (34, -5.27703128755092620850e-02) (35, 1.77163034677505493164e-02) (36, 9.80717763304710388184e-02) (37, -3.96490097045898437500e-02) (38, -3.90040166676044464111e-02) (39, -3.74885946512222290039e-02) (28, 7.51313939690589904785e-02) (29, 4.72025945782661437988e-02) (30, -4.49798814952373504639e-02) (31, -4.16099801659584045410e-02) (32, 3.27376946806907653809e-02) (33, -3.45045179128646850586e-02) (34, -4.20585386455059051514e-02) (35, 7.56885856389999389648e-03) (36, 4.49868291616439819336e-03) (37, 2.76976302266120910645e-02) (38, 7.53803327679634094238e-02) (39, -2.60517150163650512695e-02) (28, -9.95602309703826904297e-02) (29, 2.44799032807350158691e-02) (30, -1.39799863100051879883e-02) (31, -9.88477990031242370605e-02) (32, 8.20461586117744445801e-02) (33, -9.49897915124893188477e-02) (34, -7.09093213081359863281e-02) (35, 5.91005012392997741699e-02) (36, -1.42770856618881225586e-02) (37, 8.97346362471580505371e-02) (38, 5.64757660031318664551e-02) (39, -2.39482223987579345703e-02) (28, -2.77961716055870056152e-02) (29, -9.62945595383644104004e-02) (30, 9.37680676579475402832e-02) (31, -2.97243893146514892578e-02) (32, -3.59435677528381347656e-02) (33, -4.52359430491924285889e-02) (34, 3.27870175242424011230e-02) (35, -6.08121827244758605957e-02) (36, -9.80333462357521057129e-02) (37, 8.78071263432502746582e-02) (38, -2.42216140031814575195e-03) (39, 3.47043499350547790527e-02) 
