FANN_FLO_2.1
num_layers=4
learning_rate=0.700000
connection_rate=1.000000
network_type=0
learning_momentum=0.000000
training_algorithm=2
train_error_function=1
train_stop_function=0
cascade_output_change_fraction=0.010000
quickprop_decay=-0.000100
quickprop_mu=1.750000
rprop_increase_factor=1.200000
rprop_decrease_factor=0.500000
rprop_delta_min=0.000000
rprop_delta_max=50.000000
rprop_delta_zero=0.100000
cascade_output_stagnation_epochs=12
cascade_candidate_change_fraction=0.010000
cascade_candidate_stagnation_epochs=12
cascade_max_out_epochs=150
cascade_min_out_epochs=50
cascade_max_cand_epochs=150
cascade_min_cand_epochs=50
cascade_num_candidate_groups=2
bit_fail_limit=3.49999994039535522461e-01
cascade_candidate_limit=1.00000000000000000000e+03
cascade_weight_multiplier=4.00000005960464477539e-01
cascade_activation_functions_count=10
cascade_activation_functions=3 5 7 8 10 11 14 15 16 17 
cascade_activation_steepnesses_count=4
cascade_activation_steepnesses=2.50000000000000000000e-01 5.00000000000000000000e-01 7.50000000000000000000e-01 1.00000000000000000000e+00 
layer_sizes=5 5 5 5 
scale_included=0
neurons (num_inputs, activation_function, activation_steepness)=(0, 0, 0.00000000000000000000e+00) (0, 0, 0.00000000000000000000e+00) (0, 0, 0.00000000000000000000e+00) (0, 0, 0.00000000000000000000e+00) (0, 0, 0.00000000000000000000e+00) (5, 5, 5.00000000000000000000e-01) (5, 5, 5.00000000000000000000e-01) (5, 5, 5.00000000000000000000e-01) (5, 5, 5.00000000000000000000e-01) (0, 5, 0.00000000000000000000e+00) (5, 5, 5.00000000000000000000e-01) (5, 5, 5.00000000000000000000e-01) (5, 5, 5.00000000000000000000e-01) (5, 5, 5.00000000000000000000e-01) (0, 5, 0.00000000000000000000e+00) (5, 5, 5.00000000000000000000e-01) (5, 5, 5.00000000000000000000e-01) (5, 5, 5.00000000000000000000e-01) (5, 5, 5.00000000000000000000e-01) (0, 5, 0.00000000000000000000e+00) 
connections (connected_to_neuron, weight)=(0, 1.90315395593643188477e-02) (1, -1.35669633746147155762e-02) (2, -8.69593769311904907227e-02) (3, -6.27324879169464111328e-02) (4, 4.61704209446907043457e-02) (0, -6.07328750193119049072e-02) (1, 8.63934233784675598145e-02) (2, -8.95602852106094360352e-02) (3, 5.80404773354530334473e-02) (4, 8.09731334447860717773e-03) (0, 1.66323035955429077148e-02) (1, -5.75008727610111236572e-02) (2, -5.21772615611553192139e-02) (3, -7.20359385013580322266e-02) (4, 6.74925670027732849121e-02) (0, 7.34516158699989318848e-02) (1, 8.48762765526771545410e-02) (2, 5.03440946340560913086e-03) (3, -2.74010002613067626953e-02) (4, 8.75133275985717773438e-03) (5, 8.85493233799934387207e-02) (6, -4.35874722898006439209e-02) (7, -2.66009420156478881836e-02) (8, -7.10826814174652099609e-02) (9, 3.92141863703727722168e-02) (5, 4.86901476979255676270e-02) (6, -8.99912565946578979492e-02) (7, 6.77712783217430114746e-02) (8, 7.92978703975677490234e-03) (9, -7.71592110395431518555e-02) (5, -4.88740280270576477051e-02) (6, -7.30386674404144287109e-02) (7, 9.27382707595825195312e-03) (8, -3.58334034681320190430e-02) (9, -3.57711538672447204590e-02) (5, -4.45557534694671630859e-02) (6, 3.43372672796249389648e-03) (7, -4.93777282536029815674e-02) (8, -3.41160297393798828125e-02) (9, -3.85257974267005920410e-02) (10, 5.87195828557014465332e-02) (11, 8.25162753462791442871e-02) (12, 3.97332757711410522461e-03) (13, -9.34576764702796936035e-02) (14, -8.95196571946144104004e-02) (10, -2.85340994596481323242e-02) (11, 7.99939408898353576660e-02) (12, 9.53566208481788635254e-02) (13, 7.65003040432929992676e-02) (14, -4.74070608615875244141e-02) (10, 4.10796701908111572266e-03) (11, 6.50496259331703186035e-02) (12, 9.00547206401824951172e-03) (13, 7.75070264935493469238e-02) (14, 9.39669534564018249512e-02) (10, -5.17803467810153961182e-02) (11, 2.61971578001976013184e-02) (12, -9.60243046283721923828e-02) (13, -8.40090662240982055664e-02) (14, -6.58730417490005493164e-02) 
