FANN_FLO_2.1
num_layers=4
learning_rate=0.700000
connection_rate=1.000000
network_type=0
learning_momentum=0.000000
training_algorithm=2
train_error_function=1
train_stop_function=0
cascade_output_change_fraction=0.010000
quickprop_decay=-0.000100
quickprop_mu=1.750000
rprop_increase_factor=1.200000
rprop_decrease_factor=0.500000
rprop_delta_min=0.000000
rprop_delta_max=50.000000
rprop_delta_zero=0.100000
cascade_output_stagnation_epochs=12
cascade_candidate_change_fraction=0.010000
cascade_candidate_stagnation_epochs=12
cascade_max_out_epochs=150
cascade_min_out_epochs=50
cascade_max_cand_epochs=150
cascade_min_cand_epochs=50
cascade_num_candidate_groups=2
bit_fail_limit=3.49999994039535522461e-01
cascade_candidate_limit=1.00000000000000000000e+03
cascade_weight_multiplier=4.00000005960464477539e-01
cascade_activation_functions_count=10
cascade_activation_functions=3 5 7 8 10 11 14 15 16 17 
cascade_activation_steepnesses_count=4
cascade_activation_steepnesses=2.50000000000000000000e-01 5.00000000000000000000e-01 7.50000000000000000000e-01 1.00000000000000000000e+00 
layer_sizes=15 13 12 11 
scale_included=0
neurons (num_inputs, activation_function, activation_steepness)=(0, 0, 0.00000000000000000000e+00) (0, 0, 0.00000000000000000000e+00) (0, 0, 0.00000000000000000000e+00) (0, 0, 0.00000000000000000000e+00) (0, 0, 0.00000000000000000000e+00) (0, 0, 0.00000000000000000000e+00) (0, 0, 0.00000000000000000000e+00) (0, 0, 0.00000000000000000000e+00) (0, 0, 0.00000000000000000000e+00) (0, 0, 0.00000000000000000000e+00) (0, 0, 0.00000000000000000000e+00) (0, 0, 0.00000000000000000000e+00) (0, 0, 0.00000000000000000000e+00) (0, 0, 0.00000000000000000000e+00) (0, 0, 0.00000000000000000000e+00) (15, 5, 5.00000000000000000000e-01) (15, 5, 5.00000000000000000000e-01) (15, 5, 5.00000000000000000000e-01) (15, 5, 5.00000000000000000000e-01) (15, 5, 5.00000000000000000000e-01) (15, 5, 5.00000000000000000000e-01) (15, 5, 5.00000000000000000000e-01) (15, 5, 5.00000000000000000000e-01) (15, 5, 5.00000000000000000000e-01) (15, 5, 5.00000000000000000000e-01) (15, 5, 5.00000000000000000000e-01) (15, 5, 5.00000000000000000000e-01) (0, 5, 0.00000000000000000000e+00) (13, 5, 5.00000000000000000000e-01) (13, 5, 5.00000000000000000000e-01) (13, 5, 5.00000000000000000000e-01) (13, 5, 5.00000000000000000000e-01) (13, 5, 5.00000000000000000000e-01) (13, 5, 5.00000000000000000000e-01) (13, 5, 5.00000000000000000000e-01) (13, 5, 5.00000000000000000000e-01) (13, 5, 5.00000000000000000000e-01) (13, 5, 5.00000000000000000000e-01) (13, 5, 5.00000000000000000000e-01) (0, 5, 0.00000000000000000000e+00) (12, 5, 5.00000000000000000000e-01) (12, 5, 5.00000000000000000000e-01) (12, 5, 5.00000000000000000000e-01) (12, 5, 5.00000000000000000000e-01) (12, 5, 5.00000000000000000000e-01) (12, 5, 5.00000000000000000000e-01) (12, 5, 5.00000000000000000000e-01) (12, 5, 5.00000000000000000000e-01) (12, 5, 5.00000000000000000000e-01) (12, 5, 5.00000000000000000000e-01) (0, 5, 0.00000000000000000000e+00) 
connections (connected_to_neuron, weight)=(0, -1.77986994385719299316e-02) (1, -8.50698277354240417480e-02) (2, 9.36701893806457519531e-04) (3, -7.10512995719909667969e-02) (4, -7.61339068412780761719e-03) (5, 7.14642032980918884277e-02) (6, -4.67710196971893310547e-03) (7, -4.50056307017803192139e-02) (8, -2.26145610213279724121e-02) (9, -4.17918860912322998047e-02) (10, -7.84119144082069396973e-02) (11, -1.10199898481369018555e-02) (12, 8.22886005043983459473e-02) (13, -6.20335340499877929688e-05) (14, -5.45711629092693328857e-02) (0, -2.82509997487068176270e-02) (1, -6.20353221893310546875e-02) (2, 4.04068306088447570801e-02) (3, -3.50413173437118530273e-02) (4, -9.57894921302795410156e-02) (5, 6.06364682316780090332e-02) (6, -4.45667095482349395752e-02) (7, 5.15236929059028625488e-02) (8, -7.11273849010467529297e-02) (9, 7.98680707812309265137e-02) (10, -5.82538545131683349609e-02) (11, 2.84163132309913635254e-02) (12, -2.80280262231826782227e-02) (13, -8.30868482589721679688e-02) (14, 7.34668001532554626465e-02) (0, 5.26284649968147277832e-02) (1, -8.85538756847381591797e-04) (2, 8.83969739079475402832e-02) (3, -4.64348457753658294678e-02) (4, 2.80631557106971740723e-02) (5, -1.92164182662963867188e-02) (6, -7.49706402420997619629e-02) (7, -7.66139402985572814941e-02) (8, 3.57779487967491149902e-02) (9, 2.41480022668838500977e-03) (10, -1.84058248996734619141e-02) (11, 5.73660358786582946777e-02) (12, 9.13948044180870056152e-02) (13, -3.61172184348106384277e-02) (14, -4.26959991455078125000e-02) (0, -6.31763562560081481934e-02) (1, 3.56317833065986633301e-02) (2, -4.73131984472274780273e-03) (3, 7.72304758429527282715e-02) (4, -9.94095355272293090820e-02) (5, -5.20810484886169433594e-04) (6, 3.78669574856758117676e-02) (7, -4.39762473106384277344e-02) (8, -4.89971041679382324219e-02) (9, 6.67395666241645812988e-02) (10, -6.41081780195236206055e-02) (11, -7.25095719099044799805e-03) (12, -4.84412908554077148438e-03) (13, 7.86379724740982055664e-03) (14, 9.66219604015350341797e-03) (0, -3.13773304224014282227e-02) (1, -3.95077429711818695068e-02) (2, -9.12233442068099975586e-02) (3, -4.29803617298603057861e-02) (4, 1.40574201941490173340e-02) (5, 3.68398204445838928223e-02) (6, 3.78032252192497253418e-02) (7, 3.90867814421653747559e-02) (8, 6.02258816361427307129e-02) (9, -2.64188200235366821289e-02) (10, -5.84984235465526580811e-02) (11, -5.81799484789371490479e-02) (12, -6.90527856349945068359e-02) (13, -6.71036243438720703125e-02) (14, 5.70283085107803344727e-03) (0, -1.17487832903861999512e-02) (1, -3.02799791097640991211e-02) (2, -5.86653910577297210693e-02) (3, 8.35198983550071716309e-02) (4, -5.30495010316371917725e-02) (5, -5.80749250948429107666e-02) (6, -1.70009061694145202637e-02) (7, 8.48174467682838439941e-02) (8, -2.05117464065551757812e-03) (9, 3.40019837021827697754e-02) (10, 5.15570119023323059082e-02) (11, 3.38406637310981750488e-02) (12, -7.32489749789237976074e-02) (13, -5.32871261239051818848e-02) (14, -5.82955516874790191650e-02) (0, 3.64132151007652282715e-02) (1, 1.53355374932289123535e-02) (2, 2.19671428203582763672e-03) (3, 4.51898649334907531738e-02) (4, 7.23551735281944274902e-02) (5, -8.37458670139312744141e-02) (6, -1.79703086614608764648e-02) (7, 1.01583972573280334473e-02) (8, 5.53409084677696228027e-02) (9, -5.77444359660148620605e-02) (10, 8.37395861744880676270e-02) (11, 9.68424752354621887207e-02) (12, -1.59243792295455932617e-02) (13, -8.53132084012031555176e-02) (14, -7.02611356973648071289e-02) (0, 8.97784456610679626465e-02) (1, 2.93800979852676391602e-03) (2, -5.41105866432189941406e-04) (3, -6.88869431614875793457e-02) (4, -1.35420933365821838379e-02) (5, 4.64093908667564392090e-02) (6, -2.69618704915046691895e-02) (7, 6.94570019841194152832e-02) (8, 3.12268361449241638184e-02) (9, 7.09869638085365295410e-02) (10, 3.45899164676666259766e-03) (11, -1.72161534428596496582e-02) (12, 4.82760369777679443359e-03) (13, 3.02100107073783874512e-02) (14, 2.94967219233512878418e-02) (0, 4.65320572257041931152e-02) (1, -3.33767682313919067383e-02) (2, -5.51677383482456207275e-02) (3, -5.12712262570858001709e-02) (4, -8.81868973374366760254e-02) (5, -8.28125625848770141602e-02) (6, -3.50170955061912536621e-02) (7, -6.15720450878143310547e-03) (8, 2.73458436131477355957e-02) (9, -7.96761885285377502441e-02) (10, 3.60983684659004211426e-02) (11, 1.10854133963584899902e-02) (12, -8.28337073326110839844e-02) (13, -7.98260271549224853516e-02) (14, 2.57722064852714538574e-02) (0, -5.30948452651500701904e-02) (1, -9.00475829839706420898e-02) (2, -7.12897926568984985352e-02) (3, 4.63640466332435607910e-02) (4, -5.89345209300518035889e-02) (5, 1.51681154966354370117e-02) (6, -7.22655653953552246094e-03) (7, 1.41036063432693481445e-02) (8, -1.53748840093612670898e-02) (9, -7.59997218847274780273e-02) (10, -1.49094313383102416992e-02) (11, 8.80841091275215148926e-02) (12, 6.78412616252899169922e-03) (13, 8.99181887507438659668e-02) (14, 1.82941108942031860352e-02) (0, -6.37191534042358398438e-02) (1, 3.64502444863319396973e-02) (2, 8.49173441529273986816e-02) (3, -1.88868865370750427246e-02) (4, 8.51790085434913635254e-02) (5, 9.67304483056068420410e-02) (6, -1.69944763183593750000e-03) (7, -4.98380847275257110596e-02) (8, -9.42675769329071044922e-03) (9, -7.43536055088043212891e-02) (10, -2.95142754912376403809e-02) (11, -7.33284056186676025391e-02) (12, 3.67318019270896911621e-02) (13, -1.23479813337326049805e-02) (14, -5.31544312834739685059e-02) (0, -3.74959856271743774414e-02) (1, 3.45571711659431457520e-02) (2, -4.32020090520381927490e-02) (3, -8.78577679395675659180e-03) (4, -1.90787762403488159180e-02) (5, -2.13652849197387695312e-03) (6, -9.36176627874374389648e-02) (7, 7.36946687102317810059e-02) (8, -8.80329236388206481934e-02) (9, -8.99254530668258666992e-03) (10, 9.76949408650398254395e-02) (11, -2.94235348701477050781e-03) (12, -2.09084451198577880859e-02) (13, 4.47907298803329467773e-03) (14, -1.30241662263870239258e-02) (15, 9.73856672644615173340e-02) (16, 4.07599285244941711426e-02) (17, -7.65739306807518005371e-02) (18, 8.23029950261116027832e-02) (19, -7.81269595026969909668e-02) (20, -9.13949161767959594727e-02) (21, 7.90334418416023254395e-02) (22, 2.01735943555831909180e-02) (23, -4.12330031394958496094e-02) (24, -3.03933173418045043945e-02) (25, 4.58199903368949890137e-02) (26, 2.92527154088020324707e-02) (27, -3.72172147035598754883e-03) (15, -1.74482092261314392090e-02) (16, -8.30952599644660949707e-02) (17, 4.31238487362861633301e-02) (18, 4.50557991862297058105e-02) (19, 5.14619126915931701660e-02) (20, 9.99218448996543884277e-02) (21, -6.37299865484237670898e-02) (22, -6.76168650388717651367e-02) (23, -2.21468508243560791016e-03) (24, -5.73476441204547882080e-02) (25, -9.39221903681755065918e-02) (26, 9.75239276885986328125e-03) (27, 3.36598083376884460449e-02) (15, -9.62272435426712036133e-02) (16, -9.31899622082710266113e-02) (17, -8.72486382722854614258e-02) (18, 8.25184583663940429688e-03) (19, -6.21412694454193115234e-03) (20, -8.98629724979400634766e-02) (21, -5.09882308542728424072e-02) (22, 1.72119364142417907715e-02) (23, 9.24400314688682556152e-02) (24, -2.91151851415634155273e-02) (25, 2.58170291781425476074e-02) (26, 7.14734867215156555176e-02) (27, 9.10584107041358947754e-02) (15, 8.45840200781822204590e-02) (16, -5.89198395609855651855e-02) (17, 3.68783995509147644043e-02) (18, 1.38367414474487304688e-02) (19, 3.73584553599357604980e-02) (20, -8.05698186159133911133e-02) (21, 3.07414755225181579590e-02) (22, -1.95177048444747924805e-02) (23, 6.44859746098518371582e-02) (24, -1.77966058254241943359e-02) (25, -1.95958539843559265137e-02) (26, -9.92439985275268554688e-02) (27, 1.45865455269813537598e-02) (15, 7.81894549727439880371e-02) (16, -5.65916448831558227539e-02) (17, 2.06643491983413696289e-02) (18, -1.20581462979316711426e-02) (19, 7.70681574940681457520e-02) (20, 2.44371071457862854004e-02) (21, -5.24810701608657836914e-03) (22, 8.98195281624794006348e-02) (23, -6.73110485076904296875e-02) (24, 8.85377600789070129395e-02) (25, 9.99565646052360534668e-02) (26, -1.82992815971374511719e-02) (27, 5.74970245361328125000e-03) (15, 9.23965796828269958496e-02) (16, 5.25855347514152526855e-02) (17, -6.84332773089408874512e-02) (18, 6.38700649142265319824e-02) (19, 4.36439439654350280762e-02) (20, -8.38492587208747863770e-02) (21, -9.50497761368751525879e-02) (22, -1.94776654243469238281e-02) (23, 2.99874767661094665527e-02) (24, 4.23086658120155334473e-02) (25, -4.74900007247924804688e-05) (26, -3.92710380256175994873e-02) (27, -7.72090330719947814941e-02) (15, -3.55615019798278808594e-02) (16, 4.29323539137840270996e-02) (17, 3.19512188434600830078e-03) (18, -3.48055064678192138672e-02) (19, -4.24811020493507385254e-02) (20, -1.86154246330261230469e-02) (21, 8.60285758972167968750e-03) (22, 7.81832411885261535645e-02) (23, 6.93264231085777282715e-02) (24, -1.43289789557456970215e-02) (25, 2.62035429477691650391e-03) (26, -3.59216779470443725586e-02) (27, -2.45094522833824157715e-02) (15, 3.53093072772026062012e-02) (16, -4.73839156329631805420e-02) (17, -2.45528966188430786133e-02) (18, -8.29899758100509643555e-02) (19, 5.83657845854759216309e-02) (20, -3.21563109755516052246e-02) (21, 6.95955678820610046387e-02) (22, 8.99325087666511535645e-02) (23, -6.82862550020217895508e-02) (24, 1.32395029067993164062e-02) (25, -9.39167439937591552734e-02) (26, -6.33360296487808227539e-02) (27, 9.37618389725685119629e-02) (15, 3.60707417130470275879e-02) (16, 7.89726451039314270020e-02) (17, -6.28565251827239990234e-03) (18, 9.67996940016746520996e-02) (19, -9.82363894581794738770e-02) (20, 5.81528469920158386230e-02) (21, 3.97320613265037536621e-02) (22, 4.95872646570205688477e-03) (23, -7.66526609659194946289e-02) (24, 9.72509607672691345215e-02) (25, 8.63432958722114562988e-02) (26, 3.19501832127571105957e-02) (27, 7.54342153668403625488e-02) (15, 5.56697323918342590332e-02) (16, -8.23787897825241088867e-02) (17, -2.19454392790794372559e-02) (18, -8.02519544959068298340e-02) (19, -6.88824802637100219727e-03) (20, -8.66361409425735473633e-02) (21, -2.76358649134635925293e-02) (22, 6.85588642954826354980e-02) (23, -6.96261078119277954102e-02) (24, -6.92700818181037902832e-02) (25, -6.35974556207656860352e-02) (26, 9.99694541096687316895e-02) (27, -7.93375670909881591797e-02) (15, -3.18837016820907592773e-02) (16, 1.32089480757713317871e-02) (17, -7.32543170452117919922e-02) (18, 4.78027015924453735352e-03) (19, 6.97078555822372436523e-03) (20, 6.28164187073707580566e-02) (21, -1.62470862269401550293e-02) (22, -9.93148684501647949219e-02) (23, 5.96161261200904846191e-02) (24, -1.44834741950035095215e-02) (25, 5.88379725813865661621e-02) (26, -6.51814043521881103516e-04) (27, 9.04752537608146667480e-02) (28, 8.21853205561637878418e-02) (29, -3.40085476636886596680e-03) (30, 7.68185481429100036621e-02) (31, 1.41355022788047790527e-02) (32, -2.79666557908058166504e-02) (33, 3.24882790446281433105e-02) (34, 3.17567214369773864746e-02) (35, 5.00879064202308654785e-02) (36, 5.22363260388374328613e-02) (37, -7.51315280795097351074e-02) (38, 6.34517744183540344238e-02) (39, -7.53995478153228759766e-02) (28, 9.34273377060890197754e-02) (29, 9.38256457448005676270e-02) (30, -4.46696281433105468750e-02) (31, -7.01701194047927856445e-02) (32, 9.37950983643531799316e-02) (33, -2.40072011947631835938e-02) (34, -2.05382704734802246094e-03) (35, 7.00404495000839233398e-03) (36, 2.73849070072174072266e-03) (37, -9.72735583782196044922e-02) (38, -8.60251709818840026855e-02) (39, -3.44450920820236206055e-02) (28, -1.35206505656242370605e-02) (29, -8.53400379419326782227e-02) (30, -7.48289674520492553711e-02) (31, 7.19958618283271789551e-02) (32, 7.34979435801506042480e-02) (33, 2.45192199945449829102e-02) (34, 6.24711140990257263184e-02) (35, 5.56832626461982727051e-02) (36, -7.88816437125205993652e-02) (37, 3.92896607518196105957e-02) (38, -3.01812291145324707031e-02) (39, -6.84829056262969970703e-03) (28, -2.82220616936683654785e-02) (29, -9.84245166182518005371e-02) (30, -5.67603930830955505371e-02) (31, -7.59857445955276489258e-02) (32, -7.35560357570648193359e-02) (33, -9.33086276054382324219e-02) (34, -5.13852909207344055176e-02) (35, -8.01287069916725158691e-02) (36, -9.94829684495925903320e-02) (37, 3.94507497549057006836e-03) (38, -5.02988323569297790527e-02) (39, 9.43121388554573059082e-02) (28, 7.99378827214241027832e-02) (29, 4.76473495364189147949e-02) (30, 1.31618976593017578125e-03) (31, -1.73236355185508728027e-02) (32, 5.03737851977348327637e-02) (33, 1.52910202741622924805e-02) (34, 4.82312664389610290527e-02) (35, -6.31468743085861206055e-02) (36, 2.99509838223457336426e-02) (37, 7.34022930264472961426e-02) (38, -9.11509990692138671875e-02) (39, 3.44892591238021850586e-03) (28, -2.07848846912384033203e-03) (29, 7.13201239705085754395e-02) (30, -4.08678129315376281738e-02) (31, 1.90398693084716796875e-02) (32, 1.06097906827926635742e-02) (33, 2.89509519934654235840e-02) (34, -8.78084227442741394043e-02) (35, 8.23877379298210144043e-02) (36, 3.05264368653297424316e-02) (37, -4.45688143372535705566e-02) (38, -9.35980156064033508301e-02) (39, 5.69704100489616394043e-02) (28, -3.78774367272853851318e-02) (29, -4.49833050370216369629e-02) (30, 7.68416896462440490723e-02) (31, -3.73604074120521545410e-02) (32, 5.89617714285850524902e-02) (33, -7.34571367502212524414e-02) (34, -4.30482700467109680176e-02) (35, 3.88996526598930358887e-02) (36, 7.41902068257331848145e-02) (37, 5.82679137587547302246e-02) (38, -7.84239843487739562988e-02) (39, 2.45639905333518981934e-02) (28, -2.64410674571990966797e-02) (29, 6.98072984814643859863e-02) (30, 6.14171102643013000488e-02) (31, -9.64900851249694824219e-02) (32, 4.32095900177955627441e-02) (33, 7.02661350369453430176e-02) (34, 6.95884227752685546875e-03) (35, -5.88688999414443969727e-02) (36, 4.15862426161766052246e-02) (37, 6.60910233855247497559e-02) (38, 6.01709708571434020996e-02) (39, -4.78039644658565521240e-02) (28, -4.95801866054534912109e-03) (29, 7.23625496029853820801e-02) (30, -6.54162317514419555664e-02) (31, -7.44315758347511291504e-02) (32, -7.22062662243843078613e-02) (33, -5.90142495930194854736e-02) (34, 8.25388208031654357910e-02) (35, -1.00836977362632751465e-02) (36, -3.99754941463470458984e-03) (37, 5.93805238604545593262e-02) (38, 5.25558963418006896973e-02) (39, -4.50357794761657714844e-02) (28, 8.59233811497688293457e-02) (29, -9.04923826456069946289e-02) (30, 9.38638821244239807129e-02) (31, 6.01135864853858947754e-02) (32, 6.77755400538444519043e-02) (33, -8.45601111650466918945e-02) (34, -1.53224244713783264160e-02) (35, -5.86655326187610626221e-02) (36, 8.52471813559532165527e-02) (37, -5.39053045213222503662e-02) (38, -5.51556162536144256592e-02) (39, 2.84567549824714660645e-02) 
