FANN_FLO_2.1
num_layers=4
learning_rate=0.700000
connection_rate=1.000000
network_type=0
learning_momentum=0.000000
training_algorithm=2
train_error_function=1
train_stop_function=0
cascade_output_change_fraction=0.010000
quickprop_decay=-0.000100
quickprop_mu=1.750000
rprop_increase_factor=1.200000
rprop_decrease_factor=0.500000
rprop_delta_min=0.000000
rprop_delta_max=50.000000
rprop_delta_zero=0.100000
cascade_output_stagnation_epochs=12
cascade_candidate_change_fraction=0.010000
cascade_candidate_stagnation_epochs=12
cascade_max_out_epochs=150
cascade_min_out_epochs=50
cascade_max_cand_epochs=150
cascade_min_cand_epochs=50
cascade_num_candidate_groups=2
bit_fail_limit=3.49999994039535522461e-01
cascade_candidate_limit=1.00000000000000000000e+03
cascade_weight_multiplier=4.00000005960464477539e-01
cascade_activation_functions_count=10
cascade_activation_functions=3 5 7 8 10 11 14 15 16 17 
cascade_activation_steepnesses_count=4
cascade_activation_steepnesses=2.50000000000000000000e-01 5.00000000000000000000e-01 7.50000000000000000000e-01 1.00000000000000000000e+00 
layer_sizes=11 11 11 11 
scale_included=0
neurons (num_inputs, activation_function, activation_steepness)=(0, 0, 0.00000000000000000000e+00) (0, 0, 0.00000000000000000000e+00) (0, 0, 0.00000000000000000000e+00) (0, 0, 0.00000000000000000000e+00) (0, 0, 0.00000000000000000000e+00) (0, 0, 0.00000000000000000000e+00) (0, 0, 0.00000000000000000000e+00) (0, 0, 0.00000000000000000000e+00) (0, 0, 0.00000000000000000000e+00) (0, 0, 0.00000000000000000000e+00) (0, 0, 0.00000000000000000000e+00) (11, 5, 5.00000000000000000000e-01) (11, 5, 5.00000000000000000000e-01) (11, 5, 5.00000000000000000000e-01) (11, 5, 5.00000000000000000000e-01) (11, 5, 5.00000000000000000000e-01) (11, 5, 5.00000000000000000000e-01) (11, 5, 5.00000000000000000000e-01) (11, 5, 5.00000000000000000000e-01) (11, 5, 5.00000000000000000000e-01) (11, 5, 5.00000000000000000000e-01) (0, 5, 0.00000000000000000000e+00) (11, 5, 5.00000000000000000000e-01) (11, 5, 5.00000000000000000000e-01) (11, 5, 5.00000000000000000000e-01) (11, 5, 5.00000000000000000000e-01) (11, 5, 5.00000000000000000000e-01) (11, 5, 5.00000000000000000000e-01) (11, 5, 5.00000000000000000000e-01) (11, 5, 5.00000000000000000000e-01) (11, 5, 5.00000000000000000000e-01) (11, 5, 5.00000000000000000000e-01) (0, 5, 0.00000000000000000000e+00) (11, 5, 5.00000000000000000000e-01) (11, 5, 5.00000000000000000000e-01) (11, 5, 5.00000000000000000000e-01) (11, 5, 5.00000000000000000000e-01) (11, 5, 5.00000000000000000000e-01) (11, 5, 5.00000000000000000000e-01) (11, 5, 5.00000000000000000000e-01) (11, 5, 5.00000000000000000000e-01) (11, 5, 5.00000000000000000000e-01) (11, 5, 5.00000000000000000000e-01) (0, 5, 0.00000000000000000000e+00) 
connections (connected_to_neuron, weight)=(0, 2.06052809953689575195e-02) (1, 2.18611955642700195312e-02) (2, 4.38135936856269836426e-02) (3, -1.46621316671371459961e-02) (4, -1.71757787466049194336e-02) (5, -1.50399878621101379395e-02) (6, 7.68067911267280578613e-02) (7, 2.82885134220123291016e-03) (8, 3.68329510092735290527e-02) (9, 6.59611597657203674316e-02) (10, 9.23680141568183898926e-02) (0, 6.77742734551429748535e-02) (1, 3.83473932743072509766e-03) (2, 9.92497280240058898926e-02) (3, -8.57991427183151245117e-02) (4, -2.37188488245010375977e-02) (5, 9.26647335290908813477e-03) (6, 9.21653136610984802246e-02) (7, -7.00947567820549011230e-02) (8, 6.57249465584754943848e-02) (9, -5.52428290247917175293e-02) (10, -1.27445310354232788086e-02) (0, 8.22293832898139953613e-02) (1, 9.51806977391242980957e-02) (2, -8.06380063295364379883e-02) (3, -8.74146670103073120117e-02) (4, -8.73107388615608215332e-02) (5, 7.69240483641624450684e-02) (6, -4.69340570271015167236e-02) (7, -2.13679224252700805664e-02) (8, -9.99756902456283569336e-03) (9, 7.36712291836738586426e-02) (10, -9.95067209005355834961e-02) (0, -6.61839842796325683594e-02) (1, -4.09909188747406005859e-02) (2, -1.66824981570243835449e-02) (3, 1.87760218977928161621e-02) (4, -6.41841292381286621094e-02) (5, 8.61463472247123718262e-02) (6, -4.43910174071788787842e-02) (7, -9.82229635119438171387e-02) (8, 7.85143598914146423340e-02) (9, -7.66167491674423217773e-02) (10, 5.61177730560302734375e-03) (0, 7.77640715241432189941e-02) (1, -6.24158866703510284424e-02) (2, 8.18929150700569152832e-02) (3, -1.29694491624832153320e-02) (4, -7.02505707740783691406e-02) (5, -8.82018357515335083008e-02) (6, -4.72445003688335418701e-02) (7, -2.54933983087539672852e-02) (8, -9.46365296840667724609e-04) (9, -6.50151222944259643555e-02) (10, -3.03127020597457885742e-02) (0, 1.84156298637390136719e-02) (1, -5.24297840893268585205e-02) (2, -1.76234394311904907227e-02) (3, -4.66032326221466064453e-03) (4, 6.36160373687744140625e-04) (5, 6.10086396336555480957e-02) (6, 8.53421166539192199707e-02) (7, -2.56926268339157104492e-02) (8, 6.15019276738166809082e-02) (9, -8.08418765664100646973e-02) (10, 3.33164557814598083496e-02) (0, -5.51805794239044189453e-02) (1, 3.79341468214988708496e-02) (2, 6.91323354840278625488e-02) (3, -6.90342336893081665039e-02) (4, 9.35431346297264099121e-02) (5, 7.09093734622001647949e-02) (6, -9.05198752880096435547e-02) (7, -8.30736160278320312500e-02) (8, -2.34788507223129272461e-02) (9, 8.72442051768302917480e-02) (10, -4.54895012080669403076e-02) (0, -4.15859296917915344238e-02) (1, -2.57252529263496398926e-02) (2, -1.57400742173194885254e-02) (3, -2.97877639532089233398e-02) (4, 2.70302370190620422363e-02) (5, 5.87665215134620666504e-02) (6, 6.92658647894859313965e-02) (7, 6.20151236653327941895e-02) (8, -7.15461745858192443848e-02) (9, -1.23185068368911743164e-02) (10, -9.04146581888198852539e-02) (0, 1.08303800225257873535e-02) (1, 8.30211713910102844238e-02) (2, 1.02215036749839782715e-02) (3, -2.81609743833541870117e-02) (4, 6.83632865548133850098e-02) (5, 8.45288857817649841309e-02) (6, -6.66590556502342224121e-02) (7, 8.75214114785194396973e-02) (8, 1.78453475236892700195e-02) (9, -2.18396335840225219727e-02) (10, 2.54555568099021911621e-02) (0, -1.30223259329795837402e-02) (1, 9.12614166736602783203e-03) (2, 1.89986974000930786133e-02) (3, -4.21129576861858367920e-02) (4, 1.86062604188919067383e-02) (5, 3.59250828623771667480e-02) (6, 3.44081893563270568848e-02) (7, 5.85045665502548217773e-03) (8, 9.04355719685554504395e-02) (9, 9.28222611546516418457e-02) (10, 8.01252052187919616699e-02) (11, -2.53044888377189636230e-02) (12, -3.69655042886734008789e-02) (13, 7.15544074773788452148e-03) (14, -6.65379688143730163574e-02) (15, -6.76996409893035888672e-02) (16, -3.08294221758842468262e-02) (17, -3.80841456353664398193e-02) (18, 1.99818611145019531250e-02) (19, -2.12440714240074157715e-02) (20, 7.27462396025657653809e-02) (21, 3.00304591655731201172e-03) (11, 8.89774337410926818848e-02) (12, -5.54147362709045410156e-02) (13, -2.86336690187454223633e-02) (14, 7.35063180327415466309e-02) (15, -2.20737904310226440430e-02) (16, -4.11122553050518035889e-02) (17, -8.64834338426589965820e-03) (18, 5.60865774750709533691e-02) (19, 8.43433067202568054199e-02) (20, 7.83293321728706359863e-02) (21, -3.47872823476791381836e-02) (11, 3.34199517965316772461e-03) (12, -6.37836232781410217285e-02) (13, 8.38189795613288879395e-02) (14, -6.07329159975051879883e-02) (15, 7.06245675683021545410e-02) (16, -1.03305727243423461914e-02) (17, -7.02973380684852600098e-02) (18, 6.34468272328376770020e-02) (19, -3.02053764462471008301e-02) (20, 4.39816713333129882812e-03) (21, -7.35186785459518432617e-02) (11, 7.69500806927680969238e-02) (12, 3.78602072596549987793e-02) (13, -4.12183105945587158203e-02) (14, -5.38793504238128662109e-02) (15, 9.97760668396949768066e-02) (16, 7.87635520100593566895e-02) (17, 2.48765721917152404785e-02) (18, 7.25222900509834289551e-02) (19, -1.82334035634994506836e-02) (20, 1.38540044426918029785e-02) (21, -8.28924328088760375977e-02) (11, 5.31329289078712463379e-02) (12, -1.26396790146827697754e-02) (13, -4.96622174978256225586e-03) (14, -8.79793316125869750977e-02) (15, 7.87119790911674499512e-02) (16, -4.88796420395374298096e-02) (17, 9.63639691472053527832e-02) (18, 5.70413097739219665527e-02) (19, 1.63330659270286560059e-02) (20, -2.94022262096405029297e-04) (21, 9.32576879858970642090e-02) (11, 1.52036547660827636719e-04) (12, 3.89730557799339294434e-02) (13, 6.38822540640830993652e-02) (14, 8.98214653134346008301e-02) (15, 6.86757192015647888184e-02) (16, 2.73290947079658508301e-02) (17, -4.03839126229286193848e-02) (18, -2.69261077046394348145e-02) (19, 5.38104102015495300293e-02) (20, -6.34338408708572387695e-02) (21, -8.90659019351005554199e-02) (11, -8.74079018831253051758e-02) (12, -1.73131898045539855957e-02) (13, -8.92898440361022949219e-02) (14, 9.13556441664695739746e-02) (15, -9.24366116523742675781e-02) (16, 8.32324698567390441895e-02) (17, -2.68777534365653991699e-02) (18, 2.14173942804336547852e-02) (19, -9.96599793434143066406e-02) (20, -7.37448260188102722168e-02) (21, -9.12222862243652343750e-02) (11, -4.62619960308074951172e-03) (12, -6.17241524159908294678e-02) (13, 8.74897018074989318848e-02) (14, 4.64941635727882385254e-02) (15, -6.53601735830307006836e-02) (16, 4.45310100913047790527e-02) (17, -3.71727719902992248535e-02) (18, 3.43458130955696105957e-02) (19, 3.77886965870857238770e-02) (20, 6.29792734980583190918e-02) (21, -2.66811400651931762695e-02) (11, 1.67095661163330078125e-03) (12, 5.28007373213768005371e-02) (13, -5.80054186284542083740e-02) (14, -7.09999501705169677734e-02) (15, -8.75831767916679382324e-02) (16, 1.50684863328933715820e-02) (17, 8.28104540705680847168e-02) (18, -5.10170124471187591553e-02) (19, 2.60025784373283386230e-02) (20, 9.54025462269783020020e-02) (21, 3.16698029637336730957e-02) (11, 3.67127284407615661621e-02) (12, 8.67582038044929504395e-02) (13, 3.92331853508949279785e-02) (14, 1.99451893568038940430e-02) (15, -4.01195548474788665771e-02) (16, -3.93494181334972381592e-02) (17, 2.02852115035057067871e-02) (18, -1.38643756508827209473e-02) (19, -3.05717065930366516113e-02) (20, -8.43409821391105651855e-02) (21, 2.44114771485328674316e-02) (22, -4.30820100009441375732e-02) (23, 6.21531680226325988770e-02) (24, 5.90512976050376892090e-02) (25, -9.85510051250457763672e-02) (26, -7.50195980072021484375e-02) (27, -6.60290569067001342773e-03) (28, 3.92377004027366638184e-02) (29, 8.79596695303916931152e-02) (30, 6.67159631848335266113e-02) (31, -5.90913407504558563232e-02) (32, 4.07604053616523742676e-02) (22, -9.12894606590270996094e-02) (23, -3.00912931561470031738e-02) (24, 5.31772300601005554199e-02) (25, 2.37790197134017944336e-02) (26, -4.72808368504047393799e-02) (27, -9.78397876024246215820e-02) (28, -5.02184033393859863281e-02) (29, -5.18782846629619598389e-02) (30, 3.38300094008445739746e-02) (31, 8.64943340420722961426e-02) (32, -6.51200860738754272461e-02) (22, -2.69368067383766174316e-02) (23, 6.43952935934066772461e-03) (24, -5.23963570594787597656e-03) (25, 3.37137803435325622559e-02) (26, -7.32752531766891479492e-02) (27, 8.08959826827049255371e-02) (28, -9.68579277396202087402e-02) (29, -5.76162412762641906738e-02) (30, 5.30745834112167358398e-03) (31, -3.99399399757385253906e-02) (32, -9.54630672931671142578e-02) (22, -3.56412455439567565918e-02) (23, -3.84909398853778839111e-02) (24, -7.04826638102531433105e-02) (25, 5.77558502554893493652e-02) (26, -9.92532372474670410156e-02) (27, -8.25229957699775695801e-02) (28, 2.44718044996261596680e-02) (29, -5.83445802330970764160e-02) (30, 5.82374110817909240723e-02) (31, 3.31823453307151794434e-02) (32, 1.15641355514526367188e-02) (22, 1.14146322011947631836e-02) (23, -4.30386364459991455078e-02) (24, 6.42832890152931213379e-02) (25, 1.35748535394668579102e-02) (26, 6.74296915531158447266e-03) (27, -8.75949934124946594238e-02) (28, -5.25951460003852844238e-02) (29, -6.76270574331283569336e-03) (30, -5.27150779962539672852e-02) (31, 2.04680562019348144531e-02) (32, 9.96768251061439514160e-02) (22, 4.20452877879142761230e-02) (23, -4.58181686699390411377e-02) (24, -7.35984370112419128418e-02) (25, 2.29412689805030822754e-02) (26, -4.26760986447334289551e-02) (27, -3.12146767973899841309e-02) (28, -7.17512741684913635254e-02) (29, 1.73839703202247619629e-02) (30, -2.66777426004409790039e-02) (31, -7.39251822233200073242e-03) (32, 7.88930132985115051270e-02) (22, 2.83958762884140014648e-03) (23, -4.96366731822490692139e-02) (24, 7.96397849917411804199e-02) (25, 2.03166007995605468750e-02) (26, 7.48351290822029113770e-02) (27, -7.87047967314720153809e-02) (28, -2.14459970593452453613e-02) (29, 8.01746547222137451172e-03) (30, 3.28593328595161437988e-02) (31, 8.99686291813850402832e-02) (32, 6.49788454174995422363e-02) (22, -2.85737216472625732422e-03) (23, 3.54348123073577880859e-03) (24, -2.82782018184661865234e-02) (25, 9.54763591289520263672e-03) (26, 5.09483292698860168457e-02) (27, 6.49591013789176940918e-02) (28, 5.68325594067573547363e-02) (29, -2.85836085677146911621e-02) (30, 6.46359100937843322754e-02) (31, -1.12215429544448852539e-03) (32, 2.55982354283332824707e-02) (22, 9.10374745726585388184e-02) (23, -7.81808868050575256348e-02) (24, 8.29221233725547790527e-02) (25, -4.01772037148475646973e-02) (26, -4.99321594834327697754e-02) (27, 3.06092202663421630859e-04) (28, 3.31450626254081726074e-02) (29, 4.26753237843513488770e-02) (30, -2.08008885383605957031e-02) (31, -6.40153586864471435547e-02) (32, 9.30386558175086975098e-02) (22, -4.11611013114452362061e-02) (23, 5.63012436032295227051e-02) (24, 6.78737834095954895020e-02) (25, -1.98659002780914306641e-02) (26, -6.51447549462318420410e-02) (27, -2.41087451577186584473e-02) (28, -8.70065614581108093262e-02) (29, -7.51761198043823242188e-02) (30, -5.91299086809158325195e-02) (31, 1.01360678672790527344e-02) (32, 2.83673629164695739746e-02) 
