FANN_FLO_2.1
num_layers=4
learning_rate=0.700000
connection_rate=1.000000
network_type=0
learning_momentum=0.000000
training_algorithm=2
train_error_function=1
train_stop_function=0
cascade_output_change_fraction=0.010000
quickprop_decay=-0.000100
quickprop_mu=1.750000
rprop_increase_factor=1.200000
rprop_decrease_factor=0.500000
rprop_delta_min=0.000000
rprop_delta_max=50.000000
rprop_delta_zero=0.100000
cascade_output_stagnation_epochs=12
cascade_candidate_change_fraction=0.010000
cascade_candidate_stagnation_epochs=12
cascade_max_out_epochs=150
cascade_min_out_epochs=50
cascade_max_cand_epochs=150
cascade_min_cand_epochs=50
cascade_num_candidate_groups=2
bit_fail_limit=3.49999994039535522461e-01
cascade_candidate_limit=1.00000000000000000000e+03
cascade_weight_multiplier=4.00000005960464477539e-01
cascade_activation_functions_count=10
cascade_activation_functions=3 5 7 8 10 11 14 15 16 17 
cascade_activation_steepnesses_count=4
cascade_activation_steepnesses=2.50000000000000000000e-01 5.00000000000000000000e-01 7.50000000000000000000e-01 1.00000000000000000000e+00 
layer_sizes=15 13 12 11 
scale_included=0
neurons (num_inputs, activation_function, activation_steepness)=(0, 0, 0.00000000000000000000e+00) (0, 0, 0.00000000000000000000e+00) (0, 0, 0.00000000000000000000e+00) (0, 0, 0.00000000000000000000e+00) (0, 0, 0.00000000000000000000e+00) (0, 0, 0.00000000000000000000e+00) (0, 0, 0.00000000000000000000e+00) (0, 0, 0.00000000000000000000e+00) (0, 0, 0.00000000000000000000e+00) (0, 0, 0.00000000000000000000e+00) (0, 0, 0.00000000000000000000e+00) (0, 0, 0.00000000000000000000e+00) (0, 0, 0.00000000000000000000e+00) (0, 0, 0.00000000000000000000e+00) (0, 0, 0.00000000000000000000e+00) (15, 5, 5.00000000000000000000e-01) (15, 5, 5.00000000000000000000e-01) (15, 5, 5.00000000000000000000e-01) (15, 5, 5.00000000000000000000e-01) (15, 5, 5.00000000000000000000e-01) (15, 5, 5.00000000000000000000e-01) (15, 5, 5.00000000000000000000e-01) (15, 5, 5.00000000000000000000e-01) (15, 5, 5.00000000000000000000e-01) (15, 5, 5.00000000000000000000e-01) (15, 5, 5.00000000000000000000e-01) (15, 5, 5.00000000000000000000e-01) (0, 5, 0.00000000000000000000e+00) (13, 5, 5.00000000000000000000e-01) (13, 5, 5.00000000000000000000e-01) (13, 5, 5.00000000000000000000e-01) (13, 5, 5.00000000000000000000e-01) (13, 5, 5.00000000000000000000e-01) (13, 5, 5.00000000000000000000e-01) (13, 5, 5.00000000000000000000e-01) (13, 5, 5.00000000000000000000e-01) (13, 5, 5.00000000000000000000e-01) (13, 5, 5.00000000000000000000e-01) (13, 5, 5.00000000000000000000e-01) (0, 5, 0.00000000000000000000e+00) (12, 5, 5.00000000000000000000e-01) (12, 5, 5.00000000000000000000e-01) (12, 5, 5.00000000000000000000e-01) (12, 5, 5.00000000000000000000e-01) (12, 5, 5.00000000000000000000e-01) (12, 5, 5.00000000000000000000e-01) (12, 5, 5.00000000000000000000e-01) (12, 5, 5.00000000000000000000e-01) (12, 5, 5.00000000000000000000e-01) (12, 5, 5.00000000000000000000e-01) (0, 5, 0.00000000000000000000e+00) 
connections (connected_to_neuron, weight)=(0, 2.48346179723739624023e-02) (1, -2.79686748981475830078e-02) (2, -5.82482069730758666992e-02) (3, 7.44216963648796081543e-02) (4, 7.95487836003303527832e-02) (5, -7.13011622428894042969e-02) (6, 4.19932082295417785645e-02) (7, 2.58515700697898864746e-02) (8, 6.27132132649421691895e-02) (9, 6.87699541449546813965e-02) (10, 6.93319514393806457520e-02) (11, -3.08210551738739013672e-02) (12, 2.01645642518997192383e-02) (13, 3.24104502797126770020e-02) (14, -2.08558589220046997070e-02) (0, -3.24606075882911682129e-02) (1, -6.00126124918460845947e-02) (2, 7.71191790699958801270e-02) (3, -2.44637653231620788574e-02) (4, -6.81403949856758117676e-02) (5, 3.78913953900337219238e-02) (6, 2.96643152832984924316e-02) (7, -2.64349728822708129883e-02) (8, -2.38148048520088195801e-02) (9, 1.56560391187667846680e-02) (10, 6.00959733128547668457e-02) (11, 8.99626389145851135254e-02) (12, 1.50141716003417968750e-02) (13, 4.00942638516426086426e-02) (14, 5.10053560137748718262e-02) (0, 6.98213055729866027832e-02) (1, -3.50711047649383544922e-02) (2, -7.69633278250694274902e-02) (3, -8.84269177913665771484e-02) (4, -6.06494061648845672607e-02) (5, -9.74145531654357910156e-02) (6, -5.97280748188495635986e-02) (7, 8.13437923789024353027e-02) (8, 2.84370258450508117676e-02) (9, -9.70148667693138122559e-02) (10, 5.01137450337409973145e-02) (11, -2.23102420568466186523e-03) (12, -2.78359204530715942383e-02) (13, -2.97216922044754028320e-02) (14, -6.98205828666687011719e-02) (0, 5.13082221150398254395e-02) (1, 3.78177091479301452637e-02) (2, -2.98331975936889648438e-02) (3, 2.84274145960807800293e-02) (4, -8.66460651159286499023e-02) (5, 2.02641636133193969727e-03) (6, -3.36812064051628112793e-02) (7, 4.30182442069053649902e-02) (8, 7.55914524197578430176e-02) (9, 4.25039902329444885254e-02) (10, -4.13256995379924774170e-02) (11, 3.56874093413352966309e-02) (12, 3.24666127562522888184e-02) (13, 7.36884698271751403809e-02) (14, -2.42183208465576171875e-02) (0, -1.65280327200889587402e-02) (1, 4.35097590088844299316e-02) (2, 4.07105758786201477051e-02) (3, 6.50864839553833007812e-03) (4, 5.50828501582145690918e-02) (5, 8.00611600279808044434e-02) (6, 9.09409672021865844727e-03) (7, 9.53547731041908264160e-02) (8, 6.14049658179283142090e-02) (9, -6.24688826501369476318e-02) (10, 9.83399227261543273926e-02) (11, 1.15187168121337890625e-02) (12, 3.53000834584236145020e-02) (13, -2.94959992170333862305e-02) (14, 8.17970260977745056152e-02) (0, 6.54795095324516296387e-02) (1, -7.81877785921096801758e-02) (2, 1.96147337555885314941e-02) (3, -6.43536895513534545898e-02) (4, 5.02396300435066223145e-02) (5, 3.29686626791954040527e-02) (6, 3.76727208495140075684e-02) (7, -8.34415853023529052734e-02) (8, -2.40130871534347534180e-02) (9, 1.32641643285751342773e-02) (10, 5.90624138712882995605e-02) (11, 3.46612110733985900879e-02) (12, -5.10484240949153900146e-02) (13, -8.47097486257553100586e-03) (14, 8.34967941045761108398e-03) (0, 2.47332602739334106445e-02) (1, 7.50009939074516296387e-02) (2, -4.81405630707740783691e-02) (3, -3.45561653375625610352e-02) (4, -1.84903666377067565918e-02) (5, -9.30577144026756286621e-02) (6, -5.44950030744075775146e-02) (7, 9.06037315726280212402e-02) (8, -9.77029427886009216309e-02) (9, -9.30900424718856811523e-02) (10, -7.18651562929153442383e-02) (11, -9.93630290031433105469e-02) (12, 1.84286683797836303711e-02) (13, 6.34349361062049865723e-02) (14, -2.88590341806411743164e-02) (0, 2.25700438022613525391e-04) (1, 2.89144590497016906738e-02) (2, -7.04681873321533203125e-03) (3, -8.01595672965049743652e-02) (4, 6.45607784390449523926e-02) (5, -5.68071901798248291016e-02) (6, 5.28090968728065490723e-02) (7, 2.23349034786224365234e-03) (8, -4.02487777173519134521e-02) (9, -7.12039917707443237305e-02) (10, -8.45023393630981445312e-02) (11, -8.11863690614700317383e-02) (12, 6.34572133421897888184e-02) (13, -3.55507582426071166992e-02) (14, 1.03426575660705566406e-02) (0, -2.81931012868881225586e-02) (1, 8.91825035214424133301e-02) (2, -1.46563500165939331055e-02) (3, 2.36663371324539184570e-02) (4, -4.53736744821071624756e-02) (5, 6.68532922863960266113e-02) (6, 3.06086167693138122559e-02) (7, 1.31331384181976318359e-04) (8, 5.74570074677467346191e-02) (9, 3.29056754708290100098e-02) (10, 7.04129040241241455078e-03) (11, 8.55918601155281066895e-02) (12, 3.35426405072212219238e-02) (13, -7.45300352573394775391e-02) (14, 4.90267947316169738770e-02) (0, -9.53163951635360717773e-02) (1, 2.56956741213798522949e-02) (2, -2.20587551593780517578e-02) (3, -2.36321240663528442383e-03) (4, 4.55361083149909973145e-02) (5, -5.74979893863201141357e-02) (6, 4.08296063542366027832e-02) (7, -1.65480375289916992188e-03) (8, 4.47354987263679504395e-02) (9, -9.94191691279411315918e-02) (10, 2.71412059664726257324e-02) (11, 6.02331683039665222168e-02) (12, -8.06055366992950439453e-02) (13, -9.40158218145370483398e-03) (14, -7.53175914287567138672e-02) (0, 2.97371223568916320801e-02) (1, 6.24053105711936950684e-02) (2, -8.61351042985916137695e-02) (3, -8.49192440509796142578e-02) (4, -1.39283612370491027832e-02) (5, -3.15087735652923583984e-02) (6, 8.19340422749519348145e-02) (7, -8.33197459578514099121e-02) (8, 6.86225518584251403809e-02) (9, 3.93910482525825500488e-02) (10, 4.95859310030937194824e-02) (11, -2.43361517786979675293e-02) (12, 2.49829068779945373535e-02) (13, -1.68714225292205810547e-02) (14, 1.13381445407867431641e-03) (0, -2.59902924299240112305e-02) (1, -1.21878162026405334473e-02) (2, -7.31705203652381896973e-02) (3, 5.19509539008140563965e-02) (4, 8.54489877820014953613e-02) (5, 7.23655894398689270020e-02) (6, 9.44529697299003601074e-02) (7, 2.62785777449607849121e-02) (8, -2.92892232537269592285e-02) (9, 3.91884669661521911621e-02) (10, 2.68594101071357727051e-02) (11, 9.78519842028617858887e-02) (12, -5.78366219997406005859e-04) (13, 4.62538674473762512207e-02) (14, -1.15496069192886352539e-02) (15, 2.41040363907814025879e-02) (16, -2.40090191364288330078e-02) (17, -4.91442978382110595703e-02) (18, 3.79689410328865051270e-02) (19, -8.92825424671173095703e-03) (20, 3.69273498654365539551e-02) (21, -9.35398340225219726562e-02) (22, -2.69942134618759155273e-02) (23, 5.36076053977012634277e-02) (24, 7.50827267765998840332e-02) (25, -8.76031666994094848633e-02) (26, 3.19353491067886352539e-03) (27, -4.92534302175045013428e-02) (15, 3.73797491192817687988e-02) (16, 8.63221213221549987793e-02) (17, 5.18803820013999938965e-02) (18, -8.86105597019195556641e-02) (19, -2.58657038211822509766e-02) (20, 7.87098631262779235840e-02) (21, 6.33403882384300231934e-02) (22, -4.04167287051677703857e-02) (23, 5.10754510760307312012e-02) (24, 5.77933564782142639160e-02) (25, 8.58618542551994323730e-02) (26, -7.82137736678123474121e-02) (27, -3.01817804574966430664e-03) (15, 1.27212554216384887695e-02) (16, -8.03617984056472778320e-02) (17, 9.64034572243690490723e-02) (18, -4.10248823463916778564e-02) (19, 8.08860361576080322266e-03) (20, 2.05074921250343322754e-02) (21, 3.49661037325859069824e-02) (22, 5.89443072676658630371e-02) (23, -4.15235720574855804443e-02) (24, -7.39621520042419433594e-02) (25, -4.12835180759429931641e-03) (26, -3.50634008646011352539e-02) (27, -9.56371426582336425781e-04) (15, -5.05207479000091552734e-02) (16, -5.99806755781173706055e-02) (17, 1.14404708147048950195e-02) (18, 5.26727959513664245605e-02) (19, -9.23410803079605102539e-03) (20, -5.11797964572906494141e-02) (21, 3.89949008822441101074e-02) (22, -5.73537200689315795898e-02) (23, -3.97903583943843841553e-02) (24, -8.68708044290542602539e-02) (25, -7.86438584327697753906e-02) (26, -7.64499604701995849609e-02) (27, -2.72875353693962097168e-02) (15, 7.24315866827964782715e-02) (16, 8.13433900475502014160e-02) (17, -4.14256937801837921143e-02) (18, 9.42178145051002502441e-02) (19, -2.16747820377349853516e-02) (20, 7.12955668568611145020e-02) (21, -8.61439779400825500488e-02) (22, -2.52713263034820556641e-02) (23, -6.97293207049369812012e-02) (24, 2.19446197152137756348e-02) (25, 9.52361747622489929199e-02) (26, 6.52367845177650451660e-02) (27, -1.91110819578170776367e-02) (15, -4.62873987853527069092e-02) (16, 9.12746265530586242676e-02) (17, 7.67605677247047424316e-02) (18, 1.86491981148719787598e-02) (19, -9.68174636363983154297e-03) (20, -7.37601742148399353027e-02) (21, 5.86685165762901306152e-02) (22, -9.82412844896316528320e-02) (23, 7.89126232266426086426e-02) (24, -5.05655817687511444092e-02) (25, -4.94210794568061828613e-02) (26, 1.79075151681900024414e-02) (27, -7.91929662227630615234e-03) (15, 1.07885748147964477539e-02) (16, 3.10367122292518615723e-02) (17, 1.34368389844894409180e-02) (18, 3.43386009335517883301e-02) (19, -9.62508320808410644531e-02) (20, -1.41315609216690063477e-02) (21, 1.56820043921470642090e-02) (22, -3.76765206456184387207e-02) (23, -1.99137479066848754883e-02) (24, 9.40072163939476013184e-02) (25, -6.63809627294540405273e-02) (26, -6.05772435665130615234e-03) (27, -3.12641113996505737305e-02) (15, -3.61102819442749023438e-02) (16, -8.41131135821342468262e-02) (17, -3.60279455780982971191e-02) (18, -7.08734989166259765625e-02) (19, -3.22418659925460815430e-03) (20, 1.76846534013748168945e-02) (21, -7.95988738536834716797e-02) (22, -2.64636203646659851074e-02) (23, -6.36661499738693237305e-02) (24, 1.07193812727928161621e-02) (25, -2.23800539970397949219e-04) (26, 9.50023755431175231934e-02) (27, 1.24780982732772827148e-02) (15, -2.13111788034439086914e-02) (16, -5.55632077157497406006e-02) (17, 6.30570277571678161621e-02) (18, 9.65963229537010192871e-02) (19, 3.65174934267997741699e-02) (20, -2.61544138193130493164e-02) (21, 2.76330336928367614746e-02) (22, -5.00456653535366058350e-02) (23, -9.18158069252967834473e-02) (24, 3.13822105526924133301e-02) (25, 3.58227714896202087402e-02) (26, 2.38661989569664001465e-02) (27, 9.37056913971900939941e-02) (15, -8.40909779071807861328e-02) (16, 1.78734213113784790039e-02) (17, -7.26752728223800659180e-02) (18, 9.85129177570343017578e-03) (19, 8.66093114018440246582e-02) (20, -8.78556072711944580078e-03) (21, 2.57381871342658996582e-02) (22, -4.94186393916606903076e-02) (23, 2.03409418463706970215e-02) (24, -7.74860084056854248047e-02) (25, 6.82660117745399475098e-02) (26, 4.07420769333839416504e-02) (27, -3.94962728023529052734e-03) (15, -9.54001322388648986816e-02) (16, -4.85385358333587646484e-02) (17, 9.58265736699104309082e-02) (18, 9.96022447943687438965e-02) (19, 6.39395788311958312988e-02) (20, -2.54846066236495971680e-02) (21, -5.59609606862068176270e-02) (22, 2.69965901970863342285e-02) (23, -2.88882777094841003418e-02) (24, 8.05565342307090759277e-02) (25, -9.91578176617622375488e-02) (26, 9.87447574734687805176e-02) (27, -6.94891363382339477539e-02) (28, -9.09736156463623046875e-02) (29, 3.01269665360450744629e-02) (30, 6.63336440920829772949e-02) (31, 3.28925922513008117676e-02) (32, 2.38326415419578552246e-02) (33, 8.22426602244377136230e-02) (34, -4.92340028285980224609e-02) (35, 5.11573627591133117676e-02) (36, -7.90604948997497558594e-03) (37, -6.26247003674507141113e-02) (38, -5.76281882822513580322e-02) (39, -8.21678712964057922363e-02) (28, -1.20433419942855834961e-02) (29, 6.27127662301063537598e-02) (30, -5.96538819372653961182e-02) (31, -4.37773242592811584473e-02) (32, 3.45484167337417602539e-03) (33, 3.63964959979057312012e-02) (34, -3.91774550080299377441e-02) (35, 5.49162998795509338379e-02) (36, 3.22230532765388488770e-02) (37, -3.95752079784870147705e-02) (38, 1.88558697700500488281e-02) (39, -9.32615473866462707520e-02) (28, 4.46382910013198852539e-03) (29, -5.41475377976894378662e-02) (30, -2.21498310565948486328e-02) (31, -1.49796381592750549316e-02) (32, -5.33053502440452575684e-02) (33, -2.34050750732421875000e-02) (34, 1.55312269926071166992e-02) (35, -4.42789606750011444092e-02) (36, -9.32781174778938293457e-02) (37, -1.81351304054260253906e-02) (38, 8.86136218905448913574e-02) (39, 3.05545404553413391113e-02) (28, -3.58924716711044311523e-02) (29, -6.06203861534595489502e-02) (30, -1.82881057262420654297e-02) (31, 5.62014803290367126465e-02) (32, -2.32450813055038452148e-02) (33, 2.40837112069129943848e-02) (34, 7.40336105227470397949e-02) (35, 6.47115781903266906738e-02) (36, -1.32035315036773681641e-02) (37, -8.56202766299247741699e-02) (38, -7.90657475590705871582e-02) (39, 9.02513042092323303223e-02) (28, 5.07762059569358825684e-02) (29, -1.82432010769844055176e-02) (30, 4.51676174998283386230e-02) (31, -1.70007273554801940918e-02) (32, 4.21815887093544006348e-02) (33, -3.59765142202377319336e-02) (34, -1.02622732520103454590e-02) (35, -5.33545762300491333008e-02) (36, 9.87595319747924804688e-03) (37, 6.75879046320915222168e-02) (38, 3.16657945513725280762e-02) (39, 5.65705969929695129395e-02) (28, -5.58171793818473815918e-02) (29, -5.28029762208461761475e-02) (30, -8.77083688974380493164e-02) (31, -4.90952916443347930908e-02) (32, 2.90618911385536193848e-02) (33, -9.90947484970092773438e-02) (34, 8.14592316746711730957e-02) (35, 9.31694284081459045410e-02) (36, -5.97151331603527069092e-02) (37, -3.68288680911064147949e-02) (38, 4.93708923459053039551e-02) (39, 1.70397758483886718750e-02) (28, 8.72548297047615051270e-02) (29, 2.34045013785362243652e-02) (30, -1.82486400008201599121e-02) (31, -2.59486883878707885742e-02) (32, 3.77842262387275695801e-02) (33, 2.68560647964477539062e-03) (34, -3.56973856687545776367e-02) (35, -1.14395692944526672363e-02) (36, 8.44424143433570861816e-02) (37, -9.05297771096229553223e-02) (38, 7.15597048401832580566e-02) (39, 2.66240015625953674316e-02) (28, -2.65062898397445678711e-02) (29, -3.87025736272335052490e-02) (30, 7.32694342732429504395e-02) (31, 8.33696648478507995605e-02) (32, -7.11146742105484008789e-02) (33, 4.93521988391876220703e-03) (34, 3.99402603507041931152e-02) (35, -2.69318521022796630859e-02) (36, 5.21322414278984069824e-02) (37, 5.22319003939628601074e-02) (38, 2.39728540182113647461e-02) (39, -1.88058763742446899414e-02) (28, 5.31371459364891052246e-02) (29, 5.43209165334701538086e-03) (30, -2.56364494562149047852e-02) (31, 9.34220179915428161621e-02) (32, 6.86032250523567199707e-02) (33, -7.62655511498451232910e-02) (34, 1.04617923498153686523e-02) (35, 5.58580532670021057129e-02) (36, 4.71389517188072204590e-02) (37, 9.22131612896919250488e-02) (38, -7.00906366109848022461e-02) (39, -1.50768235325813293457e-02) (28, -5.10124117136001586914e-03) (29, -5.78802078962326049805e-03) (30, 7.34836086630821228027e-02) (31, -2.06588283181190490723e-02) (32, 3.68221104145050048828e-03) (33, 4.50433120131492614746e-02) (34, -9.40348356962203979492e-02) (35, 7.71759226918220520020e-02) (36, -9.36592593789100646973e-02) (37, 7.92345926165580749512e-02) (38, 6.05455711483955383301e-02) (39, -6.47739320993423461914e-02) 
