FANN_FLO_2.1
num_layers=4
learning_rate=0.700000
connection_rate=1.000000
network_type=0
learning_momentum=0.000000
training_algorithm=2
train_error_function=1
train_stop_function=0
cascade_output_change_fraction=0.010000
quickprop_decay=-0.000100
quickprop_mu=1.750000
rprop_increase_factor=1.200000
rprop_decrease_factor=0.500000
rprop_delta_min=0.000000
rprop_delta_max=50.000000
rprop_delta_zero=0.100000
cascade_output_stagnation_epochs=12
cascade_candidate_change_fraction=0.010000
cascade_candidate_stagnation_epochs=12
cascade_max_out_epochs=150
cascade_min_out_epochs=50
cascade_max_cand_epochs=150
cascade_min_cand_epochs=50
cascade_num_candidate_groups=2
bit_fail_limit=3.49999994039535522461e-01
cascade_candidate_limit=1.00000000000000000000e+03
cascade_weight_multiplier=4.00000005960464477539e-01
cascade_activation_functions_count=10
cascade_activation_functions=3 5 7 8 10 11 14 15 16 17 
cascade_activation_steepnesses_count=4
cascade_activation_steepnesses=2.50000000000000000000e-01 5.00000000000000000000e-01 7.50000000000000000000e-01 1.00000000000000000000e+00 
layer_sizes=11 11 11 11 
scale_included=0
neurons (num_inputs, activation_function, activation_steepness)=(0, 0, 0.00000000000000000000e+00) (0, 0, 0.00000000000000000000e+00) (0, 0, 0.00000000000000000000e+00) (0, 0, 0.00000000000000000000e+00) (0, 0, 0.00000000000000000000e+00) (0, 0, 0.00000000000000000000e+00) (0, 0, 0.00000000000000000000e+00) (0, 0, 0.00000000000000000000e+00) (0, 0, 0.00000000000000000000e+00) (0, 0, 0.00000000000000000000e+00) (0, 0, 0.00000000000000000000e+00) (11, 5, 5.00000000000000000000e-01) (11, 5, 5.00000000000000000000e-01) (11, 5, 5.00000000000000000000e-01) (11, 5, 5.00000000000000000000e-01) (11, 5, 5.00000000000000000000e-01) (11, 5, 5.00000000000000000000e-01) (11, 5, 5.00000000000000000000e-01) (11, 5, 5.00000000000000000000e-01) (11, 5, 5.00000000000000000000e-01) (11, 5, 5.00000000000000000000e-01) (0, 5, 0.00000000000000000000e+00) (11, 5, 5.00000000000000000000e-01) (11, 5, 5.00000000000000000000e-01) (11, 5, 5.00000000000000000000e-01) (11, 5, 5.00000000000000000000e-01) (11, 5, 5.00000000000000000000e-01) (11, 5, 5.00000000000000000000e-01) (11, 5, 5.00000000000000000000e-01) (11, 5, 5.00000000000000000000e-01) (11, 5, 5.00000000000000000000e-01) (11, 5, 5.00000000000000000000e-01) (0, 5, 0.00000000000000000000e+00) (11, 5, 5.00000000000000000000e-01) (11, 5, 5.00000000000000000000e-01) (11, 5, 5.00000000000000000000e-01) (11, 5, 5.00000000000000000000e-01) (11, 5, 5.00000000000000000000e-01) (11, 5, 5.00000000000000000000e-01) (11, 5, 5.00000000000000000000e-01) (11, 5, 5.00000000000000000000e-01) (11, 5, 5.00000000000000000000e-01) (11, 5, 5.00000000000000000000e-01) (0, 5, 0.00000000000000000000e+00) 
connections (connected_to_neuron, weight)=(0, -6.41696751117706298828e-02) (1, -9.17354151606559753418e-02) (2, -6.98549821972846984863e-02) (3, 6.27816393971443176270e-02) (4, -4.10111136734485626221e-02) (5, -2.77174115180969238281e-02) (6, -6.76710158586502075195e-03) (7, -2.86251306533813476562e-02) (8, 1.29031315445899963379e-02) (9, -8.53167995810508728027e-02) (10, 3.90007719397544860840e-02) (0, 2.71029546856880187988e-02) (1, -2.86309272050857543945e-02) (2, 6.80248811841011047363e-02) (3, 4.44046780467033386230e-02) (4, -1.29547864198684692383e-02) (5, 6.36232122778892517090e-02) (6, -8.19233506917953491211e-02) (7, 1.76519602537155151367e-02) (8, -9.25291031599044799805e-02) (9, -4.25243489444255828857e-02) (10, 5.15293255448341369629e-02) (0, 3.54141071438789367676e-02) (1, -1.74517259001731872559e-02) (2, 4.74808737635612487793e-02) (3, 9.68007370829582214355e-02) (4, -2.53075659275054931641e-02) (5, 7.84819796681404113770e-02) (6, -6.90062940120697021484e-02) (7, -3.95150147378444671631e-02) (8, 7.97318145632743835449e-02) (9, -3.31759676337242126465e-02) (10, -3.12504246830940246582e-02) (0, -9.01231765747070312500e-02) (1, -7.03943371772766113281e-02) (2, 2.77384594082832336426e-02) (3, -1.78405791521072387695e-02) (4, 2.28385701775550842285e-02) (5, 9.91133376955986022949e-02) (6, 9.50625613331794738770e-02) (7, 3.75217720866203308105e-02) (8, 3.81141081452369689941e-02) (9, 2.21654996275901794434e-02) (10, -9.11091566085815429688e-02) (0, 6.13898038864135742188e-03) (1, -3.34298163652420043945e-02) (2, -4.06394898891448974609e-03) (3, -3.02378088235855102539e-02) (4, -1.53531655669212341309e-02) (5, -8.64119827747344970703e-02) (6, -2.27669030427932739258e-02) (7, 4.21224907040596008301e-02) (8, 6.51173517107963562012e-02) (9, -8.73528048396110534668e-02) (10, -7.53292441368103027344e-02) (0, 1.25982165336608886719e-02) (1, -9.05520766973495483398e-02) (2, -6.36816024780273437500e-04) (3, -8.91979783773422241211e-03) (4, -5.95583729445934295654e-02) (5, 5.98481819033622741699e-02) (6, -2.91879922151565551758e-02) (7, 7.26566463708877563477e-03) (8, -7.14022517204284667969e-02) (9, -1.93111598491668701172e-02) (10, 3.68713214993476867676e-02) (0, 5.63362166285514831543e-02) (1, 6.28482624888420104980e-02) (2, -4.02901060879230499268e-02) (3, 5.54495528340339660645e-02) (4, 5.79108074307441711426e-02) (5, 9.72316637635231018066e-02) (6, -6.43634051084518432617e-03) (7, -1.99236944317817687988e-02) (8, -9.38774868845939636230e-02) (9, 9.97026488184928894043e-02) (10, 4.66464832425117492676e-02) (0, 2.05856561660766601562e-03) (1, -3.05351540446281433105e-02) (2, -6.87066838145256042480e-02) (3, 1.56465917825698852539e-02) (4, 4.66979369521141052246e-02) (5, 7.34157934784889221191e-02) (6, -1.92360728979110717773e-02) (7, 5.93451336026191711426e-02) (8, 9.80865433812141418457e-02) (9, 9.33621600270271301270e-02) (10, 6.87930658459663391113e-02) (0, -2.55025923252105712891e-03) (1, -1.55576467514038085938e-02) (2, -9.07653048634529113770e-02) (3, -4.27020899951457977295e-02) (4, 5.52543625235557556152e-02) (5, 1.65003538131713867188e-02) (6, -1.41043365001678466797e-02) (7, -6.40567988157272338867e-02) (8, -4.66283150017261505127e-02) (9, -5.77681213617324829102e-02) (10, 9.87914726138114929199e-02) (0, 1.30815878510475158691e-02) (1, 9.76814255118370056152e-02) (2, 5.67022636532783508301e-02) (3, 1.03132501244544982910e-02) (4, -8.75490903854370117188e-03) (5, -6.32214248180389404297e-02) (6, 1.64357647299766540527e-02) (7, -9.05226171016693115234e-03) (8, 8.34250673651695251465e-02) (9, -8.15056711435317993164e-02) (10, 6.04125931859016418457e-02) (11, -8.52816179394721984863e-02) (12, 3.41409221291542053223e-02) (13, 7.11052119731903076172e-03) (14, 8.81341770291328430176e-02) (15, -8.50951522588729858398e-02) (16, -3.35443466901779174805e-02) (17, 8.62207338213920593262e-02) (18, -9.17330011725425720215e-02) (19, -6.47512823343276977539e-02) (20, -1.63295343518257141113e-02) (21, -7.29064643383026123047e-03) (11, -5.55165857076644897461e-02) (12, 4.09683659672737121582e-02) (13, -5.20362816751003265381e-02) (14, 6.09837844967842102051e-02) (15, -7.31359645724296569824e-02) (16, -1.60930752754211425781e-02) (17, -8.56445431709289550781e-02) (18, -3.09040844440460205078e-02) (19, -1.73016041517257690430e-02) (20, 2.74370387196540832520e-02) (21, -3.32226529717445373535e-02) (11, -6.05993419885635375977e-02) (12, -6.22497089207172393799e-02) (13, 5.80224469304084777832e-02) (14, -2.38207653164863586426e-02) (15, 5.41860535740852355957e-02) (16, -5.10298237204551696777e-02) (17, -4.03957031667232513428e-02) (18, 7.26803913712501525879e-02) (19, -9.06172394752502441406e-02) (20, -2.56773158907890319824e-02) (21, 6.82131201028823852539e-03) (11, 1.64932757616043090820e-02) (12, -3.75431366264820098877e-02) (13, 2.17261537909507751465e-02) (14, 8.29489305615425109863e-02) (15, -5.13224080204963684082e-02) (16, 2.99931690096855163574e-02) (17, -8.18023532629013061523e-02) (18, 3.23480591177940368652e-02) (19, -7.72974789142608642578e-02) (20, -3.73189300298690795898e-02) (21, -2.66835689544677734375e-02) (11, -2.93337553739547729492e-02) (12, -7.63351619243621826172e-02) (13, 1.80467963218688964844e-04) (14, 5.45731708407402038574e-02) (15, -6.19797073304653167725e-02) (16, 6.92763850092887878418e-02) (17, -6.27284422516822814941e-02) (18, 6.54573366045951843262e-02) (19, -6.39462769031524658203e-02) (20, -2.33277827501296997070e-02) (21, -9.67923700809478759766e-02) (11, 9.40761640667915344238e-02) (12, 5.28514459729194641113e-02) (13, 5.73936775326728820801e-02) (14, -5.69536611437797546387e-02) (15, -8.75442475080490112305e-02) (16, 3.00740674138069152832e-02) (17, -4.75709028542041778564e-02) (18, -1.32215544581413269043e-02) (19, -6.31046220660209655762e-02) (20, 6.89223781228065490723e-02) (21, 4.92353066802024841309e-02) (11, 5.86215332150459289551e-02) (12, 5.18713071942329406738e-02) (13, 9.79129001498222351074e-02) (14, -1.13852992653846740723e-02) (15, 7.00689628720283508301e-02) (16, 3.02609577775001525879e-02) (17, 1.13172158598899841309e-02) (18, -6.72499760985374450684e-02) (19, -9.64226201176643371582e-02) (20, 8.19834545254707336426e-02) (21, -4.35851402580738067627e-02) (11, 3.75784933567047119141e-03) (12, 3.65566387772560119629e-02) (13, -5.56484609842300415039e-03) (14, -2.69657745957374572754e-02) (15, 7.38281980156898498535e-02) (16, -4.01075072586536407471e-02) (17, 9.08795744180679321289e-03) (18, -4.94995899498462677002e-02) (19, -3.68998795747756958008e-02) (20, 3.16411256790161132812e-03) (21, -9.66481342911720275879e-02) (11, -7.95062035322189331055e-02) (12, 4.62104603648185729980e-02) (13, -8.41923728585243225098e-02) (14, 5.05678728222846984863e-02) (15, 9.86395552754402160645e-02) (16, 2.58606672286987304688e-03) (17, 8.74632522463798522949e-02) (18, 6.75619319081306457520e-02) (19, -4.81786243617534637451e-02) (20, 4.60847839713096618652e-02) (21, 1.94332376122474670410e-02) (11, -5.02657294273376464844e-02) (12, -6.53005093336105346680e-02) (13, -1.04978010058403015137e-02) (14, 7.99952223896980285645e-02) (15, 4.60167154669761657715e-02) (16, 2.22522243857383728027e-02) (17, 8.35726037621498107910e-02) (18, 2.80001834034919738770e-02) (19, 7.86670818924903869629e-02) (20, -1.26695483922958374023e-02) (21, -3.54431867599487304688e-02) (22, -2.68977656960487365723e-02) (23, 6.03646859526634216309e-02) (24, -6.16149976849555969238e-02) (25, 3.29947248101234436035e-02) (26, -3.05473655462265014648e-02) (27, -1.11145824193954467773e-02) (28, 9.60948541760444641113e-02) (29, 7.26167485117912292480e-02) (30, -7.76271522045135498047e-03) (31, -8.34113508462905883789e-02) (32, 1.88271999359130859375e-02) (22, 8.04491341114044189453e-03) (23, 6.71565160155296325684e-02) (24, 1.74667611718177795410e-02) (25, -8.93690213561058044434e-02) (26, 5.46197667717933654785e-02) (27, -1.49713158607482910156e-02) (28, -3.75476479530334472656e-02) (29, 7.04549252986907958984e-04) (30, -9.55380797386169433594e-02) (31, 1.21866241097450256348e-02) (32, 3.54040488600730895996e-02) (22, -6.03587925434112548828e-03) (23, -7.81815499067306518555e-03) (24, -1.85792446136474609375e-02) (25, -8.37836563587188720703e-02) (26, -2.42455452680587768555e-02) (27, -9.05790701508522033691e-02) (28, 9.48834344744682312012e-02) (29, 6.30849078297615051270e-02) (30, -2.60222554206848144531e-02) (31, -3.20143327116966247559e-02) (32, 2.34495997428894042969e-02) (22, 1.23627558350563049316e-02) (23, -9.90196093916893005371e-02) (24, 9.29022356867790222168e-02) (25, -9.87518355250358581543e-02) (26, 9.70752462744712829590e-02) (27, 6.55189827084541320801e-02) (28, -6.51454925537109375000e-03) (29, -8.63361135125160217285e-02) (30, -1.56538113951683044434e-02) (31, -9.84696373343467712402e-02) (32, 8.08204039931297302246e-02) (22, -9.81870591640472412109e-02) (23, -8.78386497497558593750e-02) (24, 3.54401841759681701660e-02) (25, -1.31583735346794128418e-02) (26, -2.53862962126731872559e-02) (27, -6.38552606105804443359e-02) (28, -8.69645178318023681641e-03) (29, 8.68003293871879577637e-02) (30, 7.15487822890281677246e-02) (31, 8.52676704525947570801e-02) (32, -2.10178345441818237305e-02) (22, -4.70304600894451141357e-02) (23, -9.85159873962402343750e-02) (24, 5.47366216778755187988e-02) (25, -3.76095250248908996582e-02) (26, 9.63674411177635192871e-02) (27, 1.78215354681015014648e-02) (28, 3.63682135939598083496e-02) (29, -3.56468856334686279297e-02) (30, -5.87288700044155120850e-02) (31, -5.12690320611000061035e-02) (32, -3.46664935350418090820e-02) (22, -6.58266395330429077148e-02) (23, -5.00208660960197448730e-02) (24, -3.75912562012672424316e-02) (25, 9.96923521161079406738e-02) (26, 4.34645935893058776855e-02) (27, -2.39273607730865478516e-02) (28, -1.59614682197570800781e-02) (29, 4.49949577450752258301e-02) (30, -4.31069508194923400879e-02) (31, -1.41485333442687988281e-02) (32, 5.71563020348548889160e-02) (22, 9.23332348465919494629e-02) (23, 7.26931020617485046387e-02) (24, -6.82299956679344177246e-02) (25, -7.15220347046852111816e-02) (26, -3.60033586621284484863e-02) (27, -8.14296677708625793457e-02) (28, -9.99732539057731628418e-02) (29, -5.07356822490692138672e-02) (30, -2.44750082492828369141e-03) (31, -4.70037162303924560547e-02) (32, -4.92516644299030303955e-02) (22, -4.77108731865882873535e-02) (23, 1.53867602348327636719e-02) (24, -5.28842173516750335693e-02) (25, 7.01106563210487365723e-02) (26, -4.82450202107429504395e-02) (27, 1.14689022302627563477e-02) (28, -8.86182114481925964355e-02) (29, 4.85941767692565917969e-04) (30, 7.68023952841758728027e-02) (31, -5.44448457658290863037e-02) (32, 5.04650846123695373535e-02) (22, -6.07888512313365936279e-02) (23, -5.47525025904178619385e-02) (24, -6.07032328844070434570e-03) (25, 1.52837857604026794434e-02) (26, 2.92860344052314758301e-02) (27, -6.10753707587718963623e-02) (28, 7.21768364310264587402e-02) (29, -8.48625078797340393066e-02) (30, 9.60809364914894104004e-02) (31, 6.45100548863410949707e-02) (32, 8.78305956721305847168e-02) 
