FANN_FLO_2.1
num_layers=4
learning_rate=0.700000
connection_rate=1.000000
network_type=0
learning_momentum=0.000000
training_algorithm=2
train_error_function=1
train_stop_function=0
cascade_output_change_fraction=0.010000
quickprop_decay=-0.000100
quickprop_mu=1.750000
rprop_increase_factor=1.200000
rprop_decrease_factor=0.500000
rprop_delta_min=0.000000
rprop_delta_max=50.000000
rprop_delta_zero=0.100000
cascade_output_stagnation_epochs=12
cascade_candidate_change_fraction=0.010000
cascade_candidate_stagnation_epochs=12
cascade_max_out_epochs=150
cascade_min_out_epochs=50
cascade_max_cand_epochs=150
cascade_min_cand_epochs=50
cascade_num_candidate_groups=2
bit_fail_limit=3.49999994039535522461e-01
cascade_candidate_limit=1.00000000000000000000e+03
cascade_weight_multiplier=4.00000005960464477539e-01
cascade_activation_functions_count=10
cascade_activation_functions=3 5 7 8 10 11 14 15 16 17 
cascade_activation_steepnesses_count=4
cascade_activation_steepnesses=2.50000000000000000000e-01 5.00000000000000000000e-01 7.50000000000000000000e-01 1.00000000000000000000e+00 
layer_sizes=15 13 12 11 
scale_included=0
neurons (num_inputs, activation_function, activation_steepness)=(0, 0, 0.00000000000000000000e+00) (0, 0, 0.00000000000000000000e+00) (0, 0, 0.00000000000000000000e+00) (0, 0, 0.00000000000000000000e+00) (0, 0, 0.00000000000000000000e+00) (0, 0, 0.00000000000000000000e+00) (0, 0, 0.00000000000000000000e+00) (0, 0, 0.00000000000000000000e+00) (0, 0, 0.00000000000000000000e+00) (0, 0, 0.00000000000000000000e+00) (0, 0, 0.00000000000000000000e+00) (0, 0, 0.00000000000000000000e+00) (0, 0, 0.00000000000000000000e+00) (0, 0, 0.00000000000000000000e+00) (0, 0, 0.00000000000000000000e+00) (15, 5, 5.00000000000000000000e-01) (15, 5, 5.00000000000000000000e-01) (15, 5, 5.00000000000000000000e-01) (15, 5, 5.00000000000000000000e-01) (15, 5, 5.00000000000000000000e-01) (15, 5, 5.00000000000000000000e-01) (15, 5, 5.00000000000000000000e-01) (15, 5, 5.00000000000000000000e-01) (15, 5, 5.00000000000000000000e-01) (15, 5, 5.00000000000000000000e-01) (15, 5, 5.00000000000000000000e-01) (15, 5, 5.00000000000000000000e-01) (0, 5, 0.00000000000000000000e+00) (13, 5, 5.00000000000000000000e-01) (13, 5, 5.00000000000000000000e-01) (13, 5, 5.00000000000000000000e-01) (13, 5, 5.00000000000000000000e-01) (13, 5, 5.00000000000000000000e-01) (13, 5, 5.00000000000000000000e-01) (13, 5, 5.00000000000000000000e-01) (13, 5, 5.00000000000000000000e-01) (13, 5, 5.00000000000000000000e-01) (13, 5, 5.00000000000000000000e-01) (13, 5, 5.00000000000000000000e-01) (0, 5, 0.00000000000000000000e+00) (12, 5, 5.00000000000000000000e-01) (12, 5, 5.00000000000000000000e-01) (12, 5, 5.00000000000000000000e-01) (12, 5, 5.00000000000000000000e-01) (12, 5, 5.00000000000000000000e-01) (12, 5, 5.00000000000000000000e-01) (12, 5, 5.00000000000000000000e-01) (12, 5, 5.00000000000000000000e-01) (12, 5, 5.00000000000000000000e-01) (12, 5, 5.00000000000000000000e-01) (0, 5, 0.00000000000000000000e+00) 
connections (connected_to_neuron, weight)=(0, 5.96804991364479064941e-02) (1, -9.70929563045501708984e-02) (2, -9.23506915569305419922e-02) (3, -6.89451396465301513672e-03) (4, 2.71181762218475341797e-03) (5, 3.95303592085838317871e-02) (6, -8.12831893563270568848e-02) (7, 9.70220193266868591309e-02) (8, -9.35448855161666870117e-02) (9, 2.94122621417045593262e-02) (10, 6.85454681515693664551e-02) (11, 7.99273326992988586426e-02) (12, -2.52749249339103698730e-02) (13, -5.74017949402332305908e-02) (14, 5.02825155854225158691e-02) (0, -8.89132767915725708008e-02) (1, -3.59706729650497436523e-02) (2, -4.95633371174335479736e-02) (3, 4.86991479992866516113e-02) (4, -4.96499799191951751709e-02) (5, 4.68705967068672180176e-02) (6, 9.23847183585166931152e-02) (7, 4.11796048283576965332e-02) (8, 6.43418505787849426270e-02) (9, -7.56617933511734008789e-02) (10, 2.69770622253417968750e-04) (11, 9.57232788205146789551e-02) (12, -3.00018489360809326172e-03) (13, -7.62528032064437866211e-02) (14, 9.66625139117240905762e-02) (0, 4.33773472905158996582e-02) (1, 8.34276899695396423340e-02) (2, 9.95695665478706359863e-02) (3, 5.10266497731208801270e-02) (4, -2.34668180346488952637e-02) (5, 2.28138267993927001953e-03) (6, -9.44298505783081054688e-03) (7, -4.75000590085983276367e-03) (8, -6.96606934070587158203e-04) (9, -2.98786908388137817383e-03) (10, -7.53377526998519897461e-02) (11, -3.21511328220367431641e-02) (12, -2.30605304241180419922e-02) (13, -6.12676143646240234375e-04) (14, 1.04470700025558471680e-02) (0, -7.27780163288116455078e-02) (1, 1.04740485548973083496e-02) (2, 7.44764134287834167480e-02) (3, -2.23413556814193725586e-02) (4, -4.08267974853515625000e-02) (5, -7.51735717058181762695e-02) (6, -7.54707604646682739258e-02) (7, -4.84420768916606903076e-02) (8, 6.60060420632362365723e-02) (9, 8.88710692524909973145e-02) (10, -2.41038724780082702637e-02) (11, -3.37241962552070617676e-02) (12, 8.45943614840507507324e-02) (13, 7.28959515690803527832e-02) (14, -9.97699797153472900391e-03) (0, 8.12568739056587219238e-02) (1, 1.62732824683189392090e-02) (2, -2.65493020415306091309e-02) (3, 8.08264240622520446777e-02) (4, -3.27000766992568969727e-02) (5, 4.99838665127754211426e-02) (6, -1.68921947479248046875e-02) (7, 5.78569397330284118652e-02) (8, -5.47661334276199340820e-02) (9, 8.24112072587013244629e-02) (10, -4.51309196650981903076e-02) (11, -3.01038771867752075195e-02) (12, -4.97399345040321350098e-02) (13, 3.18085476756095886230e-02) (14, 6.92834332585334777832e-02) (0, 6.07071444392204284668e-02) (1, 5.90305402874946594238e-02) (2, -2.02425047755241394043e-02) (3, 3.51835563778877258301e-02) (4, -6.33108317852020263672e-02) (5, 3.89306917786598205566e-02) (6, 6.00099787116050720215e-02) (7, -3.87815833091735839844e-02) (8, 9.04886201024055480957e-02) (9, 2.60160043835639953613e-02) (10, -4.99105118215084075928e-02) (11, -3.36152538657188415527e-02) (12, 9.22918245196342468262e-02) (13, -6.53161555528640747070e-02) (14, -6.07193186879158020020e-02) (0, -1.76851749420166015625e-02) (1, -8.40592831373214721680e-02) (2, 5.55539652705192565918e-02) (3, 5.57655170559883117676e-02) (4, 9.67671349644660949707e-02) (5, -7.71461129188537597656e-02) (6, 5.74938952922821044922e-03) (7, -2.01250538229942321777e-02) (8, 8.07108357548713684082e-02) (9, 5.09832575917243957520e-02) (10, -3.77138555049896240234e-02) (11, -6.44200891256332397461e-02) (12, -7.91206210851669311523e-02) (13, 1.25462189316749572754e-02) (14, 6.73884674906730651855e-02) (0, 9.01628211140632629395e-02) (1, -2.67466455698013305664e-02) (2, 2.64189913868904113770e-02) (3, -3.00796851515769958496e-02) (4, -9.15630981326103210449e-02) (5, 6.31081536412239074707e-02) (6, -9.11489948630332946777e-02) (7, 6.84468820691108703613e-02) (8, -7.56734237074851989746e-02) (9, 9.93396267294883728027e-02) (10, -5.53710758686065673828e-03) (11, -2.55839303135871887207e-02) (12, -3.42756360769271850586e-02) (13, -1.32452845573425292969e-02) (14, 9.09992307424545288086e-03) (0, 5.00504672527313232422e-03) (1, 6.90695419907569885254e-02) (2, 2.50406339764595031738e-02) (3, -3.94409857690334320068e-02) (4, 2.48350650072097778320e-02) (5, 2.18077749013900756836e-02) (6, -1.65870934724807739258e-02) (7, -6.94155469536781311035e-02) (8, -9.83172804117202758789e-02) (9, -3.58762592077255249023e-02) (10, 8.15677121281623840332e-02) (11, -3.60311269760131835938e-02) (12, -2.96346843242645263672e-04) (13, -9.75529104471206665039e-02) (14, 7.65150859951972961426e-02) (0, -3.29078882932662963867e-02) (1, 9.26099196076393127441e-02) (2, -5.02315536141395568848e-02) (3, 9.35110971331596374512e-02) (4, -3.74697744846343994141e-02) (5, -4.17946465313434600830e-02) (6, 5.66192492842674255371e-02) (7, -2.86187678575515747070e-02) (8, -7.33477622270584106445e-02) (9, 8.09458270668983459473e-02) (10, -2.92791351675987243652e-02) (11, 2.11151391267776489258e-02) (12, -4.46381047368049621582e-02) (13, 3.64452227950096130371e-02) (14, -9.21301543712615966797e-02) (0, 6.44618198275566101074e-02) (1, -5.85497207939624786377e-02) (2, 7.69393965601921081543e-02) (3, -1.04975476861000061035e-02) (4, 2.00929492712020874023e-03) (5, 1.77444517612457275391e-03) (6, -8.86897668242454528809e-02) (7, 8.54221954941749572754e-02) (8, 3.23588922619819641113e-02) (9, -8.70070382952690124512e-02) (10, -5.04540614783763885498e-02) (11, 1.39266103506088256836e-02) (12, -2.30381637811660766602e-02) (13, 4.92495968937873840332e-02) (14, 1.63737088441848754883e-02) (0, -4.65230755507946014404e-02) (1, -8.36583003401756286621e-02) (2, 8.98361206054687500000e-03) (3, 3.24536859989166259766e-03) (4, -9.01472121477127075195e-02) (5, 7.15138390660285949707e-02) (6, 6.14507272839546203613e-02) (7, 6.64720460772514343262e-02) (8, -5.71049191057682037354e-02) (9, 8.81029590964317321777e-02) (10, 4.74178865551948547363e-02) (11, 1.36159434914588928223e-02) (12, 9.21809673309326171875e-03) (13, -9.72202271223068237305e-02) (14, -4.99388277530670166016e-02) (15, 1.70879364013671875000e-02) (16, 6.72416016459465026855e-02) (17, -8.48855078220367431641e-03) (18, -5.97266852855682373047e-03) (19, -4.32559512555599212646e-02) (20, 9.35207530856132507324e-02) (21, 9.58017781376838684082e-02) (22, -3.19457203149795532227e-02) (23, 7.89429470896720886230e-02) (24, 2.81606838107109069824e-02) (25, -1.89527571201324462891e-02) (26, -7.15111196041107177734e-02) (27, -5.79127185046672821045e-02) (15, 5.80090805888175964355e-02) (16, 7.77384713292121887207e-02) (17, 5.84609881043434143066e-02) (18, -8.85140076279640197754e-02) (19, 9.40801724791526794434e-02) (20, -3.25553938746452331543e-02) (21, 1.47313699126243591309e-02) (22, -9.60670411586761474609e-02) (23, -6.10415488481521606445e-02) (24, -2.38179117441177368164e-02) (25, 7.04050138592720031738e-02) (26, -1.81464701890945434570e-02) (27, -3.57149466872215270996e-02) (15, 1.78228840231895446777e-02) (16, 9.54694822430610656738e-02) (17, 7.35031440854072570801e-02) (18, 2.06026583909988403320e-02) (19, -5.44693544507026672363e-02) (20, -9.40892100334167480469e-03) (21, -1.21557489037513732910e-02) (22, 3.70420888066291809082e-02) (23, 8.46184119582176208496e-02) (24, 4.45883050560951232910e-02) (25, 3.05628404021263122559e-02) (26, 8.04201886057853698730e-02) (27, -8.73574167490005493164e-02) (15, 9.50578600168228149414e-03) (16, 8.58086347579956054688e-03) (17, -6.31017237901687622070e-03) (18, 3.79946753382682800293e-02) (19, 5.06681427359580993652e-02) (20, -4.83010970056056976318e-02) (21, 1.57331377267837524414e-02) (22, 9.12912935018539428711e-03) (23, -3.68150919675827026367e-02) (24, 9.81330871582031250000e-03) (25, 7.65737369656562805176e-02) (26, 7.79162719845771789551e-02) (27, 1.37462764978408813477e-02) (15, -8.44678059220314025879e-02) (16, -4.59016449749469757080e-02) (17, -1.58487185835838317871e-02) (18, -2.61427462100982666016e-03) (19, 1.83834061026573181152e-02) (20, -9.80258360505104064941e-02) (21, -7.14479386806488037109e-03) (22, -8.11345130205154418945e-03) (23, 2.25768312811851501465e-02) (24, 3.83858606219291687012e-02) (25, 8.24776366353034973145e-02) (26, -8.95789191126823425293e-02) (27, -2.45720520615577697754e-02) (15, 6.70960471034049987793e-02) (16, 5.50093725323677062988e-02) (17, -9.40092056989669799805e-02) (18, 4.75162342190742492676e-02) (19, 6.76519647240638732910e-02) (20, 1.54965743422508239746e-02) (21, -4.39029149711132049561e-02) (22, -3.86582016944885253906e-02) (23, -4.65087592601776123047e-02) (24, -9.32347699999809265137e-02) (25, 1.30407065153121948242e-02) (26, 6.92243799567222595215e-02) (27, 1.58943682909011840820e-02) (15, 7.62256011366844177246e-02) (16, -2.09623128175735473633e-02) (17, -7.53189623355865478516e-03) (18, 5.41418865323066711426e-02) (19, 9.27839502692222595215e-02) (20, 8.00029933452606201172e-03) (21, -9.17597711086273193359e-02) (22, -2.30647623538970947266e-02) (23, -9.46139767765998840332e-02) (24, 2.66236439347267150879e-02) (25, -2.10905969142913818359e-02) (26, -1.75876915454864501953e-03) (27, -8.14898088574409484863e-02) (15, -9.85137671232223510742e-02) (16, -6.33729174733161926270e-02) (17, -9.90121811628341674805e-02) (18, -8.80926921963691711426e-02) (19, 1.20550394058227539062e-02) (20, 6.80838599801063537598e-02) (21, 6.69166967272758483887e-02) (22, 1.80458277463912963867e-02) (23, 1.56000852584838867188e-02) (24, 3.45686748623847961426e-02) (25, -6.64575994014739990234e-02) (26, 7.16971829533576965332e-02) (27, 9.59104523062705993652e-02) (15, -1.29663497209548950195e-02) (16, 7.84623995423316955566e-02) (17, 8.95116478204727172852e-03) (18, -4.37419787049293518066e-02) (19, -5.64323365688323974609e-03) (20, -1.48232281208038330078e-02) (21, 3.52957174181938171387e-02) (22, 8.68248715996742248535e-02) (23, -6.06813542544841766357e-02) (24, 2.80796661972999572754e-02) (25, -5.17483055591583251953e-03) (26, -5.24411201477050781250e-02) (27, -9.49850976467132568359e-02) (15, 2.11201608180999755859e-04) (16, 7.41825178265571594238e-02) (17, -1.60756930708885192871e-02) (18, 9.84524413943290710449e-02) (19, 9.26927104592323303223e-02) (20, -1.45894661545753479004e-02) (21, -6.49204850196838378906e-02) (22, 9.36805382370948791504e-02) (23, -2.68214941024780273438e-03) (24, 4.71345558762550354004e-02) (25, 6.17643967270851135254e-02) (26, -3.57654541730880737305e-02) (27, -3.48196178674697875977e-02) (15, -2.26355195045471191406e-02) (16, 9.88031998276710510254e-02) (17, -1.27721577882766723633e-03) (18, -5.09383492171764373779e-02) (19, 9.47136655449867248535e-02) (20, 8.57564285397529602051e-02) (21, -7.24759474396705627441e-02) (22, 3.66482883691787719727e-03) (23, -5.79855404794216156006e-02) (24, 2.18808278441429138184e-02) (25, 8.88415947556495666504e-02) (26, 7.73101672530174255371e-02) (27, 8.70569795370101928711e-03) (28, -7.18397572636604309082e-02) (29, 5.38983196020126342773e-03) (30, -9.64691266417503356934e-02) (31, -2.42808833718299865723e-02) (32, 1.04047283530235290527e-02) (33, 3.74207645654678344727e-03) (34, -5.00983558595180511475e-02) (35, 9.43290516734123229980e-02) (36, 2.19450891017913818359e-03) (37, -5.74056468904018402100e-02) (38, -2.02604234218597412109e-02) (39, 3.72740253806114196777e-02) (28, -6.37251138687133789062e-02) (29, 7.70574286580085754395e-02) (30, -1.55914127826690673828e-02) (31, 9.80392768979072570801e-02) (32, -5.87080307304859161377e-02) (33, 4.95889708399772644043e-02) (34, -2.45962440967559814453e-02) (35, -5.99048286676406860352e-02) (36, -5.16882427036762237549e-02) (37, 2.44654044508934020996e-02) (38, -6.51911646127700805664e-02) (39, -6.59318119287490844727e-02) (28, 5.19894585013389587402e-02) (29, 3.84736731648445129395e-02) (30, -2.39173471927642822266e-02) (31, -2.61297151446342468262e-02) (32, 2.73152664303779602051e-02) (33, -4.66071851551532745361e-02) (34, 8.25759842991828918457e-02) (35, 5.54754957556724548340e-02) (36, 5.87826445698738098145e-02) (37, 8.61068591475486755371e-02) (38, -6.88053816556930541992e-02) (39, -3.08126136660575866699e-02) (28, -1.01510658860206604004e-02) (29, -1.89037397503852844238e-02) (30, -3.64835709333419799805e-02) (31, 9.20434519648551940918e-02) (32, 2.36906185746192932129e-02) (33, 4.32560071349143981934e-02) (34, 2.93174758553504943848e-02) (35, 5.99654987454414367676e-02) (36, 2.03134268522262573242e-02) (37, -8.62739309668540954590e-02) (38, 5.80047890543937683105e-02) (39, 6.16054013371467590332e-02) (28, 6.33150413632392883301e-02) (29, -6.65914714336395263672e-02) (30, -9.82994288206100463867e-02) (31, -8.83732065558433532715e-02) (32, 5.78739419579505920410e-02) (33, -6.34905919432640075684e-02) (34, -5.43050095438957214355e-02) (35, 9.86339896917343139648e-03) (36, 7.49830678105354309082e-02) (37, 2.17776447534561157227e-02) (38, 8.37336853146553039551e-02) (39, 2.29833275079727172852e-03) (28, 7.51704648137092590332e-02) (29, 6.63096681237220764160e-02) (30, -4.22261655330657958984e-02) (31, 3.39531078934669494629e-02) (32, 5.24165108799934387207e-02) (33, -1.10315456986427307129e-02) (34, -9.68595072627067565918e-02) (35, -5.77345490455627441406e-02) (36, 7.00647309422492980957e-02) (37, -3.33430767059326171875e-02) (38, -6.56910985708236694336e-02) (39, -6.24465942382812500000e-03) (28, -9.00870710611343383789e-02) (29, 6.36263713240623474121e-02) (30, -4.62791584432125091553e-02) (31, 3.02263572812080383301e-02) (32, 7.73524418473243713379e-02) (33, -8.82743820548057556152e-02) (34, -8.16823542118072509766e-03) (35, 4.06674817204475402832e-02) (36, -5.48658445477485656738e-02) (37, -6.46765530109405517578e-03) (38, 5.22942766547203063965e-02) (39, -9.69919040799140930176e-02) (28, 3.00417616963386535645e-02) (29, 9.79892686009407043457e-02) (30, 1.28714889287948608398e-02) (31, 5.02482801675796508789e-03) (32, 1.97669118642807006836e-02) (33, -3.39482724666595458984e-03) (34, -9.26768407225608825684e-02) (35, -5.06262481212615966797e-03) (36, -3.70851606130599975586e-02) (37, -3.49030047655105590820e-02) (38, -7.11095184087753295898e-02) (39, -8.46686437726020812988e-02) (28, 5.40654584765434265137e-02) (29, -6.79690241813659667969e-02) (30, -4.24031913280487060547e-02) (31, 2.41301804780960083008e-02) (32, -1.31209194660186767578e-03) (33, -8.09429585933685302734e-03) (34, -8.21144878864288330078e-02) (35, 8.60083103179931640625e-03) (36, -4.44679148495197296143e-02) (37, -2.83936411142349243164e-02) (38, -6.11728020012378692627e-02) (39, -6.71154707670211791992e-02) (28, -1.66680216789245605469e-02) (29, 3.06589677929878234863e-02) (30, 7.35520198941230773926e-02) (31, 2.84661278128623962402e-02) (32, -7.58086889982223510742e-02) (33, 2.58462950587272644043e-02) (34, 3.14742401242256164551e-02) (35, 5.42330667376518249512e-02) (36, 2.38355621695518493652e-02) (37, -5.56542761623859405518e-02) (38, -4.07421104609966278076e-02) (39, -5.63975237309932708740e-02) 
