FANN_FLO_2.1
num_layers=4
learning_rate=0.700000
connection_rate=1.000000
network_type=0
learning_momentum=0.000000
training_algorithm=2
train_error_function=1
train_stop_function=0
cascade_output_change_fraction=0.010000
quickprop_decay=-0.000100
quickprop_mu=1.750000
rprop_increase_factor=1.200000
rprop_decrease_factor=0.500000
rprop_delta_min=0.000000
rprop_delta_max=50.000000
rprop_delta_zero=0.100000
cascade_output_stagnation_epochs=12
cascade_candidate_change_fraction=0.010000
cascade_candidate_stagnation_epochs=12
cascade_max_out_epochs=150
cascade_min_out_epochs=50
cascade_max_cand_epochs=150
cascade_min_cand_epochs=50
cascade_num_candidate_groups=2
bit_fail_limit=3.49999994039535522461e-01
cascade_candidate_limit=1.00000000000000000000e+03
cascade_weight_multiplier=4.00000005960464477539e-01
cascade_activation_functions_count=10
cascade_activation_functions=3 5 7 8 10 11 14 15 16 17 
cascade_activation_steepnesses_count=4
cascade_activation_steepnesses=2.50000000000000000000e-01 5.00000000000000000000e-01 7.50000000000000000000e-01 1.00000000000000000000e+00 
layer_sizes=15 13 12 11 
scale_included=0
neurons (num_inputs, activation_function, activation_steepness)=(0, 0, 0.00000000000000000000e+00) (0, 0, 0.00000000000000000000e+00) (0, 0, 0.00000000000000000000e+00) (0, 0, 0.00000000000000000000e+00) (0, 0, 0.00000000000000000000e+00) (0, 0, 0.00000000000000000000e+00) (0, 0, 0.00000000000000000000e+00) (0, 0, 0.00000000000000000000e+00) (0, 0, 0.00000000000000000000e+00) (0, 0, 0.00000000000000000000e+00) (0, 0, 0.00000000000000000000e+00) (0, 0, 0.00000000000000000000e+00) (0, 0, 0.00000000000000000000e+00) (0, 0, 0.00000000000000000000e+00) (0, 0, 0.00000000000000000000e+00) (15, 5, 5.00000000000000000000e-01) (15, 5, 5.00000000000000000000e-01) (15, 5, 5.00000000000000000000e-01) (15, 5, 5.00000000000000000000e-01) (15, 5, 5.00000000000000000000e-01) (15, 5, 5.00000000000000000000e-01) (15, 5, 5.00000000000000000000e-01) (15, 5, 5.00000000000000000000e-01) (15, 5, 5.00000000000000000000e-01) (15, 5, 5.00000000000000000000e-01) (15, 5, 5.00000000000000000000e-01) (15, 5, 5.00000000000000000000e-01) (0, 5, 0.00000000000000000000e+00) (13, 5, 5.00000000000000000000e-01) (13, 5, 5.00000000000000000000e-01) (13, 5, 5.00000000000000000000e-01) (13, 5, 5.00000000000000000000e-01) (13, 5, 5.00000000000000000000e-01) (13, 5, 5.00000000000000000000e-01) (13, 5, 5.00000000000000000000e-01) (13, 5, 5.00000000000000000000e-01) (13, 5, 5.00000000000000000000e-01) (13, 5, 5.00000000000000000000e-01) (13, 5, 5.00000000000000000000e-01) (0, 5, 0.00000000000000000000e+00) (12, 5, 5.00000000000000000000e-01) (12, 5, 5.00000000000000000000e-01) (12, 5, 5.00000000000000000000e-01) (12, 5, 5.00000000000000000000e-01) (12, 5, 5.00000000000000000000e-01) (12, 5, 5.00000000000000000000e-01) (12, 5, 5.00000000000000000000e-01) (12, 5, 5.00000000000000000000e-01) (12, 5, 5.00000000000000000000e-01) (12, 5, 5.00000000000000000000e-01) (0, 5, 0.00000000000000000000e+00) 
connections (connected_to_neuron, weight)=(0, 2.00268030166625976562e-02) (1, -9.96892973780632019043e-02) (2, -6.87695592641830444336e-02) (3, 7.05853179097175598145e-02) (4, 5.55321350693702697754e-02) (5, -8.54409262537956237793e-02) (6, 1.73246860504150390625e-02) (7, 7.57972076535224914551e-02) (8, -8.26448425650596618652e-02) (9, -9.00495275855064392090e-02) (10, 1.14180445671081542969e-02) (11, 6.36844262480735778809e-02) (12, -9.30167585611343383789e-02) (13, 6.29288479685783386230e-02) (14, 5.48852309584617614746e-02) (0, 9.15996730327606201172e-03) (1, -2.79012471437454223633e-02) (2, -1.43091827630996704102e-02) (3, -7.52934291958808898926e-02) (4, 2.61664390563964843750e-05) (5, 6.77494481205940246582e-02) (6, 3.70705202221870422363e-02) (7, 3.53555753827095031738e-02) (8, 8.86870846152305603027e-02) (9, 3.39626148343086242676e-02) (10, -7.58421123027801513672e-02) (11, 6.34910091757774353027e-02) (12, 4.87088188529014587402e-02) (13, 2.72141173481941223145e-02) (14, 4.60081622004508972168e-02) (0, 7.02210515737533569336e-03) (1, -5.27590848505496978760e-02) (2, 4.63188514113426208496e-02) (3, 3.82525399327278137207e-02) (4, -8.21737796068191528320e-02) (5, 1.85099989175796508789e-03) (6, 5.28116300702095031738e-02) (7, 3.51509079337120056152e-02) (8, -2.23517864942550659180e-02) (9, 7.01667740941047668457e-02) (10, 4.51013818383216857910e-02) (11, 8.90662595629692077637e-02) (12, 3.38512137532234191895e-02) (13, 5.20846173167228698730e-02) (14, 5.19951060414314270020e-02) (0, -1.12635642290115356445e-02) (1, -3.87554131448268890381e-02) (2, -7.59061425924301147461e-02) (3, 7.44272544980049133301e-02) (4, -1.40488296747207641602e-02) (5, 2.41200178861618041992e-02) (6, 4.21766862273216247559e-02) (7, -7.69783258438110351562e-02) (8, -4.05243933200836181641e-02) (9, 3.08637693524360656738e-02) (10, 5.69842979311943054199e-02) (11, -1.63665115833282470703e-02) (12, -5.64521551132202148438e-03) (13, 5.69311529397964477539e-03) (14, -8.91523957252502441406e-02) (0, -5.96370622515678405762e-02) (1, -8.72847810387611389160e-02) (2, -4.19114828109741210938e-02) (3, 8.66817906498908996582e-02) (4, 5.09677603840827941895e-02) (5, -2.40852534770965576172e-02) (6, -1.14672034978866577148e-02) (7, 3.77938896417617797852e-03) (8, -8.89343470335006713867e-02) (9, 6.61810114979743957520e-02) (10, -2.60538309812545776367e-02) (11, 5.61670288443565368652e-02) (12, 5.52472546696662902832e-02) (13, -9.22026261687278747559e-02) (14, 8.25164467096328735352e-03) (0, 7.24236667156219482422e-03) (1, -3.46618890762329101562e-03) (2, 6.94962367415428161621e-02) (3, 3.13362404704093933105e-02) (4, -2.90389358997344970703e-02) (5, -4.45525944232940673828e-02) (6, -4.45437505841255187988e-02) (7, -8.68622437119483947754e-02) (8, -2.15309187769889831543e-02) (9, 1.49318575859069824219e-02) (10, 4.40015271306037902832e-02) (11, -6.45466297864913940430e-02) (12, 9.85653474926948547363e-02) (13, -6.16436786949634552002e-02) (14, 4.11464795470237731934e-02) (0, -9.05870497226715087891e-02) (1, -2.12807431817054748535e-02) (2, 5.38616999983787536621e-02) (3, -3.24985235929489135742e-02) (4, -3.45989391207695007324e-02) (5, 4.82946634292602539062e-03) (6, 4.34162095189094543457e-02) (7, 5.39338514208793640137e-02) (8, -9.13911461830139160156e-02) (9, 5.44818714261054992676e-02) (10, 2.01148539781570434570e-02) (11, -1.74449831247329711914e-02) (12, 1.06488913297653198242e-02) (13, -2.46378853917121887207e-02) (14, -9.64760780334472656250e-03) (0, -8.10994505882263183594e-02) (1, 8.26044753193855285645e-02) (2, 8.68862047791481018066e-02) (3, 8.83967950940132141113e-02) (4, 1.39407142996788024902e-02) (5, -4.21527326107025146484e-02) (6, -5.61558119952678680420e-02) (7, 6.93969801068305969238e-02) (8, -2.90149748325347900391e-02) (9, 2.23132595419883728027e-02) (10, -1.56711786985397338867e-02) (11, -8.50134417414665222168e-02) (12, 5.77666237950325012207e-02) (13, -1.71058252453804016113e-02) (14, -4.66571226716041564941e-02) (0, -1.08689069747924804688e-03) (1, -7.69287347793579101562e-03) (2, 3.20621356368064880371e-02) (3, -4.72251884639263153076e-02) (4, 5.98086044192314147949e-02) (5, 9.74631980061531066895e-02) (6, 5.76042756438255310059e-02) (7, 3.22481244802474975586e-03) (8, 5.13970479369163513184e-02) (9, 6.62131384015083312988e-02) (10, -4.22933176159858703613e-02) (11, -2.84880995750427246094e-02) (12, -5.12318462133407592773e-02) (13, 6.83555826544761657715e-02) (14, 4.68740090727806091309e-02) (0, 3.91205474734306335449e-02) (1, 8.72561261057853698730e-02) (2, 2.94784978032112121582e-02) (3, 2.60067507624626159668e-02) (4, 7.56529048085212707520e-02) (5, -5.65807931125164031982e-02) (6, 8.38540270924568176270e-02) (7, -8.05029049515724182129e-02) (8, -8.71838256716728210449e-02) (9, -4.51609604060649871826e-02) (10, 4.18103709816932678223e-02) (11, -2.85499542951583862305e-03) (12, -3.01743969321250915527e-02) (13, -4.23006713390350341797e-04) (14, 8.00391808152198791504e-02) (0, 2.31684818863868713379e-02) (1, 9.84901115298271179199e-02) (2, -2.76536941528320312500e-02) (3, -4.47693839669227600098e-02) (4, -4.87350821495056152344e-02) (5, -6.78450986742973327637e-02) (6, -4.73061800003051757812e-02) (7, -9.11308005452156066895e-02) (8, 3.53797152638435363770e-02) (9, -9.59091335535049438477e-02) (10, 7.50823393464088439941e-02) (11, 9.30863991379737854004e-02) (12, -2.43972390890121459961e-02) (13, -7.61495083570480346680e-02) (14, 6.14419803023338317871e-02) (0, -7.75232240557670593262e-02) (1, 6.29710331559181213379e-02) (2, 4.86981049180030822754e-02) (3, 5.19552752375602722168e-02) (4, -1.10222175717353820801e-02) (5, 2.43510231375694274902e-02) (6, 9.53744724392890930176e-02) (7, -2.71681994199752807617e-02) (8, 4.38481196761131286621e-02) (9, -9.18093472719192504883e-02) (10, 2.76708379387855529785e-02) (11, -1.43415182828903198242e-02) (12, 5.33566623926162719727e-03) (13, 9.74964424967765808105e-02) (14, 8.52354839444160461426e-02) (15, -1.46251618862152099609e-02) (16, 2.06649154424667358398e-02) (17, 8.37255790829658508301e-02) (18, 5.77211454510688781738e-02) (19, 7.58955404162406921387e-02) (20, -6.50095045566558837891e-02) (21, 8.98760482668876647949e-02) (22, -7.14106485247611999512e-02) (23, -5.61402998864650726318e-02) (24, 2.52557620406150817871e-02) (25, -6.73197805881500244141e-02) (26, -8.10579657554626464844e-02) (27, 1.83421596884727478027e-02) (15, 8.28298181295394897461e-03) (16, -5.72074726223945617676e-02) (17, -2.02158540487289428711e-02) (18, 3.07597592473030090332e-02) (19, -9.42364409565925598145e-02) (20, -7.15177431702613830566e-02) (21, -1.72849595546722412109e-02) (22, -5.25865703821182250977e-03) (23, 5.28332665562629699707e-02) (24, -2.19104811549186706543e-02) (25, 6.75731375813484191895e-02) (26, -3.31860780715942382812e-03) (27, -1.37198194861412048340e-02) (15, -4.75601851940155029297e-03) (16, 8.23398754000663757324e-02) (17, 9.16158482432365417480e-02) (18, -7.25958496332168579102e-03) (19, 6.75753429532051086426e-02) (20, -2.30093225836753845215e-02) (21, -8.65946710109710693359e-02) (22, 5.13009354472160339355e-02) (23, -6.52881860733032226562e-02) (24, 8.93008783459663391113e-02) (25, 8.62914398312568664551e-02) (26, -7.54121392965316772461e-02) (27, -8.21097791194915771484e-02) (15, -6.98488652706146240234e-02) (16, 4.98436167836189270020e-02) (17, -4.94295619428157806396e-02) (18, -5.09068332612514495850e-02) (19, -3.18142101168632507324e-02) (20, 5.88534399867057800293e-02) (21, -8.11430066823959350586e-03) (22, 4.79699447751045227051e-02) (23, -1.03868097066879272461e-02) (24, -2.35074013471603393555e-03) (25, 7.64522030949592590332e-02) (26, 7.23282322287559509277e-02) (27, 9.23906043171882629395e-02) (15, 2.92854681611061096191e-02) (16, -4.95822504162788391113e-02) (17, 5.99637553095817565918e-02) (18, -7.40331411361694335938e-02) (19, 3.66979315876960754395e-02) (20, -4.47922721505165100098e-02) (21, -9.16932746767997741699e-02) (22, 2.83137634396553039551e-02) (23, 4.79481443762779235840e-02) (24, 7.58820846676826477051e-02) (25, -9.46955531835556030273e-02) (26, 6.13534823060035705566e-02) (27, 2.71830037236213684082e-02) (15, -5.99837377667427062988e-02) (16, 5.06543442606925964355e-02) (17, 1.34744420647621154785e-02) (18, -3.53958755731582641602e-02) (19, 6.85445740818977355957e-02) (20, 4.36255708336830139160e-02) (21, -8.55522453784942626953e-02) (22, -8.08849930763244628906e-02) (23, 9.27187427878379821777e-02) (24, -1.73664540052413940430e-02) (25, 7.79684409499168395996e-02) (26, -1.53955668210983276367e-02) (27, -6.93965181708335876465e-02) (15, -3.24183627963066101074e-02) (16, 8.22537019848823547363e-02) (17, -9.29443314671516418457e-02) (18, -6.00901357829570770264e-02) (19, 7.46443048119544982910e-02) (20, 3.63411381840705871582e-02) (21, -9.67238098382949829102e-03) (22, 3.46080586314201354980e-02) (23, 6.23079910874366760254e-02) (24, -7.29744508862495422363e-02) (25, 8.98157879710197448730e-02) (26, 7.06147179007530212402e-02) (27, 5.53393289446830749512e-02) (15, 3.77639159560203552246e-02) (16, 4.64968010783195495605e-02) (17, 6.06437698006629943848e-02) (18, -8.82603228092193603516e-04) (19, -2.63201966881752014160e-02) (20, -9.93399769067764282227e-02) (21, -5.02282567322254180908e-02) (22, 8.71542468667030334473e-02) (23, -3.47358435392379760742e-02) (24, -8.16836878657341003418e-02) (25, 3.07798162102699279785e-02) (26, -2.02880948781967163086e-02) (27, -6.25686794519424438477e-02) (15, 2.34985575079917907715e-02) (16, 6.23454526066780090332e-02) (17, -8.46002474427223205566e-02) (18, -9.18970033526420593262e-02) (19, 9.29489210247993469238e-02) (20, -1.70186087489128112793e-02) (21, 9.03567001223564147949e-02) (22, -9.99954044818878173828e-02) (23, 2.28912606835365295410e-02) (24, 6.50010034441947937012e-02) (25, 3.63457277417182922363e-02) (26, -8.67811292409896850586e-02) (27, -3.90946865081787109375e-04) (15, -1.34627521038055419922e-03) (16, -5.97555749118328094482e-02) (17, -1.05751678347587585449e-02) (18, -3.07315587997436523438e-02) (19, 9.55837443470954895020e-02) (20, -7.28112459182739257812e-02) (21, -8.42347666621208190918e-02) (22, 5.62275126576423645020e-02) (23, 2.63061597943305969238e-02) (24, -1.05549544095993041992e-02) (25, 5.68875297904014587402e-02) (26, 7.60779008269309997559e-02) (27, -2.34007090330123901367e-02) (15, -7.78483152389526367188e-02) (16, 9.43942144513130187988e-02) (17, -9.26208943128585815430e-02) (18, 1.86359882354736328125e-03) (19, -6.81744739413261413574e-02) (20, 3.08776572346687316895e-02) (21, -3.57909575104713439941e-02) (22, -5.27747161686420440674e-02) (23, 3.89806702733039855957e-02) (24, -4.28420267999172210693e-02) (25, 3.02066728472709655762e-02) (26, 2.93373540043830871582e-02) (27, -4.28374223411083221436e-02) (28, -4.69020716845989227295e-02) (29, -5.66163659095764160156e-03) (30, 9.35083106160163879395e-02) (31, -3.36831957101821899414e-02) (32, 9.39474180340766906738e-02) (33, -7.83796608448028564453e-03) (34, 6.56123459339141845703e-03) (35, -1.66277587413787841797e-02) (36, 6.14304766058921813965e-02) (37, 2.14497745037078857422e-03) (38, 1.05609893798828125000e-02) (39, 7.71957114338874816895e-02) (28, -4.16275151073932647705e-02) (29, -6.31328523159027099609e-02) (30, -3.33592444658279418945e-02) (31, -8.47399830818176269531e-02) (32, -8.70549529790878295898e-02) (33, 4.32400330901145935059e-02) (34, -6.25882893800735473633e-02) (35, -9.26607474684715270996e-02) (36, 5.06191328167915344238e-02) (37, 3.92752960324287414551e-02) (38, -6.08352236449718475342e-02) (39, -1.85031965374946594238e-02) (28, -9.65156555175781250000e-02) (29, -1.36099308729171752930e-02) (30, -7.95225352048873901367e-02) (31, -3.93576733767986297607e-02) (32, -8.34032595157623291016e-02) (33, 4.98148277401924133301e-02) (34, 1.78048983216285705566e-02) (35, -3.03053334355354309082e-02) (36, -5.58468103408813476562e-02) (37, 1.13132148981094360352e-02) (38, 3.60114648938179016113e-02) (39, -6.18993975222110748291e-02) (28, -9.65247526764869689941e-02) (29, -5.74272982776165008545e-02) (30, 2.14728489518165588379e-02) (31, 6.49057254195213317871e-02) (32, 4.47176769375801086426e-02) (33, -6.79661631584167480469e-02) (34, 4.21014353632926940918e-02) (35, -9.69098433852195739746e-02) (36, -3.10990065336227416992e-02) (37, -9.12578180432319641113e-02) (38, -8.16498249769210815430e-02) (39, -1.81539654731750488281e-02) (28, 5.19822314381599426270e-02) (29, -4.42381165921688079834e-02) (30, -1.08147114515304565430e-02) (31, 2.60137021541595458984e-03) (32, 9.50371846556663513184e-02) (33, 2.83500626683235168457e-02) (34, 8.40981677174568176270e-02) (35, 9.85215380787849426270e-02) (36, -8.52598696947097778320e-02) (37, -9.54243615269660949707e-02) (38, -4.08361367881298065186e-02) (39, -6.86631351709365844727e-02) (28, 5.43904826045036315918e-02) (29, 7.69687667489051818848e-02) (30, 1.03153288364410400391e-03) (31, 9.85436663031578063965e-02) (32, -1.17180198431015014648e-02) (33, -6.29569888114929199219e-02) (34, -6.33557289838790893555e-02) (35, -8.24277102947235107422e-03) (36, -2.03842893242835998535e-02) (37, 5.81171140074729919434e-02) (38, -4.33370545506477355957e-02) (39, -7.56666138768196105957e-02) (28, 9.01509597897529602051e-02) (29, 9.87643823027610778809e-02) (30, -7.25764483213424682617e-02) (31, -4.09480519592761993408e-02) (32, -9.24934372305870056152e-02) (33, -5.42262755334377288818e-02) (34, 4.08979728817939758301e-02) (35, 5.94887807965278625488e-02) (36, 1.53561681509017944336e-03) (37, -6.99167326092720031738e-02) (38, -3.79098430275917053223e-02) (39, -3.42719256877899169922e-03) (28, 5.84333464503288269043e-02) (29, -5.38116656243801116943e-02) (30, -4.90565598011016845703e-03) (31, 7.31734707951545715332e-02) (32, -4.92360256612300872803e-02) (33, 5.42582049965858459473e-02) (34, -9.54896658658981323242e-02) (35, -9.48455557227134704590e-02) (36, 3.12269702553749084473e-02) (37, 5.54187595844268798828e-03) (38, -9.63018909096717834473e-02) (39, -8.04910510778427124023e-02) (28, 4.25848737359046936035e-02) (29, -5.96576184034347534180e-02) (30, 1.12661719322204589844e-02) (31, -7.77994170784950256348e-02) (32, 9.84594896435737609863e-02) (33, 6.79291114211082458496e-02) (34, -5.34660257399082183838e-02) (35, 8.86104479432106018066e-02) (36, 6.66934922337532043457e-02) (37, -2.60424762964248657227e-02) (38, -5.23376017808914184570e-02) (39, 7.42000564932823181152e-02) (28, 1.97312459349632263184e-02) (29, 8.85603800415992736816e-02) (30, 3.36888507008552551270e-02) (31, -7.87331387400627136230e-02) (32, -8.13563540577888488770e-02) (33, 9.57790091633796691895e-02) (34, 1.78396701812744140625e-02) (35, 7.70769789814949035645e-02) (36, -5.80326579511165618896e-02) (37, -8.70659947395324707031e-02) (38, 5.02504482865333557129e-02) (39, -7.26868212223052978516e-03) 
