FANN_FLO_2.1
num_layers=4
learning_rate=0.700000
connection_rate=1.000000
network_type=0
learning_momentum=0.000000
training_algorithm=2
train_error_function=1
train_stop_function=0
cascade_output_change_fraction=0.010000
quickprop_decay=-0.000100
quickprop_mu=1.750000
rprop_increase_factor=1.200000
rprop_decrease_factor=0.500000
rprop_delta_min=0.000000
rprop_delta_max=50.000000
rprop_delta_zero=0.100000
cascade_output_stagnation_epochs=12
cascade_candidate_change_fraction=0.010000
cascade_candidate_stagnation_epochs=12
cascade_max_out_epochs=150
cascade_min_out_epochs=50
cascade_max_cand_epochs=150
cascade_min_cand_epochs=50
cascade_num_candidate_groups=2
bit_fail_limit=3.49999994039535522461e-01
cascade_candidate_limit=1.00000000000000000000e+03
cascade_weight_multiplier=4.00000005960464477539e-01
cascade_activation_functions_count=10
cascade_activation_functions=3 5 7 8 10 11 14 15 16 17 
cascade_activation_steepnesses_count=4
cascade_activation_steepnesses=2.50000000000000000000e-01 5.00000000000000000000e-01 7.50000000000000000000e-01 1.00000000000000000000e+00 
layer_sizes=15 13 12 11 
scale_included=0
neurons (num_inputs, activation_function, activation_steepness)=(0, 0, 0.00000000000000000000e+00) (0, 0, 0.00000000000000000000e+00) (0, 0, 0.00000000000000000000e+00) (0, 0, 0.00000000000000000000e+00) (0, 0, 0.00000000000000000000e+00) (0, 0, 0.00000000000000000000e+00) (0, 0, 0.00000000000000000000e+00) (0, 0, 0.00000000000000000000e+00) (0, 0, 0.00000000000000000000e+00) (0, 0, 0.00000000000000000000e+00) (0, 0, 0.00000000000000000000e+00) (0, 0, 0.00000000000000000000e+00) (0, 0, 0.00000000000000000000e+00) (0, 0, 0.00000000000000000000e+00) (0, 0, 0.00000000000000000000e+00) (15, 5, 5.00000000000000000000e-01) (15, 5, 5.00000000000000000000e-01) (15, 5, 5.00000000000000000000e-01) (15, 5, 5.00000000000000000000e-01) (15, 5, 5.00000000000000000000e-01) (15, 5, 5.00000000000000000000e-01) (15, 5, 5.00000000000000000000e-01) (15, 5, 5.00000000000000000000e-01) (15, 5, 5.00000000000000000000e-01) (15, 5, 5.00000000000000000000e-01) (15, 5, 5.00000000000000000000e-01) (15, 5, 5.00000000000000000000e-01) (0, 5, 0.00000000000000000000e+00) (13, 5, 5.00000000000000000000e-01) (13, 5, 5.00000000000000000000e-01) (13, 5, 5.00000000000000000000e-01) (13, 5, 5.00000000000000000000e-01) (13, 5, 5.00000000000000000000e-01) (13, 5, 5.00000000000000000000e-01) (13, 5, 5.00000000000000000000e-01) (13, 5, 5.00000000000000000000e-01) (13, 5, 5.00000000000000000000e-01) (13, 5, 5.00000000000000000000e-01) (13, 5, 5.00000000000000000000e-01) (0, 5, 0.00000000000000000000e+00) (12, 5, 5.00000000000000000000e-01) (12, 5, 5.00000000000000000000e-01) (12, 5, 5.00000000000000000000e-01) (12, 5, 5.00000000000000000000e-01) (12, 5, 5.00000000000000000000e-01) (12, 5, 5.00000000000000000000e-01) (12, 5, 5.00000000000000000000e-01) (12, 5, 5.00000000000000000000e-01) (12, 5, 5.00000000000000000000e-01) (12, 5, 5.00000000000000000000e-01) (0, 5, 0.00000000000000000000e+00) 
connections (connected_to_neuron, weight)=(0, -5.60374781489372253418e-02) (1, 5.04558011889457702637e-02) (2, -1.39368996024131774902e-02) (3, 5.36072775721549987793e-02) (4, 7.92418420314788818359e-03) (5, 7.78239890933036804199e-02) (6, 8.37343558669090270996e-02) (7, 1.14369392395019531250e-03) (8, -5.66708482801914215088e-02) (9, 3.78904864192008972168e-02) (10, 1.26628726720809936523e-02) (11, -7.49270617961883544922e-03) (12, 1.54005661606788635254e-02) (13, 4.13024052977561950684e-02) (14, 6.64500072598457336426e-02) (0, 1.55074745416641235352e-02) (1, -8.06977450847625732422e-02) (2, 3.26906964182853698730e-02) (3, 5.80006018280982971191e-02) (4, 5.80895170569419860840e-02) (5, -7.25352168083190917969e-02) (6, -5.39787858724594116211e-03) (7, -5.21945208311080932617e-03) (8, -8.60890671610832214355e-02) (9, 1.94324254989624023438e-02) (10, -7.65882357954978942871e-02) (11, -8.05962085723876953125e-03) (12, -4.34243679046630859375e-03) (13, -8.51158797740936279297e-02) (14, 7.20582678914070129395e-02) (0, -8.53172317147254943848e-02) (1, -4.11533527076244354248e-02) (2, 2.25140452384948730469e-02) (3, 7.45870172977447509766e-04) (4, -8.75460803508758544922e-02) (5, -6.95617645978927612305e-02) (6, -2.14301496744155883789e-02) (7, 9.61882844567298889160e-02) (8, 3.15819308161735534668e-02) (9, 2.18990072607994079590e-02) (10, 3.40787693858146667480e-02) (11, -5.57551980018615722656e-02) (12, -8.55937004089355468750e-02) (13, -5.05206622183322906494e-02) (14, 8.55472162365913391113e-02) (0, 8.08563157916069030762e-02) (1, 6.49868175387382507324e-02) (2, -9.51505377888679504395e-02) (3, 1.35470032691955566406e-02) (4, 2.29874104261398315430e-02) (5, 6.29389807581901550293e-02) (6, 4.10117730498313903809e-02) (7, -8.24104696512222290039e-02) (8, -4.22804728150367736816e-02) (9, 5.49227073788642883301e-02) (10, 3.70219573378562927246e-02) (11, -1.88686996698379516602e-02) (12, -5.31369075179100036621e-02) (13, -6.73204809427261352539e-02) (14, -3.98458540439605712891e-03) (0, -8.10786485671997070312e-02) (1, -5.26377111673355102539e-02) (2, 5.48620745539665222168e-02) (3, 4.14353981614112854004e-02) (4, 4.81081530451774597168e-02) (5, 6.73159882426261901855e-02) (6, 7.18736276030540466309e-02) (7, -7.33219981193542480469e-02) (8, 6.35042712092399597168e-02) (9, 3.45555692911148071289e-03) (10, 4.85770180821418762207e-02) (11, -2.41696089506149291992e-03) (12, 4.77003529667854309082e-02) (13, 6.29833117127418518066e-02) (14, 4.70623746514320373535e-02) (0, 3.32475677132606506348e-02) (1, 4.38396260142326354980e-02) (2, 1.20491832494735717773e-02) (3, 3.80970314145088195801e-02) (4, -4.26133759319782257080e-02) (5, -6.49634078145027160645e-02) (6, 1.03601068258285522461e-03) (7, 9.83983948826789855957e-02) (8, -4.73738722503185272217e-02) (9, 5.87555393576622009277e-02) (10, 5.33211156725883483887e-02) (11, 8.96480754017829895020e-02) (12, -6.01131692528724670410e-02) (13, -9.98157933354377746582e-02) (14, -7.76723921298980712891e-02) (0, 3.59022542834281921387e-02) (1, -8.08944404125213623047e-02) (2, -3.03101018071174621582e-02) (3, -9.23568755388259887695e-03) (4, 6.05409517884254455566e-02) (5, -8.22019502520561218262e-02) (6, -4.19196970760822296143e-02) (7, 3.24145779013633728027e-02) (8, -5.55239431560039520264e-02) (9, -7.84154310822486877441e-02) (10, -6.41298592090606689453e-02) (11, 9.30530652403831481934e-02) (12, 1.91676020622253417969e-02) (13, 8.35704877972602844238e-02) (14, 5.60363754630088806152e-02) (0, -3.37700247764587402344e-02) (1, 1.68180614709854125977e-02) (2, -1.23992562294006347656e-04) (3, 7.82791599631309509277e-02) (4, -4.50849123299121856689e-02) (5, 5.72626218199729919434e-02) (6, -8.66842493414878845215e-02) (7, 5.59510961174964904785e-02) (8, 5.56610301136970520020e-02) (9, -3.40581163763999938965e-02) (10, 1.47066339850425720215e-02) (11, 8.98214429616928100586e-03) (12, -4.44100387394428253174e-02) (13, 5.45934662222862243652e-02) (14, 9.16634500026702880859e-03) (0, -2.20824331045150756836e-02) (1, -9.50428098440170288086e-03) (2, 2.82719060778617858887e-02) (3, 4.76074740290641784668e-02) (4, 8.12600329518318176270e-02) (5, -1.11871436238288879395e-02) (6, 6.54055252671241760254e-02) (7, -6.06596656143665313721e-02) (8, -7.87725597620010375977e-02) (9, -9.01184231042861938477e-02) (10, -3.90750952064990997314e-02) (11, -4.29024174809455871582e-02) (12, -9.70653519034385681152e-02) (13, 8.00924971699714660645e-02) (14, -5.93319237232208251953e-02) (0, 5.89710250496864318848e-02) (1, -5.36775141954421997070e-02) (2, 5.74861392378807067871e-02) (3, -4.11529652774333953857e-02) (4, -7.53983557224273681641e-02) (5, -8.75987783074378967285e-02) (6, -8.38903412222862243652e-02) (7, -6.20825998485088348389e-02) (8, 6.83523193001747131348e-02) (9, 7.17706903815269470215e-02) (10, 3.85928153991699218750e-03) (11, -1.69410482048988342285e-02) (12, -1.92471668124198913574e-02) (13, 5.94492480158805847168e-02) (14, -6.23475760221481323242e-02) (0, 8.99191871285438537598e-02) (1, -6.26331865787506103516e-02) (2, 2.81481370329856872559e-02) (3, 1.81910842657089233398e-02) (4, 8.49742963910102844238e-02) (5, 9.40817594528198242188e-03) (6, -9.29960533976554870605e-02) (7, 5.03798201680183410645e-02) (8, 4.87485155463218688965e-02) (9, -7.17686116695404052734e-02) (10, 6.02613911032676696777e-02) (11, -9.03265848755836486816e-02) (12, -1.46710276603698730469e-02) (13, 6.31960406899452209473e-02) (14, 8.97659137845039367676e-02) (0, 2.59970501065254211426e-02) (1, 2.21670642495155334473e-02) (2, -6.39115944504737854004e-02) (3, -1.65168195962905883789e-02) (4, 8.10141041874885559082e-02) (5, -3.93099486827850341797e-02) (6, -4.11558896303176879883e-03) (7, 9.71237644553184509277e-02) (8, -1.39254331588745117188e-03) (9, -3.57632711529731750488e-02) (10, 6.88944533467292785645e-02) (11, -9.75332632660865783691e-02) (12, 4.72956970334053039551e-02) (13, -5.03527186810970306396e-02) (14, 6.19159862399101257324e-02) (15, 8.49481150507926940918e-02) (16, -6.04335367679595947266e-02) (17, 9.92828086018562316895e-02) (18, 1.30962505936622619629e-02) (19, 5.77575638890266418457e-02) (20, 8.42570886015892028809e-02) (21, -7.74955749511718750000e-02) (22, 6.47614970803260803223e-02) (23, 3.46369072794914245605e-02) (24, 7.12529495358467102051e-02) (25, 9.29928943514823913574e-02) (26, -5.10171055793762207031e-03) (27, 8.09263661503791809082e-02) (15, -2.16781347990036010742e-02) (16, -4.19056713581085205078e-02) (17, 7.06922784447669982910e-02) (18, -9.56810936331748962402e-02) (19, 8.02614018321037292480e-02) (20, -9.32193100452423095703e-02) (21, -1.21979042887687683105e-02) (22, 6.12754896283149719238e-02) (23, -3.25292572379112243652e-02) (24, 8.36865082383155822754e-02) (25, 5.83992674946784973145e-02) (26, 6.60781934857368469238e-02) (27, -5.20767606794834136963e-02) (15, 2.72937044501304626465e-02) (16, 6.85449317097663879395e-02) (17, 9.52189341187477111816e-02) (18, 7.69409909844398498535e-02) (19, 3.04609164595603942871e-02) (20, 8.01670476794242858887e-02) (21, -8.34925472736358642578e-02) (22, 2.97437235713005065918e-02) (23, -6.73671066761016845703e-03) (24, 7.42650106549263000488e-02) (25, 1.40007957816123962402e-02) (26, 1.57677158713340759277e-02) (27, 3.90265062451362609863e-02) (15, -5.13623021543025970459e-02) (16, -1.29793360829353332520e-02) (17, 3.20193842053413391113e-02) (18, 4.35359999537467956543e-02) (19, -3.20529788732528686523e-02) (20, -8.96587520837783813477e-02) (21, -9.83696803450584411621e-02) (22, -6.13606981933116912842e-02) (23, -8.53398367762565612793e-02) (24, 8.18917229771614074707e-02) (25, -5.45800104737281799316e-02) (26, 2.46225297451019287109e-03) (27, 4.31672111153602600098e-02) (15, 1.28907337784767150879e-02) (16, -1.38512328267097473145e-02) (17, 1.56646966934204101562e-03) (18, -2.10310667753219604492e-02) (19, 3.40720042586326599121e-02) (20, -7.11398273706436157227e-02) (21, -5.24861365556716918945e-02) (22, 2.92909368872642517090e-02) (23, -9.41988378763198852539e-02) (24, 7.79747888445854187012e-02) (25, 9.45796817541122436523e-03) (26, -7.76913836598396301270e-02) (27, 7.71848857402801513672e-03) (15, -9.72787365317344665527e-02) (16, 9.65736135840415954590e-02) (17, -7.82807096838951110840e-02) (18, 1.84889882802963256836e-02) (19, 3.56001332402229309082e-02) (20, -2.96430066227912902832e-02) (21, -9.44903492927551269531e-02) (22, -3.23804840445518493652e-02) (23, -8.61070156097412109375e-02) (24, -2.65433266758918762207e-02) (25, -2.20392346382141113281e-02) (26, -8.44767019152641296387e-02) (27, 1.20959728956222534180e-02) (15, -7.37906992435455322266e-03) (16, 9.74150225520133972168e-02) (17, 5.75159713625907897949e-02) (18, 9.50831845402717590332e-02) (19, 4.05822321772575378418e-02) (20, -2.95932963490486145020e-02) (21, -1.87680423259735107422e-02) (22, -5.78513070940971374512e-02) (23, 4.93756458163261413574e-02) (24, -8.46960395574569702148e-02) (25, -2.89911329746246337891e-02) (26, 9.68895033001899719238e-02) (27, 4.45948913693428039551e-02) (15, -2.31899768114089965820e-02) (16, 7.48642757534980773926e-02) (17, -4.59471233189105987549e-02) (18, -8.81358981132507324219e-04) (19, -1.74172297120094299316e-02) (20, -4.32258546352386474609e-02) (21, -4.30773943662643432617e-03) (22, 4.30206954479217529297e-03) (23, 7.52631351351737976074e-02) (24, -6.87076151371002197266e-02) (25, 7.46590569615364074707e-02) (26, 8.07727798819541931152e-02) (27, -1.08809769153594970703e-03) (15, 8.85520502924919128418e-02) (16, -4.57705371081829071045e-02) (17, 7.68726542592048645020e-02) (18, -9.59246531128883361816e-02) (19, 6.63254335522651672363e-02) (20, -3.05064097046852111816e-02) (21, -9.85096395015716552734e-02) (22, 2.38414183259010314941e-02) (23, -3.54232117533683776855e-02) (24, 4.20726016163825988770e-02) (25, 9.42481234669685363770e-02) (26, 4.58087399601936340332e-02) (27, 8.42212960124015808105e-02) (15, 4.36237528920173645020e-02) (16, 6.11127093434333801270e-02) (17, -4.47698496282100677490e-02) (18, 4.05132696032524108887e-02) (19, 5.70760667324066162109e-03) (20, 3.20401862263679504395e-02) (21, 1.53775438666343688965e-02) (22, 5.97604885697364807129e-02) (23, -6.88411742448806762695e-02) (24, 9.79603156447410583496e-02) (25, -8.34653750061988830566e-02) (26, 2.68510803580284118652e-02) (27, 2.26239114999771118164e-03) (15, 9.17977616190910339355e-02) (16, 5.81434741616249084473e-02) (17, -2.30785533785820007324e-02) (18, 7.25705549120903015137e-02) (19, -4.29446361958980560303e-02) (20, -3.45265120267868041992e-02) (21, -7.31999948620796203613e-02) (22, -6.60719722509384155273e-02) (23, -3.04511636495590209961e-02) (24, 9.31254550814628601074e-02) (25, 3.42162698507308959961e-03) (26, -2.89607942104339599609e-02) (27, 1.69668570160865783691e-02) (28, 6.79984167218208312988e-02) (29, -8.68882015347480773926e-02) (30, 1.12149864435195922852e-02) (31, 1.38071551918983459473e-02) (32, 9.73330810666084289551e-02) (33, -4.51612584292888641357e-02) (34, -2.50801369547843933105e-02) (35, -4.74367626011371612549e-02) (36, 9.53520014882087707520e-02) (37, 8.06274637579917907715e-02) (38, 8.46034213900566101074e-02) (39, 1.07295513153076171875e-02) (28, 4.03879508376121520996e-02) (29, -8.42377543449401855469e-02) (30, 8.68986546993255615234e-03) (31, 5.69225773215293884277e-02) (32, 4.26133349537849426270e-02) (33, -8.90477448701858520508e-02) (34, 4.87203523516654968262e-02) (35, 7.56800174713134765625e-04) (36, -1.21262967586517333984e-02) (37, 2.12908834218978881836e-02) (38, 5.78121617436408996582e-02) (39, 5.33471927046775817871e-02) (28, 4.80908975005149841309e-02) (29, 9.17401984333992004395e-02) (30, -7.71039649844169616699e-02) (31, 4.12163361907005310059e-02) (32, -4.83818352222442626953e-03) (33, -6.06475770473480224609e-03) (34, -4.18167971074581146240e-02) (35, -3.68397682905197143555e-02) (36, 7.04704225063323974609e-03) (37, 6.93981871008872985840e-02) (38, 7.69673809409141540527e-02) (39, 4.38012927770614624023e-03) (28, -7.57630765438079833984e-02) (29, -4.81127575039863586426e-02) (30, 5.69433644413948059082e-02) (31, -8.04110690951347351074e-02) (32, -6.74852877855300903320e-02) (33, 4.15467843413352966309e-02) (34, 3.03184911608695983887e-02) (35, 7.29026719927787780762e-02) (36, 5.73090389370918273926e-02) (37, -6.09916485846042633057e-02) (38, 2.98252478241920471191e-02) (39, -7.76350498199462890625e-05) (28, -5.00393919646739959717e-02) (29, -2.14544087648391723633e-02) (30, -9.93208363652229309082e-02) (31, 3.78343090415000915527e-02) (32, 9.98364761471748352051e-02) (33, 5.84913268685340881348e-02) (34, -8.81849229335784912109e-03) (35, 4.79273870587348937988e-02) (36, 5.02315238118171691895e-02) (37, 1.40775442123413085938e-02) (38, -1.08562782406806945801e-02) (39, -5.46066537499427795410e-02) (28, -9.19872075319290161133e-02) (29, 4.73269298672676086426e-02) (30, 8.55357944965362548828e-03) (31, 1.50598287582397460938e-02) (32, 1.67251080274581909180e-02) (33, -1.44790410995483398438e-02) (34, -8.05600434541702270508e-02) (35, 4.09620478749275207520e-02) (36, 3.74082103371620178223e-02) (37, 7.63833299279212951660e-02) (38, 6.05509653687477111816e-02) (39, 6.99229165911674499512e-02) (28, 1.79301127791404724121e-02) (29, -9.13055241107940673828e-03) (30, 4.28255870938301086426e-02) (31, -2.47608572244644165039e-02) (32, 2.98777893185615539551e-02) (33, -2.73491665720939636230e-02) (34, 7.51615241169929504395e-02) (35, 7.98384025692939758301e-02) (36, 5.11964336037635803223e-02) (37, 7.58406743407249450684e-02) (38, 1.76727175712585449219e-02) (39, 5.10329082608222961426e-02) (28, 3.43320146203041076660e-02) (29, -9.11457762122154235840e-02) (30, -1.03970617055892944336e-03) (31, -1.54364630579948425293e-02) (32, 2.29317769408226013184e-02) (33, 8.81040170788764953613e-02) (34, 2.99568846821784973145e-02) (35, 3.09445634484291076660e-02) (36, 3.54309305548667907715e-02) (37, -6.14895336329936981201e-02) (38, -5.39956055581569671631e-02) (39, -4.78439591825008392334e-02) (28, 2.40314230322837829590e-02) (29, -3.45556437969207763672e-02) (30, 9.31180790066719055176e-02) (31, -3.85603718459606170654e-02) (32, -5.81723116338253021240e-02) (33, 5.36690428853034973145e-02) (34, -6.86374604701995849609e-02) (35, 5.97578063607215881348e-02) (36, -5.54615072906017303467e-02) (37, 7.41881206631660461426e-02) (38, -6.50030523538589477539e-02) (39, 7.44162872433662414551e-02) (28, -5.31610399484634399414e-02) (29, -8.98415371775627136230e-02) (30, 5.42547032237052917480e-02) (31, 9.80353876948356628418e-02) (32, 8.59991386532783508301e-02) (33, -2.80725881457328796387e-02) (34, 4.90682944655418395996e-02) (35, 2.03311443328857421875e-02) (36, -1.92183628678321838379e-02) (37, -5.19714131951332092285e-02) (38, -9.51053127646446228027e-02) (39, -9.62865948677062988281e-02) 
