FANN_FLO_2.1
num_layers=4
learning_rate=0.700000
connection_rate=1.000000
network_type=0
learning_momentum=0.000000
training_algorithm=2
train_error_function=1
train_stop_function=0
cascade_output_change_fraction=0.010000
quickprop_decay=-0.000100
quickprop_mu=1.750000
rprop_increase_factor=1.200000
rprop_decrease_factor=0.500000
rprop_delta_min=0.000000
rprop_delta_max=50.000000
rprop_delta_zero=0.100000
cascade_output_stagnation_epochs=12
cascade_candidate_change_fraction=0.010000
cascade_candidate_stagnation_epochs=12
cascade_max_out_epochs=150
cascade_min_out_epochs=50
cascade_max_cand_epochs=150
cascade_min_cand_epochs=50
cascade_num_candidate_groups=2
bit_fail_limit=3.49999994039535522461e-01
cascade_candidate_limit=1.00000000000000000000e+03
cascade_weight_multiplier=4.00000005960464477539e-01
cascade_activation_functions_count=10
cascade_activation_functions=3 5 7 8 10 11 14 15 16 17 
cascade_activation_steepnesses_count=4
cascade_activation_steepnesses=2.50000000000000000000e-01 5.00000000000000000000e-01 7.50000000000000000000e-01 1.00000000000000000000e+00 
layer_sizes=5 5 5 5 
scale_included=0
neurons (num_inputs, activation_function, activation_steepness)=(0, 0, 0.00000000000000000000e+00) (0, 0, 0.00000000000000000000e+00) (0, 0, 0.00000000000000000000e+00) (0, 0, 0.00000000000000000000e+00) (0, 0, 0.00000000000000000000e+00) (5, 5, 5.00000000000000000000e-01) (5, 5, 5.00000000000000000000e-01) (5, 5, 5.00000000000000000000e-01) (5, 5, 5.00000000000000000000e-01) (0, 5, 0.00000000000000000000e+00) (5, 5, 5.00000000000000000000e-01) (5, 5, 5.00000000000000000000e-01) (5, 5, 5.00000000000000000000e-01) (5, 5, 5.00000000000000000000e-01) (0, 5, 0.00000000000000000000e+00) (5, 5, 5.00000000000000000000e-01) (5, 5, 5.00000000000000000000e-01) (5, 5, 5.00000000000000000000e-01) (5, 5, 5.00000000000000000000e-01) (0, 5, 0.00000000000000000000e+00) 
connections (connected_to_neuron, weight)=(0, -7.94438272714614868164e-02) (1, 4.28809300065040588379e-02) (2, -2.69296988844871520996e-02) (3, 4.55950126051902770996e-02) (4, 3.49648520350456237793e-02) (0, 6.99028298258781433105e-02) (1, -7.71217495203018188477e-02) (2, -1.01479738950729370117e-02) (3, -7.17992261052131652832e-02) (4, -8.45004096627235412598e-02) (0, -1.08874142169952392578e-02) (1, 3.66897061467170715332e-02) (2, -3.59622463583946228027e-02) (3, -9.75957512855529785156e-03) (4, -5.93751110136508941650e-02) (0, 8.21520164608955383301e-02) (1, -6.12788833677768707275e-02) (2, -4.61359582841396331787e-02) (3, 1.52112990617752075195e-02) (4, 6.47602155804634094238e-02) (5, 2.30671614408493041992e-02) (6, -4.09490130841732025146e-02) (7, 1.66419297456741333008e-02) (8, -7.95401707291603088379e-02) (9, 6.17218986153602600098e-02) (5, 9.37258675694465637207e-02) (6, 7.69181475043296813965e-02) (7, 8.32524821162223815918e-02) (8, 4.82498481869697570801e-02) (9, 2.13219076395034790039e-02) (5, -4.97905910015106201172e-03) (6, 6.88060298562049865723e-02) (7, -3.57971638441085815430e-02) (8, 6.80912360548973083496e-02) (9, 1.44010409712791442871e-02) (5, 9.91676971316337585449e-02) (6, 3.79940643906593322754e-02) (7, 3.72792854905128479004e-02) (8, -1.09802857041358947754e-02) (9, 6.61948397755622863770e-02) (10, 5.27788922190666198730e-02) (11, 7.81323090195655822754e-02) (12, 2.88454443216323852539e-03) (13, -8.31833630800247192383e-02) (14, -3.16272675991058349609e-02) (10, 4.35094311833381652832e-02) (11, 9.89686474204063415527e-02) (12, 7.09384679794311523438e-03) (13, 9.73734781146049499512e-02) (14, 1.41799449920654296875e-02) (10, -2.81459391117095947266e-02) (11, 2.04406231641769409180e-02) (12, 7.32309296727180480957e-02) (13, 8.84959772229194641113e-02) (14, 4.09004613757133483887e-02) (10, 3.49528267979621887207e-02) (11, 8.22218433022499084473e-02) (12, 1.78186073899269104004e-02) (13, 1.82053074240684509277e-02) (14, 3.04717049002647399902e-02) 
