FANN_FLO_2.1
num_layers=4
learning_rate=0.700000
connection_rate=1.000000
network_type=0
learning_momentum=0.000000
training_algorithm=2
train_error_function=1
train_stop_function=0
cascade_output_change_fraction=0.010000
quickprop_decay=-0.000100
quickprop_mu=1.750000
rprop_increase_factor=1.200000
rprop_decrease_factor=0.500000
rprop_delta_min=0.000000
rprop_delta_max=50.000000
rprop_delta_zero=0.100000
cascade_output_stagnation_epochs=12
cascade_candidate_change_fraction=0.010000
cascade_candidate_stagnation_epochs=12
cascade_max_out_epochs=150
cascade_min_out_epochs=50
cascade_max_cand_epochs=150
cascade_min_cand_epochs=50
cascade_num_candidate_groups=2
bit_fail_limit=3.49999994039535522461e-01
cascade_candidate_limit=1.00000000000000000000e+03
cascade_weight_multiplier=4.00000005960464477539e-01
cascade_activation_functions_count=10
cascade_activation_functions=3 5 7 8 10 11 14 15 16 17 
cascade_activation_steepnesses_count=4
cascade_activation_steepnesses=2.50000000000000000000e-01 5.00000000000000000000e-01 7.50000000000000000000e-01 1.00000000000000000000e+00 
layer_sizes=15 13 12 11 
scale_included=0
neurons (num_inputs, activation_function, activation_steepness)=(0, 0, 0.00000000000000000000e+00) (0, 0, 0.00000000000000000000e+00) (0, 0, 0.00000000000000000000e+00) (0, 0, 0.00000000000000000000e+00) (0, 0, 0.00000000000000000000e+00) (0, 0, 0.00000000000000000000e+00) (0, 0, 0.00000000000000000000e+00) (0, 0, 0.00000000000000000000e+00) (0, 0, 0.00000000000000000000e+00) (0, 0, 0.00000000000000000000e+00) (0, 0, 0.00000000000000000000e+00) (0, 0, 0.00000000000000000000e+00) (0, 0, 0.00000000000000000000e+00) (0, 0, 0.00000000000000000000e+00) (0, 0, 0.00000000000000000000e+00) (15, 5, 5.00000000000000000000e-01) (15, 5, 5.00000000000000000000e-01) (15, 5, 5.00000000000000000000e-01) (15, 5, 5.00000000000000000000e-01) (15, 5, 5.00000000000000000000e-01) (15, 5, 5.00000000000000000000e-01) (15, 5, 5.00000000000000000000e-01) (15, 5, 5.00000000000000000000e-01) (15, 5, 5.00000000000000000000e-01) (15, 5, 5.00000000000000000000e-01) (15, 5, 5.00000000000000000000e-01) (15, 5, 5.00000000000000000000e-01) (0, 5, 0.00000000000000000000e+00) (13, 5, 5.00000000000000000000e-01) (13, 5, 5.00000000000000000000e-01) (13, 5, 5.00000000000000000000e-01) (13, 5, 5.00000000000000000000e-01) (13, 5, 5.00000000000000000000e-01) (13, 5, 5.00000000000000000000e-01) (13, 5, 5.00000000000000000000e-01) (13, 5, 5.00000000000000000000e-01) (13, 5, 5.00000000000000000000e-01) (13, 5, 5.00000000000000000000e-01) (13, 5, 5.00000000000000000000e-01) (0, 5, 0.00000000000000000000e+00) (12, 5, 5.00000000000000000000e-01) (12, 5, 5.00000000000000000000e-01) (12, 5, 5.00000000000000000000e-01) (12, 5, 5.00000000000000000000e-01) (12, 5, 5.00000000000000000000e-01) (12, 5, 5.00000000000000000000e-01) (12, 5, 5.00000000000000000000e-01) (12, 5, 5.00000000000000000000e-01) (12, 5, 5.00000000000000000000e-01) (12, 5, 5.00000000000000000000e-01) (0, 5, 0.00000000000000000000e+00) 
connections (connected_to_neuron, weight)=(0, 2.07358822226524353027e-02) (1, 1.16404891014099121094e-02) (2, 1.14096999168395996094e-02) (3, -8.67541953921318054199e-02) (4, 3.93155887722969055176e-02) (5, -2.02806890010833740234e-02) (6, -9.46819260716438293457e-02) (7, -3.79081368446350097656e-02) (8, 9.65939536690711975098e-02) (9, -2.80831307172775268555e-02) (10, 5.11365756392478942871e-02) (11, 2.39006429910659790039e-02) (12, 2.61383280158042907715e-02) (13, 3.35773006081581115723e-02) (14, -8.24429318308830261230e-02) (0, 6.93077221512794494629e-02) (1, 7.09861144423484802246e-02) (2, -9.72923338413238525391e-02) (3, 4.60320189595222473145e-02) (4, -4.28101830184459686279e-02) (5, -6.24039582908153533936e-02) (6, 5.61563670635223388672e-03) (7, -1.26659199595451354980e-02) (8, 5.26030734181404113770e-02) (9, 6.67155459523200988770e-02) (10, -3.53888049721717834473e-02) (11, -5.22820763289928436279e-02) (12, -2.87521034479141235352e-02) (13, 7.98494294285774230957e-02) (14, -5.76671361923217773438e-02) (0, 8.24344828724861145020e-02) (1, 5.85302710533142089844e-04) (2, 5.39733394980430603027e-02) (3, -6.15582615137100219727e-03) (4, 1.38311013579368591309e-02) (5, -6.71108067035675048828e-03) (6, 7.35634788870811462402e-02) (7, 1.91491842269897460938e-02) (8, 5.53807839751243591309e-02) (9, 7.01574459671974182129e-02) (10, 9.10660549998283386230e-02) (11, 6.51736557483673095703e-03) (12, -5.94191253185272216797e-03) (13, 1.72043666243553161621e-02) (14, -5.99053502082824707031e-02) (0, 1.16151571273803710938e-02) (1, -1.34879052639007568359e-02) (2, -8.89192372560501098633e-02) (3, 1.43228322267532348633e-02) (4, -6.74558877944946289062e-02) (5, -3.17294150590896606445e-02) (6, 5.19188717007637023926e-02) (7, 3.81597355008125305176e-02) (8, 5.56046590209007263184e-02) (9, 4.52194362878799438477e-03) (10, 4.87528741359710693359e-03) (11, -7.97841474413871765137e-02) (12, 5.22398725152015686035e-02) (13, 7.61231854557991027832e-02) (14, -9.99347269535064697266e-02) (0, 9.45727303624153137207e-02) (1, 5.85576668381690979004e-02) (2, 6.50569796562194824219e-04) (3, 4.85460832715034484863e-02) (4, -4.75981645286083221436e-02) (5, -8.55183228850364685059e-02) (6, -5.81650026142597198486e-02) (7, -7.40346759557723999023e-02) (8, 3.36308553814888000488e-02) (9, 9.72157791256904602051e-02) (10, 9.61227640509605407715e-02) (11, 2.46969014406204223633e-02) (12, 3.73313575983047485352e-03) (13, -9.81914997100830078125e-03) (14, -5.80987296998500823975e-02) (0, 4.38277795910835266113e-02) (1, -9.82039943337440490723e-02) (2, 2.84133628010749816895e-02) (3, 5.49085512757301330566e-02) (4, 1.61188393831253051758e-02) (5, 6.09574839472770690918e-02) (6, -7.68208652734756469727e-02) (7, -3.19622978568077087402e-02) (8, -8.82782042026519775391e-04) (9, 7.87838026881217956543e-02) (10, 7.25596472620964050293e-02) (11, -9.60074961185455322266e-02) (12, 9.89996418356895446777e-02) (13, 2.47995033860206604004e-02) (14, 8.01156833767890930176e-02) (0, 9.90649238228797912598e-02) (1, 1.93722397089004516602e-02) (2, 3.86733487248420715332e-02) (3, -2.84507870674133300781e-04) (4, -3.20816934108734130859e-02) (5, 9.10751894116401672363e-02) (6, 1.41971707344055175781e-02) (7, 9.75330173969268798828e-03) (8, -8.29594880342483520508e-02) (9, -5.21719679236412048340e-02) (10, 6.96907937526702880859e-03) (11, -8.68367254734039306641e-02) (12, 7.25249275565147399902e-02) (13, -8.92977789044380187988e-02) (14, 3.34413349628448486328e-03) (0, -8.55737924575805664062e-02) (1, 5.45300170779228210449e-02) (2, 5.14014065265655517578e-03) (3, 4.28395792841911315918e-02) (4, 9.43855941295623779297e-03) (5, -7.87410363554954528809e-02) (6, 3.79705429077148437500e-03) (7, 3.26176956295967102051e-02) (8, -1.07033401727676391602e-02) (9, -9.70857292413711547852e-02) (10, 1.14014968276023864746e-02) (11, -3.81436944007873535156e-02) (12, -9.30932238698005676270e-02) (13, 1.04011446237564086914e-02) (14, 8.66558030247688293457e-02) (0, 8.70224758982658386230e-02) (1, 9.46606695652008056641e-03) (2, 6.02804124355316162109e-03) (3, 2.56958231329917907715e-02) (4, -9.08184349536895751953e-02) (5, 7.39463642239570617676e-02) (6, 1.67710185050964355469e-02) (7, 2.33787447214126586914e-02) (8, -1.63003429770469665527e-02) (9, 3.38115319609642028809e-02) (10, 7.12067708373069763184e-02) (11, 9.06687453389167785645e-02) (12, 4.69748005270957946777e-02) (13, 4.37316969037055969238e-02) (14, -9.86290425062179565430e-02) (0, -4.96810749173164367676e-02) (1, 5.81579133868217468262e-02) (2, 5.59009686112403869629e-02) (3, 5.54590597748756408691e-02) (4, 9.97483730316162109375e-04) (5, -3.46604660153388977051e-02) (6, 7.67180249094963073730e-02) (7, -9.52054634690284729004e-02) (8, 9.79572460055351257324e-02) (9, -3.39853093028068542480e-02) (10, -9.22911912202835083008e-02) (11, 9.35872644186019897461e-03) (12, 2.78710052371025085449e-02) (13, -8.53844061493873596191e-02) (14, -8.02401229739189147949e-02) (0, 1.45268067717552185059e-02) (1, -9.83619391918182373047e-02) (2, 2.92259529232978820801e-02) (3, -7.94451534748077392578e-02) (4, 2.73338928818702697754e-02) (5, 3.84075120091438293457e-02) (6, 9.45012047886848449707e-02) (7, -5.58950901031494140625e-02) (8, -3.82137559354305267334e-02) (9, -2.17991396784782409668e-02) (10, 7.79164507985115051270e-02) (11, -6.70069903135299682617e-02) (12, -3.11304032802581787109e-02) (13, 2.48912423849105834961e-02) (14, 7.67247155308723449707e-02) (0, -2.97594442963600158691e-02) (1, 7.52101615071296691895e-02) (2, 3.48826423287391662598e-02) (3, -7.38584697246551513672e-02) (4, 3.06692197918891906738e-02) (5, -6.41198754310607910156e-02) (6, -8.51893424987792968750e-03) (7, 7.38725811243057250977e-03) (8, -5.93253374099731445312e-02) (9, -1.05616971850395202637e-02) (10, 7.34019502997398376465e-02) (11, -5.16165271401405334473e-02) (12, 9.87970307469367980957e-02) (13, 1.27293914556503295898e-03) (14, -3.70009392499923706055e-02) (15, -8.14430862665176391602e-02) (16, -8.42002481222152709961e-02) (17, -3.53628695011138916016e-02) (18, 4.77828457951545715332e-02) (19, -6.36454001069068908691e-02) (20, 9.19710323214530944824e-02) (21, -1.38096362352371215820e-02) (22, -6.91441968083381652832e-02) (23, -6.39240741729736328125e-02) (24, 4.79766055941581726074e-02) (25, 9.05666500329971313477e-03) (26, -8.60076323151588439941e-02) (27, 8.09696242213249206543e-02) (15, 7.79262557625770568848e-02) (16, 3.88836190104484558105e-02) (17, 5.76943531632423400879e-02) (18, -5.18331862986087799072e-02) (19, 1.40937790274620056152e-02) (20, -7.42302089929580688477e-03) (21, -2.56916582584381103516e-02) (22, -5.52369914948940277100e-02) (23, 2.84571126103401184082e-02) (24, 6.57894089818000793457e-02) (25, 5.21502569317817687988e-02) (26, 6.91317692399024963379e-02) (27, -4.47722934186458587646e-02) (15, 2.55522206425666809082e-02) (16, -8.24847593903541564941e-02) (17, -4.59752567112445831299e-02) (18, -7.31748417019844055176e-02) (19, -1.94856971502304077148e-02) (20, -2.74183452129364013672e-02) (21, -5.73750920593738555908e-02) (22, 4.51514348387718200684e-02) (23, -7.96354860067367553711e-02) (24, -2.10204869508743286133e-02) (25, 3.71224656701087951660e-02) (26, 6.55486434698104858398e-03) (27, 9.83531773090362548828e-03) (15, 7.31983855366706848145e-02) (16, -4.54685203731060028076e-02) (17, -8.11080187559127807617e-02) (18, 8.71907547116279602051e-02) (19, -6.44989013671875000000e-02) (20, 9.68182310461997985840e-02) (21, 2.60743722319602966309e-02) (22, 9.31954458355903625488e-02) (23, -5.50149492919445037842e-02) (24, -5.98318427801132202148e-02) (25, -1.42275691032409667969e-02) (26, 1.92933902144432067871e-02) (27, -1.50688290596008300781e-02) (15, -8.57704654335975646973e-02) (16, -1.49171948432922363281e-02) (17, -6.29185661673545837402e-02) (18, 8.33613052964210510254e-02) (19, 4.03105095028877258301e-02) (20, 6.26336410641670227051e-02) (21, -9.91234555840492248535e-02) (22, 9.43352654576301574707e-02) (23, 8.94588157534599304199e-02) (24, -1.86091512441635131836e-02) (25, -3.30830812454223632812e-02) (26, -6.79162889719009399414e-02) (27, -7.34577104449272155762e-02) (15, -1.27185732126235961914e-02) (16, 1.10632330179214477539e-02) (17, 6.36647418141365051270e-02) (18, 9.38363149762153625488e-02) (19, -7.91014581918716430664e-02) (20, 3.68631407618522644043e-02) (21, -5.16322217881679534912e-02) (22, -6.02094791829586029053e-02) (23, 2.40539088845252990723e-02) (24, -1.61311179399490356445e-02) (25, -6.33912384510040283203e-02) (26, -4.98717203736305236816e-02) (27, -2.29356735944747924805e-02) (15, -1.84061899781227111816e-02) (16, -9.70356166362762451172e-03) (17, 6.28367736935615539551e-02) (18, -9.91127938032150268555e-02) (19, 7.52276107668876647949e-02) (20, 7.70663097500801086426e-02) (21, -1.40299871563911437988e-02) (22, -8.76909568905830383301e-02) (23, 6.04276135563850402832e-02) (24, -7.37194716930389404297e-02) (25, 7.49427005648612976074e-02) (26, 6.13041594624519348145e-02) (27, -7.93842077255249023438e-02) (15, 6.44014999270439147949e-02) (16, -5.73049932718276977539e-02) (17, -1.24672874808311462402e-02) (18, 9.64852198958396911621e-02) (19, -3.07627022266387939453e-02) (20, 7.48141482472419738770e-02) (21, 7.54845142364501953125e-03) (22, -6.70979470014572143555e-02) (23, 6.86504468321800231934e-02) (24, 2.84469947218894958496e-02) (25, 6.97651877999305725098e-02) (26, -8.29817801713943481445e-02) (27, 6.82375207543373107910e-02) (15, -6.18090480566024780273e-03) (16, 8.87110829353332519531e-04) (17, -9.51537266373634338379e-02) (18, 4.39473763108253479004e-02) (19, 7.79514387249946594238e-02) (20, -1.35599151253700256348e-02) (21, -6.57561868429183959961e-02) (22, 4.07881960272789001465e-02) (23, -1.26727074384689331055e-02) (24, -9.05285775661468505859e-02) (25, 1.78544968366622924805e-02) (26, 7.32972994446754455566e-02) (27, -7.82195329666137695312e-02) (15, -2.17178910970687866211e-02) (16, 9.95778366923332214355e-02) (17, 9.67231467366218566895e-02) (18, -6.04137405753135681152e-02) (19, -7.98063799738883972168e-02) (20, 6.11246600747108459473e-02) (21, -1.77187323570251464844e-02) (22, 7.72633403539657592773e-03) (23, 5.76098635792732238770e-02) (24, 5.15185669064521789551e-02) (25, -1.74595266580581665039e-02) (26, -3.48416790366172790527e-02) (27, 8.44206288456916809082e-02) (15, -4.88090813159942626953e-02) (16, 9.36053171753883361816e-02) (17, 5.41858151555061340332e-02) (18, -3.17908599972724914551e-02) (19, 6.18428215384483337402e-02) (20, -5.19950948655605316162e-02) (21, 6.90962448716163635254e-02) (22, 6.66890963912010192871e-02) (23, 9.19522866606712341309e-02) (24, 4.70476821064949035645e-02) (25, -4.68708090484142303467e-02) (26, -7.38039016723632812500e-02) (27, -1.21641159057617187500e-02) (28, 4.04564812779426574707e-02) (29, -6.43324777483940124512e-02) (30, -9.43096131086349487305e-02) (31, 1.37537866830825805664e-02) (32, -4.25520129501819610596e-02) (33, -1.60275027155876159668e-02) (34, 1.33316144347190856934e-02) (35, -4.58288565278053283691e-02) (36, 2.35587581992149353027e-02) (37, 3.35252359509468078613e-02) (38, -8.47042053937911987305e-02) (39, -9.41599756479263305664e-02) (28, -5.87484315037727355957e-02) (29, 7.29056671261787414551e-02) (30, 5.73586001992225646973e-02) (31, 2.37920433282852172852e-02) (32, -6.19360096752643585205e-02) (33, 4.17792126536369323730e-02) (34, 7.49829635024070739746e-02) (35, -6.83306977152824401855e-02) (36, -4.03498113155364990234e-03) (37, -5.68078942596912384033e-02) (38, 9.35121253132820129395e-02) (39, 4.39699366688728332520e-02) (28, -8.77116471529006958008e-02) (29, 6.02012351155281066895e-02) (30, 3.59222069382667541504e-02) (31, 5.93360289931297302246e-02) (32, -8.66695791482925415039e-02) (33, 6.21183142066001892090e-02) (34, -5.28280809521675109863e-02) (35, 5.37868961691856384277e-02) (36, 9.77858379483222961426e-02) (37, -4.71376962959766387939e-02) (38, -3.24593186378479003906e-02) (39, -4.47661839425563812256e-02) (28, 3.68347987532615661621e-02) (29, 8.08723047375679016113e-02) (30, 9.40495729446411132812e-03) (31, -3.96064482629299163818e-02) (32, 1.43975391983985900879e-02) (33, 2.47007608413696289062e-02) (34, -3.37664186954498291016e-02) (35, 5.56491091847419738770e-02) (36, -2.39356607198715209961e-03) (37, -7.64078274369239807129e-02) (38, -2.05588489770889282227e-02) (39, 3.56704220175743103027e-02) (28, 6.53713867068290710449e-02) (29, -4.55758869647979736328e-02) (30, 6.73397257924079895020e-02) (31, -3.86635921895503997803e-02) (32, -2.38378345966339111328e-03) (33, 6.08518645167350769043e-02) (34, -9.46936681866645812988e-02) (35, 9.90457832813262939453e-03) (36, 2.10530981421470642090e-02) (37, 4.12285402417182922363e-02) (38, -3.07593941688537597656e-02) (39, 3.43835279345512390137e-02) (28, 3.34686040878295898438e-03) (29, 1.64125338196754455566e-02) (30, -1.18295699357986450195e-02) (31, 1.13268941640853881836e-03) (32, 6.92748352885246276855e-02) (33, 5.57110980153083801270e-02) (34, 5.63665106892585754395e-02) (35, 6.10963255167007446289e-03) (36, 3.65834012627601623535e-02) (37, -3.42285260558128356934e-02) (38, 6.65031895041465759277e-02) (39, -4.90190647542476654053e-02) (28, 9.04722288250923156738e-02) (29, -6.72632306814193725586e-02) (30, -9.33699607849121093750e-02) (31, -1.19213312864303588867e-02) (32, -4.36710603535175323486e-02) (33, -1.39288082718849182129e-02) (34, -7.62509107589721679688e-02) (35, -7.82996714115142822266e-02) (36, 4.04953137040138244629e-02) (37, 9.10888239741325378418e-02) (38, -1.69632583856582641602e-02) (39, -6.18884749710559844971e-02) (28, 5.19406870007514953613e-02) (29, -1.16569250822067260742e-02) (30, 4.80160936713218688965e-02) (31, -2.70062163472175598145e-02) (32, -7.04283788800239562988e-02) (33, -8.27432945370674133301e-02) (34, -9.26226973533630371094e-02) (35, 3.29184755682945251465e-02) (36, 3.36692407727241516113e-02) (37, -4.45227324962615966797e-03) (38, -6.59488290548324584961e-02) (39, 2.94407457113265991211e-03) (28, -4.87411618232727050781e-02) (29, 9.04176905751228332520e-02) (30, -9.09463018178939819336e-02) (31, 8.78422334790229797363e-02) (32, -4.38108518719673156738e-02) (33, 7.55568817257881164551e-02) (34, -6.11768178641796112061e-02) (35, -5.33386133611202239990e-02) (36, -9.17063429951667785645e-02) (37, -5.45467771589756011963e-02) (38, 3.47400531172752380371e-02) (39, -3.53773981332778930664e-02) (28, 3.15244272351264953613e-02) (29, 5.84891512989997863770e-02) (30, -1.36770755052566528320e-02) (31, -2.79802829027175903320e-02) (32, 4.95779588818550109863e-02) (33, 6.93596675992012023926e-02) (34, 1.01312547922134399414e-02) (35, 1.51865184307098388672e-03) (36, -4.22972626984119415283e-02) (37, -4.18526530265808105469e-02) (38, 7.45124295353889465332e-02) (39, -1.27256438136100769043e-02) 
