FANN_FLO_2.1
num_layers=4
learning_rate=0.700000
connection_rate=1.000000
network_type=0
learning_momentum=0.000000
training_algorithm=2
train_error_function=1
train_stop_function=0
cascade_output_change_fraction=0.010000
quickprop_decay=-0.000100
quickprop_mu=1.750000
rprop_increase_factor=1.200000
rprop_decrease_factor=0.500000
rprop_delta_min=0.000000
rprop_delta_max=50.000000
rprop_delta_zero=0.100000
cascade_output_stagnation_epochs=12
cascade_candidate_change_fraction=0.010000
cascade_candidate_stagnation_epochs=12
cascade_max_out_epochs=150
cascade_min_out_epochs=50
cascade_max_cand_epochs=150
cascade_min_cand_epochs=50
cascade_num_candidate_groups=2
bit_fail_limit=3.49999994039535522461e-01
cascade_candidate_limit=1.00000000000000000000e+03
cascade_weight_multiplier=4.00000005960464477539e-01
cascade_activation_functions_count=10
cascade_activation_functions=3 5 7 8 10 11 14 15 16 17 
cascade_activation_steepnesses_count=4
cascade_activation_steepnesses=2.50000000000000000000e-01 5.00000000000000000000e-01 7.50000000000000000000e-01 1.00000000000000000000e+00 
layer_sizes=15 13 12 11 
scale_included=0
neurons (num_inputs, activation_function, activation_steepness)=(0, 0, 0.00000000000000000000e+00) (0, 0, 0.00000000000000000000e+00) (0, 0, 0.00000000000000000000e+00) (0, 0, 0.00000000000000000000e+00) (0, 0, 0.00000000000000000000e+00) (0, 0, 0.00000000000000000000e+00) (0, 0, 0.00000000000000000000e+00) (0, 0, 0.00000000000000000000e+00) (0, 0, 0.00000000000000000000e+00) (0, 0, 0.00000000000000000000e+00) (0, 0, 0.00000000000000000000e+00) (0, 0, 0.00000000000000000000e+00) (0, 0, 0.00000000000000000000e+00) (0, 0, 0.00000000000000000000e+00) (0, 0, 0.00000000000000000000e+00) (15, 5, 5.00000000000000000000e-01) (15, 5, 5.00000000000000000000e-01) (15, 5, 5.00000000000000000000e-01) (15, 5, 5.00000000000000000000e-01) (15, 5, 5.00000000000000000000e-01) (15, 5, 5.00000000000000000000e-01) (15, 5, 5.00000000000000000000e-01) (15, 5, 5.00000000000000000000e-01) (15, 5, 5.00000000000000000000e-01) (15, 5, 5.00000000000000000000e-01) (15, 5, 5.00000000000000000000e-01) (15, 5, 5.00000000000000000000e-01) (0, 5, 0.00000000000000000000e+00) (13, 5, 5.00000000000000000000e-01) (13, 5, 5.00000000000000000000e-01) (13, 5, 5.00000000000000000000e-01) (13, 5, 5.00000000000000000000e-01) (13, 5, 5.00000000000000000000e-01) (13, 5, 5.00000000000000000000e-01) (13, 5, 5.00000000000000000000e-01) (13, 5, 5.00000000000000000000e-01) (13, 5, 5.00000000000000000000e-01) (13, 5, 5.00000000000000000000e-01) (13, 5, 5.00000000000000000000e-01) (0, 5, 0.00000000000000000000e+00) (12, 5, 5.00000000000000000000e-01) (12, 5, 5.00000000000000000000e-01) (12, 5, 5.00000000000000000000e-01) (12, 5, 5.00000000000000000000e-01) (12, 5, 5.00000000000000000000e-01) (12, 5, 5.00000000000000000000e-01) (12, 5, 5.00000000000000000000e-01) (12, 5, 5.00000000000000000000e-01) (12, 5, 5.00000000000000000000e-01) (12, 5, 5.00000000000000000000e-01) (0, 5, 0.00000000000000000000e+00) 
connections (connected_to_neuron, weight)=(0, 7.22596421837806701660e-02) (1, 7.06117525696754455566e-02) (2, 3.38954403996467590332e-02) (3, -8.59495997428894042969e-02) (4, -3.77305112779140472412e-02) (5, 2.01807022094726562500e-02) (6, 9.97050926089286804199e-02) (7, 3.45859006047248840332e-02) (8, -5.20542524755001068115e-02) (9, -6.48077875375747680664e-02) (10, -2.90231332182884216309e-02) (11, -6.18734210729598999023e-03) (12, 3.54101881384849548340e-02) (13, 9.65905264019966125488e-02) (14, -6.58006444573402404785e-02) (0, -4.77830544114112854004e-02) (1, -1.15258991718292236328e-03) (2, 9.89052727818489074707e-02) (3, 7.62456730008125305176e-02) (4, 2.29423046112060546875e-02) (5, -5.05903474986553192139e-02) (6, -4.68446575105190277100e-02) (7, -6.05990104377269744873e-02) (8, 2.67992690205574035645e-02) (9, -5.43184578418731689453e-03) (10, 5.48526272177696228027e-02) (11, 1.16227567195892333984e-03) (12, 9.62559133768081665039e-03) (13, 9.05589684844017028809e-02) (14, 9.83963906764984130859e-03) (0, -8.10631364583969116211e-02) (1, 6.28186091780662536621e-02) (2, -1.95486098527908325195e-02) (3, 5.28323128819465637207e-02) (4, 7.68690183758735656738e-02) (5, 4.27208915352821350098e-02) (6, -2.69869789481163024902e-02) (7, 7.65741094946861267090e-02) (8, -2.26932093501091003418e-02) (9, 2.09587663412094116211e-02) (10, -8.82336720824241638184e-02) (11, 4.82836589217185974121e-02) (12, -8.52285698056221008301e-02) (13, 4.71765324473381042480e-02) (14, 4.48741838335990905762e-02) (0, -5.10292164981365203857e-02) (1, 9.93934646248817443848e-02) (2, -5.62784150242805480957e-02) (3, -5.21239452064037322998e-02) (4, 7.56391361355781555176e-02) (5, 6.66638985276222229004e-02) (6, -2.71429121494293212891e-03) (7, -7.12055191397666931152e-02) (8, -9.39351171255111694336e-02) (9, -7.59150311350822448730e-02) (10, 2.33626365661621093750e-02) (11, 6.09175041317939758301e-02) (12, 2.52472534775733947754e-02) (13, -6.70117735862731933594e-02) (14, 5.14764860272407531738e-02) (0, -6.49131089448928833008e-02) (1, -4.80749085545539855957e-02) (2, 1.42951011657714843750e-02) (3, 1.55382901430130004883e-02) (4, -9.52425971627235412598e-02) (5, -8.83588939905166625977e-03) (6, -4.17408309876918792725e-02) (7, -2.22295746207237243652e-02) (8, -3.22617739439010620117e-02) (9, 3.55659648776054382324e-02) (10, 9.87292006611824035645e-02) (11, -2.04954519867897033691e-02) (12, -1.61503776907920837402e-02) (13, -8.64993780851364135742e-02) (14, -7.33189284801483154297e-02) (0, -7.12762027978897094727e-02) (1, -3.75285930931568145752e-02) (2, -7.39254578948020935059e-02) (3, -2.75546163320541381836e-02) (4, 1.03474631905555725098e-02) (5, -9.82863157987594604492e-02) (6, -6.08907192945480346680e-02) (7, -9.23668295145034790039e-02) (8, -6.94918334484100341797e-02) (9, -5.48258386552333831787e-02) (10, -6.82818591594696044922e-02) (11, 5.38708046078681945801e-02) (12, -9.39083248376846313477e-02) (13, 5.69653883576393127441e-02) (14, 8.68590250611305236816e-02) (0, 5.75681552290916442871e-02) (1, 9.20522883534431457520e-02) (2, -6.12158812582492828369e-02) (3, -2.81367450952529907227e-02) (4, 7.59056955575942993164e-03) (5, -5.64584769308567047119e-02) (6, 6.30273744463920593262e-02) (7, 6.58497437834739685059e-02) (8, 2.13119536638259887695e-02) (9, -6.92344009876251220703e-02) (10, 1.41570717096328735352e-03) (11, 2.00411453843116760254e-02) (12, 1.02701559662818908691e-02) (13, 8.52653309702873229980e-02) (14, 3.35417613387107849121e-02) (0, 3.69512215256690979004e-02) (1, -8.60108733177185058594e-02) (2, 9.60131809115409851074e-02) (3, 6.30257651209831237793e-02) (4, -1.35654807090759277344e-02) (5, 6.36063516139984130859e-03) (6, 6.47394582629203796387e-02) (7, 2.55438014864921569824e-02) (8, 1.39938145875930786133e-02) (9, 9.52476188540458679199e-02) (10, 7.07179680466651916504e-02) (11, 4.57119420170783996582e-02) (12, 4.91184219717979431152e-02) (13, 7.68096521496772766113e-02) (14, 2.67733633518218994141e-03) (0, 3.59774455428123474121e-02) (1, 3.43778058886528015137e-02) (2, -5.27037680149078369141e-03) (3, 7.47615769505500793457e-02) (4, -9.37589406967163085938e-02) (5, -9.76798087358474731445e-02) (6, -8.16969126462936401367e-02) (7, 6.92684426903724670410e-02) (8, 6.81699439883232116699e-02) (9, 3.96150425076484680176e-02) (10, -9.99659672379493713379e-02) (11, -3.04143577814102172852e-02) (12, -4.03438210487365722656e-02) (13, 1.03041902184486389160e-02) (14, -4.51490283012390136719e-02) (0, 9.31979492306709289551e-02) (1, -5.27445897459983825684e-02) (2, -3.11598926782608032227e-02) (3, 8.92111137509346008301e-02) (4, -8.97188261151313781738e-02) (5, 5.52746132016181945801e-02) (6, -4.42825257778167724609e-03) (7, 7.50206187367439270020e-02) (8, -1.91815793514251708984e-02) (9, -9.04344469308853149414e-02) (10, 7.02682361006736755371e-02) (11, -4.84636202454566955566e-02) (12, 5.52775040268898010254e-02) (13, 1.93866640329360961914e-02) (14, -7.16539770364761352539e-02) (0, -4.20451574027538299561e-02) (1, -4.46358919143676757812e-02) (2, 6.27238228917121887207e-02) (3, 5.26844635605812072754e-02) (4, -6.98743239045143127441e-02) (5, 6.89648911356925964355e-02) (6, 5.50046637654304504395e-02) (7, -5.15712350606918334961e-02) (8, 3.82333174347877502441e-02) (9, 2.31745988130569458008e-02) (10, 8.80438014864921569824e-02) (11, 3.82673665881156921387e-02) (12, 9.27602425217628479004e-02) (13, -5.23000173270702362061e-02) (14, -5.14284558594226837158e-02) (0, -5.23887835443019866943e-02) (1, -5.91020770370960235596e-02) (2, -4.17304784059524536133e-03) (3, 1.64513215422630310059e-02) (4, -6.98909610509872436523e-02) (5, 6.10812753438949584961e-03) (6, -2.82740592956542968750e-02) (7, 2.56807878613471984863e-02) (8, -1.88712403178215026855e-02) (9, 5.25443628430366516113e-02) (10, 3.52463498711585998535e-02) (11, -4.86029982566833496094e-02) (12, -9.59192588925361633301e-02) (13, -9.47614014148712158203e-03) (14, 7.07836672663688659668e-02) (15, -6.75732344388961791992e-02) (16, 4.84787002205848693848e-02) (17, -7.38522261381149291992e-02) (18, 9.51505973935127258301e-02) (19, 1.16316229104995727539e-03) (20, -4.37265597283840179443e-02) (21, 6.41154721379280090332e-02) (22, -4.38321717083454132080e-02) (23, 4.70221042633056640625e-03) (24, 2.34879553318023681641e-03) (25, 7.93424323201179504395e-02) (26, -7.25398957729339599609e-03) (27, -5.93838579952716827393e-02) (15, 7.21026733517646789551e-02) (16, 4.04459908604621887207e-02) (17, -1.08123123645782470703e-02) (18, -8.02861154079437255859e-02) (19, 8.13439115881919860840e-02) (20, 8.50146487355232238770e-02) (21, 3.61652001738548278809e-02) (22, -8.85470435023307800293e-02) (23, -8.87722522020339965820e-03) (24, -9.21088531613349914551e-02) (25, 3.71337458491325378418e-02) (26, 7.22515359520912170410e-02) (27, 6.04355111718177795410e-02) (15, -2.76199057698249816895e-02) (16, -7.63514637947082519531e-02) (17, 6.45162537693977355957e-02) (18, 6.29039481282234191895e-02) (19, 9.44321975111961364746e-02) (20, 9.69430282711982727051e-02) (21, 1.13826543092727661133e-02) (22, -7.94200301170349121094e-02) (23, 9.20935943722724914551e-02) (24, -8.74541848897933959961e-02) (25, -2.31465846300125122070e-02) (26, 5.62090650200843811035e-02) (27, -3.12863513827323913574e-02) (15, 8.15556272864341735840e-02) (16, -4.14421446621417999268e-02) (17, -5.19439280033111572266e-02) (18, -2.56983637809753417969e-02) (19, -8.26001167297363281250e-04) (20, -7.98412561416625976562e-02) (21, -8.52523669600486755371e-02) (22, 8.83616879582405090332e-02) (23, -6.01273737847805023193e-02) (24, 9.60915461182594299316e-02) (25, 7.33763352036476135254e-02) (26, 7.60378316044807434082e-02) (27, -9.24554988741874694824e-02) (15, -3.55008915066719055176e-02) (16, 8.39289799332618713379e-02) (17, 4.46782484650611877441e-02) (18, -6.32493570446968078613e-02) (19, 4.43644896149635314941e-02) (20, -8.29416513442993164062e-02) (21, -3.96008156239986419678e-02) (22, 8.88074934482574462891e-03) (23, 7.99623057246208190918e-02) (24, -4.51686158776283264160e-02) (25, 5.82375377416610717773e-03) (26, -8.65505635738372802734e-03) (27, -2.45886370539665222168e-02) (15, -2.08263844251632690430e-03) (16, 3.89076769351959228516e-03) (17, 5.22647723555564880371e-02) (18, -4.58735786378383636475e-02) (19, 7.26044252514839172363e-02) (20, 3.38203981518745422363e-02) (21, 1.26842707395553588867e-02) (22, -7.93395191431045532227e-02) (23, -9.18779522180557250977e-02) (24, -8.81417244672775268555e-02) (25, -5.91807775199413299561e-02) (26, -7.71303251385688781738e-02) (27, -9.97800379991531372070e-02) (15, -1.93081498146057128906e-02) (16, -8.10387730598449707031e-02) (17, 7.35963061451911926270e-02) (18, -4.32703159749507904053e-02) (19, -7.34942704439163208008e-02) (20, -6.19046017527580261230e-02) (21, -5.93413338065147399902e-02) (22, 7.11839869618415832520e-02) (23, -2.51539498567581176758e-02) (24, 8.50231721997261047363e-02) (25, 8.82423147559165954590e-02) (26, 3.52452322840690612793e-02) (27, -6.09609484672546386719e-03) (15, 6.82046189904212951660e-02) (16, 9.00766327977180480957e-02) (17, 9.97276678681373596191e-02) (18, -4.04504314064979553223e-02) (19, -3.45120206475257873535e-02) (20, -2.35497951507568359375e-03) (21, 6.34403303265571594238e-02) (22, -8.22472423315048217773e-02) (23, 5.17714545130729675293e-02) (24, 3.60447540879249572754e-02) (25, 5.15731647610664367676e-02) (26, -3.55442762374877929688e-02) (27, 5.67052438855171203613e-02) (15, 5.96952214837074279785e-02) (16, -2.36859992146492004395e-02) (17, 9.75244566798210144043e-02) (18, 8.25648978352546691895e-02) (19, -2.34660357236862182617e-02) (20, -2.17836946249008178711e-02) (21, -9.84738841652870178223e-02) (22, -4.98697422444820404053e-02) (23, 3.49460020661354064941e-02) (24, -7.19681531190872192383e-02) (25, -1.17743462324142456055e-02) (26, 7.56046697497367858887e-02) (27, 9.92158129811286926270e-02) (15, 6.30717054009437561035e-02) (16, 6.06278255581855773926e-02) (17, 8.74581411480903625488e-02) (18, -1.68306380510330200195e-03) (19, -4.54682707786560058594e-02) (20, 5.56627586483955383301e-02) (21, -1.16064399480819702148e-02) (22, -4.57406044006347656250e-02) (23, -8.47876742482185363770e-02) (24, 5.38815334439277648926e-02) (25, 5.19044175744056701660e-02) (26, 7.86526575684547424316e-02) (27, 7.16343000531196594238e-02) (15, 3.67586314678192138672e-03) (16, 1.46974101662635803223e-02) (17, 2.32074707746505737305e-02) (18, 6.81315883994102478027e-02) (19, -2.85973623394966125488e-02) (20, -1.70973092317581176758e-02) (21, -5.55544085800647735596e-02) (22, -3.10728996992111206055e-02) (23, -3.45324203372001647949e-02) (24, 2.09795609116554260254e-02) (25, 4.71434071660041809082e-02) (26, -3.30063030123710632324e-02) (27, 7.11098238825798034668e-02) (28, -1.79105997085571289062e-02) (29, -4.97446209192276000977e-03) (30, -4.06645312905311584473e-02) (31, -4.23059351742267608643e-02) (32, -5.75863569974899291992e-03) (33, -7.75928199291229248047e-02) (34, -8.16781148314476013184e-02) (35, -1.83004960417747497559e-02) (36, 2.07241177558898925781e-02) (37, -2.71463841199874877930e-02) (38, -6.26377463340759277344e-02) (39, -9.08823311328887939453e-02) (28, 2.71130129694938659668e-02) (29, -4.74254153668880462646e-02) (30, 6.29992112517356872559e-02) (31, -2.09825709462165832520e-02) (32, -6.87727555632591247559e-02) (33, 3.46335247159004211426e-02) (34, 8.26932862401008605957e-02) (35, 4.59246560931205749512e-02) (36, -4.21590171754360198975e-02) (37, 5.08248880505561828613e-02) (38, -8.26727077364921569824e-02) (39, 4.07436713576316833496e-02) (28, 9.52704772353172302246e-02) (29, -1.37456133961677551270e-02) (30, -9.37887504696846008301e-02) (31, 1.62500366568565368652e-02) (32, -6.66022002696990966797e-02) (33, -2.67950445413589477539e-02) (34, -1.26401558518409729004e-02) (35, 1.54871940612792968750e-02) (36, 6.82304874062538146973e-02) (37, 4.66953143477439880371e-02) (38, 7.31812641024589538574e-02) (39, -3.75281460583209991455e-02) (28, 6.91025033593177795410e-02) (29, 9.15031507611274719238e-02) (30, 4.41713556647300720215e-02) (31, -1.01733878254890441895e-02) (32, -3.56432348489761352539e-02) (33, 8.15336182713508605957e-02) (34, -1.05571746826171875000e-03) (35, 9.14697721600532531738e-02) (36, -6.58918023109436035156e-02) (37, -3.80565002560615539551e-02) (38, -2.95127928256988525391e-02) (39, -3.46645563840866088867e-02) (28, 9.65770110487937927246e-02) (29, -4.68194968998432159424e-02) (30, -8.87399017810821533203e-02) (31, -4.55819964408874511719e-02) (32, -9.59946140646934509277e-02) (33, -7.14126080274581909180e-02) (34, 9.51616838574409484863e-02) (35, 9.92758646607398986816e-02) (36, 1.48417800664901733398e-02) (37, -9.86270755529403686523e-02) (38, 1.55258998274803161621e-02) (39, 4.82395812869071960449e-02) (28, -2.54221186041831970215e-02) (29, -9.71142575144767761230e-02) (30, -3.62732261419296264648e-02) (31, -5.71916326880455017090e-02) (32, 4.95810583233833312988e-02) (33, -6.30919635295867919922e-02) (34, 5.28021901845932006836e-03) (35, 1.86835676431655883789e-02) (36, -7.15888142585754394531e-02) (37, -5.05484268069267272949e-02) (38, -9.14898291230201721191e-02) (39, -7.23204761743545532227e-03) (28, -6.90148174762725830078e-02) (29, 7.45445489883422851562e-03) (30, -1.57622694969177246094e-02) (31, -3.49066182971000671387e-02) (32, 6.93979635834693908691e-02) (33, 5.47249391674995422363e-02) (34, 3.04288342595100402832e-02) (35, 6.59749731421470642090e-02) (36, -9.20945554971694946289e-02) (37, 4.16889265179634094238e-02) (38, -7.96070247888565063477e-02) (39, -8.80891680717468261719e-02) (28, 7.02763125300407409668e-02) (29, -8.44453498721122741699e-02) (30, -8.88133049011230468750e-02) (31, -1.48819014430046081543e-02) (32, -8.30724239349365234375e-02) (33, 2.67126038670539855957e-02) (34, -6.66423290967941284180e-02) (35, -8.49454104900360107422e-03) (36, 2.95983329415321350098e-02) (37, -2.91554629802703857422e-03) (38, 3.43138203024864196777e-02) (39, -2.08206027746200561523e-02) (28, 3.39924916625022888184e-02) (29, -6.04059509932994842529e-02) (30, 9.78629663586616516113e-02) (31, 6.24036863446235656738e-02) (32, -1.09543800354003906250e-02) (33, -9.36268642544746398926e-02) (34, -4.48283739387989044189e-02) (35, 2.00308114290237426758e-02) (36, 1.38275995850563049316e-02) (37, 3.94093468785285949707e-02) (38, 8.51241871714591979980e-02) (39, -1.67744383215904235840e-02) (28, -5.86570799350738525391e-03) (29, 1.55530124902725219727e-02) (30, -5.07994703948497772217e-02) (31, 2.03974545001983642578e-03) (32, -4.27580662071704864502e-02) (33, -3.04064899682998657227e-02) (34, 1.39505714178085327148e-02) (35, -7.24817514419555664062e-02) (36, -1.48518458008766174316e-02) (37, 2.51372531056404113770e-02) (38, 1.26363411545753479004e-02) (39, 2.07573175430297851562e-03) 
