FANN_FLO_2.1
num_layers=4
learning_rate=0.700000
connection_rate=1.000000
network_type=0
learning_momentum=0.000000
training_algorithm=2
train_error_function=1
train_stop_function=0
cascade_output_change_fraction=0.010000
quickprop_decay=-0.000100
quickprop_mu=1.750000
rprop_increase_factor=1.200000
rprop_decrease_factor=0.500000
rprop_delta_min=0.000000
rprop_delta_max=50.000000
rprop_delta_zero=0.100000
cascade_output_stagnation_epochs=12
cascade_candidate_change_fraction=0.010000
cascade_candidate_stagnation_epochs=12
cascade_max_out_epochs=150
cascade_min_out_epochs=50
cascade_max_cand_epochs=150
cascade_min_cand_epochs=50
cascade_num_candidate_groups=2
bit_fail_limit=3.49999994039535522461e-01
cascade_candidate_limit=1.00000000000000000000e+03
cascade_weight_multiplier=4.00000005960464477539e-01
cascade_activation_functions_count=10
cascade_activation_functions=3 5 7 8 10 11 14 15 16 17 
cascade_activation_steepnesses_count=4
cascade_activation_steepnesses=2.50000000000000000000e-01 5.00000000000000000000e-01 7.50000000000000000000e-01 1.00000000000000000000e+00 
layer_sizes=15 13 12 11 
scale_included=0
neurons (num_inputs, activation_function, activation_steepness)=(0, 0, 0.00000000000000000000e+00) (0, 0, 0.00000000000000000000e+00) (0, 0, 0.00000000000000000000e+00) (0, 0, 0.00000000000000000000e+00) (0, 0, 0.00000000000000000000e+00) (0, 0, 0.00000000000000000000e+00) (0, 0, 0.00000000000000000000e+00) (0, 0, 0.00000000000000000000e+00) (0, 0, 0.00000000000000000000e+00) (0, 0, 0.00000000000000000000e+00) (0, 0, 0.00000000000000000000e+00) (0, 0, 0.00000000000000000000e+00) (0, 0, 0.00000000000000000000e+00) (0, 0, 0.00000000000000000000e+00) (0, 0, 0.00000000000000000000e+00) (15, 5, 5.00000000000000000000e-01) (15, 5, 5.00000000000000000000e-01) (15, 5, 5.00000000000000000000e-01) (15, 5, 5.00000000000000000000e-01) (15, 5, 5.00000000000000000000e-01) (15, 5, 5.00000000000000000000e-01) (15, 5, 5.00000000000000000000e-01) (15, 5, 5.00000000000000000000e-01) (15, 5, 5.00000000000000000000e-01) (15, 5, 5.00000000000000000000e-01) (15, 5, 5.00000000000000000000e-01) (15, 5, 5.00000000000000000000e-01) (0, 5, 0.00000000000000000000e+00) (13, 5, 5.00000000000000000000e-01) (13, 5, 5.00000000000000000000e-01) (13, 5, 5.00000000000000000000e-01) (13, 5, 5.00000000000000000000e-01) (13, 5, 5.00000000000000000000e-01) (13, 5, 5.00000000000000000000e-01) (13, 5, 5.00000000000000000000e-01) (13, 5, 5.00000000000000000000e-01) (13, 5, 5.00000000000000000000e-01) (13, 5, 5.00000000000000000000e-01) (13, 5, 5.00000000000000000000e-01) (0, 5, 0.00000000000000000000e+00) (12, 5, 5.00000000000000000000e-01) (12, 5, 5.00000000000000000000e-01) (12, 5, 5.00000000000000000000e-01) (12, 5, 5.00000000000000000000e-01) (12, 5, 5.00000000000000000000e-01) (12, 5, 5.00000000000000000000e-01) (12, 5, 5.00000000000000000000e-01) (12, 5, 5.00000000000000000000e-01) (12, 5, 5.00000000000000000000e-01) (12, 5, 5.00000000000000000000e-01) (0, 5, 0.00000000000000000000e+00) 
connections (connected_to_neuron, weight)=(0, -8.83900076150894165039e-02) (1, 6.29177764058113098145e-02) (2, 9.41835865378379821777e-02) (3, 7.81451836228370666504e-02) (4, -6.82367384433746337891e-02) (5, -1.57209485769271850586e-02) (6, -1.58575847744941711426e-02) (7, 6.29474893212318420410e-02) (8, 1.10394954681396484375e-02) (9, -2.13549062609672546387e-02) (10, 1.40860229730606079102e-02) (11, -8.44425782561302185059e-02) (12, 4.34890463948249816895e-02) (13, -4.20179031789302825928e-02) (14, 8.65694358944892883301e-02) (0, -9.24202650785446166992e-02) (1, 4.87386658787727355957e-02) (2, 8.57446342706680297852e-03) (3, 4.76475432515144348145e-02) (4, -5.12623377144336700439e-02) (5, -9.56632271409034729004e-02) (6, -8.01525712013244628906e-02) (7, -3.40029746294021606445e-02) (8, -2.57665067911148071289e-02) (9, -7.02296346426010131836e-02) (10, 7.53723457455635070801e-02) (11, -8.29911231994628906250e-02) (12, -2.12065950036048889160e-02) (13, -3.25269997119903564453e-04) (14, 3.31351682543754577637e-02) (0, -7.69899785518646240234e-03) (1, 1.12847238779067993164e-02) (2, -3.94706428050994873047e-03) (3, -1.35154053568840026855e-02) (4, -1.05700939893722534180e-02) (5, 2.78161987662315368652e-02) (6, 7.07636401057243347168e-02) (7, 7.35723301768302917480e-02) (8, -9.23631340265274047852e-03) (9, -1.81968659162521362305e-02) (10, -4.77825812995433807373e-02) (11, -9.51502993702888488770e-02) (12, -2.63945013284683227539e-03) (13, 9.57064703106880187988e-02) (14, -3.71681973338127136230e-02) (0, -1.60700082778930664062e-02) (1, -9.67138037085533142090e-02) (2, -8.84295329451560974121e-02) (3, 9.25044491887092590332e-02) (4, 5.09337410330772399902e-02) (5, -3.96918654441833496094e-02) (6, 9.68412235379219055176e-02) (7, 7.07811787724494934082e-02) (8, 2.63051614165306091309e-02) (9, -2.89252772927284240723e-02) (10, -9.94484722614288330078e-02) (11, 1.67749822139739990234e-03) (12, -1.19164064526557922363e-02) (13, -2.06550583243370056152e-02) (14, -9.86477732658386230469e-02) (0, -7.87812471389770507812e-02) (1, 7.16459378600120544434e-02) (2, 1.26369595527648925781e-02) (3, 1.72716826200485229492e-02) (4, -4.18694727122783660889e-02) (5, -9.79331433773040771484e-02) (6, -5.49121126532554626465e-02) (7, -7.11058378219604492188e-02) (8, 7.56391808390617370605e-02) (9, 3.58515754342079162598e-02) (10, 1.06972903013229370117e-02) (11, -7.21434056758880615234e-02) (12, 4.07012775540351867676e-02) (13, -9.19421538710594177246e-02) (14, -7.64369443058967590332e-02) (0, -9.64669212698936462402e-02) (1, -8.01216065883636474609e-03) (2, -7.31507465243339538574e-02) (3, -8.48964527249336242676e-02) (4, -1.55077055096626281738e-02) (5, 7.77829959988594055176e-02) (6, -2.45883166790008544922e-02) (7, -1.86664685606956481934e-02) (8, 4.85641583800315856934e-02) (9, -9.82831567525863647461e-02) (10, 5.24082556366920471191e-02) (11, 4.91156950592994689941e-02) (12, 3.39434295892715454102e-03) (13, -5.95081523060798645020e-02) (14, -7.15393722057342529297e-02) (0, 4.74657118320465087891e-03) (1, -3.82893942296504974365e-02) (2, -9.98934358358383178711e-02) (3, -8.26164707541465759277e-02) (4, 7.89823010563850402832e-02) (5, -4.17629070580005645752e-02) (6, -8.05496126413345336914e-02) (7, -7.59298130869865417480e-02) (8, -1.28687396645545959473e-02) (9, 9.50895622372627258301e-02) (10, 5.99217638373374938965e-02) (11, 9.78285595774650573730e-02) (12, -7.70538300275802612305e-02) (13, 6.23032450675964355469e-04) (14, -9.41135957837104797363e-02) (0, -5.34907728433609008789e-02) (1, 4.15612757205963134766e-03) (2, -2.12575495243072509766e-03) (3, -2.66415178775787353516e-02) (4, 1.92596763372421264648e-02) (5, 8.23665335774421691895e-02) (6, -4.88585233688354492188e-02) (7, 9.46713611483573913574e-02) (8, -3.62999290227890014648e-02) (9, 9.97056439518928527832e-02) (10, 9.63881984353065490723e-02) (11, -8.38916748762130737305e-02) (12, 4.88213375210762023926e-02) (13, -2.17452645301818847656e-04) (14, -4.33998294174671173096e-02) (0, 7.72819593548774719238e-02) (1, -9.54708829522132873535e-02) (2, 1.83107703924179077148e-02) (3, 7.73885324597358703613e-02) (4, -7.80873596668243408203e-02) (5, -2.70692259073257446289e-03) (6, -6.43743723630905151367e-02) (7, -5.86369670927524566650e-02) (8, 2.13632732629776000977e-02) (9, 2.27568894624710083008e-02) (10, -6.35474026203155517578e-02) (11, -1.87149718403816223145e-02) (12, 2.05854400992393493652e-02) (13, -4.06012311577796936035e-02) (14, 8.19080695509910583496e-02) (0, 2.64718607068061828613e-02) (1, 5.90799748897552490234e-03) (2, -1.39358118176460266113e-02) (3, -7.56539031863212585449e-02) (4, 7.92664811015129089355e-02) (5, -9.46761369705200195312e-02) (6, -9.32873636484146118164e-02) (7, -6.95920437574386596680e-02) (8, 9.99952182173728942871e-02) (9, -2.95872837305068969727e-02) (10, -6.98864087462425231934e-02) (11, 9.63834300637245178223e-02) (12, -1.34789645671844482422e-02) (13, 7.89349153637886047363e-02) (14, -3.83402407169342041016e-03) (0, 4.31212112307548522949e-02) (1, 5.62168881297111511230e-02) (2, 6.95087015628814697266e-04) (3, -3.85680161416530609131e-02) (4, 3.36054190993309020996e-02) (5, 2.26077288389205932617e-02) (6, 5.87250664830207824707e-02) (7, 6.92310407757759094238e-02) (8, 6.39707669615745544434e-02) (9, -1.99116691946983337402e-02) (10, -8.01207125186920166016e-03) (11, -9.95766371488571166992e-02) (12, 6.13733604550361633301e-02) (13, -8.74266251921653747559e-02) (14, -4.01778630912303924561e-02) (0, 4.32814285159111022949e-02) (1, 3.90452221035957336426e-02) (2, 6.57301321625709533691e-02) (3, -7.06543922424316406250e-02) (4, 6.33913204073905944824e-02) (5, 4.49966117739677429199e-02) (6, -6.53305277228355407715e-02) (7, 7.01039656996726989746e-02) (8, 7.54045620560646057129e-02) (9, -6.53353035449981689453e-02) (10, -5.94833306968212127686e-02) (11, -9.44818481802940368652e-02) (12, -6.89518749713897705078e-02) (13, 2.70377025008201599121e-02) (14, 8.44530686736106872559e-02) (15, 2.72141024470329284668e-02) (16, -2.98410877585411071777e-02) (17, 4.06699553132057189941e-02) (18, -7.20908194780349731445e-02) (19, 3.15909013152122497559e-02) (20, -2.57246270775794982910e-02) (21, 5.05169108510017395020e-02) (22, -9.68404114246368408203e-03) (23, -5.64935803413391113281e-02) (24, 1.44876688718795776367e-02) (25, 7.04042986035346984863e-02) (26, 3.54943498969078063965e-02) (27, 1.49110406637191772461e-02) (15, 3.17776426672935485840e-02) (16, 4.80677261948585510254e-02) (17, 7.47331753373146057129e-02) (18, -2.49409377574920654297e-02) (19, -1.28870531916618347168e-02) (20, 4.04633060097694396973e-02) (21, 4.40467894077301025391e-03) (22, -4.94957342743873596191e-02) (23, -1.45400837063789367676e-02) (24, 3.90741452574729919434e-02) (25, -7.93917700648307800293e-02) (26, -3.91355231404304504395e-02) (27, 7.37388506531715393066e-02) (15, -3.88750992715358734131e-02) (16, -3.36173698306083679199e-02) (17, -9.52130332589149475098e-02) (18, 8.81626084446907043457e-02) (19, -4.91642951965332031250e-02) (20, 3.20010706782341003418e-02) (21, -4.16784770786762237549e-02) (22, 9.15056541562080383301e-02) (23, 5.99102452397346496582e-02) (24, 8.99124220013618469238e-02) (25, -3.42189595103263854980e-02) (26, 1.04271620512008666992e-02) (27, -1.97716206312179565430e-02) (15, 9.28745418787002563477e-03) (16, -7.50851631164550781250e-02) (17, -4.93673346936702728271e-02) (18, -5.52181974053382873535e-02) (19, 3.98258790373802185059e-02) (20, 8.24103131890296936035e-02) (21, 9.28495302796363830566e-02) (22, 1.45590528845787048340e-02) (23, -4.25306335091590881348e-02) (24, -2.00375244021415710449e-02) (25, -4.49776351451873779297e-02) (26, 6.18740394711494445801e-02) (27, 3.04667428135871887207e-02) (15, 4.04822900891304016113e-02) (16, 9.48190689086914062500e-04) (17, 5.10749742388725280762e-02) (18, -9.86532345414161682129e-02) (19, -2.53129601478576660156e-02) (20, -8.78001302480697631836e-02) (21, -3.22706028819084167480e-02) (22, -2.05259919166564941406e-02) (23, -9.96375232934951782227e-02) (24, 1.85650959610939025879e-02) (25, -8.85249227285385131836e-02) (26, -4.13159988820552825928e-02) (27, 1.00707635283470153809e-02) (15, 7.13853314518928527832e-02) (16, -5.14035783708095550537e-02) (17, 7.58518055081367492676e-02) (18, -1.81875079870223999023e-02) (19, 2.88248136639595031738e-02) (20, -1.48607417941093444824e-02) (21, 6.72732293605804443359e-03) (22, 7.94574692845344543457e-02) (23, 2.99210622906684875488e-02) (24, -5.34467957913875579834e-02) (25, 6.18677809834480285645e-02) (26, 2.27705836296081542969e-02) (27, 6.11122623085975646973e-02) (15, -8.06628614664077758789e-02) (16, -9.72669348120689392090e-02) (17, -8.38653668761253356934e-02) (18, 8.12111869454383850098e-02) (19, 3.31997945904731750488e-02) (20, 5.66169098019599914551e-02) (21, -1.78406238555908203125e-02) (22, -1.57252252101898193359e-02) (23, 5.79636767506599426270e-02) (24, 5.68464174866676330566e-02) (25, -3.52535396814346313477e-03) (26, -7.43069201707839965820e-02) (27, -6.36795759201049804688e-02) (15, -3.16287577152252197266e-03) (16, 4.42581847310066223145e-02) (17, -5.22045008838176727295e-02) (18, 5.55211380124092102051e-02) (19, -4.56710644066333770752e-02) (20, -8.08191746473312377930e-02) (21, -9.58824455738067626953e-02) (22, -6.98192641139030456543e-02) (23, 9.93311405181884765625e-04) (24, 3.29423621296882629395e-02) (25, 1.53199881315231323242e-02) (26, -9.22793671488761901855e-02) (27, 1.23998150229454040527e-02) (15, -5.47589436173439025879e-02) (16, -4.57261614501476287842e-02) (17, -2.57324054837226867676e-02) (18, 6.80116489529609680176e-02) (19, -8.46138969063758850098e-02) (20, -6.39526546001434326172e-03) (21, 7.07447007298469543457e-02) (22, -6.84792697429656982422e-02) (23, -2.51840800046920776367e-02) (24, 3.94451618194580078125e-03) (25, 8.81376489996910095215e-02) (26, 5.69752976298332214355e-02) (27, 8.82192924618721008301e-02) (15, 4.61013391613960266113e-02) (16, 1.38217061758041381836e-02) (17, -1.53060629963874816895e-02) (18, 7.17944130301475524902e-02) (19, 5.01421168446540832520e-02) (20, 8.15310701727867126465e-02) (21, 1.60525888204574584961e-02) (22, 9.79376211762428283691e-02) (23, 3.70522066950798034668e-02) (24, 7.03815296292304992676e-02) (25, -8.28815549612045288086e-02) (26, 4.11697551608085632324e-02) (27, -9.94377359747886657715e-02) (15, 1.81117504835128784180e-02) (16, -2.58878916501998901367e-02) (17, 1.58822685480117797852e-02) (18, 2.58323922753334045410e-02) (19, 8.65119323134422302246e-02) (20, 6.11233189702033996582e-02) (21, 8.01062211394309997559e-02) (22, -3.92204783856868743896e-02) (23, 2.91349664330482482910e-02) (24, 9.54923257231712341309e-02) (25, 5.43842688202857971191e-02) (26, -1.20326876640319824219e-04) (27, -7.29869306087493896484e-02) (28, -7.07998201251029968262e-02) (29, -9.61758121848106384277e-02) (30, -8.48492830991744995117e-02) (31, 8.61754789948463439941e-02) (32, 9.20434817671775817871e-02) (33, 6.12520650029182434082e-02) (34, -2.82377004623413085938e-06) (35, -2.32625827193260192871e-02) (36, 3.30464765429496765137e-02) (37, -4.98606972396373748779e-02) (38, -4.17315140366554260254e-02) (39, -5.09009324014186859131e-02) (28, -5.19230775535106658936e-02) (29, 9.53206941485404968262e-02) (30, -8.05194005370140075684e-02) (31, -3.48046272993087768555e-02) (32, 3.64904478192329406738e-02) (33, -7.99571350216865539551e-02) (34, 8.33071246743202209473e-02) (35, -8.93974453210830688477e-02) (36, 3.59251275658607482910e-02) (37, 9.13951545953750610352e-03) (38, 9.71144959330558776855e-02) (39, -2.95154750347137451172e-03) (28, -1.07542648911476135254e-02) (29, -4.21059839427471160889e-02) (30, -7.38165825605392456055e-02) (31, -1.52619332075119018555e-02) (32, -8.77217203378677368164e-02) (33, 2.60630920529365539551e-02) (34, 1.17511302232742309570e-02) (35, -5.85215426981449127197e-02) (36, 2.98872813582420349121e-02) (37, 2.69018486142158508301e-02) (38, -7.23460689187049865723e-02) (39, 2.19307690858840942383e-02) (28, -1.18460804224014282227e-02) (29, 2.76511088013648986816e-02) (30, 9.86681804060935974121e-02) (31, -7.87996128201484680176e-02) (32, 7.77904167771339416504e-02) (33, -4.30633388459682464600e-02) (34, -2.97005400061607360840e-02) (35, -7.41326659917831420898e-02) (36, -4.77426461875438690186e-02) (37, -1.02199465036392211914e-02) (38, -8.93729180097579956055e-03) (39, 8.87478068470954895020e-02) (28, 9.82292741537094116211e-03) (29, -2.56301686167716979980e-02) (30, 9.93503555655479431152e-02) (31, -5.42519390583038330078e-02) (32, 8.35093334317207336426e-02) (33, 9.64648500084877014160e-02) (34, 4.27965149283409118652e-02) (35, -2.72449254989624023438e-02) (36, -4.56411428749561309814e-02) (37, 6.89799264073371887207e-02) (38, 5.74931427836418151855e-02) (39, -3.33628654479980468750e-02) (28, -4.95697557926177978516e-03) (29, -3.07557284832000732422e-02) (30, 8.11558961868286132812e-03) (31, -7.50696957111358642578e-02) (32, 9.61461290717124938965e-02) (33, 3.57695296406745910645e-02) (34, 4.68610599637031555176e-02) (35, -1.56999602913856506348e-02) (36, -3.65793704986572265625e-02) (37, 4.55292537808418273926e-02) (38, 5.50043582916259765625e-03) (39, -5.87889589369297027588e-02) (28, -9.75340902805328369141e-02) (29, 7.57998898625373840332e-02) (30, -3.29216271638870239258e-02) (31, -4.52767387032508850098e-02) (32, -3.44200506806373596191e-02) (33, 5.81410899758338928223e-02) (34, -5.65289370715618133545e-02) (35, 7.54028782248497009277e-02) (36, -6.74890875816345214844e-02) (37, -5.71785829961299896240e-02) (38, -7.88490623235702514648e-02) (39, -8.39797481894493103027e-02) (28, -6.07137382030487060547e-02) (29, 6.39474466443061828613e-02) (30, -1.12246721982955932617e-02) (31, -6.35488331317901611328e-03) (32, 3.29273864626884460449e-02) (33, -5.37315346300601959229e-02) (34, 6.02822527289390563965e-02) (35, -7.20296055078506469727e-02) (36, 1.55127421021461486816e-02) (37, -3.16021516919136047363e-02) (38, -4.70992997288703918457e-02) (39, 1.16588696837425231934e-02) (28, -9.58326309919357299805e-02) (29, 9.97617766261100769043e-02) (30, 9.59589108824729919434e-02) (31, -3.24119925498962402344e-02) (32, 4.52910140156745910645e-02) (33, 1.45933777093887329102e-03) (34, 8.79905372858047485352e-03) (35, 4.77569177746772766113e-02) (36, -2.27407664060592651367e-02) (37, 7.58774355053901672363e-02) (38, -9.75198149681091308594e-02) (39, 4.28391769528388977051e-02) (28, 3.40185090899467468262e-02) (29, -5.40487468242645263672e-02) (30, 1.82420611381530761719e-02) (31, 6.65294304490089416504e-02) (32, -1.12273246049880981445e-02) (33, 3.93930003046989440918e-02) (34, 8.25496837496757507324e-02) (35, 2.80589386820793151855e-02) (36, 3.34044545888900756836e-03) (37, -2.86749973893165588379e-02) (38, -7.82959461212158203125e-02) (39, -6.37321770191192626953e-02) 
