FANN_FLO_2.1
num_layers=4
learning_rate=0.700000
connection_rate=1.000000
network_type=0
learning_momentum=0.000000
training_algorithm=2
train_error_function=1
train_stop_function=0
cascade_output_change_fraction=0.010000
quickprop_decay=-0.000100
quickprop_mu=1.750000
rprop_increase_factor=1.200000
rprop_decrease_factor=0.500000
rprop_delta_min=0.000000
rprop_delta_max=50.000000
rprop_delta_zero=0.100000
cascade_output_stagnation_epochs=12
cascade_candidate_change_fraction=0.010000
cascade_candidate_stagnation_epochs=12
cascade_max_out_epochs=150
cascade_min_out_epochs=50
cascade_max_cand_epochs=150
cascade_min_cand_epochs=50
cascade_num_candidate_groups=2
bit_fail_limit=3.49999994039535522461e-01
cascade_candidate_limit=1.00000000000000000000e+03
cascade_weight_multiplier=4.00000005960464477539e-01
cascade_activation_functions_count=10
cascade_activation_functions=3 5 7 8 10 11 14 15 16 17 
cascade_activation_steepnesses_count=4
cascade_activation_steepnesses=2.50000000000000000000e-01 5.00000000000000000000e-01 7.50000000000000000000e-01 1.00000000000000000000e+00 
layer_sizes=15 13 12 11 
scale_included=0
neurons (num_inputs, activation_function, activation_steepness)=(0, 0, 0.00000000000000000000e+00) (0, 0, 0.00000000000000000000e+00) (0, 0, 0.00000000000000000000e+00) (0, 0, 0.00000000000000000000e+00) (0, 0, 0.00000000000000000000e+00) (0, 0, 0.00000000000000000000e+00) (0, 0, 0.00000000000000000000e+00) (0, 0, 0.00000000000000000000e+00) (0, 0, 0.00000000000000000000e+00) (0, 0, 0.00000000000000000000e+00) (0, 0, 0.00000000000000000000e+00) (0, 0, 0.00000000000000000000e+00) (0, 0, 0.00000000000000000000e+00) (0, 0, 0.00000000000000000000e+00) (0, 0, 0.00000000000000000000e+00) (15, 5, 5.00000000000000000000e-01) (15, 5, 5.00000000000000000000e-01) (15, 5, 5.00000000000000000000e-01) (15, 5, 5.00000000000000000000e-01) (15, 5, 5.00000000000000000000e-01) (15, 5, 5.00000000000000000000e-01) (15, 5, 5.00000000000000000000e-01) (15, 5, 5.00000000000000000000e-01) (15, 5, 5.00000000000000000000e-01) (15, 5, 5.00000000000000000000e-01) (15, 5, 5.00000000000000000000e-01) (15, 5, 5.00000000000000000000e-01) (0, 5, 0.00000000000000000000e+00) (13, 5, 5.00000000000000000000e-01) (13, 5, 5.00000000000000000000e-01) (13, 5, 5.00000000000000000000e-01) (13, 5, 5.00000000000000000000e-01) (13, 5, 5.00000000000000000000e-01) (13, 5, 5.00000000000000000000e-01) (13, 5, 5.00000000000000000000e-01) (13, 5, 5.00000000000000000000e-01) (13, 5, 5.00000000000000000000e-01) (13, 5, 5.00000000000000000000e-01) (13, 5, 5.00000000000000000000e-01) (0, 5, 0.00000000000000000000e+00) (12, 5, 5.00000000000000000000e-01) (12, 5, 5.00000000000000000000e-01) (12, 5, 5.00000000000000000000e-01) (12, 5, 5.00000000000000000000e-01) (12, 5, 5.00000000000000000000e-01) (12, 5, 5.00000000000000000000e-01) (12, 5, 5.00000000000000000000e-01) (12, 5, 5.00000000000000000000e-01) (12, 5, 5.00000000000000000000e-01) (12, 5, 5.00000000000000000000e-01) (0, 5, 0.00000000000000000000e+00) 
connections (connected_to_neuron, weight)=(0, -4.38028685748577117920e-02) (1, 7.49372467398643493652e-02) (2, -9.92582142353057861328e-02) (3, -9.17859300971031188965e-02) (4, -9.02229472994804382324e-02) (5, -9.69234332442283630371e-02) (6, 1.95127278566360473633e-02) (7, 7.27224722504615783691e-02) (8, -1.88107341527938842773e-02) (9, -7.72297456860542297363e-02) (10, -8.08963850140571594238e-02) (11, 2.54471525549888610840e-02) (12, 6.88580945134162902832e-02) (13, -6.67318031191825866699e-02) (14, 3.69998738169670104980e-02) (0, 7.09576904773712158203e-03) (1, 4.81317266821861267090e-02) (2, -2.32030898332595825195e-02) (3, 3.13332751393318176270e-02) (4, 1.32645517587661743164e-02) (5, 2.56508365273475646973e-02) (6, 9.92393493652343750000e-03) (7, 8.86017456650733947754e-02) (8, 4.78048399090766906738e-02) (9, -1.26259997487068176270e-02) (10, -1.76968425512313842773e-02) (11, -8.68828520178794860840e-02) (12, 1.72158628702163696289e-02) (13, -8.12218189239501953125e-02) (14, 5.10725453495979309082e-02) (0, 3.19451317191123962402e-02) (1, -2.50246897339820861816e-02) (2, 2.60098055005073547363e-02) (3, 3.26869264245033264160e-02) (4, -1.68106108903884887695e-02) (5, 3.57868596911430358887e-02) (6, 3.57634946703910827637e-02) (7, -9.72978994250297546387e-02) (8, 8.50932300090789794922e-03) (9, -8.30472409725189208984e-02) (10, -7.45276436209678649902e-02) (11, 2.76129320263862609863e-02) (12, 4.23999056220054626465e-02) (13, 9.43304523825645446777e-02) (14, 6.08811452984809875488e-02) (0, -2.06002220511436462402e-02) (1, 1.42621994018554687500e-03) (2, 9.01287794113159179688e-03) (3, 5.61966821551322937012e-02) (4, -6.72404915094375610352e-02) (5, -7.77225792407989501953e-02) (6, -1.81524828076362609863e-02) (7, 4.26834300160408020020e-02) (8, -8.91208350658416748047e-02) (9, -7.03476369380950927734e-02) (10, -6.99425563216209411621e-02) (11, -6.81767612695693969727e-03) (12, -5.72304911911487579346e-02) (13, 4.72733005881309509277e-02) (14, 1.19605064392089843750e-02) (0, 9.38420519232749938965e-02) (1, -2.07815617322921752930e-02) (2, 8.69358107447624206543e-02) (3, 1.98518633842468261719e-02) (4, -8.80946442484855651855e-02) (5, -2.98748090863227844238e-02) (6, -4.43612821400165557861e-02) (7, 4.76688370108604431152e-02) (8, -2.71726995706558227539e-02) (9, 6.41480460762977600098e-02) (10, 6.46216049790382385254e-02) (11, -1.70034170150756835938e-03) (12, -8.23901593685150146484e-03) (13, 7.02150911092758178711e-03) (14, -7.36989080905914306641e-03) (0, -4.73578684031963348389e-02) (1, 8.64212885499000549316e-02) (2, 9.40563306212425231934e-02) (3, 6.16550073027610778809e-02) (4, 4.26179692149162292480e-02) (5, -7.31841623783111572266e-02) (6, 8.39324221014976501465e-02) (7, -7.55345150828361511230e-02) (8, 6.94992765784263610840e-02) (9, 9.48115959763526916504e-02) (10, -4.58821542561054229736e-02) (11, 9.95567217469215393066e-02) (12, -1.20060890913009643555e-02) (13, -3.11264395713806152344e-03) (14, 4.68300357460975646973e-02) (0, 9.99544188380241394043e-02) (1, -9.27059352397918701172e-03) (2, -7.39515274763107299805e-02) (3, 8.68902280926704406738e-02) (4, -8.94187241792678833008e-02) (5, -6.20461739599704742432e-02) (6, -4.29845824837684631348e-02) (7, -3.37800085544586181641e-02) (8, 8.56226757168769836426e-02) (9, 2.98427268862724304199e-02) (10, -6.96319565176963806152e-02) (11, 5.02442792057991027832e-02) (12, -7.18576312065124511719e-02) (13, 2.21290364861488342285e-02) (14, -4.27342168986797332764e-02) (0, 2.07724794745445251465e-02) (1, 7.47711732983589172363e-02) (2, -5.63129372894763946533e-02) (3, 1.48288235068321228027e-02) (4, 3.64261642098426818848e-02) (5, 8.63050296902656555176e-02) (6, 4.16446551680564880371e-02) (7, 2.03585848212242126465e-02) (8, -8.92294868826866149902e-02) (9, 1.11439451575279235840e-02) (10, 1.51701793074607849121e-02) (11, -3.51116433739662170410e-02) (12, 1.07006654143333435059e-02) (13, -9.68359112739562988281e-02) (14, 6.17757067084312438965e-02) (0, -4.24693003296852111816e-02) (1, -9.68815013766288757324e-02) (2, -4.74948771297931671143e-02) (3, -1.64208337664604187012e-02) (4, 9.00087282061576843262e-02) (5, -3.69136035442352294922e-02) (6, 2.15329974889755249023e-02) (7, -5.29758557677268981934e-02) (8, 2.93063893914222717285e-02) (9, 7.15567171573638916016e-03) (10, 7.68668726086616516113e-02) (11, 5.96744343638420104980e-02) (12, -4.26000654697418212891e-02) (13, -9.49907675385475158691e-02) (14, -1.81965380907058715820e-02) (0, 1.46657228469848632812e-02) (1, 2.57817134261131286621e-02) (2, -4.34253774583339691162e-02) (3, 5.83527758717536926270e-02) (4, -5.93894608318805694580e-02) (5, 9.30007919669151306152e-02) (6, 4.46578189730644226074e-02) (7, 8.22551921010017395020e-02) (8, 1.33593827486038208008e-02) (9, 5.54283335804939270020e-02) (10, -6.60085678100585937500e-03) (11, -7.14704468846321105957e-02) (12, -7.96833187341690063477e-02) (13, -9.59001854062080383301e-02) (14, -6.83063566684722900391e-02) (0, 8.20923969149589538574e-02) (1, -3.83694879710674285889e-02) (2, -6.51878565549850463867e-02) (3, -6.54024779796600341797e-02) (4, 4.52096834778785705566e-02) (5, -7.51791298389434814453e-02) (6, -2.31608003377914428711e-03) (7, -3.32573205232620239258e-02) (8, -2.81549841165542602539e-02) (9, -7.30096921324729919434e-02) (10, 7.38983377814292907715e-02) (11, -5.12881241738796234131e-02) (12, 8.66647437214851379395e-02) (13, -6.87017217278480529785e-02) (14, -4.62788902223110198975e-02) (0, -3.15317958593368530273e-02) (1, 4.59640100598335266113e-02) (2, 7.95028284192085266113e-02) (3, 2.50428393483161926270e-02) (4, 4.31678444147109985352e-03) (5, -7.98866301774978637695e-02) (6, 1.80436223745346069336e-02) (7, -5.10254167020320892334e-02) (8, -9.76314246654510498047e-02) (9, -6.85970038175582885742e-02) (10, -9.55970883369445800781e-02) (11, -4.23227995634078979492e-03) (12, -4.00674454867839813232e-02) (13, -7.52804055809974670410e-02) (14, -1.32463872432708740234e-04) (15, -8.37381184101104736328e-03) (16, -9.31880176067352294922e-02) (17, 6.14980533719062805176e-02) (18, 2.64383479952812194824e-02) (19, -5.85904940962791442871e-02) (20, 6.70772790908813476562e-03) (21, 5.12592121958732604980e-02) (22, 3.90934273600578308105e-02) (23, 7.34504088759422302246e-02) (24, -7.68957734107971191406e-02) (25, 6.60837367177009582520e-02) (26, 4.73487451672554016113e-02) (27, -2.81838923692703247070e-02) (15, 5.27484789490699768066e-02) (16, 7.86470249295234680176e-02) (17, 2.55372151732444763184e-02) (18, -7.87833184003829956055e-02) (19, 2.46110185980796813965e-02) (20, 5.04004955291748046875e-03) (21, 4.62595298886299133301e-02) (22, -7.10721984505653381348e-02) (23, 2.51534208655357360840e-02) (24, -3.56968641281127929688e-02) (25, -2.20976099371910095215e-02) (26, 2.75220051407814025879e-02) (27, -4.29386645555496215820e-03) (15, -1.76946967840194702148e-02) (16, -7.67102837562561035156e-02) (17, 5.56386783719062805176e-02) (18, 7.02489912509918212891e-03) (19, 2.31572538614273071289e-02) (20, -5.27351237833499908447e-02) (21, 1.38368830084800720215e-02) (22, -1.53446942567825317383e-02) (23, 7.37032219767570495605e-02) (24, 5.52463904023170471191e-02) (25, 9.13630351424217224121e-02) (26, 2.49624252319335937500e-02) (27, -5.66019117832183837891e-03) (15, 6.48134425282478332520e-02) (16, 4.80666533112525939941e-02) (17, -3.95764485001564025879e-02) (18, 1.21621936559677124023e-02) (19, -8.01172479987144470215e-02) (20, -8.68279710412025451660e-02) (21, -9.19078290462493896484e-03) (22, 4.54199686646461486816e-02) (23, -6.56112879514694213867e-02) (24, -8.45797583460807800293e-02) (25, -4.95399720966815948486e-02) (26, 8.06482359766960144043e-02) (27, -5.56519515812397003174e-02) (15, 7.56134465336799621582e-02) (16, -5.50486296415328979492e-02) (17, 2.22504362463951110840e-02) (18, 3.13545763492584228516e-03) (19, 4.06575128436088562012e-02) (20, -9.54442620277404785156e-02) (21, 2.64251753687858581543e-02) (22, -3.70381027460098266602e-03) (23, 1.15806311368942260742e-02) (24, -5.04175685346126556396e-02) (25, 4.35610637068748474121e-02) (26, -7.45824947953224182129e-02) (27, 3.42377349734306335449e-02) (15, 1.72642841935157775879e-02) (16, 8.06638970971107482910e-02) (17, 2.56007686257362365723e-02) (18, -5.77732920646667480469e-02) (19, -2.49962955713272094727e-02) (20, -9.58578288555145263672e-03) (21, 9.02933552861213684082e-02) (22, 3.54272648692131042480e-02) (23, -9.74235907196998596191e-02) (24, -8.98238867521286010742e-02) (25, 4.85992953181266784668e-02) (26, -6.61437213420867919922e-03) (27, 5.55960908532142639160e-02) (15, 8.29880163073539733887e-02) (16, 8.80588591098785400391e-03) (17, -9.39438864588737487793e-02) (18, 6.36362507939338684082e-02) (19, 5.31539395451545715332e-02) (20, 8.16695764660835266113e-02) (21, -9.14123877882957458496e-02) (22, -2.45956331491470336914e-02) (23, -1.51949822902679443359e-02) (24, 4.92451265454292297363e-02) (25, -2.00399011373519897461e-02) (26, -8.87698158621788024902e-02) (27, -5.44586889445781707764e-02) (15, 9.15407314896583557129e-02) (16, -3.91873829066753387451e-02) (17, 8.91023799777030944824e-02) (18, -8.30417573451995849609e-02) (19, 9.50503572821617126465e-02) (20, 6.36665523052215576172e-03) (21, 9.76221337914466857910e-02) (22, 2.06511244177818298340e-02) (23, 4.85933795571327209473e-02) (24, -2.73741558194160461426e-02) (25, -8.89346599578857421875e-02) (26, 3.88867333531379699707e-02) (27, -9.19468998908996582031e-02) (15, -8.63582491874694824219e-02) (16, 4.90628555417060852051e-02) (17, 5.66523894667625427246e-02) (18, 7.02738761901855468750e-03) (19, 4.65892255306243896484e-03) (20, 3.96404042840003967285e-02) (21, -8.41667354106903076172e-02) (22, 1.07150450348854064941e-02) (23, 3.27664613723754882812e-03) (24, 6.89871981739997863770e-02) (25, -7.61539489030838012695e-03) (26, 1.18642672896385192871e-02) (27, -5.56084476411342620850e-02) (15, 7.71896317601203918457e-02) (16, -3.88906188309192657471e-02) (17, 2.43516564369201660156e-02) (18, 8.84198024868965148926e-02) (19, 6.65070116519927978516e-03) (20, 1.58923864364624023438e-02) (21, -5.07675707340240478516e-02) (22, -4.24692779779434204102e-03) (23, 3.28506305813789367676e-02) (24, -5.57172186672687530518e-02) (25, -9.78802666068077087402e-02) (26, 3.04727628827095031738e-02) (27, 6.49339035153388977051e-02) (15, 5.07131144404411315918e-02) (16, -9.69013944268226623535e-02) (17, 7.59992524981498718262e-02) (18, -1.04001611471176147461e-02) (19, -8.88482853770256042480e-02) (20, 8.96410122513771057129e-02) (21, -6.13373182713985443115e-02) (22, 6.78041055798530578613e-02) (23, -3.33160907030105590820e-03) (24, 4.33216169476509094238e-02) (25, 7.44451582431793212891e-03) (26, 1.25016570091247558594e-02) (27, -4.59633432328701019287e-02) (28, -8.92788395285606384277e-02) (29, -1.85111612081527709961e-02) (30, 4.64212670922279357910e-02) (31, 2.25854292511940002441e-02) (32, 2.58804038166999816895e-02) (33, 2.36108899116516113281e-02) (34, 8.36948081851005554199e-02) (35, -4.97679486870765686035e-02) (36, 1.20306983590126037598e-02) (37, -9.65449959039688110352e-03) (38, 6.61244466900825500488e-02) (39, 6.12631216645240783691e-02) (28, 8.60985741019248962402e-02) (29, -1.02492421865463256836e-03) (30, -9.44540947675704956055e-02) (31, 8.82183089852333068848e-02) (32, -7.05521628260612487793e-02) (33, 7.04798176884651184082e-02) (34, 3.89314219355583190918e-02) (35, -6.74535483121871948242e-02) (36, 4.64790686964988708496e-02) (37, -7.14687481522560119629e-02) (38, -5.63018396496772766113e-02) (39, 3.61200794577598571777e-02) (28, -3.28060686588287353516e-02) (29, -8.84977355599403381348e-02) (30, -6.72115385532379150391e-02) (31, -8.94844532012939453125e-02) (32, 1.89467817544937133789e-02) (33, 4.52901199460029602051e-02) (34, -3.54477912187576293945e-02) (35, 2.96679362654685974121e-02) (36, -7.32210353016853332520e-02) (37, -8.90265330672264099121e-02) (38, -4.77466359734535217285e-02) (39, 5.26593700051307678223e-02) (28, 3.45843508839607238770e-02) (29, -6.40518292784690856934e-02) (30, -9.71085801720619201660e-02) (31, -5.33849559724330902100e-02) (32, 2.62936726212501525879e-02) (33, 6.90158680081367492676e-02) (34, -9.21218320727348327637e-02) (35, 1.23922452330589294434e-02) (36, -3.20090577006340026855e-02) (37, -8.65759253501892089844e-02) (38, 6.10552728176116943359e-04) (39, -2.56122648715972900391e-03) (28, 8.39039012789726257324e-02) (29, -6.04580380022525787354e-02) (30, 2.99852266907691955566e-02) (31, 3.03829684853553771973e-02) (32, -3.19267883896827697754e-02) (33, 7.36833885312080383301e-02) (34, -3.34969609975814819336e-02) (35, 3.52671518921852111816e-02) (36, 8.51856544613838195801e-02) (37, -7.08490610122680664062e-04) (38, 4.57826927304267883301e-02) (39, 4.13243472576141357422e-03) (28, -5.54183684289455413818e-02) (29, -8.96650999784469604492e-02) (30, -6.61996230483055114746e-02) (31, -2.86393985152244567871e-02) (32, -7.86916315555572509766e-02) (33, -1.39462500810623168945e-02) (34, -7.59800374507904052734e-02) (35, 5.58927133679389953613e-02) (36, 2.20019072294235229492e-02) (37, -7.30886161327362060547e-02) (38, -9.74922403693199157715e-02) (39, -5.17044141888618469238e-02) (28, 9.59272459149360656738e-02) (29, -8.96140709519386291504e-02) (30, 6.06878325343132019043e-02) (31, -3.60818132758140563965e-02) (32, -7.61899948120117187500e-02) (33, -3.87016236782073974609e-02) (34, 6.13569691777229309082e-02) (35, -9.22860950231552124023e-02) (36, 8.40343534946441650391e-04) (37, -8.65781307220458984375e-03) (38, 3.80968675017356872559e-02) (39, 6.89135566353797912598e-02) (28, -3.49744260311126708984e-02) (29, -9.54000949859619140625e-02) (30, 4.18069213628768920898e-03) (31, -4.97887693345546722412e-02) (32, 3.89142334461212158203e-03) (33, -5.00366054475307464600e-02) (34, 5.43436631560325622559e-02) (35, 4.84730526804924011230e-02) (36, -3.97017076611518859863e-02) (37, 8.81440564990043640137e-02) (38, -8.01663547754287719727e-02) (39, -1.83933451771736145020e-02) (28, -2.58022099733352661133e-02) (29, -5.61463907361030578613e-02) (30, -6.25006258487701416016e-02) (31, 9.61996987462043762207e-02) (32, -2.92350053787231445312e-02) (33, -5.99928610026836395264e-02) (34, -5.55047057569026947021e-02) (35, -3.33077609539031982422e-02) (36, -4.96069304645061492920e-02) (37, -9.48168784379959106445e-02) (38, 3.06104347109794616699e-02) (39, -2.57969200611114501953e-02) (28, -3.35185006260871887207e-02) (29, -8.03261250257492065430e-03) (30, -1.80830210447311401367e-02) (31, 6.73218443989753723145e-02) (32, 8.33095833659172058105e-02) (33, -7.99861475825309753418e-02) (34, 3.62353995442390441895e-02) (35, -5.16648441553115844727e-02) (36, -7.53862410783767700195e-02) (37, -5.95839135348796844482e-02) (38, -1.45361572504043579102e-03) (39, 2.85051837563514709473e-02) 
