FANN_FLO_2.1
num_layers=4
learning_rate=0.700000
connection_rate=1.000000
network_type=0
learning_momentum=0.000000
training_algorithm=2
train_error_function=1
train_stop_function=0
cascade_output_change_fraction=0.010000
quickprop_decay=-0.000100
quickprop_mu=1.750000
rprop_increase_factor=1.200000
rprop_decrease_factor=0.500000
rprop_delta_min=0.000000
rprop_delta_max=50.000000
rprop_delta_zero=0.100000
cascade_output_stagnation_epochs=12
cascade_candidate_change_fraction=0.010000
cascade_candidate_stagnation_epochs=12
cascade_max_out_epochs=150
cascade_min_out_epochs=50
cascade_max_cand_epochs=150
cascade_min_cand_epochs=50
cascade_num_candidate_groups=2
bit_fail_limit=3.49999994039535522461e-01
cascade_candidate_limit=1.00000000000000000000e+03
cascade_weight_multiplier=4.00000005960464477539e-01
cascade_activation_functions_count=10
cascade_activation_functions=3 5 7 8 10 11 14 15 16 17 
cascade_activation_steepnesses_count=4
cascade_activation_steepnesses=2.50000000000000000000e-01 5.00000000000000000000e-01 7.50000000000000000000e-01 1.00000000000000000000e+00 
layer_sizes=11 11 11 11 
scale_included=0
neurons (num_inputs, activation_function, activation_steepness)=(0, 0, 0.00000000000000000000e+00) (0, 0, 0.00000000000000000000e+00) (0, 0, 0.00000000000000000000e+00) (0, 0, 0.00000000000000000000e+00) (0, 0, 0.00000000000000000000e+00) (0, 0, 0.00000000000000000000e+00) (0, 0, 0.00000000000000000000e+00) (0, 0, 0.00000000000000000000e+00) (0, 0, 0.00000000000000000000e+00) (0, 0, 0.00000000000000000000e+00) (0, 0, 0.00000000000000000000e+00) (11, 5, 5.00000000000000000000e-01) (11, 5, 5.00000000000000000000e-01) (11, 5, 5.00000000000000000000e-01) (11, 5, 5.00000000000000000000e-01) (11, 5, 5.00000000000000000000e-01) (11, 5, 5.00000000000000000000e-01) (11, 5, 5.00000000000000000000e-01) (11, 5, 5.00000000000000000000e-01) (11, 5, 5.00000000000000000000e-01) (11, 5, 5.00000000000000000000e-01) (0, 5, 0.00000000000000000000e+00) (11, 5, 5.00000000000000000000e-01) (11, 5, 5.00000000000000000000e-01) (11, 5, 5.00000000000000000000e-01) (11, 5, 5.00000000000000000000e-01) (11, 5, 5.00000000000000000000e-01) (11, 5, 5.00000000000000000000e-01) (11, 5, 5.00000000000000000000e-01) (11, 5, 5.00000000000000000000e-01) (11, 5, 5.00000000000000000000e-01) (11, 5, 5.00000000000000000000e-01) (0, 5, 0.00000000000000000000e+00) (11, 5, 5.00000000000000000000e-01) (11, 5, 5.00000000000000000000e-01) (11, 5, 5.00000000000000000000e-01) (11, 5, 5.00000000000000000000e-01) (11, 5, 5.00000000000000000000e-01) (11, 5, 5.00000000000000000000e-01) (11, 5, 5.00000000000000000000e-01) (11, 5, 5.00000000000000000000e-01) (11, 5, 5.00000000000000000000e-01) (11, 5, 5.00000000000000000000e-01) (0, 5, 0.00000000000000000000e+00) 
connections (connected_to_neuron, weight)=(0, 6.92687705159187316895e-02) (1, 6.24198690056800842285e-02) (2, -2.97723934054374694824e-02) (3, 1.07775479555130004883e-02) (4, 7.31971636414527893066e-02) (5, -9.70951914787292480469e-02) (6, 3.57208922505378723145e-02) (7, -5.37743531167507171631e-02) (8, -3.82187962532043457031e-03) (9, 5.22718355059623718262e-02) (10, 5.16416132450103759766e-03) (0, -8.57584178447723388672e-02) (1, -3.70680913329124450684e-02) (2, -4.26705479621887207031e-02) (3, 5.25039359927177429199e-02) (4, 7.62087106704711914062e-03) (5, -5.16495630145072937012e-02) (6, 6.93232789635658264160e-02) (7, 9.04447510838508605957e-02) (8, 5.57818040251731872559e-02) (9, -2.29410305619239807129e-02) (10, -2.18001157045364379883e-02) (0, -8.58152657747268676758e-03) (1, 6.81342557072639465332e-02) (2, -5.72737716138362884521e-02) (3, 6.25903904438018798828e-03) (4, 6.46647438406944274902e-02) (5, -1.75884291529655456543e-02) (6, -6.61527067422866821289e-02) (7, 5.13514950871467590332e-02) (8, 3.45499292016029357910e-02) (9, -9.68839451670646667480e-02) (10, 1.37713551521301269531e-02) (0, -9.52224731445312500000e-02) (1, 1.38935893774032592773e-02) (2, -1.30314901471138000488e-02) (3, -9.23176631331443786621e-02) (4, -5.03855049610137939453e-02) (5, 3.31941619515419006348e-02) (6, 3.86045873165130615234e-03) (7, -9.81136783957481384277e-02) (8, -6.16416819393634796143e-02) (9, 1.81020498275756835938e-02) (10, -3.51817682385444641113e-02) (0, -4.31223213672637939453e-03) (1, -2.93940231204032897949e-02) (2, 7.24391117691993713379e-02) (3, 4.40382137894630432129e-02) (4, -6.00707456469535827637e-02) (5, 6.28838613629341125488e-02) (6, -1.79983675479888916016e-04) (7, 1.69882327318191528320e-02) (8, -5.89162670075893402100e-02) (9, 9.12384912371635437012e-02) (10, -1.48775056004524230957e-02) (0, -1.61900371313095092773e-02) (1, -2.50247120857238769531e-03) (2, -5.02127632498741149902e-02) (3, 6.62215277552604675293e-02) (4, 3.13448235392570495605e-02) (5, -9.88612845540046691895e-02) (6, 7.71448016166687011719e-04) (7, 3.44608798623085021973e-02) (8, 1.49100646376609802246e-02) (9, 5.54897636175155639648e-03) (10, -5.16455285251140594482e-02) (0, -9.81214195489883422852e-02) (1, 1.32313221693038940430e-02) (2, -2.03103572130203247070e-03) (3, 3.50727513432502746582e-02) (4, -8.29082205891609191895e-02) (5, -1.44712626934051513672e-04) (6, 7.34310671687126159668e-02) (7, 3.51938232779502868652e-02) (8, 6.46735206246376037598e-02) (9, -3.08811664581298828125e-02) (10, -9.42002013325691223145e-02) (0, 3.71126160025596618652e-02) (1, -8.68429541587829589844e-02) (2, -5.42709454894065856934e-02) (3, -3.53157520294189453125e-06) (4, 1.29770636558532714844e-02) (5, 6.27172812819480895996e-02) (6, 4.10801991820335388184e-02) (7, 4.21556085348129272461e-03) (8, -5.21602220833301544189e-02) (9, -7.51098319888114929199e-02) (10, -9.82869192957878112793e-02) (0, -2.37298011779785156250e-03) (1, 9.11116972565650939941e-02) (2, 3.30579057335853576660e-02) (3, -1.23426318168640136719e-03) (4, -8.11685621738433837891e-03) (5, -3.24812158942222595215e-02) (6, -8.63241925835609436035e-02) (7, 9.74321290850639343262e-02) (8, 1.58732533454895019531e-02) (9, -8.44456106424331665039e-02) (10, 1.06634497642517089844e-02) (0, -8.61577838659286499023e-02) (1, 5.06271347403526306152e-02) (2, 2.77552232146263122559e-02) (3, 1.36975049972534179688e-02) (4, 2.40582004189491271973e-02) (5, -3.70509475469589233398e-02) (6, -2.16289833188056945801e-02) (7, 9.31770280003547668457e-02) (8, -3.12511473894119262695e-02) (9, -8.45163613557815551758e-02) (10, -9.36659201979637145996e-02) (11, 1.44779086112976074219e-02) (12, 1.54801160097122192383e-02) (13, 1.93111449480056762695e-02) (14, -2.28048115968704223633e-02) (15, -4.34396825730800628662e-02) (16, -7.64732956886291503906e-02) (17, 2.50349715352058410645e-02) (18, -1.85495167970657348633e-02) (19, -7.47602134943008422852e-02) (20, -7.73380100727081298828e-02) (21, -2.74378210306167602539e-02) (11, 5.82977011799812316895e-02) (12, 2.14277282357215881348e-02) (13, 6.44453242421150207520e-02) (14, -7.41835236549377441406e-02) (15, 3.51035371422767639160e-02) (16, 6.18774518370628356934e-02) (17, 4.16897311806678771973e-02) (18, 5.06579354405403137207e-02) (19, -2.74590998888015747070e-02) (20, 5.55319413542747497559e-02) (21, 1.28506124019622802734e-03) (11, -9.97038781642913818359e-02) (12, -3.07705551385879516602e-02) (13, -7.46567323803901672363e-02) (14, -3.67548316717147827148e-02) (15, 4.76004704833030700684e-02) (16, -8.14796984195709228516e-02) (17, 3.19940224289894104004e-02) (18, 6.30841180682182312012e-02) (19, -7.51456171274185180664e-02) (20, -5.35280741751194000244e-02) (21, -2.14357823133468627930e-02) (11, 4.41655293107032775879e-02) (12, 2.36671194434165954590e-02) (13, 3.51245477795600891113e-02) (14, 6.76922276616096496582e-02) (15, -5.12979067862033843994e-02) (16, -8.34249779582023620605e-02) (17, 9.29320231080055236816e-02) (18, -2.86359116435050964355e-02) (19, -1.08627974987030029297e-02) (20, 5.12297227978706359863e-02) (21, 9.27918180823326110840e-02) (11, -4.64174747467041015625e-02) (12, 7.70462080836296081543e-02) (13, 2.78953537344932556152e-02) (14, -8.45400243997573852539e-02) (15, 1.87359303236007690430e-02) (16, -2.14467197656631469727e-02) (17, -1.19991302490234375000e-02) (18, -2.57321223616600036621e-02) (19, 7.98383429646492004395e-02) (20, -1.17030069231986999512e-02) (21, 4.34973314404487609863e-02) (11, -9.48183834552764892578e-02) (12, 5.15421703457832336426e-02) (13, -8.90220701694488525391e-03) (14, -7.62980878353118896484e-02) (15, -1.64638236165046691895e-02) (16, -4.58181016147136688232e-02) (17, -5.14436997473239898682e-02) (18, 3.00080999732017517090e-02) (19, 3.27461287379264831543e-02) (20, 9.27218273282051086426e-02) (21, -4.63247708976268768311e-02) (11, -3.21293398737907409668e-02) (12, 6.04140833020210266113e-02) (13, 2.37731635570526123047e-03) (14, -1.55543163418769836426e-02) (15, 5.33461049199104309082e-02) (16, 7.37414136528968811035e-02) (17, 7.35828951001167297363e-02) (18, 4.57582622766494750977e-03) (19, 6.65332302451133728027e-02) (20, -7.28345811367034912109e-02) (21, -1.83779746294021606445e-02) (11, -5.57141751050949096680e-03) (12, -5.73746077716350555420e-02) (13, -9.96420532464981079102e-02) (14, 7.29818716645240783691e-02) (15, 3.06262597441673278809e-02) (16, -2.53741741180419921875e-02) (17, 5.28202131390571594238e-02) (18, -8.10767486691474914551e-02) (19, -8.18768516182899475098e-02) (20, 5.80018237233161926270e-02) (21, 7.04654082655906677246e-02) (11, 9.22094285488128662109e-03) (12, 8.17037448287010192871e-02) (13, -4.59984056651592254639e-02) (14, 6.34028390049934387207e-02) (15, -6.97399526834487915039e-02) (16, 8.40096995234489440918e-02) (17, -3.85104119777679443359e-03) (18, -7.70181193947792053223e-02) (19, -6.23150728642940521240e-02) (20, 6.40196278691291809082e-02) (21, 8.33959504961967468262e-02) (11, 4.00622561573982238770e-02) (12, -5.15346974134445190430e-02) (13, 3.67420390248298645020e-02) (14, 1.38036608695983886719e-02) (15, -7.79518112540245056152e-02) (16, -5.86821325123310089111e-02) (17, -1.96631103754043579102e-02) (18, -5.07863946259021759033e-02) (19, 2.29398831725120544434e-02) (20, 7.47654661536216735840e-02) (21, -8.16100090742111206055e-03) (22, 2.32978314161300659180e-02) (23, 4.77473363280296325684e-02) (24, -7.75347352027893066406e-02) (25, 9.79236587882041931152e-02) (26, 5.67540526390075683594e-04) (27, -5.86114823818206787109e-02) (28, -8.39531868696212768555e-02) (29, -4.14306223392486572266e-02) (30, -8.81460681557655334473e-02) (31, 2.52677574753761291504e-02) (32, -5.97268790006637573242e-02) (22, -3.41444760560989379883e-02) (23, -1.13294050097465515137e-02) (24, -2.94668301939964294434e-02) (25, -5.01347742974758148193e-02) (26, 8.48195627331733703613e-02) (27, -6.48495554924011230469e-03) (28, -1.24498456716537475586e-02) (29, 4.88391742110252380371e-02) (30, -2.30890065431594848633e-02) (31, -7.23875984549522399902e-02) (32, 9.73044708371162414551e-02) (22, -8.63469615578651428223e-02) (23, 4.14160564541816711426e-02) (24, -8.06473344564437866211e-02) (25, -4.50290851294994354248e-02) (26, -7.82470554113388061523e-02) (27, -3.14337238669395446777e-02) (28, 7.79108032584190368652e-02) (29, 9.65184196829795837402e-02) (30, 6.04052767157554626465e-02) (31, 1.20864063501358032227e-03) (32, 4.42657545208930969238e-02) (22, 8.28705355525016784668e-02) (23, -8.67694616317749023438e-04) (24, -5.51667027175426483154e-02) (25, -7.57409483194351196289e-02) (26, 1.51791200041770935059e-02) (27, 3.40267270803451538086e-03) (28, -6.38870149850845336914e-02) (29, -5.95531240105628967285e-02) (30, 4.36757877469062805176e-02) (31, 1.96850299835205078125e-03) (32, 2.91174724698066711426e-02) (22, -8.57910439372062683105e-02) (23, 5.18337413668632507324e-02) (24, 1.39370188117027282715e-02) (25, 7.72400945425033569336e-03) (26, -6.06161169707775115967e-02) (27, -3.72238010168075561523e-02) (28, 8.46350118517875671387e-02) (29, -3.30037102103233337402e-02) (30, -3.99193279445171356201e-02) (31, 9.82880517840385437012e-02) (32, -9.15876477956771850586e-02) (22, -2.05666571855545043945e-02) (23, -4.67410460114479064941e-02) (24, -6.98347017168998718262e-02) (25, 4.79996129870414733887e-02) (26, -6.88302367925643920898e-02) (27, -7.33162835240364074707e-02) (28, 8.40488821268081665039e-03) (29, 3.23783978819847106934e-02) (30, 7.09494724869728088379e-02) (31, -8.72457772493362426758e-03) (32, -6.84892907738685607910e-02) (22, -8.42172354459762573242e-02) (23, 1.55344754457473754883e-02) (24, 4.66898307204246520996e-02) (25, 1.91854387521743774414e-02) (26, 5.16474619507789611816e-02) (27, 8.71367081999778747559e-02) (28, -3.71387749910354614258e-02) (29, -4.63840365409851074219e-02) (30, 1.62541866302490234375e-02) (31, -2.29298099875450134277e-02) (32, -9.45503041148185729980e-02) (22, -6.98087885975837707520e-02) (23, 8.47942009568214416504e-02) (24, -5.51664195954799652100e-02) (25, -7.03258812427520751953e-03) (26, 6.94291964173316955566e-02) (27, 1.18298679590225219727e-02) (28, 5.30480816960334777832e-02) (29, 6.77172467112541198730e-02) (30, 2.02422291040420532227e-02) (31, -6.75185769796371459961e-02) (32, -7.90238007903099060059e-02) (22, 5.04075214266777038574e-02) (23, 8.04810449481010437012e-02) (24, -4.78540435433387756348e-02) (25, 7.70912393927574157715e-02) (26, -1.11140757799148559570e-02) (27, 8.45243558287620544434e-02) (28, 4.80407103896141052246e-02) (29, 8.01613405346870422363e-02) (30, -8.39649289846420288086e-02) (31, 6.38234689831733703613e-02) (32, -4.30418550968170166016e-03) (22, 6.27248957753181457520e-02) (23, -1.69910937547683715820e-02) (24, -5.26567287743091583252e-02) (25, 4.98616173863410949707e-02) (26, 4.58701327443122863770e-02) (27, 9.59239900112152099609e-04) (28, -3.38841974735260009766e-02) (29, -7.70596712827682495117e-02) (30, 6.40892982482910156250e-03) (31, -3.69298458099365234375e-03) (32, -9.22654792666435241699e-02) 
