FANN_FLO_2.1
num_layers=4
learning_rate=0.700000
connection_rate=1.000000
network_type=0
learning_momentum=0.000000
training_algorithm=2
train_error_function=1
train_stop_function=0
cascade_output_change_fraction=0.010000
quickprop_decay=-0.000100
quickprop_mu=1.750000
rprop_increase_factor=1.200000
rprop_decrease_factor=0.500000
rprop_delta_min=0.000000
rprop_delta_max=50.000000
rprop_delta_zero=0.100000
cascade_output_stagnation_epochs=12
cascade_candidate_change_fraction=0.010000
cascade_candidate_stagnation_epochs=12
cascade_max_out_epochs=150
cascade_min_out_epochs=50
cascade_max_cand_epochs=150
cascade_min_cand_epochs=50
cascade_num_candidate_groups=2
bit_fail_limit=3.49999994039535522461e-01
cascade_candidate_limit=1.00000000000000000000e+03
cascade_weight_multiplier=4.00000005960464477539e-01
cascade_activation_functions_count=10
cascade_activation_functions=3 5 7 8 10 11 14 15 16 17 
cascade_activation_steepnesses_count=4
cascade_activation_steepnesses=2.50000000000000000000e-01 5.00000000000000000000e-01 7.50000000000000000000e-01 1.00000000000000000000e+00 
layer_sizes=15 13 12 11 
scale_included=0
neurons (num_inputs, activation_function, activation_steepness)=(0, 0, 0.00000000000000000000e+00) (0, 0, 0.00000000000000000000e+00) (0, 0, 0.00000000000000000000e+00) (0, 0, 0.00000000000000000000e+00) (0, 0, 0.00000000000000000000e+00) (0, 0, 0.00000000000000000000e+00) (0, 0, 0.00000000000000000000e+00) (0, 0, 0.00000000000000000000e+00) (0, 0, 0.00000000000000000000e+00) (0, 0, 0.00000000000000000000e+00) (0, 0, 0.00000000000000000000e+00) (0, 0, 0.00000000000000000000e+00) (0, 0, 0.00000000000000000000e+00) (0, 0, 0.00000000000000000000e+00) (0, 0, 0.00000000000000000000e+00) (15, 5, 5.00000000000000000000e-01) (15, 5, 5.00000000000000000000e-01) (15, 5, 5.00000000000000000000e-01) (15, 5, 5.00000000000000000000e-01) (15, 5, 5.00000000000000000000e-01) (15, 5, 5.00000000000000000000e-01) (15, 5, 5.00000000000000000000e-01) (15, 5, 5.00000000000000000000e-01) (15, 5, 5.00000000000000000000e-01) (15, 5, 5.00000000000000000000e-01) (15, 5, 5.00000000000000000000e-01) (15, 5, 5.00000000000000000000e-01) (0, 5, 0.00000000000000000000e+00) (13, 5, 5.00000000000000000000e-01) (13, 5, 5.00000000000000000000e-01) (13, 5, 5.00000000000000000000e-01) (13, 5, 5.00000000000000000000e-01) (13, 5, 5.00000000000000000000e-01) (13, 5, 5.00000000000000000000e-01) (13, 5, 5.00000000000000000000e-01) (13, 5, 5.00000000000000000000e-01) (13, 5, 5.00000000000000000000e-01) (13, 5, 5.00000000000000000000e-01) (13, 5, 5.00000000000000000000e-01) (0, 5, 0.00000000000000000000e+00) (12, 5, 5.00000000000000000000e-01) (12, 5, 5.00000000000000000000e-01) (12, 5, 5.00000000000000000000e-01) (12, 5, 5.00000000000000000000e-01) (12, 5, 5.00000000000000000000e-01) (12, 5, 5.00000000000000000000e-01) (12, 5, 5.00000000000000000000e-01) (12, 5, 5.00000000000000000000e-01) (12, 5, 5.00000000000000000000e-01) (12, 5, 5.00000000000000000000e-01) (0, 5, 0.00000000000000000000e+00) 
connections (connected_to_neuron, weight)=(0, -5.39570562541484832764e-02) (1, 3.14517095685005187988e-02) (2, -7.63106197118759155273e-02) (3, 4.53426316380500793457e-02) (4, 2.57102772593498229980e-02) (5, -2.19461470842361450195e-02) (6, 8.27436223626136779785e-02) (7, -1.38682499527931213379e-02) (8, 7.63323828577995300293e-02) (9, 9.21456888318061828613e-02) (10, 3.56847718358039855957e-02) (11, -4.83782589435577392578e-02) (12, -1.97822973132133483887e-02) (13, -4.19091358780860900879e-02) (14, 9.63065847754478454590e-02) (0, -6.72349035739898681641e-02) (1, -2.81118154525756835938e-02) (2, 6.69790580868721008301e-02) (3, -5.54522052407264709473e-02) (4, 4.39004972577095031738e-02) (5, 2.11456418037414550781e-02) (6, -9.99010950326919555664e-02) (7, -1.03752166032791137695e-02) (8, -6.46468102931976318359e-02) (9, -4.49699275195598602295e-02) (10, -6.10898360610008239746e-02) (11, 4.36919704079627990723e-02) (12, -2.40660309791564941406e-02) (13, -6.25415444374084472656e-02) (14, 3.60468849539756774902e-02) (0, 9.13704112172126770020e-02) (1, -1.64986029267311096191e-02) (2, -3.25014069676399230957e-02) (3, -8.49402099847793579102e-02) (4, -7.11559802293777465820e-02) (5, 9.32088717818260192871e-02) (6, -6.88635557889938354492e-03) (7, -8.84123593568801879883e-02) (8, -2.06593796610832214355e-02) (9, -3.05539816617965698242e-02) (10, -9.62666645646095275879e-02) (11, -8.49746093153953552246e-02) (12, 2.10677534341812133789e-02) (13, -1.60489603877067565918e-02) (14, -2.68837362527847290039e-02) (0, 1.73743516206741333008e-02) (1, 1.67161375284194946289e-02) (2, 4.50044497847557067871e-02) (3, -1.56466066837310791016e-02) (4, 6.12639263272285461426e-02) (5, -1.10950618982315063477e-02) (6, -9.45009663701057434082e-02) (7, 6.13628402352333068848e-02) (8, 7.85297229886054992676e-02) (9, -5.91477751731872558594e-02) (10, -8.36070924997329711914e-02) (11, -8.25601145625114440918e-02) (12, 8.45441892743110656738e-02) (13, -7.67312943935394287109e-03) (14, -4.51016537845134735107e-02) (0, 2.05910801887512207031e-02) (1, -1.63027122616767883301e-02) (2, 3.83997485041618347168e-02) (3, 8.80896672606468200684e-02) (4, -1.24292075634002685547e-03) (5, 6.72437623143196105957e-02) (6, 8.12985375523567199707e-02) (7, 9.18707326054573059082e-02) (8, 7.88313969969749450684e-02) (9, -3.93608398735523223877e-02) (10, -3.86832617223262786865e-02) (11, 8.25647339224815368652e-02) (12, -2.43354439735412597656e-02) (13, 8.23844894766807556152e-02) (14, -3.34842279553413391113e-02) (0, 4.87808063626289367676e-02) (1, -2.41160392761230468750e-04) (2, 8.32319036126136779785e-02) (3, -6.21473789215087890625e-03) (4, 8.41122344136238098145e-02) (5, 4.44958284497261047363e-02) (6, 8.26901867985725402832e-02) (7, 8.96112695336341857910e-02) (8, 5.85867464542388916016e-03) (9, 6.12199231982231140137e-02) (10, -6.95364996790885925293e-02) (11, 2.22515836358070373535e-02) (12, 7.86597952246665954590e-02) (13, -8.49923044443130493164e-02) (14, -8.54215472936630249023e-02) (0, -6.64418563246726989746e-02) (1, 3.55987772345542907715e-02) (2, -1.72425806522369384766e-03) (3, 7.19578936696052551270e-02) (4, 2.36884504556655883789e-02) (5, 9.70328375697135925293e-02) (6, 3.92016544938087463379e-02) (7, 4.98698651790618896484e-03) (8, 8.89035537838935852051e-02) (9, 1.80330500006675720215e-02) (10, 6.56261518597602844238e-02) (11, -4.97797094285488128662e-02) (12, 5.97789883613586425781e-04) (13, -5.87092898786067962646e-02) (14, -6.73952102661132812500e-02) (0, 6.71135708689689636230e-02) (1, 9.00715216994285583496e-02) (2, 3.23636308312416076660e-02) (3, 5.03454729914665222168e-02) (4, -1.61432176828384399414e-02) (5, 1.64758563041687011719e-02) (6, -5.15869259834289550781e-03) (7, -3.34530249238014221191e-02) (8, 6.08713924884796142578e-03) (9, -9.93000194430351257324e-02) (10, -7.22331032156944274902e-02) (11, 3.65506336092948913574e-02) (12, 2.29515656828880310059e-02) (13, -9.35733020305633544922e-02) (14, 5.15583232045173645020e-02) (0, 3.75300124287605285645e-02) (1, -6.00151568651199340820e-02) (2, -1.28429010510444641113e-02) (3, -6.41942322254180908203e-02) (4, -8.80572721362113952637e-02) (5, -8.91544520854949951172e-02) (6, -6.71614035964012145996e-02) (7, 5.11443838477134704590e-02) (8, 1.58325433731079101562e-02) (9, -7.82578513026237487793e-02) (10, -3.08225601911544799805e-02) (11, -1.85412988066673278809e-02) (12, -2.80375555157661437988e-02) (13, 6.97752311825752258301e-02) (14, 2.27494016289710998535e-02) (0, 4.56722825765609741211e-03) (1, 3.68887856602668762207e-02) (2, 1.28209218382835388184e-02) (3, -6.30691349506378173828e-02) (4, -1.27657502889633178711e-02) (5, 9.66777130961418151855e-02) (6, 5.34067228436470031738e-02) (7, 8.20755586028099060059e-02) (8, -3.67753058671951293945e-02) (9, -4.05061431229114532471e-02) (10, 8.27755406498908996582e-02) (11, -9.00841504335403442383e-03) (12, 9.60444882512092590332e-02) (13, 5.72711229324340820312e-03) (14, -2.58171558380126953125e-03) (0, 4.76028248667716979980e-02) (1, -5.67428730428218841553e-02) (2, 3.74031290411949157715e-02) (3, -6.52400851249694824219e-02) (4, -2.09371000528335571289e-02) (5, 4.93458583950996398926e-02) (6, -5.43945282697677612305e-02) (7, 1.19014978408813476562e-02) (8, 4.90233302116394042969e-04) (9, 6.14380165934562683105e-02) (10, 3.36436554789543151855e-02) (11, 6.96676746010780334473e-02) (12, -5.71032874286174774170e-02) (13, -9.43939089775085449219e-02) (14, 3.94429042935371398926e-02) (0, 6.56461194157600402832e-02) (1, 1.01733356714248657227e-02) (2, -2.36683189868927001953e-02) (3, -2.15329527854919433594e-02) (4, 4.71041873097419738770e-02) (5, 6.35659322142601013184e-02) (6, -2.48552411794662475586e-02) (7, 5.10916113853454589844e-04) (8, 4.56415042281150817871e-02) (9, 3.83694395422935485840e-02) (10, 6.00047782063484191895e-02) (11, 2.84170582890510559082e-02) (12, -7.06389695405960083008e-02) (13, 5.60492649674415588379e-02) (14, -6.58558458089828491211e-02) (15, 2.67793163657188415527e-02) (16, 3.65208089351654052734e-03) (17, -2.25987136363983154297e-02) (18, -3.58175560832023620605e-02) (19, 3.84120121598243713379e-02) (20, 5.64641878008842468262e-02) (21, -8.64716991782188415527e-02) (22, 8.40174779295921325684e-02) (23, -3.16343158483505249023e-02) (24, 1.40185356140136718750e-02) (25, 4.54554930329322814941e-02) (26, -9.79906693100929260254e-02) (27, -1.63137838244438171387e-02) (15, 8.83522108197212219238e-02) (16, -9.23845767974853515625e-02) (17, -7.68708884716033935547e-02) (18, 5.39983287453651428223e-02) (19, 1.77887529134750366211e-02) (20, -5.39205968379974365234e-04) (21, -6.75346329808235168457e-02) (22, -3.51070538163185119629e-02) (23, -3.69732677936553955078e-02) (24, 7.61012732982635498047e-03) (25, 6.54038712382316589355e-02) (26, -9.13317650556564331055e-02) (27, -5.40204308927059173584e-02) (15, 2.54086330533027648926e-02) (16, 3.70852872729301452637e-02) (17, -2.46593952178955078125e-02) (18, -1.85420960187911987305e-02) (19, 7.12294355034828186035e-02) (20, -9.78800877928733825684e-02) (21, 8.51100012660026550293e-02) (22, -5.13692721724510192871e-02) (23, -3.36976423859596252441e-02) (24, 2.35219970345497131348e-02) (25, -9.49050858616828918457e-02) (26, -2.01693400740623474121e-02) (27, 7.53947347402572631836e-03) (15, -2.65394002199172973633e-02) (16, 9.38491895794868469238e-02) (17, -4.70050275325775146484e-02) (18, -2.45300680398941040039e-02) (19, -2.24645882844924926758e-02) (20, -5.86528219282627105713e-02) (21, -1.69146507978439331055e-02) (22, 6.64517283439636230469e-04) (23, 9.53455045819282531738e-02) (24, -9.91258993744850158691e-02) (25, -9.98746827244758605957e-02) (26, -7.21891298890113830566e-02) (27, -3.42329517006874084473e-02) (15, -3.68479490280151367188e-02) (16, 3.54210063815116882324e-02) (17, -6.88290894031524658203e-02) (18, -2.81797200441360473633e-02) (19, 8.14005807042121887207e-02) (20, 5.65795525908470153809e-02) (21, -9.10944342613220214844e-02) (22, -4.32588271796703338623e-02) (23, -6.19625337421894073486e-02) (24, 8.01350101828575134277e-02) (25, -4.11389134824275970459e-02) (26, -7.68525376915931701660e-02) (27, -7.12342634797096252441e-02) (15, 2.51634493470191955566e-02) (16, 4.66694608330726623535e-02) (17, -6.61393553018569946289e-02) (18, -9.50058922171592712402e-02) (19, -4.57910597324371337891e-02) (20, 7.32125341892242431641e-03) (21, 9.88432988524436950684e-02) (22, 7.20391422510147094727e-03) (23, 8.27911719679832458496e-02) (24, -2.36212834715843200684e-02) (25, 4.85510900616645812988e-02) (26, -3.41234728693962097168e-02) (27, 7.70432427525520324707e-02) (15, 4.38966080546379089355e-02) (16, -3.32493707537651062012e-02) (17, 7.71685466170310974121e-02) (18, 7.17074796557426452637e-02) (19, 3.25176790356636047363e-02) (20, -5.96794001758098602295e-02) (21, 7.12846219539642333984e-03) (22, 6.36885985732078552246e-02) (23, 1.21408849954605102539e-02) (24, -1.14709585905075073242e-02) (25, 2.02681571245193481445e-02) (26, 2.10464447736740112305e-02) (27, 4.52702119946479797363e-02) (15, 5.83056285977363586426e-02) (16, 1.18146091699600219727e-03) (17, -9.58686918020248413086e-02) (18, 8.14530923962593078613e-02) (19, 2.99471989274024963379e-02) (20, 2.92947515845298767090e-02) (21, 2.81225517392158508301e-02) (22, 6.38078525662422180176e-02) (23, 3.42888608574867248535e-02) (24, 8.23314860463142395020e-02) (25, -2.88709104061126708984e-02) (26, 3.31321731209754943848e-02) (27, -1.04645937681198120117e-02) (15, -4.60797362029552459717e-02) (16, -9.04891192913055419922e-02) (17, -6.19135014712810516357e-02) (18, 1.97967886924743652344e-02) (19, 8.65541175007820129395e-02) (20, 8.19830968976020812988e-02) (21, 8.65474268794059753418e-02) (22, 6.37226775288581848145e-02) (23, 5.36905601620674133301e-02) (24, 1.90651044249534606934e-02) (25, -9.59567278623580932617e-02) (26, -3.91809642314910888672e-02) (27, -1.72462984919548034668e-02) (15, 1.61841660737991333008e-02) (16, 4.93480786681175231934e-02) (17, -9.69781503081321716309e-02) (18, -6.27693831920623779297e-02) (19, -5.38170337677001953125e-03) (20, 6.13274648785591125488e-02) (21, 3.84120717644691467285e-02) (22, -1.25040113925933837891e-03) (23, 4.27805408835411071777e-02) (24, -3.16407382488250732422e-02) (25, -7.19556361436843872070e-02) (26, -2.90969088673591613770e-02) (27, -6.78328946232795715332e-02) (15, 6.23332336544990539551e-02) (16, -4.67654243111610412598e-02) (17, 3.29619646072387695312e-03) (18, -4.53460961580276489258e-03) (19, 4.27699759602546691895e-02) (20, 5.72164729237556457520e-02) (21, 4.97627258300781250000e-03) (22, 8.08564797043800354004e-02) (23, -2.29867473244667053223e-02) (24, -8.46960395574569702148e-03) (25, 6.28395751118659973145e-02) (26, -3.64393219351768493652e-02) (27, -4.47469353675842285156e-02) (28, 1.65301337838172912598e-02) (29, 8.26257690787315368652e-02) (30, -4.07036617398262023926e-02) (31, 7.73491784930229187012e-02) (32, -3.46205309033393859863e-02) (33, 7.54804983735084533691e-02) (34, 2.66972556710243225098e-02) (35, -3.15986722707748413086e-02) (36, -8.72888937592506408691e-02) (37, -7.86844566464424133301e-02) (38, -7.02712088823318481445e-02) (39, 5.11231794953346252441e-02) (28, 2.00651511549949645996e-02) (29, 7.25093409419059753418e-02) (30, -8.05175527930259704590e-02) (31, 4.81095090508460998535e-02) (32, -5.65875731408596038818e-02) (33, -4.83504496514797210693e-02) (34, 1.04427337646484375000e-02) (35, -3.35299223661422729492e-03) (36, 5.49457594752311706543e-02) (37, -9.40918773412704467773e-02) (38, -6.05830140411853790283e-02) (39, 1.21622085571289062500e-02) (28, 1.08844041824340820312e-02) (29, -7.97265395522117614746e-02) (30, 8.91754701733589172363e-02) (31, -9.75852087140083312988e-02) (32, 8.31130370497703552246e-02) (33, -4.72638607025146484375e-02) (34, -4.23321425914764404297e-02) (35, -3.56830656528472900391e-04) (36, -6.46380931138992309570e-02) (37, 1.69641971588134765625e-02) (38, -2.30076536536216735840e-02) (39, 7.41384923458099365234e-04) (28, -7.55530595779418945312e-03) (29, -9.63104069232940673828e-02) (30, 6.91427066922187805176e-02) (31, 5.15580177307128906250e-03) (32, -7.49948620796203613281e-02) (33, 9.88715067505836486816e-02) (34, -4.37210090458393096924e-02) (35, 4.50702980160713195801e-02) (36, 7.13808462023735046387e-02) (37, -2.42385640740394592285e-02) (38, -6.82020187377929687500e-03) (39, -8.52067321538925170898e-02) (28, 2.74109914898872375488e-02) (29, -9.63774695992469787598e-02) (30, 1.14402770996093750000e-02) (31, -1.76432579755783081055e-02) (32, -9.04693454504013061523e-02) (33, 5.08572682738304138184e-02) (34, 9.45189520716667175293e-02) (35, 2.04150527715682983398e-02) (36, 7.11307302117347717285e-02) (37, 8.36944207549095153809e-02) (38, 2.28298529982566833496e-02) (39, 5.42437508702278137207e-02) (28, -6.35694414377212524414e-02) (29, 8.04977044463157653809e-02) (30, -4.61130701005458831787e-02) (31, -2.82075330615043640137e-02) (32, -2.53809988498687744141e-03) (33, 3.08792665600776672363e-02) (34, 7.25338533520698547363e-02) (35, 8.99065956473350524902e-02) (36, 3.45688685774803161621e-02) (37, 4.16765734553337097168e-02) (38, -4.93759661912918090820e-03) (39, 5.95740154385566711426e-02) (28, 4.05480638146400451660e-02) (29, 5.13414070010185241699e-02) (30, 4.64429706335067749023e-03) (31, 1.19289010763168334961e-02) (32, -7.28971660137176513672e-02) (33, 9.78241041302680969238e-02) (34, 2.67221853137016296387e-02) (35, 5.45138195157051086426e-02) (36, -9.85533744096755981445e-02) (37, -6.18375465273857116699e-02) (38, -6.31294399499893188477e-02) (39, -8.90227183699607849121e-02) (28, 8.90197232365608215332e-02) (29, -6.86104893684387207031e-02) (30, 3.13923433423042297363e-02) (31, 6.01504519581794738770e-02) (32, -8.49160701036453247070e-02) (33, -4.57778163254261016846e-02) (34, 1.43942087888717651367e-02) (35, -4.84855137765407562256e-02) (36, -6.52801096439361572266e-02) (37, 6.82811364531517028809e-02) (38, 2.33069509267807006836e-02) (39, 3.21818068623542785645e-02) (28, -8.39583575725555419922e-04) (29, -4.15918976068496704102e-03) (30, 2.20883935689926147461e-02) (31, -6.62707239389419555664e-02) (32, -6.24826252460479736328e-02) (33, -8.28491970896720886230e-02) (34, 9.33032855391502380371e-02) (35, 7.80654475092887878418e-02) (36, 6.84921965003013610840e-02) (37, -2.05241143703460693359e-03) (38, -1.00056529045104980469e-02) (39, 9.55950394272804260254e-02) (28, -4.22831624746322631836e-03) (29, -8.32834765315055847168e-02) (30, 5.01088574528694152832e-02) (31, -2.78168916702270507812e-03) (32, -4.51210215687751770020e-02) (33, 8.69794264435768127441e-02) (34, 8.19559395313262939453e-03) (35, -5.61013035476207733154e-02) (36, -8.16310644149780273438e-02) (37, -6.04120753705501556396e-02) (38, -9.59508568048477172852e-02) (39, -6.65471404790878295898e-02) 
