FANN_FLO_2.1
num_layers=4
learning_rate=0.700000
connection_rate=1.000000
network_type=0
learning_momentum=0.000000
training_algorithm=2
train_error_function=1
train_stop_function=0
cascade_output_change_fraction=0.010000
quickprop_decay=-0.000100
quickprop_mu=1.750000
rprop_increase_factor=1.200000
rprop_decrease_factor=0.500000
rprop_delta_min=0.000000
rprop_delta_max=50.000000
rprop_delta_zero=0.100000
cascade_output_stagnation_epochs=12
cascade_candidate_change_fraction=0.010000
cascade_candidate_stagnation_epochs=12
cascade_max_out_epochs=150
cascade_min_out_epochs=50
cascade_max_cand_epochs=150
cascade_min_cand_epochs=50
cascade_num_candidate_groups=2
bit_fail_limit=3.49999994039535522461e-01
cascade_candidate_limit=1.00000000000000000000e+03
cascade_weight_multiplier=4.00000005960464477539e-01
cascade_activation_functions_count=10
cascade_activation_functions=3 5 7 8 10 11 14 15 16 17 
cascade_activation_steepnesses_count=4
cascade_activation_steepnesses=2.50000000000000000000e-01 5.00000000000000000000e-01 7.50000000000000000000e-01 1.00000000000000000000e+00 
layer_sizes=11 11 11 11 
scale_included=0
neurons (num_inputs, activation_function, activation_steepness)=(0, 0, 0.00000000000000000000e+00) (0, 0, 0.00000000000000000000e+00) (0, 0, 0.00000000000000000000e+00) (0, 0, 0.00000000000000000000e+00) (0, 0, 0.00000000000000000000e+00) (0, 0, 0.00000000000000000000e+00) (0, 0, 0.00000000000000000000e+00) (0, 0, 0.00000000000000000000e+00) (0, 0, 0.00000000000000000000e+00) (0, 0, 0.00000000000000000000e+00) (0, 0, 0.00000000000000000000e+00) (11, 5, 5.00000000000000000000e-01) (11, 5, 5.00000000000000000000e-01) (11, 5, 5.00000000000000000000e-01) (11, 5, 5.00000000000000000000e-01) (11, 5, 5.00000000000000000000e-01) (11, 5, 5.00000000000000000000e-01) (11, 5, 5.00000000000000000000e-01) (11, 5, 5.00000000000000000000e-01) (11, 5, 5.00000000000000000000e-01) (11, 5, 5.00000000000000000000e-01) (0, 5, 0.00000000000000000000e+00) (11, 5, 5.00000000000000000000e-01) (11, 5, 5.00000000000000000000e-01) (11, 5, 5.00000000000000000000e-01) (11, 5, 5.00000000000000000000e-01) (11, 5, 5.00000000000000000000e-01) (11, 5, 5.00000000000000000000e-01) (11, 5, 5.00000000000000000000e-01) (11, 5, 5.00000000000000000000e-01) (11, 5, 5.00000000000000000000e-01) (11, 5, 5.00000000000000000000e-01) (0, 5, 0.00000000000000000000e+00) (11, 5, 5.00000000000000000000e-01) (11, 5, 5.00000000000000000000e-01) (11, 5, 5.00000000000000000000e-01) (11, 5, 5.00000000000000000000e-01) (11, 5, 5.00000000000000000000e-01) (11, 5, 5.00000000000000000000e-01) (11, 5, 5.00000000000000000000e-01) (11, 5, 5.00000000000000000000e-01) (11, 5, 5.00000000000000000000e-01) (11, 5, 5.00000000000000000000e-01) (0, 5, 0.00000000000000000000e+00) 
connections (connected_to_neuron, weight)=(0, 9.24532338976860046387e-02) (1, 1.42557322978973388672e-01) (2, -5.10780140757560729980e-02) (3, 7.75423422455787658691e-02) (4, 2.62427553534507751465e-02) (5, -2.72737890481948852539e-02) (6, -7.13929608464241027832e-02) (7, 9.72934439778327941895e-03) (8, 6.60958960652351379395e-02) (9, 4.20664191246032714844e-01) (10, 3.90949666500091552734e-01) (0, 8.42136144638061523438e-03) (1, -7.56092295050621032715e-02) (2, 1.37754529714584350586e-02) (3, 5.29005378484725952148e-03) (4, -1.54916048049926757812e-02) (5, 1.26145854592323303223e-02) (6, 5.63657805323600769043e-02) (7, 7.38635882735252380371e-02) (8, -2.71954685449600219727e-02) (9, -8.27716886997222900391e-02) (10, 3.99293825030326843262e-02) (0, -4.40340116620063781738e-02) (1, 8.70355293154716491699e-02) (2, 8.86836722493171691895e-02) (3, -3.11147421598434448242e-03) (4, -6.67867064476013183594e-02) (5, 9.99973341822624206543e-02) (6, 1.25147700309753417969e-02) (7, -1.14499554038047790527e-02) (8, 8.81002098321914672852e-03) (9, 4.96800243854522705078e-03) (10, -3.24083641171455383301e-02) (0, -5.14249168336391448975e-02) (1, -1.74896568059921264648e-02) (2, 9.38343927264213562012e-02) (3, 2.13013067841529846191e-02) (4, 1.11173838376998901367e-02) (5, -5.43799065053462982178e-02) (6, -1.26028060913085937500e-02) (7, 5.20203486084938049316e-02) (8, -2.07675173878669738770e-02) (9, 9.58185568451881408691e-02) (10, 7.64111205935478210449e-02) (0, 9.30079296231269836426e-02) (1, 1.10860913991928100586e-03) (2, -3.90804819762706756592e-02) (3, 5.62252104282379150391e-03) (4, -5.95190823078155517578e-02) (5, -6.52168989181518554688e-02) (6, 7.84270539879798889160e-02) (7, -2.52973064780235290527e-02) (8, -1.86908572912216186523e-01) (9, -6.56069591641426086426e-02) (10, -3.82617898285388946533e-02) (0, 6.33961632847785949707e-02) (1, 3.12815681099891662598e-02) (2, -5.04849851131439208984e-03) (3, 6.33934810757637023926e-02) (4, -5.62036633491516113281e-02) (5, 8.35015401244163513184e-02) (6, 6.30465820431709289551e-02) (7, 4.87643405795097351074e-02) (8, -4.89068143069744110107e-02) (9, -8.83783325552940368652e-02) (10, -6.87253177165985107422e-02) (0, -5.50724230706691741943e-02) (1, 3.29229757189750671387e-02) (2, 4.23920676112174987793e-02) (3, -9.45232808589935302734e-03) (4, -7.96798318624496459961e-02) (5, -5.58758527040481567383e-03) (6, 6.97801485657691955566e-02) (7, -8.38612839579582214355e-02) (8, -2.91764661669731140137e-02) (9, 9.70151275396347045898e-03) (10, 1.72473341226577758789e-02) (0, 3.17430570721626281738e-02) (1, -3.15893888473510742188e-02) (2, 2.36297026276588439941e-02) (3, 6.65261521935462951660e-02) (4, -5.31623363494873046875e-02) (5, -5.05756027996540069580e-02) (6, 4.12386283278465270996e-02) (7, -1.87692940235137939453e-02) (8, 1.11626163125038146973e-02) (9, 4.63478267192840576172e-03) (10, -8.74877274036407470703e-02) (0, -9.38858911395072937012e-02) (1, -3.19717302918434143066e-02) (2, -4.36913929879665374756e-02) (3, 8.96156504750251770020e-02) (4, -6.89251422882080078125e-02) (5, -9.49270501732826232910e-02) (6, -5.92911578714847564697e-02) (7, -5.73034733533859252930e-02) (8, -6.36523738503456115723e-02) (9, -1.43635794520378112793e-02) (10, 7.56194964051246643066e-02) (0, 7.87396952509880065918e-02) (1, -2.44697511196136474609e-01) (2, 9.59396585822105407715e-02) (3, -2.68478915095329284668e-02) (4, 4.59642484784126281738e-02) (5, -8.79216194152832031250e-02) (6, 4.39756438136100769043e-02) (7, 8.75233113765716552734e-03) (8, 2.93257161974906921387e-02) (9, -2.42813155055046081543e-02) (10, 7.71629288792610168457e-02) (11, 4.04741615056991577148e-03) (12, -5.77551648020744323730e-02) (13, -7.59994015097618103027e-02) (14, 5.34718111157417297363e-02) (15, 8.34834650158882141113e-02) (16, 5.23130595684051513672e-03) (17, -3.53655740618705749512e-02) (18, -1.18817389011383056641e-02) (19, 1.77435874938964843750e-02) (20, -2.92514637112617492676e-02) (21, 5.61465397477149963379e-02) (11, 7.40521922707557678223e-02) (12, -3.96358035504817962646e-02) (13, 8.72213914990425109863e-02) (14, 7.91251435875892639160e-02) (15, 1.07304006814956665039e-03) (16, -7.00820833444595336914e-02) (17, -8.45272317528724670410e-02) (18, 8.67094621062278747559e-02) (19, -4.34887290000915527344e-01) (20, 9.42124649882316589355e-02) (21, 6.28935471177101135254e-02) (11, -9.85229164361953735352e-02) (12, -3.26354354619979858398e-02) (13, 8.85778665542602539062e-03) (14, -8.64445343613624572754e-02) (15, -8.86597931385040283203e-02) (16, -8.23898911476135253906e-02) (17, -3.79351019859313964844e-01) (18, -1.29411071538925170898e-02) (19, 9.47730615735054016113e-02) (20, -5.30714057385921478271e-02) (21, 2.93037369847297668457e-02) (11, -8.12263488769531250000e-02) (12, -9.95995923876762390137e-02) (13, 1.27872005105018615723e-02) (14, 2.40049585700035095215e-02) (15, -3.49651649594306945801e-02) (16, -9.90945398807525634766e-02) (17, -5.82514591515064239502e-02) (18, 3.57833728194236755371e-02) (19, 5.70520088076591491699e-02) (20, -8.41992646455764770508e-02) (21, 9.61475744843482971191e-02) (11, 4.42733839154243469238e-02) (12, 9.49258878827095031738e-02) (13, -2.77938693761825561523e-03) (14, 7.41913095116615295410e-02) (15, -8.96013602614402770996e-02) (16, -1.60699263215065002441e-02) (17, 7.97287300229072570801e-02) (18, -9.53888967633247375488e-02) (19, -5.31763844192028045654e-02) (20, 8.12058076262474060059e-02) (21, -2.80243307352066040039e-02) (11, 5.50544261932373046875e-01) (12, 9.47612747550010681152e-02) (13, -1.66841149330139160156e-02) (14, 7.32915177941322326660e-02) (15, 3.76424565911293029785e-02) (16, 7.03747794032096862793e-02) (17, 6.80645778775215148926e-02) (18, 8.45710560679435729980e-02) (19, -3.21492552757263183594e-04) (20, 8.68382230401039123535e-02) (21, 8.49714502692222595215e-02) (11, -4.23325061798095703125e-01) (12, 1.08431801199913024902e-02) (13, -4.95040208101272583008e-01) (14, -8.66288319230079650879e-02) (15, 5.25917336344718933105e-02) (16, 8.57896730303764343262e-02) (17, 7.04231783747673034668e-02) (18, 6.83924630284309387207e-02) (19, 8.19372460246086120605e-02) (20, 1.46965608000755310059e-02) (21, 5.28030514717102050781e-01) (11, -2.08421498537063598633e-02) (12, -1.11121237277984619141e-02) (13, 7.37169757485389709473e-02) (14, 6.30879327654838562012e-02) (15, -3.13833951950073242188e-02) (16, 7.83280804753303527832e-02) (17, -9.00884568691253662109e-02) (18, -5.01775853335857391357e-02) (19, -4.96962442994117736816e-02) (20, 6.55929520726203918457e-02) (21, -5.54163046181201934814e-02) (11, 3.36196497082710266113e-02) (12, 3.88844683766365051270e-02) (13, 8.22261497378349304199e-02) (14, 3.99442017078399658203e-03) (15, 6.94904476404190063477e-03) (16, 6.67972043156623840332e-02) (17, -9.63270813226699829102e-02) (18, -6.21274113655090332031e-03) (19, 5.17686530947685241699e-02) (20, -8.38613659143447875977e-02) (21, -9.53695550560951232910e-02) (11, -9.82250571250915527344e-02) (12, -7.04901963472366333008e-02) (13, 5.72221651673316955566e-02) (14, -3.24167400598526000977e-01) (15, 9.99329760670661926270e-02) (16, 2.56146267056465148926e-02) (17, 6.95018544793128967285e-02) (18, 1.46295428276062011719e-02) (19, -1.10670402646064758301e-02) (20, -5.13402931392192840576e-02) (21, -9.64825898408889770508e-02) (22, -3.73500660061836242676e-02) (23, -8.82523655891418457031e-02) (24, -2.78659835457801818848e-02) (25, 5.84082268178462982178e-02) (26, -7.83408209681510925293e-02) (27, 2.19564288854598999023e-02) (28, -8.71822237968444824219e-03) (29, 8.72521325945854187012e-02) (30, 6.65401294827461242676e-02) (31, -7.50985816121101379395e-02) (32, 2.61365994811058044434e-02) (22, 4.87662777304649353027e-02) (23, 2.88958325982093811035e-02) (24, -6.69143646955490112305e-02) (25, 1.55634731054306030273e-02) (26, 3.25687602162361145020e-02) (27, 2.68728956580162048340e-02) (28, -3.26678752899169921875e-02) (29, 4.87073883414268493652e-02) (30, 3.15033420920372009277e-02) (31, -3.08929309248924255371e-02) (32, 7.82172009348869323730e-02) (22, -1.12744867801666259766e-02) (23, -4.33283224701881408691e-02) (24, 7.81501606106758117676e-02) (25, -8.56598615646362304688e-02) (26, -7.38264694809913635254e-02) (27, -7.22029060125350952148e-03) (28, 3.27310711145401000977e-03) (29, -2.51667648553848266602e-02) (30, -3.70287895202636718750e-03) (31, 6.59230425953865051270e-02) (32, -1.34191289544105529785e-02) (22, 6.84311464428901672363e-02) (23, -9.30989459156990051270e-02) (24, 8.24005901813507080078e-03) (25, -9.61242616176605224609e-03) (26, -1.81716680526733398438e-03) (27, -4.50780987739562988281e-03) (28, 2.11512550711631774902e-01) (29, -2.39132821559906005859e-01) (30, -7.83712118864059448242e-02) (31, -9.43060144782066345215e-02) (32, -4.80199232697486877441e-02) (22, -4.52855713665485382080e-02) (23, 2.12574601173400878906e-02) (24, 8.45488384366035461426e-02) (25, 8.15873220562934875488e-02) (26, 8.85895863175392150879e-02) (27, 3.32562252879142761230e-02) (28, 1.30906701087951660156e-02) (29, -4.23033423721790313721e-02) (30, 1.14734172821044921875e-02) (31, -9.81838107109069824219e-02) (32, 1.43683403730392456055e-02) (22, -1.03764161467552185059e-02) (23, -8.38436707854270935059e-02) (24, 4.05418649315834045410e-02) (25, 4.73630487918853759766e-01) (26, -1.19887307286262512207e-01) (27, -8.46248939633369445801e-02) (28, -2.12995931506156921387e-02) (29, -1.46475285291671752930e-02) (30, 1.95598602294921875000e-03) (31, -5.28684519231319427490e-02) (32, -7.74647295475006103516e-03) (22, -8.98039638996124267578e-02) (23, 3.75191196799278259277e-02) (24, 9.04363468289375305176e-02) (25, 5.68822771310806274414e-03) (26, 9.44468304514884948730e-02) (27, 1.35205984115600585938e-02) (28, 2.73170098662376403809e-02) (29, -9.98591855168342590332e-02) (30, 6.55006840825080871582e-02) (31, 8.20314511656761169434e-02) (32, 2.13982835412025451660e-02) (22, 5.00495210289955139160e-02) (23, 6.36187866330146789551e-02) (24, 9.98786836862564086914e-03) (25, -1.66942626237869262695e-02) (26, -2.32905447483062744141e-02) (27, 6.76845386624336242676e-02) (28, 9.47791561484336853027e-02) (29, -2.14743539690971374512e-02) (30, -1.79471299052238464355e-02) (31, -1.55972689390182495117e-02) (32, -5.31803071498870849609e-03) (22, -7.74052590131759643555e-02) (23, -3.31939756870269775391e-02) (24, -8.58886018395423889160e-02) (25, -6.20301552116870880127e-02) (26, -2.83248424530029296875e-01) (27, -5.36128878593444824219e-04) (28, 3.99258211255073547363e-02) (29, 9.26379784941673278809e-02) (30, 9.17173847556114196777e-02) (31, 5.01218661665916442871e-02) (32, 3.01570966839790344238e-02) (22, 8.21537449955940246582e-02) (23, -4.41899076104164123535e-02) (24, 2.46039256453514099121e-02) (25, -4.32565063238143920898e-03) (26, 8.31271037459373474121e-02) (27, 2.47447490692138671875e-02) (28, -3.88249717652797698975e-02) (29, -7.11460635066032409668e-02) (30, -5.38569726049900054932e-02) (31, -8.87754559516906738281e-02) (32, 2.87773385643959045410e-02) 