FANN_FLO_2.1
num_layers=4
learning_rate=0.700000
connection_rate=1.000000
network_type=0
learning_momentum=0.000000
training_algorithm=2
train_error_function=1
train_stop_function=0
cascade_output_change_fraction=0.010000
quickprop_decay=-0.000100
quickprop_mu=1.750000
rprop_increase_factor=1.200000
rprop_decrease_factor=0.500000
rprop_delta_min=0.000000
rprop_delta_max=50.000000
rprop_delta_zero=0.100000
cascade_output_stagnation_epochs=12
cascade_candidate_change_fraction=0.010000
cascade_candidate_stagnation_epochs=12
cascade_max_out_epochs=150
cascade_min_out_epochs=50
cascade_max_cand_epochs=150
cascade_min_cand_epochs=50
cascade_num_candidate_groups=2
bit_fail_limit=3.49999994039535522461e-01
cascade_candidate_limit=1.00000000000000000000e+03
cascade_weight_multiplier=4.00000005960464477539e-01
cascade_activation_functions_count=10
cascade_activation_functions=3 5 7 8 10 11 14 15 16 17 
cascade_activation_steepnesses_count=4
cascade_activation_steepnesses=2.50000000000000000000e-01 5.00000000000000000000e-01 7.50000000000000000000e-01 1.00000000000000000000e+00 
layer_sizes=15 13 12 11 
scale_included=0
neurons (num_inputs, activation_function, activation_steepness)=(0, 0, 0.00000000000000000000e+00) (0, 0, 0.00000000000000000000e+00) (0, 0, 0.00000000000000000000e+00) (0, 0, 0.00000000000000000000e+00) (0, 0, 0.00000000000000000000e+00) (0, 0, 0.00000000000000000000e+00) (0, 0, 0.00000000000000000000e+00) (0, 0, 0.00000000000000000000e+00) (0, 0, 0.00000000000000000000e+00) (0, 0, 0.00000000000000000000e+00) (0, 0, 0.00000000000000000000e+00) (0, 0, 0.00000000000000000000e+00) (0, 0, 0.00000000000000000000e+00) (0, 0, 0.00000000000000000000e+00) (0, 0, 0.00000000000000000000e+00) (15, 5, 5.00000000000000000000e-01) (15, 5, 5.00000000000000000000e-01) (15, 5, 5.00000000000000000000e-01) (15, 5, 5.00000000000000000000e-01) (15, 5, 5.00000000000000000000e-01) (15, 5, 5.00000000000000000000e-01) (15, 5, 5.00000000000000000000e-01) (15, 5, 5.00000000000000000000e-01) (15, 5, 5.00000000000000000000e-01) (15, 5, 5.00000000000000000000e-01) (15, 5, 5.00000000000000000000e-01) (15, 5, 5.00000000000000000000e-01) (0, 5, 0.00000000000000000000e+00) (13, 5, 5.00000000000000000000e-01) (13, 5, 5.00000000000000000000e-01) (13, 5, 5.00000000000000000000e-01) (13, 5, 5.00000000000000000000e-01) (13, 5, 5.00000000000000000000e-01) (13, 5, 5.00000000000000000000e-01) (13, 5, 5.00000000000000000000e-01) (13, 5, 5.00000000000000000000e-01) (13, 5, 5.00000000000000000000e-01) (13, 5, 5.00000000000000000000e-01) (13, 5, 5.00000000000000000000e-01) (0, 5, 0.00000000000000000000e+00) (12, 5, 5.00000000000000000000e-01) (12, 5, 5.00000000000000000000e-01) (12, 5, 5.00000000000000000000e-01) (12, 5, 5.00000000000000000000e-01) (12, 5, 5.00000000000000000000e-01) (12, 5, 5.00000000000000000000e-01) (12, 5, 5.00000000000000000000e-01) (12, 5, 5.00000000000000000000e-01) (12, 5, 5.00000000000000000000e-01) (12, 5, 5.00000000000000000000e-01) (0, 5, 0.00000000000000000000e+00) 
connections (connected_to_neuron, weight)=(0, -6.25193119049072265625e-02) (1, -9.51131805777549743652e-02) (2, 3.41447442770004272461e-03) (3, 5.31154498457908630371e-02) (4, 2.29699909687042236328e-03) (5, 4.83041480183601379395e-02) (6, 3.81640121340751647949e-02) (7, 4.56415116786956787109e-03) (8, -8.91371890902519226074e-02) (9, 8.16242322325706481934e-02) (10, -9.21133384108543395996e-02) (11, -9.81247797608375549316e-02) (12, -5.61055690050125122070e-02) (13, 8.49725380539894104004e-02) (14, -6.77712559700012207031e-02) (0, 4.27124649286270141602e-03) (1, 9.68456342816352844238e-02) (2, -3.74034047126770019531e-03) (3, 9.58726555109024047852e-03) (4, 7.97534063458442687988e-02) (5, -5.76533377170562744141e-04) (6, 1.11820101737976074219e-02) (7, -9.46461483836174011230e-02) (8, -9.57825258374214172363e-02) (9, -4.35005202889442443848e-02) (10, -8.69188457727432250977e-02) (11, -5.33403456211090087891e-03) (12, 7.25215300917625427246e-02) (13, -6.22288435697555541992e-02) (14, 4.76927235722541809082e-02) (0, -4.65306229889392852783e-02) (1, -2.47481465339660644531e-02) (2, 5.25795444846153259277e-02) (3, 5.68838641047477722168e-02) (4, -7.16326907277107238770e-02) (5, -4.51234467327594757080e-02) (6, 5.18800318241119384766e-03) (7, 6.65313228964805603027e-02) (8, 5.94407096505165100098e-02) (9, 1.60508155822753906250e-02) (10, 4.81555536389350891113e-02) (11, 6.73273727297782897949e-02) (12, 1.79260373115539550781e-02) (13, 9.20499786734580993652e-02) (14, 5.22999092936515808105e-02) (0, 5.01547828316688537598e-02) (1, -3.67876887321472167969e-03) (2, 4.91455271840095520020e-02) (3, -5.35855591297149658203e-02) (4, -9.40915048122406005859e-02) (5, 2.88989320397377014160e-02) (6, 4.58379015326499938965e-02) (7, 1.70904994010925292969e-02) (8, 3.42527851462364196777e-02) (9, 5.00553920865058898926e-02) (10, 7.35899880528450012207e-02) (11, 4.73339483141899108887e-02) (12, -5.52786402404308319092e-02) (13, 4.61115315556526184082e-02) (14, 8.51050987839698791504e-02) (0, 9.24140885472297668457e-02) (1, 9.95808914303779602051e-02) (2, -3.96430492401123046875e-02) (3, 4.49936464428901672363e-02) (4, 5.64647540450096130371e-02) (5, -1.12757384777069091797e-02) (6, 9.98701974749565124512e-02) (7, -3.83472405374050140381e-02) (8, -4.47444207966327667236e-02) (9, 5.93109056353569030762e-02) (10, 7.77035877108573913574e-02) (11, -9.65888723731040954590e-02) (12, 2.66382768750190734863e-02) (13, -4.37038391828536987305e-03) (14, 9.54611226916313171387e-02) (0, -2.10618227720260620117e-02) (1, -5.42155988514423370361e-02) (2, -8.21765512228012084961e-03) (3, -7.19162821769714355469e-02) (4, -7.80116021633148193359e-03) (5, -2.30916589498519897461e-03) (6, 5.69826439023017883301e-02) (7, -6.19632489979267120361e-02) (8, -8.52186679840087890625e-02) (9, -8.76456499099731445312e-03) (10, 8.80921408534049987793e-02) (11, 8.83713290095329284668e-02) (12, -6.14306256175041198730e-02) (13, -6.71865046024322509766e-02) (14, 3.44828441739082336426e-02) (0, -7.63255283236503601074e-02) (1, -7.47724175453186035156e-02) (2, 3.40637490153312683105e-02) (3, -1.59685760736465454102e-02) (4, 7.02212229371070861816e-02) (5, -9.47149842977523803711e-03) (6, 7.27556869387626647949e-02) (7, 7.00914189219474792480e-02) (8, 5.21812513470649719238e-02) (9, -7.19887316226959228516e-02) (10, 2.94023230671882629395e-02) (11, 2.98848375678062438965e-02) (12, -6.85776025056838989258e-02) (13, -4.39594164490699768066e-02) (14, -7.44855403900146484375e-02) (0, -7.31164813041687011719e-02) (1, 3.49787697196006774902e-02) (2, -2.87011414766311645508e-02) (3, 1.86658650636672973633e-02) (4, 6.30624964833259582520e-02) (5, 6.34976997971534729004e-02) (6, -8.36433097720146179199e-02) (7, 2.00451239943504333496e-02) (8, -9.84655469655990600586e-02) (9, -6.88619688153266906738e-02) (10, -8.87194350361824035645e-02) (11, 8.96266028285026550293e-02) (12, -8.04906487464904785156e-02) (13, -5.01500628888607025146e-02) (14, -7.75599032640457153320e-02) (0, 5.39922043681144714355e-02) (1, -2.64755859971046447754e-02) (2, -5.23323193192481994629e-02) (3, -1.19440630078315734863e-02) (4, 5.75558468699455261230e-02) (5, -8.21110904216766357422e-02) (6, 7.85844400525093078613e-02) (7, 3.03115323185920715332e-02) (8, 8.79803225398063659668e-02) (9, 3.07657048106193542480e-02) (10, 5.83227947354316711426e-02) (11, 1.73826366662979125977e-02) (12, -3.93494665622711181641e-02) (13, 8.97452011704444885254e-02) (14, 7.34232142567634582520e-02) (0, -1.38350054621696472168e-02) (1, -8.33712816238403320312e-02) (2, 8.40198993682861328125e-03) (3, 5.74638471007347106934e-02) (4, 3.52945700287818908691e-02) (5, -2.85355299711227416992e-02) (6, 2.09615603089332580566e-02) (7, 5.16512617468833923340e-02) (8, 9.15096029639244079590e-02) (9, 2.24960073828697204590e-02) (10, 8.27893093228340148926e-02) (11, -9.72098335623741149902e-02) (12, 1.21226087212562561035e-02) (13, -9.77013483643531799316e-02) (14, -4.73598912358283996582e-02) (0, 3.45627143979072570801e-02) (1, 5.62908425927162170410e-02) (2, 2.61645242571830749512e-02) (3, 8.22303965687751770020e-02) (4, -5.56532181799411773682e-02) (5, -1.62796378135681152344e-02) (6, -9.98807102441787719727e-02) (7, -7.70687833428382873535e-02) (8, -8.59681069850921630859e-02) (9, 8.80996063351631164551e-02) (10, 5.36969229578971862793e-02) (11, 7.23546817898750305176e-02) (12, 5.48224151134490966797e-03) (13, -8.56525525450706481934e-02) (14, 6.20998963713645935059e-02) (0, -2.10945308208465576172e-02) (1, 5.12443482875823974609e-04) (2, 7.87286087870597839355e-02) (3, 8.73074606060981750488e-02) (4, -4.20237071812152862549e-02) (5, 1.40231847763061523438e-02) (6, -4.12280671298503875732e-02) (7, 7.89378359913825988770e-02) (8, -3.43255549669265747070e-02) (9, -4.97184656560420989990e-02) (10, 1.43386423587799072266e-03) (11, -5.15362508594989776611e-02) (12, -4.69282940030097961426e-02) (13, -8.64435434341430664062e-02) (14, -4.92376051843166351318e-02) (15, 5.71181625127792358398e-03) (16, 4.81191650032997131348e-02) (17, -9.29467529058456420898e-02) (18, -6.81236684322357177734e-02) (19, 3.03495451807975769043e-02) (20, -4.85999770462512969971e-02) (21, 1.55967026948928833008e-02) (22, 3.04688289761543273926e-02) (23, -2.56687551736831665039e-02) (24, 2.96285971999168395996e-02) (25, 1.85684412717819213867e-02) (26, -7.19718411564826965332e-02) (27, 1.98328495025634765625e-03) (15, -7.59493038058280944824e-02) (16, -5.76243922114372253418e-02) (17, -3.59168201684951782227e-02) (18, 2.95616686344146728516e-03) (19, 4.28880527615547180176e-02) (20, -5.71882128715515136719e-02) (21, -9.73637402057647705078e-03) (22, -9.91356521844863891602e-02) (23, 5.68349733948707580566e-02) (24, 4.90355566143989562988e-02) (25, 7.98021927475929260254e-02) (26, -7.74905830621719360352e-02) (27, 9.93170961737632751465e-02) (15, -1.87639519572257995605e-02) (16, -2.90268287062644958496e-02) (17, -4.76111955940723419189e-02) (18, -5.20749390125274658203e-03) (19, 2.17355713248252868652e-02) (20, 5.81006184220314025879e-02) (21, -5.70883266627788543701e-02) (22, 2.87888124585151672363e-02) (23, 8.99769738316535949707e-02) (24, 7.32612237334251403809e-02) (25, 8.01888331770896911621e-02) (26, 5.57366758584976196289e-03) (27, 3.73005867004394531250e-03) (15, -4.54799197614192962646e-02) (16, -6.47977441549301147461e-02) (17, -7.77014940977096557617e-02) (18, -1.74517557024955749512e-02) (19, 3.71855422854423522949e-02) (20, -5.36508001387119293213e-02) (21, 2.49238461256027221680e-02) (22, -9.87312793731689453125e-02) (23, 4.93053719401359558105e-02) (24, -3.21880951523780822754e-02) (25, -5.59194944798946380615e-02) (26, -6.04310072958469390869e-02) (27, -3.13237458467483520508e-02) (15, -9.90845263004302978516e-02) (16, 8.86045619845390319824e-02) (17, -5.15215545892715454102e-02) (18, -7.65751078724861145020e-02) (19, 8.79216566681861877441e-02) (20, 2.97144874930381774902e-02) (21, -5.60193508863449096680e-03) (22, -5.96895441412925720215e-02) (23, -7.54929929971694946289e-02) (24, -8.38663727045059204102e-02) (25, 9.84110906720161437988e-02) (26, -3.25813218951225280762e-02) (27, 4.49224486947059631348e-02) (15, 8.83880332112312316895e-02) (16, -5.93201033771038055420e-02) (17, 2.51112803816795349121e-02) (18, -6.03829324245452880859e-03) (19, 4.44099530577659606934e-02) (20, 7.96313658356666564941e-02) (21, 2.91639640927314758301e-02) (22, 6.67084529995918273926e-02) (23, -3.78203950822353363037e-02) (24, -3.36505025625228881836e-02) (25, -8.69423449039459228516e-02) (26, 8.71034637093544006348e-02) (27, -3.23817804455757141113e-02) (15, 6.23630359768867492676e-02) (16, -4.50846329331398010254e-02) (17, 1.16987377405166625977e-02) (18, -9.80679839849472045898e-02) (19, 2.35916227102279663086e-02) (20, 1.26142129302024841309e-02) (21, 9.05365720391273498535e-02) (22, 7.20700696110725402832e-02) (23, 3.60391065478324890137e-02) (24, 7.84582272171974182129e-02) (25, 1.78456306457519531250e-03) (26, -6.95628300309181213379e-02) (27, -8.12313258647918701172e-02) (15, 2.62915566563606262207e-02) (16, -5.34291975200176239014e-02) (17, -8.28202441334724426270e-02) (18, 9.37102511525154113770e-02) (19, 9.14932563900947570801e-02) (20, -9.44322049617767333984e-02) (21, -6.56098574399948120117e-02) (22, 1.66045278310775756836e-02) (23, -4.70504164695739746094e-04) (24, 7.88000896573066711426e-02) (25, -3.76410782337188720703e-03) (26, -7.13065415620803833008e-02) (27, 4.55085560679435729980e-02) (15, 5.84155097603797912598e-02) (16, -4.95703518390655517578e-03) (17, 5.85662201046943664551e-02) (18, 4.55189719796180725098e-02) (19, 6.26611784100532531738e-02) (20, 2.09292396903038024902e-02) (21, -9.95656698942184448242e-02) (22, -2.56400853395462036133e-02) (23, 2.28612646460533142090e-02) (24, 2.40259543061256408691e-02) (25, 8.69741216301918029785e-02) (26, 1.33978351950645446777e-02) (27, -3.90397757291793823242e-03) (15, 2.30132341384887695312e-02) (16, -8.14394652843475341797e-03) (17, 9.78805944323539733887e-02) (18, 5.34503981471061706543e-02) (19, 1.06247439980506896973e-02) (20, 2.41721495985984802246e-02) (21, -9.99788045883178710938e-02) (22, 2.78045013546943664551e-02) (23, 1.78823918104171752930e-02) (24, 9.15144458413124084473e-02) (25, 3.33722904324531555176e-02) (26, 5.22725507616996765137e-02) (27, 8.11897218227386474609e-03) (15, -6.70982152223587036133e-02) (16, 3.10726389288902282715e-02) (17, -9.56451296806335449219e-02) (18, -3.84047515690326690674e-02) (19, -2.34187990427017211914e-02) (20, 6.27703741192817687988e-02) (21, 5.66382035613059997559e-02) (22, -6.48525878787040710449e-02) (23, 8.28933715820312500000e-03) (24, 1.92993879318237304688e-02) (25, 5.60766533017158508301e-02) (26, 8.72367620468139648438e-03) (27, 9.36593040823936462402e-02) (28, -2.10620760917663574219e-02) (29, -6.72503709793090820312e-02) (30, 8.06334242224693298340e-02) (31, 9.23357680439949035645e-02) (32, 2.88456603884696960449e-02) (33, 3.64665687084197998047e-03) (34, -1.58081799745559692383e-02) (35, 2.67262533307075500488e-02) (36, -4.29029464721679687500e-02) (37, 9.48165580630302429199e-02) (38, -4.91016097366809844971e-02) (39, -4.28817458450794219971e-02) (28, 2.26210504770278930664e-02) (29, 6.87807872891426086426e-02) (30, -5.13673089444637298584e-02) (31, -4.40066568553447723389e-02) (32, 2.10533291101455688477e-02) (33, 5.67516759037971496582e-02) (34, -1.11048668622970581055e-02) (35, -4.78740334510803222656e-02) (36, 6.11065402626991271973e-02) (37, 5.04903867840766906738e-02) (38, 2.87071689963340759277e-02) (39, 2.38769054412841796875e-02) (28, 7.12858140468597412109e-03) (29, 6.38545826077461242676e-02) (30, -6.78337514400482177734e-02) (31, -7.35720247030258178711e-02) (32, 1.99312344193458557129e-02) (33, 4.08899262547492980957e-02) (34, -7.99127221107482910156e-02) (35, 9.88691523671150207520e-02) (36, 7.36395642161369323730e-02) (37, -9.92792919278144836426e-02) (38, 9.12049189209938049316e-02) (39, 2.48521566390991210938e-03) (28, 4.36736643314361572266e-03) (29, -2.46032625436782836914e-02) (30, -7.07885473966598510742e-02) (31, 6.14644214510917663574e-02) (32, -2.97867134213447570801e-02) (33, -1.98901593685150146484e-02) (34, -8.14173221588134765625e-02) (35, 9.28343310952186584473e-02) (36, -5.11093698441982269287e-02) (37, -3.27846258878707885742e-02) (38, -5.11723272502422332764e-02) (39, 6.99439719319343566895e-02) (28, -7.60329663753509521484e-02) (29, 3.77228036522865295410e-02) (30, -7.79300704598426818848e-02) (31, 8.50735679268836975098e-02) (32, -1.17868110537528991699e-02) (33, 5.07770851254463195801e-02) (34, 8.95048677921295166016e-03) (35, 9.53417792916297912598e-02) (36, 1.46316736936569213867e-02) (37, 4.11167219281196594238e-02) (38, -7.82302543520927429199e-02) (39, -6.54370933771133422852e-02) (28, -1.79933458566665649414e-02) (29, -5.81429712474346160889e-02) (30, -6.65679350495338439941e-02) (31, -4.43537943065166473389e-02) (32, -5.74222616851329803467e-02) (33, -7.53630176186561584473e-02) (34, 5.81314191222190856934e-02) (35, 4.69451025128364562988e-02) (36, 3.37138772010803222656e-05) (37, 8.73428657650947570801e-02) (38, 8.40953737497329711914e-03) (39, 7.02470019459724426270e-02) (28, -3.25472876429557800293e-02) (29, 2.69922092556953430176e-02) (30, 6.30813315510749816895e-02) (31, 1.63433402776718139648e-02) (32, 9.42075774073600769043e-02) (33, -8.80909860134124755859e-02) (34, -1.37126967310905456543e-02) (35, -8.18253904581069946289e-02) (36, 4.96318265795707702637e-02) (37, 8.35724174976348876953e-03) (38, -9.67518240213394165039e-02) (39, -6.21549934148788452148e-02) (28, -4.08656708896160125732e-02) (29, 1.21986642479896545410e-02) (30, -6.68132230639457702637e-02) (31, 7.37660005688667297363e-02) (32, -4.66846190392971038818e-02) (33, -4.50434759259223937988e-02) (34, -9.16710868477821350098e-02) (35, 3.53220328688621520996e-02) (36, -3.18644195795059204102e-03) (37, -5.82390204071998596191e-02) (38, 9.09682437777519226074e-02) (39, 3.93913015723228454590e-02) (28, -3.36020365357398986816e-02) (29, 4.90996614098548889160e-02) (30, -1.36635974049568176270e-02) (31, 6.64316788315773010254e-02) (32, 3.64425256848335266113e-02) (33, 9.47459414601325988770e-02) (34, 3.66786792874336242676e-02) (35, -9.61047634482383728027e-02) (36, 2.17381492257118225098e-02) (37, -2.39983201026916503906e-04) (38, 2.02385783195495605469e-02) (39, 1.59457176923751831055e-02) (28, 1.16690248250961303711e-02) (29, -9.34741199016571044922e-02) (30, 3.41203287243843078613e-02) (31, -3.86991500854492187500e-02) (32, 1.48831233382225036621e-02) (33, 3.73685136437416076660e-02) (34, -8.54142010211944580078e-04) (35, 7.40174576640129089355e-02) (36, -5.04328310489654541016e-02) (37, 3.23326364159584045410e-02) (38, 4.77834567427635192871e-02) (39, 2.88255512714385986328e-03) 
