FANN_FLO_2.1
num_layers=4
learning_rate=0.700000
connection_rate=1.000000
network_type=0
learning_momentum=0.000000
training_algorithm=2
train_error_function=1
train_stop_function=0
cascade_output_change_fraction=0.010000
quickprop_decay=-0.000100
quickprop_mu=1.750000
rprop_increase_factor=1.200000
rprop_decrease_factor=0.500000
rprop_delta_min=0.000000
rprop_delta_max=50.000000
rprop_delta_zero=0.100000
cascade_output_stagnation_epochs=12
cascade_candidate_change_fraction=0.010000
cascade_candidate_stagnation_epochs=12
cascade_max_out_epochs=150
cascade_min_out_epochs=50
cascade_max_cand_epochs=150
cascade_min_cand_epochs=50
cascade_num_candidate_groups=2
bit_fail_limit=3.49999994039535522461e-01
cascade_candidate_limit=1.00000000000000000000e+03
cascade_weight_multiplier=4.00000005960464477539e-01
cascade_activation_functions_count=10
cascade_activation_functions=3 5 7 8 10 11 14 15 16 17 
cascade_activation_steepnesses_count=4
cascade_activation_steepnesses=2.50000000000000000000e-01 5.00000000000000000000e-01 7.50000000000000000000e-01 1.00000000000000000000e+00 
layer_sizes=15 13 12 11 
scale_included=0
neurons (num_inputs, activation_function, activation_steepness)=(0, 0, 0.00000000000000000000e+00) (0, 0, 0.00000000000000000000e+00) (0, 0, 0.00000000000000000000e+00) (0, 0, 0.00000000000000000000e+00) (0, 0, 0.00000000000000000000e+00) (0, 0, 0.00000000000000000000e+00) (0, 0, 0.00000000000000000000e+00) (0, 0, 0.00000000000000000000e+00) (0, 0, 0.00000000000000000000e+00) (0, 0, 0.00000000000000000000e+00) (0, 0, 0.00000000000000000000e+00) (0, 0, 0.00000000000000000000e+00) (0, 0, 0.00000000000000000000e+00) (0, 0, 0.00000000000000000000e+00) (0, 0, 0.00000000000000000000e+00) (15, 5, 5.00000000000000000000e-01) (15, 5, 5.00000000000000000000e-01) (15, 5, 5.00000000000000000000e-01) (15, 5, 5.00000000000000000000e-01) (15, 5, 5.00000000000000000000e-01) (15, 5, 5.00000000000000000000e-01) (15, 5, 5.00000000000000000000e-01) (15, 5, 5.00000000000000000000e-01) (15, 5, 5.00000000000000000000e-01) (15, 5, 5.00000000000000000000e-01) (15, 5, 5.00000000000000000000e-01) (15, 5, 5.00000000000000000000e-01) (0, 5, 0.00000000000000000000e+00) (13, 5, 5.00000000000000000000e-01) (13, 5, 5.00000000000000000000e-01) (13, 5, 5.00000000000000000000e-01) (13, 5, 5.00000000000000000000e-01) (13, 5, 5.00000000000000000000e-01) (13, 5, 5.00000000000000000000e-01) (13, 5, 5.00000000000000000000e-01) (13, 5, 5.00000000000000000000e-01) (13, 5, 5.00000000000000000000e-01) (13, 5, 5.00000000000000000000e-01) (13, 5, 5.00000000000000000000e-01) (0, 5, 0.00000000000000000000e+00) (12, 5, 5.00000000000000000000e-01) (12, 5, 5.00000000000000000000e-01) (12, 5, 5.00000000000000000000e-01) (12, 5, 5.00000000000000000000e-01) (12, 5, 5.00000000000000000000e-01) (12, 5, 5.00000000000000000000e-01) (12, 5, 5.00000000000000000000e-01) (12, 5, 5.00000000000000000000e-01) (12, 5, 5.00000000000000000000e-01) (12, 5, 5.00000000000000000000e-01) (0, 5, 0.00000000000000000000e+00) 
connections (connected_to_neuron, weight)=(0, -4.00343015789985656738e-02) (1, -6.13577738404273986816e-02) (2, 4.77307215332984924316e-02) (3, 1.24719738960266113281e-02) (4, 1.12861841917037963867e-02) (5, 7.72022083401679992676e-02) (6, 6.70536234974861145020e-02) (7, 3.32071632146835327148e-03) (8, 9.44518223404884338379e-02) (9, -3.15269455313682556152e-02) (10, 5.56894615292549133301e-02) (11, 1.04949474334716796875e-02) (12, -7.98788517713546752930e-02) (13, 9.52327027916908264160e-02) (14, -6.31383657455444335938e-02) (0, 1.43641382455825805664e-02) (1, -9.03795957565307617188e-02) (2, -7.23415613174438476562e-02) (3, 9.53563302755355834961e-03) (4, -4.52467612922191619873e-02) (5, -3.01270112395286560059e-02) (6, 6.73051849007606506348e-02) (7, 7.20304623246192932129e-02) (8, -5.58026321232318878174e-02) (9, 2.42268890142440795898e-02) (10, 6.87197670340538024902e-02) (11, 6.71252980828285217285e-02) (12, 6.78475275635719299316e-02) (13, -8.47731828689575195312e-02) (14, -9.44241434335708618164e-02) (0, -6.83713704347610473633e-02) (1, -2.48074829578399658203e-02) (2, -5.57819157838821411133e-02) (3, 7.93593600392341613770e-02) (4, 8.76644924283027648926e-02) (5, 5.55042698979377746582e-02) (6, 5.65615668892860412598e-02) (7, 5.47181293368339538574e-02) (8, -4.11750152707099914551e-02) (9, 5.10134026408195495605e-02) (10, -7.68088251352310180664e-02) (11, -8.54855626821517944336e-02) (12, -3.84916551411151885986e-02) (13, -5.66876754164695739746e-02) (14, -9.02528613805770874023e-02) (0, -1.63002312183380126953e-03) (1, 5.76764568686485290527e-02) (2, -8.06324481964111328125e-02) (3, 2.60284170508384704590e-02) (4, -3.27879041433334350586e-02) (5, -2.58792117238044738770e-02) (6, 9.59014073014259338379e-02) (7, -6.54827207326889038086e-02) (8, -5.38487508893013000488e-02) (9, -5.99012337625026702881e-02) (10, 5.87441697716712951660e-02) (11, -8.51289778947830200195e-02) (12, -9.27759408950805664062e-02) (13, 2.65916958451271057129e-02) (14, -6.99021592736244201660e-02) (0, -8.72000828385353088379e-02) (1, 5.82203343510627746582e-02) (2, 5.29036670923233032227e-03) (3, -4.29820008575916290283e-02) (4, 3.75796929001808166504e-02) (5, -7.04514980316162109375e-03) (6, -8.74777287244796752930e-02) (7, -5.85873425006866455078e-03) (8, -5.23270256817340850830e-02) (9, -2.86527425050735473633e-02) (10, -5.48453442752361297607e-02) (11, -2.91358456015586853027e-02) (12, -1.41383036971092224121e-02) (13, 6.66300207376480102539e-03) (14, 1.41764730215072631836e-02) (0, -4.39115613698959350586e-03) (1, -9.49670225381851196289e-02) (2, -2.81470566987991333008e-02) (3, 1.49763971567153930664e-02) (4, 3.10614034533500671387e-02) (5, 3.90650406479835510254e-02) (6, 8.90971794724464416504e-02) (7, 2.69627943634986877441e-02) (8, 7.35823139548301696777e-02) (9, -6.47515654563903808594e-02) (10, 6.70615658164024353027e-02) (11, 3.23264822363853454590e-02) (12, -4.98805455863475799561e-02) (13, 7.42856338620185852051e-02) (14, -4.10818234086036682129e-02) (0, -1.97827070951461791992e-02) (1, 8.70855525135993957520e-02) (2, -8.28614830970764160156e-02) (3, 8.55076536536216735840e-02) (4, -5.58964572846889495850e-02) (5, 5.47182038426399230957e-02) (6, -2.15374976396560668945e-02) (7, -4.33741882443428039551e-02) (8, -5.11405281722545623779e-02) (9, 2.61354818940162658691e-02) (10, 2.79730632901191711426e-02) (11, -5.98587095737457275391e-03) (12, 9.69996377825736999512e-02) (13, -8.61652344465255737305e-02) (14, -9.93228703737258911133e-02) (0, 1.11761093139648437500e-02) (1, 9.44360345602035522461e-03) (2, -9.42898914217948913574e-02) (3, 8.30290392041206359863e-02) (4, -7.55800008773803710938e-02) (5, 3.67714986205101013184e-02) (6, 2.20940858125686645508e-02) (7, -8.64828228950500488281e-02) (8, -3.62657085061073303223e-02) (9, -4.32360917329788208008e-03) (10, -5.12343943119049072266e-02) (11, -6.92041367292404174805e-02) (12, -7.19971358776092529297e-02) (13, -1.11494213342666625977e-03) (14, -9.49185118079185485840e-02) (0, -1.30789503455162048340e-02) (1, 7.91023448109626770020e-02) (2, 9.21670272946357727051e-02) (3, 4.05956804752349853516e-03) (4, 6.46100118756294250488e-02) (5, -6.37294352054595947266e-02) (6, -4.12222258746623992920e-02) (7, -5.69274909794330596924e-02) (8, -7.10362195968627929688e-03) (9, 7.63724744319915771484e-03) (10, 6.92079886794090270996e-02) (11, -7.91305527091026306152e-02) (12, -9.83486250042915344238e-02) (13, 6.62076100707054138184e-02) (14, -6.52957856655120849609e-02) (0, -9.76714938879013061523e-02) (1, -2.26162821054458618164e-02) (2, 4.41478267312049865723e-02) (3, -9.19613912701606750488e-02) (4, -3.95872294902801513672e-02) (5, 6.85678198933601379395e-02) (6, 4.48101237416267395020e-02) (7, 8.25068429112434387207e-02) (8, 8.20849910378456115723e-02) (9, -9.14555937051773071289e-02) (10, -2.18167603015899658203e-02) (11, -6.91493973135948181152e-02) (12, -6.06597326695919036865e-02) (13, 6.18610531091690063477e-03) (14, 2.97356620430946350098e-02) (0, -5.55782467126846313477e-02) (1, 9.31071564555168151855e-02) (2, 8.83801281452178955078e-03) (3, -6.34112209081649780273e-02) (4, -2.83328443765640258789e-03) (5, -2.65519842505455017090e-02) (6, -2.71406471729278564453e-02) (7, 5.59444949030876159668e-02) (8, 1.65205225348472595215e-02) (9, 6.57557323575019836426e-02) (10, -3.64182665944099426270e-02) (11, -1.42714828252792358398e-02) (12, 8.66251811385154724121e-02) (13, -3.47668975591659545898e-02) (14, -4.80638705193996429443e-02) (0, -7.86706060171127319336e-02) (1, -3.24383825063705444336e-02) (2, 2.93198600411415100098e-02) (3, 6.54772147536277770996e-02) (4, -2.43997722864151000977e-02) (5, 8.97326245903968811035e-02) (6, 3.40450331568717956543e-02) (7, -7.95896649360656738281e-02) (8, 7.22394660115242004395e-02) (9, 1.61300301551818847656e-02) (10, -7.10452571511268615723e-02) (11, -4.95772920548915863037e-02) (12, 4.69806268811225891113e-02) (13, -3.17049920558929443359e-02) (14, 5.66088035702705383301e-02) (15, -2.32837051153182983398e-02) (16, 1.27167701721191406250e-02) (17, 4.97159734368324279785e-02) (18, 8.55543091893196105957e-02) (19, 4.93055507540702819824e-02) (20, -5.31173162162303924561e-02) (21, -4.09976840019226074219e-02) (22, -7.78351053595542907715e-02) (23, -9.71728339791297912598e-02) (24, 7.55228474736213684082e-02) (25, 8.79206284880638122559e-02) (26, -3.35910990834236145020e-02) (27, -3.87486480176448822021e-02) (15, 7.45458081364631652832e-02) (16, 3.16420122981071472168e-02) (17, 1.31874829530715942383e-02) (18, 9.58751961588859558105e-02) (19, 9.92036238312721252441e-02) (20, -5.74926659464836120605e-02) (21, 6.13524094223976135254e-02) (22, -2.51961499452590942383e-02) (23, -6.77600428462028503418e-02) (24, -4.60255146026611328125e-03) (25, -4.78582084178924560547e-03) (26, -9.55205708742141723633e-02) (27, -8.84725302457809448242e-02) (15, 2.41689234972000122070e-02) (16, -4.50978651642799377441e-02) (17, 5.85081055760383605957e-02) (18, 9.24639329314231872559e-02) (19, -8.84890556335449218750e-02) (20, -6.47756010293960571289e-02) (21, 5.18069416284561157227e-03) (22, 6.12269118428230285645e-02) (23, -7.92213082313537597656e-02) (24, -4.55137602984905242920e-02) (25, -9.18904021382331848145e-02) (26, -2.02189832925796508789e-02) (27, -2.33488604426383972168e-02) (15, -8.90632346272468566895e-02) (16, -4.46961484849452972412e-02) (17, -3.54282408952713012695e-02) (18, -2.26543322205543518066e-02) (19, 1.65552049875259399414e-02) (20, -6.08824305236339569092e-02) (21, -9.10123288631439208984e-02) (22, -7.02573135495185852051e-02) (23, -6.50072395801544189453e-02) (24, -9.18087065219879150391e-02) (25, -2.77499705553054809570e-02) (26, 9.63451787829399108887e-02) (27, -1.70048624277114868164e-02) (15, 4.48998063802719116211e-03) (16, -8.25737416744232177734e-03) (17, 7.82093182206153869629e-02) (18, 8.96941125392913818359e-03) (19, 3.27010452747344970703e-03) (20, 2.37824022769927978516e-03) (21, 6.38715550303459167480e-02) (22, -3.82217951118946075439e-02) (23, -5.15782833099365234375e-03) (24, 7.53824934363365173340e-02) (25, -2.99740582704544067383e-03) (26, -9.99771356582641601562e-02) (27, 3.66094186902046203613e-02) (15, 1.77812948822975158691e-02) (16, -4.54908907413482666016e-02) (17, 4.47190031409263610840e-02) (18, 9.75623056292533874512e-02) (19, 3.11602428555488586426e-02) (20, 5.56557849049568176270e-02) (21, -4.71338443458080291748e-02) (22, 9.57320109009742736816e-02) (23, -6.69985562562942504883e-02) (24, 6.94213584065437316895e-02) (25, -6.51504248380661010742e-02) (26, -5.80108836293220520020e-02) (27, 9.91640612483024597168e-02) (15, -3.01576554775238037109e-02) (16, -4.98195849359035491943e-02) (17, -2.85859256982803344727e-02) (18, -3.38124781847000122070e-02) (19, 3.31755653023719787598e-02) (20, 7.59040638804435729980e-02) (21, 5.79301491379737854004e-02) (22, 1.13848820328712463379e-02) (23, -1.51265263557434082031e-02) (24, -3.87997590005397796631e-02) (25, -8.62368792295455932617e-02) (26, -5.12549839913845062256e-02) (27, 2.29784473776817321777e-02) (15, 8.60528647899627685547e-03) (16, -7.58724883198738098145e-02) (17, -8.00189524888992309570e-02) (18, 8.62816721200942993164e-03) (19, 6.07369318604469299316e-02) (20, 3.77623513340950012207e-02) (21, 6.31372854113578796387e-02) (22, 5.45593351125717163086e-03) (23, 3.53246405720710754395e-02) (24, -5.70248067378997802734e-03) (25, -3.88882867991924285889e-02) (26, 8.81908014416694641113e-02) (27, -9.97046381235122680664e-03) (15, -5.88684529066085815430e-03) (16, 5.76121732592582702637e-02) (17, 2.48791202902793884277e-02) (18, 3.61022725701332092285e-02) (19, 5.67762330174446105957e-02) (20, 9.47214588522911071777e-02) (21, 8.62826928496360778809e-02) (22, -7.18097016215324401855e-02) (23, -3.90910096466541290283e-02) (24, 1.94582492113113403320e-02) (25, -9.59056466817855834961e-02) (26, -8.11608657240867614746e-02) (27, -6.91568702459335327148e-02) (15, -1.10321715474128723145e-02) (16, -1.99606195092201232910e-02) (17, -5.53937517106533050537e-02) (18, 3.77128496766090393066e-02) (19, -9.69821661710739135742e-02) (20, 5.32115474343299865723e-02) (21, 6.18403628468513488770e-02) (22, -7.70011171698570251465e-02) (23, -3.81602942943572998047e-02) (24, 2.25772857666015625000e-02) (25, 6.07612207531929016113e-02) (26, -7.50230178236961364746e-02) (27, -7.19667747616767883301e-02) (15, -3.91413271427154541016e-03) (16, 1.92745104432106018066e-02) (17, -1.08550637960433959961e-02) (18, -1.57233253121376037598e-02) (19, -9.06959548592567443848e-02) (20, 8.32580998539924621582e-02) (21, -5.81111572682857513428e-02) (22, 3.41831669211387634277e-02) (23, 1.93603634834289550781e-02) (24, 9.86650660634040832520e-02) (25, 2.89046242833137512207e-02) (26, 5.64304739236831665039e-03) (27, -7.31446370482444763184e-02) (28, 8.98136124014854431152e-02) (29, -7.48987048864364624023e-02) (30, -6.90502747893333435059e-02) (31, -9.13472473621368408203e-02) (32, -4.40555773675441741943e-02) (33, 1.99175477027893066406e-02) (34, -1.13078579306602478027e-02) (35, 5.50672411918640136719e-04) (36, -4.23696003854274749756e-02) (37, -8.29003006219863891602e-03) (38, -4.62377853691577911377e-02) (39, -8.05292427539825439453e-02) (28, 1.47088542580604553223e-02) (29, 1.56019181013107299805e-02) (30, 4.20480445027351379395e-02) (31, -2.45299190282821655273e-02) (32, 4.05789092183113098145e-02) (33, 7.00812712311744689941e-02) (34, 7.15559497475624084473e-02) (35, -4.01465892791748046875e-02) (36, -4.07737903296947479248e-02) (37, -4.41673770546913146973e-02) (38, -3.08425426483154296875e-02) (39, -5.75157068669795989990e-02) (28, -2.27852910757064819336e-03) (29, -9.66593772172927856445e-02) (30, 6.18446543812751770020e-02) (31, -3.61345708370208740234e-03) (32, 3.22452560067176818848e-02) (33, -3.25122922658920288086e-02) (34, 2.32418999075889587402e-02) (35, 2.20588669180870056152e-02) (36, -7.41099566221237182617e-03) (37, 5.41916266083717346191e-02) (38, 3.07116284966468811035e-02) (39, 4.85334321856498718262e-02) (28, -2.58908197283744812012e-02) (29, -8.05962309241294860840e-02) (30, -5.09159006178379058838e-02) (31, 3.17395851016044616699e-02) (32, 1.11137405037879943848e-02) (33, 2.84631550312042236328e-03) (34, 5.12103512883186340332e-02) (35, -7.41774067282676696777e-02) (36, -8.15517604351043701172e-02) (37, -6.74160569906234741211e-03) (38, 1.29266828298568725586e-03) (39, 5.90271428227424621582e-02) (28, -3.66603359580039978027e-02) (29, -2.71513834595680236816e-02) (30, -8.11194479465484619141e-02) (31, 2.25658640265464782715e-02) (32, 2.86812409758567810059e-02) (33, -1.19619816541671752930e-02) (34, 6.50501623749732971191e-02) (35, -7.35972821712493896484e-02) (36, -8.62136483192443847656e-03) (37, 2.68948152661323547363e-02) (38, 2.27892547845840454102e-02) (39, -7.63761103153228759766e-02) (28, 9.43825319409370422363e-02) (29, -5.39688430726528167725e-02) (30, 4.56827655434608459473e-02) (31, -1.30284652113914489746e-02) (32, -9.97772142291069030762e-02) (33, -2.36055999994277954102e-02) (34, -6.44950419664382934570e-02) (35, -2.56680324673652648926e-02) (36, -4.20183688402175903320e-03) (37, -1.54109448194503784180e-02) (38, -9.39284563064575195312e-02) (39, -9.30880904197692871094e-02) (28, 8.74353721737861633301e-02) (29, 5.72818890213966369629e-02) (30, -6.72654956579208374023e-02) (31, -9.41163897514343261719e-02) (32, -4.94597144424915313721e-02) (33, 3.40271666646003723145e-02) (34, 6.49107471108436584473e-02) (35, 1.38799548149108886719e-02) (36, -9.31242033839225769043e-02) (37, 8.37913081049919128418e-02) (38, -6.35541826486587524414e-02) (39, 3.55570390820503234863e-02) (28, -2.81706824898719787598e-02) (29, -9.85040143132209777832e-02) (30, 6.19597509503364562988e-02) (31, 6.32079616189002990723e-02) (32, 2.83908173441886901855e-02) (33, -1.52509808540344238281e-02) (34, 8.68318453431129455566e-02) (35, 2.27733403444290161133e-02) (36, 3.07801738381385803223e-02) (37, 3.25146242976188659668e-02) (38, -9.02551338076591491699e-02) (39, 3.10029610991477966309e-02) (28, -9.10909920930862426758e-02) (29, -5.47501742839813232422e-02) (30, -9.46650728583335876465e-02) (31, 4.70717996358871459961e-03) (32, 2.98388823866844177246e-02) (33, -8.85935202240943908691e-02) (34, 1.16190910339355468750e-02) (35, 1.72742605209350585938e-02) (36, 6.86883702874183654785e-02) (37, 4.43535968661308288574e-02) (38, 2.31578722596168518066e-02) (39, -8.07713419198989868164e-02) (28, -2.16192305088043212891e-02) (29, -1.19313821196556091309e-02) (30, 3.31085994839668273926e-02) (31, -1.47434324026107788086e-02) (32, -2.81400829553604125977e-02) (33, 6.95544257760047912598e-02) (34, -7.91863948106765747070e-02) (35, 4.36892434954643249512e-02) (36, 7.10504129528999328613e-02) (37, 8.27733650803565979004e-02) (38, 6.89719617366790771484e-03) (39, -5.58778643608093261719e-04) 
