FANN_FLO_2.1
num_layers=4
learning_rate=0.700000
connection_rate=1.000000
network_type=0
learning_momentum=0.000000
training_algorithm=2
train_error_function=1
train_stop_function=0
cascade_output_change_fraction=0.010000
quickprop_decay=-0.000100
quickprop_mu=1.750000
rprop_increase_factor=1.200000
rprop_decrease_factor=0.500000
rprop_delta_min=0.000000
rprop_delta_max=50.000000
rprop_delta_zero=0.100000
cascade_output_stagnation_epochs=12
cascade_candidate_change_fraction=0.010000
cascade_candidate_stagnation_epochs=12
cascade_max_out_epochs=150
cascade_min_out_epochs=50
cascade_max_cand_epochs=150
cascade_min_cand_epochs=50
cascade_num_candidate_groups=2
bit_fail_limit=3.49999994039535522461e-01
cascade_candidate_limit=1.00000000000000000000e+03
cascade_weight_multiplier=4.00000005960464477539e-01
cascade_activation_functions_count=10
cascade_activation_functions=3 5 7 8 10 11 14 15 16 17 
cascade_activation_steepnesses_count=4
cascade_activation_steepnesses=2.50000000000000000000e-01 5.00000000000000000000e-01 7.50000000000000000000e-01 1.00000000000000000000e+00 
layer_sizes=5 5 5 5 
scale_included=0
neurons (num_inputs, activation_function, activation_steepness)=(0, 0, 0.00000000000000000000e+00) (0, 0, 0.00000000000000000000e+00) (0, 0, 0.00000000000000000000e+00) (0, 0, 0.00000000000000000000e+00) (0, 0, 0.00000000000000000000e+00) (5, 5, 5.00000000000000000000e-01) (5, 5, 5.00000000000000000000e-01) (5, 5, 5.00000000000000000000e-01) (5, 5, 5.00000000000000000000e-01) (0, 5, 0.00000000000000000000e+00) (5, 5, 5.00000000000000000000e-01) (5, 5, 5.00000000000000000000e-01) (5, 5, 5.00000000000000000000e-01) (5, 5, 5.00000000000000000000e-01) (0, 5, 0.00000000000000000000e+00) (5, 5, 5.00000000000000000000e-01) (5, 5, 5.00000000000000000000e-01) (5, 5, 5.00000000000000000000e-01) (5, 5, 5.00000000000000000000e-01) (0, 5, 0.00000000000000000000e+00) 
connections (connected_to_neuron, weight)=(0, 6.99052885174751281738e-02) (1, 4.91746738553047180176e-02) (2, -1.32939890027046203613e-02) (3, 3.02829518914222717285e-02) (4, -9.95272397994995117188e-02) (0, -3.78403477370738983154e-02) (1, 8.73183533549308776855e-02) (2, -1.17216259241104125977e-02) (3, -5.23796938359737396240e-02) (4, -4.54727053642272949219e-01) (0, 3.13892960548400878906e-04) (1, -6.82026445865631103516e-02) (2, -2.08854749798774719238e-02) (3, 4.91274222731590270996e-02) (4, -7.29993209242820739746e-02) (0, -2.68047451972961425781e-02) (1, -9.55611690878868103027e-02) (2, 4.76353541016578674316e-02) (3, -1.96878910064697265625e-02) (4, -1.19305923581123352051e-02) (5, 6.31458386778831481934e-02) (6, -1.73187926411628723145e-02) (7, 6.43028095364570617676e-02) (8, -7.57849067449569702148e-02) (9, -2.89362370967864990234e-02) (5, 6.11990466713905334473e-02) (6, 2.15986147522926330566e-02) (7, -9.84026119112968444824e-02) (8, -6.66275173425674438477e-02) (9, 2.31409072875976562500e-03) (5, 2.33352407813072204590e-02) (6, -9.67222377657890319824e-02) (7, -4.85112443566322326660e-02) (8, -8.99587497115135192871e-02) (9, 1.13460645079612731934e-02) (5, -4.80384789407253265381e-02) (6, -2.77990996837615966797e-02) (7, -1.33558362722396850586e-03) (8, 4.02398928999900817871e-02) (9, 1.98212042450904846191e-02) (10, 6.58291950821876525879e-02) (11, -5.94462193548679351807e-02) (12, 5.16185685992240905762e-02) (13, -5.50562813878059387207e-02) (14, 8.96812006831169128418e-02) (10, 7.86192491650581359863e-02) (11, 1.81389823555946350098e-02) (12, 9.41200330853462219238e-02) (13, 2.62546017765998840332e-02) (14, 9.84510853886604309082e-02) (10, -1.78105682134628295898e-02) (11, -1.05995684862136840820e-02) (12, -1.88677087426185607910e-02) (13, -5.35077638924121856689e-02) (14, 1.36155337095260620117e-02) (10, 5.21960482001304626465e-02) (11, -9.23087149858474731445e-02) (12, -6.47858530282974243164e-02) (13, 5.37934377789497375488e-02) (14, -5.89362345635890960693e-02) 
