FANN_FLO_2.1
num_layers=4
learning_rate=0.700000
connection_rate=1.000000
network_type=0
learning_momentum=0.000000
training_algorithm=2
train_error_function=1
train_stop_function=0
cascade_output_change_fraction=0.010000
quickprop_decay=-0.000100
quickprop_mu=1.750000
rprop_increase_factor=1.200000
rprop_decrease_factor=0.500000
rprop_delta_min=0.000000
rprop_delta_max=50.000000
rprop_delta_zero=0.100000
cascade_output_stagnation_epochs=12
cascade_candidate_change_fraction=0.010000
cascade_candidate_stagnation_epochs=12
cascade_max_out_epochs=150
cascade_min_out_epochs=50
cascade_max_cand_epochs=150
cascade_min_cand_epochs=50
cascade_num_candidate_groups=2
bit_fail_limit=3.49999994039535522461e-01
cascade_candidate_limit=1.00000000000000000000e+03
cascade_weight_multiplier=4.00000005960464477539e-01
cascade_activation_functions_count=10
cascade_activation_functions=3 5 7 8 10 11 14 15 16 17 
cascade_activation_steepnesses_count=4
cascade_activation_steepnesses=2.50000000000000000000e-01 5.00000000000000000000e-01 7.50000000000000000000e-01 1.00000000000000000000e+00 
layer_sizes=15 13 12 11 
scale_included=0
neurons (num_inputs, activation_function, activation_steepness)=(0, 0, 0.00000000000000000000e+00) (0, 0, 0.00000000000000000000e+00) (0, 0, 0.00000000000000000000e+00) (0, 0, 0.00000000000000000000e+00) (0, 0, 0.00000000000000000000e+00) (0, 0, 0.00000000000000000000e+00) (0, 0, 0.00000000000000000000e+00) (0, 0, 0.00000000000000000000e+00) (0, 0, 0.00000000000000000000e+00) (0, 0, 0.00000000000000000000e+00) (0, 0, 0.00000000000000000000e+00) (0, 0, 0.00000000000000000000e+00) (0, 0, 0.00000000000000000000e+00) (0, 0, 0.00000000000000000000e+00) (0, 0, 0.00000000000000000000e+00) (15, 5, 5.00000000000000000000e-01) (15, 5, 5.00000000000000000000e-01) (15, 5, 5.00000000000000000000e-01) (15, 5, 5.00000000000000000000e-01) (15, 5, 5.00000000000000000000e-01) (15, 5, 5.00000000000000000000e-01) (15, 5, 5.00000000000000000000e-01) (15, 5, 5.00000000000000000000e-01) (15, 5, 5.00000000000000000000e-01) (15, 5, 5.00000000000000000000e-01) (15, 5, 5.00000000000000000000e-01) (15, 5, 5.00000000000000000000e-01) (0, 5, 0.00000000000000000000e+00) (13, 5, 5.00000000000000000000e-01) (13, 5, 5.00000000000000000000e-01) (13, 5, 5.00000000000000000000e-01) (13, 5, 5.00000000000000000000e-01) (13, 5, 5.00000000000000000000e-01) (13, 5, 5.00000000000000000000e-01) (13, 5, 5.00000000000000000000e-01) (13, 5, 5.00000000000000000000e-01) (13, 5, 5.00000000000000000000e-01) (13, 5, 5.00000000000000000000e-01) (13, 5, 5.00000000000000000000e-01) (0, 5, 0.00000000000000000000e+00) (12, 5, 5.00000000000000000000e-01) (12, 5, 5.00000000000000000000e-01) (12, 5, 5.00000000000000000000e-01) (12, 5, 5.00000000000000000000e-01) (12, 5, 5.00000000000000000000e-01) (12, 5, 5.00000000000000000000e-01) (12, 5, 5.00000000000000000000e-01) (12, 5, 5.00000000000000000000e-01) (12, 5, 5.00000000000000000000e-01) (12, 5, 5.00000000000000000000e-01) (0, 5, 0.00000000000000000000e+00) 
connections (connected_to_neuron, weight)=(0, -4.88107874989509582520e-02) (1, -9.18332636356353759766e-02) (2, 5.07416948676109313965e-02) (3, -3.82327698171138763428e-02) (4, -3.02470102906227111816e-02) (5, 4.39762547612190246582e-02) (6, -5.08789010345935821533e-02) (7, -2.44987905025482177734e-02) (8, 5.03404363989830017090e-02) (9, 8.78825262188911437988e-02) (10, 6.13696649670600891113e-02) (11, -7.22988694906234741211e-02) (12, 3.80168631672859191895e-02) (13, -3.96758206188678741455e-02) (14, -8.51780697703361511230e-02) (0, -3.89553494751453399658e-02) (1, 6.58800452947616577148e-03) (2, 1.26108303666114807129e-02) (3, 8.55816677212715148926e-02) (4, -1.20780616998672485352e-03) (5, 6.91323801875114440918e-02) (6, -8.05158764123916625977e-02) (7, -3.81498336791992187500e-02) (8, 4.56966087222099304199e-02) (9, 2.37946659326553344727e-02) (10, 7.69400671124458312988e-02) (11, -6.45844191312789916992e-02) (12, -7.76641666889190673828e-02) (13, 5.09650632739067077637e-02) (14, 2.82431021332740783691e-02) (0, -8.54807347059249877930e-02) (1, -9.78457331657409667969e-02) (2, 3.64098325371742248535e-02) (3, 6.52609691023826599121e-02) (4, -3.60785052180290222168e-02) (5, -9.38371792435646057129e-02) (6, 9.23721492290496826172e-03) (7, 1.30425915122032165527e-02) (8, -1.83359682559967041016e-02) (9, -4.04223501682281494141e-02) (10, 9.25123691558837890625e-04) (11, -5.69662936031818389893e-02) (12, -1.27212181687355041504e-02) (13, -6.10580258071422576904e-02) (14, 3.35788726806640625000e-03) (0, 2.10072100162506103516e-03) (1, -1.33737921714782714844e-05) (2, -9.00541022419929504395e-02) (3, -8.52884575724601745605e-02) (4, -1.44317001104354858398e-02) (5, 8.73808562755584716797e-03) (6, 8.38439241051673889160e-02) (7, 5.05242496728897094727e-03) (8, 7.05882534384727478027e-02) (9, 2.95405313372611999512e-02) (10, -7.11529105901718139648e-02) (11, 4.75283339619636535645e-02) (12, 6.49561062455177307129e-02) (13, -4.88170795142650604248e-02) (14, -1.50661170482635498047e-03) (0, -6.80080056190490722656e-03) (1, -3.42978090047836303711e-02) (2, 6.47649168968200683594e-04) (3, -7.03909620642662048340e-02) (4, -6.90368488430976867676e-02) (5, 6.45691528916358947754e-02) (6, -6.42281398177146911621e-02) (7, 4.02003601193428039551e-02) (8, -2.23882570862770080566e-02) (9, 1.74358934164047241211e-02) (10, 9.97780188918113708496e-02) (11, 7.85368755459785461426e-02) (12, 6.04696050286293029785e-02) (13, -1.29431933164596557617e-02) (14, -8.25211629271507263184e-02) (0, -3.61725017428398132324e-02) (1, 8.91575142741203308105e-02) (2, 1.74654722213745117188e-02) (3, -2.62266024947166442871e-02) (4, -9.61309373378753662109e-02) (5, -9.69662293791770935059e-02) (6, 8.25114920735359191895e-02) (7, 8.77129808068275451660e-02) (8, 8.08618962764739990234e-03) (9, 5.30997589230537414551e-02) (10, 1.72535032033920288086e-02) (11, 3.69332805275917053223e-02) (12, 6.28076493740081787109e-04) (13, -1.77903920412063598633e-02) (14, 8.81161913275718688965e-02) (0, 9.91214737296104431152e-02) (1, 7.54088088870048522949e-02) (2, -4.61816191673278808594e-02) (3, -2.30871140956878662109e-04) (4, -9.49821546673774719238e-02) (5, -1.52184665203094482422e-02) (6, -3.56617197394371032715e-02) (7, -5.92102967202663421631e-02) (8, -7.50181004405021667480e-02) (9, 4.19500246644020080566e-02) (10, 5.82256093621253967285e-02) (11, -7.52400830388069152832e-02) (12, 2.04868912696838378906e-02) (13, 1.86952129006385803223e-02) (14, 1.18167176842689514160e-02) (0, 3.79657372832298278809e-02) (1, 8.25226977467536926270e-02) (2, 9.74237918853759765625e-04) (3, -4.45687957108020782471e-02) (4, -4.37039099633693695068e-02) (5, 4.84329462051391601562e-03) (6, -4.15350273251533508301e-02) (7, -6.11924193799495697021e-02) (8, -7.44372606277465820312e-03) (9, 6.65511563420295715332e-02) (10, 9.19073298573493957520e-02) (11, -9.01902318000793457031e-02) (12, 3.48444283008575439453e-03) (13, -7.46458768844604492188e-03) (14, -7.98062235116958618164e-03) (0, -8.39936733245849609375e-03) (1, -8.34311544895172119141e-03) (2, -3.25718075037002563477e-02) (3, 4.54190149903297424316e-02) (4, 9.14260223507881164551e-02) (5, -2.75539681315422058105e-02) (6, -6.97994530200958251953e-02) (7, -4.42357137799263000488e-02) (8, 1.32357329130172729492e-02) (9, -4.48175556957721710205e-02) (10, 9.77143123745918273926e-02) (11, -2.85386592149734497070e-02) (12, -2.00576335191726684570e-02) (13, 1.82012096047401428223e-02) (14, 9.01565477252006530762e-02) (0, 9.17590782046318054199e-02) (1, -4.38330546021461486816e-02) (2, 7.26792439818382263184e-02) (3, -7.26668536663055419922e-03) (4, 1.15981474518775939941e-02) (5, -7.10246562957763671875e-02) (6, 9.75766107439994812012e-02) (7, 7.00631216168403625488e-02) (8, -3.22170779109001159668e-02) (9, -9.86711680889129638672e-03) (10, 3.66142913699150085449e-02) (11, -4.03097532689571380615e-02) (12, -5.73471188545227050781e-05) (13, -5.99012784659862518311e-02) (14, 5.22256568074226379395e-02) (0, 9.19620320200920104980e-02) (1, 3.16993668675422668457e-02) (2, -5.61174601316452026367e-02) (3, -4.06097844243049621582e-02) (4, -2.28816345334053039551e-02) (5, -6.46914541721343994141e-02) (6, 3.18362489342689514160e-02) (7, 7.31891393661499023438e-03) (8, -8.92715901136398315430e-03) (9, -5.49280121922492980957e-02) (10, 6.25013634562492370605e-02) (11, -1.12128406763076782227e-02) (12, 1.65333300828933715820e-02) (13, -5.75562827289104461670e-02) (14, -9.30116325616836547852e-02) (0, 6.68988376855850219727e-03) (1, -6.57972097396850585938e-02) (2, -3.68446856737136840820e-02) (3, -2.06308737397193908691e-02) (4, 2.69361212849617004395e-02) (5, 7.47534707188606262207e-02) (6, 8.34447145462036132812e-03) (7, 2.45127230882644653320e-02) (8, 4.48165759444236755371e-02) (9, 7.61273875832557678223e-02) (10, -8.53544101119041442871e-02) (11, -1.85691416263580322266e-02) (12, -6.41823634505271911621e-02) (13, 1.45882517099380493164e-02) (14, 2.15295776724815368652e-02) (15, 8.80432948470115661621e-02) (16, 6.55027478933334350586e-03) (17, -4.67710606753826141357e-02) (18, -6.80741667747497558594e-02) (19, 6.59405067563056945801e-02) (20, 3.03472951054573059082e-02) (21, -3.27656120061874389648e-02) (22, -2.22325325012207031250e-03) (23, -6.23337849974632263184e-02) (24, 5.83072379231452941895e-02) (25, 4.28487434983253479004e-02) (26, -9.98324304819107055664e-02) (27, -5.29056191444396972656e-02) (15, -4.06179316341876983643e-02) (16, -5.73887117207050323486e-02) (17, -4.59172539412975311279e-02) (18, 6.60719498991966247559e-02) (19, -2.31859162449836730957e-02) (20, 1.72380581498146057129e-02) (21, -5.45589290559291839600e-02) (22, -9.62498039007186889648e-02) (23, -8.00848007202148437500e-03) (24, 5.37855401635169982910e-02) (25, 2.82629206776618957520e-02) (26, -6.31919056177139282227e-02) (27, 2.99129411578178405762e-02) (15, 4.29084971547126770020e-02) (16, 1.82389616966247558594e-02) (17, 6.57305791974067687988e-02) (18, -4.25032489001750946045e-02) (19, -6.02314621210098266602e-02) (20, 5.37738725543022155762e-02) (21, 6.40470311045646667480e-02) (22, -7.00252503156661987305e-03) (23, 8.56996998190879821777e-02) (24, 2.99875214695930480957e-02) (25, -7.66552239656448364258e-02) (26, -4.70659099519252777100e-02) (27, -7.22357258200645446777e-02) (15, -3.89890074729919433594e-02) (16, -8.87586846947669982910e-02) (17, 7.06130042672157287598e-02) (18, -3.88214364647865295410e-02) (19, -4.16643023490905761719e-02) (20, -7.00049251317977905273e-02) (21, 3.78985702991485595703e-03) (22, 1.24184489250183105469e-02) (23, 9.60670188069343566895e-02) (24, 8.06039497256278991699e-02) (25, -7.03434944152832031250e-02) (26, -5.84919042885303497314e-02) (27, 8.43541398644447326660e-02) (15, 2.16480270028114318848e-02) (16, 9.52936485409736633301e-02) (17, 1.26170516014099121094e-02) (18, 5.84561303257942199707e-02) (19, 2.52065733075141906738e-02) (20, -4.44744415581226348877e-02) (21, -2.33049243688583374023e-02) (22, -9.06286388635635375977e-03) (23, 1.30223184823989868164e-02) (24, 1.64636150002479553223e-02) (25, -5.52889965474605560303e-02) (26, -2.29306593537330627441e-02) (27, -9.05389189720153808594e-02) (15, -6.95892944931983947754e-02) (16, -9.29431319236755371094e-02) (17, -6.71941339969635009766e-02) (18, -1.66551992297172546387e-02) (19, -6.51788637042045593262e-02) (20, -6.18313997983932495117e-03) (21, -5.41388243436813354492e-03) (22, -9.45658534765243530273e-02) (23, 5.49954250454902648926e-02) (24, 5.29218092560768127441e-02) (25, -6.45707845687866210938e-02) (26, -4.12147156894207000732e-02) (27, -3.46597433090209960938e-02) (15, -6.85037523508071899414e-02) (16, -6.06107711791992187500e-02) (17, -5.00323623418807983398e-03) (18, -2.69956588745117187500e-02) (19, -7.62566328048706054688e-02) (20, -8.33552181720733642578e-02) (21, -3.17020267248153686523e-02) (22, 3.63604351878166198730e-02) (23, 7.51009061932563781738e-02) (24, 9.35045555233955383301e-02) (25, 9.18859913945198059082e-02) (26, -4.82040233910083770752e-02) (27, -1.55583173036575317383e-02) (15, 4.90830093622207641602e-03) (16, 6.82595893740653991699e-02) (17, 2.91526839137077331543e-02) (18, 8.19776430726051330566e-02) (19, 7.77206793427467346191e-02) (20, 5.95633909106254577637e-02) (21, 8.90345051884651184082e-02) (22, -8.94734635949134826660e-02) (23, -5.70918135344982147217e-02) (24, -7.61443600058555603027e-02) (25, 4.34339046478271484375e-03) (26, 3.74943092465400695801e-02) (27, -7.07102119922637939453e-02) (15, -4.06611822545528411865e-02) (16, -9.58388298749923706055e-03) (17, -3.52809876203536987305e-02) (18, 1.81241035461425781250e-02) (19, 5.57563677430152893066e-02) (20, -3.78474593162536621094e-03) (21, 5.75133338570594787598e-02) (22, -4.92468662559986114502e-02) (23, 6.92195966839790344238e-02) (24, 8.12567099928855895996e-02) (25, -3.26020866632461547852e-02) (26, -6.24824352562427520752e-02) (27, 1.76171287894248962402e-02) (15, -5.75011856853961944580e-02) (16, -6.89778923988342285156e-02) (17, 9.50311124324798583984e-03) (18, -5.70520758628845214844e-03) (19, 1.54637917876243591309e-02) (20, -8.55885818600654602051e-02) (21, -3.74456197023391723633e-02) (22, -5.53835295140743255615e-02) (23, 9.63890627026557922363e-02) (24, -5.97249530255794525146e-02) (25, -9.58201363682746887207e-02) (26, 8.54235664010047912598e-02) (27, -4.91984151303768157959e-02) (15, -5.29119484126567840576e-02) (16, -9.07207950949668884277e-02) (17, 5.51449730992317199707e-02) (18, 8.45823511481285095215e-02) (19, -6.14310055971145629883e-02) (20, -8.55161994695663452148e-02) (21, -2.50015258789062500000e-02) (22, 3.28800827264785766602e-03) (23, 3.26079204678535461426e-02) (24, -6.92451596260070800781e-02) (25, 9.95032563805580139160e-02) (26, -9.87874716520309448242e-03) (27, -1.84920281171798706055e-02) (28, 6.87228515744209289551e-02) (29, -2.86220461130142211914e-02) (30, 4.89059016108512878418e-02) (31, -9.37595814466476440430e-02) (32, 8.89950916171073913574e-02) (33, 9.14047136902809143066e-02) (34, -6.27374798059463500977e-02) (35, -1.50178372859954833984e-03) (36, -1.43005028367042541504e-02) (37, 5.27263209223747253418e-02) (38, 1.29096284508705139160e-02) (39, 4.82538864016532897949e-02) (28, 9.73427966237068176270e-02) (29, 9.29868221282958984375e-03) (30, 8.85289385914802551270e-02) (31, -9.84773486852645874023e-02) (32, -5.27775287628173828125e-03) (33, -6.06694892048835754395e-02) (34, -5.13892918825149536133e-02) (35, 4.00145351886749267578e-03) (36, 9.44755002856254577637e-02) (37, -6.68069422245025634766e-02) (38, 4.25704494118690490723e-02) (39, -9.10407006740570068359e-02) (28, 8.19154083728790283203e-03) (29, -5.41415475308895111084e-02) (30, 4.15672138333320617676e-02) (31, 3.89463827013969421387e-02) (32, -5.46382889151573181152e-02) (33, -6.83115422725677490234e-02) (34, -7.95456469058990478516e-02) (35, -8.59154388308525085449e-02) (36, 3.06642055511474609375e-03) (37, 6.93602487444877624512e-02) (38, -7.96750187873840332031e-02) (39, -7.93848931789398193359e-03) (28, 6.07649609446525573730e-02) (29, -4.24124971032142639160e-02) (30, 9.05597284436225891113e-02) (31, -5.35355433821678161621e-02) (32, -8.96861776709556579590e-02) (33, 3.46934795379638671875e-03) (34, 9.47183445096015930176e-02) (35, -9.23433899879455566406e-02) (36, -8.72319638729095458984e-02) (37, 8.32472518086433410645e-02) (38, -9.08207371830940246582e-02) (39, 7.49027729034423828125e-03) (28, -7.74222314357757568359e-02) (29, -4.22100313007831573486e-02) (30, -8.85082706809043884277e-02) (31, -8.29467326402664184570e-02) (32, -9.01696830987930297852e-03) (33, 5.40621802210807800293e-02) (34, -7.39874318242073059082e-02) (35, 9.91745665669441223145e-02) (36, 9.99206379055976867676e-02) (37, 6.75797834992408752441e-02) (38, 3.81209477782249450684e-02) (39, -5.47176562249660491943e-02) (28, 9.92682501673698425293e-02) (29, 5.85753098130226135254e-02) (30, -4.06330935657024383545e-02) (31, 2.33466923236846923828e-03) (32, 2.79355570673942565918e-02) (33, -2.03081145882606506348e-02) (34, 9.43961814045906066895e-02) (35, -1.12994909286499023438e-02) (36, 3.72793897986412048340e-02) (37, 8.49558934569358825684e-02) (38, 3.51649597287178039551e-02) (39, 4.75932136178016662598e-02) (28, -1.15747526288032531738e-02) (29, 2.98833027482032775879e-02) (30, 5.52498176693916320801e-02) (31, 1.19328498840332031250e-03) (32, 1.31305605173110961914e-02) (33, 6.44290968775749206543e-02) (34, -9.13164392113685607910e-02) (35, 3.57083305716514587402e-02) (36, -7.77809396386146545410e-02) (37, -7.98247084021568298340e-02) (38, 5.27616068720817565918e-02) (39, 1.32020935416221618652e-02) (28, 7.42374733090400695801e-02) (29, 7.87741616368293762207e-02) (30, 1.23766660690307617188e-02) (31, 7.41581097245216369629e-02) (32, 4.63539436459541320801e-02) (33, -4.95023913681507110596e-02) (34, -8.05595442652702331543e-02) (35, 4.56221923232078552246e-02) (36, -9.09270867705345153809e-02) (37, -2.11926326155662536621e-02) (38, -5.20431473851203918457e-02) (39, 3.70084717869758605957e-02) (28, 5.84992542862892150879e-02) (29, -5.76469711959362030029e-02) (30, -7.42910206317901611328e-02) (31, -4.22135740518569946289e-03) (32, -7.26910755038261413574e-02) (33, 6.08739480376243591309e-02) (34, -5.66281452775001525879e-02) (35, 1.57341733574867248535e-02) (36, -9.24275070428848266602e-03) (37, 9.86216738820075988770e-02) (38, -8.30725431442260742188e-02) (39, -9.61121916770935058594e-02) (28, 6.30507692694664001465e-02) (29, -7.43889808654785156250e-02) (30, 3.95961478352546691895e-02) (31, 8.52698162198066711426e-02) (32, -5.42136915028095245361e-02) (33, -7.64225423336029052734e-03) (34, -1.52807682752609252930e-03) (35, -7.99762159585952758789e-02) (36, -2.88680791854858398438e-02) (37, -8.91514196991920471191e-02) (38, 9.41819027066230773926e-02) (39, -8.25141295790672302246e-02) 
