FANN_FLO_2.1
num_layers=4
learning_rate=0.700000
connection_rate=1.000000
network_type=0
learning_momentum=0.000000
training_algorithm=2
train_error_function=1
train_stop_function=0
cascade_output_change_fraction=0.010000
quickprop_decay=-0.000100
quickprop_mu=1.750000
rprop_increase_factor=1.200000
rprop_decrease_factor=0.500000
rprop_delta_min=0.000000
rprop_delta_max=50.000000
rprop_delta_zero=0.100000
cascade_output_stagnation_epochs=12
cascade_candidate_change_fraction=0.010000
cascade_candidate_stagnation_epochs=12
cascade_max_out_epochs=150
cascade_min_out_epochs=50
cascade_max_cand_epochs=150
cascade_min_cand_epochs=50
cascade_num_candidate_groups=2
bit_fail_limit=3.49999994039535522461e-01
cascade_candidate_limit=1.00000000000000000000e+03
cascade_weight_multiplier=4.00000005960464477539e-01
cascade_activation_functions_count=10
cascade_activation_functions=3 5 7 8 10 11 14 15 16 17 
cascade_activation_steepnesses_count=4
cascade_activation_steepnesses=2.50000000000000000000e-01 5.00000000000000000000e-01 7.50000000000000000000e-01 1.00000000000000000000e+00 
layer_sizes=15 13 12 11 
scale_included=0
neurons (num_inputs, activation_function, activation_steepness)=(0, 0, 0.00000000000000000000e+00) (0, 0, 0.00000000000000000000e+00) (0, 0, 0.00000000000000000000e+00) (0, 0, 0.00000000000000000000e+00) (0, 0, 0.00000000000000000000e+00) (0, 0, 0.00000000000000000000e+00) (0, 0, 0.00000000000000000000e+00) (0, 0, 0.00000000000000000000e+00) (0, 0, 0.00000000000000000000e+00) (0, 0, 0.00000000000000000000e+00) (0, 0, 0.00000000000000000000e+00) (0, 0, 0.00000000000000000000e+00) (0, 0, 0.00000000000000000000e+00) (0, 0, 0.00000000000000000000e+00) (0, 0, 0.00000000000000000000e+00) (15, 5, 5.00000000000000000000e-01) (15, 5, 5.00000000000000000000e-01) (15, 5, 5.00000000000000000000e-01) (15, 5, 5.00000000000000000000e-01) (15, 5, 5.00000000000000000000e-01) (15, 5, 5.00000000000000000000e-01) (15, 5, 5.00000000000000000000e-01) (15, 5, 5.00000000000000000000e-01) (15, 5, 5.00000000000000000000e-01) (15, 5, 5.00000000000000000000e-01) (15, 5, 5.00000000000000000000e-01) (15, 5, 5.00000000000000000000e-01) (0, 5, 0.00000000000000000000e+00) (13, 5, 5.00000000000000000000e-01) (13, 5, 5.00000000000000000000e-01) (13, 5, 5.00000000000000000000e-01) (13, 5, 5.00000000000000000000e-01) (13, 5, 5.00000000000000000000e-01) (13, 5, 5.00000000000000000000e-01) (13, 5, 5.00000000000000000000e-01) (13, 5, 5.00000000000000000000e-01) (13, 5, 5.00000000000000000000e-01) (13, 5, 5.00000000000000000000e-01) (13, 5, 5.00000000000000000000e-01) (0, 5, 0.00000000000000000000e+00) (12, 5, 5.00000000000000000000e-01) (12, 5, 5.00000000000000000000e-01) (12, 5, 5.00000000000000000000e-01) (12, 5, 5.00000000000000000000e-01) (12, 5, 5.00000000000000000000e-01) (12, 5, 5.00000000000000000000e-01) (12, 5, 5.00000000000000000000e-01) (12, 5, 5.00000000000000000000e-01) (12, 5, 5.00000000000000000000e-01) (12, 5, 5.00000000000000000000e-01) (0, 5, 0.00000000000000000000e+00) 
connections (connected_to_neuron, weight)=(0, 1.36798843741416931152e-02) (1, 7.83099904656410217285e-02) (2, -5.38002811372280120850e-02) (3, 5.48171028494834899902e-02) (4, 1.33309960365295410156e-02) (5, -6.07883930206298828125e-03) (6, 2.66572609543800354004e-02) (7, 9.86213162541389465332e-02) (8, -3.86824421584606170654e-02) (9, 7.11319521069526672363e-02) (10, 9.39930975437164306641e-03) (11, 9.76363047957420349121e-02) (12, -6.13389387726783752441e-02) (13, 9.72270891070365905762e-02) (14, -2.71962881088256835938e-02) (0, -2.70541459321975708008e-02) (1, 4.05929237604141235352e-03) (2, 4.53676655888557434082e-02) (3, -8.10730457305908203125e-02) (4, 4.22350391745567321777e-02) (5, -8.59862640500068664551e-02) (6, 8.54379311203956604004e-02) (7, 4.19589951634407043457e-02) (8, 9.66104790568351745605e-02) (9, -3.33511829376220703125e-02) (10, 6.17085322737693786621e-02) (11, -5.07678352296352386475e-02) (12, 8.17815884947776794434e-02) (13, 5.93987330794334411621e-02) (14, -3.74874025583267211914e-02) (0, -8.33060145378112792969e-02) (1, -2.69213765859603881836e-02) (2, -5.91774098575115203857e-02) (3, -3.71062904596328735352e-02) (4, -7.21042677760124206543e-02) (5, 5.41535839438438415527e-02) (6, 5.68148717284202575684e-02) (7, 5.45529797673225402832e-02) (8, 5.27749136090278625488e-02) (9, -8.18675681948661804199e-02) (10, 2.56849452853202819824e-02) (11, -3.78257893025875091553e-02) (12, -8.42312723398208618164e-02) (13, 6.43460080027580261230e-02) (14, -4.05987016856670379639e-02) (0, -1.14275589585304260254e-02) (1, -6.27081394195556640625e-02) (2, 6.34605959057807922363e-02) (3, -6.60598874092102050781e-02) (4, -4.37811911106109619141e-02) (5, 5.69561868906021118164e-03) (6, -5.20461425185203552246e-02) (7, -5.83432577550411224365e-02) (8, -5.23453913629055023193e-02) (9, -5.54356724023818969727e-02) (10, 8.30556452274322509766e-03) (11, -9.06368568539619445801e-02) (12, -6.20350986719131469727e-03) (13, -9.91285592317581176758e-03) (14, 6.87618926167488098145e-02) (0, 5.63090965151786804199e-02) (1, 6.78113847970962524414e-03) (2, -5.81594966351985931396e-02) (3, 9.71316769719123840332e-02) (4, 6.96748569607734680176e-02) (5, -3.02637666463851928711e-02) (6, 5.12852743268013000488e-02) (7, 2.64897271990776062012e-02) (8, -7.57107809185981750488e-02) (9, 4.06017154455184936523e-03) (10, 4.46221455931663513184e-02) (11, 4.99741509556770324707e-02) (12, 6.62343874573707580566e-02) (13, 6.03908821940422058105e-02) (14, 1.43201574683189392090e-02) (0, -7.43643194437026977539e-02) (1, -5.10366745293140411377e-02) (2, 5.16120269894599914551e-02) (3, 8.90962705016136169434e-02) (4, -1.70965567231178283691e-02) (5, -9.21691805124282836914e-02) (6, -5.20811229944229125977e-03) (7, 3.08573022484779357910e-02) (8, -5.05124330520629882812e-02) (9, 4.24465015530586242676e-02) (10, 7.54216387867927551270e-02) (11, 5.77931329607963562012e-02) (12, 5.18096461892127990723e-02) (13, -3.07818800210952758789e-02) (14, -5.21197281777858734131e-02) (0, 2.05715298652648925781e-02) (1, -7.44727849960327148438e-02) (2, 5.46614006161689758301e-02) (3, 6.24120309948921203613e-02) (4, -7.73410946130752563477e-02) (5, 2.43362560868263244629e-02) (6, -6.78517371416091918945e-02) (7, 7.39441737532615661621e-02) (8, -4.91740219295024871826e-02) (9, -4.35625202953815460205e-02) (10, -2.19956487417221069336e-02) (11, 9.54481288790702819824e-02) (12, -9.35883596539497375488e-02) (13, -5.57612627744674682617e-02) (14, 5.58390095829963684082e-02) (0, 2.07317918539047241211e-02) (1, -3.01255732774734497070e-02) (2, -9.51976627111434936523e-02) (3, -2.76561826467514038086e-02) (4, -4.10293117165565490723e-02) (5, -1.22942179441452026367e-02) (6, -1.98253616690635681152e-02) (7, 5.37625774741172790527e-02) (8, -8.14369246363639831543e-02) (9, 2.96621993184089660645e-02) (10, -3.79091501235961914062e-03) (11, 9.39847156405448913574e-02) (12, -1.25446766614913940430e-02) (13, -5.19812665879726409912e-02) (14, -3.67971733212471008301e-02) (0, 3.53356078267097473145e-02) (1, 6.85902610421180725098e-02) (2, -1.12699568271636962891e-02) (3, -1.00029930472373962402e-02) (4, 3.10022905468940734863e-02) (5, 1.13889425992965698242e-02) (6, -8.56667384505271911621e-02) (7, 6.31505623459815979004e-02) (8, -1.46668776869773864746e-02) (9, -3.48407551646232604980e-02) (10, -8.04119557142257690430e-02) (11, 6.33374676108360290527e-02) (12, -3.93926277756690979004e-02) (13, -7.40003138780593872070e-02) (14, -9.24237966537475585938e-02) (0, -8.35536196827888488770e-02) (1, 4.67314794659614562988e-02) (2, -2.25493758916854858398e-02) (3, -7.87512809038162231445e-02) (4, -8.09247046709060668945e-02) (5, 3.64213064312934875488e-02) (6, 8.95450264215469360352e-03) (7, -7.50072300434112548828e-04) (8, -9.81610268354415893555e-03) (9, 2.75175645947456359863e-02) (10, -7.10878670215606689453e-02) (11, 8.63929912447929382324e-02) (12, 2.15022787451744079590e-02) (13, 1.63674578070640563965e-02) (14, -6.55882805585861206055e-02) (0, 8.47051069140434265137e-02) (1, -4.82969395816326141357e-02) (2, -9.69980210065841674805e-02) (3, -2.65648514032363891602e-02) (4, 4.17000725865364074707e-02) (5, 3.40042784810066223145e-02) (6, 8.48240926861763000488e-02) (7, 5.60333356261253356934e-02) (8, -2.84516811370849609375e-03) (9, -2.98427790403366088867e-02) (10, -7.88074210286140441895e-02) (11, 1.67428702116012573242e-02) (12, -6.65053129196166992188e-02) (13, -1.82000473141670227051e-02) (14, 4.27425578236579895020e-02) (0, -5.89291118085384368896e-02) (1, -1.75366550683975219727e-03) (2, -1.05259642004966735840e-02) (3, 1.85215100646018981934e-02) (4, 1.94950476288795471191e-02) (5, 8.54933261871337890625e-03) (6, -4.50571738183498382568e-02) (7, -7.15504512190818786621e-02) (8, -9.22007411718368530273e-02) (9, 4.51267287135124206543e-02) (10, 5.59671148657798767090e-02) (11, -6.32886141538619995117e-02) (12, 3.15197184681892395020e-02) (13, -2.25306004285812377930e-02) (14, 5.30788525938987731934e-02) (15, 6.59314319491386413574e-02) (16, -3.78254912793636322021e-02) (17, -9.52180922031402587891e-02) (18, 6.89334049820899963379e-02) (19, 3.56096699833869934082e-02) (20, 4.64819744229316711426e-02) (21, 2.93767452239990234375e-03) (22, 2.04337611794471740723e-02) (23, 2.51531600952148437500e-03) (24, -9.99074950814247131348e-02) (25, 9.05909761786460876465e-02) (26, 2.37078890204429626465e-02) (27, 1.68353766202926635742e-02) (15, -7.59143307805061340332e-02) (16, -9.44921523332595825195e-02) (17, -4.04220633208751678467e-02) (18, -3.48434373736381530762e-02) (19, 3.75417619943618774414e-03) (20, 4.90519627928733825684e-02) (21, 8.36780741810798645020e-02) (22, -7.67507702112197875977e-02) (23, -4.23987023532390594482e-02) (24, -6.13790974020957946777e-02) (25, -4.83012199401855468750e-02) (26, -3.45994457602500915527e-02) (27, 8.37476328015327453613e-02) (15, -9.23340991139411926270e-02) (16, 2.11194902658462524414e-03) (17, 1.52673348784446716309e-02) (18, -1.48646980524063110352e-02) (19, -4.48092035949230194092e-02) (20, -1.88012346625328063965e-02) (21, 4.73098233342170715332e-02) (22, -4.00272905826568603516e-02) (23, -4.98678348958492279053e-02) (24, -1.70805305242538452148e-02) (25, -9.35453101992607116699e-02) (26, 5.30698373913764953613e-02) (27, -9.66467633843421936035e-02) (15, 8.97000730037689208984e-03) (16, 5.31623438000679016113e-02) (17, 9.39442142844200134277e-02) (18, -6.73221051692962646484e-02) (19, -3.00022736191749572754e-02) (20, -8.19701105356216430664e-02) (21, -6.18142560124397277832e-02) (22, 2.95756533741950988770e-02) (23, -1.68135538697242736816e-02) (24, 4.19399216771125793457e-02) (25, -2.13723629713058471680e-02) (26, -3.31354811787605285645e-02) (27, 6.51891604065895080566e-02) (15, 3.62289324402809143066e-02) (16, 5.48543035984039306641e-03) (17, -8.31120610237121582031e-02) (18, -9.83705148100852966309e-02) (19, -1.07669457793235778809e-02) (20, -7.54461660981178283691e-02) (21, 3.74142825603485107422e-03) (22, -9.54996049404144287109e-02) (23, 9.68913733959197998047e-03) (24, 5.89322373270988464355e-02) (25, -1.43008381128311157227e-02) (26, -4.30010519921779632568e-02) (27, -8.10950621962547302246e-02) (15, 3.58313396573066711426e-02) (16, 3.99184301495552062988e-02) (17, -7.46403709053993225098e-02) (18, -1.10988244414329528809e-02) (19, 4.32716682553291320801e-02) (20, 3.43296453356742858887e-02) (21, -5.79364784061908721924e-02) (22, 3.72158810496330261230e-02) (23, 6.70075491070747375488e-02) (24, 1.20612531900405883789e-02) (25, 5.52457645535469055176e-02) (26, -9.48067158460617065430e-02) (27, -5.83630912005901336670e-02) (15, -6.15677945315837860107e-02) (16, 4.71332147717475891113e-02) (17, 2.02645435929298400879e-02) (18, 5.29672950506210327148e-03) (19, 1.23223662376403808594e-02) (20, -4.35065291821956634521e-02) (21, -8.92178490757942199707e-02) (22, 2.92103067040443420410e-02) (23, -4.18770425021648406982e-02) (24, 1.51991844177246093750e-05) (25, 5.37641420960426330566e-02) (26, 6.18643835186958312988e-02) (27, 4.51560318470001220703e-03) (15, -3.65467220544815063477e-02) (16, 2.07966119050979614258e-02) (17, 9.02147665619850158691e-02) (18, 2.04522237181663513184e-02) (19, 3.97015586495399475098e-02) (20, 2.60460898280143737793e-02) (21, -3.96293513476848602295e-02) (22, 6.50611743330955505371e-02) (23, -8.50527361035346984863e-02) (24, -9.63576957583427429199e-02) (25, -6.09181821346282958984e-04) (26, -4.29892130196094512939e-02) (27, 4.08581718802452087402e-02) (15, -3.36016491055488586426e-02) (16, 6.90720304846763610840e-02) (17, -3.89606505632400512695e-03) (18, -2.84083634614944458008e-02) (19, -8.92910584807395935059e-02) (20, 3.45361456274986267090e-02) (21, -8.12751576304435729980e-02) (22, 3.09734866023063659668e-02) (23, -6.01671300828456878662e-02) (24, 3.10472175478935241699e-02) (25, 8.74669626355171203613e-02) (26, -4.93849813938140869141e-02) (27, -3.97424884140491485596e-02) (15, -5.44100850820541381836e-02) (16, 5.06302192807197570801e-02) (17, -8.59783515334129333496e-02) (18, -9.25457030534744262695e-02) (19, -4.48541827499866485596e-02) (20, -2.25250720977783203125e-02) (21, 2.82509103417396545410e-02) (22, -5.46394214034080505371e-02) (23, 9.79271605610847473145e-02) (24, -3.20475324988365173340e-02) (25, 7.14066699147224426270e-02) (26, -4.17021997272968292236e-02) (27, -6.69863522052764892578e-02) (15, 8.63539353013038635254e-02) (16, -3.80599014461040496826e-02) (17, 3.24044600129127502441e-02) (18, -5.66352754831314086914e-02) (19, -9.72017273306846618652e-02) (20, 9.88028123974800109863e-02) (21, -8.75632464885711669922e-02) (22, -1.09778344631195068359e-03) (23, -2.96055525541305541992e-02) (24, -7.68542960286140441895e-02) (25, -6.65616467595100402832e-02) (26, -1.08807161450386047363e-02) (27, 5.41191920638084411621e-02) (28, -2.67287716269493103027e-02) (29, -7.98335075378417968750e-02) (30, 4.15861532092094421387e-02) (31, 2.38862410187721252441e-02) (32, -1.95759981870651245117e-02) (33, 8.71760621666908264160e-02) (34, -2.54835337400436401367e-02) (35, -5.55434077978134155273e-03) (36, 9.46303680539131164551e-02) (37, 2.96622887253761291504e-02) (38, 7.19205811619758605957e-02) (39, 2.28812694549560546875e-02) (28, 7.50228688120841979980e-02) (29, 6.98477402329444885254e-02) (30, 9.08337309956550598145e-02) (31, 4.64295372366905212402e-02) (32, -7.18544721603393554688e-02) (33, -7.61526226997375488281e-02) (34, 3.27834710478782653809e-02) (35, -9.91436839103698730469e-03) (36, 5.62518313527107238770e-02) (37, 7.61482045054435729980e-02) (38, -7.11609423160552978516e-03) (39, 5.50546571612358093262e-02) (28, 8.85849669575691223145e-02) (29, 9.17861238121986389160e-02) (30, -7.45509043335914611816e-02) (31, -8.82693454623222351074e-02) (32, -7.47755169868469238281e-02) (33, 1.45683884620666503906e-02) (34, 6.58498480916023254395e-02) (35, -1.50429457426071166992e-03) (36, 3.47348824143409729004e-02) (37, 7.43599981069564819336e-03) (38, -7.76180550456047058105e-02) (39, -8.48411098122596740723e-02) (28, -5.38793951272964477539e-03) (29, -3.10159474611282348633e-03) (30, 9.60455089807510375977e-03) (31, -1.07575729489326477051e-02) (32, -7.34393149614334106445e-02) (33, -1.84748694300651550293e-02) (34, -8.78762975335121154785e-02) (35, -9.84164476394653320312e-02) (36, -4.86271381378173828125e-02) (37, -9.70425605773925781250e-02) (38, 4.80130985379219055176e-02) (39, -2.04816013574600219727e-02) (28, -7.31951743364334106445e-02) (29, -1.92034393548965454102e-02) (30, 6.96040317416191101074e-02) (31, 8.30566659569740295410e-02) (32, -4.30552437901496887207e-02) (33, -3.75120639801025390625e-02) (34, 3.81113216280937194824e-02) (35, -5.44702894985675811768e-02) (36, -4.57259416580200195312e-02) (37, 6.35604187846183776855e-02) (38, -4.27396297454833984375e-02) (39, -2.05014646053314208984e-02) (28, -2.18712016940116882324e-02) (29, -7.68897756934165954590e-02) (30, 7.79942348599433898926e-02) (31, -8.71363207697868347168e-02) (32, 3.05462256073951721191e-02) (33, -9.96238142251968383789e-02) (34, -7.19774365425109863281e-02) (35, -7.48417079448699951172e-02) (36, -2.72540748119354248047e-03) (37, 3.76271083950996398926e-02) (38, 1.44007205963134765625e-02) (39, 2.38352790474891662598e-02) (28, -8.08477625250816345215e-02) (29, 2.65244171023368835449e-02) (30, 2.54188254475593566895e-02) (31, -2.94748991727828979492e-02) (32, 2.94818505644798278809e-02) (33, -2.65680775046348571777e-02) (34, 5.00435009598731994629e-02) (35, 5.62866851687431335449e-02) (36, 5.42284920811653137207e-02) (37, 1.96475163102149963379e-02) (38, 3.93433496356010437012e-02) (39, -8.88267606496810913086e-02) (28, 8.21354463696479797363e-02) (29, -2.25453451275825500488e-02) (30, -4.32970486581325531006e-02) (31, -6.35904818773269653320e-02) (32, -5.89849315583705902100e-02) (33, 1.39633268117904663086e-02) (34, 1.59080475568771362305e-02) (35, 1.91438645124435424805e-02) (36, 3.70735600590705871582e-02) (37, -6.09771162271499633789e-03) (38, 3.20075377821922302246e-02) (39, -3.23802307248115539551e-02) (28, -5.72152435779571533203e-03) (29, 6.00301101803779602051e-02) (30, -7.22193717956542968750e-03) (31, 9.15530696511268615723e-02) (32, -2.34277546405792236328e-03) (33, -9.28212255239486694336e-02) (34, 1.53883472084999084473e-02) (35, 1.68094635009765625000e-02) (36, 3.37032005190849304199e-02) (37, -5.91928176581859588623e-02) (38, 8.73345658183097839355e-02) (39, -3.68149504065513610840e-02) (28, 1.42391100525856018066e-02) (29, 3.73780503869056701660e-02) (30, -8.05282741785049438477e-02) (31, -3.15324068069458007812e-02) (32, -4.29744236171245574951e-02) (33, 5.88150694966316223145e-02) (34, -2.03591659665107727051e-02) (35, -6.08389712870121002197e-02) (36, -6.37302845716476440430e-02) (37, 3.63437905907630920410e-02) (38, -2.44294553995132446289e-02) (39, -2.27152109146118164062e-02) 
