FANN_FLO_2.1
num_layers=4
learning_rate=0.700000
connection_rate=1.000000
network_type=0
learning_momentum=0.000000
training_algorithm=2
train_error_function=1
train_stop_function=0
cascade_output_change_fraction=0.010000
quickprop_decay=-0.000100
quickprop_mu=1.750000
rprop_increase_factor=1.200000
rprop_decrease_factor=0.500000
rprop_delta_min=0.000000
rprop_delta_max=50.000000
rprop_delta_zero=0.100000
cascade_output_stagnation_epochs=12
cascade_candidate_change_fraction=0.010000
cascade_candidate_stagnation_epochs=12
cascade_max_out_epochs=150
cascade_min_out_epochs=50
cascade_max_cand_epochs=150
cascade_min_cand_epochs=50
cascade_num_candidate_groups=2
bit_fail_limit=3.49999994039535522461e-01
cascade_candidate_limit=1.00000000000000000000e+03
cascade_weight_multiplier=4.00000005960464477539e-01
cascade_activation_functions_count=10
cascade_activation_functions=3 5 7 8 10 11 14 15 16 17 
cascade_activation_steepnesses_count=4
cascade_activation_steepnesses=2.50000000000000000000e-01 5.00000000000000000000e-01 7.50000000000000000000e-01 1.00000000000000000000e+00 
layer_sizes=15 13 12 11 
scale_included=0
neurons (num_inputs, activation_function, activation_steepness)=(0, 0, 0.00000000000000000000e+00) (0, 0, 0.00000000000000000000e+00) (0, 0, 0.00000000000000000000e+00) (0, 0, 0.00000000000000000000e+00) (0, 0, 0.00000000000000000000e+00) (0, 0, 0.00000000000000000000e+00) (0, 0, 0.00000000000000000000e+00) (0, 0, 0.00000000000000000000e+00) (0, 0, 0.00000000000000000000e+00) (0, 0, 0.00000000000000000000e+00) (0, 0, 0.00000000000000000000e+00) (0, 0, 0.00000000000000000000e+00) (0, 0, 0.00000000000000000000e+00) (0, 0, 0.00000000000000000000e+00) (0, 0, 0.00000000000000000000e+00) (15, 5, 5.00000000000000000000e-01) (15, 5, 5.00000000000000000000e-01) (15, 5, 5.00000000000000000000e-01) (15, 5, 5.00000000000000000000e-01) (15, 5, 5.00000000000000000000e-01) (15, 5, 5.00000000000000000000e-01) (15, 5, 5.00000000000000000000e-01) (15, 5, 5.00000000000000000000e-01) (15, 5, 5.00000000000000000000e-01) (15, 5, 5.00000000000000000000e-01) (15, 5, 5.00000000000000000000e-01) (15, 5, 5.00000000000000000000e-01) (0, 5, 0.00000000000000000000e+00) (13, 5, 5.00000000000000000000e-01) (13, 5, 5.00000000000000000000e-01) (13, 5, 5.00000000000000000000e-01) (13, 5, 5.00000000000000000000e-01) (13, 5, 5.00000000000000000000e-01) (13, 5, 5.00000000000000000000e-01) (13, 5, 5.00000000000000000000e-01) (13, 5, 5.00000000000000000000e-01) (13, 5, 5.00000000000000000000e-01) (13, 5, 5.00000000000000000000e-01) (13, 5, 5.00000000000000000000e-01) (0, 5, 0.00000000000000000000e+00) (12, 5, 5.00000000000000000000e-01) (12, 5, 5.00000000000000000000e-01) (12, 5, 5.00000000000000000000e-01) (12, 5, 5.00000000000000000000e-01) (12, 5, 5.00000000000000000000e-01) (12, 5, 5.00000000000000000000e-01) (12, 5, 5.00000000000000000000e-01) (12, 5, 5.00000000000000000000e-01) (12, 5, 5.00000000000000000000e-01) (12, 5, 5.00000000000000000000e-01) (0, 5, 0.00000000000000000000e+00) 
connections (connected_to_neuron, weight)=(0, 8.94099548459053039551e-02) (1, 4.07691821455955505371e-02) (2, 4.96681556105613708496e-02) (3, 6.75813481211662292480e-02) (4, -6.73437863588333129883e-03) (5, -1.45699754357337951660e-02) (6, -1.18534043431282043457e-02) (7, -7.76808857917785644531e-02) (8, -7.37724900245666503906e-02) (9, 9.49769839644432067871e-02) (10, 6.75189569592475891113e-02) (11, -7.49379917979240417480e-02) (12, 6.92594423890113830566e-02) (13, -9.15315449237823486328e-02) (14, -4.78864684700965881348e-02) (0, 9.01625230908393859863e-02) (1, -5.84027208387851715088e-02) (2, -7.69516378641128540039e-02) (3, 9.12153795361518859863e-02) (4, -1.80625170469284057617e-03) (5, -2.56834924221038818359e-03) (6, 5.19529953598976135254e-02) (7, 3.79685685038566589355e-02) (8, -4.98193614184856414795e-02) (9, -2.53431349992752075195e-02) (10, 1.68064236640930175781e-02) (11, 7.78942629694938659668e-02) (12, -3.11774760484695434570e-02) (13, -7.32396543025970458984e-02) (14, -6.19972459971904754639e-02) (0, -9.00765284895896911621e-02) (1, -8.38296934962272644043e-02) (2, 7.87719413638114929199e-02) (3, 5.95916286110877990723e-02) (4, 8.37516561150550842285e-02) (5, -2.79624313116073608398e-02) (6, -5.49783408641815185547e-02) (7, -2.81017422676086425781e-02) (8, -5.64331561326980590820e-03) (9, -2.87508368492126464844e-02) (10, -3.31247597932815551758e-02) (11, -3.81243713200092315674e-02) (12, -3.68882715702056884766e-03) (13, -6.38653188943862915039e-02) (14, -2.96559110283851623535e-02) (0, 4.84246984124183654785e-02) (1, -7.37028047442436218262e-02) (2, 1.19413733482360839844e-02) (3, 7.14730694890022277832e-02) (4, -8.24874192476272583008e-02) (5, -8.98648798465728759766e-02) (6, -3.10952886939048767090e-02) (7, 6.94655850529670715332e-02) (8, 4.81036975979804992676e-02) (9, 1.90853476524353027344e-02) (10, -5.58775626122951507568e-02) (11, -3.50898951292037963867e-02) (12, -3.02039086818695068359e-03) (13, 1.29449591040611267090e-02) (14, -8.32954794168472290039e-03) (0, 3.49823608994483947754e-02) (1, 2.28684395551681518555e-02) (2, 7.84076750278472900391e-03) (3, 1.37543082237243652344e-02) (4, -1.75399333238601684570e-02) (5, -8.40757787227630615234e-03) (6, 8.57918784022331237793e-02) (7, 2.74817273020744323730e-02) (8, 6.34906813502311706543e-02) (9, -1.98514461517333984375e-02) (10, 9.87308844923973083496e-02) (11, -6.96340724825859069824e-02) (12, 4.20241877436637878418e-02) (13, -4.95793670415878295898e-03) (14, -3.34993898868560791016e-02) (0, -8.76317247748374938965e-02) (1, -5.65332397818565368652e-02) (2, -7.20219314098358154297e-03) (3, 2.43096500635147094727e-02) (4, -8.50601717829704284668e-02) (5, 1.03103891015052795410e-02) (6, 3.44447568058967590332e-02) (7, -1.61554664373397827148e-02) (8, -2.02240347862243652344e-02) (9, -1.74515470862388610840e-02) (10, -9.70701128244400024414e-02) (11, 2.38984003663063049316e-02) (12, 4.74585667252540588379e-02) (13, -9.05096530914306640625e-05) (14, -6.31566345691680908203e-02) (0, -6.08709864318370819092e-02) (1, -6.51081502437591552734e-02) (2, 5.97118064761161804199e-02) (3, 4.69697788357734680176e-02) (4, 4.86461594700813293457e-02) (5, -5.78281320631504058838e-02) (6, -6.14377968013286590576e-02) (7, 3.44380214810371398926e-02) (8, 6.96535930037498474121e-02) (9, -9.79471132159233093262e-02) (10, -8.54134261608123779297e-02) (11, 6.83844760060310363770e-02) (12, -6.75811916589736938477e-02) (13, 5.66107705235481262207e-02) (14, -3.65734547376632690430e-02) (0, -1.08058005571365356445e-03) (1, 6.89790323376655578613e-02) (2, 6.89331442117691040039e-03) (3, 9.17172357439994812012e-02) (4, -6.71131908893585205078e-03) (5, 2.18331366777420043945e-02) (6, 2.02761590480804443359e-03) (7, -7.22665488719940185547e-02) (8, -9.43223312497138977051e-02) (9, 8.18035826086997985840e-02) (10, 1.02818980813026428223e-02) (11, -9.13924425840377807617e-02) (12, 5.70198148488998413086e-03) (13, -4.22595404088497161865e-02) (14, 8.51704925298690795898e-03) (0, 4.25453558564186096191e-02) (1, -3.13052535057067871094e-03) (2, 4.34089079499244689941e-02) (3, 2.25715339183807373047e-03) (4, -5.61607442796230316162e-02) (5, -7.94494152069091796875e-03) (6, 4.44290116429328918457e-02) (7, -1.75985321402549743652e-02) (8, -7.35069140791893005371e-02) (9, 1.40826106071472167969e-02) (10, -1.55456513166427612305e-02) (11, -5.89203387498855590820e-02) (12, -1.75328999757766723633e-02) (13, 1.68731659650802612305e-02) (14, 9.76904258131980895996e-02) (0, 4.58936467766761779785e-02) (1, -8.42074155807495117188e-02) (2, 6.66694715619087219238e-02) (3, -4.72130477428436279297e-02) (4, -9.24901813268661499023e-02) (5, -4.00418601930141448975e-02) (6, 7.46200755238533020020e-02) (7, 9.53743606805801391602e-03) (8, -1.23084038496017456055e-02) (9, 8.02977606654167175293e-02) (10, -8.65898281335830688477e-03) (11, 9.79734882712364196777e-02) (12, 8.89053121209144592285e-02) (13, 9.70430001616477966309e-02) (14, -4.42860424518585205078e-02) (0, -2.57764011621475219727e-03) (1, 3.95883545279502868652e-02) (2, 5.25834336876869201660e-02) (3, -5.91687373816967010498e-02) (4, -5.81544935703277587891e-02) (5, 9.64226946234703063965e-02) (6, 3.28863337635993957520e-02) (7, 8.62745270133018493652e-02) (8, -2.11758464574813842773e-02) (9, 5.93794062733650207520e-02) (10, 3.57136130332946777344e-04) (11, 6.32785037159919738770e-02) (12, -9.95409339666366577148e-02) (13, 8.28242376446723937988e-02) (14, -1.98483243584632873535e-02) (0, 9.81494858860969543457e-02) (1, 2.87178829312324523926e-02) (2, -4.05573099851608276367e-03) (3, 6.48189410567283630371e-02) (4, 8.15048292279243469238e-02) (5, 3.45408916473388671875e-03) (6, -7.52229094505310058594e-02) (7, 5.61249181628227233887e-02) (8, -8.70084762573242187500e-02) (9, 1.24686807394027709961e-02) (10, 3.64226773381233215332e-02) (11, 4.33254241943359375000e-03) (12, 1.04421749711036682129e-02) (13, 2.53279879689216613770e-02) (14, 1.37554109096527099609e-03) (15, 6.61561414599418640137e-02) (16, -7.72496610879898071289e-02) (17, -5.90361021459102630615e-02) (18, 1.87395662069320678711e-02) (19, -3.64183932542800903320e-02) (20, -1.71905905008316040039e-02) (21, 1.51622518897056579590e-02) (22, 9.64679196476936340332e-02) (23, -3.09160724282264709473e-02) (24, 9.39864143729209899902e-02) (25, 5.58473393321037292480e-02) (26, 6.94410726428031921387e-02) (27, 5.72649314999580383301e-02) (15, 5.63063994050025939941e-02) (16, 5.22653087973594665527e-02) (17, -6.25833943486213684082e-02) (18, 5.44558838009834289551e-02) (19, -1.90168172121047973633e-02) (20, 3.33608761429786682129e-02) (21, 1.92748308181762695312e-02) (22, -3.75119857490062713623e-02) (23, -6.31850436329841613770e-02) (24, 4.40519228577613830566e-02) (25, -8.13870802521705627441e-02) (26, -5.01935221254825592041e-02) (27, -4.34793904423713684082e-02) (15, 5.50355985760688781738e-02) (16, 5.41390255093574523926e-02) (17, 6.69627860188484191895e-02) (18, -1.96364298462867736816e-02) (19, -4.44854311645030975342e-02) (20, 3.31189110875129699707e-02) (21, 3.11391055583953857422e-03) (22, -3.52153182029724121094e-03) (23, -4.81415167450904846191e-02) (24, 6.66955187916755676270e-02) (25, 7.92878791689872741699e-02) (26, 6.70207366347312927246e-02) (27, 6.31634369492530822754e-02) (15, -5.16281910240650177002e-02) (16, 6.10071644186973571777e-02) (17, 1.90107673406600952148e-02) (18, -8.21871161460876464844e-02) (19, 1.82720869779586791992e-02) (20, -2.46828272938728332520e-02) (21, 7.00781866908073425293e-02) (22, 5.56886866688728332520e-02) (23, -7.02269375324249267578e-02) (24, -4.89386282861232757568e-02) (25, -1.09504312276840209961e-02) (26, 4.90478947758674621582e-02) (27, 1.35493874549865722656e-02) (15, 2.58645340800285339355e-02) (16, -6.90017640590667724609e-03) (17, 3.21623161435127258301e-02) (18, 7.56710097193717956543e-02) (19, 4.96204271912574768066e-02) (20, -1.28021016716957092285e-02) (21, 2.98100188374519348145e-02) (22, 1.65832191705703735352e-02) (23, 6.75614699721336364746e-02) (24, 8.53245928883552551270e-02) (25, -5.02978637814521789551e-02) (26, -2.93246284127235412598e-02) (27, -1.81969329714775085449e-02) (15, 1.56061351299285888672e-03) (16, -6.26291111111640930176e-02) (17, -3.89090552926063537598e-02) (18, -3.14186364412307739258e-02) (19, -9.94656682014465332031e-02) (20, 9.46275144815444946289e-03) (21, -7.04114735126495361328e-02) (22, 1.95451006293296813965e-02) (23, 2.72756293416023254395e-02) (24, 4.78606149554252624512e-02) (25, 9.48622748255729675293e-02) (26, -2.64617800712585449219e-03) (27, 3.54931503534317016602e-03) (15, -7.53646641969680786133e-02) (16, 4.84151914715766906738e-02) (17, 9.25988778471946716309e-02) (18, 7.36832246184349060059e-02) (19, -3.80354225635528564453e-02) (20, 1.84633955359458923340e-02) (21, -3.32169458270072937012e-02) (22, 9.41268876194953918457e-02) (23, -5.86559623479843139648e-03) (24, -8.35965201258659362793e-02) (25, -1.86752229928970336914e-02) (26, -7.60555714368820190430e-02) (27, 3.29867079854011535645e-02) (15, -5.11137507855892181396e-02) (16, -9.07309725880622863770e-02) (17, 8.26888307929039001465e-02) (18, 1.95616260170936584473e-02) (19, -8.92790406942367553711e-03) (20, -1.57505422830581665039e-02) (21, 5.69325163960456848145e-02) (22, 5.21630421280860900879e-02) (23, 5.28308227658271789551e-02) (24, 5.74668422341346740723e-02) (25, -3.83742116391658782959e-02) (26, 8.24193432927131652832e-02) (27, -2.29880511760711669922e-02) (15, 8.89014229178428649902e-02) (16, 3.02799716591835021973e-02) (17, -2.81257778406143188477e-02) (18, -1.37447565793991088867e-02) (19, -6.61707222461700439453e-02) (20, -3.49044054746627807617e-03) (21, -6.53295665979385375977e-02) (22, -7.35718458890914916992e-02) (23, -2.98072174191474914551e-02) (24, -3.36498767137527465820e-03) (25, 4.48915436863899230957e-02) (26, 3.69758382439613342285e-02) (27, -9.23810154199600219727e-03) (15, -6.09740428626537322998e-02) (16, 5.33793196082115173340e-02) (17, 7.20866844058036804199e-02) (18, -3.70296090841293334961e-02) (19, -1.36339813470840454102e-02) (20, -7.90270715951919555664e-02) (21, -2.77605801820755004883e-02) (22, -3.09451445937156677246e-02) (23, 4.05345633625984191895e-02) (24, 6.33115097880363464355e-02) (25, 5.33043220639228820801e-02) (26, -2.53292918205261230469e-03) (27, 1.54745429754257202148e-02) (15, 6.13514333963394165039e-03) (16, -4.50660847127437591553e-02) (17, 7.71003440022468566895e-02) (18, -1.14455074071884155273e-02) (19, 3.19458618760108947754e-02) (20, 6.60017505288124084473e-02) (21, -8.11655372381210327148e-02) (22, -9.61799174547195434570e-02) (23, -4.77430038154125213623e-02) (24, -4.73362617194652557373e-02) (25, 3.29636037349700927734e-04) (26, -1.30725726485252380371e-02) (27, -2.09081098437309265137e-02) (28, 7.05224350094795227051e-02) (29, 8.35624411702156066895e-02) (30, -7.60165601968765258789e-02) (31, 7.49826431274414062500e-03) (32, -2.56756618618965148926e-02) (33, -3.69905978441238403320e-02) (34, -3.91224212944507598877e-02) (35, -5.35889826714992523193e-02) (36, 2.59797945618629455566e-02) (37, 4.72436025738716125488e-02) (38, -3.26160490512847900391e-02) (39, 9.82192084193229675293e-02) (28, -8.37015435099601745605e-02) (29, -9.20815020799636840820e-02) (30, 6.15307167172431945801e-02) (31, 6.96027800440788269043e-02) (32, 5.38557767868041992188e-03) (33, -2.29947417974472045898e-02) (34, -2.42620855569839477539e-02) (35, 6.03194907307624816895e-02) (36, -4.58944104611873626709e-02) (37, 6.42924085259437561035e-02) (38, -7.73464888334274291992e-03) (39, -7.98926576972007751465e-02) (28, 8.31268653273582458496e-02) (29, -3.91456484794616699219e-03) (30, -2.76356637477874755859e-02) (31, -6.42093941569328308105e-02) (32, 9.64150801301002502441e-02) (33, 5.92917725443840026855e-02) (34, 1.48824900388717651367e-02) (35, 6.69374987483024597168e-02) (36, 4.28541973233222961426e-02) (37, 3.88659462332725524902e-02) (38, -2.55642384290695190430e-02) (39, -8.28214585781097412109e-02) (28, -9.81246531009674072266e-02) (29, 3.53133305907249450684e-02) (30, -3.64104360342025756836e-02) (31, 2.78551355004310607910e-02) (32, -1.74430683255195617676e-02) (33, 3.09735015034675598145e-02) (34, 2.60743573307991027832e-02) (35, -1.14461034536361694336e-03) (36, 3.88920083642005920410e-02) (37, -1.23949348926544189453e-02) (38, -3.15418392419815063477e-02) (39, -5.57224154472351074219e-02) (28, 6.46103248000144958496e-02) (29, 4.41960766911506652832e-02) (30, -9.54029262065887451172e-02) (31, -8.12840834259986877441e-02) (32, 8.48849117755889892578e-03) (33, -3.13757359981536865234e-03) (34, -6.11767433583736419678e-02) (35, -8.38464498519897460938e-03) (36, 9.29478630423545837402e-02) (37, 1.11875981092453002930e-02) (38, 2.74059548974037170410e-02) (39, 8.93629267811775207520e-02) (28, -2.95206457376480102539e-02) (29, -5.77115416526794433594e-02) (30, 5.63004389405250549316e-02) (31, -8.66664350032806396484e-02) (32, 8.11543986201286315918e-02) (33, -6.92638084292411804199e-02) (34, -6.94878920912742614746e-02) (35, 8.30297544598579406738e-02) (36, 6.60495236515998840332e-02) (37, -5.89833408594131469727e-03) (38, 1.08848810195922851562e-02) (39, -5.13935349881649017334e-02) (28, -7.49248266220092773438e-02) (29, -6.30407631397247314453e-02) (30, 4.74618598818778991699e-02) (31, 6.39671906828880310059e-02) (32, 2.45643034577369689941e-02) (33, -8.40799808502197265625e-02) (34, -9.17552262544631958008e-02) (35, -1.08253732323646545410e-02) (36, 6.01161047816276550293e-02) (37, -8.71581509709358215332e-02) (38, 7.89054483175277709961e-03) (39, -3.13954204320907592773e-02) (28, 9.70427691936492919922e-03) (29, 4.67138066887855529785e-02) (30, 6.02199360728263854980e-02) (31, 2.65213102102279663086e-03) (32, -4.20986004173755645752e-02) (33, -1.23741105198860168457e-02) (34, -7.98492878675460815430e-03) (35, 2.83807590603828430176e-02) (36, 2.99143418669700622559e-02) (37, -5.16844950616359710693e-02) (38, 4.17143180966377258301e-02) (39, 1.10687464475631713867e-02) (28, -2.09483057260513305664e-02) (29, 7.22264274954795837402e-02) (30, -5.90150058269500732422e-03) (31, -5.48987686634063720703e-02) (32, -3.36719006299972534180e-02) (33, -9.50166210532188415527e-02) (34, -6.29229843616485595703e-03) (35, -8.59673321247100830078e-03) (36, -5.80573864281177520752e-02) (37, -5.88304437696933746338e-02) (38, -4.46295402944087982178e-02) (39, 6.65069147944450378418e-02) (28, -4.29104231297969818115e-02) (29, -3.63847687840461730957e-02) (30, -4.43184562027454376221e-02) (31, -8.27943235635757446289e-02) (32, -2.35429182648658752441e-02) (33, 6.35720863938331604004e-02) (34, -1.41897499561309814453e-02) (35, 8.61613675951957702637e-02) (36, 1.02858915925025939941e-02) (37, -5.39698153734207153320e-02) (38, -1.11865028738975524902e-02) (39, 6.81872889399528503418e-02) 
