FANN_FLO_2.1
num_layers=4
learning_rate=0.700000
connection_rate=1.000000
network_type=0
learning_momentum=0.000000
training_algorithm=2
train_error_function=1
train_stop_function=0
cascade_output_change_fraction=0.010000
quickprop_decay=-0.000100
quickprop_mu=1.750000
rprop_increase_factor=1.200000
rprop_decrease_factor=0.500000
rprop_delta_min=0.000000
rprop_delta_max=50.000000
rprop_delta_zero=0.100000
cascade_output_stagnation_epochs=12
cascade_candidate_change_fraction=0.010000
cascade_candidate_stagnation_epochs=12
cascade_max_out_epochs=150
cascade_min_out_epochs=50
cascade_max_cand_epochs=150
cascade_min_cand_epochs=50
cascade_num_candidate_groups=2
bit_fail_limit=3.49999994039535522461e-01
cascade_candidate_limit=1.00000000000000000000e+03
cascade_weight_multiplier=4.00000005960464477539e-01
cascade_activation_functions_count=10
cascade_activation_functions=3 5 7 8 10 11 14 15 16 17 
cascade_activation_steepnesses_count=4
cascade_activation_steepnesses=2.50000000000000000000e-01 5.00000000000000000000e-01 7.50000000000000000000e-01 1.00000000000000000000e+00 
layer_sizes=15 13 12 11 
scale_included=0
neurons (num_inputs, activation_function, activation_steepness)=(0, 0, 0.00000000000000000000e+00) (0, 0, 0.00000000000000000000e+00) (0, 0, 0.00000000000000000000e+00) (0, 0, 0.00000000000000000000e+00) (0, 0, 0.00000000000000000000e+00) (0, 0, 0.00000000000000000000e+00) (0, 0, 0.00000000000000000000e+00) (0, 0, 0.00000000000000000000e+00) (0, 0, 0.00000000000000000000e+00) (0, 0, 0.00000000000000000000e+00) (0, 0, 0.00000000000000000000e+00) (0, 0, 0.00000000000000000000e+00) (0, 0, 0.00000000000000000000e+00) (0, 0, 0.00000000000000000000e+00) (0, 0, 0.00000000000000000000e+00) (15, 5, 5.00000000000000000000e-01) (15, 5, 5.00000000000000000000e-01) (15, 5, 5.00000000000000000000e-01) (15, 5, 5.00000000000000000000e-01) (15, 5, 5.00000000000000000000e-01) (15, 5, 5.00000000000000000000e-01) (15, 5, 5.00000000000000000000e-01) (15, 5, 5.00000000000000000000e-01) (15, 5, 5.00000000000000000000e-01) (15, 5, 5.00000000000000000000e-01) (15, 5, 5.00000000000000000000e-01) (15, 5, 5.00000000000000000000e-01) (0, 5, 0.00000000000000000000e+00) (13, 5, 5.00000000000000000000e-01) (13, 5, 5.00000000000000000000e-01) (13, 5, 5.00000000000000000000e-01) (13, 5, 5.00000000000000000000e-01) (13, 5, 5.00000000000000000000e-01) (13, 5, 5.00000000000000000000e-01) (13, 5, 5.00000000000000000000e-01) (13, 5, 5.00000000000000000000e-01) (13, 5, 5.00000000000000000000e-01) (13, 5, 5.00000000000000000000e-01) (13, 5, 5.00000000000000000000e-01) (0, 5, 0.00000000000000000000e+00) (12, 5, 5.00000000000000000000e-01) (12, 5, 5.00000000000000000000e-01) (12, 5, 5.00000000000000000000e-01) (12, 5, 5.00000000000000000000e-01) (12, 5, 5.00000000000000000000e-01) (12, 5, 5.00000000000000000000e-01) (12, 5, 5.00000000000000000000e-01) (12, 5, 5.00000000000000000000e-01) (12, 5, 5.00000000000000000000e-01) (12, 5, 5.00000000000000000000e-01) (0, 5, 0.00000000000000000000e+00) 
connections (connected_to_neuron, weight)=(0, 2.79225409030914306641e-04) (1, 8.42138305306434631348e-02) (2, -4.95762638747692108154e-02) (3, 5.85020706057548522949e-02) (4, -6.56670331954956054688e-02) (5, -9.82169806957244873047e-02) (6, -2.87003070116043090820e-02) (7, -9.69317629933357238770e-02) (8, -4.83896695077419281006e-02) (9, -2.91909053921699523926e-02) (10, -3.62994745373725891113e-02) (11, -5.20452074706554412842e-02) (12, -8.64936783909797668457e-02) (13, -6.44109696149826049805e-02) (14, -5.87307699024677276611e-02) (0, -3.80960516631603240967e-02) (1, -2.62683555483818054199e-02) (2, -9.54778715968132019043e-02) (3, -6.15167804062366485596e-02) (4, -4.23377119004726409912e-02) (5, 7.38731771707534790039e-03) (6, -3.78186255693435668945e-03) (7, -7.36730769276618957520e-02) (8, -2.33874171972274780273e-02) (9, -8.27454552054405212402e-02) (10, -7.40456581115722656250e-03) (11, -4.68456037342548370361e-02) (12, -2.76837497949600219727e-02) (13, 3.86984124779701232910e-02) (14, 9.33657363057136535645e-02) (0, -3.69555503129959106445e-02) (1, -6.10223636031150817871e-02) (2, 7.75795653462409973145e-02) (3, 1.34681910276412963867e-02) (4, 9.74797084927558898926e-02) (5, -8.80874618887901306152e-02) (6, 1.52512043714523315430e-02) (7, -3.12206000089645385742e-02) (8, -8.50192233920097351074e-02) (9, 6.68615475296974182129e-02) (10, 3.95884886384010314941e-02) (11, -2.13186889886856079102e-02) (12, -8.51836651563644409180e-02) (13, 5.30948117375373840332e-02) (14, 1.42703428864479064941e-02) (0, -4.39144372940063476562e-02) (1, -8.50012376904487609863e-02) (2, 8.80019888281822204590e-02) (3, -3.93923036754131317139e-02) (4, -4.65180166065692901611e-02) (5, -5.43357208371162414551e-02) (6, 6.79950192570686340332e-02) (7, 4.97001335024833679199e-02) (8, -2.80087962746620178223e-02) (9, -5.53924068808555603027e-02) (10, 6.69546797871589660645e-02) (11, 6.45866468548774719238e-02) (12, -2.23801285028457641602e-03) (13, -6.07290826737880706787e-02) (14, 3.28505039215087890625e-03) (0, -8.87227058410644531250e-03) (1, 2.31537967920303344727e-03) (2, 4.22626808285713195801e-02) (3, -3.12926918268203735352e-02) (4, -8.42164382338523864746e-02) (5, 3.97424027323722839355e-02) (6, -1.93801522254943847656e-02) (7, 3.10347750782966613770e-02) (8, -9.14782062172889709473e-02) (9, -4.39937412738800048828e-03) (10, -2.10368633270263671875e-03) (11, 4.81102839112281799316e-02) (12, 7.42819383740425109863e-02) (13, 1.27126425504684448242e-02) (14, 1.20510160923004150391e-03) (0, -1.14477276802062988281e-02) (1, 6.87982067465782165527e-02) (2, 1.62038654088973999023e-02) (3, -2.34457403421401977539e-02) (4, -7.05940946936607360840e-02) (5, 6.96858540177345275879e-02) (6, 2.22185403108596801758e-02) (7, 9.74009111523628234863e-02) (8, 1.93859711289405822754e-02) (9, 9.42097380757331848145e-02) (10, -5.79914860427379608154e-02) (11, -1.36593580245971679688e-02) (12, 5.87963834404945373535e-02) (13, 3.97705063223838806152e-02) (14, 2.56115570664405822754e-02) (0, -3.79185639321804046631e-02) (1, -6.91017657518386840820e-02) (2, -7.20730721950531005859e-02) (3, -9.56558734178543090820e-02) (4, -3.94463539123535156250e-04) (5, -5.62895052134990692139e-02) (6, 4.40865233540534973145e-02) (7, 8.02253857254981994629e-02) (8, 7.47452750802040100098e-02) (9, 5.26083186268806457520e-02) (10, -2.41739898920059204102e-02) (11, -2.73584127426147460938e-02) (12, 7.18608498573303222656e-04) (13, -4.98920567333698272705e-02) (14, 8.53542312979698181152e-02) (0, -9.80762988328933715820e-02) (1, 3.86602208018302917480e-02) (2, 5.41524365544319152832e-02) (3, 1.81275755167007446289e-02) (4, -8.47855210304260253906e-02) (5, 8.35583433508872985840e-02) (6, -1.21865794062614440918e-02) (7, 3.74330207705497741699e-02) (8, 8.09592679142951965332e-02) (9, -9.28006097674369812012e-02) (10, 3.16427722573280334473e-02) (11, -7.70322158932685852051e-02) (12, -6.45996630191802978516e-03) (13, -9.56084579229354858398e-03) (14, 6.27382919192314147949e-02) (0, -8.08484107255935668945e-02) (1, 5.25205805897712707520e-02) (2, 9.36365202069282531738e-02) (3, -5.29214814305305480957e-02) (4, 5.68647161126136779785e-02) (5, -6.75793737173080444336e-03) (6, -9.21098887920379638672e-03) (7, 9.51245427131652832031e-04) (8, -2.65325531363487243652e-02) (9, -3.44657152891159057617e-02) (10, -4.64404486119747161865e-02) (11, 4.92934659123420715332e-02) (12, 3.81758734583854675293e-02) (13, 5.42781576514244079590e-02) (14, 9.94014069437980651855e-02) (0, 2.35301032662391662598e-02) (1, 5.62018677592277526855e-02) (2, 3.80616262555122375488e-02) (3, -2.23174542188644409180e-02) (4, -2.56705656647682189941e-02) (5, 5.32760992646217346191e-02) (6, -3.87591086328029632568e-02) (7, 6.21428564190864562988e-02) (8, -9.29088145494461059570e-03) (9, -5.77998384833335876465e-02) (10, 6.93422481417655944824e-02) (11, -7.76481106877326965332e-02) (12, -3.48320454359054565430e-02) (13, -3.71177345514297485352e-02) (14, 1.27910375595092773438e-02) (0, -7.20937624573707580566e-02) (1, -1.79661363363265991211e-02) (2, -3.46883684396743774414e-02) (3, -7.84572437405586242676e-02) (4, 2.91123762726783752441e-02) (5, -7.78236538171768188477e-02) (6, 1.47848278284072875977e-02) (7, -8.00986066460609436035e-02) (8, 2.31275781989097595215e-02) (9, 8.82522687315940856934e-02) (10, -1.45643204450607299805e-02) (11, 7.66871497035026550293e-02) (12, 3.75457331538200378418e-02) (13, -7.63884484767913818359e-02) (14, 3.09653058648109436035e-02) (0, 3.69471386075019836426e-02) (1, 4.71416488289833068848e-02) (2, -1.28328353166580200195e-02) (3, -2.49912589788436889648e-02) (4, -7.51758068799972534180e-02) (5, 6.14966079592704772949e-02) (6, -7.17151537537574768066e-02) (7, -1.39349102973937988281e-02) (8, 2.36394554376602172852e-02) (9, 1.89939588308334350586e-02) (10, 2.82652452588081359863e-02) (11, -7.01830536127090454102e-03) (12, 4.13458570837974548340e-02) (13, 9.34332087635993957520e-02) (14, 5.58639690279960632324e-02) (15, -4.58631031215190887451e-02) (16, -7.86605626344680786133e-02) (17, -6.21021762490272521973e-02) (18, 1.94485187530517578125e-02) (19, -5.71178011596202850342e-02) (20, 6.70102015137672424316e-02) (21, 4.16248664259910583496e-02) (22, 5.76670244336128234863e-02) (23, 8.69115963578224182129e-02) (24, -3.52475494146347045898e-02) (25, 4.59192916750907897949e-02) (26, -2.76527255773544311523e-02) (27, -5.85604086518287658691e-02) (15, -1.65349915623664855957e-02) (16, -4.04118001461029052734e-03) (17, 7.24048838019371032715e-02) (18, -7.95878618955612182617e-02) (19, -5.68995289504528045654e-02) (20, -4.04279492795467376709e-02) (21, -4.57911193370819091797e-03) (22, -3.20753306150436401367e-02) (23, -7.89313465356826782227e-02) (24, 2.37057358026504516602e-02) (25, 5.39897605776786804199e-02) (26, 4.47081103920936584473e-02) (27, -5.73003031313419342041e-02) (15, -1.77449882030487060547e-02) (16, -6.23102001845836639404e-02) (17, 8.40455517172813415527e-02) (18, -2.43117883801460266113e-02) (19, 9.35537740588188171387e-02) (20, -6.18175566196441650391e-02) (21, -2.97234952449798583984e-03) (22, -6.85484111309051513672e-02) (23, 5.76309636235237121582e-02) (24, 3.99098470807075500488e-02) (25, 9.84617993235588073730e-02) (26, -7.44163990020751953125e-04) (27, -2.42312252521514892578e-03) (15, 8.53733941912651062012e-02) (16, 6.40082880854606628418e-02) (17, -5.65038360655307769775e-02) (18, -4.22793403267860412598e-02) (19, -9.45521220564842224121e-02) (20, 2.69611701369285583496e-02) (21, 5.36794885993003845215e-02) (22, 7.78527781367301940918e-02) (23, 4.73733171820640563965e-02) (24, 9.67799499630928039551e-02) (25, -6.25751763582229614258e-02) (26, -5.72057999670505523682e-02) (27, -3.52953746914863586426e-02) (15, -4.15065251290798187256e-02) (16, 6.64999410510063171387e-02) (17, -8.13056156039237976074e-02) (18, -9.67984125018119812012e-02) (19, -9.08003747463226318359e-02) (20, 9.49397683143615722656e-04) (21, -5.91086111962795257568e-02) (22, 9.32451710104942321777e-02) (23, 7.66376182436943054199e-02) (24, -6.55548423528671264648e-02) (25, -6.85723796486854553223e-02) (26, -2.63347327709197998047e-02) (27, -3.41032519936561584473e-02) (15, 8.90585854649543762207e-02) (16, -8.64248797297477722168e-02) (17, -3.56414616107940673828e-02) (18, -1.16855725646018981934e-02) (19, 1.11519917845726013184e-02) (20, -5.02680689096450805664e-02) (21, -4.76772859692573547363e-02) (22, 5.46481683850288391113e-02) (23, 7.45259225368499755859e-03) (24, -4.22294102609157562256e-02) (25, -1.83906629681587219238e-02) (26, -3.88679206371307373047e-02) (27, -6.43766373395919799805e-02) (15, -7.10173472762107849121e-02) (16, -4.20879609882831573486e-02) (17, -2.69518047571182250977e-02) (18, -2.82231420278549194336e-02) (19, 2.26166620850563049316e-02) (20, 3.15416678786277770996e-02) (21, -6.17232136428356170654e-02) (22, 4.13110479712486267090e-02) (23, 3.47432568669319152832e-02) (24, -5.25235868990421295166e-02) (25, -5.77395521104335784912e-02) (26, 7.56346508860588073730e-02) (27, -5.92784099280834197998e-02) (15, -8.11019390821456909180e-02) (16, -8.99202004075050354004e-02) (17, -2.78507918119430541992e-02) (18, -7.43667781352996826172e-03) (19, -2.40234583616256713867e-02) (20, -3.87922003865242004395e-02) (21, 6.13845884799957275391e-03) (22, 4.03350815176963806152e-02) (23, 4.95222285389900207520e-02) (24, -8.27095508575439453125e-02) (25, 9.00670215487480163574e-02) (26, -9.81550663709640502930e-02) (27, 7.19386115670204162598e-02) (15, -2.48038768768310546875e-03) (16, -4.03844676911830902100e-02) (17, -4.64520528912544250488e-02) (18, 5.86516931653022766113e-02) (19, -4.76109981536865234375e-03) (20, -1.74693986773490905762e-02) (21, -8.34362730383872985840e-02) (22, 6.82870820164680480957e-02) (23, 5.43074682354927062988e-02) (24, 3.91803905367851257324e-02) (25, -1.71236693859100341797e-04) (26, 9.25842449069023132324e-02) (27, -1.95085555315017700195e-02) (15, -6.54279813170433044434e-02) (16, -5.99393472075462341309e-02) (17, 2.27518901228904724121e-02) (18, -8.97933393716812133789e-02) (19, -1.92177519202232360840e-02) (20, 4.16499450802803039551e-02) (21, -7.97135382890701293945e-02) (22, 5.29314503073692321777e-02) (23, -6.57867193222045898438e-02) (24, -3.73698770999908447266e-03) (25, -8.58607441186904907227e-02) (26, 4.03517261147499084473e-02) (27, -6.34019076824188232422e-02) (15, 6.36614784598350524902e-02) (16, 5.76421692967414855957e-02) (17, -7.33348876237869262695e-02) (18, 6.55064210295677185059e-02) (19, 2.95807793736457824707e-02) (20, 2.41847261786460876465e-02) (21, -7.48780518770217895508e-02) (22, 8.31287279725074768066e-02) (23, -1.71635821461677551270e-02) (24, 2.03608497977256774902e-02) (25, -3.43406647443771362305e-02) (26, -5.99853694438934326172e-04) (27, -1.13520547747611999512e-02) (28, -8.00332129001617431641e-02) (29, -6.14194683730602264404e-02) (30, 8.84767100214958190918e-02) (31, -8.74489694833755493164e-02) (32, 1.90719738602638244629e-02) (33, -7.69512802362442016602e-02) (34, -4.73883152008056640625e-02) (35, -5.81761375069618225098e-02) (36, -6.67446106672286987305e-02) (37, 3.33939269185066223145e-02) (38, 8.34738090634346008301e-02) (39, -4.64581511914730072021e-02) (28, -1.36746093630790710449e-02) (29, -8.23129117488861083984e-02) (30, 4.98048737645149230957e-02) (31, 4.64640557765960693359e-04) (32, 5.80388233065605163574e-02) (33, 8.64029601216316223145e-02) (34, -3.58738750219345092773e-02) (35, 1.56809911131858825684e-02) (36, -8.69319215416908264160e-02) (37, -7.03674554824829101562e-02) (38, -5.47382235527038574219e-02) (39, 3.72528061270713806152e-02) (28, -4.52454984188079833984e-02) (29, -7.16094896197319030762e-02) (30, -7.99107775092124938965e-02) (31, 7.51153454184532165527e-02) (32, -5.95016032457351684570e-03) (33, 1.94893702864646911621e-02) (34, -3.62367108464241027832e-02) (35, 1.40166282653808593750e-02) (36, 5.80699071288108825684e-02) (37, -4.77600060403347015381e-02) (38, 2.65676602721214294434e-02) (39, -2.28581205010414123535e-02) (28, -2.47112810611724853516e-02) (29, 7.91793540120124816895e-02) (30, 1.89657434821128845215e-02) (31, 8.54410976171493530273e-03) (32, 1.25732794404029846191e-02) (33, 2.43955850601196289062e-03) (34, 6.20859637856483459473e-02) (35, 9.88986566662788391113e-02) (36, 2.01266556978225708008e-02) (37, 1.18908286094665527344e-02) (38, -6.36689364910125732422e-04) (39, -2.18345373868942260742e-02) (28, -1.70621275901794433594e-03) (29, 6.34894445538520812988e-02) (30, 9.38464626669883728027e-02) (31, 1.13618597388267517090e-02) (32, 9.31219831109046936035e-02) (33, -6.08917623758316040039e-02) (34, -5.13853281736373901367e-02) (35, -5.21235205233097076416e-02) (36, -3.25012579560279846191e-02) (37, -3.12961041927337646484e-02) (38, -7.70081728696823120117e-02) (39, 6.15485981106758117676e-02) (28, 8.81932601332664489746e-02) (29, -1.32448747754096984863e-02) (30, -2.44347825646400451660e-02) (31, 4.62631657719612121582e-02) (32, 3.89951243996620178223e-02) (33, -9.78671237826347351074e-02) (34, -7.65949487686157226562e-02) (35, -8.57161581516265869141e-02) (36, 8.13122317194938659668e-02) (37, 4.23708036541938781738e-02) (38, 2.28279456496238708496e-02) (39, -6.11449778079986572266e-03) (28, -5.51896505057811737061e-02) (29, -1.50860920548439025879e-02) (30, -7.21584260463714599609e-03) (31, 6.49370029568672180176e-02) (32, 9.68047454953193664551e-02) (33, 9.21474769711494445801e-02) (34, -5.68975321948528289795e-02) (35, -4.90148365497589111328e-03) (36, 5.56369051337242126465e-02) (37, -6.30510747432708740234e-02) (38, -9.35396179556846618652e-02) (39, 4.87588867545127868652e-02) (28, -2.39428281784057617188e-02) (29, -4.49249446392059326172e-02) (30, 9.66353639960289001465e-02) (31, 4.35559228062629699707e-02) (32, 2.37789526581764221191e-02) (33, -8.03728029131889343262e-02) (34, 5.10450452566146850586e-03) (35, 1.19722113013267517090e-02) (36, 6.38232380151748657227e-03) (37, 8.06697234511375427246e-02) (38, -4.17646169662475585938e-02) (39, -5.46225570142269134521e-02) (28, 8.28026011586189270020e-02) (29, -1.83595716953277587891e-02) (30, -4.03387211263179779053e-02) (31, 6.41148313879966735840e-02) (32, -7.59887769818305969238e-02) (33, 8.24892297387123107910e-02) (34, -4.19996753334999084473e-02) (35, -3.11784222722053527832e-02) (36, -3.25968638062477111816e-02) (37, 5.07844910025596618652e-02) (38, -6.62414208054542541504e-02) (39, -3.57921272516250610352e-02) (28, 4.29319664835929870605e-02) (29, -2.31389477849006652832e-02) (30, 5.93063905835151672363e-02) (31, -1.43112987279891967773e-03) (32, 1.38099789619445800781e-02) (33, 6.57667741179466247559e-02) (34, -5.26722483336925506592e-02) (35, 8.98671522736549377441e-02) (36, -7.91581794619560241699e-02) (37, -5.60368858277797698975e-02) (38, 3.34230735898017883301e-02) (39, 4.46207746863365173340e-02) 
