FANN_FLO_2.1
num_layers=4
learning_rate=0.700000
connection_rate=1.000000
network_type=0
learning_momentum=0.000000
training_algorithm=2
train_error_function=1
train_stop_function=0
cascade_output_change_fraction=0.010000
quickprop_decay=-0.000100
quickprop_mu=1.750000
rprop_increase_factor=1.200000
rprop_decrease_factor=0.500000
rprop_delta_min=0.000000
rprop_delta_max=50.000000
rprop_delta_zero=0.100000
cascade_output_stagnation_epochs=12
cascade_candidate_change_fraction=0.010000
cascade_candidate_stagnation_epochs=12
cascade_max_out_epochs=150
cascade_min_out_epochs=50
cascade_max_cand_epochs=150
cascade_min_cand_epochs=50
cascade_num_candidate_groups=2
bit_fail_limit=3.49999994039535522461e-01
cascade_candidate_limit=1.00000000000000000000e+03
cascade_weight_multiplier=4.00000005960464477539e-01
cascade_activation_functions_count=10
cascade_activation_functions=3 5 7 8 10 11 14 15 16 17 
cascade_activation_steepnesses_count=4
cascade_activation_steepnesses=2.50000000000000000000e-01 5.00000000000000000000e-01 7.50000000000000000000e-01 1.00000000000000000000e+00 
layer_sizes=11 11 11 11 
scale_included=0
neurons (num_inputs, activation_function, activation_steepness)=(0, 0, 0.00000000000000000000e+00) (0, 0, 0.00000000000000000000e+00) (0, 0, 0.00000000000000000000e+00) (0, 0, 0.00000000000000000000e+00) (0, 0, 0.00000000000000000000e+00) (0, 0, 0.00000000000000000000e+00) (0, 0, 0.00000000000000000000e+00) (0, 0, 0.00000000000000000000e+00) (0, 0, 0.00000000000000000000e+00) (0, 0, 0.00000000000000000000e+00) (0, 0, 0.00000000000000000000e+00) (11, 5, 5.00000000000000000000e-01) (11, 5, 5.00000000000000000000e-01) (11, 5, 5.00000000000000000000e-01) (11, 5, 5.00000000000000000000e-01) (11, 5, 5.00000000000000000000e-01) (11, 5, 5.00000000000000000000e-01) (11, 5, 5.00000000000000000000e-01) (11, 5, 5.00000000000000000000e-01) (11, 5, 5.00000000000000000000e-01) (11, 5, 5.00000000000000000000e-01) (0, 5, 0.00000000000000000000e+00) (11, 5, 5.00000000000000000000e-01) (11, 5, 5.00000000000000000000e-01) (11, 5, 5.00000000000000000000e-01) (11, 5, 5.00000000000000000000e-01) (11, 5, 5.00000000000000000000e-01) (11, 5, 5.00000000000000000000e-01) (11, 5, 5.00000000000000000000e-01) (11, 5, 5.00000000000000000000e-01) (11, 5, 5.00000000000000000000e-01) (11, 5, 5.00000000000000000000e-01) (0, 5, 0.00000000000000000000e+00) (11, 5, 5.00000000000000000000e-01) (11, 5, 5.00000000000000000000e-01) (11, 5, 5.00000000000000000000e-01) (11, 5, 5.00000000000000000000e-01) (11, 5, 5.00000000000000000000e-01) (11, 5, 5.00000000000000000000e-01) (11, 5, 5.00000000000000000000e-01) (11, 5, 5.00000000000000000000e-01) (11, 5, 5.00000000000000000000e-01) (11, 5, 5.00000000000000000000e-01) (0, 5, 0.00000000000000000000e+00) 
connections (connected_to_neuron, weight)=(0, 3.90018299221992492676e-02) (1, -2.36479714512825012207e-02) (2, 8.74782875180244445801e-02) (3, 2.37484350800514221191e-02) (4, 2.77203395962715148926e-02) (5, -7.42658227682113647461e-02) (6, -6.68154507875442504883e-02) (7, -4.21888008713722229004e-02) (8, 4.69817295670509338379e-02) (9, 6.43187984824180603027e-02) (10, 3.39975282549858093262e-02) (0, 2.67898514866828918457e-02) (1, -6.05922378599643707275e-02) (2, -5.46820536255836486816e-02) (3, -8.53091478347778320312e-05) (4, 7.59267583489418029785e-02) (5, -5.94747029244899749756e-02) (6, -1.11340209841728210449e-02) (7, 6.10113814473152160645e-02) (8, -3.01183536648750305176e-02) (9, -3.54273840785026550293e-02) (10, -3.59192863106727600098e-02) (0, -4.28172312676906585693e-02) (1, -2.01568230986595153809e-02) (2, -8.68289396166801452637e-02) (3, -8.74922722578048706055e-02) (4, 6.05863109230995178223e-02) (5, 7.99017772078514099121e-02) (6, 5.71408644318580627441e-02) (7, -1.24914422631263732910e-02) (8, -8.52643996477127075195e-02) (9, -3.85730713605880737305e-03) (10, 6.38606026768684387207e-02) (0, -9.77861136198043823242e-02) (1, -8.01088735461235046387e-02) (2, -8.41908156871795654297e-03) (3, -7.20519348978996276855e-02) (4, -4.69243302941322326660e-02) (5, 4.93921115994453430176e-02) (6, 7.49297812581062316895e-02) (7, -8.26055333018302917480e-02) (8, -1.66103541851043701172e-02) (9, 1.71963125467300415039e-03) (10, -4.31977696716785430908e-02) (0, 2.87075862288475036621e-02) (1, -9.83656793832778930664e-02) (2, -6.72710165381431579590e-02) (3, 6.92328885197639465332e-02) (4, -9.49970632791519165039e-03) (5, 9.37403813004493713379e-02) (6, -6.08854591846466064453e-02) (7, 5.50729110836982727051e-02) (8, -4.21789065003395080566e-02) (9, -3.70268523693084716797e-03) (10, -6.50839135050773620605e-02) (0, -2.90078446269035339355e-02) (1, 8.80503654479980468750e-03) (2, 9.55023989081382751465e-02) (3, -4.91060689091682434082e-02) (4, -3.40541005134582519531e-02) (5, -1.69890448451042175293e-02) (6, -3.43704670667648315430e-02) (7, 6.20885863900184631348e-02) (8, -5.31284511089324951172e-02) (9, -3.21565791964530944824e-02) (10, 8.19797143340110778809e-02) (0, 3.84524688124656677246e-02) (1, -4.20852005481719970703e-03) (2, -6.49446099996566772461e-02) (3, -1.21554210782051086426e-02) (4, -2.92787328362464904785e-02) (5, -4.75501418113708496094e-02) (6, 7.12342336773872375488e-02) (7, 7.24408999085426330566e-02) (8, 9.25209373235702514648e-03) (9, -5.81815838813781738281e-05) (10, 7.40752294659614562988e-02) (0, 4.19810786843299865723e-02) (1, -3.08252871036529541016e-02) (2, -3.54244783520698547363e-02) (3, 3.57214584946632385254e-02) (4, 8.28925520181655883789e-03) (5, -8.03515613079071044922e-02) (6, 9.35425385832786560059e-02) (7, -9.54134389758110046387e-02) (8, -4.54354770481586456299e-02) (9, -3.54653000831604003906e-02) (10, 1.33915990591049194336e-02) (0, -4.99330833554267883301e-02) (1, 1.54286399483680725098e-02) (2, 7.93375000357627868652e-02) (3, 3.30778732895851135254e-02) (4, 8.10581669211387634277e-02) (5, 4.14260998368263244629e-02) (6, 7.99494311213493347168e-02) (7, -5.10984174907207489014e-02) (8, 2.34058126807212829590e-02) (9, 1.84018984436988830566e-02) (10, 4.46930602192878723145e-02) (0, 5.84611967206001281738e-02) (1, -9.37535241246223449707e-02) (2, -8.45856666564941406250e-02) (3, -8.90889391303062438965e-02) (4, 7.74806961417198181152e-02) (5, 8.78552421927452087402e-02) (6, 2.01631560921669006348e-02) (7, -2.25774794816970825195e-02) (8, 6.19304701685905456543e-02) (9, -3.78557741641998291016e-02) (10, 4.65972498059272766113e-02) (11, -7.34940096735954284668e-02) (12, 9.78656783699989318848e-02) (13, -4.51135039329528808594e-02) (14, -5.38455769419670104980e-02) (15, 9.14082154631614685059e-02) (16, -4.05269376933574676514e-02) (17, 7.18951225280761718750e-04) (18, -4.40570786595344543457e-02) (19, 7.28646591305732727051e-02) (20, 5.07858619093894958496e-02) (21, 7.13715627789497375488e-02) (11, 5.22021725773811340332e-02) (12, -1.61362513899803161621e-02) (13, 5.24297282099723815918e-02) (14, -6.37174397706985473633e-03) (15, -3.61868292093276977539e-02) (16, -9.86686944961547851562e-02) (17, -8.29659327864646911621e-02) (18, 8.22150632739067077637e-02) (19, 4.60243746638298034668e-02) (20, 7.54952654242515563965e-02) (21, 8.84615257382392883301e-02) (11, 6.14387169480323791504e-02) (12, 8.64063277840614318848e-02) (13, 6.59422352910041809082e-02) (14, 4.92939427495002746582e-02) (15, 6.56948238611221313477e-03) (16, -5.66352419555187225342e-02) (17, 1.12244114279747009277e-02) (18, 6.87137171626091003418e-02) (19, 8.99619981646537780762e-02) (20, 3.77304032444953918457e-02) (21, 6.65793940424919128418e-02) (11, -5.51515072584152221680e-02) (12, 8.38848426938056945801e-02) (13, 5.79876080155372619629e-02) (14, 4.32155281305313110352e-03) (15, -1.53962224721908569336e-02) (16, -8.60694721341133117676e-02) (17, -2.28137820959091186523e-02) (18, -6.46103471517562866211e-02) (19, 8.53020772337913513184e-02) (20, -7.06116259098052978516e-02) (21, 1.92533954977989196777e-02) (11, 3.77318039536476135254e-02) (12, 2.30166316032409667969e-02) (13, 8.30665603280067443848e-02) (14, 3.90631034970283508301e-02) (15, 4.00507077574729919434e-02) (16, 6.52816370129585266113e-02) (17, -1.49125158786773681641e-02) (18, 1.55459791421890258789e-02) (19, 5.37431612610816955566e-02) (20, -5.34738078713417053223e-02) (21, 1.95230543613433837891e-03) (11, 1.96854025125503540039e-02) (12, 9.58201363682746887207e-02) (13, -9.14782136678695678711e-02) (14, 6.30501583218574523926e-02) (15, 7.04456865787506103516e-03) (16, 7.72354975342750549316e-02) (17, 5.30121549963951110840e-02) (18, -5.52250333130359649658e-02) (19, 4.38148751854896545410e-02) (20, 9.78606417775154113770e-02) (21, -7.13402032852172851562e-02) (11, 1.80248916149139404297e-03) (12, 2.18220055103302001953e-03) (13, 1.32635831832885742188e-02) (14, 1.57330185174942016602e-02) (15, 7.93684199452400207520e-02) (16, 4.86532375216484069824e-02) (17, 1.03509426116943359375e-03) (18, -9.12432074546813964844e-02) (19, -3.20933759212493896484e-02) (20, -6.12330995500087738037e-02) (21, 3.17734405398368835449e-02) (11, -4.90268133580684661865e-02) (12, 7.78300240635871887207e-02) (13, -2.81758680939674377441e-02) (14, -8.37451815605163574219e-02) (15, -3.70825082063674926758e-02) (16, 8.73701050877571105957e-02) (17, 6.99979737401008605957e-02) (18, 9.44368541240692138672e-03) (19, -1.06775909662246704102e-02) (20, -1.03166252374649047852e-02) (21, 5.26382774114608764648e-03) (11, -2.15579569339752197266e-03) (12, -4.72664721310138702393e-02) (13, -8.76916050910949707031e-02) (14, -2.49203070998191833496e-02) (15, -9.42543148994445800781e-02) (16, -4.29166369140148162842e-02) (17, -8.11054259538650512695e-02) (18, -9.63936671614646911621e-02) (19, -1.42568424344062805176e-02) (20, 2.06970572471618652344e-02) (21, 5.78854233026504516602e-03) (11, 9.90067347884178161621e-02) (12, -6.35699257254600524902e-02) (13, -1.48430466651916503906e-02) (14, 4.76599708199501037598e-02) (15, 3.74651774764060974121e-02) (16, -6.08625262975692749023e-03) (17, -8.44334065914154052734e-02) (18, 7.62320831418037414551e-02) (19, -7.43128210306167602539e-02) (20, -3.34602147340774536133e-02) (21, 5.40620908141136169434e-02) (22, -2.48868763446807861328e-03) (23, -1.72053948044776916504e-02) (24, -8.30204188823699951172e-02) (25, -1.51185840368270874023e-02) (26, -4.72074225544929504395e-02) (27, 2.64232829213142395020e-02) (28, 7.42038413882255554199e-02) (29, 4.24759462475776672363e-02) (30, -6.83128982782363891602e-02) (31, -2.79519632458686828613e-02) (32, 9.52094867825508117676e-02) (22, -5.60045056045055389404e-02) (23, 4.71277311444282531738e-02) (24, -9.90448370575904846191e-02) (25, 1.07885897159576416016e-03) (26, 6.60222992300987243652e-02) (27, -9.54385027289390563965e-02) (28, 8.68220254778861999512e-02) (29, -1.32806450128555297852e-02) (30, 1.03500336408615112305e-02) (31, 8.58287587761878967285e-02) (32, 2.31494307518005371094e-02) (22, 9.55069884657859802246e-02) (23, 3.34887281060218811035e-02) (24, -3.93853895366191864014e-02) (25, -1.05792731046676635742e-02) (26, 4.90553304553031921387e-02) (27, -6.31533116102218627930e-02) (28, 1.51079073548316955566e-02) (29, -8.44048783183097839355e-02) (30, 9.09087732434272766113e-02) (31, -8.73807892203330993652e-02) (32, -1.61027163267135620117e-03) (22, -9.21116471290588378906e-02) (23, -2.49936431646347045898e-03) (24, 5.11823073029518127441e-02) (25, 3.43116298317909240723e-02) (26, -2.82955318689346313477e-02) (27, -6.34174048900604248047e-03) (28, 6.59987404942512512207e-02) (29, 4.37524989247322082520e-02) (30, -1.11322626471519470215e-02) (31, -9.00057777762413024902e-02) (32, -9.11976397037506103516e-03) (22, -1.01770982146263122559e-02) (23, 1.10730901360511779785e-02) (24, -4.30974625051021575928e-02) (25, -5.61560690402984619141e-03) (26, -2.10489332675933837891e-03) (27, 4.36219051480293273926e-02) (28, -9.52655747532844543457e-02) (29, -1.62761360406875610352e-02) (30, -3.32286655902862548828e-02) (31, -9.97585877776145935059e-02) (32, -8.27874019742012023926e-02) (22, 2.73859426379203796387e-02) (23, -1.03378593921661376953e-02) (24, 6.62679299712181091309e-02) (25, 6.42326250672340393066e-02) (26, -9.52299535274505615234e-02) (27, 8.18630531430244445801e-02) (28, 5.51413968205451965332e-02) (29, -8.26107412576675415039e-02) (30, -1.97472274303436279297e-02) (31, 6.30297586321830749512e-02) (32, 1.48898959159851074219e-02) (22, -6.85649216175079345703e-02) (23, -2.65862047672271728516e-03) (24, 8.65943655371665954590e-02) (25, 2.50933244824409484863e-02) (26, -3.66598889231681823730e-02) (27, 3.03468778729438781738e-02) (28, -8.60389322042465209961e-02) (29, -2.66656652092933654785e-02) (30, -7.87728801369667053223e-02) (31, 3.78396362066268920898e-03) (32, 8.44074264168739318848e-02) (22, -2.18703374266624450684e-02) (23, 9.81683656573295593262e-02) (24, -1.76974758505821228027e-02) (25, -7.82484412193298339844e-02) (26, -9.70972031354904174805e-02) (27, 6.60263970494270324707e-02) (28, -1.14770978689193725586e-02) (29, -9.68557894229888916016e-02) (30, 8.32389816641807556152e-02) (31, -8.40911567211151123047e-02) (32, -7.19364732503890991211e-03) (22, 4.95069101452827453613e-02) (23, 8.01414772868156433105e-02) (24, -2.42359936237335205078e-03) (25, 3.13699617981910705566e-02) (26, 3.52828726172447204590e-02) (27, 1.49656683206558227539e-02) (28, -8.83772671222686767578e-02) (29, -1.68737024068832397461e-03) (30, -7.01444372534751892090e-02) (31, -5.69421909749507904053e-02) (32, 9.56540182232856750488e-02) (22, -8.35500657558441162109e-02) (23, 6.81511387228965759277e-02) (24, -4.10058870911598205566e-02) (25, 4.67968210577964782715e-02) (26, 8.21122154593467712402e-02) (27, 3.23284491896629333496e-02) (28, 6.80239424109458923340e-02) (29, -1.41038149595260620117e-02) (30, 1.67358741164207458496e-02) (31, -5.38464002311229705811e-02) (32, -1.59354507923126220703e-02) 
