FANN_FLO_2.1
num_layers=4
learning_rate=0.700000
connection_rate=1.000000
network_type=0
learning_momentum=0.000000
training_algorithm=2
train_error_function=1
train_stop_function=0
cascade_output_change_fraction=0.010000
quickprop_decay=-0.000100
quickprop_mu=1.750000
rprop_increase_factor=1.200000
rprop_decrease_factor=0.500000
rprop_delta_min=0.000000
rprop_delta_max=50.000000
rprop_delta_zero=0.100000
cascade_output_stagnation_epochs=12
cascade_candidate_change_fraction=0.010000
cascade_candidate_stagnation_epochs=12
cascade_max_out_epochs=150
cascade_min_out_epochs=50
cascade_max_cand_epochs=150
cascade_min_cand_epochs=50
cascade_num_candidate_groups=2
bit_fail_limit=3.49999994039535522461e-01
cascade_candidate_limit=1.00000000000000000000e+03
cascade_weight_multiplier=4.00000005960464477539e-01
cascade_activation_functions_count=10
cascade_activation_functions=3 5 7 8 10 11 14 15 16 17 
cascade_activation_steepnesses_count=4
cascade_activation_steepnesses=2.50000000000000000000e-01 5.00000000000000000000e-01 7.50000000000000000000e-01 1.00000000000000000000e+00 
layer_sizes=15 13 12 11 
scale_included=0
neurons (num_inputs, activation_function, activation_steepness)=(0, 0, 0.00000000000000000000e+00) (0, 0, 0.00000000000000000000e+00) (0, 0, 0.00000000000000000000e+00) (0, 0, 0.00000000000000000000e+00) (0, 0, 0.00000000000000000000e+00) (0, 0, 0.00000000000000000000e+00) (0, 0, 0.00000000000000000000e+00) (0, 0, 0.00000000000000000000e+00) (0, 0, 0.00000000000000000000e+00) (0, 0, 0.00000000000000000000e+00) (0, 0, 0.00000000000000000000e+00) (0, 0, 0.00000000000000000000e+00) (0, 0, 0.00000000000000000000e+00) (0, 0, 0.00000000000000000000e+00) (0, 0, 0.00000000000000000000e+00) (15, 5, 5.00000000000000000000e-01) (15, 5, 5.00000000000000000000e-01) (15, 5, 5.00000000000000000000e-01) (15, 5, 5.00000000000000000000e-01) (15, 5, 5.00000000000000000000e-01) (15, 5, 5.00000000000000000000e-01) (15, 5, 5.00000000000000000000e-01) (15, 5, 5.00000000000000000000e-01) (15, 5, 5.00000000000000000000e-01) (15, 5, 5.00000000000000000000e-01) (15, 5, 5.00000000000000000000e-01) (15, 5, 5.00000000000000000000e-01) (0, 5, 0.00000000000000000000e+00) (13, 5, 5.00000000000000000000e-01) (13, 5, 5.00000000000000000000e-01) (13, 5, 5.00000000000000000000e-01) (13, 5, 5.00000000000000000000e-01) (13, 5, 5.00000000000000000000e-01) (13, 5, 5.00000000000000000000e-01) (13, 5, 5.00000000000000000000e-01) (13, 5, 5.00000000000000000000e-01) (13, 5, 5.00000000000000000000e-01) (13, 5, 5.00000000000000000000e-01) (13, 5, 5.00000000000000000000e-01) (0, 5, 0.00000000000000000000e+00) (12, 5, 5.00000000000000000000e-01) (12, 5, 5.00000000000000000000e-01) (12, 5, 5.00000000000000000000e-01) (12, 5, 5.00000000000000000000e-01) (12, 5, 5.00000000000000000000e-01) (12, 5, 5.00000000000000000000e-01) (12, 5, 5.00000000000000000000e-01) (12, 5, 5.00000000000000000000e-01) (12, 5, 5.00000000000000000000e-01) (12, 5, 5.00000000000000000000e-01) (0, 5, 0.00000000000000000000e+00) 
connections (connected_to_neuron, weight)=(0, -3.12992036342620849609e-02) (1, 4.05526161193847656250e-03) (2, -7.44249075651168823242e-02) (3, 6.84921815991401672363e-02) (4, 1.18595138192176818848e-02) (5, 6.12412169575691223145e-02) (6, -2.39580422639846801758e-02) (7, 1.71118825674057006836e-02) (8, -9.19285938143730163574e-02) (9, 9.42992344498634338379e-02) (10, -1.88456922769546508789e-02) (11, -7.62895643711090087891e-02) (12, -8.30094516277313232422e-02) (13, 8.58369544148445129395e-02) (14, 4.66315820813179016113e-02) (0, 2.49979645013809204102e-02) (1, -2.72147953510284423828e-02) (2, -3.11133340001106262207e-02) (3, -6.30356669425964355469e-02) (4, 2.73513570427894592285e-02) (5, 8.15065279603004455566e-02) (6, 8.28989669680595397949e-02) (7, -4.34748828411102294922e-03) (8, 5.10586872696876525879e-02) (9, -1.16893202066421508789e-02) (10, 7.06100538372993469238e-02) (11, 6.53681829571723937988e-02) (12, -8.99491086602210998535e-02) (13, -2.56197899580001831055e-03) (14, -3.11582908034324645996e-02) (0, -8.10675173997879028320e-02) (1, 6.61388114094734191895e-02) (2, 7.28969648480415344238e-02) (3, -5.54924309253692626953e-02) (4, 3.46310064196586608887e-02) (5, -1.52435153722763061523e-02) (6, -9.42512229084968566895e-02) (7, -8.93270373344421386719e-02) (8, -9.81316268444061279297e-02) (9, -8.61798152327537536621e-02) (10, -9.50278118252754211426e-02) (11, -1.69773250818252563477e-02) (12, -6.24693781137466430664e-02) (13, -7.80372619628906250000e-02) (14, -3.11403647065162658691e-02) (0, 8.41622129082679748535e-02) (1, 4.69607040286064147949e-02) (2, 4.16448488831520080566e-02) (3, -4.69511151313781738281e-02) (4, 8.39250311255455017090e-02) (5, -3.10038030147552490234e-02) (6, -6.54445886611938476562e-02) (7, 6.68239966034889221191e-02) (8, 6.46487101912498474121e-02) (9, 8.56140926480293273926e-02) (10, -4.48653288185596466064e-02) (11, 3.52587774395942687988e-02) (12, 5.09822592139244079590e-02) (13, -3.48144322633743286133e-02) (14, -6.73032104969024658203e-02) (0, -8.01760256290435791016e-02) (1, -1.58819556236267089844e-02) (2, 9.88355949521064758301e-02) (3, 9.27209481596946716309e-02) (4, 2.86256149411201477051e-02) (5, 3.34665998816490173340e-02) (6, -2.25225612521171569824e-02) (7, 3.43743935227394104004e-02) (8, 4.41395714879035949707e-02) (9, -2.06541866064071655273e-02) (10, 4.81945797801017761230e-02) (11, 4.91117462515830993652e-02) (12, 6.23684898018836975098e-02) (13, 8.57251957058906555176e-02) (14, 7.10744932293891906738e-02) (0, -6.87718763947486877441e-02) (1, 6.98874071240425109863e-02) (2, 1.80351957678794860840e-02) (3, 7.28729739785194396973e-02) (4, -7.70637020468711853027e-02) (5, 1.96023285388946533203e-03) (6, -5.81308342516422271729e-02) (7, -4.25082929432392120361e-02) (8, -3.12157720327377319336e-02) (9, -9.34821218252182006836e-02) (10, -5.68941980600357055664e-02) (11, 2.39189043641090393066e-02) (12, 4.17766496539115905762e-02) (13, 9.40880700945854187012e-02) (14, 8.91044661402702331543e-02) (0, 7.44734331965446472168e-02) (1, -8.60879570245742797852e-02) (2, -2.67774909734725952148e-02) (3, 7.33090266585350036621e-02) (4, -9.33670103549957275391e-02) (5, -9.81518849730491638184e-02) (6, 6.77563250064849853516e-03) (7, -1.58895701169967651367e-02) (8, 3.62225100398063659668e-02) (9, -4.90848086774349212646e-02) (10, 6.34562447667121887207e-02) (11, -1.55829116702079772949e-02) (12, -9.99730601906776428223e-02) (13, 2.58247330784797668457e-02) (14, -2.98577100038528442383e-02) (0, 7.11014345288276672363e-02) (1, 5.70528581738471984863e-02) (2, -5.99703006446361541748e-02) (3, -1.08633711934089660645e-02) (4, 2.99258306622505187988e-02) (5, -3.70340049266815185547e-02) (6, 9.10968706011772155762e-02) (7, 7.17949941754341125488e-02) (8, 2.04577073454856872559e-02) (9, -4.01189103722572326660e-02) (10, 7.83128663897514343262e-02) (11, 6.35635182261466979980e-02) (12, 8.37999954819679260254e-02) (13, 2.00895071029663085938e-02) (14, 5.76515868306159973145e-02) (0, 7.29044601321220397949e-02) (1, -5.43706119060516357422e-03) (2, 7.15636238455772399902e-02) (3, -5.38730360567569732666e-02) (4, -3.21280285716056823730e-02) (5, 7.81966075301170349121e-02) (6, -5.20249158143997192383e-02) (7, 7.46476128697395324707e-02) (8, -3.76929640769958496094e-02) (9, 8.41975882649421691895e-02) (10, -7.44372010231018066406e-02) (11, -7.42367282509803771973e-02) (12, -3.13853174448013305664e-02) (13, -7.44102597236633300781e-02) (14, 5.15879914164543151855e-02) (0, 3.87569740414619445801e-02) (1, 9.66911837458610534668e-02) (2, 8.64084064960479736328e-03) (3, 7.87866786122322082520e-02) (4, -1.41721963882446289062e-02) (5, -6.14333413541316986084e-02) (6, -5.82473352551460266113e-02) (7, -2.30753347277641296387e-02) (8, -8.96383598446846008301e-02) (9, 6.22103735804557800293e-02) (10, 3.68057563900947570801e-02) (11, 8.86744931340217590332e-02) (12, 2.57738903164863586426e-02) (13, 2.06057429313659667969e-02) (14, 8.76400619745254516602e-03) (0, -1.65745392441749572754e-02) (1, -6.48979842662811279297e-03) (2, -9.66730564832687377930e-02) (3, -4.50109206140041351318e-02) (4, 3.96371558308601379395e-02) (5, -2.88010761141777038574e-02) (6, -6.68143108487129211426e-02) (7, 8.76122489571571350098e-02) (8, -5.41534759104251861572e-02) (9, -4.50727343559265136719e-03) (10, 7.18098357319831848145e-02) (11, -2.85906791687011718750e-02) (12, 2.12559923529624938965e-02) (13, -5.95754832029342651367e-02) (14, -3.00093740224838256836e-03) (0, -2.71560102701187133789e-02) (1, 7.91814848780632019043e-02) (2, -6.30976259708404541016e-03) (3, 8.14848169684410095215e-02) (4, 5.79681470990180969238e-02) (5, 7.95180425047874450684e-02) (6, -7.99485221505165100098e-02) (7, 9.97208133339881896973e-02) (8, -4.35572974383831024170e-02) (9, -6.95868730545043945312e-02) (10, 6.19312003254890441895e-02) (11, 9.32484492659568786621e-02) (12, -8.09123739600181579590e-02) (13, -1.22949331998825073242e-02) (14, 1.38541907072067260742e-02) (15, 2.78516337275505065918e-02) (16, 7.11305215954780578613e-02) (17, -9.26356017589569091797e-02) (18, 3.11785861849784851074e-02) (19, -7.38803893327713012695e-02) (20, 4.70015630125999450684e-02) (21, -9.76224988698959350586e-02) (22, -4.06947024166584014893e-02) (23, 3.46138104796409606934e-02) (24, -5.17759732902050018311e-02) (25, 5.47980144619941711426e-02) (26, 6.42365217208862304688e-03) (27, 1.96333527565002441406e-02) (15, -2.39459797739982604980e-02) (16, 4.68481704592704772949e-02) (17, -8.33675861358642578125e-02) (18, 4.88980039954185485840e-02) (19, 2.60296538472175598145e-02) (20, 1.03226527571678161621e-02) (21, 3.03828194737434387207e-02) (22, -1.60021930932998657227e-02) (23, -1.01593062281608581543e-02) (24, 5.04342988133430480957e-02) (25, -1.62813812494277954102e-02) (26, 4.62834015488624572754e-02) (27, 8.08474346995353698730e-02) (15, -5.43501935899257659912e-02) (16, 3.95318493247032165527e-02) (17, 9.99350622296333312988e-02) (18, 3.33548858761787414551e-02) (19, -4.66139502823352813721e-02) (20, 2.77866944670677185059e-02) (21, 4.48540598154067993164e-03) (22, -3.92495505511760711670e-02) (23, -4.10347282886505126953e-02) (24, 3.06050255894660949707e-02) (25, -9.22479853034019470215e-02) (26, -3.86572256684303283691e-02) (27, 8.99103209376335144043e-02) (15, 4.23658266663551330566e-02) (16, 9.56680625677108764648e-03) (17, 4.47083339095115661621e-02) (18, -5.12105189263820648193e-02) (19, -7.07998424768447875977e-02) (20, -7.92376473546028137207e-02) (21, 9.56376567482948303223e-02) (22, -5.41674271225929260254e-02) (23, 6.96603581309318542480e-02) (24, 2.16673165559768676758e-02) (25, 5.61552271246910095215e-02) (26, 4.31761145591735839844e-05) (27, -9.43348929286003112793e-02) (15, -5.40040805935859680176e-02) (16, -4.95225153863430023193e-02) (17, -1.06162652373313903809e-02) (18, 9.22793224453926086426e-02) (19, -6.86750859022140502930e-02) (20, 3.50335314869880676270e-02) (21, 3.18111702799797058105e-02) (22, -6.87400326132774353027e-02) (23, -3.16115841269493103027e-02) (24, 8.51972177624702453613e-02) (25, 5.90466633439064025879e-02) (26, 7.28738233447074890137e-02) (27, -5.40523342788219451904e-02) (15, -8.19880664348602294922e-02) (16, 3.47883999347686767578e-03) (17, -4.63003180921077728271e-02) (18, -2.06452906131744384766e-02) (19, -6.61085546016693115234e-03) (20, 9.60655137896537780762e-02) (21, 8.89215096831321716309e-02) (22, -6.19025155901908874512e-02) (23, -5.51450029015541076660e-02) (24, -8.18783342838287353516e-02) (25, -4.11401651799678802490e-02) (26, -5.95073513686656951904e-02) (27, -3.60457524657249450684e-02) (15, -7.14798122644424438477e-02) (16, 6.21599629521369934082e-02) (17, -7.98905342817306518555e-02) (18, 2.85633727908134460449e-02) (19, 6.78250715136528015137e-02) (20, -3.38946133852005004883e-02) (21, 7.90408477187156677246e-02) (22, -4.27911989390850067139e-02) (23, -4.16152887046337127686e-02) (24, -8.96342322230339050293e-02) (25, 9.22423377633094787598e-02) (26, 9.01958867907524108887e-02) (27, -5.83742670714855194092e-02) (15, -3.93692441284656524658e-02) (16, 7.53930881619453430176e-02) (17, -9.93276089429855346680e-02) (18, -6.64954259991645812988e-02) (19, -7.86592364311218261719e-02) (20, -8.13156738877296447754e-02) (21, 3.69834080338478088379e-02) (22, -2.49595493078231811523e-02) (23, -1.96096301078796386719e-03) (24, -6.96274414658546447754e-02) (25, -2.88940370082855224609e-02) (26, -1.30394548177719116211e-02) (27, -3.15299555659294128418e-02) (15, 1.59609690308570861816e-02) (16, 5.08221238851547241211e-03) (17, 2.73298844695091247559e-02) (18, 5.64536079764366149902e-02) (19, 6.90364614129066467285e-02) (20, 5.58500811457633972168e-02) (21, 1.86135768890380859375e-02) (22, 8.91459360718727111816e-02) (23, -1.55865624547004699707e-02) (24, -1.35613530874252319336e-02) (25, -4.47486750781536102295e-02) (26, -3.65457087755203247070e-02) (27, 4.36474457383155822754e-02) (15, 1.36360302567481994629e-02) (16, -2.61799395084381103516e-02) (17, 3.58897820115089416504e-02) (18, 3.83190810680389404297e-03) (19, 1.54457911849021911621e-02) (20, 9.65205505490303039551e-02) (21, -2.07749903202056884766e-02) (22, 1.61181911826133728027e-02) (23, -6.99748843908309936523e-02) (24, 5.65782189369201660156e-04) (25, 3.48025187849998474121e-02) (26, 6.70085176825523376465e-02) (27, 7.56062343716621398926e-02) (15, -6.71584457159042358398e-02) (16, 9.73810926079750061035e-02) (17, -5.32878115773200988770e-02) (18, 1.98021084070205688477e-02) (19, -3.41488718986511230469e-02) (20, 6.26731589436531066895e-02) (21, -7.51156806945800781250e-02) (22, 9.31810215115547180176e-02) (23, 1.91267579793930053711e-02) (24, 9.39207896590232849121e-02) (25, 4.90310862660408020020e-02) (26, -6.22596666216850280762e-02) (27, 8.30667093396186828613e-02) (28, -6.65554702281951904297e-02) (29, 2.41789817810058593750e-02) (30, -6.16819560527801513672e-02) (31, -3.10118496417999267578e-03) (32, -3.21735814213752746582e-02) (33, 5.19540831446647644043e-02) (34, 7.07188770174980163574e-02) (35, -9.62838008999824523926e-02) (36, -4.42140102386474609375e-02) (37, -1.38353258371353149414e-02) (38, -9.97632592916488647461e-02) (39, 3.50110009312629699707e-02) (28, -9.77171435952186584473e-02) (29, -6.97381421923637390137e-02) (30, -6.44232332706451416016e-02) (31, 3.70853766798973083496e-02) (32, 9.72703769803047180176e-02) (33, -8.88170003890991210938e-02) (34, 6.99269250035285949707e-02) (35, 9.46514680981636047363e-02) (36, -4.21048104763031005859e-02) (37, -1.02709680795669555664e-02) (38, -3.94974052906036376953e-02) (39, -7.94316604733467102051e-02) (28, 1.46133527159690856934e-02) (29, -4.63163927197456359863e-02) (30, 3.96950915455818176270e-02) (31, 8.53414833545684814453e-03) (32, -9.72853079438209533691e-02) (33, 7.74354413151741027832e-02) (34, -8.39913636445999145508e-03) (35, -6.38407766819000244141e-02) (36, 1.61441415548324584961e-03) (37, 2.99189165234565734863e-02) (38, 3.30580398440361022949e-02) (39, 6.94408342242240905762e-02) (28, -1.81270092725753784180e-02) (29, 3.77692282199859619141e-03) (30, 7.31570348143577575684e-02) (31, 3.76589819788932800293e-02) (32, 8.99415835738182067871e-02) (33, 7.33937695622444152832e-02) (34, -2.73300185799598693848e-02) (35, 9.22244414687156677246e-02) (36, -9.63443666696548461914e-02) (37, 8.24675709009170532227e-03) (38, 2.93098166584968566895e-02) (39, -9.90739837288856506348e-02) (28, 1.94297581911087036133e-02) (29, -7.63244926929473876953e-04) (30, 9.55774858593940734863e-02) (31, 7.73249343037605285645e-02) (32, 8.89657959342002868652e-02) (33, -4.39199209213256835938e-02) (34, 9.78932753205299377441e-02) (35, 3.57915461063385009766e-03) (36, 9.76369529962539672852e-03) (37, 3.75883802771568298340e-02) (38, -8.78866985440254211426e-02) (39, 1.24783888459205627441e-02) (28, 1.50238126516342163086e-02) (29, 3.71416658163070678711e-03) (30, 4.86376062035560607910e-02) (31, -8.33617746829986572266e-02) (32, -6.63669258356094360352e-02) (33, -1.83043554425239562988e-02) (34, 8.60790684819221496582e-02) (35, 1.55060663819313049316e-02) (36, 8.54725614190101623535e-02) (37, 5.92361018061637878418e-02) (38, -4.68349568545818328857e-02) (39, 7.54141584038734436035e-02) (28, 3.26298847794532775879e-02) (29, 2.58350297808647155762e-02) (30, 6.76385983824729919434e-02) (31, 3.62855270504951477051e-02) (32, -6.59182220697402954102e-02) (33, -3.05157154798507690430e-03) (34, 3.72115299105644226074e-02) (35, 5.35115376114845275879e-02) (36, 9.61851850152015686035e-02) (37, 3.27890142798423767090e-02) (38, 3.08364704251289367676e-02) (39, 8.51509794592857360840e-02) (28, 8.88691022992134094238e-02) (29, 2.87297442555427551270e-02) (30, -1.12698674201965332031e-02) (31, -1.36721879243850708008e-03) (32, -3.36818695068359375000e-02) (33, 8.43428075313568115234e-04) (34, -8.88888314366340637207e-02) (35, 8.13419446349143981934e-02) (36, -9.54423993825912475586e-02) (37, 5.97487762570381164551e-02) (38, 9.79801788926124572754e-02) (39, -6.18093274533748626709e-02) (28, -5.85555769503116607666e-02) (29, 8.40592458844184875488e-02) (30, 5.36967441439628601074e-02) (31, -7.30830132961273193359e-02) (32, 4.32953312993049621582e-02) (33, -9.31382179260253906250e-02) (34, -9.76688563823699951172e-02) (35, -2.40747779607772827148e-02) (36, 3.26968058943748474121e-02) (37, 6.99697509407997131348e-02) (38, -8.77892673015594482422e-02) (39, 6.67785927653312683105e-02) (28, -3.30818295478820800781e-02) (29, 4.94222715497016906738e-02) (30, 2.02901214361190795898e-02) (31, -3.68966385722160339355e-02) (32, -1.77887231111526489258e-02) (33, -4.88734021782875061035e-02) (34, -5.17456606030464172363e-02) (35, -2.89196297526359558105e-02) (36, 7.98563435673713684082e-02) (37, 3.69844809174537658691e-02) (38, 6.97131529450416564941e-02) (39, -5.38255125284194946289e-02) 
