FANN_FLO_2.1
num_layers=4
learning_rate=0.700000
connection_rate=1.000000
network_type=0
learning_momentum=0.000000
training_algorithm=2
train_error_function=1
train_stop_function=0
cascade_output_change_fraction=0.010000
quickprop_decay=-0.000100
quickprop_mu=1.750000
rprop_increase_factor=1.200000
rprop_decrease_factor=0.500000
rprop_delta_min=0.000000
rprop_delta_max=50.000000
rprop_delta_zero=0.100000
cascade_output_stagnation_epochs=12
cascade_candidate_change_fraction=0.010000
cascade_candidate_stagnation_epochs=12
cascade_max_out_epochs=150
cascade_min_out_epochs=50
cascade_max_cand_epochs=150
cascade_min_cand_epochs=50
cascade_num_candidate_groups=2
bit_fail_limit=3.49999994039535522461e-01
cascade_candidate_limit=1.00000000000000000000e+03
cascade_weight_multiplier=4.00000005960464477539e-01
cascade_activation_functions_count=10
cascade_activation_functions=3 5 7 8 10 11 14 15 16 17 
cascade_activation_steepnesses_count=4
cascade_activation_steepnesses=2.50000000000000000000e-01 5.00000000000000000000e-01 7.50000000000000000000e-01 1.00000000000000000000e+00 
layer_sizes=15 13 12 11 
scale_included=0
neurons (num_inputs, activation_function, activation_steepness)=(0, 0, 0.00000000000000000000e+00) (0, 0, 0.00000000000000000000e+00) (0, 0, 0.00000000000000000000e+00) (0, 0, 0.00000000000000000000e+00) (0, 0, 0.00000000000000000000e+00) (0, 0, 0.00000000000000000000e+00) (0, 0, 0.00000000000000000000e+00) (0, 0, 0.00000000000000000000e+00) (0, 0, 0.00000000000000000000e+00) (0, 0, 0.00000000000000000000e+00) (0, 0, 0.00000000000000000000e+00) (0, 0, 0.00000000000000000000e+00) (0, 0, 0.00000000000000000000e+00) (0, 0, 0.00000000000000000000e+00) (0, 0, 0.00000000000000000000e+00) (15, 5, 5.00000000000000000000e-01) (15, 5, 5.00000000000000000000e-01) (15, 5, 5.00000000000000000000e-01) (15, 5, 5.00000000000000000000e-01) (15, 5, 5.00000000000000000000e-01) (15, 5, 5.00000000000000000000e-01) (15, 5, 5.00000000000000000000e-01) (15, 5, 5.00000000000000000000e-01) (15, 5, 5.00000000000000000000e-01) (15, 5, 5.00000000000000000000e-01) (15, 5, 5.00000000000000000000e-01) (15, 5, 5.00000000000000000000e-01) (0, 5, 0.00000000000000000000e+00) (13, 5, 5.00000000000000000000e-01) (13, 5, 5.00000000000000000000e-01) (13, 5, 5.00000000000000000000e-01) (13, 5, 5.00000000000000000000e-01) (13, 5, 5.00000000000000000000e-01) (13, 5, 5.00000000000000000000e-01) (13, 5, 5.00000000000000000000e-01) (13, 5, 5.00000000000000000000e-01) (13, 5, 5.00000000000000000000e-01) (13, 5, 5.00000000000000000000e-01) (13, 5, 5.00000000000000000000e-01) (0, 5, 0.00000000000000000000e+00) (12, 5, 5.00000000000000000000e-01) (12, 5, 5.00000000000000000000e-01) (12, 5, 5.00000000000000000000e-01) (12, 5, 5.00000000000000000000e-01) (12, 5, 5.00000000000000000000e-01) (12, 5, 5.00000000000000000000e-01) (12, 5, 5.00000000000000000000e-01) (12, 5, 5.00000000000000000000e-01) (12, 5, 5.00000000000000000000e-01) (12, 5, 5.00000000000000000000e-01) (0, 5, 0.00000000000000000000e+00) 
connections (connected_to_neuron, weight)=(0, 7.23226740956306457520e-02) (1, -7.92162865400314331055e-02) (2, 2.41705179214477539062e-02) (3, 7.52177760004997253418e-02) (4, -4.50862422585487365723e-02) (5, 9.09507274627685546875e-03) (6, -5.14075867831707000732e-02) (7, 4.10260781645774841309e-02) (8, -6.91640675067901611328e-02) (9, -1.89230591058731079102e-02) (10, -2.52170115709304809570e-03) (11, -5.01833520829677581787e-02) (12, 2.78167650103569030762e-02) (13, -5.95561154186725616455e-02) (14, -3.58086079359054565430e-03) (0, 1.41463652253150939941e-02) (1, 5.73864951729774475098e-02) (2, -2.66066417098045349121e-02) (3, -9.58163440227508544922e-02) (4, -8.61003026366233825684e-02) (5, -9.59935784339904785156e-02) (6, -1.73989385366439819336e-02) (7, 7.17881247401237487793e-02) (8, 6.76617994904518127441e-02) (9, -1.54524296522140502930e-02) (10, 5.93501850962638854980e-02) (11, 6.38570412993431091309e-02) (12, -6.07909634709358215332e-02) (13, 4.05608937144279479980e-02) (14, -7.38153532147407531738e-02) (0, 8.07947143912315368652e-02) (1, 1.28835588693618774414e-02) (2, -5.30316457152366638184e-02) (3, 4.96523082256317138672e-03) (4, -1.18986666202545166016e-02) (5, 1.88211351633071899414e-03) (6, -8.59396904706954956055e-02) (7, 3.66937592625617980957e-02) (8, -5.70918060839176177979e-02) (9, -5.51037564873695373535e-02) (10, -8.22293087840080261230e-02) (11, 4.03865054249763488770e-02) (12, -5.28710335493087768555e-03) (13, 4.55874577164649963379e-02) (14, 8.08303877711296081543e-02) (0, 9.11320373415946960449e-02) (1, -4.02661859989166259766e-02) (2, 3.82168814539909362793e-02) (3, -3.54746058583259582520e-02) (4, -3.60825285315513610840e-02) (5, 5.21165803074836730957e-02) (6, -3.14681828022003173828e-02) (7, 4.65185418725013732910e-02) (8, 2.39046812057495117188e-02) (9, -6.38063848018646240234e-02) (10, -6.89339041709899902344e-02) (11, -1.67451351881027221680e-02) (12, -9.99493524432182312012e-02) (13, -2.97248661518096923828e-02) (14, -7.61842429637908935547e-02) (0, -7.37647041678428649902e-02) (1, -4.89301495254039764404e-02) (2, 3.66993173956871032715e-02) (3, -2.67963558435440063477e-02) (4, 5.60350939631462097168e-02) (5, -7.51993507146835327148e-02) (6, 7.50857666134834289551e-02) (7, 7.00953975319862365723e-02) (8, 6.14944025874137878418e-02) (9, -8.20060446858406066895e-02) (10, -8.50083604454994201660e-02) (11, 7.92650952935218811035e-02) (12, 5.83804473280906677246e-02) (13, 9.70454514026641845703e-03) (14, 2.48525366187095642090e-02) (0, 3.92108336091041564941e-02) (1, 8.36573541164398193359e-04) (2, 8.45863595604896545410e-02) (3, -2.25722938776016235352e-02) (4, 6.53619691729545593262e-02) (5, -5.14961741864681243896e-02) (6, -7.04557299613952636719e-02) (7, -6.61062151193618774414e-02) (8, 9.50223729014396667480e-02) (9, 5.34489676356315612793e-02) (10, -2.99126058816909790039e-02) (11, -7.39115327596664428711e-02) (12, -6.32961690425872802734e-02) (13, -2.98619568347930908203e-02) (14, -3.63640487194061279297e-03) (0, -3.94804142415523529053e-02) (1, -3.62665951251983642578e-03) (2, 4.74334433674812316895e-02) (3, 9.72189083695411682129e-02) (4, 6.95769861340522766113e-02) (5, 3.46853584051132202148e-03) (6, -7.79804438352584838867e-02) (7, 4.46627512574195861816e-02) (8, -2.64360606670379638672e-02) (9, 8.35139676928520202637e-02) (10, 6.26567080616950988770e-02) (11, -1.14444196224212646484e-02) (12, 6.27790465950965881348e-02) (13, 2.10371613502502441406e-02) (14, 9.82601121068000793457e-02) (0, -1.23684033751487731934e-02) (1, -3.97520065307617187500e-02) (2, -9.03300940990447998047e-04) (3, -2.77820527553558349609e-02) (4, 3.76756861805915832520e-02) (5, -3.55413407087326049805e-02) (6, 2.07217782735824584961e-02) (7, 6.72199800610542297363e-02) (8, -1.64754688739776611328e-03) (9, 1.57441347837448120117e-02) (10, 2.06689238548278808594e-02) (11, 6.84398487210273742676e-02) (12, 4.18326035141944885254e-02) (13, 5.73727563023567199707e-02) (14, -6.14221058785915374756e-02) (0, -6.18037953972816467285e-02) (1, -8.21076557040214538574e-02) (2, 3.49512323737144470215e-02) (3, 8.56296494603157043457e-02) (4, -8.48887488245964050293e-02) (5, 4.52820956707000732422e-03) (6, -1.09018012881278991699e-02) (7, -6.28691911697387695312e-02) (8, -5.08090369403362274170e-02) (9, 6.26621320843696594238e-02) (10, -7.93552324175834655762e-02) (11, -8.81523266434669494629e-02) (12, -4.87822853028774261475e-02) (13, 8.34238156676292419434e-02) (14, 3.28848436474800109863e-02) (0, -5.05221597850322723389e-02) (1, -2.89445966482162475586e-02) (2, 9.31328311562538146973e-02) (3, 4.85745444893836975098e-02) (4, 4.32733520865440368652e-02) (5, 3.08085158467292785645e-02) (6, -8.69667977094650268555e-02) (7, -3.60048636794090270996e-02) (8, -1.97151303291320800781e-03) (9, 1.13856568932533264160e-02) (10, 7.97392800450325012207e-02) (11, -8.13025832176208496094e-02) (12, -2.01745033264160156250e-02) (13, 2.15718895196914672852e-02) (14, 7.60701671242713928223e-02) (0, 1.84033885598182678223e-02) (1, 5.97680881619453430176e-02) (2, 9.39625129103660583496e-02) (3, -4.66453805565834045410e-02) (4, 4.53977510333061218262e-02) (5, -9.09262374043464660645e-02) (6, 5.78828379511833190918e-02) (7, -6.55040591955184936523e-02) (8, -5.37954308092594146729e-02) (9, -9.29261967539787292480e-02) (10, 9.71580818295478820801e-02) (11, -3.31506654620170593262e-02) (12, -8.10785219073295593262e-02) (13, -5.16242012381553649902e-02) (14, -4.97268512845039367676e-02) (0, 5.18063083291053771973e-02) (1, -2.14635580778121948242e-03) (2, 2.13285535573959350586e-02) (3, 4.49391379952430725098e-02) (4, -5.35718239843845367432e-02) (5, -3.53980883955955505371e-02) (6, -2.42523476481437683105e-02) (7, -4.05386202037334442139e-02) (8, 2.85970494151115417480e-02) (9, 7.37761333584785461426e-02) (10, 7.08470419049263000488e-02) (11, 8.33632051944732666016e-03) (12, 9.24735590815544128418e-02) (13, -4.93274703621864318848e-02) (14, -7.00917914509773254395e-02) (15, 6.85437396168708801270e-02) (16, 6.90759196877479553223e-02) (17, 8.96762982010841369629e-02) (18, 6.25062510371208190918e-02) (19, -7.75694549083709716797e-02) (20, 3.50740477442741394043e-02) (21, 7.15800002217292785645e-02) (22, 8.03133919835090637207e-02) (23, 6.95699974894523620605e-02) (24, -8.22154283523559570312e-02) (25, 8.73871967196464538574e-02) (26, 6.67280629277229309082e-02) (27, -1.53660923242568969727e-02) (15, -9.36913341283798217773e-02) (16, -8.48961323499679565430e-02) (17, 3.49070504307746887207e-02) (18, 5.81149682402610778809e-02) (19, 1.29575133323669433594e-02) (20, -4.37643900513648986816e-02) (21, 3.05410474538803100586e-03) (22, 5.93856945633888244629e-02) (23, 2.08375230431556701660e-02) (24, 7.88017585873603820801e-02) (25, -8.11529308557510375977e-02) (26, -5.05654327571392059326e-02) (27, 5.25779053568840026855e-02) (15, 8.96941050887107849121e-02) (16, 5.77709004282951354980e-02) (17, 4.50514629483222961426e-02) (18, -5.96333704888820648193e-02) (19, 8.76790955662727355957e-02) (20, 1.35951861739158630371e-02) (21, -9.05574485659599304199e-02) (22, 7.73553922772407531738e-02) (23, -2.38985717296600341797e-02) (24, -6.81269019842147827148e-02) (25, 1.24294385313987731934e-02) (26, -5.23185692727565765381e-02) (27, -8.78135189414024353027e-02) (15, -1.80005729198455810547e-02) (16, -3.45339924097061157227e-02) (17, 9.95736792683601379395e-02) (18, -5.12725003063678741455e-02) (19, 5.00999167561531066895e-02) (20, -9.41176638007164001465e-02) (21, -3.61686274409294128418e-02) (22, -1.49930268526077270508e-02) (23, 6.39973059296607971191e-02) (24, 7.67888799309730529785e-02) (25, 4.12425920367240905762e-02) (26, -3.29485833644866943359e-02) (27, 3.61745730042457580566e-02) (15, -3.79198901355266571045e-02) (16, -5.41468225419521331787e-02) (17, 5.50216510891914367676e-02) (18, 1.15146785974502563477e-02) (19, 9.84310880303382873535e-02) (20, 4.47157546877861022949e-02) (21, -3.07144299149513244629e-02) (22, 4.34825494885444641113e-02) (23, 8.50823745131492614746e-02) (24, -4.30353283882141113281e-02) (25, -4.29222658276557922363e-02) (26, 9.45249274373054504395e-02) (27, -6.56799376010894775391e-02) (15, 3.31791713833808898926e-02) (16, -7.36019611358642578125e-02) (17, 4.67495098710060119629e-02) (18, 8.08605924248695373535e-02) (19, -6.14154823124408721924e-02) (20, -7.12510645389556884766e-02) (21, -5.36733977496623992920e-02) (22, -6.18418119847774505615e-02) (23, -2.25235670804977416992e-02) (24, 9.64265093207359313965e-02) (25, -5.59594780206680297852e-02) (26, 4.13078144192695617676e-02) (27, -1.85665115714073181152e-02) (15, -9.19621735811233520508e-02) (16, 1.80967003107070922852e-02) (17, -7.73239284753799438477e-02) (18, -2.49107554554939270020e-02) (19, -4.57287319004535675049e-02) (20, -1.52438208460807800293e-02) (21, 2.09424272179603576660e-02) (22, -9.07070934772491455078e-02) (23, 9.62708666920661926270e-02) (24, 1.93735137581825256348e-02) (25, 5.40086552500724792480e-02) (26, -3.44435721635818481445e-02) (27, -3.71439456939697265625e-02) (15, 3.90910431742668151855e-02) (16, 2.25211009383201599121e-02) (17, 1.99337825179100036621e-02) (18, 3.36159691214561462402e-02) (19, 5.68411722779273986816e-02) (20, -4.68870513141155242920e-02) (21, 6.00140169262886047363e-02) (22, 3.59066575765609741211e-03) (23, -6.60264492034912109375e-02) (24, 9.85985323786735534668e-02) (25, 3.23396101593971252441e-02) (26, -1.96998566389083862305e-02) (27, -6.32432848215103149414e-02) (15, -9.01839584112167358398e-02) (16, -2.32733339071273803711e-02) (17, -1.92027688026428222656e-02) (18, 5.11238649487495422363e-02) (19, 5.81601485610008239746e-02) (20, -1.11649334430694580078e-02) (21, -3.07794511318206787109e-02) (22, 8.08362290263175964355e-02) (23, 6.39243200421333312988e-02) (24, 2.34918147325515747070e-02) (25, -3.44076007604598999023e-02) (26, -1.51332616806030273438e-02) (27, 3.27847227454185485840e-02) (15, -3.81367392838001251221e-02) (16, -9.57597494125366210938e-02) (17, -1.32066160440444946289e-02) (18, 2.74196937680244445801e-02) (19, -3.29036936163902282715e-02) (20, -7.41155818104743957520e-02) (21, -5.00592105090618133545e-02) (22, 8.70300903916358947754e-02) (23, 5.95003888010978698730e-02) (24, -9.32180434465408325195e-02) (25, -5.98569624125957489014e-02) (26, 1.95143967866897583008e-02) (27, 1.03726238012313842773e-02) (15, -2.58834138512611389160e-02) (16, 1.81129202246665954590e-02) (17, -5.72877638041973114014e-02) (18, 5.44167384505271911621e-02) (19, 5.48696294426918029785e-02) (20, -4.74717207252979278564e-02) (21, -6.88565969467163085938e-02) (22, -6.43331408500671386719e-02) (23, -9.63478684425354003906e-02) (24, 8.93035605549812316895e-02) (25, 2.45019346475601196289e-02) (26, -2.71273180842399597168e-02) (27, 7.01397731900215148926e-02) (28, -1.15737617015838623047e-02) (29, 9.63645055890083312988e-02) (30, -6.42678216099739074707e-02) (31, 7.32929781079292297363e-02) (32, 2.91492268443107604980e-02) (33, -2.40455567836761474609e-03) (34, 7.75332376360893249512e-02) (35, -8.40573981404304504395e-02) (36, -7.49848708510398864746e-02) (37, -5.53704686462879180908e-02) (38, -5.81729821860790252686e-02) (39, -2.50440835952758789062e-02) (28, -6.83403760194778442383e-02) (29, -9.86725986003875732422e-02) (30, -1.82621255517005920410e-02) (31, -2.81973406672477722168e-02) (32, 2.08417996764183044434e-02) (33, 9.21105071902275085449e-02) (34, 4.59192469716072082520e-02) (35, -6.10452890396118164062e-02) (36, -6.51772618293762207031e-02) (37, 3.35976481437683105469e-04) (38, 9.38243344426155090332e-02) (39, -1.26489773392677307129e-02) (28, 3.14793810248374938965e-02) (29, -7.05088004469871520996e-02) (30, -8.99683684110641479492e-03) (31, 2.07829326391220092773e-02) (32, 5.39931282401084899902e-02) (33, 6.38758465647697448730e-02) (34, -9.07728821039199829102e-03) (35, -5.75806312263011932373e-02) (36, 6.02403357625007629395e-02) (37, 2.66549065709114074707e-02) (38, -8.42876508831977844238e-02) (39, -1.06104463338851928711e-02) (28, -7.57496654987335205078e-02) (29, 9.32455733418464660645e-02) (30, 5.33215701580047607422e-03) (31, -5.07345385849475860596e-02) (32, -6.21248930692672729492e-02) (33, 4.71591725945472717285e-02) (34, 2.42213830351829528809e-02) (35, -3.04652750492095947266e-02) (36, 4.84865829348564147949e-02) (37, -9.40407440066337585449e-02) (38, 4.13373783230781555176e-02) (39, -3.06716263294219970703e-02) (28, 9.80697646737098693848e-02) (29, -1.27433687448501586914e-02) (30, 8.28309357166290283203e-03) (31, -6.71074986457824707031e-02) (32, 8.75926092267036437988e-02) (33, 2.10742652416229248047e-03) (34, 2.02435404062271118164e-02) (35, 1.90719962120056152344e-02) (36, 3.15986350178718566895e-02) (37, -8.87533053755760192871e-02) (38, -6.01450614631175994873e-02) (39, -1.44082456827163696289e-02) (28, 7.51225426793098449707e-02) (29, 3.07776406407356262207e-02) (30, 2.80111208558082580566e-02) (31, 3.53628769516944885254e-02) (32, -4.25674580037593841553e-02) (33, 4.37234714627265930176e-02) (34, -7.52475634217262268066e-02) (35, -1.83171182870864868164e-02) (36, 3.69690433144569396973e-02) (37, 3.00846025347709655762e-02) (38, 3.09483483433723449707e-02) (39, 7.48441591858863830566e-02) (28, -2.27562338113784790039e-02) (29, -4.48302812874317169189e-02) (30, -5.56211210787296295166e-02) (31, -7.42696523666381835938e-02) (32, -3.88710200786590576172e-02) (33, 8.57162699103355407715e-02) (34, -4.94127720594406127930e-03) (35, -4.08012568950653076172e-02) (36, -2.70271003246307373047e-02) (37, -9.66582000255584716797e-02) (38, -7.90875405073165893555e-03) (39, -3.94344814121723175049e-02) (28, 5.44922053813934326172e-03) (29, -8.76652225852012634277e-02) (30, 7.96375200152397155762e-02) (31, -6.29521459341049194336e-02) (32, -7.64185264706611633301e-02) (33, -8.05075466632843017578e-02) (34, 2.26396098732948303223e-02) (35, 9.87040176987648010254e-02) (36, 5.02701029181480407715e-02) (37, -4.93492744863033294678e-02) (38, 3.40668931603431701660e-02) (39, -9.22973528504371643066e-02) (28, 9.43742021918296813965e-02) (29, 5.88193312287330627441e-02) (30, -1.06144696474075317383e-02) (31, 3.13432440161705017090e-02) (32, -1.10960751771926879883e-02) (33, -7.96661376953125000000e-02) (34, 6.18740171194076538086e-03) (35, 6.61476925015449523926e-02) (36, -2.44964137673377990723e-02) (37, 5.05662783980369567871e-02) (38, 9.18780341744422912598e-02) (39, 3.66325750946998596191e-02) (28, 3.62825468182563781738e-02) (29, -1.30632445216178894043e-02) (30, 9.58313122391700744629e-02) (31, -9.07445549964904785156e-02) (32, -9.72144305706024169922e-03) (33, -1.20774433016777038574e-02) (34, -3.01790386438369750977e-02) (35, 9.57277938723564147949e-02) (36, 2.57335603237152099609e-04) (37, -5.05415163934230804443e-02) (38, -6.72243535518646240234e-02) (39, 2.38388031721115112305e-02) 
