FANN_FLO_2.1
num_layers=4
learning_rate=0.700000
connection_rate=1.000000
network_type=0
learning_momentum=0.000000
training_algorithm=2
train_error_function=1
train_stop_function=0
cascade_output_change_fraction=0.010000
quickprop_decay=-0.000100
quickprop_mu=1.750000
rprop_increase_factor=1.200000
rprop_decrease_factor=0.500000
rprop_delta_min=0.000000
rprop_delta_max=50.000000
rprop_delta_zero=0.100000
cascade_output_stagnation_epochs=12
cascade_candidate_change_fraction=0.010000
cascade_candidate_stagnation_epochs=12
cascade_max_out_epochs=150
cascade_min_out_epochs=50
cascade_max_cand_epochs=150
cascade_min_cand_epochs=50
cascade_num_candidate_groups=2
bit_fail_limit=3.49999994039535522461e-01
cascade_candidate_limit=1.00000000000000000000e+03
cascade_weight_multiplier=4.00000005960464477539e-01
cascade_activation_functions_count=10
cascade_activation_functions=3 5 7 8 10 11 14 15 16 17 
cascade_activation_steepnesses_count=4
cascade_activation_steepnesses=2.50000000000000000000e-01 5.00000000000000000000e-01 7.50000000000000000000e-01 1.00000000000000000000e+00 
layer_sizes=15 13 12 11 
scale_included=0
neurons (num_inputs, activation_function, activation_steepness)=(0, 0, 0.00000000000000000000e+00) (0, 0, 0.00000000000000000000e+00) (0, 0, 0.00000000000000000000e+00) (0, 0, 0.00000000000000000000e+00) (0, 0, 0.00000000000000000000e+00) (0, 0, 0.00000000000000000000e+00) (0, 0, 0.00000000000000000000e+00) (0, 0, 0.00000000000000000000e+00) (0, 0, 0.00000000000000000000e+00) (0, 0, 0.00000000000000000000e+00) (0, 0, 0.00000000000000000000e+00) (0, 0, 0.00000000000000000000e+00) (0, 0, 0.00000000000000000000e+00) (0, 0, 0.00000000000000000000e+00) (0, 0, 0.00000000000000000000e+00) (15, 5, 5.00000000000000000000e-01) (15, 5, 5.00000000000000000000e-01) (15, 5, 5.00000000000000000000e-01) (15, 5, 5.00000000000000000000e-01) (15, 5, 5.00000000000000000000e-01) (15, 5, 5.00000000000000000000e-01) (15, 5, 5.00000000000000000000e-01) (15, 5, 5.00000000000000000000e-01) (15, 5, 5.00000000000000000000e-01) (15, 5, 5.00000000000000000000e-01) (15, 5, 5.00000000000000000000e-01) (15, 5, 5.00000000000000000000e-01) (0, 5, 0.00000000000000000000e+00) (13, 5, 5.00000000000000000000e-01) (13, 5, 5.00000000000000000000e-01) (13, 5, 5.00000000000000000000e-01) (13, 5, 5.00000000000000000000e-01) (13, 5, 5.00000000000000000000e-01) (13, 5, 5.00000000000000000000e-01) (13, 5, 5.00000000000000000000e-01) (13, 5, 5.00000000000000000000e-01) (13, 5, 5.00000000000000000000e-01) (13, 5, 5.00000000000000000000e-01) (13, 5, 5.00000000000000000000e-01) (0, 5, 0.00000000000000000000e+00) (12, 5, 5.00000000000000000000e-01) (12, 5, 5.00000000000000000000e-01) (12, 5, 5.00000000000000000000e-01) (12, 5, 5.00000000000000000000e-01) (12, 5, 5.00000000000000000000e-01) (12, 5, 5.00000000000000000000e-01) (12, 5, 5.00000000000000000000e-01) (12, 5, 5.00000000000000000000e-01) (12, 5, 5.00000000000000000000e-01) (12, 5, 5.00000000000000000000e-01) (0, 5, 0.00000000000000000000e+00) 
connections (connected_to_neuron, weight)=(0, 1.37592330574989318848e-02) (1, -8.03392678499221801758e-02) (2, 6.07863068580627441406e-04) (3, -6.54447078704833984375e-02) (4, -9.98223274946212768555e-02) (5, -4.97540719807147979736e-02) (6, 6.55205920338630676270e-02) (7, -2.94419825077056884766e-02) (8, 2.73710265755653381348e-02) (9, -9.50853526592254638672e-03) (10, -1.92245990037918090820e-02) (11, 7.13042691349983215332e-02) (12, 9.85573902726173400879e-02) (13, 1.47469043731689453125e-02) (14, 2.57401093840599060059e-02) (0, 8.27588140964508056641e-04) (1, -3.61562818288803100586e-02) (2, 2.07556635141372680664e-02) (3, 3.06011065840721130371e-02) (4, -6.64017200469970703125e-02) (5, 8.12300518155097961426e-02) (6, -8.96954610943794250488e-02) (7, 3.50801125168800354004e-02) (8, 2.87571772933006286621e-02) (9, -8.95219668745994567871e-02) (10, 9.88233461976051330566e-02) (11, 5.03437742590904235840e-02) (12, 8.88703241944313049316e-02) (13, -8.03553909063339233398e-02) (14, -3.41758430004119873047e-02) (0, -5.52961714565753936768e-02) (1, 3.34038361907005310059e-02) (2, -1.45151168107986450195e-02) (3, 4.53116968274116516113e-02) (4, 6.79591372609138488770e-02) (5, -1.43374353647232055664e-02) (6, 9.55576226115226745605e-02) (7, 3.34797278046607971191e-02) (8, 5.62205836176872253418e-02) (9, 2.29286402463912963867e-02) (10, -7.60288089513778686523e-02) (11, -6.30040168762207031250e-02) (12, -5.76707720756530761719e-03) (13, -7.74714201688766479492e-02) (14, 5.17428889870643615723e-02) (0, -8.00269693136215209961e-02) (1, 2.33561620116233825684e-02) (2, -8.44133943319320678711e-02) (3, 4.07286956906318664551e-02) (4, -4.60427366197109222412e-02) (5, -5.08151128888130187988e-02) (6, 2.19587460160255432129e-02) (7, -3.57381924986839294434e-02) (8, 8.42650011181831359863e-02) (9, -4.92840819060802459717e-02) (10, -2.52601653337478637695e-02) (11, 8.30883458256721496582e-02) (12, -9.89403054118156433105e-02) (13, -3.63898426294326782227e-02) (14, -9.72670465707778930664e-02) (0, -3.31161469221115112305e-02) (1, 8.31399112939834594727e-03) (2, 3.61367985606193542480e-02) (3, 5.23687377572059631348e-02) (4, -4.63743209838867187500e-02) (5, 4.09592688083648681641e-03) (6, -6.19686953723430633545e-02) (7, -5.08166961371898651123e-02) (8, -6.24243505299091339111e-02) (9, 9.42518785595893859863e-02) (10, 7.21119567751884460449e-02) (11, -3.84531579911708831787e-02) (12, -6.87521323561668395996e-02) (13, -3.36551293730735778809e-02) (14, -1.59245729446411132812e-02) (0, 8.29907581210136413574e-02) (1, -1.36821046471595764160e-02) (2, -9.25684124231338500977e-02) (3, 9.85773578286170959473e-02) (4, -7.29534104466438293457e-02) (5, -3.86111438274383544922e-02) (6, -5.22377565503120422363e-02) (7, 4.90053370594978332520e-02) (8, 2.56506726145744323730e-02) (9, -6.79727569222450256348e-02) (10, 9.97212603688240051270e-02) (11, -9.96095016598701477051e-02) (12, -8.48844125866889953613e-02) (13, -9.92190539836883544922e-02) (14, -3.59993427991867065430e-02) (0, -8.21514576673507690430e-02) (1, -3.23352068662643432617e-02) (2, 7.23146572709083557129e-02) (3, 5.39853498339653015137e-02) (4, -7.99664631485939025879e-02) (5, -7.40596652030944824219e-02) (6, -4.19187359511852264404e-02) (7, -4.19351570308208465576e-02) (8, -2.48763710260391235352e-02) (9, -4.34308499097824096680e-03) (10, -4.76832762360572814941e-02) (11, -5.27644157409667968750e-02) (12, 5.72037622332572937012e-02) (13, -1.64354071021080017090e-02) (14, 1.35804563760757446289e-02) (0, -5.87208122014999389648e-02) (1, -3.34446579217910766602e-02) (2, 9.98983457684516906738e-02) (3, -5.12892268598079681396e-02) (4, -3.48673015832901000977e-02) (5, -7.30550587177276611328e-02) (6, 1.00996345281600952148e-02) (7, 1.28949433565139770508e-02) (8, 7.59502723813056945801e-02) (9, -6.42497092485427856445e-02) (10, 4.49221804738044738770e-02) (11, 7.56715312600135803223e-02) (12, -6.38592094182968139648e-02) (13, 6.00377842783927917480e-02) (14, 7.64524713158607482910e-02) (0, 1.41456723213195800781e-04) (1, 7.78863355517387390137e-02) (2, -5.58827333152294158936e-02) (3, -2.75438874959945678711e-02) (4, 3.18716689944267272949e-02) (5, -3.58491912484169006348e-02) (6, -1.60355865955352783203e-03) (7, 8.99529382586479187012e-02) (8, 2.22156494855880737305e-02) (9, 7.35200718045234680176e-02) (10, -1.43901556730270385742e-02) (11, 7.45323821902275085449e-02) (12, -7.92443454265594482422e-02) (13, -5.71863912045955657959e-02) (14, -4.19030264019966125488e-02) (0, 3.43361124396324157715e-02) (1, -1.59071981906890869141e-02) (2, 2.46523246169090270996e-02) (3, 3.42344716191291809082e-02) (4, 3.28035727143287658691e-02) (5, 8.97850170731544494629e-02) (6, 6.11794069409370422363e-02) (7, -5.70967905223369598389e-02) (8, 2.67996639013290405273e-03) (9, 3.71296927332878112793e-02) (10, -2.13464945554733276367e-02) (11, -5.23978471755981445312e-02) (12, 1.28012076020240783691e-02) (13, 1.47943049669265747070e-02) (14, -9.23600643873214721680e-02) (0, -1.07463151216506958008e-02) (1, -8.50642397999763488770e-02) (2, 8.55262652039527893066e-02) (3, 3.33709493279457092285e-02) (4, -1.26081332564353942871e-02) (5, 1.73979252576828002930e-02) (6, 9.75217595696449279785e-02) (7, 8.57883170247077941895e-02) (8, 7.35086202621459960938e-03) (9, 1.97374075651168823242e-02) (10, 5.93083873391151428223e-02) (11, 9.29607078433036804199e-02) (12, -5.73019683361053466797e-03) (13, 8.00640359520912170410e-02) (14, -6.42256885766983032227e-02) (0, 5.23667708039283752441e-02) (1, 1.44001469016075134277e-02) (2, 1.98671072721481323242e-02) (3, -2.29809060692787170410e-02) (4, -5.13653792440891265869e-02) (5, -4.73293066024780273438e-02) (6, -3.31958830356597900391e-02) (7, -9.01859700679779052734e-02) (8, -4.42609935998916625977e-03) (9, 6.94840773940086364746e-02) (10, 4.69437316060066223145e-02) (11, 7.42274001240730285645e-02) (12, -8.29137712717056274414e-02) (13, -4.02550697326660156250e-02) (14, -1.09782963991165161133e-02) (15, -7.52738341689109802246e-02) (16, 4.89986166357994079590e-02) (17, 3.95746529102325439453e-03) (18, -8.97475779056549072266e-02) (19, -1.76304355263710021973e-02) (20, 9.13493260741233825684e-02) (21, 2.76503637433052062988e-02) (22, -2.01086699962615966797e-02) (23, 7.71376416087150573730e-02) (24, -6.49987906217575073242e-02) (25, 9.96287539601325988770e-02) (26, 3.64460274577140808105e-02) (27, -7.20380842685699462891e-02) (15, -6.10145926475524902344e-03) (16, 1.65100544691085815430e-02) (17, -3.62637713551521301270e-02) (18, -5.37346862256526947021e-02) (19, -6.90897926688194274902e-02) (20, 8.36033448576927185059e-02) (21, 2.32844129204750061035e-02) (22, -2.04551666975021362305e-02) (23, -6.37259632349014282227e-02) (24, 9.00885239243507385254e-02) (25, -1.06411352753639221191e-02) (26, 3.18479463458061218262e-02) (27, 5.95725998282432556152e-02) (15, -6.36974126100540161133e-02) (16, 6.07534497976303100586e-03) (17, 7.66588374972343444824e-02) (18, -3.95248085260391235352e-03) (19, 9.50970575213432312012e-02) (20, -9.86149981617927551270e-02) (21, -5.49538657069206237793e-02) (22, -9.45486128330230712891e-04) (23, -8.83625745773315429688e-02) (24, 2.74157002568244934082e-02) (25, -9.59615409374237060547e-03) (26, 3.92877832055091857910e-02) (27, -9.26929712295532226562e-02) (15, -3.24585214257240295410e-02) (16, 7.42889866232872009277e-02) (17, -9.30642336606979370117e-02) (18, -9.60125029087066650391e-02) (19, -9.77490991353988647461e-02) (20, 8.34308564662933349609e-04) (21, 2.04975605010986328125e-02) (22, -3.40128690004348754883e-02) (23, 4.70996275544166564941e-02) (24, 5.14077618718147277832e-02) (25, -5.04095181822776794434e-02) (26, -2.96159684658050537109e-02) (27, -6.90474063158035278320e-02) (15, -1.41354724764823913574e-02) (16, -3.95274460315704345703e-02) (17, 2.03114598989486694336e-02) (18, -8.22875350713729858398e-02) (19, -7.99548476934432983398e-02) (20, 5.66140487790107727051e-02) (21, 2.37878113985061645508e-02) (22, 9.67039838433265686035e-02) (23, -4.73384261131286621094e-02) (24, 1.88848599791526794434e-02) (25, 9.80889871716499328613e-02) (26, -2.29229032993316650391e-03) (27, -8.20606276392936706543e-02) (15, -9.02735888957977294922e-02) (16, -7.48765915632247924805e-02) (17, 8.34321975708007812500e-03) (18, 4.90141883492469787598e-02) (19, -6.75695687532424926758e-02) (20, 7.58847072720527648926e-02) (21, 2.33031734824180603027e-02) (22, -6.06337897479534149170e-02) (23, 7.98721984028816223145e-02) (24, 2.55540832877159118652e-02) (25, 4.02005240321159362793e-02) (26, 3.69749963283538818359e-04) (27, 9.15412232279777526855e-02) (15, -1.26998573541641235352e-02) (16, -4.82224896550178527832e-02) (17, -5.88683001697063446045e-02) (18, 5.76841756701469421387e-02) (19, -1.72698870301246643066e-02) (20, 2.69962176680564880371e-02) (21, -8.18432718515396118164e-02) (22, -9.69584211707115173340e-02) (23, 4.47086915373802185059e-02) (24, -6.17981180548667907715e-02) (25, 5.96556290984153747559e-02) (26, -3.15034985542297363281e-02) (27, -6.50941282510757446289e-02) (15, -8.76827985048294067383e-02) (16, 8.73813703656196594238e-02) (17, -6.70051425695419311523e-02) (18, 1.00249201059341430664e-02) (19, -9.46792662143707275391e-02) (20, -5.72787337005138397217e-02) (21, 3.51483300328254699707e-02) (22, 1.36639475822448730469e-02) (23, 9.17354598641395568848e-02) (24, 6.75787702202796936035e-02) (25, -1.04513540863990783691e-02) (26, 1.50386318564414978027e-02) (27, -9.30550321936607360840e-02) (15, -3.05791646242141723633e-02) (16, -5.94072863459587097168e-02) (17, 4.71454933285713195801e-02) (18, 6.97905942797660827637e-02) (19, -6.78660720586776733398e-02) (20, -6.55543655157089233398e-02) (21, -7.84318968653678894043e-02) (22, -2.67343744635581970215e-02) (23, 9.21298190951347351074e-02) (24, 4.29821014404296875000e-03) (25, -9.97381508350372314453e-02) (26, -8.97134616971015930176e-02) (27, 7.33979791402816772461e-03) (15, 4.49705347418785095215e-02) (16, -5.15115782618522644043e-02) (17, -3.30045744776725769043e-02) (18, -8.65329653024673461914e-02) (19, -1.66057050228118896484e-02) (20, -2.06873640418052673340e-02) (21, -9.91516038775444030762e-02) (22, 1.63891464471817016602e-02) (23, 8.93375501036643981934e-02) (24, -9.38308760523796081543e-02) (25, 5.91104105114936828613e-02) (26, 2.44858711957931518555e-02) (27, 1.98330730199813842773e-02) (15, 5.08458688855171203613e-02) (16, -7.93536007404327392578e-03) (17, -9.06182825565338134766e-02) (18, -3.41154858469963073730e-02) (19, -9.90390777587890625000e-04) (20, -2.11974382400512695312e-02) (21, 6.47722184658050537109e-03) (22, -5.38448989391326904297e-02) (23, -5.14068529009819030762e-02) (24, 3.86111661791801452637e-02) (25, -1.93992629647254943848e-02) (26, -2.98387482762336730957e-02) (27, -8.81232172250747680664e-02) (28, -2.72694528102874755859e-02) (29, 7.44594708085060119629e-02) (30, -8.78613665699958801270e-02) (31, -1.69829130172729492188e-02) (32, -1.82007402181625366211e-02) (33, 5.71091696619987487793e-02) (34, 3.15055176615715026855e-02) (35, 4.87946942448616027832e-02) (36, 7.05761983990669250488e-02) (37, -8.51001963019371032715e-02) (38, -7.18926787376403808594e-02) (39, 7.14246109127998352051e-02) (28, 3.12889590859413146973e-02) (29, -8.25551301240921020508e-02) (30, 7.75937363505363464355e-02) (31, -9.60062444210052490234e-03) (32, 4.19307425618171691895e-02) (33, -2.57319211959838867188e-03) (34, -5.87547533214092254639e-02) (35, -6.60046339035034179688e-02) (36, 6.80853426456451416016e-03) (37, 7.12976604700088500977e-03) (38, 3.30049917101860046387e-02) (39, 8.56110975146293640137e-02) (28, -8.63930135965347290039e-02) (29, 7.91600868105888366699e-02) (30, -6.57957643270492553711e-02) (31, 5.22181466221809387207e-02) (32, -4.02391850948333740234e-02) (33, 4.36548888683319091797e-03) (34, 6.40949383378028869629e-02) (35, 3.24913635849952697754e-02) (36, -2.11750417947769165039e-02) (37, 7.62335732579231262207e-02) (38, -8.44915434718132019043e-02) (39, 6.06242194771766662598e-02) (28, 3.33427265286445617676e-02) (29, 4.70139607787132263184e-02) (30, 9.41891968250274658203e-03) (31, 3.91894578933715820312e-03) (32, 6.19137808680534362793e-02) (33, 3.75262275338172912598e-02) (34, -2.46564522385597229004e-02) (35, -6.79726898670196533203e-03) (36, 5.49711063504219055176e-02) (37, -4.70627211034297943115e-02) (38, 8.36020931601524353027e-02) (39, -3.09816747903823852539e-03) (28, 5.03640845417976379395e-02) (29, -7.51526504755020141602e-02) (30, 3.08972075581550598145e-02) (31, -4.28273789584636688232e-02) (32, 3.19771245121955871582e-02) (33, -3.60978096723556518555e-02) (34, -5.72162866592407226562e-02) (35, 4.55841049551963806152e-02) (36, -5.69377280771732330322e-02) (37, -2.30120494961738586426e-02) (38, -2.19774991273880004883e-03) (39, 2.82309204339981079102e-03) (28, 8.13534483313560485840e-02) (29, -3.81028167903423309326e-02) (30, -6.46855458617210388184e-02) (31, -3.98215949535369873047e-02) (32, -6.18692524731159210205e-02) (33, -4.91770915687084197998e-02) (34, -7.91973769664764404297e-02) (35, 7.14734867215156555176e-02) (36, 9.78368744254112243652e-02) (37, 3.02215293049812316895e-02) (38, -2.46075689792633056641e-02) (39, 5.97506538033485412598e-02) (28, -3.22522297501564025879e-02) (29, 5.07359728217124938965e-02) (30, -4.70466278493404388428e-02) (31, -7.72811323404312133789e-02) (32, -9.63267385959625244141e-02) (33, -6.34445250034332275391e-02) (34, 1.96207016706466674805e-02) (35, 5.40373548865318298340e-02) (36, -3.85971777141094207764e-02) (37, -4.94820885360240936279e-02) (38, -8.87900218367576599121e-02) (39, 9.33799222111701965332e-02) (28, 1.44201070070266723633e-02) (29, -4.60063107311725616455e-02) (30, 3.89640405774116516113e-02) (31, 5.74823692440986633301e-02) (32, 3.09816524386405944824e-02) (33, -6.32337182760238647461e-02) (34, -3.96945364773273468018e-02) (35, 1.23350843787193298340e-02) (36, -1.33652985095977783203e-03) (37, -4.38008457422256469727e-03) (38, 7.25134983658790588379e-02) (39, 3.67942228913307189941e-02) (28, 4.64428290724754333496e-02) (29, 9.33161303400993347168e-02) (30, 8.26770067214965820312e-03) (31, 4.42797020077705383301e-02) (32, 2.35376581549644470215e-02) (33, 8.36601331830024719238e-02) (34, 4.03034687042236328125e-03) (35, 9.12854298949241638184e-02) (36, 3.43961194157600402832e-02) (37, 5.69837167859077453613e-02) (38, -8.59957039356231689453e-02) (39, 3.80693748593330383301e-02) (28, 9.35391858220100402832e-02) (29, 3.36250141263008117676e-02) (30, -7.89327174425125122070e-03) (31, -4.50579822063446044922e-02) (32, 8.41429159045219421387e-02) (33, 3.31671535968780517578e-03) (34, -5.16780540347099304199e-02) (35, -1.43698602914810180664e-03) (36, 5.73104098439216613770e-02) (37, 8.72859880328178405762e-02) (38, -4.39546108245849609375e-02) (39, -1.17079541087150573730e-02) 
