FANN_FLO_2.1
num_layers=4
learning_rate=0.700000
connection_rate=1.000000
network_type=0
learning_momentum=0.000000
training_algorithm=2
train_error_function=1
train_stop_function=0
cascade_output_change_fraction=0.010000
quickprop_decay=-0.000100
quickprop_mu=1.750000
rprop_increase_factor=1.200000
rprop_decrease_factor=0.500000
rprop_delta_min=0.000000
rprop_delta_max=50.000000
rprop_delta_zero=0.100000
cascade_output_stagnation_epochs=12
cascade_candidate_change_fraction=0.010000
cascade_candidate_stagnation_epochs=12
cascade_max_out_epochs=150
cascade_min_out_epochs=50
cascade_max_cand_epochs=150
cascade_min_cand_epochs=50
cascade_num_candidate_groups=2
bit_fail_limit=3.49999994039535522461e-01
cascade_candidate_limit=1.00000000000000000000e+03
cascade_weight_multiplier=4.00000005960464477539e-01
cascade_activation_functions_count=10
cascade_activation_functions=3 5 7 8 10 11 14 15 16 17 
cascade_activation_steepnesses_count=4
cascade_activation_steepnesses=2.50000000000000000000e-01 5.00000000000000000000e-01 7.50000000000000000000e-01 1.00000000000000000000e+00 
layer_sizes=11 11 11 11 
scale_included=0
neurons (num_inputs, activation_function, activation_steepness)=(0, 0, 0.00000000000000000000e+00) (0, 0, 0.00000000000000000000e+00) (0, 0, 0.00000000000000000000e+00) (0, 0, 0.00000000000000000000e+00) (0, 0, 0.00000000000000000000e+00) (0, 0, 0.00000000000000000000e+00) (0, 0, 0.00000000000000000000e+00) (0, 0, 0.00000000000000000000e+00) (0, 0, 0.00000000000000000000e+00) (0, 0, 0.00000000000000000000e+00) (0, 0, 0.00000000000000000000e+00) (11, 5, 5.00000000000000000000e-01) (11, 5, 5.00000000000000000000e-01) (11, 5, 5.00000000000000000000e-01) (11, 5, 5.00000000000000000000e-01) (11, 5, 5.00000000000000000000e-01) (11, 5, 5.00000000000000000000e-01) (11, 5, 5.00000000000000000000e-01) (11, 5, 5.00000000000000000000e-01) (11, 5, 5.00000000000000000000e-01) (11, 5, 5.00000000000000000000e-01) (0, 5, 0.00000000000000000000e+00) (11, 5, 5.00000000000000000000e-01) (11, 5, 5.00000000000000000000e-01) (11, 5, 5.00000000000000000000e-01) (11, 5, 5.00000000000000000000e-01) (11, 5, 5.00000000000000000000e-01) (11, 5, 5.00000000000000000000e-01) (11, 5, 5.00000000000000000000e-01) (11, 5, 5.00000000000000000000e-01) (11, 5, 5.00000000000000000000e-01) (11, 5, 5.00000000000000000000e-01) (0, 5, 0.00000000000000000000e+00) (11, 5, 5.00000000000000000000e-01) (11, 5, 5.00000000000000000000e-01) (11, 5, 5.00000000000000000000e-01) (11, 5, 5.00000000000000000000e-01) (11, 5, 5.00000000000000000000e-01) (11, 5, 5.00000000000000000000e-01) (11, 5, 5.00000000000000000000e-01) (11, 5, 5.00000000000000000000e-01) (11, 5, 5.00000000000000000000e-01) (11, 5, 5.00000000000000000000e-01) (0, 5, 0.00000000000000000000e+00) 
connections (connected_to_neuron, weight)=(0, -7.83462822437286376953e-03) (1, 6.81859254837036132812e-03) (2, -2.35364586114883422852e-02) (3, 1.23241394758224487305e-02) (4, 7.43099972605705261230e-02) (5, -3.52979823946952819824e-02) (6, -9.31652188301086425781e-02) (7, 7.54282101988792419434e-02) (8, -6.33897930383682250977e-02) (9, -4.03552055358886718750e-02) (10, -5.89672625064849853516e-02) (0, -9.84550341963768005371e-02) (1, 1.04092955589294433594e-02) (2, 7.22356364130973815918e-02) (3, -6.60115852952003479004e-02) (4, 1.57932788133621215820e-02) (5, -8.20574909448623657227e-02) (6, 5.92815354466438293457e-02) (7, 8.65734443068504333496e-02) (8, -2.80506163835525512695e-02) (9, 8.52910503745079040527e-02) (10, 5.35149201750755310059e-02) (0, 5.09632900357246398926e-02) (1, -6.26337975263595581055e-02) (2, -5.37554547190666198730e-02) (3, -6.13890700042247772217e-02) (4, 8.20397809147834777832e-02) (5, 2.18082070350646972656e-02) (6, -1.63166597485542297363e-02) (7, 6.61754980683326721191e-02) (8, -4.29630950093269348145e-02) (9, 7.58487060666084289551e-02) (10, -2.70059183239936828613e-02) (0, 3.35004404187202453613e-02) (1, -1.18271410465240478516e-02) (2, -5.26959262788295745850e-02) (3, 9.82024595141410827637e-02) (4, -4.99235838651657104492e-03) (5, -7.72677138447761535645e-02) (6, -6.51873350143432617188e-02) (7, 5.46524301171302795410e-02) (8, -3.62349748611450195312e-02) (9, -6.36423602700233459473e-02) (10, -3.49382758140563964844e-02) (0, -6.39993399381637573242e-02) (1, -2.96539440751075744629e-02) (2, 8.08550044894218444824e-02) (3, -4.60568331182003021240e-02) (4, -7.03724101185798645020e-02) (5, 6.74284622073173522949e-02) (6, 2.58925631642341613770e-02) (7, -8.50813537836074829102e-02) (8, 2.09433808922767639160e-02) (9, -2.31441408395767211914e-02) (10, -4.77151572704315185547e-02) (0, 6.71879276633262634277e-02) (1, 1.54667869210243225098e-02) (2, -6.56753927469253540039e-02) (3, -1.10038667917251586914e-02) (4, 9.91501286625862121582e-02) (5, -9.94998961687088012695e-02) (6, 4.60330322384834289551e-02) (7, 7.49988481402397155762e-02) (8, -2.65058130025863647461e-02) (9, -2.04665139317512512207e-02) (10, -3.68282943964004516602e-02) (0, 2.07982659339904785156e-02) (1, -2.22640559077262878418e-02) (2, 5.81793412566184997559e-02) (3, 4.35305461287498474121e-02) (4, 1.25486105680465698242e-02) (5, 1.28317698836326599121e-02) (6, -9.27044302225112915039e-02) (7, 4.89062592387199401855e-02) (8, 7.78935030102729797363e-02) (9, -5.67037686705589294434e-02) (10, -8.07476863265037536621e-02) (0, 5.87485060095787048340e-02) (1, -2.76059657335281372070e-03) (2, -5.11200949549674987793e-02) (3, 2.61769667267799377441e-02) (4, -7.68680423498153686523e-02) (5, -3.62014472484588623047e-02) (6, -5.28796613216400146484e-02) (7, -1.21891498565673828125e-05) (8, 1.60833969712257385254e-02) (9, -8.56917425990104675293e-02) (10, -8.45454037189483642578e-02) (0, 5.04080131649971008301e-02) (1, 3.30439954996109008789e-03) (2, -8.53952765464782714844e-02) (3, 5.09081110358238220215e-02) (4, -5.06625697016716003418e-02) (5, 8.96035656332969665527e-02) (6, -7.55976960062980651855e-02) (7, 2.88709178566932678223e-02) (8, -4.72247265279293060303e-02) (9, 4.52005639672279357910e-02) (10, -9.33931395411491394043e-02) (0, -8.90453830361366271973e-02) (1, -1.12688839435577392578e-02) (2, 1.91554799675941467285e-02) (3, 2.37863883376121520996e-02) (4, -3.97331267595291137695e-03) (5, -3.19382622838020324707e-02) (6, 1.67989730834960937500e-03) (7, 3.93229201436042785645e-02) (8, -1.26859471201896667480e-02) (9, -3.95715944468975067139e-02) (10, -6.34376704692840576172e-02) (11, 3.61939594149589538574e-02) (12, 8.66053774952888488770e-02) (13, -4.03057150542736053467e-02) (14, 9.99925211071968078613e-02) (15, -6.62743002176284790039e-02) (16, 5.96820935606956481934e-02) (17, 1.60759091377258300781e-02) (18, -5.19660376012325286865e-02) (19, 7.51366987824440002441e-02) (20, -3.35160717368125915527e-02) (21, 5.13383671641349792480e-02) (11, 8.97414162755012512207e-02) (12, -8.26079547405242919922e-02) (13, -9.93242114782333374023e-02) (14, 7.93449953198432922363e-02) (15, -5.82056529819965362549e-02) (16, 2.95467153191566467285e-02) (17, -6.78797364234924316406e-02) (18, 8.69949087500572204590e-02) (19, 3.61535623669624328613e-02) (20, -5.69251216948032379150e-02) (21, -2.42739692330360412598e-02) (11, -4.46909479796886444092e-02) (12, 6.68612793087959289551e-02) (13, 7.17527195811271667480e-02) (14, 2.33707875013351440430e-02) (15, -3.14588323235511779785e-02) (16, 1.10756382346153259277e-02) (17, -8.93151611089706420898e-02) (18, 2.89695784449577331543e-02) (19, 4.76379767060279846191e-02) (20, 4.68788072466850280762e-02) (21, 1.55749320983886718750e-02) (11, -9.26677435636520385742e-02) (12, 4.68713119626045227051e-02) (13, 4.93006333708763122559e-02) (14, 6.70143589377403259277e-02) (15, -3.70527729392051696777e-02) (16, 9.73346158862113952637e-02) (17, 4.21510413289070129395e-02) (18, 2.94311568140983581543e-02) (19, 4.86729666590690612793e-02) (20, 3.18924710154533386230e-02) (21, 4.68231961131095886230e-02) (11, 4.93487641215324401855e-02) (12, 1.12374648451805114746e-02) (13, 8.86175408959388732910e-02) (14, -2.11045369505882263184e-02) (15, 4.33577373623847961426e-02) (16, 7.56124481558799743652e-02) (17, -8.49509686231613159180e-02) (18, 8.64326134324073791504e-02) (19, -4.86615188419818878174e-02) (20, -2.96419113874435424805e-02) (21, 5.32938912510871887207e-02) (11, -7.69087970256805419922e-02) (12, 9.37288776040077209473e-02) (13, -7.81649500131607055664e-02) (14, 3.41668501496315002441e-02) (15, -9.55862924456596374512e-02) (16, 5.08046224713325500488e-02) (17, -1.81951820850372314453e-02) (18, 5.12925162911415100098e-02) (19, -3.36204394698143005371e-02) (20, -1.08629241585731506348e-02) (21, -1.83618068695068359375e-03) (11, -8.43198001384735107422e-02) (12, -4.38485704362392425537e-02) (13, 6.11110404133796691895e-02) (14, -8.69852006435394287109e-02) (15, 9.83024910092353820801e-02) (16, -9.45781171321868896484e-03) (17, 6.16877749562263488770e-02) (18, 3.01949456334114074707e-02) (19, -6.26346170902252197266e-02) (20, 1.10365301370620727539e-02) (21, -5.85675835609436035156e-02) (11, -7.40170776844024658203e-02) (12, 8.99319872260093688965e-02) (13, 8.47901478409767150879e-02) (14, -9.84046310186386108398e-02) (15, -9.50189828872680664062e-02) (16, 7.12227448821067810059e-02) (17, -4.70661520957946777344e-02) (18, -2.46609002351760864258e-02) (19, 2.45166271924972534180e-02) (20, -2.39749401807785034180e-02) (21, -3.09320241212844848633e-02) (11, 4.63516786694526672363e-02) (12, -8.98080989718437194824e-02) (13, -2.65183150768280029297e-02) (14, -2.84370034933090209961e-03) (15, -8.00327956676483154297e-03) (16, -7.52258077263832092285e-02) (17, 6.35358616709709167480e-02) (18, 8.11337903141975402832e-02) (19, 2.29380130767822265625e-02) (20, 7.92160555720329284668e-02) (21, -6.27147704362869262695e-02) (11, -1.59509405493736267090e-02) (12, 9.22308638691902160645e-02) (13, -6.44122809171676635742e-02) (14, 7.45912566781044006348e-02) (15, 5.39186224341392517090e-02) (16, 6.57826736569404602051e-02) (17, -8.80433693528175354004e-02) (18, -3.50448563694953918457e-02) (19, -9.27849113941192626953e-02) (20, -6.20604492723941802979e-02) (21, -4.51128669083118438721e-02) (22, 9.20052304863929748535e-02) (23, -6.04650788009166717529e-02) (24, -4.01318483054637908936e-02) (25, 6.32279738783836364746e-02) (26, -7.53123313188552856445e-03) (27, 3.52072492241859436035e-02) (28, -1.22553855180740356445e-02) (29, 6.84938207268714904785e-02) (30, -9.57247763872146606445e-02) (31, -6.59037083387374877930e-02) (32, 7.86857232451438903809e-02) (22, -2.22430974245071411133e-02) (23, 3.12525853514671325684e-02) (24, -2.93175503611564636230e-02) (25, 2.53109633922576904297e-03) (26, -5.21156191825866699219e-03) (27, -4.81837503612041473389e-02) (28, -7.45308846235275268555e-02) (29, -2.59955078363418579102e-02) (30, -1.08985230326652526855e-02) (31, 9.51816886663436889648e-03) (32, -3.37646454572677612305e-02) (22, 2.46891975402832031250e-02) (23, -1.58905833959579467773e-02) (24, -7.98460245132446289062e-02) (25, -9.52813774347305297852e-03) (26, -3.93394380807876586914e-03) (27, -1.48908719420433044434e-02) (28, -2.31304764747619628906e-03) (29, 3.40056046843528747559e-02) (30, 3.99962589144706726074e-02) (31, -1.03078186511993408203e-02) (32, 7.35405161976814270020e-02) (22, 9.98644158244132995605e-02) (23, -4.70798388123512268066e-02) (24, -3.39907035231590270996e-02) (25, 3.50716635584831237793e-02) (26, 4.06647697091102600098e-02) (27, -6.54968768358230590820e-02) (28, 3.93468812108039855957e-02) (29, 7.47610554099082946777e-02) (30, -8.68111550807952880859e-02) (31, -8.28962102532386779785e-02) (32, 6.01364672183990478516e-03) (22, -1.61287039518356323242e-02) (23, 1.96348875761032104492e-02) (24, -9.91979166865348815918e-02) (25, 3.56875434517860412598e-02) (26, 4.51040044426918029785e-02) (27, -2.51934230327606201172e-02) (28, -7.52109810709953308105e-02) (29, -4.53778281807899475098e-02) (30, 4.10419330000877380371e-02) (31, 4.94782105088233947754e-02) (32, 3.87315973639488220215e-02) (22, 6.11959174275398254395e-02) (23, -6.00499249994754791260e-02) (24, -6.52023553848266601562e-02) (25, -5.36949671804904937744e-02) (26, 3.76370176672935485840e-02) (27, 6.88032582402229309082e-02) (28, 8.63012894988059997559e-02) (29, -7.26707950234413146973e-02) (30, 4.23437878489494323730e-02) (31, 8.61656889319419860840e-02) (32, -1.97506323456764221191e-02) (22, -9.16469246149063110352e-02) (23, 2.12373510003089904785e-02) (24, -7.90858566761016845703e-02) (25, -5.71438036859035491943e-02) (26, -3.94157655537128448486e-02) (27, 9.56751927733421325684e-02) (28, -4.39549572765827178955e-02) (29, -2.23119780421257019043e-02) (30, 1.68885290622711181641e-03) (31, 3.99163439869880676270e-02) (32, 9.73229035735130310059e-02) (22, 2.49092280864715576172e-03) (23, -2.43961215019226074219e-02) (24, 4.24269065260887145996e-02) (25, 7.72975161671638488770e-02) (26, 3.92891466617584228516e-04) (27, 9.70490798354148864746e-02) (28, 1.83394402265548706055e-02) (29, -5.01288920640945434570e-02) (30, 3.57806757092475891113e-02) (31, -2.04646512866020202637e-02) (32, -1.01788192987442016602e-02) (22, 7.05783292651176452637e-02) (23, 2.58403792977333068848e-02) (24, -7.25417956709861755371e-02) (25, 3.93815860152244567871e-02) (26, 1.21416673064231872559e-02) (27, -4.52125929296016693115e-02) (28, -1.82746350765228271484e-02) (29, -1.69263780117034912109e-03) (30, 3.50367799401283264160e-02) (31, -9.92155820131301879883e-03) (32, -8.04552882909774780273e-02) (22, 5.59509173035621643066e-02) (23, 3.29346433281898498535e-02) (24, -1.98710486292839050293e-02) (25, 5.16261234879493713379e-02) (26, 8.89796838164329528809e-02) (27, 5.78169748187065124512e-02) (28, -4.66850399971008300781e-02) (29, 2.88960263133049011230e-02) (30, 5.51398769021034240723e-02) (31, 5.58058843016624450684e-02) (32, -9.55001041293144226074e-02) 
