FANN_FLO_2.1
num_layers=4
learning_rate=0.700000
connection_rate=1.000000
network_type=0
learning_momentum=0.000000
training_algorithm=2
train_error_function=1
train_stop_function=0
cascade_output_change_fraction=0.010000
quickprop_decay=-0.000100
quickprop_mu=1.750000
rprop_increase_factor=1.200000
rprop_decrease_factor=0.500000
rprop_delta_min=0.000000
rprop_delta_max=50.000000
rprop_delta_zero=0.100000
cascade_output_stagnation_epochs=12
cascade_candidate_change_fraction=0.010000
cascade_candidate_stagnation_epochs=12
cascade_max_out_epochs=150
cascade_min_out_epochs=50
cascade_max_cand_epochs=150
cascade_min_cand_epochs=50
cascade_num_candidate_groups=2
bit_fail_limit=3.49999994039535522461e-01
cascade_candidate_limit=1.00000000000000000000e+03
cascade_weight_multiplier=4.00000005960464477539e-01
cascade_activation_functions_count=10
cascade_activation_functions=3 5 7 8 10 11 14 15 16 17 
cascade_activation_steepnesses_count=4
cascade_activation_steepnesses=2.50000000000000000000e-01 5.00000000000000000000e-01 7.50000000000000000000e-01 1.00000000000000000000e+00 
layer_sizes=11 11 11 11 
scale_included=0
neurons (num_inputs, activation_function, activation_steepness)=(0, 0, 0.00000000000000000000e+00) (0, 0, 0.00000000000000000000e+00) (0, 0, 0.00000000000000000000e+00) (0, 0, 0.00000000000000000000e+00) (0, 0, 0.00000000000000000000e+00) (0, 0, 0.00000000000000000000e+00) (0, 0, 0.00000000000000000000e+00) (0, 0, 0.00000000000000000000e+00) (0, 0, 0.00000000000000000000e+00) (0, 0, 0.00000000000000000000e+00) (0, 0, 0.00000000000000000000e+00) (11, 5, 5.00000000000000000000e-01) (11, 5, 5.00000000000000000000e-01) (11, 5, 5.00000000000000000000e-01) (11, 5, 5.00000000000000000000e-01) (11, 5, 5.00000000000000000000e-01) (11, 5, 5.00000000000000000000e-01) (11, 5, 5.00000000000000000000e-01) (11, 5, 5.00000000000000000000e-01) (11, 5, 5.00000000000000000000e-01) (11, 5, 5.00000000000000000000e-01) (0, 5, 0.00000000000000000000e+00) (11, 5, 5.00000000000000000000e-01) (11, 5, 5.00000000000000000000e-01) (11, 5, 5.00000000000000000000e-01) (11, 5, 5.00000000000000000000e-01) (11, 5, 5.00000000000000000000e-01) (11, 5, 5.00000000000000000000e-01) (11, 5, 5.00000000000000000000e-01) (11, 5, 5.00000000000000000000e-01) (11, 5, 5.00000000000000000000e-01) (11, 5, 5.00000000000000000000e-01) (0, 5, 0.00000000000000000000e+00) (11, 5, 5.00000000000000000000e-01) (11, 5, 5.00000000000000000000e-01) (11, 5, 5.00000000000000000000e-01) (11, 5, 5.00000000000000000000e-01) (11, 5, 5.00000000000000000000e-01) (11, 5, 5.00000000000000000000e-01) (11, 5, 5.00000000000000000000e-01) (11, 5, 5.00000000000000000000e-01) (11, 5, 5.00000000000000000000e-01) (11, 5, 5.00000000000000000000e-01) (0, 5, 0.00000000000000000000e+00) 
connections (connected_to_neuron, weight)=(0, -5.56218288838863372803e-02) (1, -6.22578635811805725098e-02) (2, -8.40488076210021972656e-03) (3, -2.88362056016921997070e-03) (4, 9.13475230336189270020e-02) (5, 1.28858089447021484375e-02) (6, 6.47517517209053039551e-02) (7, -2.27427035570144653320e-02) (8, -3.69039028882980346680e-02) (9, -6.42447173595428466797e-02) (10, 9.12291035056114196777e-02) (0, -8.22139754891395568848e-02) (1, 4.20715287327766418457e-02) (2, 4.01624292135238647461e-03) (3, -4.86197248101234436035e-02) (4, 5.41337579488754272461e-03) (5, 3.88773754239082336426e-02) (6, 9.68004390597343444824e-02) (7, -3.76579873263835906982e-02) (8, -9.83815863728523254395e-02) (9, 3.21112796664237976074e-02) (10, 7.05577656626701354980e-02) (0, -6.44948333501815795898e-02) (1, 7.13568702340126037598e-02) (2, -8.58674794435501098633e-02) (3, 6.54710307717323303223e-02) (4, -7.90614560246467590332e-02) (5, -3.04707139730453491211e-02) (6, -3.44801470637321472168e-02) (7, 9.82969477772712707520e-02) (8, -9.22835022211074829102e-02) (9, 9.89802926778793334961e-03) (10, -6.39609247446060180664e-02) (0, -6.88388943672180175781e-04) (1, -9.29855927824974060059e-02) (2, -7.26133882999420166016e-02) (3, -8.78025814890861511230e-02) (4, 7.17661604285240173340e-02) (5, 4.64390218257904052734e-03) (6, -2.47064754366874694824e-02) (7, -9.24785509705543518066e-02) (8, -4.12698090076446533203e-03) (9, -6.92044943571090698242e-03) (10, 4.95929792523384094238e-02) (0, 9.98892560601234436035e-02) (1, 4.44598272442817687988e-02) (2, -4.49936501681804656982e-02) (3, 3.87666299939155578613e-02) (4, 4.12602499127388000488e-02) (5, 1.73483639955520629883e-02) (6, 4.03850451111793518066e-02) (7, -2.66284644603729248047e-02) (8, -1.20938718318939208984e-02) (9, 7.58902207016944885254e-02) (10, -5.52715957164764404297e-02) (0, 2.03864276409149169922e-03) (1, 4.13612350821495056152e-02) (2, -3.43330502510070800781e-02) (3, 7.15679302811622619629e-02) (4, -9.31189060211181640625e-02) (5, -3.60361114144325256348e-02) (6, 7.92844370007514953613e-02) (7, 1.67791247367858886719e-02) (8, 2.96533107757568359375e-06) (9, -2.14039534330368041992e-02) (10, 2.37935334444046020508e-02) (0, 2.73895934224128723145e-02) (1, -9.20653343200683593750e-03) (2, -4.44030761718750000000e-03) (3, -6.79665058851242065430e-02) (4, 6.60869851708412170410e-02) (5, 3.08114290237426757812e-03) (6, 2.79065147042274475098e-02) (7, -4.08334694802761077881e-02) (8, -4.73258867859840393066e-02) (9, 2.77957692742347717285e-02) (10, -9.63736400008201599121e-02) (0, 7.68046081066131591797e-03) (1, -3.34376022219657897949e-02) (2, 4.48866114020347595215e-02) (3, -7.49711617827415466309e-02) (4, -9.30525586009025573730e-02) (5, -8.17418545484542846680e-02) (6, 1.29349604249000549316e-02) (7, 8.28376635909080505371e-02) (8, -3.70134487748146057129e-02) (9, -8.50263908505439758301e-02) (10, 2.41989046335220336914e-02) (0, 2.86535099148750305176e-02) (1, 8.65415409207344055176e-02) (2, 3.10800001025199890137e-02) (3, 9.26173999905586242676e-02) (4, 6.58259764313697814941e-02) (5, -5.21408841013908386230e-02) (6, -7.37963616847991943359e-03) (7, -5.55779859423637390137e-02) (8, 7.16526582837104797363e-02) (9, -7.99900516867637634277e-02) (10, 3.52154895663261413574e-02) (0, -3.27876657247543334961e-02) (1, -4.79565635323524475098e-02) (2, 1.30246579647064208984e-03) (3, 7.02934786677360534668e-02) (4, 7.99499526619911193848e-02) (5, 6.04690089821815490723e-02) (6, -7.70324096083641052246e-02) (7, 7.74572044610977172852e-03) (8, 6.40953704714775085449e-02) (9, 3.06480601429939270020e-02) (10, 7.43081048130989074707e-02) (11, 8.98198038339614868164e-03) (12, 5.56768998503684997559e-02) (13, 8.12555626034736633301e-02) (14, 2.72401198744773864746e-02) (15, -3.13881412148475646973e-02) (16, 6.40932247042655944824e-02) (17, 9.02266725897789001465e-02) (18, -1.64145305752754211426e-02) (19, -1.17078796029090881348e-02) (20, 1.88801735639572143555e-02) (21, -2.98729836940765380859e-02) (11, -8.06278884410858154297e-02) (12, 1.14975795149803161621e-02) (13, -6.40470087528228759766e-02) (14, -3.27687710523605346680e-02) (15, -9.58820506930351257324e-02) (16, -1.96249932050704956055e-02) (17, -6.11161254346370697021e-02) (18, -7.58721008896827697754e-02) (19, -8.44095125794410705566e-02) (20, 6.09622150659561157227e-03) (21, -2.38286629319190979004e-02) (11, 1.68929547071456909180e-02) (12, -2.36103087663650512695e-02) (13, -4.38787154853343963623e-02) (14, -2.26380378007888793945e-02) (15, -6.42716884613037109375e-04) (16, 6.38669952750205993652e-02) (17, -5.85426799952983856201e-02) (18, -6.99946507811546325684e-02) (19, 3.81751134991645812988e-02) (20, 5.04393056035041809082e-02) (21, 8.56822505593299865723e-02) (11, 1.94306597113609313965e-02) (12, -2.23205834627151489258e-02) (13, -4.57058921456336975098e-02) (14, -1.64761170744895935059e-02) (15, -3.20938974618911743164e-02) (16, 3.78795787692070007324e-02) (17, 7.18160048127174377441e-02) (18, 8.67862775921821594238e-02) (19, -9.19934064149856567383e-02) (20, 9.11881104111671447754e-02) (21, -1.71614438295364379883e-03) (11, -5.60404174029827117920e-02) (12, -4.15806546807289123535e-02) (13, 2.40180641412734985352e-03) (14, 2.43345871567726135254e-02) (15, -2.69677489995956420898e-03) (16, 2.65297070145606994629e-02) (17, 3.99250760674476623535e-02) (18, -9.66005623340606689453e-02) (19, -9.72989648580551147461e-02) (20, -4.31819669902324676514e-02) (21, -2.02108696103096008301e-02) (11, -4.11776788532733917236e-02) (12, 3.41799929738044738770e-02) (13, 7.91464075446128845215e-02) (14, -7.73106813430786132812e-02) (15, 7.56373181939125061035e-02) (16, -9.08482372760772705078e-02) (17, 6.08644261956214904785e-02) (18, 2.60766223073005676270e-02) (19, 9.48340073227882385254e-02) (20, -1.97049081325531005859e-02) (21, -9.62439700961112976074e-02) (11, -5.08718863129615783691e-02) (12, 6.38189688324928283691e-02) (13, -2.83378735184669494629e-02) (14, 8.70077088475227355957e-02) (15, 3.56349721550941467285e-02) (16, -4.15515899658203125000e-02) (17, 9.50142964720726013184e-02) (18, 2.68230810761451721191e-02) (19, 5.67322596907615661621e-02) (20, -6.10261224210262298584e-02) (21, 8.52424278855323791504e-02) (11, -4.08659353852272033691e-02) (12, 6.33084699511528015137e-02) (13, -1.74543410539627075195e-02) (14, 8.56637731194496154785e-02) (15, 3.23353707790374755859e-03) (16, -1.40549093484878540039e-02) (17, 8.83648172020912170410e-02) (18, 6.00515678524971008301e-02) (19, 6.57342150807380676270e-02) (20, -5.28128668665885925293e-02) (21, -5.76844066381454467773e-03) (11, 4.48806360363960266113e-02) (12, -3.01235467195510864258e-02) (13, -3.01311314105987548828e-02) (14, 5.40323927998542785645e-02) (15, -6.92591220140457153320e-02) (16, 9.59454849362373352051e-02) (17, 4.88664135336875915527e-02) (18, 1.10359638929367065430e-02) (19, 9.97015163302421569824e-02) (20, 9.79945287108421325684e-02) (21, -2.51450613141059875488e-02) (11, -2.86363586783409118652e-02) (12, 8.50022211670875549316e-02) (13, -8.95100906491279602051e-02) (14, 2.98120453953742980957e-02) (15, 8.00165161490440368652e-02) (16, 3.73129919171333312988e-02) (17, -1.34556889533996582031e-02) (18, -8.10096114873886108398e-02) (19, 2.25554257631301879883e-02) (20, 4.56783846020698547363e-02) (21, 8.22988525032997131348e-02) (22, -9.48989242315292358398e-02) (23, 3.13421562314033508301e-02) (24, -1.44676044583320617676e-02) (25, -8.95383208990097045898e-03) (26, 1.97069644927978515625e-02) (27, -5.44160380959510803223e-02) (28, -4.32196073234081268311e-02) (29, 6.68940916657447814941e-02) (30, 3.98155227303504943848e-02) (31, -9.83389690518379211426e-02) (32, -6.32294565439224243164e-02) (22, -9.03156101703643798828e-02) (23, 5.56934401392936706543e-02) (24, -3.24885696172714233398e-02) (25, -9.43701267242431640625e-02) (26, 4.55983728170394897461e-03) (27, 7.85473957657814025879e-02) (28, -9.46686193346977233887e-02) (29, 2.55437195301055908203e-03) (30, -4.65976595878601074219e-02) (31, -2.33049839735031127930e-02) (32, -1.24434083700180053711e-02) (22, -3.61077487468719482422e-02) (23, -9.34929326176643371582e-02) (24, -3.24268937110900878906e-02) (25, -9.87947583198547363281e-02) (26, -6.94862753152847290039e-03) (27, -1.34365037083625793457e-02) (28, 2.37606614828109741211e-02) (29, -6.12702444195747375488e-02) (30, -3.11376452445983886719e-02) (31, 2.88617387413978576660e-02) (32, 7.00719133019447326660e-02) (22, 5.43947443366050720215e-02) (23, -8.00921022891998291016e-02) (24, -1.02211385965347290039e-02) (25, 9.99787077307701110840e-02) (26, -2.33117043972015380859e-02) (27, -4.33270409703254699707e-02) (28, 3.97942289710044860840e-02) (29, -2.16506719589233398438e-02) (30, -6.55649602413177490234e-03) (31, 4.94786277413368225098e-02) (32, -6.59572407603263854980e-02) (22, 6.09549358487129211426e-02) (23, 5.51084950566291809082e-02) (24, 3.86025980114936828613e-02) (25, 3.95023301243782043457e-02) (26, 6.04398921132087707520e-02) (27, -5.88430278003215789795e-02) (28, 9.29046794772148132324e-02) (29, -6.28650933504104614258e-02) (30, 2.87135615944862365723e-02) (31, -4.32030744850635528564e-02) (32, -5.63580319285392761230e-02) (22, 9.62866619229316711426e-02) (23, -4.19978387653827667236e-02) (24, 3.66933420300483703613e-02) (25, -1.71498283743858337402e-02) (26, 8.17628279328346252441e-02) (27, 7.54230991005897521973e-02) (28, 5.17125204205513000488e-02) (29, 1.06245502829551696777e-02) (30, 4.54950109124183654785e-02) (31, 6.10727071762084960938e-03) (32, 3.05324569344520568848e-02) (22, -6.47261291742324829102e-02) (23, 6.08597695827484130859e-03) (24, -9.27792489528656005859e-02) (25, -8.05316865444183349609e-03) (26, -5.41197843849658966064e-02) (27, -1.44299119710922241211e-02) (28, 8.53903368115425109863e-02) (29, 9.53588560223579406738e-02) (30, 1.96128487586975097656e-02) (31, 4.63452711701393127441e-02) (32, 5.04673495888710021973e-02) (22, -4.17845509946346282959e-02) (23, -1.41523927450180053711e-02) (24, 1.09072178602218627930e-02) (25, -6.27577304840087890625e-04) (26, -2.12477147579193115234e-02) (27, 4.80421259999275207520e-02) (28, -7.19140097498893737793e-02) (29, 3.55492159724235534668e-02) (30, 9.16841104626655578613e-02) (31, -7.56273418664932250977e-02) (32, 9.35513749718666076660e-02) (22, 2.83774510025978088379e-02) (23, 7.22283124923706054688e-03) (24, 7.53141865134239196777e-02) (25, 3.80054861307144165039e-03) (26, -4.10646572709083557129e-02) (27, -1.40612497925758361816e-02) (28, -5.07044456899166107178e-02) (29, 6.50426223874092102051e-02) (30, -8.35287943482398986816e-02) (31, -1.54305696487426757812e-02) (32, -2.88714021444320678711e-02) (22, -7.63080418109893798828e-02) (23, 7.65162631869316101074e-02) (24, 1.70088186860084533691e-02) (25, 9.26204770803451538086e-03) (26, 6.19065985083580017090e-02) (27, 1.23676508665084838867e-02) (28, -7.11251050233840942383e-02) (29, 8.25188308954238891602e-03) (30, -3.71650010347366333008e-02) (31, -1.29096582531929016113e-02) (32, 9.40994843840599060059e-02) 
