FANN_FLO_2.1
num_layers=4
learning_rate=0.700000
connection_rate=1.000000
network_type=0
learning_momentum=0.000000
training_algorithm=2
train_error_function=1
train_stop_function=0
cascade_output_change_fraction=0.010000
quickprop_decay=-0.000100
quickprop_mu=1.750000
rprop_increase_factor=1.200000
rprop_decrease_factor=0.500000
rprop_delta_min=0.000000
rprop_delta_max=50.000000
rprop_delta_zero=0.100000
cascade_output_stagnation_epochs=12
cascade_candidate_change_fraction=0.010000
cascade_candidate_stagnation_epochs=12
cascade_max_out_epochs=150
cascade_min_out_epochs=50
cascade_max_cand_epochs=150
cascade_min_cand_epochs=50
cascade_num_candidate_groups=2
bit_fail_limit=3.49999994039535522461e-01
cascade_candidate_limit=1.00000000000000000000e+03
cascade_weight_multiplier=4.00000005960464477539e-01
cascade_activation_functions_count=10
cascade_activation_functions=3 5 7 8 10 11 14 15 16 17 
cascade_activation_steepnesses_count=4
cascade_activation_steepnesses=2.50000000000000000000e-01 5.00000000000000000000e-01 7.50000000000000000000e-01 1.00000000000000000000e+00 
layer_sizes=5 5 5 5 
scale_included=0
neurons (num_inputs, activation_function, activation_steepness)=(0, 0, 0.00000000000000000000e+00) (0, 0, 0.00000000000000000000e+00) (0, 0, 0.00000000000000000000e+00) (0, 0, 0.00000000000000000000e+00) (0, 0, 0.00000000000000000000e+00) (5, 5, 5.00000000000000000000e-01) (5, 5, 5.00000000000000000000e-01) (5, 5, 5.00000000000000000000e-01) (5, 5, 5.00000000000000000000e-01) (0, 5, 0.00000000000000000000e+00) (5, 5, 5.00000000000000000000e-01) (5, 5, 5.00000000000000000000e-01) (5, 5, 5.00000000000000000000e-01) (5, 5, 5.00000000000000000000e-01) (0, 5, 0.00000000000000000000e+00) (5, 5, 5.00000000000000000000e-01) (5, 5, 5.00000000000000000000e-01) (5, 5, 5.00000000000000000000e-01) (5, 5, 5.00000000000000000000e-01) (0, 5, 0.00000000000000000000e+00) 
connections (connected_to_neuron, weight)=(0, 9.19392779469490051270e-02) (1, -5.97243569791316986084e-02) (2, -9.93337184190750122070e-02) (3, 7.01002031564712524414e-03) (4, 4.94821444153785705566e-02) (0, 4.93016466498374938965e-02) (1, -9.59973037242889404297e-02) (2, -7.39034265279769897461e-02) (3, 1.22565403580665588379e-02) (4, -1.94217115640640258789e-02) (0, 4.37970533967018127441e-02) (1, -5.87543100118637084961e-02) (2, -3.87167148292064666748e-02) (3, -2.82239988446235656738e-02) (4, -8.19234699010848999023e-02) (0, 1.30357518792152404785e-02) (1, 9.22017917037010192871e-02) (2, -6.63940310478210449219e-02) (3, 7.40090087056159973145e-02) (4, 1.08092650771141052246e-02) (5, 5.78534975647926330566e-02) (6, -1.99206247925758361816e-02) (7, 8.60390886664390563965e-02) (8, 6.69694468379020690918e-02) (9, 2.68848314881324768066e-02) (5, 1.87297165393829345703e-03) (6, -9.32321399450302124023e-02) (7, 3.57523784041404724121e-02) (8, -3.67151573300361633301e-02) (9, -2.62568071484565734863e-02) (5, 5.23723438382148742676e-02) (6, -4.47758845984935760498e-02) (7, 1.40188485383987426758e-02) (8, 5.30386343598365783691e-02) (9, 6.22341409325599670410e-02) (5, -3.64990159869194030762e-02) (6, 2.34027206897735595703e-03) (7, 6.62368312478065490723e-02) (8, -1.04024484753608703613e-02) (9, -8.54031890630722045898e-02) (10, -5.31848780810832977295e-02) (11, -6.66053965687751770020e-02) (12, -4.41574938595294952393e-02) (13, 8.09840112924575805664e-03) (14, 5.17060607671737670898e-03) (10, -2.60809659957885742188e-02) (11, -7.88658484816551208496e-02) (12, -2.62759625911712646484e-03) (13, 7.52500444650650024414e-03) (14, 9.51431766152381896973e-02) (10, -9.18183326721191406250e-02) (11, -3.46214920282363891602e-02) (12, -2.47774571180343627930e-02) (13, 9.42207649350166320801e-02) (14, -6.76520466804504394531e-02) (10, -9.78926271200180053711e-02) (11, -3.90627235174179077148e-03) (12, -6.08841888606548309326e-02) (13, 3.78597453236579895020e-02) (14, 5.93785718083381652832e-02) 
