FANN_FLO_2.1
num_layers=5
learning_rate=0.700000
connection_rate=1.000000
network_type=0
learning_momentum=0.000000
training_algorithm=2
train_error_function=1
train_stop_function=0
cascade_output_change_fraction=0.010000
quickprop_decay=-0.000100
quickprop_mu=1.750000
rprop_increase_factor=1.200000
rprop_decrease_factor=0.500000
rprop_delta_min=0.000000
rprop_delta_max=50.000000
rprop_delta_zero=0.100000
cascade_output_stagnation_epochs=12
cascade_candidate_change_fraction=0.010000
cascade_candidate_stagnation_epochs=12
cascade_max_out_epochs=150
cascade_min_out_epochs=50
cascade_max_cand_epochs=150
cascade_min_cand_epochs=50
cascade_num_candidate_groups=2
bit_fail_limit=3.49999994039535522461e-01
cascade_candidate_limit=1.00000000000000000000e+03
cascade_weight_multiplier=4.00000005960464477539e-01
cascade_activation_functions_count=10
cascade_activation_functions=3 5 7 8 10 11 14 15 16 17 
cascade_activation_steepnesses_count=4
cascade_activation_steepnesses=2.50000000000000000000e-01 5.00000000000000000000e-01 7.50000000000000000000e-01 1.00000000000000000000e+00 
layer_sizes=19 16 13 9 9 
scale_included=0
neurons (num_inputs, activation_function, activation_steepness)=(0, 0, 0.00000000000000000000e+00) (0, 0, 0.00000000000000000000e+00) (0, 0, 0.00000000000000000000e+00) (0, 0, 0.00000000000000000000e+00) (0, 0, 0.00000000000000000000e+00) (0, 0, 0.00000000000000000000e+00) (0, 0, 0.00000000000000000000e+00) (0, 0, 0.00000000000000000000e+00) (0, 0, 0.00000000000000000000e+00) (0, 0, 0.00000000000000000000e+00) (0, 0, 0.00000000000000000000e+00) (0, 0, 0.00000000000000000000e+00) (0, 0, 0.00000000000000000000e+00) (0, 0, 0.00000000000000000000e+00) (0, 0, 0.00000000000000000000e+00) (0, 0, 0.00000000000000000000e+00) (0, 0, 0.00000000000000000000e+00) (0, 0, 0.00000000000000000000e+00) (0, 0, 0.00000000000000000000e+00) (19, 5, 5.00000000000000000000e-01) (19, 5, 5.00000000000000000000e-01) (19, 5, 5.00000000000000000000e-01) (19, 5, 5.00000000000000000000e-01) (19, 5, 5.00000000000000000000e-01) (19, 5, 5.00000000000000000000e-01) (19, 5, 5.00000000000000000000e-01) (19, 5, 5.00000000000000000000e-01) (19, 5, 5.00000000000000000000e-01) (19, 5, 5.00000000000000000000e-01) (19, 5, 5.00000000000000000000e-01) (19, 5, 5.00000000000000000000e-01) (19, 5, 5.00000000000000000000e-01) (19, 5, 5.00000000000000000000e-01) (19, 5, 5.00000000000000000000e-01) (0, 5, 0.00000000000000000000e+00) (16, 5, 5.00000000000000000000e-01) (16, 5, 5.00000000000000000000e-01) (16, 5, 5.00000000000000000000e-01) (16, 5, 5.00000000000000000000e-01) (16, 5, 5.00000000000000000000e-01) (16, 5, 5.00000000000000000000e-01) (16, 5, 5.00000000000000000000e-01) (16, 5, 5.00000000000000000000e-01) (16, 5, 5.00000000000000000000e-01) (16, 5, 5.00000000000000000000e-01) (16, 5, 5.00000000000000000000e-01) (16, 5, 5.00000000000000000000e-01) (0, 5, 0.00000000000000000000e+00) (13, 5, 5.00000000000000000000e-01) (13, 5, 5.00000000000000000000e-01) (13, 5, 5.00000000000000000000e-01) (13, 5, 5.00000000000000000000e-01) (13, 5, 5.00000000000000000000e-01) (13, 5, 5.00000000000000000000e-01) (13, 5, 5.00000000000000000000e-01) (13, 5, 5.00000000000000000000e-01) (0, 5, 0.00000000000000000000e+00) (9, 5, 5.00000000000000000000e-01) (9, 5, 5.00000000000000000000e-01) (9, 5, 5.00000000000000000000e-01) (9, 5, 5.00000000000000000000e-01) (9, 5, 5.00000000000000000000e-01) (9, 5, 5.00000000000000000000e-01) (9, 5, 5.00000000000000000000e-01) (9, 5, 5.00000000000000000000e-01) (0, 5, 0.00000000000000000000e+00) 
connections (connected_to_neuron, weight)=(0, -2.34032139182090759277e-01) (1, -5.55907726287841796875e-01) (2, -5.98686695098876953125e-01) (3, 4.72703218460083007812e-01) (4, -2.56570398807525634766e-01) (5, -3.34618091583251953125e-01) (6, -5.97585797309875488281e-01) (7, 2.41752684116363525391e-01) (8, -1.54527038335800170898e-01) (9, -3.14566224813461303711e-01) (10, 2.01399147510528564453e-01) (11, 3.61295014619827270508e-01) (12, 4.11115586757659912109e-04) (13, 8.58715534210205078125e-01) (14, -1.02325391769409179688e+00) (15, 2.78576046228408813477e-01) (16, 0.00000000000000000000e+00) (17, -1.09060108661651611328e-02) (18, -4.88733589649200439453e-01) (0, 3.14771354198455810547e-01) (1, -3.43829616904258728027e-02) (2, 4.57455605268478393555e-01) (3, 5.10460853576660156250e+00) (4, -1.22070029377937316895e-01) (5, -2.56830394268035888672e-01) (6, -9.73085686564445495605e-02) (7, -2.76664614677429199219e-01) (8, 2.53066420555114746094e-03) (9, 2.59304594993591308594e+00) (10, 8.93473625183105468750e-03) (11, 3.34047973155975341797e-01) (12, 3.06743860244750976562e-01) (13, -3.99853348731994628906e-01) (14, -5.54837226867675781250e-01) (15, 0.00000000000000000000e+00) (16, 5.66461741924285888672e-01) (17, 3.35554391145706176758e-01) (18, 2.74765223264694213867e-01) (0, 3.27587604522705078125e-01) (1, -6.17247484624385833740e-02) (2, -2.78750956058502197266e-02) (3, -1.59010410308837890625e-01) (4, 9.21627655625343322754e-02) (5, 6.31778240203857421875e-01) (6, 3.21064502000808715820e-01) (7, 8.92869606614112854004e-02) (8, 1.21392083168029785156e+00) (9, -2.69953429698944091797e-01) (10, 2.02425479888916015625e-01) (11, 3.52819740772247314453e-01) (12, -1.69634461402893066406e-01) (13, -6.97632491588592529297e-01) (14, 4.81871366500854492188e-02) (15, 2.12731987237930297852e-01) (16, -6.52657449245452880859e-02) (17, -2.46343642473220825195e-01) (18, 4.34648394584655761719e-01) (0, -7.65559077262878417969e-01) (1, -2.29079127311706542969e-02) (2, 3.01082134246826171875e-01) (3, -1.20773911476135253906e-02) (4, -1.56666725873947143555e-01) (5, -3.24452757835388183594e-01) (6, -5.87981939315795898438e-03) (7, 1.36722159385681152344e+00) (8, 5.67859709262847900391e-02) (9, 6.69402956962585449219e-01) (10, 8.51987600326538085938e-02) (11, -9.38008725643157958984e-02) (12, -3.60987871885299682617e-01) (13, 8.59693348407745361328e-01) (14, 8.75780522823333740234e-01) (15, -6.72440469264984130859e-01) (16, 5.68005561828613281250e-01) (17, 4.71721112728118896484e-01) (18, -5.39962530136108398438e-01) (0, -1.38986140489578247070e-01) (1, -7.76084363460540771484e-02) (2, -8.77601742744445800781e-01) (3, -8.28809663653373718262e-02) (4, 2.37104833126068115234e-01) (5, -6.68015122413635253906e-01) (6, 2.09415912628173828125e-01) (7, 1.87160968780517578125e-02) (8, -4.32245463132858276367e-01) (9, 1.75008904933929443359e+00) (10, 3.07193458080291748047e-01) (11, -5.24239540100097656250e-02) (12, 1.86959028244018554688e-01) (13, -2.85551965236663818359e-01) (14, 0.00000000000000000000e+00) (15, 1.36146426200866699219e-01) (16, 1.97336077690124511719e-01) (17, -6.58600747585296630859e-01) (18, -2.82343775033950805664e-02) (0, 3.06788757443428039551e-02) (1, 8.39027583599090576172e-01) (2, -6.37368679046630859375e-01) (3, -2.48933434486389160156e-01) (4, 1.51405304670333862305e-01) (5, -3.25542122125625610352e-01) (6, 3.21005463600158691406e-01) (7, 9.01129320263862609863e-02) (8, -9.54409241676330566406e-02) (9, 3.42465102672576904297e-01) (10, 2.30596876144409179688e+00) (11, 6.59616738557815551758e-02) (12, -4.00113582611083984375e-01) (13, 1.50909602642059326172e-01) (14, -3.61487448215484619141e-01) (15, 2.56119251251220703125e-01) (16, -1.99060469865798950195e-01) (17, -2.78787136077880859375e-01) (18, 3.98943014442920684814e-02) (0, -1.86152487993240356445e-01) (1, 6.18072211742401123047e-01) (2, 2.41137206554412841797e-01) (3, 2.90902137756347656250e-01) (4, 8.87563467025756835938e-01) (5, 2.38407671451568603516e-01) (6, -1.00993841886520385742e-01) (7, 8.42714488506317138672e-01) (8, 3.93518060445785522461e-02) (9, -2.95354753732681274414e-01) (10, 1.86365902423858642578e-01) (11, 5.38791716098785400391e-01) (12, 1.58001232147216796875e+00) (13, -4.32454764842987060547e-01) (14, 2.22249865531921386719e-01) (15, 6.97836875915527343750e-02) (16, 2.78366237878799438477e-01) (17, -1.73770576715469360352e-01) (18, 1.24504938721656799316e-02) (0, -3.48913460969924926758e-01) (1, -2.36619949340820312500e-01) (2, -3.40969830751419067383e-01) (3, -3.13687562942504882812e-01) (4, 4.66726124286651611328e-01) (5, 1.18132911622524261475e-01) (6, 1.00687943398952484131e-01) (7, -3.64466130733489990234e-01) (8, 1.32908970117568969727e-01) (9, 9.10872742533683776855e-02) (10, -1.39583408832550048828e-01) (11, 6.30117729306221008301e-02) (12, -4.46074903011322021484e-01) (13, -2.09863975644111633301e-01) (14, 1.01257324218750000000e+00) (15, -1.09825134277343750000e+00) (16, -4.55705523490905761719e-02) (17, -5.33354043960571289062e-01) (18, 3.39429944753646850586e-01) (0, -2.79023766517639160156e-01) (1, -4.40733432769775390625e-02) (2, -2.20985904335975646973e-01) (3, 4.23391073942184448242e-01) (4, 2.53723710775375366211e-01) (5, -1.35237365961074829102e-01) (6, -6.74705803394317626953e-01) (7, 4.42820221185684204102e-01) (8, -7.11975753307342529297e-01) (9, -3.45406532287597656250e-01) (10, 1.64804309606552124023e-02) (11, -8.84503126144409179688e-02) (12, 1.35846674442291259766e-01) (13, -4.22699213027954101562e-01) (14, 3.77556979656219482422e-01) (15, -1.62017881870269775391e-01) (16, 2.82869720458984375000e+00) (17, -4.34266090393066406250e-01) (18, -4.01732146739959716797e-01) (0, 2.95266211032867431641e-01) (1, -2.50108778476715087891e-01) (2, -3.44499289989471435547e-01) (3, 4.68387275934219360352e-01) (4, 4.97579574584960937500e-01) (5, -2.34212040901184082031e-01) (6, -1.64497002959251403809e-01) (7, 3.84918987751007080078e-01) (8, 2.02437192201614379883e-01) (9, -7.60458409786224365234e-04) (10, -2.24527493119239807129e-02) (11, -1.05587124824523925781e-01) (12, 4.65475231409072875977e-01) (13, 4.19741943478584289551e-02) (14, -5.99441647529602050781e-01) (15, 0.00000000000000000000e+00) (16, -4.92507636547088623047e-01) (17, -2.09274351596832275391e-01) (18, -8.78042951226234436035e-02) (0, 1.14913143217563629150e-01) (1, -4.30103331804275512695e-01) (2, 1.17459058761596679688e-01) (3, -7.87930041551589965820e-02) (4, -3.28897893428802490234e-01) (5, -9.07032549381256103516e-01) (6, -2.89576470851898193359e-01) (7, -2.38263100385665893555e-01) (8, -2.83436864614486694336e-01) (9, 5.52271902561187744141e-01) (10, -7.42308497428894042969e-02) (11, 4.85854625701904296875e-01) (12, 2.53658175468444824219e-01) (13, 2.55966782569885253906e-01) (14, -3.00506412982940673828e-01) (15, 9.89685654640197753906e-02) (16, 3.35755407810211181641e-01) (17, 0.00000000000000000000e+00) (18, -2.68570095300674438477e-01) (0, -7.26462364196777343750e-01) (1, -8.97278040647506713867e-02) (2, -1.29305854439735412598e-01) (3, -2.08715647459030151367e-01) (4, 7.98180699348449707031e-02) (5, 3.03605198860168457031e-03) (6, 5.21707758307456970215e-02) (7, 1.98061287403106689453e-01) (8, -6.48274302482604980469e-01) (9, 2.05716609954833984375e-01) (10, 2.57305055856704711914e-01) (11, -1.80741921067237854004e-02) (12, -4.72616642713546752930e-01) (13, 1.88501477241516113281e-02) (14, 7.76938974857330322266e-01) (15, 5.67269623279571533203e-02) (16, -2.31341823935508728027e-01) (17, 2.13416814804077148438e-01) (18, -1.11814916133880615234e-01) (0, 4.87198084592819213867e-01) (1, 4.42705675959587097168e-02) (2, -3.97183075547218322754e-02) (3, -1.50700330734252929688e-01) (4, -7.19578027725219726562e-01) (5, 7.48698413372039794922e-02) (6, 1.89363747835159301758e-01) (7, -2.96605199575424194336e-01) (8, 2.23359808325767517090e-01) (9, 1.02539435029029846191e-02) (10, -5.30979812145233154297e-01) (11, 1.27249419689178466797e-01) (12, 2.06622436642646789551e-01) (13, 2.52411291003227233887e-02) (14, -3.40815186500549316406e-01) (15, 7.35083460807800292969e-01) (16, -3.51178169250488281250e-01) (17, -5.49552917480468750000e-01) (18, 8.15026387572288513184e-02) (0, 5.40794730186462402344e-01) (1, 2.53839588165283203125e+00) (2, -1.24961934983730316162e-01) (3, 6.46353960037231445312e-02) (4, 3.78939509391784667969e-02) (5, -1.58528029918670654297e-01) (6, -3.22421014308929443359e-01) (7, -6.79768085479736328125e-01) (8, 2.47654110193252563477e-01) (9, 2.66467034816741943359e-01) (10, 2.39377051591873168945e-01) (11, 1.51404082775115966797e-01) (12, -2.46178984642028808594e-01) (13, -3.04800331592559814453e-01) (14, 0.00000000000000000000e+00) (15, 8.48602652549743652344e-02) (16, 2.14623242616653442383e-01) (17, -6.39619827270507812500e-02) (18, 3.71173322200775146484e-02) (0, 3.78973931074142456055e-01) (1, -8.21585208177566528320e-02) (2, 2.08103835582733154297e-01) (3, 4.12067890167236328125e-01) (4, 1.08332931995391845703e-01) (5, 1.89579874277114868164e-02) (6, -3.28942000865936279297e-01) (7, 9.54987347126007080078e-01) (8, 6.80924728512763977051e-02) (9, 2.85390526056289672852e-01) (10, 1.01602271199226379395e-01) (11, -2.72030711174011230469e-01) (12, -2.40204334259033203125e-02) (13, -1.70918852090835571289e-01) (14, -3.36908757686614990234e-01) (15, 2.21484899520874023438e-03) (16, -1.99308842420578002930e-01) (17, 0.00000000000000000000e+00) (18, -7.09071084856986999512e-02) (19, -1.50553524494171142578e-01) (20, -2.44096666574478149414e-02) (21, -8.21720883250236511230e-02) (22, -3.74675422906875610352e-01) (23, 1.05244569480419158936e-01) (24, 3.37805688381195068359e-01) (25, 9.41758975386619567871e-02) (26, 7.70927369594573974609e-02) (27, -3.54836016893386840820e-01) (28, 2.61206209659576416016e-01) (29, 6.90781474113464355469e-01) (30, -2.01597809791564941406e-02) (31, -3.92156869173049926758e-01) (32, -5.95154404640197753906e-01) (33, -3.79975080490112304688e-01) (34, 2.85144180059432983398e-01) (19, 8.89259204268455505371e-02) (20, 1.59512591361999511719e+00) (21, 1.27208381891250610352e-02) (22, -2.90503859519958496094e-01) (23, 1.11695177853107452393e-01) (24, -6.79849982261657714844e-01) (25, 7.20291376113891601562e-01) (26, -5.74465990066528320312e-01) (27, 5.98846554756164550781e-01) (28, -5.45000135898590087891e-02) (29, -6.15731477737426757812e-02) (30, -7.86708220839500427246e-02) (31, -4.85946461558341979980e-02) (32, -1.40685766935348510742e-01) (33, 7.57223963737487792969e-02) (34, 1.65023416280746459961e-01) (19, 1.73753499984741210938e-01) (20, 2.21274010837078094482e-02) (21, 1.34524273872375488281e+00) (22, -4.48049068450927734375e-01) (23, -2.33056172728538513184e-01) (24, -2.46124267578125000000e-02) (25, 2.22474336624145507812e-03) (26, -4.50917422771453857422e-01) (27, 1.60467475652694702148e-01) (28, -3.83378267288208007812e-02) (29, 6.57855048775672912598e-02) (30, -2.93836712837219238281e-01) (31, 5.77041447162628173828e-01) (32, -5.80468364059925079346e-02) (33, 3.37345242500305175781e-01) (34, -3.91862064599990844727e-01) (19, -6.29211962223052978516e-02) (20, 4.75942865014076232910e-02) (21, -4.83263134956359863281e-01) (22, 2.14220809936523437500e+00) (23, -3.50677698850631713867e-01) (24, -7.84293264150619506836e-02) (25, -8.53174865245819091797e-01) (26, 6.21188759803771972656e-01) (27, 5.33865764737129211426e-02) (28, 2.04364135861396789551e-02) (29, -1.48198381066322326660e-02) (30, 3.06571424007415771484e-02) (31, -2.90668532252311706543e-02) (32, -1.70580148696899414062e-01) (33, -3.22209537029266357422e-01) (34, -5.52842617034912109375e-01) (19, 7.18121886253356933594e-01) (20, 1.34157836437225341797e-02) (21, 3.21101158857345581055e-01) (22, 4.32005465030670166016e-01) (23, 2.59802889823913574219e+00) (24, 2.19311341643333435059e-02) (25, 2.26922571659088134766e-01) (26, -3.60385552048683166504e-02) (27, -4.68676924705505371094e-01) (28, 1.13508529961109161377e-01) (29, -1.52200669050216674805e-01) (30, 3.89951206743717193604e-02) (31, 7.42446407675743103027e-02) (32, -1.21341049671173095703e-02) (33, -1.98033630847930908203e-01) (34, -8.86765494942665100098e-02) (19, -1.49949461221694946289e-01) (20, 1.05221174657344818115e-01) (21, 9.18177589774131774902e-02) (22, -8.31073641777038574219e-01) (23, 3.25453430414199829102e-01) (24, 1.42554044723510742188e+00) (25, -8.83154869079589843750e-02) (26, -3.41506212949752807617e-01) (27, -7.19573572278022766113e-02) (28, 1.31958872079849243164e-01) (29, 4.10441040992736816406e-01) (30, -1.06837265193462371826e-01) (31, 6.70763552188873291016e-01) (32, 6.39654695987701416016e-04) (33, 5.18937170505523681641e-01) (34, 9.76333022117614746094e-03) (19, 4.95609343051910400391e-02) (20, 3.04957106709480285645e-02) (21, -2.67690658569335937500e-01) (22, -3.72035354375839233398e-01) (23, 8.53064656257629394531e-03) (24, -3.03575545549392700195e-01) (25, 3.20902919769287109375e+00) (26, 9.21007618308067321777e-02) (27, 2.11770415306091308594e-01) (28, -9.25369560718536376953e-02) (29, -1.27196699380874633789e-01) (30, 6.70195296406745910645e-02) (31, -3.37446391582489013672e-01) (32, -6.44880533218383789062e-03) (33, 7.83429816365242004395e-02) (34, 4.16841328144073486328e-01) (19, -4.80147987604141235352e-01) (20, -2.26763218641281127930e-01) (21, 3.64445775747299194336e-01) (22, 3.36821019649505615234e-01) (23, 1.88423812389373779297e-01) (24, -4.92848128080368041992e-01) (25, 2.09298223257064819336e-01) (26, 1.03644180297851562500e+00) (27, 2.21539884805679321289e-01) (28, -5.77677249908447265625e-01) (29, -4.02500659227371215820e-01) (30, 5.21567761898040771484e-01) (31, -2.19067394733428955078e-01) (32, -1.10779292881488800049e-01) (33, -5.31054139137268066406e-02) (34, -8.40323209762573242188e-01) (19, 2.27367058396339416504e-01) (20, -1.88017666339874267578e-01) (21, 6.81192457675933837891e-01) (22, -2.25331246852874755859e-01) (23, 8.97801294922828674316e-02) (24, -4.66553598642349243164e-01) (25, -2.06672430038452148438e-01) (26, 1.05999626219272613525e-01) (27, 1.09648919105529785156e+00) (28, 4.79800671339035034180e-01) (29, 5.45241534709930419922e-01) (30, -1.40147164463996887207e-01) (31, 5.92796683311462402344e-01) (32, 4.70181405544281005859e-02) (33, -1.41916066408157348633e-01) (34, -2.30313628911972045898e-01) (19, -1.38554841279983520508e-01) (20, 4.07868266105651855469e-01) (21, -3.88098880648612976074e-02) (22, -5.92822015285491943359e-01) (23, 5.96945047378540039062e-01) (24, 3.06612476706504821777e-02) (25, 9.05413106083869934082e-02) (26, -4.19621527194976806641e-01) (27, 3.10670703649520874023e-01) (28, -5.90230762958526611328e-01) (29, 5.05950093269348144531e-01) (30, -1.64879098534584045410e-01) (31, 2.73930996656417846680e-01) (32, 2.95717239379882812500e-01) (33, 1.25735670328140258789e-01) (34, 6.27974033355712890625e-01) (19, 1.01607811450958251953e+00) (20, -5.58986514806747436523e-03) (21, -1.70919299125671386719e-02) (22, 1.72161042690277099609e-01) (23, -3.57217341661453247070e-03) (24, -4.82049673795700073242e-01) (25, -2.83733308315277099609e-01) (26, 2.32020542025566101074e-01) (27, 2.95174896717071533203e-01) (28, -1.37485921382904052734e-01) (29, -2.91696637868881225586e-02) (30, 2.09220737218856811523e-01) (31, 8.82194191217422485352e-03) (32, -1.01225078105926513672e-03) (33, -7.66977667808532714844e-03) (34, -4.60394322872161865234e-01) (19, -2.18874990940093994141e-01) (20, 4.76052939891815185547e-01) (21, -1.33649721741676330566e-01) (22, -3.26450943946838378906e-01) (23, -1.76206007599830627441e-02) (24, 1.76950186491012573242e-01) (25, 9.45636749267578125000e-01) (26, -2.09225088357925415039e-01) (27, 3.36321383714675903320e-01) (28, -3.06658864021301269531e-01) (29, 4.48579847812652587891e-01) (30, 3.24830114841461181641e-01) (31, 2.26619124412536621094e-01) (32, -1.71497106552124023438e-01) (33, -3.85989964008331298828e-01) (34, 1.83255553245544433594e-01) (35, -6.73457011580467224121e-02) (36, -1.17468869686126708984e+00) (37, -2.70557135343551635742e-01) (38, -4.56264436244964599609e-01) (39, 6.37746602296829223633e-03) (40, -5.56429699063301086426e-02) (41, -1.71160101890563964844e-02) (42, 4.47732433676719665527e-02) (43, 8.44146013259887695312e-02) (44, -2.03239202499389648438e-01) (45, -3.47831726074218750000e-01) (46, 8.18172097206115722656e-01) (47, 6.10949099063873291016e-01) (35, 2.28369295597076416016e-01) (36, -2.72169470787048339844e+00) (37, 4.69256043434143066406e-01) (38, 1.10070854425430297852e-01) (39, 1.37065529823303222656e-01) (40, -8.05177807807922363281e-01) (41, 4.43613529205322265625e-02) (42, 5.97735717892646789551e-02) (43, -1.85199797153472900391e-01) (44, 5.90766727924346923828e-01) (45, -1.65057301521301269531e-01) (46, -7.81508758664131164551e-02) (47, 6.24060034751892089844e-01) (35, -6.65957212448120117188e-01) (36, -4.25956666469573974609e-01) (37, -1.35251712799072265625e+00) (38, -3.71142178773880004883e-01) (39, 6.16958081722259521484e-01) (40, -3.42995896935462951660e-02) (41, -2.10033893585205078125e-01) (42, -5.74841760098934173584e-02) (43, 8.61024186015129089355e-02) (44, 5.10079860687255859375e-01) (45, 3.88305664062500000000e-01) (46, -2.65973091125488281250e-01) (47, -4.72102761268615722656e-01) (35, -7.89828151464462280273e-02) (36, -2.06399607658386230469e+00) (37, 4.60842043161392211914e-01) (38, -1.24720227718353271484e+00) (39, 5.47211647033691406250e-01) (40, -1.61286875605583190918e-01) (41, 3.63787114620208740234e-02) (42, 9.40425470471382141113e-02) (43, -2.28028833866119384766e-01) (44, -3.95208448171615600586e-01) (45, 1.85713469982147216797e-01) (46, 2.01423764228820800781e-02) (47, 5.07649302482604980469e-01) (35, -5.39375245571136474609e-02) (36, -3.74304264783859252930e-01) (37, 4.85980987548828125000e-01) (38, 3.85566726326942443848e-02) (39, 1.01818419992923736572e-01) (40, -2.09891363978385925293e-01) (41, 9.24432873725891113281e-02) (42, 2.99147069454193115234e-01) (43, -6.67370676994323730469e-01) (44, -9.76139008998870849609e-01) (45, 6.87701225280761718750e-01) (46, -2.70570516586303710938e-02) (47, -4.41451013088226318359e-01) (35, 1.22576355934143066406e-02) (36, 3.71827930212020874023e-03) (37, -3.63801211118698120117e-01) (38, 8.65063369274139404297e-01) (39, 1.09853595495223999023e-02) (40, 3.28612923622131347656e-01) (41, 2.23111033439636230469e-01) (42, -2.65233993530273437500e-01) (43, 2.69468650221824645996e-02) (44, -4.62374866008758544922e-01) (45, -9.00318920612335205078e-02) (46, -3.61354351043701171875e-02) (47, 5.80415278673171997070e-02) (35, 0.00000000000000000000e+00) (36, -4.76397812366485595703e-01) (37, 2.83071160316467285156e-01) (38, -4.83058035373687744141e-01) (39, 2.83389210700988769531e-01) (40, 1.93348422646522521973e-01) (41, 1.81245386600494384766e-01) (42, -2.92015492916107177734e-01) (43, 8.15397500991821289062e-02) (44, -3.62428873777389526367e-01) (45, 1.54167413711547851562e-03) (46, 3.59419703483581542969e-01) (47, -6.05219453573226928711e-02) (35, -2.21773386001586914062e-01) (36, 6.18038952350616455078e-01) (37, 4.19432222843170166016e-02) (38, 0.00000000000000000000e+00) (39, 5.25717377662658691406e-01) (40, -9.88412380218505859375e-01) (41, -9.74380970001220703125e-03) (42, 7.00000047683715820312e-01) (43, -1.28421807289123535156e+00) (44, -5.82285821437835693359e-02) (45, 8.47043395042419433594e-02) (46, -3.78592193126678466797e-01) (47, 9.07216668128967285156e-02) (48, -4.38487768173217773438e-01) (49, 0.00000000000000000000e+00) (50, 6.21893048286437988281e-01) (51, 2.85028129816055297852e-01) (52, 7.17338323593139648438e-02) (53, -2.48258709907531738281e-01) (54, -2.33094990253448486328e-01) (55, -5.98152041435241699219e-01) (56, 0.00000000000000000000e+00) (48, 2.39350408315658569336e-01) (49, 2.42582893371582031250e+00) (50, 5.76744675636291503906e-02) (51, -2.73388355970382690430e-01) (52, 0.00000000000000000000e+00) (53, 1.55005276203155517578e-01) (54, 2.01093226671218872070e-01) (55, 0.00000000000000000000e+00) (56, 4.14878726005554199219e-01) (48, -7.55653977394104003906e-02) (49, -1.15746712684631347656e+00) (50, 2.89173316955566406250e+00) (51, 3.50438892841339111328e-01) (52, -3.82859349250793457031e-01) (53, 2.15551912784576416016e-01) (54, 0.00000000000000000000e+00) (55, -6.05968713760375976562e-01) (56, 3.50576967000961303711e-01) (48, -4.40370291471481323242e-02) (49, 0.00000000000000000000e+00) (50, 0.00000000000000000000e+00) (51, 3.48736107349395751953e-01) (52, -2.23228335380554199219e-03) (53, 0.00000000000000000000e+00) (54, 2.79514729976654052734e-01) (55, 1.60406470298767089844e-01) (56, 0.00000000000000000000e+00) (48, -9.65176820755004882812e-02) (49, -2.89672613143920898438e-02) (50, -4.81842160224914550781e-02) (51, -1.77724927663803100586e-01) (52, 3.05473625659942626953e-01) (53, -8.71146917343139648438e-02) (54, -2.06731468439102172852e-01) (55, 4.47840392589569091797e-01) (56, 9.76200640201568603516e-01) (48, -5.60490012168884277344e-01) (49, -6.45160675048828125000e-04) (50, -4.54674094915390014648e-01) (51, 0.00000000000000000000e+00) (52, -2.53498911857604980469e-01) (53, 8.86877894401550292969e-01) (54, -1.87222450971603393555e-01) (55, 1.72674059867858886719e-02) (56, 8.16737949848175048828e-01) (48, 1.25623404979705810547e-01) (49, 3.92186611890792846680e-01) (50, 0.00000000000000000000e+00) (51, 8.86744260787963867188e-03) (52, -2.10105091333389282227e-01) (53, -4.89289879798889160156e-01) (54, 6.87191724777221679688e-01) (55, 2.70550966262817382812e-01) (56, 2.71760225296020507812e-01) (48, -1.93596452474594116211e-01) (49, 4.29811894893646240234e-01) (50, 3.19709241390228271484e-01) (51, -4.78649318218231201172e-01) (52, 0.00000000000000000000e+00) (53, 6.01776003837585449219e-01) (54, 6.44356906414031982422e-01) (55, 5.82858383655548095703e-01) (56, 2.00836896896362304688e-01) 
