FANN_FLO_2.1
num_layers=5
learning_rate=0.700000
connection_rate=1.000000
network_type=0
learning_momentum=0.000000
training_algorithm=2
train_error_function=1
train_stop_function=0
cascade_output_change_fraction=0.010000
quickprop_decay=-0.000100
quickprop_mu=1.750000
rprop_increase_factor=1.200000
rprop_decrease_factor=0.500000
rprop_delta_min=0.000000
rprop_delta_max=50.000000
rprop_delta_zero=0.100000
cascade_output_stagnation_epochs=12
cascade_candidate_change_fraction=0.010000
cascade_candidate_stagnation_epochs=12
cascade_max_out_epochs=150
cascade_min_out_epochs=50
cascade_max_cand_epochs=150
cascade_min_cand_epochs=50
cascade_num_candidate_groups=2
bit_fail_limit=3.49999994039535522461e-01
cascade_candidate_limit=1.00000000000000000000e+03
cascade_weight_multiplier=4.00000005960464477539e-01
cascade_activation_functions_count=10
cascade_activation_functions=3 5 7 8 10 11 14 15 16 17 
cascade_activation_steepnesses_count=4
cascade_activation_steepnesses=2.50000000000000000000e-01 5.00000000000000000000e-01 7.50000000000000000000e-01 1.00000000000000000000e+00 
layer_sizes=19 16 13 9 9 
scale_included=0
neurons (num_inputs, activation_function, activation_steepness)=(0, 0, 0.00000000000000000000e+00) (0, 0, 0.00000000000000000000e+00) (0, 0, 0.00000000000000000000e+00) (0, 0, 0.00000000000000000000e+00) (0, 0, 0.00000000000000000000e+00) (0, 0, 0.00000000000000000000e+00) (0, 0, 0.00000000000000000000e+00) (0, 0, 0.00000000000000000000e+00) (0, 0, 0.00000000000000000000e+00) (0, 0, 0.00000000000000000000e+00) (0, 0, 0.00000000000000000000e+00) (0, 0, 0.00000000000000000000e+00) (0, 0, 0.00000000000000000000e+00) (0, 0, 0.00000000000000000000e+00) (0, 0, 0.00000000000000000000e+00) (0, 0, 0.00000000000000000000e+00) (0, 0, 0.00000000000000000000e+00) (0, 0, 0.00000000000000000000e+00) (0, 0, 0.00000000000000000000e+00) (19, 5, 5.00000000000000000000e-01) (19, 5, 5.00000000000000000000e-01) (19, 5, 5.00000000000000000000e-01) (19, 5, 5.00000000000000000000e-01) (19, 5, 5.00000000000000000000e-01) (19, 5, 5.00000000000000000000e-01) (19, 5, 5.00000000000000000000e-01) (19, 5, 5.00000000000000000000e-01) (19, 5, 5.00000000000000000000e-01) (19, 5, 5.00000000000000000000e-01) (19, 5, 5.00000000000000000000e-01) (19, 5, 5.00000000000000000000e-01) (19, 5, 5.00000000000000000000e-01) (19, 5, 5.00000000000000000000e-01) (19, 5, 5.00000000000000000000e-01) (0, 5, 0.00000000000000000000e+00) (16, 5, 5.00000000000000000000e-01) (16, 5, 5.00000000000000000000e-01) (16, 5, 5.00000000000000000000e-01) (16, 5, 5.00000000000000000000e-01) (16, 5, 5.00000000000000000000e-01) (16, 5, 5.00000000000000000000e-01) (16, 5, 5.00000000000000000000e-01) (16, 5, 5.00000000000000000000e-01) (16, 5, 5.00000000000000000000e-01) (16, 5, 5.00000000000000000000e-01) (16, 5, 5.00000000000000000000e-01) (16, 5, 5.00000000000000000000e-01) (0, 5, 0.00000000000000000000e+00) (13, 5, 5.00000000000000000000e-01) (13, 5, 5.00000000000000000000e-01) (13, 5, 5.00000000000000000000e-01) (13, 5, 5.00000000000000000000e-01) (13, 5, 5.00000000000000000000e-01) (13, 5, 5.00000000000000000000e-01) (13, 5, 5.00000000000000000000e-01) (13, 5, 5.00000000000000000000e-01) (0, 5, 0.00000000000000000000e+00) (9, 5, 5.00000000000000000000e-01) (9, 5, 5.00000000000000000000e-01) (9, 5, 5.00000000000000000000e-01) (9, 5, 5.00000000000000000000e-01) (9, 5, 5.00000000000000000000e-01) (9, 5, 5.00000000000000000000e-01) (9, 5, 5.00000000000000000000e-01) (9, 5, 5.00000000000000000000e-01) (0, 5, 0.00000000000000000000e+00) 
connections (connected_to_neuron, weight)=(0, -2.48911857604980468750e-01) (1, -6.00477695465087890625e-01) (2, -5.98686695098876953125e-01) (3, 4.72703218460083007812e-01) (4, -2.56570398807525634766e-01) (5, -3.34618091583251953125e-01) (6, -6.89378678798675537109e-01) (7, 1.21806368231773376465e-01) (8, -5.17024099826812744141e-02) (9, -3.14566224813461303711e-01) (10, 2.01399147510528564453e-01) (11, 3.07466924190521240234e-01) (12, -9.56661179661750793457e-02) (13, 8.58715534210205078125e-01) (14, -1.17530775070190429688e+00) (15, 3.66012573242187500000e-01) (16, 0.00000000000000000000e+00) (17, 5.57217597961425781250e-02) (18, -4.88733589649200439453e-01) (0, 3.14771354198455810547e-01) (1, -3.43829616904258728027e-02) (2, 4.57455605268478393555e-01) (3, 5.10460853576660156250e+00) (4, -1.11306890845298767090e-01) (5, -2.56830394268035888672e-01) (6, -9.73085686564445495605e-02) (7, -2.76664614677429199219e-01) (8, 1.86712145805358886719e-02) (9, 2.59304594993591308594e+00) (10, -2.38701552152633666992e-02) (11, 6.41823232173919677734e-01) (12, 2.72084921598434448242e-01) (13, -5.60613274574279785156e-01) (14, -5.54837226867675781250e-01) (15, 0.00000000000000000000e+00) (16, 5.66461741924285888672e-01) (17, 3.09473901987075805664e-01) (18, 2.74765223264694213867e-01) (0, 3.27587604522705078125e-01) (1, -6.17247484624385833740e-02) (2, -9.97000709176063537598e-02) (3, -1.59010410308837890625e-01) (4, -2.98022329807281494141e-02) (5, 6.31778240203857421875e-01) (6, 2.45426520705223083496e-01) (7, 8.92869606614112854004e-02) (8, 1.43480575084686279297e+00) (9, -2.69953429698944091797e-01) (10, 2.02425479888916015625e-01) (11, 3.52819740772247314453e-01) (12, -6.06865584850311279297e-02) (13, -7.97184467315673828125e-01) (14, 4.81871366500854492188e-02) (15, 2.14903250336647033691e-01) (16, -1.25122725963592529297e-01) (17, -2.47359931468963623047e-01) (18, 4.34648394584655761719e-01) (0, -7.65559077262878417969e-01) (1, -2.29079127311706542969e-02) (2, 2.32291743159294128418e-01) (3, -1.67978405952453613281e-01) (4, -1.56666725873947143555e-01) (5, -3.24452757835388183594e-01) (6, 3.13799679279327392578e-02) (7, 1.36722159385681152344e+00) (8, 5.67859709262847900391e-02) (9, 6.81358397006988525391e-01) (10, 8.51987600326538085938e-02) (11, -9.38008725643157958984e-02) (12, -2.90982544422149658203e-01) (13, 7.69871413707733154297e-01) (14, 8.86981964111328125000e-01) (15, -6.72440469264984130859e-01) (16, 5.68005561828613281250e-01) (17, 4.67612922191619873047e-01) (18, -2.98939943313598632812e-01) (0, -1.38986140489578247070e-01) (1, -1.60003110766410827637e-01) (2, -7.98538148403167724609e-01) (3, -8.28809663653373718262e-02) (4, 2.37104833126068115234e-01) (5, -5.71868360042572021484e-01) (6, 2.09415912628173828125e-01) (7, 1.87160968780517578125e-02) (8, -4.32245463132858276367e-01) (9, 2.50235581398010253906e+00) (10, 3.37334841489791870117e-01) (11, -3.30223143100738525391e-02) (12, 1.86959028244018554688e-01) (13, -2.85551965236663818359e-01) (14, 0.00000000000000000000e+00) (15, 2.00688645243644714355e-01) (16, 2.70434826612472534180e-01) (17, -6.58600747585296630859e-01) (18, -1.09476238489151000977e-01) (0, 1.31654649972915649414e-01) (1, 9.26663637161254882812e-01) (2, -7.18784809112548828125e-01) (3, -3.73199224472045898438e-01) (4, 7.81202837824821472168e-02) (5, -3.25542122125625610352e-01) (6, 3.21005463600158691406e-01) (7, 1.12444683909416198730e-02) (8, -8.08056890964508056641e-02) (9, 4.66246157884597778320e-01) (10, 2.30596876144409179688e+00) (11, 2.10714787244796752930e-01) (12, -4.00113582611083984375e-01) (13, 1.86290875077247619629e-01) (14, -3.61487448215484619141e-01) (15, 2.56119251251220703125e-01) (16, -1.99060469865798950195e-01) (17, -2.78787136077880859375e-01) (18, 3.98943014442920684814e-02) (0, -1.86152487993240356445e-01) (1, 7.38835632801055908203e-01) (2, 2.41137206554412841797e-01) (3, 2.90902137756347656250e-01) (4, 8.87563467025756835938e-01) (5, 3.18570792675018310547e-01) (6, -1.00993841886520385742e-01) (7, 8.48804354667663574219e-01) (8, 3.93518060445785522461e-02) (9, -2.95354753732681274414e-01) (10, 1.86365902423858642578e-01) (11, 5.75231194496154785156e-01) (12, 1.58001232147216796875e+00) (13, -4.32454764842987060547e-01) (14, 1.37714400887489318848e-01) (15, 6.97836875915527343750e-02) (16, 2.78366237878799438477e-01) (17, -7.40079581737518310547e-02) (18, 1.24504938721656799316e-02) (0, -3.95511984825134277344e-01) (1, -1.14310860633850097656e-01) (2, -3.40969830751419067383e-01) (3, -3.13687562942504882812e-01) (4, 4.96710896492004394531e-01) (5, 1.18132911622524261475e-01) (6, 1.31030589342117309570e-01) (7, -3.64466130733489990234e-01) (8, 2.27804556488990783691e-01) (9, 3.20751294493675231934e-02) (10, -2.23555117845535278320e-01) (11, 6.30117729306221008301e-02) (12, -5.21423459053039550781e-01) (13, -2.09863975644111633301e-01) (14, 1.01257324218750000000e+00) (15, -1.09825134277343750000e+00) (16, -4.55705523490905761719e-02) (17, -5.68047046661376953125e-01) (18, 3.82333189249038696289e-01) (0, -2.90248185396194458008e-01) (1, -2.44686007499694824219e-02) (2, -1.92989498376846313477e-01) (3, 3.82415652275085449219e-01) (4, 2.53723710775375366211e-01) (5, -1.35237365961074829102e-01) (6, -6.74705803394317626953e-01) (7, 4.98783916234970092773e-01) (8, -6.38969898223876953125e-01) (9, -3.45406532287597656250e-01) (10, -1.12108789384365081787e-01) (11, -1.15636743605136871338e-01) (12, 2.52884805202484130859e-01) (13, -4.22699213027954101562e-01) (14, 4.38810110092163085938e-01) (15, -2.66297161579132080078e-01) (16, 2.82869720458984375000e+00) (17, -5.04324316978454589844e-01) (18, -4.01732146739959716797e-01) (0, 2.95266211032867431641e-01) (1, -2.50108778476715087891e-01) (2, -3.44499289989471435547e-01) (3, 4.68387275934219360352e-01) (4, 4.97579574584960937500e-01) (5, -2.96733111143112182617e-01) (6, -1.16560354828834533691e-01) (7, 3.37830364704132080078e-01) (8, 3.63294214010238647461e-01) (9, 7.86661356687545776367e-02) (10, -2.24527493119239807129e-02) (11, -1.44607275724411010742e-02) (12, 3.72512549161911010742e-01) (13, -1.50921583175659179688e-01) (14, -5.27841150760650634766e-01) (15, -7.38751143217086791992e-03) (16, -4.92507636547088623047e-01) (17, -2.09274351596832275391e-01) (18, -8.78042951226234436035e-02) (0, 1.14913143217563629150e-01) (1, -4.30103331804275512695e-01) (2, 1.77376866340637207031e-02) (3, -1.21355272829532623291e-01) (4, -3.28897893428802490234e-01) (5, -9.07032549381256103516e-01) (6, -2.89576470851898193359e-01) (7, -2.04107552766799926758e-01) (8, -3.64539563655853271484e-01) (9, 6.71641409397125244141e-01) (10, -7.42308497428894042969e-02) (11, 4.85854625701904296875e-01) (12, 1.45871430635452270508e-01) (13, 3.16066563129425048828e-01) (14, -3.00506412982940673828e-01) (15, -6.39505684375762939453e-03) (16, 3.35755407810211181641e-01) (17, 5.65742999315261840820e-02) (18, -2.68570095300674438477e-01) (0, -8.03765058517456054688e-01) (1, -8.97278040647506713867e-02) (2, -1.29305854439735412598e-01) (3, -2.08715647459030151367e-01) (4, 7.98180699348449707031e-02) (5, -8.53142291307449340820e-02) (6, 5.21707758307456970215e-02) (7, 1.98061287403106689453e-01) (8, -6.48274302482604980469e-01) (9, 2.05716609954833984375e-01) (10, 2.57305055856704711914e-01) (11, 5.12860640883445739746e-02) (12, -4.72616642713546752930e-01) (13, 4.79798167943954467773e-02) (14, 7.76938974857330322266e-01) (15, 2.20606327056884765625e-01) (16, -2.31341823935508728027e-01) (17, 8.98694917559623718262e-02) (18, -1.10610283911228179932e-01) (0, 5.80530285835266113281e-01) (1, 4.42705675959587097168e-02) (2, 4.64998409152030944824e-02) (3, -4.39625829458236694336e-02) (4, -7.19578027725219726562e-01) (5, 7.48698413372039794922e-02) (6, 1.35384261608123779297e-01) (7, -2.83265441656112670898e-01) (8, 2.33828574419021606445e-01) (9, 1.02539435029029846191e-02) (10, -5.30979812145233154297e-01) (11, 4.27764281630516052246e-02) (12, 2.06622436642646789551e-01) (13, 2.52411291003227233887e-02) (14, -3.41337949037551879883e-01) (15, 7.13391423225402832031e-01) (16, -3.51178169250488281250e-01) (17, -5.41404902935028076172e-01) (18, -4.07972410321235656738e-02) (0, 5.40794730186462402344e-01) (1, 2.53839588165283203125e+00) (2, -1.84886127710342407227e-01) (3, 6.46353960037231445312e-02) (4, 3.78939509391784667969e-02) (5, -7.55324363708496093750e-02) (6, -3.18248033523559570312e-01) (7, -6.79768085479736328125e-01) (8, 1.99884548783302307129e-01) (9, 2.87259191274642944336e-01) (10, 2.35050052404403686523e-01) (11, 1.51404082775115966797e-01) (12, -1.63413465023040771484e-01) (13, -2.58260279893875122070e-01) (14, -7.09675103425979614258e-02) (15, 1.56325608491897583008e-01) (16, 2.55007296800613403320e-01) (17, 1.37841165065765380859e-01) (18, 6.37248903512954711914e-02) (0, 3.78973931074142456055e-01) (1, -8.21585208177566528320e-02) (2, 2.08103835582733154297e-01) (3, 2.54958748817443847656e-01) (4, 1.08332931995391845703e-01) (5, 1.89579874277114868164e-02) (6, -3.28942000865936279297e-01) (7, 9.58406269550323486328e-01) (8, -3.40350195765495300293e-02) (9, 2.97895789146423339844e-01) (10, 1.01602271199226379395e-01) (11, -2.72030711174011230469e-01) (12, -1.23889721930027008057e-01) (13, -1.70918852090835571289e-01) (14, -3.36908757686614990234e-01) (15, 2.21484899520874023438e-03) (16, -1.00290507078170776367e-01) (17, 0.00000000000000000000e+00) (18, -7.09071084856986999512e-02) (19, -1.11761599779129028320e-01) (20, -2.44096666574478149414e-02) (21, -9.34418439865112304688e-02) (22, -3.74675422906875610352e-01) (23, 1.45974993705749511719e-01) (24, 3.37805688381195068359e-01) (25, 1.04871243238449096680e-02) (26, 7.70927369594573974609e-02) (27, -3.54836016893386840820e-01) (28, 2.61206209659576416016e-01) (29, 6.93879246711730957031e-01) (30, -5.43768182396888732910e-02) (31, -3.92156869173049926758e-01) (32, -6.77989006042480468750e-01) (33, -5.49208164215087890625e-01) (34, 3.61768364906311035156e-01) (19, 2.00412511825561523438e-01) (20, 1.59512591361999511719e+00) (21, 1.27208381891250610352e-02) (22, -3.09554666280746459961e-01) (23, -1.20457284152507781982e-01) (24, -6.68466031551361083984e-01) (25, 6.10863029956817626953e-01) (26, -5.74465990066528320312e-01) (27, 5.32238960266113281250e-01) (28, -8.40932726860046386719e-02) (29, -1.35064676403999328613e-01) (30, -7.86708220839500427246e-02) (31, -1.40496522188186645508e-01) (32, -1.40685766935348510742e-01) (33, 8.17815810441970825195e-02) (34, 2.15544775128364562988e-01) (19, 8.54472368955612182617e-02) (20, 9.44284498691558837891e-02) (21, 1.50904250144958496094e+00) (22, -4.48049068450927734375e-01) (23, -4.27419841289520263672e-01) (24, -2.46124267578125000000e-02) (25, 2.22474336624145507812e-03) (26, -4.50917422771453857422e-01) (27, 1.60467475652694702148e-01) (28, -3.83378267288208007812e-02) (29, 2.30394303798675537109e-03) (30, -2.33211949467658996582e-01) (31, 5.40990054607391357422e-01) (32, -5.80468364059925079346e-02) (33, 3.37345242500305175781e-01) (34, -3.91862064599990844727e-01) (19, -5.96145689487457275391e-02) (20, 4.75942865014076232910e-02) (21, -5.37860572338104248047e-01) (22, 2.01897406578063964844e+00) (23, -4.54367458820343017578e-01) (24, -7.84293264150619506836e-02) (25, -9.30565714836120605469e-01) (26, 6.21188759803771972656e-01) (27, 9.37640443444252014160e-02) (28, 2.04364135861396789551e-02) (29, 4.98508587479591369629e-02) (30, 5.54473549127578735352e-02) (31, -3.06567996740341186523e-02) (32, -1.70580148696899414062e-01) (33, -3.22209537029266357422e-01) (34, -5.44984221458435058594e-01) (19, 7.18121886253356933594e-01) (20, 5.22934347391128540039e-02) (21, 3.21101158857345581055e-01) (22, 4.61619585752487182617e-01) (23, 2.49708533287048339844e+00) (24, 1.12979032099246978760e-01) (25, 3.43773961067199707031e-01) (26, -7.66879841685295104980e-02) (27, -4.68676924705505371094e-01) (28, 1.13508529961109161377e-01) (29, -1.52200669050216674805e-01) (30, 3.89951206743717193604e-02) (31, 7.42446407675743103027e-02) (32, -2.63430029153823852539e-02) (33, -1.72838583588600158691e-01) (34, -8.99988636374473571777e-02) (19, -2.19956427812576293945e-01) (20, 6.38339743018150329590e-02) (21, 9.18177589774131774902e-02) (22, -7.94353961944580078125e-01) (23, 3.80220502614974975586e-01) (24, 1.42554044723510742188e+00) (25, -8.83154869079589843750e-02) (26, -2.73086011409759521484e-01) (27, 7.38488882780075073242e-03) (28, 1.31958872079849243164e-01) (29, 4.10441040992736816406e-01) (30, 1.07274204492568969727e-03) (31, 5.64045011997222900391e-01) (32, 6.39654695987701416016e-04) (33, 5.18937170505523681641e-01) (34, -8.14688056707382202148e-02) (19, 4.95609343051910400391e-02) (20, 3.04957106709480285645e-02) (21, -2.67690658569335937500e-01) (22, -4.76190268993377685547e-01) (23, -5.96110522747039794922e-02) (24, -3.03575545549392700195e-01) (25, 3.07083916664123535156e+00) (26, 1.08373530209064483643e-01) (27, 2.85490989685058593750e-01) (28, -9.25369560718536376953e-02) (29, -1.27196699380874633789e-01) (30, 1.11565075814723968506e-01) (31, -3.37446391582489013672e-01) (32, 4.09560501575469970703e-02) (33, 7.83429816365242004395e-02) (34, 5.28146624565124511719e-01) (19, -2.86194741725921630859e-01) (20, -1.49195164442062377930e-01) (21, 2.39854559302330017090e-01) (22, 3.36821019649505615234e-01) (23, 2.18274474143981933594e-01) (24, -4.92848128080368041992e-01) (25, 9.79559794068336486816e-02) (26, 1.20161068439483642578e+00) (27, 2.21539884805679321289e-01) (28, -6.67439341545104980469e-01) (29, -4.02500659227371215820e-01) (30, 6.51584446430206298828e-01) (31, -2.19067394733428955078e-01) (32, -4.72114235162734985352e-02) (33, -5.31054139137268066406e-02) (34, -9.53677892684936523438e-01) (19, 2.69042730331420898438e-01) (20, -1.88017666339874267578e-01) (21, 6.81192457675933837891e-01) (22, -1.39084205031394958496e-01) (23, 1.05016604065895080566e-01) (24, -4.66553598642349243164e-01) (25, -2.06672430038452148438e-01) (26, -5.53488656878471374512e-02) (27, 8.50512981414794921875e-01) (28, 5.05694866180419921875e-01) (29, 5.45241534709930419922e-01) (30, -2.06972435116767883301e-01) (31, 5.92796683311462402344e-01) (32, 4.70181405544281005859e-02) (33, -2.18095332384109497070e-02) (34, -5.13197183609008789062e-02) (19, -1.51217430830001831055e-01) (20, 4.07868266105651855469e-01) (21, -4.07316908240318298340e-02) (22, -4.84380781650543212891e-01) (23, 5.96945047378540039062e-01) (24, -9.55565273761749267578e-03) (25, 9.05413106083869934082e-02) (26, -4.91914391517639160156e-01) (27, 3.10670703649520874023e-01) (28, -6.11331045627593994141e-01) (29, 5.05950093269348144531e-01) (30, -1.64879098534584045410e-01) (31, 2.73930996656417846680e-01) (32, 2.95717239379882812500e-01) (33, 1.15710161626338958740e-01) (34, 6.27974033355712890625e-01) (19, 1.22381925582885742188e+00) (20, 6.48544356226921081543e-02) (21, -1.09423175454139709473e-01) (22, 1.72161042690277099609e-01) (23, -3.57217341661453247070e-03) (24, -3.86464148759841918945e-01) (25, -2.83733308315277099609e-01) (26, 2.32020542025566101074e-01) (27, 2.95174896717071533203e-01) (28, -7.50568509101867675781e-02) (29, -2.91696637868881225586e-02) (30, 2.09220737218856811523e-01) (31, -1.24022290110588073730e-02) (32, -1.01225078105926513672e-03) (33, -7.66977667808532714844e-03) (34, -4.60394322872161865234e-01) (19, -2.89216995239257812500e-01) (20, 4.76052939891815185547e-01) (21, -1.33649721741676330566e-01) (22, -3.26450943946838378906e-01) (23, -6.63355588912963867188e-02) (24, 1.76950186491012573242e-01) (25, 9.45636749267578125000e-01) (26, -2.09225088357925415039e-01) (27, 4.11324143409729003906e-01) (28, -3.06658864021301269531e-01) (29, 3.50430727005004882812e-01) (30, 3.24830114841461181641e-01) (31, 4.49885487556457519531e-01) (32, -1.71497106552124023438e-01) (33, -4.89311367273330688477e-01) (34, 1.83255553245544433594e-01) (35, -4.96598258614540100098e-02) (36, -1.17377650737762451172e+00) (37, -2.70557135343551635742e-01) (38, -4.56264436244964599609e-01) (39, -6.17175325751304626465e-02) (40, -5.56429699063301086426e-02) (41, -1.19745299220085144043e-01) (42, 4.47732433676719665527e-02) (43, 6.02683871984481811523e-02) (44, -2.03239202499389648438e-01) (45, -3.47831726074218750000e-01) (46, 8.18172097206115722656e-01) (47, 6.10949099063873291016e-01) (35, 1.08230434358119964600e-01) (36, -4.20671415328979492188e+00) (37, 4.69256043434143066406e-01) (38, 1.10070854425430297852e-01) (39, 1.37065529823303222656e-01) (40, -8.05177807807922363281e-01) (41, -1.87747806310653686523e-01) (42, 5.97735717892646789551e-02) (43, -6.45822733640670776367e-02) (44, 5.78356742858886718750e-01) (45, -2.54125505685806274414e-01) (46, -7.81508758664131164551e-02) (47, 7.41362094879150390625e-01) (35, -6.65957212448120117188e-01) (36, -4.76599097251892089844e-01) (37, -1.35251712799072265625e+00) (38, -4.44774538278579711914e-01) (39, 6.16958081722259521484e-01) (40, -3.42995896935462951660e-02) (41, -2.10033893585205078125e-01) (42, -5.74841760098934173584e-02) (43, 8.61024186015129089355e-02) (44, 5.10079860687255859375e-01) (45, 2.64715194702148437500e-01) (46, -2.23252922296524047852e-01) (47, -4.72102761268615722656e-01) (35, -7.89828151464462280273e-02) (36, -2.06399607658386230469e+00) (37, 4.60842043161392211914e-01) (38, -1.41362702846527099609e+00) (39, 5.47211647033691406250e-01) (40, -1.61286875605583190918e-01) (41, 7.53463059663772583008e-02) (42, -2.02815234661102294922e-02) (43, -2.62561857700347900391e-01) (44, -2.77127623558044433594e-01) (45, 1.20368987321853637695e-01) (46, -4.40372228622436523438e-02) (47, 5.07649302482604980469e-01) (35, -1.54900401830673217773e-02) (36, -3.74304264783859252930e-01) (37, 4.85980987548828125000e-01) (38, -7.86793902516365051270e-02) (39, 1.40262275934219360352e-01) (40, -2.56176739931106567383e-01) (41, 9.24432873725891113281e-02) (42, 3.69090080261230468750e-01) (43, -7.82292008399963378906e-01) (44, -9.76139008998870849609e-01) (45, 7.31155812740325927734e-01) (46, -2.70570516586303710938e-02) (47, -4.81150567531585693359e-01) (35, 1.22576355934143066406e-02) (36, 4.92226704955101013184e-02) (37, -3.63801211118698120117e-01) (38, 8.86148929595947265625e-01) (39, 1.09853595495223999023e-02) (40, 4.11196172237396240234e-01) (41, 2.23111033439636230469e-01) (42, -2.99869477748870849609e-01) (43, -3.06378975510597229004e-02) (44, -4.62374866008758544922e-01) (45, -7.92141258716583251953e-02) (46, -3.61354351043701171875e-02) (47, 5.80415278673171997070e-02) (35, -7.37631693482398986816e-02) (36, -5.94780027866363525391e-01) (37, 2.83071160316467285156e-01) (38, -4.83058035373687744141e-01) (39, 3.58399093151092529297e-01) (40, 1.93348422646522521973e-01) (41, 1.81245386600494384766e-01) (42, -4.65029299259185791016e-01) (43, 8.15397500991821289062e-02) (44, -3.94283771514892578125e-01) (45, 1.54167413711547851562e-03) (46, 3.59419703483581542969e-01) (47, -3.42844724655151367188e-02) (35, -3.35480242967605590820e-01) (36, 6.32197499275207519531e-01) (37, 4.19432222843170166016e-02) (38, 2.42796540260314941406e-02) (39, 5.25717377662658691406e-01) (40, -9.88412380218505859375e-01) (41, -9.74380970001220703125e-03) (42, 7.00000047683715820312e-01) (43, -1.28421807289123535156e+00) (44, -5.82285821437835693359e-02) (45, 2.75585353374481201172e-02) (46, -3.70398819446563720703e-01) (47, 9.07216668128967285156e-02) (48, -3.97469699382781982422e-01) (49, 0.00000000000000000000e+00) (50, 6.21893048286437988281e-01) (51, 4.76238012313842773438e-01) (52, 7.17338323593139648438e-02) (53, -2.48258709907531738281e-01) (54, -1.41325324773788452148e-01) (55, -5.98152041435241699219e-01) (56, 0.00000000000000000000e+00) (48, 2.87291288375854492188e-01) (49, 2.42582893371582031250e+00) (50, 1.27736464142799377441e-01) (51, -2.73388355970382690430e-01) (52, 0.00000000000000000000e+00) (53, 1.55005276203155517578e-01) (54, 2.96701252460479736328e-01) (55, 0.00000000000000000000e+00) (56, 4.78986740112304687500e-01) (48, -7.55653977394104003906e-02) (49, -1.15746712684631347656e+00) (50, 2.89173316955566406250e+00) (51, 3.23613137006759643555e-01) (52, -4.43088769912719726562e-01) (53, 2.15551912784576416016e-01) (54, 8.05599987506866455078e-03) (55, -6.05968713760375976562e-01) (56, 4.73499238491058349609e-01) (48, -8.73443335294723510742e-02) (49, 0.00000000000000000000e+00) (50, 0.00000000000000000000e+00) (51, 3.48736107349395751953e-01) (52, 4.93988543748855590820e-02) (53, 0.00000000000000000000e+00) (54, 2.79514729976654052734e-01) (55, 1.60406470298767089844e-01) (56, 0.00000000000000000000e+00) (48, -4.28239256143569946289e-02) (49, -2.89672613143920898438e-02) (50, -4.81842160224914550781e-02) (51, -9.74718183279037475586e-02) (52, 3.15399527549743652344e-01) (53, 3.17683219909667968750e-02) (54, -1.63444101810455322266e-01) (55, 5.61876118183135986328e-01) (56, 1.03370070457458496094e+00) (48, -5.60490012168884277344e-01) (49, 3.71715277433395385742e-02) (50, -4.44457590579986572266e-01) (51, 0.00000000000000000000e+00) (52, -2.53498911857604980469e-01) (53, 9.88662600517272949219e-01) (54, -2.37691253423690795898e-01) (55, -1.41832977533340454102e-02) (56, 7.99058496952056884766e-01) (48, 1.25623404979705810547e-01) (49, 3.92186611890792846680e-01) (50, 0.00000000000000000000e+00) (51, -3.24585065245628356934e-02) (52, -2.10105091333389282227e-01) (53, -4.43413019180297851562e-01) (54, 6.87191724777221679688e-01) (55, 2.70550966262817382812e-01) (56, 2.14756339788436889648e-01) (48, -2.70186036825180053711e-01) (49, 3.51584792137145996094e-01) (50, 3.17085385322570800781e-01) (51, -6.18897616863250732422e-01) (52, 1.86773389577865600586e-02) (53, 6.01776003837585449219e-01) (54, 5.97432196140289306641e-01) (55, 6.94384336471557617188e-01) (56, 2.00836896896362304688e-01) 
