FANN_FLO_2.1
num_layers=4
learning_rate=0.700000
connection_rate=1.000000
network_type=0
learning_momentum=0.000000
training_algorithm=2
train_error_function=1
train_stop_function=0
cascade_output_change_fraction=0.010000
quickprop_decay=-0.000100
quickprop_mu=1.750000
rprop_increase_factor=1.200000
rprop_decrease_factor=0.500000
rprop_delta_min=0.000000
rprop_delta_max=50.000000
rprop_delta_zero=0.100000
cascade_output_stagnation_epochs=12
cascade_candidate_change_fraction=0.010000
cascade_candidate_stagnation_epochs=12
cascade_max_out_epochs=150
cascade_min_out_epochs=50
cascade_max_cand_epochs=150
cascade_min_cand_epochs=50
cascade_num_candidate_groups=2
bit_fail_limit=3.49999994039535522461e-01
cascade_candidate_limit=1.00000000000000000000e+03
cascade_weight_multiplier=4.00000005960464477539e-01
cascade_activation_functions_count=10
cascade_activation_functions=3 5 7 8 10 11 14 15 16 17 
cascade_activation_steepnesses_count=4
cascade_activation_steepnesses=2.50000000000000000000e-01 5.00000000000000000000e-01 7.50000000000000000000e-01 1.00000000000000000000e+00 
layer_sizes=12 11 11 10 
scale_included=0
neurons (num_inputs, activation_function, activation_steepness)=(0, 0, 0.00000000000000000000e+00) (0, 0, 0.00000000000000000000e+00) (0, 0, 0.00000000000000000000e+00) (0, 0, 0.00000000000000000000e+00) (0, 0, 0.00000000000000000000e+00) (0, 0, 0.00000000000000000000e+00) (0, 0, 0.00000000000000000000e+00) (0, 0, 0.00000000000000000000e+00) (0, 0, 0.00000000000000000000e+00) (0, 0, 0.00000000000000000000e+00) (0, 0, 0.00000000000000000000e+00) (0, 0, 0.00000000000000000000e+00) (12, 5, 5.00000000000000000000e-01) (12, 5, 5.00000000000000000000e-01) (12, 5, 5.00000000000000000000e-01) (12, 5, 5.00000000000000000000e-01) (12, 5, 5.00000000000000000000e-01) (12, 5, 5.00000000000000000000e-01) (12, 5, 5.00000000000000000000e-01) (12, 5, 5.00000000000000000000e-01) (12, 5, 5.00000000000000000000e-01) (12, 5, 5.00000000000000000000e-01) (0, 5, 0.00000000000000000000e+00) (11, 5, 5.00000000000000000000e-01) (11, 5, 5.00000000000000000000e-01) (11, 5, 5.00000000000000000000e-01) (11, 5, 5.00000000000000000000e-01) (11, 5, 5.00000000000000000000e-01) (11, 5, 5.00000000000000000000e-01) (11, 5, 5.00000000000000000000e-01) (11, 5, 5.00000000000000000000e-01) (11, 5, 5.00000000000000000000e-01) (11, 5, 5.00000000000000000000e-01) (0, 5, 0.00000000000000000000e+00) (11, 5, 5.00000000000000000000e-01) (11, 5, 5.00000000000000000000e-01) (11, 5, 5.00000000000000000000e-01) (11, 5, 5.00000000000000000000e-01) (11, 5, 5.00000000000000000000e-01) (11, 5, 5.00000000000000000000e-01) (11, 5, 5.00000000000000000000e-01) (11, 5, 5.00000000000000000000e-01) (11, 5, 5.00000000000000000000e-01) (0, 5, 0.00000000000000000000e+00) 
connections (connected_to_neuron, weight)=(0, 1.18781542778015136719e+00) (1, 1.28308641910552978516e+00) (2, 5.06666469573974609375e+00) (3, -3.63819330930709838867e-01) (4, -2.95564055442810058594e-01) (5, -5.21116256713867187500e-01) (6, -5.05479812622070312500e-01) (7, -7.97752201557159423828e-01) (8, 5.19621849060058593750e-01) (9, -1.67379677295684814453e-01) (10, -1.68319970369338989258e-01) (11, 1.02620148658752441406e+00) (0, 1.48752820491790771484e+00) (1, 2.92116641998291015625e+00) (2, 4.34773802757263183594e-01) (3, 5.03028750419616699219e-01) (4, -7.99837410449981689453e-01) (5, -1.53622496128082275391e+00) (6, 9.52686607837677001953e-01) (7, -9.93324995040893554688e-01) (8, 2.22941517829895019531e-01) (9, 1.56160485744476318359e+00) (10, 6.43304049968719482422e-01) (11, -1.34109854698181152344e+00) (0, -1.13396716117858886719e+00) (1, -4.79305171966552734375e+00) (2, 1.51119005680084228516e+00) (3, 5.39683640003204345703e-01) (4, 3.78056347370147705078e-01) (5, -3.25940227508544921875e+00) (6, 9.26659226417541503906e-01) (7, 2.68378853797912597656e-02) (8, 1.66416108608245849609e-01) (9, -1.63202852010726928711e-01) (10, -2.58312177658081054688e+00) (11, 2.06555515527725219727e-01) (0, 6.41403555870056152344e-01) (1, 4.87175941467285156250e-01) (2, -8.78016173839569091797e-01) (3, 1.76980721950531005859e+00) (4, 1.08860397338867187500e+00) (5, -6.09254717826843261719e-01) (6, -4.46710675954818725586e-01) (7, 2.68425256013870239258e-01) (8, 2.28065878152847290039e-01) (9, 3.92181724309921264648e-01) (10, -7.55121886730194091797e-01) (11, -1.38687717914581298828e+00) (0, 1.27354836463928222656e+00) (1, -7.83292293548583984375e-01) (2, -3.06534528732299804688e-01) (3, -7.28934526443481445312e-01) (4, 8.93956720829010009766e-01) (5, -4.55388963222503662109e-01) (6, -7.42027163505554199219e-02) (7, -8.96355152130126953125e-01) (8, -1.35719478130340576172e-02) (9, 4.19647783041000366211e-01) (10, 3.49613815546035766602e-01) (11, 8.14864695072174072266e-01) (0, 1.63714253902435302734e+00) (1, -9.25484538078308105469e-01) (2, -1.24310791492462158203e+00) (3, -1.77773058414459228516e+00) (4, 2.37845778465270996094e-01) (5, 1.16206951141357421875e+01) (6, -5.80962479114532470703e-01) (7, 3.47239613533020019531e-01) (8, -9.63643193244934082031e-03) (9, -5.67962050437927246094e-01) (10, -1.31733953952789306641e-01) (11, 1.12302529811859130859e+00) (0, 8.44533741474151611328e-01) (1, 5.98285794258117675781e-02) (2, 4.24238622188568115234e-01) (3, -8.20285558700561523438e-01) (4, 9.25637185573577880859e-02) (5, -6.25970065593719482422e-01) (6, -7.27161645889282226562e-01) (7, -3.09432804584503173828e-01) (8, -3.77946019172668457031e-01) (9, 8.48043560981750488281e-01) (10, -6.19563341140747070312e+00) (11, -1.41781592369079589844e+00) (0, -1.41468167304992675781e-01) (1, -4.26353305578231811523e-01) (2, -9.60911929607391357422e-01) (3, -8.20695757865905761719e-01) (4, -2.45967268943786621094e-01) (5, 2.50049233436584472656e+00) (6, 1.33792102336883544922e-01) (7, 1.19424314498901367188e+01) (8, 1.11320948600769042969e+00) (9, -8.77548098564147949219e-01) (10, 8.97146940231323242188e-01) (11, 4.25806969404220581055e-01) (0, -1.03190064430236816406e+00) (1, 1.60417652130126953125e+00) (2, -6.75474107265472412109e-02) (3, 1.84076398611068725586e-01) (4, -1.72867155075073242188e+00) (5, -1.49704146385192871094e+00) (6, -4.74618732929229736328e-01) (7, 3.31541776657104492188e-01) (8, -5.33734917640686035156e-01) (9, 2.90707826614379882812e-01) (10, 6.18491053581237792969e-01) (11, -2.39701175689697265625e+00) (0, 2.58184701204299926758e-01) (1, 1.07028913497924804688e+00) (2, -1.24101889133453369141e+00) (3, 5.74335098266601562500e-01) (4, -1.15484416484832763672e-01) (5, 1.67486071586608886719e-03) (6, 2.09280443191528320312e+00) (7, -1.48116558790206909180e-01) (8, 7.54308819770812988281e-01) (9, -7.24672555923461914062e-01) (10, -1.05510163307189941406e+00) (11, 2.27804899215698242188e+00) (12, 3.86850428581237792969e+00) (13, 1.11940145492553710938e+00) (14, 2.04972177743911743164e-01) (15, -1.54472315311431884766e+00) (16, 5.96297085285186767578e-01) (17, -7.00868129730224609375e-01) (18, -1.57156705856323242188e-01) (19, -7.91618227958679199219e-01) (20, 6.56592011451721191406e-01) (21, 9.14824843406677246094e-01) (22, 9.51705574989318847656e-02) (12, -2.86566495895385742188e-01) (13, 6.84716880321502685547e-01) (14, -2.82562822103500366211e-01) (15, 5.71130454540252685547e-01) (16, -1.31138849258422851562e+00) (17, 2.67863214015960693359e-01) (18, -1.60159826278686523438e-01) (19, 1.35660302639007568359e+00) (20, -4.60752427577972412109e-01) (21, -4.33482795953750610352e-01) (22, -1.77545762062072753906e+00) (12, -7.31466174125671386719e-01) (13, -2.11472988128662109375e-01) (14, -5.10899424552917480469e-01) (15, 4.14711654186248779297e-01) (16, -2.01910138130187988281e+00) (17, -1.08725309371948242188e-01) (18, -2.08223128318786621094e+00) (19, 6.59483373165130615234e-01) (20, 9.64554607868194580078e-01) (21, 5.56738376617431640625e-01) (22, -2.16850399971008300781e-01) (12, 1.55212730169296264648e-01) (13, 4.86917376518249511719e-01) (14, -1.61534440517425537109e+00) (15, -1.59560203552246093750e-01) (16, 3.88997554779052734375e+00) (17, -7.94375479221343994141e-01) (18, -5.31900525093078613281e-02) (19, 2.01912403106689453125e+00) (20, -2.73113787174224853516e-01) (21, -1.15904235839843750000e+00) (22, 1.09741568565368652344e-01) (12, -1.66396594047546386719e+00) (13, 1.12231284379959106445e-01) (14, 2.91754364967346191406e-01) (15, -7.47056961059570312500e-01) (16, -6.58488178253173828125e+00) (17, 6.98906123638153076172e-01) (18, -2.01144903898239135742e-01) (19, 1.75699234008789062500e+00) (20, -3.83580982685089111328e-01) (21, -7.34859287738800048828e-01) (22, 1.52797698974609375000e-02) (12, 7.41045534610748291016e-01) (13, 8.61813962459564208984e-01) (14, 1.26418399810791015625e+00) (15, 3.53695929050445556641e-01) (16, 2.10558080673217773438e+00) (17, -1.05226206779479980469e+00) (18, 9.47705030441284179688e-01) (19, 3.44793200492858886719e-02) (20, -8.76401066780090332031e-02) (21, 1.04029536247253417969e-01) (22, 1.61214780807495117188e+00) (12, 5.50616979598999023438e-01) (13, 4.14233446121215820312e-01) (14, -1.46730542182922363281e-01) (15, -1.78492176532745361328e+00) (16, -9.64760661125183105469e-01) (17, -4.77008193731307983398e-01) (18, 7.22832679748535156250e-01) (19, 6.40167415142059326172e-01) (20, 1.28534078598022460938e-01) (21, -3.86140167713165283203e-01) (22, 8.88235688209533691406e-01) (12, -2.34116315841674804688e-01) (13, -1.27081108093261718750e+00) (14, -2.25544989109039306641e-01) (15, -1.14064669609069824219e+00) (16, 1.14085769653320312500e+00) (17, 1.63273453712463378906e+00) (18, -9.36452388763427734375e-01) (19, -5.58670196533203125000e+01) (20, 2.07714259624481201172e-01) (21, 1.33827710151672363281e+00) (22, 1.03516948223114013672e+00) (12, 1.29757642745971679688e-01) (13, 8.33220541477203369141e-01) (14, 2.30716526508331298828e-01) (15, -9.14178848266601562500e-01) (16, -1.53855252265930175781e+00) (17, -2.05700516700744628906e-01) (18, 5.78759074211120605469e-01) (19, 3.36003589630126953125e+00) (20, 6.82586729526519775391e-02) (21, -3.07095956802368164062e+00) (22, -1.15956580638885498047e+00) (12, -7.62500405311584472656e-01) (13, 1.83727145195007324219e+00) (14, -6.31326913833618164062e-01) (15, 1.22434890270233154297e+00) (16, -4.67513620853424072266e-01) (17, 9.26428139209747314453e-02) (18, -7.09048509597778320312e-02) (19, -7.41484701633453369141e-01) (20, 8.88252556324005126953e-01) (21, -8.26305568218231201172e-01) (22, 4.52646940946578979492e-01) (23, -2.10846114158630371094e+00) (24, -3.81399631500244140625e-01) (25, 9.44091975688934326172e-01) (26, 1.38682484626770019531e-01) (27, -3.78117501735687255859e-01) (28, 7.10154592990875244141e-01) (29, 2.08095073699951171875e-01) (30, -8.68700146675109863281e-01) (31, 8.30014038085937500000e+00) (32, 9.94205057621002197266e-01) (33, 1.08243370056152343750e+00) (23, -8.16958332061767578125e+00) (24, -3.26669192314147949219e+00) (25, -8.30455541610717773438e-01) (26, -1.51756733655929565430e-01) (27, 6.48629248142242431641e-01) (28, -2.58317857980728149414e-01) (29, 9.95127260684967041016e-02) (30, 3.02483677864074707031e-01) (31, 6.75204992294311523438e-01) (32, -2.58535981178283691406e-01) (33, 2.25206524133682250977e-01) (23, -1.02700889110565185547e-01) (24, -1.46419554948806762695e-01) (25, 8.10083150863647460938e-02) (26, -4.41722661256790161133e-01) (27, -2.71777868270874023438e-01) (28, 5.97319960594177246094e-01) (29, 6.72266364097595214844e-01) (30, -2.50688123703002929688e+00) (31, 2.27577877044677734375e+00) (32, 1.81522816419601440430e-01) (33, -7.35222339630126953125e-01) (23, -1.02829420566558837891e+00) (24, 6.39400482177734375000e-02) (25, 7.17263638973236083984e-01) (26, 4.79469251632690429688e+00) (27, 1.09874272346496582031e+00) (28, 2.08938169479370117188e+00) (29, 3.69442403316497802734e-01) (30, -4.83076244592666625977e-01) (31, -3.50025594234466552734e-01) (32, -5.13872814178466796875e+00) (33, -5.78478455543518066406e-01) (23, -1.91300094127655029297e-01) (24, -3.33045542240142822266e-01) (25, 1.83201587200164794922e+00) (26, 1.64177453517913818359e+00) (27, 6.18484544754028320312e+00) (28, 6.06873989105224609375e-01) (29, 2.54145359992980957031e+00) (30, 1.76199436187744140625e+00) (31, 2.89101648330688476562e+00) (32, 5.06600856781005859375e-01) (33, -1.46635866165161132812e+00) (23, 7.69129216670989990234e-01) (24, 1.81790196895599365234e+00) (25, 4.45798188447952270508e-01) (26, -1.97605681419372558594e+00) (27, -1.90801143646240234375e-01) (28, 2.39235973358154296875e+00) (29, 1.22570800781250000000e+00) (30, -9.58235859870910644531e-01) (31, -9.51598107814788818359e-01) (32, -6.16873860359191894531e-01) (33, 9.42630708217620849609e-01) (23, 7.35738635063171386719e-01) (24, -9.15324211120605468750e-01) (25, 1.72661006450653076172e-01) (26, -1.70648610591888427734e+00) (27, -8.75051617622375488281e-02) (28, -1.78445708751678466797e+00) (29, 7.27165937423706054688e-02) (30, -7.77355074882507324219e-01) (31, 4.19894814491271972656e-01) (32, 8.98763537406921386719e-03) (33, 4.94171649217605590820e-01) (23, -5.52077651023864746094e-01) (24, -2.66574949026107788086e-01) (25, 1.30824947357177734375e+00) (26, 4.80268836021423339844e-01) (27, -1.01637983322143554688e+00) (28, 7.64100253582000732422e-02) (29, 2.95588314533233642578e-01) (30, 3.90103459358215332031e+00) (31, -6.25594735145568847656e-01) (32, -2.01328426599502563477e-01) (33, 2.50713229179382324219e-01) (23, -3.16492557525634765625e-01) (24, -8.48853588104248046875e-01) (25, -7.55651235580444335938e-01) (26, 8.73406767845153808594e-01) (27, -3.46884012222290039062e+00) (28, 9.54855561256408691406e-01) (29, -7.22321629524230957031e-01) (30, 7.45803356170654296875e-01) (31, -1.60011589527130126953e-01) (32, -1.69217705726623535156e-01) (33, 1.63009941577911376953e-01) 