FANN_FLO_2.1
num_layers=4
learning_rate=0.700000
connection_rate=1.000000
network_type=0
learning_momentum=0.000000
training_algorithm=2
train_error_function=1
train_stop_function=0
cascade_output_change_fraction=0.010000
quickprop_decay=-0.000100
quickprop_mu=1.750000
rprop_increase_factor=1.200000
rprop_decrease_factor=0.500000
rprop_delta_min=0.000000
rprop_delta_max=50.000000
rprop_delta_zero=0.100000
cascade_output_stagnation_epochs=12
cascade_candidate_change_fraction=0.010000
cascade_candidate_stagnation_epochs=12
cascade_max_out_epochs=150
cascade_min_out_epochs=50
cascade_max_cand_epochs=150
cascade_min_cand_epochs=50
cascade_num_candidate_groups=2
bit_fail_limit=3.49999994039535522461e-01
cascade_candidate_limit=1.00000000000000000000e+03
cascade_weight_multiplier=4.00000005960464477539e-01
cascade_activation_functions_count=10
cascade_activation_functions=3 5 7 8 10 11 14 15 16 17 
cascade_activation_steepnesses_count=4
cascade_activation_steepnesses=2.50000000000000000000e-01 5.00000000000000000000e-01 7.50000000000000000000e-01 1.00000000000000000000e+00 
layer_sizes=13 12 12 12 
scale_included=0
neurons (num_inputs, activation_function, activation_steepness)=(0, 0, 0.00000000000000000000e+00) (0, 0, 0.00000000000000000000e+00) (0, 0, 0.00000000000000000000e+00) (0, 0, 0.00000000000000000000e+00) (0, 0, 0.00000000000000000000e+00) (0, 0, 0.00000000000000000000e+00) (0, 0, 0.00000000000000000000e+00) (0, 0, 0.00000000000000000000e+00) (0, 0, 0.00000000000000000000e+00) (0, 0, 0.00000000000000000000e+00) (0, 0, 0.00000000000000000000e+00) (0, 0, 0.00000000000000000000e+00) (0, 0, 0.00000000000000000000e+00) (13, 5, 5.00000000000000000000e-01) (13, 5, 5.00000000000000000000e-01) (13, 5, 5.00000000000000000000e-01) (13, 5, 5.00000000000000000000e-01) (13, 5, 5.00000000000000000000e-01) (13, 5, 5.00000000000000000000e-01) (13, 5, 5.00000000000000000000e-01) (13, 5, 5.00000000000000000000e-01) (13, 5, 5.00000000000000000000e-01) (13, 5, 5.00000000000000000000e-01) (13, 5, 5.00000000000000000000e-01) (0, 5, 0.00000000000000000000e+00) (12, 5, 5.00000000000000000000e-01) (12, 5, 5.00000000000000000000e-01) (12, 5, 5.00000000000000000000e-01) (12, 5, 5.00000000000000000000e-01) (12, 5, 5.00000000000000000000e-01) (12, 5, 5.00000000000000000000e-01) (12, 5, 5.00000000000000000000e-01) (12, 5, 5.00000000000000000000e-01) (12, 5, 5.00000000000000000000e-01) (12, 5, 5.00000000000000000000e-01) (12, 5, 5.00000000000000000000e-01) (0, 5, 0.00000000000000000000e+00) (12, 5, 5.00000000000000000000e-01) (12, 5, 5.00000000000000000000e-01) (12, 5, 5.00000000000000000000e-01) (12, 5, 5.00000000000000000000e-01) (12, 5, 5.00000000000000000000e-01) (12, 5, 5.00000000000000000000e-01) (12, 5, 5.00000000000000000000e-01) (12, 5, 5.00000000000000000000e-01) (12, 5, 5.00000000000000000000e-01) (12, 5, 5.00000000000000000000e-01) (12, 5, 5.00000000000000000000e-01) (0, 5, 0.00000000000000000000e+00) 
connections (connected_to_neuron, weight)=(0, 9.67241823673248291016e-01) (1, 1.47303938865661621094e-01) (2, 2.24215567111968994141e-01) (3, -1.05478525161743164062e+00) (4, -5.92823982238769531250e-01) (5, -1.12045669555664062500e+00) (6, 2.75021374225616455078e-01) (7, 1.36459901928901672363e-01) (8, -5.24342238903045654297e-01) (9, -1.75117421150207519531e+00) (10, -4.20474529266357421875e+00) (11, 6.23284876346588134766e-02) (12, -6.58131062984466552734e-01) (0, 6.25480890274047851562e-01) (1, 1.80762362480163574219e+00) (2, 4.12723749876022338867e-01) (3, 1.10422158241271972656e+00) (4, -2.19457954168319702148e-01) (5, 6.17145478725433349609e-01) (6, 1.47433519363403320312e+00) (7, 1.33854830265045166016e+00) (8, 4.34492081403732299805e-01) (9, -2.42638573050498962402e-01) (10, -8.26249361038208007812e-01) (11, 3.53691190481185913086e-01) (12, 1.22160387039184570312e+00) (0, 1.86495137214660644531e+00) (1, -9.79667186737060546875e-01) (2, 5.70509986877441406250e+01) (3, 6.75689280033111572266e-02) (4, -1.62113273143768310547e+00) (5, -4.14285808801651000977e-01) (6, 1.49713754653930664062e-01) (7, 6.74811244010925292969e-01) (8, 1.00336980819702148438e+00) (9, -1.83290386199951171875e+00) (10, -2.68157124519348144531e+00) (11, 3.12943220138549804688e-01) (12, -5.00367641448974609375e-01) (0, -7.49065041542053222656e-01) (1, 6.37993872165679931641e-01) (2, -8.49642872810363769531e-01) (3, -7.60165929794311523438e-01) (4, 1.04220080375671386719e+00) (5, 2.08637729287147521973e-01) (6, -9.93230044841766357422e-01) (7, -2.06670582294464111328e-01) (8, 3.51194739341735839844e-01) (9, 4.80623304843902587891e-01) (10, 1.08746558427810668945e-01) (11, -2.47014462947845458984e-02) (12, -2.34005618095397949219e+00) (0, -7.29652583599090576172e-01) (1, -1.56847923994064331055e-01) (2, 1.73978954553604125977e-01) (3, -7.36247301101684570312e-01) (4, 1.63612121582031250000e+02) (5, -4.27501380443572998047e-01) (6, -2.82763808965682983398e-01) (7, -1.66884648799896240234e+00) (8, 9.97461915016174316406e-01) (9, 6.89558804035186767578e-01) (10, -4.89333820343017578125e+00) (11, 1.07629454135894775391e+00) (12, 9.44044411182403564453e-01) (0, -1.77435135841369628906e+00) (1, -8.34145069122314453125e-01) (2, -3.35505962371826171875e-01) (3, -2.45638370513916015625e+00) (4, 3.59441757202148437500e-01) (5, 4.70894182400000000000e+10) (6, -6.66806161403656005859e-01) (7, -5.84903001785278320312e-01) (8, -8.78164231777191162109e-01) (9, 5.00750124454498291016e-01) (10, 1.19788789749145507812e+00) (11, -2.29189395904541015625e-02) (12, -2.10127234458923339844e-02) (0, -2.17161923646926879883e-01) (1, 1.15565145015716552734e+00) (2, -1.74823999404907226562e+00) (3, -2.69190311431884765625e-01) (4, 8.07467877864837646484e-01) (5, 1.35825920104980468750e+00) (6, 1.53645362854003906250e+01) (7, -2.70752131938934326172e-01) (8, 1.46761143207550048828e+00) (9, -4.31622922420501708984e-01) (10, 9.92910563945770263672e-02) (11, -6.45525932312011718750e-01) (12, -1.73615539073944091797e+00) (0, -5.42977273464202880859e-01) (1, -7.07519650459289550781e-02) (2, 8.25500130653381347656e-01) (3, 1.02230942249298095703e+00) (4, 5.93455731868743896484e-01) (5, 2.34616726636886596680e-01) (6, -1.28820776939392089844e+00) (7, 6.39718170166015625000e+01) (8, 7.80721604824066162109e-01) (9, -7.91032671928405761719e-01) (10, 3.49759876728057861328e-01) (11, -1.86497718095779418945e-02) (12, 4.21357303857803344727e-01) (0, -1.61668205261230468750e+00) (1, -7.76762962341308593750e-01) (2, -6.99718236923217773438e-01) (3, 9.99146640300750732422e-01) (4, 8.51638555526733398438e-01) (5, -1.22712910175323486328e+00) (6, 2.00928807258605957031e-01) (7, 8.94445538520812988281e-01) (8, 1.76116447448730468750e+01) (9, 1.41105383634567260742e-01) (10, 5.03804147243499755859e-01) (11, 4.25425380468368530273e-01) (12, 1.19799160957336425781e+00) (0, 6.75066471099853515625e-01) (1, 5.99391460418701171875e-02) (2, -3.83617162704467773438e-01) (3, -2.51027441024780273438e+00) (4, -6.08620762825012207031e-01) (5, -4.81523633003234863281e-01) (6, -9.03223395347595214844e-01) (7, 2.86130845546722412109e-01) (8, -1.14983618259429931641e-01) (9, 4.84998245239257812500e+01) (10, -8.85156929492950439453e-01) (11, -3.28657597303390502930e-01) (12, -9.94782626628875732422e-01) (0, -9.87339794635772705078e-01) (1, 1.09887588024139404297e+00) (2, -5.25137484073638916016e-01) (3, -1.29926943778991699219e+00) (4, 3.53293269872665405273e-01) (5, 1.30459594726562500000e+00) (6, 7.08412766456604003906e-01) (7, 8.40564608573913574219e-01) (8, -3.85375589132308959961e-01) (9, 1.14864790439605712891e+00) (10, 7.10176277160644531250e+00) (11, -3.31473886966705322266e-01) (12, 1.31963825225830078125e+00) (13, 8.41823577880859375000e-01) (14, 4.19392883777618408203e-02) (15, 1.06792926788330078125e-01) (16, 4.51117694377899169922e-01) (17, -3.82320761680603027344e-01) (18, 6.61522269248962402344e-01) (19, -2.43948966264724731445e-01) (20, -6.20002388954162597656e-01) (21, 7.99920797348022460938e-01) (22, 7.89598166942596435547e-01) (23, 1.48435485363006591797e+00) (24, -5.47430634498596191406e-01) (13, -2.50562667846679687500e+00) (14, -7.84387707710266113281e-01) (15, -6.77916812896728515625e+00) (16, 1.12358450889587402344e+00) (17, 2.34766674041748046875e+01) (18, -7.92205333709716796875e-01) (19, 6.13339543342590332031e-02) (20, -3.80020976066589355469e-01) (21, -5.18775820732116699219e-01) (22, 1.49505460262298583984e+00) (23, -1.38967365026473999023e-01) (24, -3.25677871704101562500e-01) (13, -4.83158469200134277344e-01) (14, 2.85654813051223754883e-01) (15, 8.29064548015594482422e-02) (16, 9.54950749874114990234e-02) (17, 3.37549114227294921875e+00) (18, -8.09167504310607910156e-01) (19, 8.38938176631927490234e-01) (20, -4.92919057607650756836e-01) (21, -5.29903352260589599609e-01) (22, 2.40496730804443359375e+00) (23, -1.08538341522216796875e+00) (24, -5.01200973987579345703e-01) (13, 1.11538279056549072266e+00) (14, 6.57532662153244018555e-02) (15, 5.05102634429931640625e-01) (16, 3.59070152044296264648e-01) (17, 3.93859446048736572266e-02) (18, 1.16334414482116699219e+00) (19, -9.89005565643310546875e-01) (20, -9.06396567821502685547e-01) (21, -1.23267680406570434570e-01) (22, -3.12913209199905395508e-01) (23, 9.14703369140625000000e-01) (24, 9.33718323707580566406e-01) (13, 3.15967321395874023438e-01) (14, -7.24856674671173095703e-01) (15, -2.25335150957107543945e-01) (16, 5.26434421539306640625e-01) (17, -5.47083234786987304688e+00) (18, -2.05991238355636596680e-01) (19, 8.28790307044982910156e-01) (20, -1.72673881053924560547e-01) (21, 6.89343869686126708984e-01) (22, -5.12539207935333251953e-01) (23, 6.31051242351531982422e-01) (24, -8.10024440288543701172e-02) (13, 2.07849144935607910156e+00) (14, 1.35843718051910400391e+00) (15, 1.41219115257263183594e+00) (16, 1.57619893550872802734e-01) (17, 3.75715345144271850586e-01) (18, -1.50953521728515625000e+01) (19, -1.55538797378540039062e+00) (20, 8.07788193225860595703e-01) (21, -8.66821646690368652344e-01) (22, 6.82789742946624755859e-01) (23, 2.77673602104187011719e-02) (24, -9.40205276012420654297e-01) (13, 1.42539036273956298828e+00) (14, -1.66275405883789062500e+00) (15, -4.74710375070571899414e-01) (16, 3.13601553440093994141e-01) (17, 8.79907250404357910156e-01) (18, 5.78217625617980957031e-01) (19, 4.05762434005737304688e-01) (20, -3.73273342847824096680e-01) (21, -8.47286641597747802734e-01) (22, -1.91924154758453369141e-01) (23, 6.05415821075439453125e-01) (24, -1.43426090478897094727e-01) (13, -7.59949088096618652344e-02) (14, 4.30186718702316284180e-01) (15, -2.11245477199554443359e-01) (16, -5.67339241504669189453e-01) (17, 6.03059053421020507812e-01) (18, -1.34596419334411621094e+00) (19, 4.96719837188720703125e-01) (20, -6.05326766967773437500e+01) (21, 1.53635489940643310547e+00) (22, -2.75802612304687500000e-02) (23, 1.30349516868591308594e+00) (24, -1.55957072973251342773e-01) (13, 1.88974905014038085938e+00) (14, 1.41982805728912353516e+00) (15, -1.88603639602661132812e-01) (16, -1.42998397350311279297e+00) (17, -5.96189796924591064453e-01) (18, -2.50943422317504882812e-01) (19, -6.40183925628662109375e-01) (20, -1.10676729679107666016e+00) (21, -3.25189530849456787109e-01) (22, -8.33498716354370117188e-01) (23, 2.70771592855453491211e-01) (24, -2.55284428596496582031e+00) (13, 4.03986632823944091797e-01) (14, 1.01221597194671630859e+00) (15, -6.26434266567230224609e-01) (16, -3.36932241916656494141e-02) (17, -7.40047156810760498047e-01) (18, -5.99931538105010986328e-01) (19, -1.57276380062103271484e+00) (20, 6.50257945060729980469e-01) (21, -8.45144212245941162109e-01) (22, -1.25040483474731445312e+00) (23, 1.12463951110839843750e+00) (24, -4.51623171567916870117e-01) (13, 1.42081677913665771484e+00) (14, -1.06803035736083984375e+00) (15, 2.71528989076614379883e-01) (16, 6.38170838356018066406e-01) (17, 8.06047499179840087891e-01) (18, -4.42759484052658081055e-01) (19, -1.39784812927246093750e-02) (20, 2.51204073429107666016e-01) (21, 1.43915688991546630859e+00) (22, -2.40719228982925415039e-01) (23, -1.93901288509368896484e+00) (24, 9.53629374504089355469e-01) (25, -1.27561688423156738281e-02) (26, 1.98080599308013916016e-01) (27, 4.43257033824920654297e-01) (28, -7.38767385482788085938e-01) (29, 9.98230576515197753906e-02) (30, -6.72927379608154296875e-01) (31, -1.05671495199203491211e-01) (32, 1.71033188700675964355e-01) (33, -2.26279422640800476074e-01) (34, -1.25024628639221191406e+00) (35, 7.03393101692199707031e-01) (36, -2.50248312950134277344e-01) (25, -7.00784087181091308594e-01) (26, 4.05357265472412109375e+00) (27, -5.38706779479980468750e-01) (28, -1.52724480628967285156e+00) (29, 3.12577068805694580078e-01) (30, -1.69258952140808105469e-01) (31, 3.21917593479156494141e-01) (32, -3.26680541038513183594e-01) (33, 1.17341399192810058594e+00) (34, -2.55328750610351562500e+00) (35, 8.82308542728424072266e-01) (36, -7.61351585388183593750e-01) (25, 5.14400720596313476562e-01) (26, -2.66274958848953247070e-01) (27, 1.95122966766357421875e+01) (28, 8.18412840366363525391e-01) (29, 4.37515676021575927734e-01) (30, -2.45679259300231933594e-01) (31, 1.69181227684020996094e-01) (32, 1.36439776420593261719e+00) (33, 5.39624691009521484375e-02) (34, -5.54740071296691894531e-01) (35, -4.60799425840377807617e-01) (36, 4.19206589460372924805e-01) (25, 1.41603618860244750977e-01) (26, -1.06436014175415039062e+00) (27, -1.50992953777313232422e+00) (28, 5.43573200702667236328e-02) (29, 1.02667182683944702148e-01) (30, 5.27295827865600585938e-01) (31, -8.12510728836059570312e-01) (32, -3.18167418241500854492e-01) (33, -7.41407990455627441406e-01) (34, 1.14567017555236816406e+00) (35, 1.27999579906463623047e+00) (36, 1.99625372886657714844e+00) (25, 4.59103286266326904297e-02) (26, 1.00802659988403320312e+00) (27, -8.91624391078948974609e-01) (28, -2.98253506422042846680e-01) (29, 2.10183429718017578125e+01) (30, -1.11427390575408935547e+00) (31, 1.80979102849960327148e-01) (32, 8.58199715614318847656e-01) (33, -5.97373843193054199219e-01) (34, 1.33644080162048339844e+00) (35, -1.71851068735122680664e-01) (36, -2.20750927925109863281e-01) (25, -2.08473831415176391602e-01) (26, -9.62615966796875000000e-01) (27, -5.61528921127319335938e-01) (28, 3.56863170862197875977e-01) (29, 4.54963970184326171875e+00) (30, 3.88430213928222656250e+01) (31, 1.83511376380920410156e-02) (32, -4.47891354560852050781e-01) (33, -1.07446372509002685547e-01) (34, 4.22520190477371215820e-01) (35, -2.03265619277954101562e+00) (36, 1.46553725004196166992e-01) (25, -1.06615364551544189453e-01) (26, -1.93429589271545410156e-01) (27, 2.33253860473632812500e+00) (28, -1.64456784725189208984e-01) (29, -2.58179903030395507812e-01) (30, 8.90727639198303222656e-02) (31, 1.48529142141342163086e-01) (32, -7.79987096786499023438e-01) (33, 4.78475868701934814453e-01) (34, 6.58904254436492919922e-01) (35, 1.01560974121093750000e+00) (36, 6.45131766796112060547e-02) (25, 6.53783321380615234375e-01) (26, 8.83054375648498535156e-01) (27, 6.14819645881652832031e-01) (28, 4.70510989427566528320e-01) (29, -1.32344639301300048828e+00) (30, 4.05150055885314941406e-02) (31, -3.66687893867492675781e-01) (32, 4.28988790512084960938e+00) (33, -6.32363200187683105469e-01) (34, -1.17598748207092285156e+00) (35, 6.00674152374267578125e-01) (36, -6.88256978988647460938e-01) (25, -4.52253669500350952148e-01) (26, -3.57972383499145507812e-02) (27, -6.97233021259307861328e-01) (28, -1.92807346582412719727e-01) (29, -8.71260285377502441406e-01) (30, 8.55724364519119262695e-02) (31, 6.13158047199249267578e-01) (32, -1.49542748928070068359e-01) (33, -6.09971284866333007812e-01) (34, 4.01799559593200683594e-01) (35, 4.54967945814132690430e-01) (36, -6.96415126323699951172e-01) (25, 5.13209342956542968750e-01) (26, -3.35799992084503173828e-01) (27, -6.27755045890808105469e-01) (28, -2.43735015392303466797e-01) (29, -1.55955374240875244141e-01) (30, -2.44893884658813476562e+00) (31, -2.54147082567214965820e-01) (32, 6.95618987083435058594e-02) (33, 1.69913321733474731445e-01) (34, 6.42195415496826171875e+00) (35, 1.12992548942565917969e+00) (36, -9.81013834476470947266e-01) (25, -8.44189047813415527344e-01) (26, -7.20706284046173095703e-02) (27, 9.81180131435394287109e-01) (28, -1.94789183139801025391e+00) (29, 9.89972949028015136719e-02) (30, -3.98365914821624755859e-01) (31, -8.46235811710357666016e-01) (32, 3.16111356019973754883e-01) (33, -8.83698105812072753906e-01) (34, -1.34398114681243896484e+00) (35, 4.26960220336914062500e+01) (36, -4.81840372085571289062e-01) 
