FANN_FLO_2.1
num_layers=4
learning_rate=0.700000
connection_rate=1.000000
network_type=0
learning_momentum=0.000000
training_algorithm=2
train_error_function=1
train_stop_function=0
cascade_output_change_fraction=0.010000
quickprop_decay=-0.000100
quickprop_mu=1.750000
rprop_increase_factor=1.200000
rprop_decrease_factor=0.500000
rprop_delta_min=0.000000
rprop_delta_max=50.000000
rprop_delta_zero=0.100000
cascade_output_stagnation_epochs=12
cascade_candidate_change_fraction=0.010000
cascade_candidate_stagnation_epochs=12
cascade_max_out_epochs=150
cascade_min_out_epochs=50
cascade_max_cand_epochs=150
cascade_min_cand_epochs=50
cascade_num_candidate_groups=2
bit_fail_limit=3.49999994039535522461e-01
cascade_candidate_limit=1.00000000000000000000e+03
cascade_weight_multiplier=4.00000005960464477539e-01
cascade_activation_functions_count=10
cascade_activation_functions=3 5 7 8 10 11 14 15 16 17 
cascade_activation_steepnesses_count=4
cascade_activation_steepnesses=2.50000000000000000000e-01 5.00000000000000000000e-01 7.50000000000000000000e-01 1.00000000000000000000e+00 
layer_sizes=13 9 9 9 
scale_included=0
neurons (num_inputs, activation_function, activation_steepness)=(0, 0, 0.00000000000000000000e+00) (0, 0, 0.00000000000000000000e+00) (0, 0, 0.00000000000000000000e+00) (0, 0, 0.00000000000000000000e+00) (0, 0, 0.00000000000000000000e+00) (0, 0, 0.00000000000000000000e+00) (0, 0, 0.00000000000000000000e+00) (0, 0, 0.00000000000000000000e+00) (0, 0, 0.00000000000000000000e+00) (0, 0, 0.00000000000000000000e+00) (0, 0, 0.00000000000000000000e+00) (0, 0, 0.00000000000000000000e+00) (0, 0, 0.00000000000000000000e+00) (13, 5, 5.00000000000000000000e-01) (13, 5, 5.00000000000000000000e-01) (13, 5, 5.00000000000000000000e-01) (13, 5, 5.00000000000000000000e-01) (13, 5, 5.00000000000000000000e-01) (13, 5, 5.00000000000000000000e-01) (13, 5, 5.00000000000000000000e-01) (13, 5, 5.00000000000000000000e-01) (0, 5, 0.00000000000000000000e+00) (9, 5, 5.00000000000000000000e-01) (9, 5, 5.00000000000000000000e-01) (9, 5, 5.00000000000000000000e-01) (9, 5, 5.00000000000000000000e-01) (9, 5, 5.00000000000000000000e-01) (9, 5, 5.00000000000000000000e-01) (9, 5, 5.00000000000000000000e-01) (9, 5, 5.00000000000000000000e-01) (0, 5, 0.00000000000000000000e+00) (9, 5, 5.00000000000000000000e-01) (9, 5, 5.00000000000000000000e-01) (9, 5, 5.00000000000000000000e-01) (9, 5, 5.00000000000000000000e-01) (9, 5, 5.00000000000000000000e-01) (9, 5, 5.00000000000000000000e-01) (9, 5, 5.00000000000000000000e-01) (9, 5, 5.00000000000000000000e-01) (0, 5, 0.00000000000000000000e+00) 
connections (connected_to_neuron, weight)=(0, 1.33929550647735595703e-01) (1, 5.15591800212860107422e-02) (2, -7.14222043752670288086e-02) (3, 5.33092021942138671875e-01) (4, 5.90405464172363281250e-01) (5, 7.70734697580337524414e-02) (6, 1.17926210165023803711e-01) (7, 5.99134445190429687500e-01) (8, 1.19975820183753967285e-01) (9, 5.03076553344726562500e-01) (10, -1.12807846069335937500e+00) (11, 6.99550330638885498047e-01) (12, 6.06933683156967163086e-02) (0, 2.70207487046718597412e-02) (1, -3.93321588635444641113e-02) (2, -6.11651465296745300293e-02) (3, 5.22501289844512939453e-01) (4, -1.54338926076889038086e-01) (5, -1.91705912351608276367e-01) (6, -3.19286644458770751953e-01) (7, -1.86154037714004516602e-01) (8, -1.62108838558197021484e-01) (9, 3.98552983999252319336e-01) (10, 8.90520155429840087891e-01) (11, -2.60907918214797973633e-01) (12, -5.43762624263763427734e-01) (0, 1.75001978874206542969e-01) (1, 3.24032723903656005859e-01) (2, 1.25796109437942504883e-01) (3, 2.31057703495025634766e-01) (4, -1.49494260549545288086e-02) (5, 1.12666398286819458008e-01) (6, 3.15176159143447875977e-01) (7, 3.36009085178375244141e-01) (8, -1.00691422820091247559e-01) (9, -1.16205620765686035156e+00) (10, 7.58656919002532958984e-01) (11, -6.64079725742340087891e-01) (12, 8.53299945592880249023e-02) (0, 2.51836478710174560547e-01) (1, 3.03115516901016235352e-01) (2, 5.17715334892272949219e-01) (3, 4.94047701358795166016e-01) (4, 2.81505286693572998047e-01) (5, 3.48043531179428100586e-01) (6, 9.80917096138000488281e-01) (7, 6.37898296117782592773e-02) (8, 2.69625127315521240234e-01) (9, -5.00688612461090087891e-01) (10, -9.98028278350830078125e-01) (11, 6.69353723526000976562e-01) (12, 5.28666615486145019531e-01) (0, -2.50374257564544677734e-01) (1, 3.78105580806732177734e-01) (2, -2.69174128770828247070e-01) (3, 3.68812799453735351562e-01) (4, 5.99463820457458496094e-01) (5, -3.68900299072265625000e-02) (6, 4.35563921928405761719e-01) (7, 3.34765285253524780273e-01) (8, 8.36502909660339355469e-01) (9, -2.36526083946228027344e+00) (10, 1.27567425370216369629e-01) (11, 1.91781952977180480957e-01) (12, 1.01080131530761718750e+00) (0, 2.45236039161682128906e-01) (1, 4.60421741008758544922e-01) (2, -3.42627227306365966797e-01) (3, -1.23987078666687011719e-01) (4, 5.94513833522796630859e-01) (5, 6.58085346221923828125e-02) (6, 1.88771098852157592773e-01) (7, 8.62952172756195068359e-02) (8, 4.40536618232727050781e-01) (9, -2.28496146202087402344e+00) (10, 8.48044514656066894531e-01) (11, 1.07228308916091918945e-01) (12, 4.59229826927185058594e-01) (0, 9.09112691879272460938e-01) (1, 3.67881417274475097656e-01) (2, -8.24786722660064697266e-03) (3, 1.89171269536018371582e-01) (4, -4.19942557811737060547e-01) (5, 4.45628404617309570312e-01) (6, 2.73207575082778930664e-02) (7, 3.30500066280364990234e-01) (8, 5.54179728031158447266e-01) (9, -9.71980214118957519531e-01) (10, -3.36654782295227050781e-02) (11, -2.59942591190338134766e-01) (12, -1.34819343686103820801e-01) (0, 3.14507007598876953125e-01) (1, -5.20076379179954528809e-02) (2, -2.73568809032440185547e-01) (3, 1.66650772094726562500e-01) (4, 2.50240445137023925781e-01) (5, 1.16491079330444335938e-01) (6, -1.01491570472717285156e-01) (7, -1.72962680459022521973e-01) (8, -1.97755247354507446289e-01) (9, -2.27218151092529296875e-01) (10, 1.89313840866088867188e+00) (11, -7.88112998008728027344e-01) (12, 3.28405261039733886719e-01) (13, 9.81279611587524414062e-02) (14, 1.40452921390533447266e-01) (15, 5.47802746295928955078e-01) (16, -8.71770024299621582031e-01) (17, 6.14420056343078613281e-01) (18, 7.23862648010253906250e-01) (19, 4.13922965526580810547e-01) (20, 1.01229763031005859375e+00) (21, 6.48131489753723144531e-01) (13, -2.57812529802322387695e-01) (14, 3.20172488689422607422e-01) (15, 5.13551831245422363281e-01) (16, -9.51021537184715270996e-03) (17, 4.97574359178543090820e-01) (18, 1.19779884815216064453e+00) (19, -5.74061393737792968750e-01) (20, 6.93504333496093750000e-01) (21, -1.70249566435813903809e-01) (13, 7.77413845062255859375e-01) (14, 7.98486232757568359375e-01) (15, -3.21660578250885009766e-01) (16, 1.81267380714416503906e-01) (17, -3.58089804649353027344e-02) (18, -1.13722026348114013672e+00) (19, -6.82646632194519042969e-02) (20, -6.33851706981658935547e-01) (21, 2.90222316980361938477e-01) (13, -2.50822067260742187500e-01) (14, -1.27718657255172729492e-01) (15, 1.50256967544555664062e+00) (16, -2.08454251289367675781e-01) (17, 3.22805285453796386719e-01) (18, 1.49947130680084228516e+00) (19, 1.25903403759002685547e+00) (20, 3.57950150966644287109e-01) (21, -4.87025111913681030273e-01) (13, -2.43965387344360351562e-01) (14, -1.52384296059608459473e-01) (15, 4.94569242000579833984e-01) (16, 1.41209691762924194336e-01) (17, 5.59887528419494628906e-01) (18, 1.35135006904602050781e+00) (19, 5.39570152759552001953e-01) (20, 1.10279202461242675781e+00) (21, 1.17892727255821228027e-01) (13, 1.34309315681457519531e+00) (14, -9.81143355369567871094e-01) (15, -1.33892208337783813477e-01) (16, 5.53802192211151123047e-01) (17, 7.83815860748291015625e-01) (18, 2.65522658824920654297e-01) (19, 1.65138751268386840820e-01) (20, -2.52514863014221191406e+00) (21, -3.30742537975311279297e-01) (13, 1.17974853515625000000e+00) (14, -3.74555110931396484375e-01) (15, 1.81559026241302490234e-02) (16, 6.36033654212951660156e-01) (17, 1.51271617412567138672e+00) (18, 7.07249164581298828125e-01) (19, 2.88397252559661865234e-01) (20, -4.15560722351074218750e-01) (21, 2.30506315827369689941e-01) (13, -5.88884711265563964844e-01) (14, -1.54364258050918579102e-01) (15, 5.04287123680114746094e-01) (16, 5.24889469146728515625e-01) (17, 4.17172342538833618164e-01) (18, 1.33187747001647949219e+00) (19, 7.77423322200775146484e-01) (20, 8.16862583160400390625e-02) (21, 2.34957084059715270996e-01) (22, -6.42504215240478515625e-01) (23, -6.87148392200469970703e-01) (24, 7.49623596668243408203e-01) (25, -1.95767784118652343750e+00) (26, -3.75569760799407958984e-01) (27, -6.57731890678405761719e-02) (28, -5.74101328849792480469e-01) (29, -4.39556330442428588867e-01) (30, 2.21957549452781677246e-01) (22, 1.81244239211082458496e-02) (23, 5.86977064609527587891e-01) (24, -1.02609372138977050781e+00) (25, 4.03208851814270019531e-01) (26, 1.47451758384704589844e-01) (27, 2.64352083206176757812e+00) (28, 3.04724663496017456055e-01) (29, 9.25017058849334716797e-01) (30, -1.23450383543968200684e-01) (22, -2.38505005836486816406e-02) (23, 7.05958724021911621094e-01) (24, -3.14949035644531250000e-01) (25, -1.06119382381439208984e+00) (26, 1.83383613824844360352e-01) (27, -1.86783695220947265625e+00) (28, -6.97062611579895019531e-01) (29, -3.60746800899505615234e-01) (30, 1.06000125408172607422e-01) (22, 7.00246989727020263672e-01) (23, 3.08895409107208251953e-02) (24, -1.27840685844421386719e+00) (25, 1.29578971862792968750e+00) (26, 6.86398386955261230469e-01) (27, -3.20279628038406372070e-01) (28, -5.66392540931701660156e-01) (29, 8.34879338741302490234e-01) (30, 7.36618280410766601562e-01) (22, -5.71718692779541015625e-01) (23, 4.99454021453857421875e-01) (24, 2.41245962679386138916e-02) (25, -1.19396835565567016602e-01) (26, -2.99892187118530273438e-01) (27, -4.16091144084930419922e-01) (28, -1.12610906362533569336e-01) (29, -3.29033017158508300781e-01) (30, 2.69853264093399047852e-01) (22, -1.40068739652633666992e-01) (23, -8.57081115245819091797e-02) (24, -1.94177106022834777832e-02) (25, 7.51073002815246582031e-01) (26, 4.62662875652313232422e-01) (27, -7.14142799377441406250e-01) (28, 4.47703242301940917969e-01) (29, -1.17673039436340332031e-01) (30, 3.95392507314682006836e-01) (22, -4.81739416718482971191e-02) (23, 1.87745273113250732422e-01) (24, -5.60191124677658081055e-02) (25, 1.17094844579696655273e-01) (26, -5.43364286422729492188e-02) (27, 1.35567650198936462402e-01) (28, -7.88239359855651855469e-01) (29, -9.15871784090995788574e-02) (30, 6.21146559715270996094e-01) (22, -7.72860050201416015625e-02) (23, 2.67270743846893310547e-01) (24, 1.84668019413948059082e-01) (25, -1.70907497406005859375e-01) (26, -8.03243219852447509766e-02) (27, 7.75284469127655029297e-02) (28, -1.23112857341766357422e-01) (29, 2.02846258878707885742e-01) (30, 3.78567039966583251953e-01) 
